svm_type nu_svc
kernel_type polynomial
degree 3
gamma 1
coef0 0
nr_class 2
total_sv 1320
rho -1.05173
label 1 0
nr_sv 660 660
SV
1.850853170442526e-41 1:744458.58 2:1018.9618 3:1385.5861 4:1467.3076 5:1225.8852 6:1383.9273 7:1229.5217 8:867.63931 9:801.13808 10:710.96409 11:592.89985 12:445.7713 13:347.97337 14:302.40022 15:300.20787 16:295.91589 17:174.43732 18:118.73512 19:84.40261 20:48.859937 21:25.674918 22:13.896689 23:9.9749187 24:5.7995155 25:2.9950266 
1.850853170442526e-41 1:746109.6 2:1119.7141 3:1134.1135 4:1138.8896 5:855.03637 6:1045.3678 7:1042.7315 8:894.88125 9:767.84494 10:690.03491 11:548.63962 12:363.15046 13:288.24352 14:284.44392 15:280.97058 16:275.04982 17:220.42018 18:165.4925 19:128.95623 20:69.568604 21:30.499466 22:24.436528 23:10.159337 24:4.5507973 25:2.655657 
1.850853170442526e-41 1:746556.24 2:1501.2917 3:1166.903 4:1373.6069 5:1266.0712 6:1067.9195 7:897.31215 8:887.25772 9:940.07967 10:1013.2846 11:779.56391 12:425.41715 13:315.944 14:288.78934 15:282.39853 16:195.16621 17:152.40487 18:151.58756 19:88.948274 20:49.240113 21:34.365655 22:20.207409 23:8.6268579 24:6.7760852 25:6.8210882 
1.850853170442526e-41 1:750447.41 2:1931.3398 3:1323.8176 4:1186.6464 5:1040.7054 6:1078.7154 7:1198.1818 8:1330.0784 9:1246.9874 10:998.41734 11:722.22335 12:401.82536 13:313.71491 14:325.81901 15:283.50841 16:205.85651 17:176.75638 18:130.05169 19:91.619258 20:74.226846 21:35.103756 22:19.777922 23:13.979012 24:10.611579 25:10.204065 
1.850853170442526e-41 1:752148.12 2:1499.544 3:1511.3965 4:1347.7147 5:685.14538 6:807.11611 7:861.47518 8:690.03576 9:803.86602 10:843.86193 11:627.21215 12:511.9862 13:368.6875 14:266.13131 15:241.94614 16:239.56836 17:173.56591 18:116.10056 19:83.602723 20:60.118122 21:37.333421 22:19.033577 23:9.534661 24:7.3104481 25:6.6160159 
1.850853170442526e-41 1:751383.08 2:1752.4423 3:1383.1744 4:1083.4097 5:870.70118 6:999.30202 7:855.06614 8:663.07 9:860.18667 10:831.00684 11:626.31876 12:528.81417 13:351.1575 14:259.26981 15:219.79448 16:236.26246 17:193.34445 18:129.61202 19:83.548603 20:53.456475 21:32.145059 22:17.735273 23:8.6721971 24:6.1170147 25:4.8846287 
1.850853170442526e-41 1:754677.84 2:2040.3658 3:1276.2606 4:1138.8343 5:957.25623 6:782.97496 7:547.85413 8:529.08488 9:810.5102 10:880.91549 11:515.77343 12:315.13223 13:454.9549 14:433.33365 15:290.51942 16:208.26925 17:133.22052 18:140.10865 19:96.385564 20:58.317809 21:33.763502 22:20.20417 23:18.375392 24:15.481931 25:14.703153 
1.850853170442526e-41 1:755713.7 2:2603.8634 3:1899.9487 4:1319.5241 5:1136.6967 6:1076.3387 7:844.94564 8:656.51415 9:608.1309 10:652.51687 11:532.98846 12:375.01645 13:302.82392 14:387.48103 15:387.65657 16:228.30597 17:135.18168 18:91.218516 19:73.075611 20:41.994372 21:31.940045 22:20.40049 23:11.420003 24:7.0833359 25:6.6291811 
1.850853170442526e-41 1:750488.71 2:1210.7945 3:1317.7469 4:1214.213 5:976.69699 6:1030.1532 7:860.37763 8:753.7657 9:670.423 10:563.76347 11:483.70996 12:339.52169 13:321.94878 14:303.96343 15:210.91198 16:194.90981 17:170.3875 18:140.4788 19:84.701544 20:64.235214 21:42.575542 22:26.31402 23:14.429136 24:12.129263 25:13.250872 
1.850853170442526e-41 1:750058.62 2:1933.5757 3:1770.623 4:1366.5379 5:781.91009 6:744.85383 7:713.43201 8:731.2972 9:775.24557 10:571.98408 11:593.27015 12:467.68139 13:320.93909 14:381.82938 15:344.98038 16:240.1368 17:172.10803 18:119.03489 19:74.93378 20:47.895824 21:26.608083 22:18.443415 23:11.583124 24:5.9248319 25:3.5120146 
1.850853170442526e-41 1:746793.7 2:1611.5497 3:1146.4329 4:1533.4576 5:1376.2721 6:980.56029 7:935.21785 8:1283.2506 9:1215.4794 10:923.51744 11:589.24938 12:354.17759 13:343.23935 14:260.08624 15:249.15361 16:286.60886 17:189.04456 18:126.92594 19:95.673187 20:59.258313 21:30.344542 22:17.584938 23:11.401318 24:5.9051423 25:2.8930769 
1.850853170442526e-41 1:748855.26 2:1605.5467 3:1774.9742 4:1373.9788 5:533.06357 6:583.95504 7:743.59111 8:963.42913 9:1150.523 10:811.62237 11:455.63203 12:459.13624 13:395.96409 14:354.81184 15:350.61265 16:290.73022 17:178.31271 18:96.315943 19:63.662092 20:46.674654 21:34.645832 22:21.977346 23:7.488186 24:4.7185873 25:4.3111834 
1.850853170442526e-41 1:749010.79 2:1875.7868 3:1031.7663 4:874.54763 5:713.30513 6:853.99119 7:914.76955 8:739.79024 9:840.03877 10:762.70107 11:440.54699 12:400.85427 13:391.51005 14:281.79659 15:269.18539 16:261.30119 17:175.24825 18:121.15325 19:67.640949 20:46.231323 21:32.443931 22:25.95961 23:16.473961 24:11.570378 25:9.8454574 
1.850853170442526e-41 1:746069.85 2:1607.7595 3:1205.5664 4:1217.5693 5:1077.5608 6:1044.8895 7:940.75204 8:741.43959 9:822.72363 10:744.04767 11:452.14982 12:333.13725 13:307.83934 14:248.31146 15:267.29528 16:250.47014 17:149.66471 18:83.007154 19:62.601394 20:49.661749 21:30.02346 22:20.132349 23:9.8898335 24:5.0053471 25:2.85367 
1.850853170442526e-41 1:744072.94 2:1269.031 3:932.98555 4:871.98686 5:953.30867 6:1075.637 7:863.17309 8:740.48315 9:826.40879 10:586.93107 11:476.40419 12:431.27071 13:337.20031 14:297.75703 15:265.73238 16:217.22777 17:153.48033 18:97.58251 19:51.431632 20:35.292455 21:26.681914 22:16.724995 23:13.060865 24:5.7201733 25:3.6595706 
1.850853170442526e-41 1:742280.55 2:1576.009 3:1515.8959 4:1271.2762 5:924.1385 6:765.13797 7:965.25375 8:786.35838 9:642.30054 10:613.35976 11:464.16203 12:466.83069 13:398.8039 14:336.41009 15:315.99346 16:205.47877 17:105.86906 18:90.600391 19:65.268882 20:52.410962 21:30.759935 22:14.126439 23:9.5959472 24:4.3543073 25:2.4002036 
1.850853170442526e-41 1:740261.86 2:2087.0673 3:1534.8301 4:1216.0942 5:1129.7621 6:1008.3854 7:932.83454 8:871.07567 9:700.32921 10:695.88262 11:640.25788 12:391.32803 13:254.56024 14:316.2256 15:266.52244 16:154.89174 17:137.54498 18:128.9958 19:88.132016 20:54.652494 21:31.223497 22:19.921878 23:10.198906 24:5.4130249 25:3.153557 
1.850853170442526e-41 1:738215.5 2:2234.4236 3:1589.1162 4:1735.0156 5:1613.3354 6:1538.7629 7:1159.4722 8:920.85157 9:1158.883 10:910.50765 11:664.81086 12:579.73462 13:425.97551 14:463.8609 15:420.08537 16:324.79677 17:261.04921 18:181.94621 19:83.607577 20:55.352928 21:45.373924 22:39.689852 23:27.918194 24:23.959122 25:24.835076 
1.850853170442526e-41 1:734215.48 2:2056.4593 3:1866.1638 4:1769.6305 5:1443.7637 6:1260.1041 7:1134.2103 8:956.8261 9:1150.7224 10:1269.1873 11:938.10828 12:547.77269 13:417.2039 14:502.22568 15:531.85023 16:403.96103 17:246.60717 18:167.57648 19:116.51401 20:71.65529 21:35.230808 22:24.138251 23:12.310986 24:8.4638988 25:6.4862763 
1.850853170442526e-41 1:736123.21 2:1612.9818 3:1759.8725 4:1678.6348 5:1417.2062 6:1245.0402 7:1133.0842 8:999.57936 9:1053.9726 10:846.96985 11:469.65213 12:420.16808 13:373.84202 14:410.17158 15:399.3927 16:330.62868 17:241.04434 18:143.87762 19:85.990881 20:49.079857 21:25.165535 22:22.020871 23:19.761809 24:20.126279 25:20.249355 
1.850853170442526e-41 1:740461.58 2:1167.5747 3:1154.0425 4:1160.8457 5:1070.3335 6:933.60461 7:825.24391 8:785.94745 9:835.62823 10:620.41839 11:426.86952 12:425.08744 13:354.19019 14:353.31147 15:322.52948 16:259.55568 17:150.17474 18:67.245455 19:39.401308 20:45.851712 21:35.964624 22:18.693997 23:7.9707795 24:4.7965556 25:4.4810091 
1.850853170442526e-41 1:736974.77 2:1485.3785 3:1423.9493 4:1424.598 5:1033.2164 6:969.66804 7:974.38258 8:876.76093 9:770.1644 10:749.90592 11:571.66548 12:429.65629 13:367.37318 14:316.0859 15:320.23499 16:234.21914 17:139.47256 18:119.28804 19:86.981525 20:65.051086 21:41.507561 22:21.229186 23:13.781107 24:9.6030527 25:10.626587 
1.850853170442526e-41 1:734916.92 2:1910.0589 3:1556.7293 4:1489.6531 5:949.52954 6:937.95632 7:1095.9845 8:788.72857 9:698.11271 10:847.52633 11:597.20049 12:491.46996 13:428.45488 14:292.41598 15:332.62858 16:298.56686 17:164.96373 18:116.66799 19:95.920115 20:57.807169 21:32.890237 22:14.540488 23:9.5861653 24:6.6095145 25:5.2705359 
1.850853170442526e-41 1:732453.2 2:1433.9584 3:1569.8074 4:1575.5984 5:1281.4031 6:1249.0563 7:986.95681 8:576.06276 9:845.69781 10:654.63216 11:326.17083 12:409.27256 13:300.52325 14:289.57048 15:330.00162 16:291.61727 17:205.53751 18:108.78205 19:58.165434 20:43.783325 21:42.1657 22:26.211312 23:8.8142062 24:4.6994468 25:2.81164 
1.850853170442526e-41 1:732944.71 2:1694.8039 3:1643.4935 4:1435.654 5:967.84845 6:806.2101 7:957.40131 8:878.40927 9:814.63896 10:856.92674 11:598.65384 12:512.94195 13:450.55016 14:338.98411 15:291.59653 16:249.8287 17:160.60497 18:123.54793 19:74.112443 20:45.019292 21:29.369804 22:18.465576 23:8.9926943 24:4.2099756 25:2.9372946 
1.850853170442526e-41 1:733803.96 2:1469.082 3:1238.7979 4:1120.1375 5:938.50644 6:890.21963 7:679.63251 8:531.69589 9:798.51212 10:868.16969 11:538.50876 12:371.44656 13:380.08163 14:404.02119 15:260.39129 16:182.96078 17:165.7894 18:121.69743 19:61.318278 20:35.976603 21:26.917446 22:17.059705 23:9.2455788 24:6.6843102 25:4.9024838 
1.850853170442526e-41 1:731478.26 2:1285.0089 3:1262.4778 4:1141.2732 5:859.80778 6:587.02576 7:626.95236 8:677.99499 9:595.44675 10:525.36053 11:374.41091 12:289.10236 13:345.79564 14:334.3158 15:238.35163 16:210.36305 17:146.73268 18:90.237824 19:83.48129 20:58.69209 21:30.166042 22:14.04657 23:6.9385772 24:3.4737337 25:2.4849061 
1.850853170442526e-41 1:733314.12 2:1020.4367 3:1257.3256 4:1289.2984 5:898.208 6:979.08923 7:1078.5806 8:936.01875 9:793.68718 10:598.77838 11:329.00238 12:266.24416 13:323.70543 14:326.3563 15:301.96211 16:258.38868 17:185.55449 18:95.24361 19:57.863717 20:46.960581 21:19.805318 22:12.870895 23:8.2086659 24:4.3301766 25:2.7304838 
1.850853170442526e-41 1:731907.03 2:1377.1819 3:1328.1006 4:1376.8801 5:906.23149 6:880.38756 7:780.59223 8:521.24079 9:690.27919 10:641.50902 11:371.39795 12:292.95721 13:277.27834 14:326.34836 15:334.90484 16:223.85724 17:116.29617 18:94.515767 19:75.157235 20:45.792088 21:26.789668 22:23.776448 23:11.084483 24:4.8850922 25:3.881591 
1.850853170442526e-41 1:734249.28 2:1369.7101 3:1178.9149 4:1251.1176 5:1293.2573 6:1063.8081 7:597.03456 8:535.40002 9:679.44982 10:594.43595 11:489.47631 12:363.18583 13:380.44177 14:369.17222 15:271.29609 16:228.01032 17:140.64888 18:108.26139 19:87.224151 20:65.642235 21:36.370092 22:17.3503 23:11.159857 24:8.017412 25:6.1489672 
1.850853170442526e-41 1:736950.9 2:1114.0466 3:1138.6931 4:912.58686 5:821.32705 6:1136.5766 7:989.70022 8:738.17883 9:632.61263 10:714.92278 11:664.36107 12:443.9461 13:352.26968 14:223.41677 15:227.81515 16:253.2824 17:160.71753 18:124.12974 19:85.525956 20:47.724303 21:33.076183 22:17.7677 23:12.240904 24:7.8830661 25:6.0196699 
1.850853170442526e-41 1:737802.06 2:1188.2245 3:1603.912 4:1288.3057 5:840.77798 6:729.12136 7:643.70952 8:741.00576 9:636.47222 10:530.43925 11:500.00455 12:425.0722 13:317.31921 14:260.39041 15:257.19249 16:208.08929 17:126.33564 18:89.355258 19:91.795057 20:57.329494 21:22.492935 22:15.400203 23:9.8049005 24:6.659796 25:5.4280485 
1.850853170442526e-41 1:736996.9 2:1250.9247 3:1402.4281 4:1370.3983 5:940.81734 6:652.89401 7:745.48318 8:947.51342 9:921.44021 10:698.64893 11:495.13428 12:484.25643 13:422.13545 14:324.3649 15:271.91776 16:228.22606 17:147.30676 18:123.51362 19:88.140401 20:57.49649 21:34.078287 22:18.597779 23:9.3057227 24:6.3580412 25:6.0571478 
1.850853170442526e-41 1:738125.29 2:1578.0755 3:942.02428 4:990.79567 5:1164.5968 6:967.99224 7:631.88642 8:759.94058 9:858.44339 10:716.05639 11:631.67428 12:443.58755 13:327.44255 14:285.04447 15:291.6023 16:247.10163 17:147.66959 18:69.790103 19:55.204575 20:42.568671 21:32.383077 22:18.614184 23:9.8355442 24:5.3511587 25:3.342033 
1.850853170442526e-41 1:739306.04 2:1339.4235 3:1186.9271 4:1150.1188 5:894.79381 6:811.96515 7:885.46194 8:751.93819 9:715.51065 10:596.83807 11:449.86388 12:380.09258 13:294.8745 14:287.07158 15:248.4079 16:227.49118 17:151.08272 18:112.3945 19:87.731759 20:41.110188 21:28.70801 22:18.303982 23:10.938961 24:9.6338372 25:9.0774139 
1.850853170442526e-41 1:738747.18 2:1663.9679 3:1477.3659 4:1077.1521 5:656.88198 6:660.09103 7:652.952 8:674.51566 9:831.42226 10:551.62633 11:461.64472 12:412.87724 13:261.27588 14:262.58138 15:249.76312 16:198.417 17:149.09886 18:112.98982 19:76.196655 20:45.734734 21:33.435895 22:17.696238 23:8.4294304 24:5.0609042 25:4.9594229 
1.850853170442526e-41 1:743959.51 2:1686.122 3:1200.7246 4:1231.1851 5:916.39238 6:772.38025 7:639.57015 8:732.7157 9:770.24184 10:553.8228 11:378.89026 12:321.3247 13:275.59351 14:240.05888 15:274.41869 16:270.75666 17:165.68705 18:128.92145 19:82.785994 20:46.039657 21:35.57016 22:23.833259 23:11.246223 24:5.04386 25:3.4449316 
1.850853170442526e-41 1:742559.73 2:1372.9227 3:1190.4001 4:1153.0097 5:869.33142 6:699.34592 7:827.63321 8:711.63449 9:812.49429 10:746.86611 11:402.73213 12:318.78494 13:243.82012 14:256.00973 15:328.42933 16:235.15487 17:127.49328 18:116.96046 19:82.6631 20:65.975228 21:29.84208 22:13.748313 23:8.327648 24:4.2017006 25:3.516018 
1.850853170442526e-41 1:744928.2 2:1119.7234 3:1411.4383 4:1250.4284 5:792.95412 6:895.48771 7:721.94525 8:699.1936 9:750.18322 10:567.64876 11:422.70083 12:407.62115 13:327.01486 14:282.38111 15:314.9602 16:239.16901 17:141.54439 18:119.79172 19:86.670968 20:59.402421 21:31.384826 22:18.281088 23:6.7094798 24:3.4715511 25:2.9314752 
1.850853170442526e-41 1:744380.89 2:1221.5796 3:1128.7114 4:1097.6834 5:989.31352 6:878.64307 7:704.33077 8:608.82138 9:675.83361 10:722.67097 11:601.88512 12:363.67974 13:278.17192 14:301.79043 15:276.14623 16:248.51592 17:141.45787 18:81.285115 19:74.470619 20:54.416436 21:29.874001 22:13.301624 23:5.5010066 24:4.8414297 25:4.3793852 
1.850853170442526e-41 1:745409.4 2:1599.7187 3:1211.6592 4:1069.0959 5:1163.9154 6:1030.2324 7:719.2131 8:557.95189 9:630.11332 10:571.79608 11:431.45932 12:353.66034 13:283.45138 14:305.5582 15:271.86956 16:193.62063 17:133.38557 18:120.12334 19:68.835041 20:39.885889 21:27.62955 22:17.854612 23:12.794324 24:9.1220322 25:7.8950285 
1.850853170442526e-41 1:746615.58 2:1117.1554 3:1065.7644 4:982.07868 5:823.01154 6:849.12202 7:609.7079 8:582.28107 9:721.96274 10:579.61606 11:358.19552 12:252.66709 13:266.81993 14:265.79064 15:190.87713 16:161.31148 17:115.73066 18:79.759807 19:57.90038 20:39.261103 21:24.130655 22:15.238102 23:10.681073 24:8.252064 25:8.0049176 
1.850853170442526e-41 1:745878.92 2:1064.2421 3:1236.4699 4:1430.1319 5:1001.2656 6:724.32178 7:702.10675 8:687.76232 9:567.40308 10:448.69991 11:413.02807 12:443.42502 13:358.42953 14:251.34805 15:227.20368 16:266.81071 17:189.71923 18:107.96251 19:68.874949 20:43.646054 21:33.276234 22:16.266698 23:9.5769181 24:5.1680534 25:4.0479672 
1.850853170442526e-41 1:744494.68 2:1675.0559 3:1742.4855 4:1292.6026 5:799.63185 6:966.84568 7:863.7899 8:891.82455 9:817.9952 10:588.58424 11:487.2455 12:359.41529 13:261.49146 14:295.61424 15:282.04284 16:235.2143 17:150.04301 18:100.46841 19:81.141619 20:48.409838 21:31.596793 22:21.280422 23:10.351242 24:5.0102797 25:3.9293782 
1.850853170442526e-41 1:742653.97 2:1555.2099 3:1351.7529 4:1154.2708 5:867.05327 6:920.46351 7:1168.6702 8:994.88096 9:761.19163 10:820.77125 11:593.55263 12:367.04958 13:291.15802 14:262.22833 15:223.78706 16:165.81242 17:72.833888 18:58.169539 19:59.30887 20:49.853868 21:39.586166 22:16.146053 23:7.8622388 24:6.191776 25:5.8426858 
1.850853170442526e-41 1:743557.91 2:1511.2235 3:1385.1077 4:1497.6126 5:1032.732 6:819.32391 7:797.99899 8:715.78185 9:778.50947 10:628.96574 11:454.41325 12:378.49969 13:274.92568 14:291.87505 15:272.41175 16:215.11855 17:148.15355 18:103.99307 19:68.48277 20:47.465064 21:35.527288 22:16.902922 23:8.3039855 24:6.7018062 25:5.2883501 
1.850853170442526e-41 1:744306.3 2:1381.1909 3:1566.0786 4:1326.7002 5:841.92487 6:920.71333 7:875.76686 8:746.12636 9:771.37547 10:789.83156 11:554.41937 12:309.03784 13:323.62985 14:366.4539 15:296.91313 16:192.4231 17:130.67178 18:110.72746 19:84.99631 20:51.095499 21:34.29008 22:20.633919 23:12.405587 24:11.648839 25:12.3068 
1.850853170442526e-41 1:743450.3 2:1719.9037 3:1617.0802 4:1183.7368 5:772.41682 6:745.14293 7:787.87755 8:729.31894 9:631.17159 10:635.89648 11:488.89259 12:281.98923 13:289.86055 14:415.43361 15:378.38128 16:243.74465 17:138.50639 18:109.18655 19:85.661713 20:51.162015 21:30.460904 22:20.416952 23:8.5399016 24:6.2671247 25:3.0655483 
1.850853170442526e-41 1:744865.35 2:994.29123 3:1244.2429 4:1236.3231 5:823.69069 6:855.77282 7:683.70124 8:561.12482 9:812.96037 10:642.21685 11:373.04836 12:282.7299 13:252.04532 14:222.63836 15:256.73592 16:200.22627 17:85.56642 18:89.368025 19:80.85364 20:61.470923 21:44.228854 22:30.566168 23:20.951307 24:18.127181 25:18.66713 
1.850853170442526e-41 1:748003.52 2:1498.3322 3:1202.1013 4:1081.6899 5:890.8629 6:691.67447 7:564.90558 8:710.09729 9:775.78086 10:550.3671 11:453.01852 12:466.60757 13:402.52807 14:318.23295 15:183.75396 16:172.29272 17:154.23147 18:73.822267 19:41.532477 20:35.593255 21:33.173698 22:19.78822 23:9.7595962 24:6.4643359 25:5.5587528 
1.850853170442526e-41 1:748205.41 2:1609.2012 3:1247.0332 4:1083.9023 5:870.3354 6:835.16458 7:775.76392 8:685.52036 9:652.84351 10:628.30358 11:495.26071 12:357.76938 13:206.46817 14:239.03097 15:267.14101 16:282.50909 17:194.24676 18:68.451226 19:60.486303 20:49.913646 21:23.229343 22:17.30568 23:9.7721973 24:5.4086555 25:2.6248167 
1.850853170442526e-41 1:748180.41 2:1266.1677 3:1201.1291 4:1045.7067 5:684.96774 6:743.22129 7:932.23153 8:754.17406 9:682.5975 10:556.23662 11:372.50398 12:389.09813 13:384.83836 14:312.98945 15:242.08205 16:223.59152 17:129.56685 18:95.447351 19:77.249079 20:61.291536 21:49.393144 22:37.100659 23:35.907939 24:31.292532 25:28.684508 
1.850853170442526e-41 1:740241.2 2:1330.6492 3:1369.5719 4:1304.9293 5:680.87877 6:789.33432 7:880.81833 8:733.23401 9:783.14737 10:687.64254 11:403.23512 12:251.51379 13:192.25845 14:268.57112 15:281.89261 16:186.02226 17:155.61884 18:135.80564 19:76.617014 20:49.109549 21:31.995296 22:19.743681 23:20.437911 24:18.840795 25:16.29493 
1.850853170442526e-41 1:740379.59 2:1436.3961 3:1042.3225 4:855.78061 5:760.4589 6:956.63484 7:834.69592 8:593.17118 9:706.7796 10:730.00142 11:517.95609 12:326.93941 13:272.16422 14:243.61956 15:200.95247 16:195.45177 17:138.69622 18:94.968004 19:64.124277 20:40.452987 21:34.360155 22:27.057186 23:19.09655 24:18.840364 25:19.85969 
1.850853170442526e-41 1:741018.98 2:1471.0568 3:1472.2106 4:947.90475 5:779.47971 6:1113.71 7:1027.9702 8:638.78794 9:663.06663 10:626.11578 11:476.29667 12:355.91786 13:273.95549 14:267.2385 15:198.85991 16:170.48007 17:144.74277 18:117.15632 19:74.103008 20:41.862177 21:32.502961 22:22.414355 23:10.258092 24:5.4872026 25:3.1177756 
1.850853170442526e-41 1:736566.12 2:1389.4672 3:1434.2207 4:1202.5446 5:847.74679 6:783.58118 7:569.65127 8:665.54361 9:803.00715 10:726.82369 11:570.00229 12:391.58241 13:250.89903 14:232.42882 15:287.70733 16:223.14553 17:131.58908 18:101.87283 19:63.803813 20:38.755405 21:22.64812 22:18.431299 23:14.680986 24:12.282526 25:11.765114 
1.850853170442526e-41 1:734374.32 2:1872.8582 3:1226.1229 4:1149.0616 5:849.43176 6:799.76599 7:643.5504 8:593.72688 9:845.8877 10:846.76799 11:592.61694 12:386.21938 13:321.74784 14:355.19477 15:360.16663 16:235.83952 17:112.15819 18:80.103338 19:55.145367 20:37.138626 21:22.831455 22:18.137102 23:10.883695 24:7.5409631 25:5.9156134 
1.850853170442526e-41 1:732666.72 2:1493.5955 3:1249.4323 4:1080.2135 5:859.31557 6:779.35154 7:587.01147 8:646.41716 9:790.95067 10:722.50712 11:494.49702 12:423.75318 13:424.24132 14:385.17571 15:263.65187 16:192.31071 17:147.73881 18:122.15815 19:79.678267 20:40.661409 21:19.743386 22:14.061753 23:9.3384405 24:4.9910545 25:3.6462682 
1.850853170442526e-41 1:734848.45 2:2429.4011 3:1897.6086 4:1268.0799 5:1054.9966 6:970.67439 7:954.31873 8:946.53955 9:949.76896 10:696.5111 11:474.94859 12:351.47189 13:282.52884 14:336.11638 15:258.62657 16:180.98783 17:135.26703 18:108.59993 19:73.293917 20:55.767724 21:32.010735 22:15.204688 23:11.466969 24:7.9331008 25:4.0983882 
1.850853170442526e-41 1:735488.15 2:1476.8605 3:1804.5265 4:1568.8858 5:880.71071 6:859.63518 7:606.08339 8:583.89007 9:712.61042 10:622.86689 11:457.78817 12:423.39122 13:355.73676 14:263.04942 15:221.77787 16:216.6203 17:127.22783 18:107.74174 19:72.798249 20:36.279799 21:27.490822 22:21.548751 23:14.82548 24:15.303841 25:15.240824 
1.850853170442526e-41 1:731889.54 2:1606.7173 3:1322.2634 4:1139.4062 5:962.69707 6:867.60662 7:778.33328 8:731.57525 9:782.65616 10:731.85615 11:548.04603 12:435.51862 13:425.2987 14:416.14944 15:309.24559 16:229.31589 17:134.71482 18:111.74984 19:87.896002 20:59.293768 21:28.813575 22:20.266253 23:13.738813 24:9.5383555 25:9.0271853 
1.850853170442526e-41 1:731762.32 2:1125.8824 3:1241.4097 4:1294.5949 5:951.70163 6:740.91674 7:761.68163 8:649.41363 9:738.01927 10:664.31287 11:376.03069 12:270.39734 13:299.08 14:320.45424 15:210.86161 16:159.01159 17:88.935697 18:83.965546 19:66.39494 20:44.95033 21:38.101307 22:27.279318 23:14.59173 24:14.419621 25:14.86597 
1.850853170442526e-41 1:733686.28 2:1932.0998 3:1111.9725 4:921.60787 5:882.0341 6:782.87896 7:714.88692 8:477.68387 9:517.72069 10:512.23119 11:349.01355 12:370.17988 13:335.64741 14:302.55802 15:234.31458 16:182.2127 17:135.67724 18:98.493879 19:63.158987 20:38.678369 21:30.90944 22:16.946824 23:12.700852 24:10.481193 25:8.8222427 
1.850853170442526e-41 1:731790.31 2:1466.7797 3:1252.1053 4:1109.404 5:826.9001 6:732.55411 7:723.05004 8:586.75904 9:688.96508 10:630.82291 11:381.17868 12:336.72355 13:258.47521 14:255.47793 15:292.08468 16:210.84018 17:122.81708 18:97.883755 19:70.38533 20:55.57754 21:36.583878 22:21.023203 23:10.970221 24:7.3119283 25:5.7767968 
1.850853170442526e-41 1:734322.52 2:2332.8654 3:1595.2151 4:1520.1396 5:1049.185 6:870.02344 7:923.2883 8:690.17631 9:618.65307 10:665.70525 11:373.65435 12:266.88728 13:295.4155 14:283.59917 15:281.04609 16:213.50374 17:117.80071 18:81.638366 19:48.674822 20:47.006182 21:37.049702 22:19.982542 23:16.44413 24:12.65668 25:11.551337 
1.850853170442526e-41 1:731738.75 2:1455.237 3:1205.7089 4:933.53896 5:742.77119 6:623.4002 7:550.70907 8:524.37846 9:623.85135 10:706.27464 11:559.98879 12:406.04668 13:313.30882 14:341.55262 15:281.95004 16:224.48412 17:169.31923 18:109.45174 19:55.348668 20:42.265142 21:31.666563 22:22.89637 23:11.252057 24:9.2268594 25:11.297618 
1.850853170442526e-41 1:730221.6 2:2060.3376 3:2185.0982 4:1965.1379 5:1439.6013 6:1078.0014 7:744.63652 8:769.05402 9:940.47275 10:876.82175 11:535.50154 12:476.8714 13:495.33318 14:386.28965 15:296.67228 16:270.07505 17:183.17282 18:104.41125 19:57.484281 20:40.862551 21:31.356085 22:16.876331 23:10.37001 24:8.1611902 25:6.8668007 
1.850853170442526e-41 1:727877.86 2:5055.1143 3:5437.9637 4:4322.0898 5:3071.7448 6:2977.9316 7:2436.5045 8:1788.7132 9:1524.1479 10:1287.2088 11:959.24098 12:895.77372 13:885.02277 14:580.06419 15:340.59463 16:322.58385 17:259.27365 18:211.7484 19:147.41131 20:98.234526 21:54.597304 22:45.840184 23:49.247583 24:41.680704 25:39.327234 
1.850853170442526e-41 1:714720.98 2:3850.0625 3:2767.6843 4:2903.1296 5:2840.7105 6:2246.4158 7:2035.0448 8:1352.9089 9:1498.0896 10:1612.3578 11:1068.4739 12:751.54139 13:527.05155 14:510.29007 15:400.48514 16:352.77612 17:303.07444 18:182.45906 19:147.74839 20:97.296865 21:65.565844 22:41.774577 23:22.020666 24:14.671943 25:12.362859 
1.850853170442526e-41 1:719346.65 2:2433.6645 3:2256.6237 4:3217.1616 5:2997.0902 6:1878.3437 7:1686.6477 8:1148.022 9:1288.158 10:1359.8874 11:1165.7184 12:853.54861 13:588.9332 14:599.71853 15:417.70382 16:300.05247 17:299.53843 18:214.75001 19:113.87594 20:105.44904 21:72.624843 22:36.292319 23:25.07071 24:26.61376 25:25.3503 
1.850853170442526e-41 1:722469.22 2:2585.5036 3:2335.5686 4:1757.6928 5:1166.2533 6:1418.6932 7:1213.0905 8:1099.3033 9:1250.2376 10:1125.6644 11:876.72389 12:522.2871 13:460.93936 14:584.99656 15:489.43337 16:340.1973 17:274.00532 18:184.59267 19:91.604812 20:57.940018 21:34.95275 22:24.557819 23:12.748131 24:5.5821689 25:3.8453543 
1.850853170442526e-41 1:724753.93 2:3087.3488 3:2534.7401 4:1815.6637 5:1206.3306 6:1264.6758 7:1305.2242 8:1156.128 9:1346.5839 10:1337.5682 11:1014.9022 12:630.89972 13:412.24241 14:468.25219 15:437.57681 16:415.34047 17:278.63838 18:183.01691 19:101.70713 20:76.772161 21:45.269795 22:25.561255 23:16.244945 24:4.2820594 25:3.978702 
1.850853170442526e-41 1:722519.87 2:1787.5518 3:1479.5279 4:1433.5817 5:1486.8343 6:1387.6446 7:1572.5868 8:1343.2284 9:1470.8227 10:1482.4598 11:1204.2368 12:1084.2284 13:999.55574 14:751.53304 15:477.5304 16:456.33018 17:225.14722 18:211.72057 19:187.45451 20:83.86814 21:67.604533 22:51.219947 23:16.925039 24:6.6350962 25:7.3550209 
1.850853170442526e-41 1:721221.11 2:3122.4368 3:2925.8201 4:2312.3318 5:2121.4037 6:1844.1556 7:1393.4701 8:1362.4347 9:1422.7123 10:1588.0979 11:1333.5648 12:846.78588 13:674.73557 14:762.78786 15:606.14187 16:523.29998 17:427.88601 18:295.00656 19:197.7216 20:88.485273 21:59.021179 22:36.830461 23:17.396928 24:6.8374253 25:3.2161769 
1.850853170442526e-41 1:726998.18 2:4940.7547 3:2893.2524 4:1671.6437 5:1775.1546 6:2085.8748 7:1942.4861 8:1596.4683 9:1373.184 10:986.18227 11:645.42446 12:585.99577 13:636.58133 14:613.80532 15:529.80732 16:481.48294 17:268.76067 18:167.24077 19:118.62917 20:55.590042 21:48.745328 22:44.736555 23:34.696681 24:33.631603 25:30.42274 
1.850853170442526e-41 1:745089.81 2:3272.8034 3:2448.5718 4:1508.2545 5:1475.6062 6:1377.9485 7:1429.2588 8:1243.606 9:1122.5052 10:882.13005 11:659.26431 12:549.88982 13:475.62462 14:400.46294 15:330.49311 16:314.02999 17:168.64284 18:130.57073 19:101.62722 20:82.410139 21:79.083532 22:64.770763 23:54.944222 24:55.475178 25:56.38758 
1.850853170442526e-41 1:760529.18 2:2025.3356 3:2025.2252 4:1976.1802 5:1284.6972 6:904.53019 7:1075.3319 8:957.4669 9:765.27541 10:882.4898 11:656.72951 12:375.55591 13:412.50745 14:436.63909 15:372.2561 16:286.58415 17:180.40511 18:149.96577 19:111.03664 20:75.529182 21:54.36385 22:31.186608 23:31.489023 24:34.129831 25:32.599847 
1.850853170442526e-41 1:767505.07 2:2704.6715 3:2667.4978 4:1816.5655 5:1353.4284 6:1188.7352 7:1085.1756 8:806.18711 9:757.11814 10:674.35598 11:400.60033 12:381.61771 13:520.39992 14:452.81203 15:284.84123 16:213.71182 17:163.86873 18:149.51877 19:131.17941 20:93.973624 21:56.766919 22:37.006162 23:29.689071 24:26.296895 25:25.173898 
1.850853170442526e-41 1:774329.85 2:2316.8584 3:1688.1149 4:1059.3135 5:981.93759 6:901.15027 7:731.32423 8:737.02308 9:961.54211 10:922.61063 11:534.43672 12:389.75904 13:390.31528 14:414.96569 15:436.96896 16:287.15783 17:165.55478 18:133.95312 19:99.156703 20:69.062185 21:41.166571 22:22.442107 23:18.076646 24:17.391813 25:17.377235 
1.850853170442526e-41 1:778048.65 2:2444.6404 3:1763.8894 4:1733.7029 5:1177.5706 6:1070.2214 7:1088.1094 8:864.99061 9:697.3947 10:450.03515 11:442.93566 12:475.01662 13:455.19954 14:426.64036 15:351.22174 16:247.16459 17:137.40969 18:78.69757 19:50.695246 20:40.942292 21:28.568753 22:19.630376 23:13.671342 24:6.4224063 25:4.3822672 
1.850853170442526e-41 1:774917.71 2:1739.7243 3:1838.1913 4:1663.8171 5:946.16807 6:1047.1396 7:941.74224 8:933.04263 9:1045.1892 10:776.74221 11:576.18992 12:422.86593 13:408.856 14:362.01206 15:263.74157 16:245.43599 17:156.48596 18:83.575763 19:79.083676 20:61.264535 21:35.58964 22:24.04585 23:13.673862 24:3.6953964 25:2.2465069 
1.850853170442526e-41 1:778334.38 2:3595.6877 3:2881.8583 4:2040.8788 5:1642.7133 6:1047.5179 7:835.09654 8:913.53026 9:1001.5555 10:781.07963 11:436.51375 12:407.04411 13:371.21434 14:293.82133 15:255.02527 16:286.66056 17:198.77874 18:127.03869 19:66.842406 20:43.296801 21:26.585735 22:17.042063 23:9.0365416 24:5.4045021 25:2.891522 
1.850853170442526e-41 1:774874.18 2:2919.0144 3:2459.6613 4:1518.8077 5:1342.4502 6:1540.3063 7:1184.4093 8:997.06021 9:1103.5361 10:906.54715 11:491.6255 12:343.13724 13:359.11924 14:400.94036 15:424.32326 16:384.42374 17:266.18518 18:167.15904 19:80.495621 20:52.280997 21:41.33843 22:29.177559 23:23.132006 24:22.747578 25:19.709467 
1.850853170442526e-41 1:768600.38 2:2536.2445 3:1958.6896 4:1610.5167 5:1647.1985 6:1669.1806 7:1178.2251 8:960.87444 9:1186.226 10:1131.8248 11:890.89316 12:672.86413 13:495.28997 14:423.84531 15:380.33873 16:328.13827 17:212.86875 18:151.06206 19:64.775257 20:59.334542 21:41.87127 22:23.127341 23:9.21875 24:5.9532395 25:3.6632819 
1.850853170442526e-41 1:770055.06 2:2938.2504 3:2098.24 4:2007.8315 5:1252.146 6:839.40172 7:897.25585 8:960.22058 9:1107.42 10:844.44871 11:570.16505 12:434.8642 13:412.4703 14:365.68104 15:323.53063 16:295.79964 17:165.32707 18:115.13956 19:75.644803 20:58.667371 21:37.628838 22:23.450216 23:12.816366 24:9.2604672 25:7.7120417 
1.850853170442526e-41 1:772812.1 2:2511.3051 3:1561.4781 4:1335.029 5:1090.4435 6:1253.8106 7:1208.0246 8:1015.3401 9:948.45551 10:791.62921 11:536.35237 12:366.99338 13:328.17973 14:357.89756 15:358.56073 16:284.02233 17:181.0463 18:130.94384 19:70.862237 20:42.656924 21:33.084265 22:21.322979 23:9.3858011 24:5.7762663 25:5.1748646 
1.850853170442526e-41 1:770937.56 2:2461.9773 3:1934.0661 4:1441.2846 5:1056.7829 6:1152.0868 7:731.58251 8:768.46068 9:908.59577 10:848.22951 11:638.41558 12:439.01138 13:444.52131 14:432.41576 15:299.81019 16:226.76271 17:180.52653 18:132.32273 19:84.868686 20:60.516227 21:38.151573 22:25.661793 23:19.053024 24:19.273701 25:18.890635 
1.850853170442526e-41 1:772489.28 2:2940.7292 3:1699.8592 4:1095.7185 5:1269.9525 6:1231.4603 7:954.17334 8:798.56532 9:942.72212 10:882.66923 11:521.62013 12:420.29946 13:449.45689 14:369.53195 15:368.2758 16:317.01731 17:189.78008 18:155.50425 19:93.222038 20:65.632548 21:36.101232 22:18.150944 23:10.312723 24:10.052504 25:10.103155 
1.850853170442526e-41 1:768895.24 2:3719.0706 3:5619.9491 4:5335.9814 5:2769.5312 6:1680.7887 7:1315.5025 8:872.38649 9:947.21928 10:936.77356 11:593.39546 12:477.90522 13:487.93999 14:434.51792 15:332.16344 16:260.01742 17:210.10624 18:142.50515 19:81.495615 20:67.415998 21:53.61167 22:41.977021 23:32.877948 24:30.401403 25:30.999063 
1.850853170442526e-41 1:755608.94 2:2274.9619 3:1566.2198 4:1461.4402 5:1147.3315 6:820.62607 7:736.57796 8:732.22419 9:629.09411 10:752.80143 11:752.93151 12:556.61531 13:526.87597 14:477.17813 15:400.2123 16:322.44153 17:178.59941 18:129.30716 19:91.328535 20:69.229641 21:47.912967 22:29.070684 23:21.55783 24:23.540297 25:24.087793 
1.850853170442526e-41 1:753338.77 2:2737.4996 3:2215.6943 4:2011.5397 5:1697.7898 6:1586.0165 7:1351.9343 8:1186.6945 9:1054.5553 10:918.4789 11:675.74689 12:516.11932 13:388.74962 14:351.46217 15:321.75104 16:256.19029 17:161.23367 18:125.19881 19:91.549758 20:46.658161 21:36.553325 22:23.617247 23:12.500586 24:11.585201 25:9.3330676 
1.850853170442526e-41 1:745284.86 2:2980.6859 3:2258.9759 4:1954.9029 5:1622.4647 6:1824.2979 7:1500.3395 8:1018.1892 9:1140.1142 10:897.14189 11:673.45348 12:602.77606 13:592.91417 14:513.25443 15:274.54513 16:224.45262 17:218.98383 18:193.7478 19:128.04913 20:71.217975 21:38.304325 22:39.024686 23:35.815683 24:34.527324 25:32.77737 
1.850853170442526e-41 1:736980.22 2:2588.37 3:2453.239 4:2435.245 5:2079.0878 6:2144.4465 7:2322.9856 8:2039.1979 9:1441.3846 10:1023.0967 11:1059.9039 12:813.16025 13:421.47978 14:390.16693 15:477.93827 16:457.30511 17:310.93141 18:238.5736 19:165.85675 20:100.21128 21:61.729764 22:43.741594 23:41.687297 24:34.291 25:30.781825 
1.850853170442526e-41 1:721786.4 2:2804.0534 3:2447.799 4:2285.5447 5:2205.4826 6:1582.2077 7:1687.5471 8:1790.8153 9:1291.9942 10:791.82447 11:686.46452 12:874.27519 13:843.85572 14:721.41403 15:507.28766 16:301.88298 17:230.38932 18:188.36365 19:121.01709 20:107.58845 21:89.214629 22:57.268874 23:21.579094 24:17.909254 25:20.475885 
1.850853170442526e-41 1:720502.39 2:1862.6069 3:1785.0791 4:1759.0315 5:1494.5396 6:1303.5533 7:1131.3389 8:1326.8169 9:1482.1451 10:1206.8862 11:702.97251 12:510.55495 13:390.78763 14:452.62812 15:450.76607 16:298.78362 17:203.0535 18:190.34267 19:116.57214 20:62.554162 21:51.088966 22:33.107086 23:15.453307 24:7.3695428 25:5.7981273 
1.850853170442526e-41 1:725051.5 2:3486.4356 3:3322.64 4:4049.1313 5:2850.9799 6:1675.9861 7:2274.0592 8:2413.475 9:1842.3005 10:1550.8726 11:1026.4443 12:578.05789 13:746.13547 14:902.68485 15:645.59795 16:358.67087 17:252.52745 18:229.63437 19:166.93575 20:106.07816 21:66.895069 22:37.850148 23:26.421631 24:19.194022 25:16.122598 
1.850853170442526e-41 1:722403.36 2:4194.5288 3:3393.5364 4:2889.9286 5:2122.5702 6:2307.6003 7:2148.24 8:1630.7056 9:1604.1418 10:1344.7408 11:1109.4279 12:809.7296 13:754.07048 14:662.41039 15:586.63434 16:472.12787 17:352.34577 18:268.24939 19:148.6309 20:82.819311 21:49.839218 22:34.002033 23:23.480968 24:15.625477 25:11.473596 
1.850853170442526e-41 1:717104.13 2:2557.1859 3:2457.4613 4:2066.0577 5:2022.3 6:2066.511 7:1745.8915 8:1363.2574 9:1158.2107 10:1339.3726 11:1062.4145 12:658.71271 13:612.95846 14:510.86784 15:420.75941 16:383.3981 17:279.61547 18:169.31342 19:136.06173 20:87.302574 21:47.107885 22:34.627873 23:14.403856 24:11.339194 25:12.763427 
1.850853170442526e-41 1:714108.14 2:2564.7942 3:2685.1834 4:2702.9927 5:1879.1667 6:1508.434 7:1533.5541 8:1208.8619 9:1414.512 10:1486.1243 11:1041.0743 12:779.14391 13:778.12865 14:657.80819 15:468.51063 16:515.45554 17:415.09429 18:225.01103 19:161.4022 20:102.95166 21:59.415516 22:27.042691 23:12.48089 24:8.9831093 25:9.7712093 
1.850853170442526e-41 1:714285.89 2:2572.2062 3:2378.5455 4:2483.044 5:1928.3968 6:1554.1926 7:1578.5389 8:1774.5784 9:1767.7072 10:1201.425 11:978.85444 12:728.95312 13:642.96474 14:617.48772 15:546.14602 16:482.04669 17:308.31107 18:235.50702 19:147.44393 20:112.21823 21:71.691322 22:50.343797 23:54.619864 24:53.681529 25:52.548078 
1.850853170442526e-41 1:734992.49 2:2355.2378 3:2112.8713 4:2376.4624 5:2410.223 6:2000.3877 7:1714.8566 8:1528.0832 9:1108.0247 10:1337.9104 11:1409.917 12:934.96132 13:727.65596 14:603.55548 15:572.71136 16:489.23686 17:418.39635 18:332.23963 19:164.71328 20:97.307161 21:78.273792 22:78.881811 23:72.018017 24:63.620953 25:64.447603 
1.850853170442526e-41 1:752220.83 2:2526.3439 3:2609.3556 4:1822.1588 5:1443.479 6:1637.6299 7:1662.0107 8:1667.7106 9:1151.8337 10:1012.6231 11:1070.4425 12:808.93402 13:850.39325 14:909.09166 15:792.33902 16:524.01531 17:314.31789 18:208.16177 19:159.09123 20:114.99479 21:71.7775 22:52.623697 23:42.476305 24:43.155941 25:43.775117 
1.850853170442526e-41 1:765745.39 2:3266.9993 3:2655.7793 4:1796.6241 5:1372.2946 6:1400.0247 7:1549.7285 8:1630.6283 9:1320.8512 10:956.72665 11:865.11315 12:583.47791 13:474.527 14:541.13492 15:563.92453 16:447.96509 17:296.99286 18:215.12741 19:109.14194 20:64.88827 21:57.649875 22:43.580881 23:34.415658 24:32.040831 25:30.364484 
1.850853170442526e-41 1:777871.33 2:2596.5011 3:2015.5376 4:2085.9253 5:1764.3978 6:1546.3753 7:1328.6281 8:1227.2838 9:1139.8148 10:871.14701 11:914.05058 12:878.27775 13:756.98612 14:615.84624 15:485.66243 16:482.36815 17:303.70056 18:187.23995 19:156.67899 20:90.968939 21:53.315309 22:37.625495 23:33.292677 24:32.683095 25:33.485505 
1.850853170442526e-41 1:787157.12 2:2312.0339 3:2046.6408 4:1834.4231 5:1684.8194 6:1517.6444 7:1341.8277 8:1334.0697 9:1698.4066 10:1159.0101 11:685.80411 12:815.11407 13:642.9858 14:722.64561 15:672.11863 16:447.28171 17:220.97146 18:197.00304 19:170.54807 20:94.326265 21:55.303282 22:35.191708 23:23.712052 24:21.116902 25:19.526495 
1.850853170442526e-41 1:791735.21 2:2202.4555 3:2112.5779 4:2072.4803 5:1820.9255 6:1652.8989 7:1156.4261 8:817.31648 9:1033.6702 10:1021.5932 11:917.32667 12:629.54884 13:545.93383 14:580.34657 15:390.46514 16:390.02241 17:325.60048 18:170.92444 19:132.27668 20:118.89364 21:63.127448 22:30.256791 23:15.677333 24:10.668501 25:7.105628 
1.850853170442526e-41 1:790602.95 2:3977.2199 3:3925.2661 4:3584.2913 5:2666.2067 6:1680.0168 7:1272.6374 8:1286.3637 9:1126.2412 10:1012.8231 11:888.33904 12:563.01139 13:586.3156 14:580.54009 15:371.98188 16:287.34304 17:249.91167 18:170.26309 19:135.98808 20:112.67596 21:62.22622 22:60.342707 23:58.222897 24:56.115428 25:57.15859 
1.850853170442526e-41 1:756985.72 2:5056.975 3:3847.5169 4:4525.688 5:5162.8841 6:4006.6069 7:2196.3787 8:1650.0726 9:1950.7194 10:2234.2431 11:1574.3687 12:799.53695 13:707.70176 14:816.78677 15:800.9798 16:405.56592 17:248.3565 18:220.72087 19:188.21181 20:148.18374 21:104.30909 22:82.749882 23:83.483211 24:79.755296 25:78.588748 
1.850853170442526e-41 1:743111.46 2:4363.8835 3:3251.5025 4:2870.8609 5:2671.0232 6:1981.2623 7:1397.5443 8:1744.9104 9:1644.3314 10:1089.7753 11:1093.7761 12:1017.7353 13:822.58165 14:639.91652 15:491.56259 16:354.47754 17:332.07753 18:256.08427 19:138.40986 20:97.753653 21:72.699344 22:44.34069 23:28.516597 24:22.826426 25:24.179687 
1.850853170442526e-41 1:731044.52 2:2536.8956 3:2512.8578 4:2203.9666 5:2742.6137 6:2442.8697 7:1845.4914 8:1699.9051 9:1183.9726 10:1053.0951 11:890.85276 12:714.98991 13:673.03177 14:587.18216 15:666.2918 16:569.5715 17:267.09546 18:221.5847 19:183.77736 20:136.94541 21:87.128017 22:54.404087 23:44.264617 24:33.091448 25:33.119874 
1.850853170442526e-41 1:723471.38 2:3078.4854 3:2308.6349 4:3408.1268 5:3890.8095 6:2673.9108 7:2174.3575 8:1555.9263 9:1717.1447 10:1714.5644 11:1185.5744 12:785.20695 13:599.47025 14:666.76119 15:675.41697 16:588.31214 17:367.14419 18:188.46543 19:166.14617 20:103.566 21:64.216032 22:56.34154 23:45.599528 24:35.770462 25:36.781452 
1.850853170442526e-41 1:724152.74 2:3966.4896 3:4531.1895 4:4226.5076 5:2742.854 6:2286.2591 7:2071.9016 8:1889.2606 9:1966.4446 10:1839.1751 11:1500.0815 12:1071.3068 13:845.57988 14:810.16474 15:646.10847 16:445.74292 17:378.63081 18:352.52426 19:190.44364 20:115.98582 21:77.444467 22:34.542105 23:17.848844 24:7.8822507 25:5.682483 
1.850853170442526e-41 1:723290.41 2:3243.796 3:2508.5425 4:2794.552 5:2725.1089 6:2914.8755 7:3082.1909 8:2136.0192 9:1611.7129 10:1426.951 11:1239.889 12:931.94697 13:749.00958 14:641.45303 15:551.01832 16:478.10569 17:358.67262 18:314.64764 19:194.00665 20:120.45237 21:63.411477 22:46.855334 23:35.737084 24:24.120011 25:26.871803 
1.850853170442526e-41 1:726662.59 2:2818.7566 3:1911.0504 4:2022.1385 5:2447.7565 6:2137.5979 7:2296.5575 8:2023.8555 9:1119.3502 10:741.85608 11:826.66662 12:827.46599 13:711.93717 14:716.72481 15:547.89885 16:445.81081 17:331.13964 18:207.75704 19:151.25616 20:87.596339 21:57.075844 22:39.447265 23:21.467117 24:13.488302 25:13.927862 
1.850853170442526e-41 1:723493.08 2:1912.6387 3:1176.1833 4:1442.1746 5:1849.9717 6:1745.1532 7:1276.763 8:1453.8093 9:1586.1702 10:1096.6958 11:870.54295 12:857.93528 13:661.53578 14:611.33871 15:618.65862 16:459.59812 17:290.32412 18:161.93076 19:138.93505 20:91.16514 21:50.240828 22:38.161142 23:17.405324 24:8.2497204 25:3.6394995 
1.850853170442526e-41 1:723818.1 2:2123.7024 3:1987.275 4:2047.0268 5:1820.1538 6:1186.8861 7:1447.1663 8:1561.3202 9:1492.6248 10:1290.5974 11:839.68437 12:707.73689 13:781.47923 14:632.31337 15:452.83597 16:402.78577 17:241.66744 18:155.56707 19:132.32404 20:86.418295 21:65.732204 22:41.503229 23:19.329229 24:9.4951589 25:11.136692 
1.850853170442526e-41 1:720097.49 2:2268.4936 3:1838.8243 4:1436.5942 5:1272.5501 6:1150.1956 7:1097.0328 8:1172.8499 9:1223.1831 10:1136.826 11:1004.4533 12:919.04967 13:627.87364 14:461.74884 15:327.87025 16:319.66502 17:275.20362 18:166.0705 19:101.97189 20:70.50822 21:48.764715 22:35.395972 23:19.889926 24:16.518719 25:15.381737 
1.850853170442526e-41 1:718103.92 2:2405.8336 3:1833.797 4:1647.9777 5:1638.4833 6:1657.9634 7:1238.1386 8:1330.8928 9:1359.4912 10:1049.8275 11:942.12778 12:650.70146 13:506.14566 14:575.00426 15:482.71153 16:410.92386 17:347.89913 18:217.0234 19:130.01013 20:105.59809 21:62.540665 22:25.734938 23:13.270121 24:5.2428227 25:2.8654603 
1.850853170442526e-41 1:714881.31 2:5563.9735 3:4902.9536 4:4037.493 5:4015.2103 6:3180.6941 7:2531.255 8:2734.8303 9:2250.1467 10:1830.5021 11:1638.4211 12:880.8735 13:668.10643 14:957.0019 15:673.38154 16:436.17412 17:371.07248 18:289.31041 19:224.02291 20:121.22728 21:81.605641 22:57.540815 23:31.52599 24:29.675415 25:26.998568 
1.850853170442526e-41 1:717915.66 2:3760.2435 3:2836.0816 4:2513.8943 5:2504.8999 6:2232.0963 7:2868.2927 8:2724.7056 9:1985.941 10:1851.8989 11:1757.0523 12:1381.4267 13:906.0712 14:681.6409 15:489.09766 16:492.69149 17:395.07437 18:259.64404 19:198.20284 20:137.67398 21:78.482326 22:62.293972 23:42.989146 24:25.768956 25:22.356016 
1.850853170442526e-41 1:729001.17 2:2816.9406 3:2720.7997 4:2896.0529 5:2508.7443 6:2584.7406 7:2403.6377 8:1694.0872 9:1259.4961 10:1262.0061 11:1111.0996 12:1073.8833 13:999.36225 14:776.09578 15:790.59606 16:642.37516 17:411.52081 18:389.01192 19:230.46097 20:105.33859 21:58.229739 22:45.048882 23:39.890044 24:35.514998 25:35.204972 
1.850853170442526e-41 1:732762.83 2:3270.6369 3:2692.6561 4:1916.8278 5:1972.3511 6:2007.553 7:2012.9768 8:1800.2177 9:1536.0933 10:1613.2073 11:1519.4303 12:1219.4352 13:1033.5827 14:795.8574 15:624.19679 16:524.05824 17:447.59523 18:328.56687 19:193.75303 20:128.32827 21:69.609611 22:34.505747 23:17.844039 24:6.1333648 25:5.3024792 
1.850853170442526e-41 1:725849.28 2:3041.292 3:3065.6117 4:2644.8011 5:2899.0349 6:2879.3221 7:2394.3569 8:2229.0968 9:1718.8274 10:1618.7446 11:1756.6944 12:1429.8297 13:1254.9309 14:1165.3477 15:836.05025 16:594.99948 17:424.65912 18:317.5005 19:167.48097 20:100.06069 21:51.362814 22:43.172363 23:47.491826 24:50.088038 25:48.613517 
1.850853170442526e-41 1:716739.39 2:10712.495 3:6876.3611 4:6891.7482 5:4088.8964 6:2954.2493 7:2757.8336 8:2440.9471 9:2415.0558 10:2082.4921 11:1557.583 12:893.24958 13:757.55724 14:740.40718 15:494.54213 16:396.4308 17:361.90528 18:266.76123 19:163.31547 20:109.2919 21:86.543779 22:48.465467 23:25.478641 24:10.454874 25:4.636507 
1.850853170442526e-41 1:720955.31 2:5107.4713 3:3938.5482 4:3822.4926 5:2922.9666 6:2235.3542 7:2098.734 8:2022.5745 9:2015.6927 10:1657.4697 11:1449.0978 12:1132.8842 13:842.04184 14:640.96892 15:566.88852 16:539.49202 17:282.72751 18:244.38245 19:200.12512 20:116.81265 21:93.421181 22:76.956001 23:66.387405 24:64.079043 25:62.892434 
1.850853170442526e-41 1:736222.5 2:2891.8562 3:2213.859 4:2455.7308 5:2369.8834 6:2017.8634 7:1701.4684 8:1628.0627 9:1878.0377 10:1597.9457 11:1149.8681 12:867.00611 13:768.98758 14:626.11752 15:482.92237 16:459.62168 17:335.49352 18:248.62224 19:176.08369 20:130.96832 21:75.656878 22:58.336445 23:45.128888 24:46.477399 25:46.79871 
1.850853170442526e-41 1:750135.42 2:4453.9725 3:3801.0795 4:2391.169 5:1730.2805 6:1788.6525 7:1795.6162 8:1400.7507 9:1067.6982 10:1378.0839 11:1358.6846 12:1046.3184 13:932.59239 14:658.85732 15:496.30672 16:448.27182 17:344.19843 18:233.37455 19:162.30124 20:111.909 21:66.00435 22:35.306797 23:21.433269 24:21.524349 25:18.530789 
1.850853170442526e-41 1:751219.81 2:4296.8593 3:4245.1714 4:3174.8922 5:1689.3505 6:1481.3212 7:1758.6292 8:1561.2681 9:1581.6059 10:1698.2549 11:948.30677 12:379.14061 13:650.67815 14:810.84975 15:476.1659 16:484.07585 17:460.25396 18:275.18164 19:170.30392 20:106.29401 21:62.815135 22:34.739353 23:22.521649 24:9.5570714 25:7.9717626 
1.850853170442526e-41 1:738408.62 2:2551.9485 3:2154.8237 4:2420.8312 5:1950.4693 6:1815.7707 7:1674.2197 8:1188.1526 9:1576.6556 10:1920.1191 11:1399.5762 12:876.86704 13:717.08517 14:584.02265 15:458.13628 16:513.42631 17:425.18229 18:252.04382 19:169.93408 20:106.90138 21:54.4148 22:37.859516 23:32.586617 24:25.359444 25:25.273977 
1.850853170442526e-41 1:736491.53 2:2172.8906 3:1886.1871 4:2026.8613 5:1661.0708 6:1234.3751 7:1123.7625 8:1597.8799 9:1338.4205 10:985.14086 11:911.68875 12:803.74543 13:640.66462 14:475.89794 15:507.4628 16:467.66768 17:297.18378 18:223.55304 19:153.93064 20:78.419293 21:54.44103 22:30.910772 23:15.498559 24:7.9821974 25:4.7882721 
1.850853170442526e-41 1:732609.05 2:2250.2608 3:2031.0073 4:1774.595 5:1724.3752 6:1844.7963 7:1507.6416 8:1214.1834 9:1570.931 10:1654.6072 11:1084.0203 12:725.6639 13:565.19203 14:493.14057 15:489.62772 16:371.74263 17:222.92214 18:134.22998 19:99.727889 20:85.152538 21:46.403342 22:30.838078 23:17.333395 24:10.752507 25:10.193042 
1.850853170442526e-41 1:733129.87 2:3099.5266 3:2247.0403 4:1899.2414 5:1409.5214 6:1153.6775 7:1325.9238 8:1240.309 9:1314.4421 10:1218.592 11:1008.2229 12:714.39123 13:549.85782 14:664.65681 15:564.70255 16:378.54028 17:264.85028 18:196.02653 19:108.14821 20:64.158507 21:46.99345 22:30.753995 23:15.578849 24:6.4928682 25:2.8479084 
1.850853170442526e-41 1:737114.02 2:1709.5278 3:1604.3291 4:1651.3554 5:1759.6233 6:1691.6648 7:1444.8329 8:1131.1278 9:1083.2566 10:1027.853 11:873.6272 12:663.13404 13:593.88973 14:554.93688 15:380.23562 16:337.05455 17:301.04161 18:202.0058 19:78.163888 20:53.629016 21:35.794319 22:32.360157 23:18.853365 24:9.6337635 25:9.1560966 
1.850853170442526e-41 1:741454.5 2:2018.3324 3:1849.5613 4:1732.0925 5:1952.6048 6:1655.2823 7:1237.8581 8:1172.4469 9:1037.7694 10:972.56621 11:989.39209 12:972.02142 13:788.31865 14:592.02833 15:474.15676 16:360.66783 17:214.8244 18:168.71331 19:130.27441 20:93.533417 21:56.5546 22:27.459012 23:21.682788 24:18.610531 25:18.136365 
1.850853170442526e-41 1:744870.29 2:2400.6663 3:1639.2048 4:1540.3346 5:1165.7768 6:1175.1905 7:1281.5749 8:817.73012 9:1006.1012 10:1236.0946 11:1079.0903 12:790.92905 13:446.64837 14:486.82591 15:527.90311 16:406.02708 17:273.01359 18:175.18136 19:127.66153 20:81.943474 21:41.037468 22:25.222613 23:15.349003 24:7.0464268 25:2.6552765 
1.850853170442526e-41 1:745617.03 2:2306.3925 3:2255.3528 4:1814.8559 5:1326.6728 6:1523.8975 7:1132.2557 8:726.81724 9:1077.8694 10:1080.7025 11:823.9543 12:626.51375 13:445.62545 14:423.42718 15:352.41302 16:264.54391 17:278.26797 18:203.61627 19:104.50324 20:66.136668 21:46.406425 22:24.72402 23:11.500893 24:7.3341329 25:7.670482 
1.850853170442526e-41 1:745612.26 2:2380.9353 3:2301.6 4:1992.3729 5:1244.8959 6:1202.86 7:1473.4806 8:1472.9526 9:1256.8319 10:1080.2838 11:901.44943 12:694.87306 13:613.80959 14:490.32138 15:401.81482 16:327.85307 17:213.14248 18:156.34083 19:108.10451 20:66.952078 21:41.845727 22:20.749098 23:13.445852 24:9.8723293 25:7.3574854 
1.850853170442526e-41 1:745372.3 2:2959.7354 3:1745.838 4:2380.2108 5:2157.2664 6:1326.6127 7:1265.4512 8:1165.5889 9:932.14922 10:997.51459 11:881.2487 12:713.03083 13:641.1524 14:473.23495 15:340.56288 16:317.94751 17:289.21698 18:177.01793 19:130.11782 20:78.705414 21:48.014483 22:26.27523 23:16.980817 24:9.435064 25:4.0591102 
1.850853170442526e-41 1:745305.63 2:1988.99 3:1688.8874 4:1610.5211 5:1298.4099 6:1074.8166 7:1033.5393 8:1081.5655 9:1458.5042 10:1372.5889 11:962.14829 12:646.75455 13:405.34203 14:444.35007 15:391.35579 16:344.78836 17:234.22081 18:166.49493 19:120.62872 20:68.260998 21:49.424462 22:30.739031 23:15.005851 24:6.7743564 25:3.9676856 
1.850853170442526e-41 1:743373.56 2:1476.9694 3:1372.1501 4:1449.5799 5:1277.2132 6:987.44262 7:806.03839 8:881.25145 9:1155.0244 10:935.34797 11:565.70953 12:435.39229 13:432.00294 14:390.26862 15:343.75467 16:328.96142 17:256.91765 18:157.68778 19:93.455181 20:69.27278 21:33.847612 22:20.165278 23:11.236076 24:6.2024476 25:2.8499996 
1.850853170442526e-41 1:743451.67 2:1858.8822 3:1710.0844 4:1606.9549 5:1072.651 6:1153.3176 7:1072.2501 8:939.20042 9:1187.0431 10:948.26554 11:674.37017 12:587.84627 13:526.99535 14:364.85761 15:362.70323 16:323.15248 17:196.93323 18:160.32807 19:114.45197 20:65.008943 21:29.416263 22:19.21406 23:8.6920746 24:4.1377607 25:2.7455495 
1.850853170442526e-41 1:743682.9 2:1169.1366 3:1181.4921 4:1528.3826 5:1262.7885 6:1182.5963 7:1248.4027 8:1053.5743 9:1289.5521 10:939.34603 11:674.26038 12:602.43713 13:398.78984 14:542.76953 15:419.04221 16:264.37729 17:206.10617 18:152.33242 19:93.283254 20:63.445498 21:39.251284 22:20.205151 23:13.79892 24:7.94752 25:5.8421799 
1.850853170442526e-41 1:744139.29 2:1684.9492 3:1344.1025 4:1205.96 5:1054.7338 6:1476.0492 7:1434.601 8:987.80143 9:1401.8648 10:1391.9291 11:837.08864 12:619.33786 13:581.3448 14:501.01264 15:423.03055 16:330.88839 17:186.79847 18:150.01667 19:123.46241 20:78.341195 21:43.642251 22:25.259969 23:17.324685 24:9.6484788 25:11.873544 
1.850853170442526e-41 1:748380 2:1685.9874 3:2144.7575 4:1768.1612 5:1578.26 6:1445.6601 7:1091.3515 8:1490.0992 9:1750.9573 10:1419.031 11:952.10901 12:683.8023 13:433.10743 14:390.15271 15:474.96305 16:479.14806 17:294.25738 18:161.49216 19:105.87669 20:69.316511 21:58.151831 22:32.580102 23:10.826071 24:5.3369668 25:3.5247458 
1.850853170442526e-41 1:749028.79 2:2021.4415 3:1481.5505 4:1634.9974 5:1261.8409 6:1495.5096 7:1196.0657 8:1084.8145 9:1440.8977 10:1110.7699 11:757.67482 12:607.2903 13:622.95373 14:564.13206 15:395.32569 16:411.19868 17:304.08477 18:198.22108 19:161.42583 20:101.57459 21:54.99312 22:25.751052 23:11.806439 24:4.8422991 25:2.4452414 
1.850853170442526e-41 1:749624.67 2:2032.8223 3:1841.0566 4:1880.8994 5:1104.9753 6:1310.8178 7:1167.6162 8:859.64958 9:1244.1578 10:1179.6108 11:525.11854 12:519.43242 13:665.76535 14:523.44978 15:450.15704 16:362.30521 17:241.0065 18:208.77843 19:141.26334 20:56.015723 21:30.481797 22:25.187092 23:14.247746 24:7.0711563 25:5.2102678 
1.850853170442526e-41 1:748006.31 2:2054.9659 3:1526.6407 4:1521.9948 5:1643.9227 6:1613.7059 7:1423.1353 8:1292.6245 9:1284.8593 10:1081.7164 11:910.43138 12:717.14063 13:449.27838 14:575.18799 15:557.31013 16:348.82146 17:282.49234 18:217.59157 19:129.17761 20:62.187913 21:38.10115 22:30.37748 23:19.02451 24:16.333035 25:16.754282 
1.850853170442526e-41 1:744956.08 2:1855.8447 3:1675.3772 4:1852.2537 5:2182.2207 6:1953.9337 7:1563.0979 8:1702.9466 9:1474.4283 10:985.41647 11:694.2353 12:695.59139 13:521.19307 14:385.05034 15:426.39382 16:403.28507 17:278.59539 18:161.34898 19:112.72451 20:62.877106 21:40.522496 22:27.816392 23:15.318798 24:7.5285184 25:4.1152909 
1.850853170442526e-41 1:750133.01 2:1584.7384 3:1550.8627 4:1572.636 5:1792.22 6:1349.8151 7:999.8053 8:1165.7525 9:1341.1109 10:1148.1834 11:659.331 12:577.59014 13:692.55666 14:544.29737 15:400.8145 16:384.93875 17:235.09981 18:155.73917 19:98.86165 20:55.554833 21:46.804997 22:24.323017 23:14.315901 24:9.6984348 25:9.078197 
1.850853170442526e-41 1:746616.78 2:1484.8722 3:1173.8097 4:1169.2536 5:1326.5301 6:1521.3323 7:1466.5393 8:1475.934 9:1607.7966 10:1107.7509 11:719.52639 12:611.44456 13:579.79682 14:502.0809 15:398.52821 16:354.05267 17:256.94461 18:178.16578 19:137.27031 20:90.568803 21:51.883493 22:31.291142 23:13.963213 24:10.998153 25:10.43104 
1.850853170442526e-41 1:746097.92 2:1755.1226 3:1872.8837 4:1761.2329 5:1401.6745 6:1497.9148 7:1124.1074 8:1069.9929 9:1227.1608 10:983.8799 11:814.88887 12:740.97519 13:616.03306 14:548.66525 15:449.70434 16:398.54261 17:202.72287 18:121.00214 19:89.805193 20:64.592945 21:43.164196 22:23.891505 23:13.622697 24:6.8631182 25:2.7865767 
1.850853170442526e-41 1:745387.23 2:2072.2565 3:1833.5292 4:1514.6983 5:1228.2144 6:1272.9062 7:1224.3647 8:1064.7043 9:1123.0036 10:1072.212 11:851.51163 12:566.91203 13:447.72606 14:388.79341 15:403.13841 16:423.02931 17:294.08452 18:189.79602 19:125.3648 20:77.170777 21:36.515129 22:24.724683 23:12.130244 24:7.442649 25:6.5354395 
1.850853170442526e-41 1:748160.7 2:2029.2581 3:1436.9883 4:1313.3271 5:1381.4116 6:1457.0168 7:1294.9954 8:991.88065 9:956.81317 10:979.65637 11:1102.0912 12:860.22141 13:526.2506 14:524.81139 15:471.89803 16:378.12225 17:223.85438 18:172.95917 19:102.10284 20:60.638007 21:46.015156 22:28.884581 23:14.154907 24:5.9072166 25:4.3260461 
1.850853170442526e-41 1:744958.83 2:1928.3392 3:1695.6126 4:1751.5036 5:1403.4603 6:1195.9536 7:1165.1119 8:1080.9539 9:1079.9547 10:1122.402 11:929.21088 12:695.10629 13:538.48338 14:394.99849 15:350.80636 16:357.46261 17:194.40562 18:140.48858 19:110.5601 20:66.307858 21:48.600812 22:27.092218 23:21.861785 24:15.399767 25:11.939732 
1.850853170442526e-41 1:744178.03 2:1906.2045 3:1406.6003 4:1619.8539 5:1743.1846 6:1159.4983 7:881.88896 8:867.03659 9:917.20221 10:960.24706 11:712.54978 12:559.24134 13:448.56193 14:398.77463 15:349.06243 16:337.05007 17:225.36535 18:149.71133 19:129.09947 20:87.517927 21:60.181075 22:27.856087 23:11.150731 24:8.1841274 25:7.8608981 
1.850853170442526e-41 1:741653.15 2:1459.5525 3:1039.9336 4:1080.8448 5:1360.2563 6:1232.0176 7:1067.9674 8:1158.8157 9:1311.7084 10:1260.5585 11:940.06045 12:651.63312 13:552.40079 14:437.99353 15:344.80786 16:281.00297 17:188.42945 18:168.04853 19:97.570507 20:58.640907 21:45.361188 22:29.532273 23:13.959865 24:7.0180097 25:4.5029489 
1.850853170442526e-41 1:741699.97 2:1331.4048 3:2018.53 4:1650.2572 5:1024.1836 6:1348.5239 7:1405.4171 8:1374.4439 9:1500.6734 10:1276.6991 11:817.94736 12:657.63619 13:491.56982 14:358.86472 15:318.86997 16:324.56287 17:268.63689 18:194.90477 19:122.41294 20:78.740539 21:43.140885 22:27.482034 23:14.449208 24:6.8869004 25:3.729035 
1.850853170442526e-41 1:742640.5 2:1518.2571 3:1811.1078 4:1823.7946 5:1311.3904 6:1156.5114 7:1015.2024 8:946.59963 9:1000.3142 10:889.44163 11:594.42589 12:449.52768 13:446.01575 14:418.6018 15:342.32418 16:260.41143 17:207.65905 18:196.9279 19:146.87837 20:60.0527 21:41.145211 22:31.917047 23:14.336058 24:8.687251 25:6.4891177 
1.850853170442526e-41 1:741517.9 2:2262.5242 3:1372.3699 4:1443.1598 5:1164.2798 6:1149.4572 7:1102.6013 8:844.89227 9:994.27223 10:1136.6999 11:1040.3665 12:710.65401 13:395.88656 14:439.5516 15:467.52021 16:382.18764 17:210.2183 18:117.83508 19:103.7078 20:69.591368 21:38.42219 22:30.427483 23:21.844688 24:20.803414 25:21.358866 
1.850853170442526e-41 1:736151.17 2:1467.111 3:1688.0948 4:1527.133 5:1257.6594 6:1386.6542 7:1214.3036 8:1208.0072 9:1262.6971 10:1134.2215 11:888.22544 12:683.12591 13:495.89246 14:453.39904 15:459.87981 16:435.89589 17:283.56537 18:163.38471 19:134.69863 20:71.468111 21:40.484691 22:25.462082 23:17.798867 24:13.349243 25:11.996178 
1.850853170442526e-41 1:737253.55 2:1409.3162 3:1548.325 4:1326.2777 5:1134.5246 6:1192.7881 7:1113.2631 8:865.11005 9:853.63269 10:986.77138 11:918.04803 12:575.8613 13:347.35148 14:364.91966 15:366.53173 16:309.48468 17:233.07559 18:159.11948 19:92.881756 20:73.193357 21:45.927259 22:21.752706 23:8.3048524 24:5.1171872 25:5.1235422 
1.850853170442526e-41 1:735881.82 2:1845.8462 3:1702.2256 4:1813.3955 5:1523.3687 6:1626.3801 7:1205.0239 8:913.79757 9:1079.1912 10:962.64156 11:731.219 12:508.401 13:482.21416 14:608.85597 15:519.05144 16:381.02929 17:308.81885 18:191.49346 19:115.28386 20:85.78003 21:48.681085 22:20.838604 23:13.027892 24:9.6698363 25:6.3853491 
1.850853170442526e-41 1:731649.95 2:1614.6812 3:1492.1376 4:1756.9699 5:1409.2546 6:1290.4318 7:1246.1289 8:1355.4315 9:1156.1366 10:941.11117 11:730.34327 12:557.35986 13:611.56421 14:527.68149 15:451.57975 16:308.46699 17:190.0075 18:189.08296 19:133.3347 20:89.854647 21:45.557372 22:28.880018 23:12.161819 24:9.0825651 25:9.8436185 
1.850853170442526e-41 1:727419.06 2:1333.8311 3:1992.0373 4:1935.2674 5:1864.0097 6:1863.0023 7:1399.1164 8:1244.7928 9:1083.9686 10:989.71043 11:728.20284 12:445.87114 13:428.62281 14:442.96106 15:426.38789 16:314.95776 17:212.24435 18:171.4623 19:102.76072 20:92.919456 21:50.766464 22:22.584365 23:16.686188 24:13.669455 25:11.999337 
1.850853170442526e-41 1:723984.02 2:1567.1937 3:1203.1814 4:1286.083 5:1862.0396 6:1847.2811 7:1396.3808 8:1213.3365 9:1246.3762 10:1076.0938 11:793.52058 12:649.25595 13:613.32329 14:452.67288 15:297.99811 16:314.81256 17:243.42036 18:182.74659 19:117.31152 20:91.23243 21:44.816631 22:21.616742 23:18.983576 24:14.420932 25:11.995743 
1.850853170442526e-41 1:728542.4 2:1537.1662 3:1704.0869 4:1436.7145 5:1098.7979 6:1294.839 7:1127.0943 8:1003.5469 9:967.93032 10:753.37256 11:740.0367 12:575.76295 13:380.7804 14:392.94155 15:348.98836 16:305.74935 17:219.61166 18:138.98074 19:96.191798 20:77.457814 21:39.241585 22:27.499488 23:16.98402 24:8.3851868 25:8.209284 
1.850853170442526e-41 1:728714.36 2:1477.998 3:1676.4161 4:1712.8967 5:1252.7031 6:1419.7878 7:1631.2326 8:1374.5118 9:1096.0272 10:906.0699 11:864.40543 12:712.91832 13:434.65146 14:444.29512 15:472.22242 16:342.53231 17:206.45017 18:143.80688 19:96.940373 20:67.47244 21:45.8545 22:24.385314 23:14.979135 24:8.7563353 25:6.4220152 
1.850853170442526e-41 1:728975.6 2:1509.5914 3:1930.0529 4:2140.9491 5:1841.4301 6:1546.2494 7:1300.8952 8:1271.6904 9:1084.9134 10:887.03738 11:719.30995 12:585.54233 13:555.47112 14:615.97984 15:551.98441 16:454.37207 17:289.14974 18:193.00907 19:123.70636 20:52.90138 21:38.434245 22:25.610295 23:11.625533 24:7.508214 25:3.5074497 
1.850853170442526e-41 1:731257.45 2:1651.7941 3:1632.9182 4:1468.4865 5:1397.6851 6:1354.4952 7:1189.6131 8:1203.5534 9:1427.0975 10:1186.0341 11:746.62252 12:567.90034 13:396.56303 14:406.96098 15:488.71694 16:436.74966 17:223.23455 18:153.47518 19:116.31652 20:77.225356 21:54.625214 22:27.929273 23:19.088179 24:9.0876482 25:6.465524 
1.850853170442526e-41 1:731016.05 2:1183.4891 3:1391.0796 4:1463.1373 5:1474.4902 6:1499.613 7:1316.4141 8:1425.7226 9:1278.5219 10:970.96604 11:941.81678 12:692.6518 13:365.57165 14:393.58602 15:434.51615 16:456.44896 17:256.25538 18:135.32336 19:153.43299 20:104.5496 21:49.222235 22:19.91584 23:10.219103 24:5.9909089 25:2.797127 
1.850853170442526e-41 1:731554.48 2:2515.5238 3:2254.8937 4:1741.9551 5:1665.1157 6:1844.5564 7:1481.0409 8:1085.8999 9:916.79886 10:979.18605 11:992.67232 12:667.70107 13:479.45458 14:575.12046 15:525.79508 16:346.31325 17:250.4046 18:218.86903 19:131.61705 20:52.520373 21:34.377292 22:24.869154 23:15.919248 24:8.285131 25:6.5386493 
1.850853170442526e-41 1:734597.57 2:1980.4088 3:1695.5652 4:1416.9819 5:1417.1224 6:1628.2619 7:1415.9162 8:1295.6799 9:1247.6567 10:1013.3822 11:709.47334 12:658.90551 13:541.78343 14:505.91552 15:450.33176 16:307.6999 17:229.593 18:151.60147 19:81.583056 20:55.652827 21:42.082019 22:19.938861 23:11.159185 24:8.5699066 25:7.0567241 
1.850853170442526e-41 1:732200.68 2:1562.8269 3:1522.5274 4:1306.676 5:1240.7761 6:1184.0122 7:1231.6764 8:1203.1703 9:1277.1225 10:1245.5676 11:879.48321 12:680.76048 13:477.32118 14:368.50578 15:406.07415 16:367.1186 17:240.44353 18:174.8487 19:133.55834 20:70.532695 21:46.564399 22:25.605209 23:11.388119 24:6.8509761 25:5.999583 
1.850853170442526e-41 1:733012.79 2:1696.7521 3:1096.1184 4:1261.7997 5:1414.7827 6:897.73014 7:780.12099 8:974.47864 9:1114.394 10:1227.9738 11:975.12054 12:586.93926 13:477.47035 14:462.80727 15:382.13407 16:309.54343 17:271.78565 18:191.38486 19:110.42775 20:67.243416 21:52.500975 22:27.86049 23:16.15557 24:11.013712 25:11.060565 
1.850853170442526e-41 1:732036.27 2:1732.2564 3:1640.2416 4:1725.1627 5:1563.7857 6:1560.8401 7:1534.05 8:1132.4701 9:1095.687 10:1171.215 11:899.8815 12:681.05371 13:454.52381 14:382.68544 15:392.96014 16:278.56909 17:205.94485 18:149.0103 19:127.33966 20:81.950171 21:46.443147 22:20.797468 23:25.706444 24:28.546989 25:25.538262 
1.850853170442526e-41 1:728021.22 2:1392.6875 3:1537.6926 4:1188.9938 5:922.15889 6:1201.2499 7:1327.2631 8:1108.5539 9:867.3393 10:972.19138 11:927.55419 12:514.20062 13:478.84764 14:415.51233 15:396.07201 16:369.34881 17:284.32275 18:199.90088 19:132.34622 20:88.077606 21:51.339693 22:27.083047 23:12.270842 24:8.603248 25:7.8875607 
1.850853170442526e-41 1:736946.17 2:1619.0542 3:1469.2325 4:1299.9092 5:1057.913 6:1176.2297 7:1238.0017 8:918.48238 9:617.57388 10:760.55847 11:778.69201 12:635.96872 13:501.43462 14:370.2674 15:329.78777 16:283.84335 17:218.85899 18:193.71797 19:122.77017 20:87.522666 21:60.62319 22:42.727422 23:29.546482 24:27.951014 25:27.618999 
1.850853170442526e-41 1:738148.82 2:1514.895 3:1536.3486 4:1301.0656 5:969.86736 6:1219.7663 7:954.11406 8:874.91451 9:1102.8014 10:859.51145 11:732.5581 12:586.16959 13:311.56881 14:305.07374 15:297.29539 16:263.40241 17:246.21134 18:160.96559 19:89.623733 20:57.658603 21:34.212676 22:16.428131 23:12.861658 24:8.574253 25:7.5222554 
1.850853170442526e-41 1:741027.76 2:1674.2688 3:1663.0325 4:1730.1163 5:1253.4281 6:1165.0286 7:1215.0095 8:974.87837 9:750.72435 10:793.07826 11:646.9657 12:542.9007 13:534.12148 14:408.88383 15:390.82614 16:325.65159 17:157.68265 18:113.42689 19:129.07954 20:68.917901 21:26.146127 22:19.929426 23:19.29779 24:15.143171 25:14.660189 
1.850853170442526e-41 1:742423.52 2:1803.2159 3:1661.3899 4:1458.2108 5:1147.5987 6:1251.203 7:1247.5546 8:1231.8144 9:1238.3601 10:1225.8361 11:982.39227 12:645.60509 13:499.7725 14:450.44238 15:350.14248 16:257.32261 17:175.88017 18:152.88461 19:124.18951 20:66.794821 21:38.763089 22:24.314698 23:11.952365 24:4.58772 25:3.1590294 
1.850853170442526e-41 1:743631.11 2:1780.3244 3:1763.5367 4:1801.288 5:1304.8677 6:1060.8641 7:1101.3719 8:1180.908 9:1434.1458 10:1268.9427 11:947.45827 12:589.18523 13:397.30837 14:430.32366 15:329.65022 16:265.68578 17:239.11175 18:134.40874 19:92.911794 20:60.000942 21:30.299756 22:23.659461 23:13.912831 24:8.8467347 25:3.5031157 
1.850853170442526e-41 1:743811.12 2:1564.6899 3:1494.3863 4:1352.7009 5:1373.5372 6:1195.3789 7:955.17756 8:1113.1779 9:1218.5193 10:1153.1969 11:953.24348 12:693.78775 13:439.51118 14:395.58432 15:406.88825 16:308.73612 17:202.9672 18:154.10945 19:126.63001 20:85.819417 21:47.513818 22:20.31937 23:10.291713 24:5.3203107 25:4.3112091 
1.850853170442526e-41 1:746199.87 2:2243.6212 3:1267.8936 4:1292.197 5:1311.7261 6:1364.2954 7:1227.6992 8:980.83764 9:921.23341 10:863.09686 11:729.06025 12:512.8697 13:387.60896 14:373.86241 15:344.44089 16:289.42723 17:214.86961 18:168.40004 19:121.27909 20:61.391246 21:31.204549 22:20.995437 23:8.9887024 24:4.2436647 25:3.0873389 
1.850853170442526e-41 1:747525.71 2:2119.444 3:1412.6704 4:1076.5936 5:992.2394 6:1288.644 7:1150.8399 8:1133.1489 9:1303.2276 10:943.27684 11:761.49752 12:609.88675 13:527.00113 14:503.77945 15:377.55388 16:290.08305 17:152.14661 18:104.59686 19:72.373233 20:65.445114 21:48.434121 22:24.547396 23:11.52949 24:5.1597048 25:2.7019835 
1.850853170442526e-41 1:746120.6 2:1432.5612 3:1682.1072 4:1609.2038 5:1333.5886 6:1364.7212 7:1141.0757 8:979.65325 9:1117.2723 10:1246.7413 11:1008.1084 12:608.90264 13:481.428 14:532.70633 15:405.19262 16:278.84565 17:247.22415 18:145.86774 19:91.924243 20:53.73143 21:31.181501 22:27.53345 23:23.372583 24:20.1347 25:18.219095 
1.850853170442526e-41 1:748762.89 2:1482.7935 3:1364.3688 4:1396.661 5:1590.5897 6:1525.3043 7:1156.8102 8:1021.8727 9:852.99001 10:856.0918 11:1133.9649 12:780.27552 13:386.58666 14:377.7651 15:402.93937 16:350.2215 17:265.65375 18:196.16244 19:102.99774 20:81.196974 21:59.359214 22:32.419243 23:16.175896 24:12.073804 25:9.4703788 
1.850853170442526e-41 1:750445.69 2:1492.6955 3:1270.2696 4:1448.4032 5:1167.78 6:870.26114 7:1192.1449 8:1110.6471 9:996.35042 10:969.11367 11:779.62765 12:747.26701 13:480.41565 14:402.2038 15:336.68686 16:297.28127 17:251.925 18:132.2569 19:104.61828 20:81.667218 21:46.85807 22:20.818159 23:9.9136725 24:7.2869494 25:2.930163 
1.850853170442526e-41 1:751999.07 2:1969.7721 3:1609.7359 4:1535.7546 5:1307.4426 6:1429.0934 7:1169.5848 8:834.55494 9:1009.898 10:983.57087 11:669.7464 12:476.36449 13:435.48404 14:574.93508 15:579.72071 16:391.15951 17:209.95809 18:160.27378 19:96.163912 20:67.299539 21:43.240309 22:21.845985 23:14.159496 24:10.539242 25:7.3659033 
1.850853170442526e-41 1:753862 2:1973.4553 3:1687.7799 4:1537.7841 5:1192.6487 6:1450.5264 7:1432.7659 8:1085.8267 9:953.05159 10:736.12901 11:722.90227 12:583.63993 13:455.74957 14:523.63388 15:459.79829 16:340.75609 17:227.14328 18:150.38668 19:79.034207 20:51.264862 21:38.954847 22:21.656745 23:12.586477 24:8.7307971 25:7.4466133 
1.850853170442526e-41 1:754607.36 2:1528.6466 3:1334.9813 4:1340.5992 5:874.71614 6:1151.4996 7:1570.3613 8:1526.3787 9:1349.0855 10:995.53227 11:732.83938 12:467.84619 13:350.03993 14:435.17271 15:479.32841 16:386.37749 17:212.73241 18:147.6898 19:111.04202 20:66.712479 21:50.938349 22:36.091622 23:19.421818 24:10.605398 25:8.6881615 
1.850853170442526e-41 1:757211.16 2:1638.5586 3:1138.8584 4:1159.1186 5:1124.3521 6:1081.0525 7:1022.3854 8:1077.9759 9:1127.5616 10:899.55337 11:773.11719 12:699.02824 13:385.052 14:465.13828 15:457.72271 16:244.89713 17:210.83674 18:148.63295 19:107.82457 20:65.263106 21:42.544127 22:28.989255 23:15.276292 24:10.193291 25:11.39444 
1.850853170442526e-41 1:756342.66 2:1404.3058 3:1386.8292 4:1129.6014 5:1036.8599 6:1191.2378 7:1246.2953 8:1299.8845 9:1249.6705 10:1052.196 11:801.69266 12:760.00437 13:671.50404 14:530.15714 15:397.52822 16:340.97559 17:193.59459 18:112.70242 19:103.96597 20:65.127249 21:38.519383 22:22.420892 23:13.58026 24:7.4519603 25:3.5277744 
1.850853170442526e-41 1:757280.83 2:1583.6586 3:1828.594 4:2021.9908 5:1481.3522 6:1190.0472 7:1212.232 8:1059.5086 9:960.71695 10:740.57586 11:708.01935 12:688.35786 13:478.24719 14:488.73771 15:448.89305 16:310.40679 17:167.34352 18:147.58922 19:129.99816 20:71.532513 21:43.192711 22:33.13795 23:18.004104 24:16.977727 25:17.065199 
1.850853170442526e-41 1:757871.04 2:1581.4106 3:1363.0721 4:1805.6189 5:1741.8806 6:1000.6208 7:1015.666 8:1005.879 9:1057.0457 10:877.68858 11:618.66756 12:562.79189 13:479.50023 14:529.41581 15:412.58243 16:286.83267 17:189.02899 18:137.1795 19:106.0345 20:76.601959 21:50.857794 22:36.454219 23:22.921462 24:24.236888 25:21.916325 
1.850853170442526e-41 1:753489.69 2:1187.853 3:1614.6087 4:1543.6024 5:1142.0073 6:1365.3002 7:1174.6672 8:1061.7382 9:1131.0363 10:843.44426 11:711.32588 12:575.99658 13:465.43715 14:437.32323 15:385.77193 16:279.1543 17:220.59335 18:170.40343 19:108.66823 20:70.723187 21:48.129907 22:26.156399 23:10.452936 24:7.0793071 25:5.1161508 
1.850853170442526e-41 1:758796.98 2:1755.0177 3:2026.9001 4:1665.7833 5:1179.1071 6:1115.5007 7:1054.5717 8:995.2913 9:968.31744 10:846.96362 11:815.98115 12:807.1342 13:631.55123 14:567.61326 15:451.19616 16:325.83549 17:218.74429 18:171.00036 19:94.406631 20:65.017109 21:39.808531 22:21.644528 23:21.60478 24:19.984754 25:17.456837 
1.850853170442526e-41 1:762019.28 2:2467.2537 3:1538.6403 4:1293.0213 5:1300.7092 6:1247.7095 7:1169.0344 8:1246.2389 9:1201.4577 10:912.6529 11:902.38723 12:797.8346 13:474.84693 14:503.39139 15:473.68549 16:334.5965 17:203.683 18:146.10552 19:115.95287 20:85.992605 21:43.086013 22:22.962472 23:14.807989 24:10.802661 25:11.830588 
1.850853170442526e-41 1:759115.33 2:1517.7318 3:1541.4131 4:1586.8865 5:1269.794 6:1243.9482 7:917.04641 8:728.84649 9:884.36546 10:876.13842 11:738.78911 12:594.42932 13:502.72727 14:561.53619 15:537.58826 16:334.24917 17:191.53981 18:150.09392 19:124.78364 20:80.53395 21:55.098924 22:31.212511 23:13.729942 24:7.365452 25:6.7971613 
1.850853170442526e-41 1:757446.74 2:1233.6027 3:1543.2063 4:1345.9033 5:1089.4296 6:1221.8108 7:1121.0355 8:794.7009 9:1057.6329 10:1023.2391 11:634.32839 12:546.95826 13:489.93827 14:519.19845 15:370.62365 16:256.84793 17:225.82602 18:168.51462 19:119.84088 20:71.673823 21:38.582661 22:15.331593 23:15.712733 24:9.8590001 25:6.5036425 
1.850853170442526e-41 1:755586.03 2:1960.6535 3:1693.611 4:1636.7903 5:1277.6767 6:1485.5674 7:1400.3673 8:1069.635 9:1104.5482 10:1116.6599 11:800.60429 12:607.90469 13:528.07818 14:465.36432 15:305.89493 16:248.365 17:235.08134 18:149.58049 19:101.70657 20:66.679289 21:43.625535 22:29.326408 23:13.40345 24:5.1317222 25:2.2723925 
1.850853170442526e-41 1:754222.93 2:1223.0785 3:1149.2388 4:1595.3674 5:1400.9287 6:1196.3139 7:1063.9031 8:975.2969 9:1046.6098 10:1081.6491 11:885.3615 12:778.25809 13:598.49098 14:412.66278 15:399.45721 16:335.38508 17:225.90032 18:165.31239 19:120.00956 20:86.232186 21:40.147237 22:20.143845 23:13.857101 24:7.6558112 25:3.9032221 
1.850853170442526e-41 1:754029.99 2:1713.1363 3:915.98421 4:1163.0706 5:1253.429 6:984.76829 7:826.90244 8:789.08789 9:896.90178 10:883.32926 11:751.5979 12:624.4678 13:475.09562 14:467.95014 15:384.82173 16:249.06358 17:224.21595 18:180.99905 19:116.46037 20:68.039537 21:27.400623 22:17.114866 23:11.264784 24:6.7049734 25:4.2611601 
1.850853170442526e-41 1:752874.4 2:2218.171 3:1699.3438 4:1637.2848 5:1256.0821 6:1190.2212 7:1131.1838 8:991.28776 9:1099.6832 10:1058.8068 11:846.95784 12:647.29655 13:407.46376 14:453.21211 15:435.34978 16:274.59987 17:207.05438 18:198.86629 19:115.12684 20:58.360191 21:40.827636 22:28.963234 23:15.206608 24:8.3484916 25:7.4477973 
1.850853170442526e-41 1:753391.46 2:2669.5058 3:2169.972 4:1952.8649 5:1269.7673 6:1295.504 7:929.76429 8:732.52947 9:784.68585 10:805.13367 11:605.34489 12:528.20619 13:534.04469 14:493.50233 15:451.12387 16:329.03572 17:220.44129 18:152.41852 19:89.822856 20:57.760717 21:43.965382 22:34.582689 23:18.105619 24:10.20404 25:8.8538261 
1.850853170442526e-41 1:753404.16 2:1366.0888 3:1184.8472 4:1133.2993 5:1129.4165 6:1144.8525 7:955.57105 8:1024.445 9:1386.687 10:1198.1526 11:640.45088 12:448.91966 13:444.10417 14:508.18234 15:434.14602 16:333.55961 17:250.72259 18:144.41256 19:72.3814 20:53.91713 21:43.726883 22:31.51177 23:12.146284 24:6.3474738 25:4.3355176 
1.850853170442526e-41 1:751419.92 2:971.76446 3:1194.7331 4:1252.3092 5:1346.6195 6:1447.6699 7:1093.5682 8:793.2697 9:1153.8056 10:1095.0223 11:787.76376 12:564.0965 13:321.18253 14:272.23228 15:342.04229 16:348.7232 17:222.98346 18:147.27051 19:123.42648 20:76.944175 21:40.956831 22:22.383875 23:9.3262185 24:5.5864503 25:3.6075734 
1.850853170442526e-41 1:750904.75 2:1133.4017 3:1036.5829 4:969.28646 5:914.83159 6:1067.8627 7:902.81475 8:664.18914 9:969.49546 10:1043.1924 11:547.66391 12:412.19687 13:447.2897 14:452.70845 15:488.34966 16:374.18258 17:186.44228 18:158.11344 19:98.13315 20:65.719132 21:51.551044 22:23.747805 23:10.624639 24:8.8373927 25:7.5413027 
1.850853170442526e-41 1:748401.61 2:1525.2042 3:1379.2185 4:1035.7021 5:776.53687 6:954.40653 7:960.56368 8:950.40848 9:868.58837 10:891.14815 11:746.92448 12:596.78061 13:603.70948 14:515.05813 15:378.37734 16:279.2352 17:173.11049 18:157.43716 19:131.41849 20:79.391333 21:39.897595 22:24.310189 23:14.374504 24:9.2415127 25:10.130711 
1.850853170442526e-41 1:746542.11 2:1631.5187 3:1385.9157 4:1412.975 5:1186.0677 6:1074.5492 7:1099.5156 8:1088.8137 9:837.53495 10:711.38976 11:589.26548 12:345.97796 13:361.17769 14:348.83519 15:331.28095 16:269.2139 17:170.22344 18:136.33479 19:114.00068 20:77.947347 21:34.229931 22:15.523354 23:9.3317382 24:8.4137164 25:7.0965714 
1.850853170442526e-41 1:745888.52 2:1240.0245 3:1586.8687 4:1798.4581 5:1509.4515 6:974.35266 7:927.8089 8:1194.9915 9:1031.7191 10:768.85866 11:661.91035 12:524.78231 13:433.19009 14:402.56839 15:399.87417 16:357.49516 17:258.55187 18:179.15895 19:100.52718 20:81.27116 21:56.697975 22:24.97403 23:11.180318 24:6.0410466 25:2.5173722 
1.850853170442526e-41 1:744695.66 2:1347.8219 3:1230.0932 4:1603.455 5:1568.1925 6:1230.412 7:1195.5535 8:1220.6809 9:964.28594 10:870.13777 11:826.94189 12:610.63862 13:436.59806 14:447.91322 15:367.33031 16:301.5719 17:163.52653 18:97.637117 19:94.041415 20:56.54233 21:39.152585 22:20.419628 23:13.331431 24:7.8782581 25:3.2979249 
1.850853170442526e-41 1:744762.52 2:1430.4374 3:1693.7234 4:1744.8524 5:1520.9795 6:1332.491 7:1168.7109 8:1061.3082 9:1005.8194 10:846.8245 11:750.01526 12:823.45226 13:622.38857 14:478.66403 15:464.69148 16:342.11761 17:229.20103 18:156.65661 19:96.930552 20:84.43118 21:56.810462 22:19.524981 23:13.220255 24:6.3775168 25:2.5672141 
1.850853170442526e-41 1:743911.93 2:1572.5534 3:1770.7776 4:1625.802 5:1440.5973 6:1237.391 7:1171.8259 8:1110.4575 9:1039.2818 10:1047.9874 11:778.8121 12:546.40933 13:409.7224 14:364.07298 15:319.4409 16:330.83973 17:265.14494 18:137.4596 19:97.74575 20:67.46232 21:47.519645 22:20.903495 23:10.400133 24:4.7592221 25:4.7511702 
1.850853170442526e-41 1:744352.46 2:1541.3136 3:1465.7293 4:1566.5902 5:1518.2766 6:1251.5059 7:1186.1276 8:976.80215 9:772.96607 10:901.42405 11:699.45409 12:474.56226 13:480.86847 14:594.26936 15:537.67173 16:317.80615 17:206.23669 18:133.08755 19:105.8539 20:84.526608 21:36.68224 22:18.888337 23:8.952531 24:6.5061168 25:4.2974537 
1.850853170442526e-41 1:744102.67 2:1614.2676 3:1565.7373 4:1265.4037 5:971.98472 6:1211.3133 7:1477.847 8:1139.9098 9:1065.8183 10:894.09883 11:569.5202 12:578.06936 13:473.39979 14:389.32865 15:327.44738 16:293.52522 17:215.02331 18:133.73214 19:78.54081 20:58.440585 21:38.222979 22:16.123543 23:12.517416 24:11.078905 25:7.0959217 
1.850853170442526e-41 1:740787.55 2:1611.2425 3:1404.5096 4:1318.5708 5:1293.0195 6:1093.3091 7:1068.7979 8:1108.5214 9:1093.0986 10:989.03024 11:649.74019 12:564.77835 13:358.32073 14:375.14038 15:448.20834 16:334.46217 17:222.68736 18:161.66151 19:91.746873 20:53.361349 21:33.934994 22:23.195813 23:14.386759 24:8.4802158 25:4.7730029 
1.850853170442526e-41 1:744212.93 2:1452.4299 3:1200.0785 4:1012.6523 5:1124.4377 6:1230.2427 7:1200.3906 8:754.60642 9:791.41076 10:1002.2857 11:801.01173 12:522.50648 13:377.88558 14:337.24282 15:371.60098 16:346.46369 17:227.81766 18:149.71926 19:114.91303 20:89.401329 21:41.949834 22:23.959507 23:18.696519 24:15.922513 25:13.938973 
1.850853170442526e-41 1:745620.98 2:1054.1868 3:1246.0796 4:1285.3828 5:1132.9289 6:911.74697 7:1030.7611 8:1245.3683 9:987.73082 10:871.86177 11:865.87328 12:704.16301 13:527.08251 14:461.10076 15:355.58102 16:383.74236 17:302.72342 18:137.58015 19:96.818478 20:65.358954 21:39.235852 22:25.138706 23:10.237578 24:5.2224682 25:5.7218973 
1.850853170442526e-41 1:744438.27 2:1591.6452 3:1713.8343 4:1484.2589 5:847.82807 6:1044.172 7:1553.7467 8:1121.9787 9:708.41844 10:826.61576 11:706.81611 12:503.02184 13:429.03824 14:381.17835 15:338.83187 16:280.65683 17:179.32475 18:163.64437 19:118.06383 20:85.319931 21:49.681972 22:21.634528 23:12.697995 24:9.4625992 25:6.0673175 
1.850853170442526e-41 1:746006.29 2:1314.3882 3:1715.4858 4:1725.0854 5:1433.8485 6:1261.9153 7:1213.2039 8:1180.4987 9:878.85617 10:710.05794 11:699.10087 12:555.28233 13:512.8283 14:488.98902 15:382.9476 16:310.18008 17:206.29965 18:123.5935 19:77.110163 20:63.255321 21:40.155851 22:19.258932 23:9.5178017 24:3.6225317 25:2.3075512 
1.850853170442526e-41 1:746417.09 2:1593.5102 3:1581.8426 4:1353.9381 5:1394.6403 6:1435.7553 7:992.59857 8:749.36094 9:1088.303 10:951.78945 11:629.98691 12:592.11684 13:460.1098 14:378.52522 15:344.33155 16:307.30621 17:247.01018 18:149.14439 19:71.194662 20:52.533368 21:44.589518 22:22.512399 23:7.7029727 24:3.3942747 25:1.9880402 
1.850853170442526e-41 1:744719.29 2:1334.4134 3:1438.5483 4:1185.5517 5:932.37404 6:986.56185 7:940.11521 8:837.0143 9:1043.3289 10:1056.9404 11:673.12828 12:448.59322 13:396.62654 14:295.14877 15:231.00582 16:285.0532 17:246.18135 18:153.48301 19:84.506024 20:49.696987 21:40.891766 22:21.64662 23:11.687407 24:7.8056189 25:6.027114 
1.850853170442526e-41 1:743615.46 2:1815.4438 3:1955.8576 4:1742.0951 5:1596.3167 6:1364.2018 7:1058.4841 8:773.29232 9:881.49771 10:953.36155 11:732.38598 12:621.95309 13:535.0678 14:474.61158 15:345.01154 16:294.76643 17:217.7454 18:111.40909 19:103.93701 20:75.730129 21:43.1567 22:22.641838 23:13.168148 24:8.0444245 25:6.6423706 
1.850853170442526e-41 1:745917.36 2:1722.7151 3:1298.0563 4:1154.2534 5:1183.446 6:1279.5012 7:982.84047 8:894.66984 9:1155.0191 10:1033.6088 11:653.07472 12:378.78281 13:327.82858 14:388.55816 15:361.82004 16:304.53972 17:229.54133 18:161.16153 19:100.78077 20:75.859768 21:60.892188 22:28.710611 23:19.462921 24:12.771463 25:7.7990204 
1.850853170442526e-41 1:748366.88 2:1575.1109 3:1397.8376 4:1395.0005 5:1399.4653 6:1242.3377 7:992.35851 8:849.54177 9:1156.4972 10:1136.8133 11:656.95706 12:709.77638 13:697.94739 14:403.60972 15:294.80741 16:284.34786 17:225.84733 18:138.03058 19:110.1995 20:86.409804 21:50.179676 22:27.781774 23:18.249985 24:15.318453 25:12.527411 
1.850853170442526e-41 1:749163.29 2:1559.9671 3:1213.4494 4:1239.3452 5:1328.7722 6:1109.587 7:889.24711 8:1047.1367 9:1177.8131 10:1190.1975 11:939.69179 12:646.61743 13:517.31084 14:428.55382 15:364.95123 16:332.40808 17:220.52239 18:121.44754 19:84.205712 20:61.401465 21:45.311718 22:23.259067 23:10.351031 24:4.9897279 25:3.2925441 
1.850853170442526e-41 1:747744.77 2:1864.5277 3:1470.7293 4:1390.4939 5:1152.0424 6:1488.9274 7:1464.2777 8:1223.7301 9:1127.6001 10:887.89262 11:569.00941 12:490.77196 13:420.51583 14:444.80673 15:408.39444 16:297.30818 17:222.80616 18:135.38357 19:83.526623 20:59.305984 21:32.28371 22:18.197965 23:11.512052 24:7.7284599 25:6.7013698 
1.850853170442526e-41 1:748055.52 2:1739.5251 3:1469.8503 4:1210.5502 5:1089.2722 6:968.6291 7:862.21634 8:997.81678 9:854.49551 10:602.90562 11:687.07009 12:663.28181 13:468.34304 14:464.70222 15:375.15799 16:314.79534 17:238.57669 18:124.34867 19:81.500433 20:62.229801 21:39.457027 22:17.264701 23:12.669815 24:7.9297085 25:6.1718587 
1.850853170442526e-41 1:748936.91 2:1426.7882 3:1238.731 4:1166.0632 5:1200.7517 6:1180.4904 7:1032.3691 8:968.50427 9:749.38026 10:735.17982 11:706.36663 12:487.48997 13:485.44411 14:558.47581 15:381.444 16:309.49822 17:226.69724 18:126.70924 19:99.829919 20:74.66881 21:41.24624 22:20.789317 23:11.785764 24:4.5089022 25:2.5231523 
1.850853170442526e-41 1:746200.42 2:1651.1293 3:1814.0712 4:1390.8597 5:818.44523 6:1093.8433 7:1095.5837 8:918.29657 9:798.59949 10:694.88615 11:683.59948 12:538.2346 13:399.00998 14:385.72168 15:348.68572 16:238.41105 17:172.18228 18:102.43617 19:73.751677 20:73.586556 21:38.994709 22:23.27451 23:28.998029 24:29.524673 25:26.629404 
1.850853170442526e-41 1:741812.36 2:1731.1641 3:1406.6287 4:1036.9006 5:1077.0518 6:1312.4937 7:1070.3443 8:964.92485 9:1060.6808 10:1055.3983 11:739.03293 12:492.36753 13:366.74941 14:369.63635 15:393.40823 16:427.9019 17:301.44383 18:148.24028 19:105.78255 20:78.258528 21:39.116009 22:24.821126 23:13.516 24:4.961273 25:2.2206465 
1.850853170442526e-41 1:746523.3 2:1310.2625 3:1163.9231 4:1213.6359 5:1078.5784 6:1164.2104 7:1159.3048 8:939.16059 9:878.79216 10:812.21587 11:697.34735 12:495.30384 13:436.7394 14:517.71684 15:338.55143 16:187.96368 17:194.84975 18:150.29248 19:91.26919 20:44.615768 21:32.597882 22:23.263205 23:17.764176 24:12.787871 25:9.2519209 
1.850853170442526e-41 1:746482.32 2:1663.2835 3:1490.9641 4:1383.6107 5:1239.1011 6:1138.611 7:855.75458 8:966.29374 9:828.46597 10:596.56851 11:575.16265 12:412.91848 13:419.61762 14:407.82704 15:356.03429 16:277.59983 17:186.1648 18:163.66002 19:112.66576 20:61.981602 21:44.454292 22:30.615394 23:14.041513 24:10.130628 25:7.4873425 
1.850853170442526e-41 1:751241.36 2:1800.4128 3:1373.3114 4:1481.179 5:1348.2347 6:1151.6776 7:874.45176 8:865.549 9:931.12647 10:901.64611 11:604.85318 12:453.92286 13:549.21202 14:536.60366 15:403.17788 16:201.77778 17:143.94293 18:108.08121 19:89.759105 20:71.992819 21:36.1353 22:29.487578 23:16.800417 24:12.347631 25:13.426081 
1.850853170442526e-41 1:751370.86 2:1059.1703 3:1129.9748 4:1309.3645 5:1264.8182 6:1059.8535 7:856.43376 8:781.61594 9:677.35947 10:770.65507 11:750.43625 12:662.36603 13:549.435 14:406.43374 15:422.43973 16:344.50047 17:224.90218 18:133.30016 19:102.32562 20:71.638724 21:33.918711 22:15.29497 23:8.347553 24:5.878716 25:3.7279155 
1.850853170442526e-41 1:751267.42 2:1879.7763 3:1592.6033 4:1431.085 5:1499.1192 6:1066.4187 7:981.53604 8:1290.7059 9:1094.8783 10:977.84155 11:718.76677 12:504.66319 13:390.88544 14:300.80578 15:295.14515 16:239.08395 17:175.14693 18:157.72513 19:111.00208 20:62.671094 21:36.612998 22:14.824272 23:10.472451 24:7.7156742 25:4.5080778 
1.850853170442526e-41 1:751364.79 2:1544.2294 3:1105.0787 4:1310.1165 5:1183.2204 6:1378.1804 7:1280.4957 8:746.70145 9:935.12713 10:972.0322 11:753.95349 12:658.90611 13:474.45903 14:297.48518 15:268.49647 16:238.28855 17:166.9357 18:142.21041 19:98.432068 20:64.991951 21:23.947266 22:18.280249 23:9.9707219 24:4.3237985 25:3.1555259 
1.850853170442526e-41 1:754545.69 2:1841.3077 3:1710.5492 4:1336.9957 5:1080.8559 6:1136.1506 7:846.51099 8:756.43896 9:695.58446 10:658.5847 11:719.22943 12:520.20556 13:373.09326 14:393.4932 15:375.73788 16:294.75583 17:208.33295 18:141.48816 19:89.356442 20:56.99503 21:35.020466 22:24.408598 23:16.750702 24:13.928535 25:13.018893 
1.850853170442526e-41 1:754368.78 2:1578.8762 3:1245.5928 4:1092.5445 5:1304.217 6:1272.1719 7:767.41857 8:781.69399 9:1133.7278 10:942.68375 11:628.67962 12:460.66431 13:478.38461 14:485.82952 15:353.71383 16:312.52357 17:217.99104 18:161.96473 19:120.60525 20:65.448635 21:33.310317 22:20.325123 23:9.8693653 24:4.3998018 25:3.0625011 
1.850853170442526e-41 1:752061.5 2:1480.0707 3:1247.8792 4:1400.3758 5:1097.5123 6:957.91874 7:1082.3185 8:937.44877 9:1001.2138 10:928.11839 11:612.2092 12:551.02372 13:548.87322 14:407.67402 15:281.13386 16:255.2512 17:216.51911 18:127.87718 19:76.462739 20:83.366233 21:58.574287 22:27.430024 23:13.359007 24:10.742472 25:10.080632 
1.850853170442526e-41 1:750137.31 2:1232.2052 3:1634.999 4:1610.2747 5:1020.9132 6:974.90174 7:933.18575 8:1022.5528 9:1151.2947 10:962.91473 11:666.43765 12:440.95404 13:386.44344 14:373.93313 15:296.83953 16:240.14523 17:160.03793 18:122.32526 19:80.345581 20:56.771852 21:48.372577 22:29.149173 23:14.069781 24:6.1247622 25:3.1048307 
1.850853170442526e-41 1:753858.4 2:1400.9556 3:1656.5303 4:1579.7393 5:1049.4943 6:1085.2399 7:1104.3074 8:844.91245 9:830.43056 10:722.5013 11:551.3311 12:493.45124 13:436.25559 14:376.05169 15:257.26517 16:228.22568 17:142.7291 18:108.29573 19:93.624732 20:78.241957 21:51.44447 22:25.972865 23:15.544617 24:14.662325 25:14.650136 
1.850853170442526e-41 1:754321.88 2:1362.8435 3:898.71646 4:963.87016 5:947.11633 6:996.48576 7:859.67418 8:871.34712 9:884.19461 10:721.91796 11:450.43767 12:440.70748 13:550.55347 14:421.50057 15:345.75184 16:294.36815 17:192.59085 18:158.04977 19:95.986306 20:67.165883 21:42.125309 22:15.3215 23:11.527583 24:10.401054 25:7.357446 
1.850853170442526e-41 1:751639.83 2:1988.4736 3:1298.0829 4:1159.8962 5:1304.8651 6:1316.2688 7:1098.2873 8:938.70451 9:1005.8362 10:1036.0371 11:735.0087 12:463.57472 13:400.78402 14:376.42266 15:316.82268 16:254.77992 17:145.16351 18:139.74949 19:118.85391 20:68.397148 21:49.449438 22:28.496374 23:16.361309 24:9.0346806 25:7.6825184 
1.850853170442526e-41 1:752610.44 2:1604.6953 3:1889.647 4:2079.0586 5:1326.1606 6:1245.3822 7:1204.4346 8:906.16566 9:877.73254 10:668.67766 11:456.37229 12:595.80267 13:572.02136 14:344.95615 15:165.74431 16:137.07194 17:155.03958 18:120.23261 19:97.245636 20:63.975648 21:36.42237 22:17.52397 23:10.7331 24:8.9909135 25:7.2421782 
1.850853170442526e-41 1:752727.62 2:1108.4615 3:1093.9098 4:1167.6331 5:1254.807 6:1095.2828 7:1177.4097 8:952.74123 9:678.89473 10:708.96341 11:700.62143 12:605.52454 13:462.11414 14:355.27869 15:257.36696 16:249.25177 17:217.66651 18:147.5417 19:83.426046 20:50.09364 21:22.749604 22:16.851866 23:13.51127 24:9.5203367 25:9.5574201 
1.850853170442526e-41 1:747482.86 2:1502.1538 3:1099.9921 4:1137.4032 5:1453.3603 6:1308.9795 7:1017.6606 8:909.86059 9:929.26707 10:901.46339 11:676.73408 12:637.41805 13:567.49323 14:456.38649 15:336.20598 16:247.17842 17:165.07459 18:122.09672 19:105.43632 20:72.356131 21:44.735046 22:20.072137 23:15.272852 24:16.35947 25:16.312399 
1.850853170442526e-41 1:744070.02 2:1911.5103 3:1737.8894 4:1610.8983 5:849.21863 6:957.98802 7:1019.1664 8:1112.7503 9:1237.9848 10:791.05273 11:460.63572 12:426.71245 13:405.33354 14:414.79745 15:442.37781 16:336.54043 17:201.30116 18:130.28626 19:115.92953 20:75.723455 21:38.404493 22:23.981424 23:9.6263951 24:4.6412766 25:2.7041076 
1.850853170442526e-41 1:746329.53 2:1436.2358 3:1545.5396 4:1420.9886 5:1188.2159 6:1257.5748 7:948.92591 8:914.54531 9:942.24632 10:809.42451 11:666.51289 12:526.9364 13:547.48479 14:557.53453 15:343.00584 16:243.54892 17:187.1474 18:105.38555 19:78.192769 20:56.82997 21:29.369926 22:9.9800745 23:6.6226014 24:3.1949324 25:2.5846242 
1.850853170442526e-41 1:744552.33 2:1639.1751 3:1632.1717 4:1324.4701 5:910.56372 6:911.48926 7:853.74619 8:996.29141 9:1024.3677 10:791.77009 11:611.75545 12:387.89783 13:357.15115 14:366.91725 15:333.96108 16:247.89722 17:172.39281 18:142.98137 19:74.171546 20:52.586167 21:39.915316 22:22.023978 23:9.6626023 24:6.4228159 25:3.1341045 
1.850853170442526e-41 1:747399.71 2:1931.5657 3:1884.5354 4:1558.4166 5:1387.2913 6:1542.9024 7:1237.819 8:852.73564 9:948.82513 10:978.17216 11:749.42045 12:577.17072 13:472.03312 14:487.28648 15:415.80257 16:298.28825 17:266.02049 18:195.44037 19:87.304315 20:62.360613 21:38.108245 22:14.553468 23:7.6824267 24:5.7951909 25:3.0245815 
1.850853170442526e-41 1:746857.56 2:1151.3211 3:1588.5549 4:1783.3166 5:1428.179 6:1212.0028 7:1105.4063 8:1254.1833 9:1089.4327 10:948.19322 11:821.64499 12:531.82906 13:463.31669 14:517.27088 15:484.19876 16:369.7839 17:200.52139 18:131.65499 19:93.452988 20:69.517733 21:50.905283 22:31.660505 23:12.29089 24:4.5695006 25:3.8972405 
1.850853170442526e-41 1:745685.48 2:1303.6625 3:1896.4189 4:1883.9122 5:1302.3318 6:1464.5205 7:1345.5749 8:875.80562 9:946.24962 10:987.19274 11:724.25127 12:476.87793 13:359.9267 14:371.27999 15:297.13627 16:319.85704 17:251.65604 18:167.45661 19:109.33726 20:63.486987 21:37.63601 22:19.218035 23:11.989599 24:5.5322798 25:2.7758877 
1.850853170442526e-41 1:744506.41 2:1575.4322 3:1463.4848 4:1554.4807 5:1277.3837 6:1128.3178 7:973.19863 8:649.90815 9:807.18664 10:867.64423 11:596.13813 12:390.46907 13:218.97312 14:323.31646 15:354.45662 16:294.01128 17:221.83507 18:160.34532 19:122.14175 20:67.356087 21:29.862062 22:18.376567 23:11.297086 24:7.7786869 25:6.8727777 
1.850853170442526e-41 1:746529.73 2:1827.7749 3:1526.6209 4:1405.426 5:1095.7562 6:887.42591 7:824.09704 8:796.52784 9:835.96248 10:780.32045 11:508.80961 12:303.15459 13:378.71003 14:453.34443 15:344.08491 16:278.00244 17:213.226 18:152.21487 19:117.13998 20:61.846601 21:30.071089 22:23.810061 23:10.562491 24:5.3427152 25:3.7281999 
1.850853170442526e-41 1:744682.63 2:1277.7171 3:1316.0302 4:1343.8112 5:1206.2455 6:826.53183 7:981.20258 8:906.10813 9:683.89652 10:616.55102 11:651.03283 12:579.1864 13:349.50969 14:331.22145 15:312.35478 16:228.20671 17:155.19473 18:120.2703 19:64.590763 20:52.245619 21:39.704599 22:22.808005 23:10.437344 24:4.7797675 25:3.359943 
1.850853170442526e-41 1:745301.64 2:1839.1235 3:1065.4631 4:1049.1666 5:1231.0138 6:1126.3322 7:1154.9717 8:1154.3706 9:947.68329 10:924.21882 11:766.11481 12:586.30112 13:441.94587 14:388.11238 15:378.47842 16:214.6187 17:151.30047 18:162.07369 19:130.62431 20:82.186731 21:42.852742 22:22.349421 23:11.624583 24:7.3490556 25:4.44097 
1.850853170442526e-41 1:741581.24 2:930.55353 3:1265.8596 4:1363.5008 5:1005.53 6:913.33361 7:1179.683 8:1115.3932 9:699.42063 10:696.44839 11:553.49948 12:518.81986 13:546.26996 14:392.2088 15:374.17231 16:356.95877 17:227.00297 18:140.23298 19:86.697804 20:63.283256 21:50.450155 22:24.233804 23:10.195343 24:9.6535203 25:9.1094812 
1.850853170442526e-41 1:743246.26 2:1770.2244 3:1837.6457 4:1658.6319 5:1440.5384 6:1436.3529 7:1232.6574 8:937.57647 9:1214.7328 10:1074.4915 11:532.06555 12:262.20404 13:339.67703 14:394.95709 15:258.33547 16:210.4006 17:160.99783 18:124.5757 19:102.38224 20:47.470672 21:34.190755 22:20.55617 23:14.012461 24:11.796488 25:9.3931447 
1.850853170442526e-41 1:744131.63 2:1263.5846 3:1433.9913 4:1619.2567 5:1196.565 6:1005.4867 7:911.66214 8:848.42533 9:1074.3844 10:925.93485 11:644.74923 12:402.74793 13:427.25434 14:352.624 15:329.00155 16:309.9817 17:182.94342 18:155.98964 19:91.453011 20:48.7176 21:38.298547 22:21.350663 23:7.6305453 24:3.7386408 25:2.9581757 
1.850853170442526e-41 1:743684.66 2:1489.2584 3:1545.2366 4:1297.1466 5:998.60972 6:819.06832 7:944.14768 8:1017.2785 9:796.26726 10:665.46688 11:580.67654 12:539.54349 13:404.99701 14:304.45414 15:278.98881 16:263.11222 17:157.70664 18:101.93688 19:82.61004 20:65.41582 21:43.084085 22:22.232704 23:10.859646 24:6.4437221 25:4.0192613 
1.850853170442526e-41 1:742849.78 2:1483.4689 3:1427.4613 4:1106.5786 5:1094.8673 6:1146.8895 7:983.18238 8:915.26575 9:943.37592 10:801.16193 11:595.54654 12:482.81364 13:471.28057 14:456.61645 15:456.88124 16:353.78102 17:139.1264 18:96.132825 19:114.19185 20:72.905737 21:33.440621 22:19.444852 23:8.8522176 24:5.9457141 25:3.2026388 
1.850853170442526e-41 1:741737.96 2:1322.2133 3:1148.2119 4:1043.7295 5:872.38629 6:824.7662 7:877.49447 8:839.20584 9:752.71552 10:683.49999 11:652.1836 12:580.0161 13:378.27318 14:369.49855 15:444.78291 16:344.15811 17:140.5356 18:142.75923 19:111.91121 20:47.513107 21:29.68034 22:18.171151 23:10.738631 24:4.4739232 25:2.9220958 
1.850853170442526e-41 1:744745 2:2068.3417 3:1416.329 4:1265.649 5:1197.8863 6:1257.5959 7:1048.6388 8:858.28574 9:902.50198 10:829.81347 11:632.70544 12:525.29767 13:487.19416 14:404.83736 15:298.27077 16:266.13964 17:186.59842 18:124.78138 19:114.13588 20:83.245655 21:30.627666 22:18.41618 23:11.412441 24:6.7131022 25:4.2369036 
1.850853170442526e-41 1:746699.79 2:1371.7731 3:1576.5423 4:1410.2435 5:992.30444 6:1059.3226 7:1030.7142 8:907.90659 9:1058.051 10:1154.3806 11:774.4122 12:483.71158 13:540.72689 14:489.29388 15:391.21509 16:337.11897 17:231.44479 18:149.25823 19:89.280393 20:51.805491 21:36.589926 22:17.965952 23:11.663911 24:8.1513832 25:5.8723235 
1.850853170442526e-41 1:746528.99 2:1540.7766 3:1195.2661 4:1211.9173 5:1002.6489 6:762.10825 7:858.83986 8:944.35312 9:961.12186 10:852.71284 11:637.74649 12:508.50467 13:418.16462 14:354.30082 15:346.52692 16:314.32069 17:186.85912 18:119.52512 19:116.07891 20:78.577217 21:44.239032 22:24.237187 23:14.72941 24:7.1691289 25:4.0585863 
1.850853170442526e-41 1:746403.58 2:1393.5249 3:1523.1427 4:1448.5566 5:1078.9946 6:1078.2277 7:1124.3449 8:1012.6717 9:978.26229 10:1021.5564 11:847.43159 12:708.21739 13:565.72089 14:460.90774 15:376.89258 16:317.60158 17:231.73369 18:150.7206 19:103.02279 20:82.365847 21:44.04158 22:20.373639 23:13.510842 24:12.212759 25:12.075717 
1.850853170442526e-41 1:749023.07 2:2325.3945 3:1520.595 4:1571.1419 5:1749.0739 6:1463.1008 7:1011.8957 8:1190.9503 9:1142.4649 10:1080.4704 11:1043.1423 12:789.69891 13:541.83663 14:379.53321 15:319.86104 16:257.37447 17:265.42755 18:160.59665 19:119.20807 20:98.408488 21:43.73413 22:23.546709 23:13.144993 24:5.4235283 25:2.3865957 
1.850853170442526e-41 1:745987.26 2:2353.526 3:2674.7467 4:2264.4456 5:2419.4716 6:2303.0101 7:1691.3425 8:1653.6364 9:1813.8443 10:1380.2732 11:946.00141 12:749.94962 13:627.8465 14:607.60329 15:510.37846 16:475.64716 17:332.21569 18:217.30814 19:139.21092 20:88.507517 21:66.147348 22:33.596248 23:13.332218 24:7.7941212 25:6.2788504 
1.850853170442526e-41 1:745389.37 2:1829.6818 3:2001.8533 4:2245.5292 5:2399.09 6:1675.0929 7:1054.2854 8:974.22928 9:1204.9964 10:1259.2017 11:909.55537 12:660.67822 13:495.95101 14:378.47962 15:315.51042 16:342.00704 17:342.98968 18:251.94212 19:151.59975 20:95.15783 21:57.903386 22:25.788538 23:10.389822 24:5.2200629 25:3.0931274 
1.850853170442526e-41 1:745697.2 2:1647.5032 3:1679.6205 4:1468.3929 5:1630.2219 6:1542.325 7:1181.8443 8:1171.0027 9:948.88525 10:888.76099 11:751.83898 12:522.37048 13:559.34389 14:533.83674 15:331.94615 16:291.02633 17:333.67347 18:248.33624 19:141.14192 20:79.342597 21:50.711655 22:28.547206 23:12.058027 24:6.8040394 25:3.623835 
1.850853170442526e-41 1:746675.3 2:1540.9041 3:1481.8788 4:1573.0575 5:1243.6671 6:913.49521 7:792.73118 8:1084.8908 9:1409.2495 10:990.2287 11:670.3988 12:606.98286 13:382.36485 14:366.29668 15:410.39683 16:316.80515 17:203.14808 18:134.80749 19:91.342688 20:61.47305 21:44.724831 22:29.329433 23:13.101224 24:6.1622683 25:3.4583639 
1.850853170442526e-41 1:745589.51 2:1843.3618 3:1620.7935 4:1340.1793 5:1030.2235 6:1115.799 7:1192.1903 8:1030.596 9:909.76028 10:833.80454 11:762.33628 12:728.207 13:553.17725 14:422.3521 15:388.29 16:369.92364 17:287.09239 18:202.51445 19:115.04096 20:78.162263 21:42.049024 22:27.202699 23:15.708667 24:10.448725 25:9.0804758 
1.850853170442526e-41 1:743680.43 2:1365.246 3:1229.8607 4:1325.2006 5:1212.8684 6:1136.2506 7:1188.6361 8:1070.1635 9:977.98564 10:828.96197 11:633.74241 12:636.83581 13:601.63656 14:572.96331 15:523.92201 16:361.80165 17:230.98045 18:166.69923 19:76.438412 20:62.087307 21:48.525721 22:30.784416 23:21.428834 24:12.423658 25:9.7286958 
1.850853170442526e-41 1:744012.12 2:1501.5801 3:1145.1398 4:1288.2283 5:1194.7717 6:1090.859 7:1113.549 8:922.40967 9:735.35334 10:761.92063 11:766.21561 12:613.23372 13:379.44104 14:353.21387 15:379.91583 16:282.85988 17:184.68779 18:162.82066 19:129.82585 20:75.98911 21:36.393405 22:24.030983 23:17.114394 24:9.6311576 25:7.3044217 
1.850853170442526e-41 1:750315.02 2:1725.764 3:1524.0458 4:1448.6531 5:1155.5163 6:957.4587 7:760.05529 8:723.76109 9:825.78257 10:624.62136 11:550.84944 12:542.38163 13:389.4 14:350.67388 15:306.69943 16:231.96291 17:142.14846 18:139.48521 19:114.53199 20:80.508324 21:59.956042 22:51.894235 23:52.818104 24:50.895022 25:51.288528 
1.850853170442526e-41 1:772664.71 2:1520.5444 3:1322.4374 4:1157.1024 5:911.60322 6:1066.1537 7:995.81321 8:784.87397 9:814.68231 10:674.2941 11:610.37229 12:531.97607 13:421.73176 14:340.21674 15:268.12512 16:223.40773 17:166.77864 18:148.84338 19:109.3173 20:84.04031 21:66.653182 22:54.221505 23:53.808267 24:50.159627 25:51.07346 
1.850853170442526e-41 1:778446.39 2:1994.3499 3:1801.5343 4:1702.3398 5:1042.5199 6:942.88118 7:954.46334 8:981.42995 9:913.30152 10:820.26573 11:722.98767 12:469.93736 13:428.1304 14:454.93636 15:284.21581 16:147.9 17:136.47771 18:141.06199 19:96.562567 20:74.689462 21:63.57293 22:46.152552 23:35.041666 24:35.377574 25:35.892154 
1.850853170442526e-41 1:759977.41 2:3321.2758 3:2861.3352 4:2574.5118 5:2020.3313 6:1750.5349 7:1058.911 8:1280.6972 9:1421.6469 10:1147.7382 11:745.39604 12:580.75077 13:554.73121 14:505.47703 15:437.41617 16:334.46482 17:227.39258 18:143.60262 19:97.648604 20:70.999077 21:55.991525 22:56.795068 23:62.230473 24:56.652812 25:55.65498 
1.850853170442526e-41 1:750789.42 2:2389.7883 3:1659.8791 4:1528.1119 5:1358.3775 6:942.70627 7:1118.5068 8:1005.3181 9:816.41561 10:770.43421 11:572.69593 12:471.11792 13:389.55298 14:394.73502 15:359.00047 16:244.83401 17:210.89696 18:150.61347 19:62.182809 20:39.112283 21:33.064073 22:19.542655 23:12.182479 24:8.129083 25:5.6360913 
1.850853170442526e-41 1:752464.96 2:1961.9412 3:1850.1662 4:1355.8086 5:1031.8095 6:1318.8056 7:1628.0975 8:1436.9578 9:1171.5282 10:904.95655 11:696.97682 12:550.02677 13:575.12476 14:567.04157 15:424.19292 16:375.30802 17:270.6898 18:168.64525 19:139.78449 20:68.047313 21:46.034775 22:28.674142 23:17.984225 24:13.611288 25:11.126684 
1.850853170442526e-41 1:754199.61 2:2329.0755 3:1803.7788 4:1276.9733 5:1358.7043 6:1495.2646 7:1722.8356 8:1445.5107 9:1037.6471 10:1160.9936 11:1147.2138 12:714.84938 13:508.04709 14:506.8796 15:464.22193 16:331.30099 17:189.70597 18:114.86793 19:87.19121 20:54.947571 21:38.961798 22:31.624086 23:16.210053 24:4.1428877 25:3.2537989 
1.850853170442526e-41 1:754988.5 2:1865.0015 3:1597.7588 4:1726.8966 5:1351.8744 6:1188.0822 7:1296.4916 8:1080.3393 9:1231.7744 10:1196.7968 11:656.40791 12:450.32332 13:459.93965 14:475.4873 15:462.73016 16:370.90417 17:218.60754 18:156.61346 19:91.28069 20:64.033197 21:44.571598 22:29.033302 23:21.256254 24:14.571859 25:12.613905 
1.850853170442526e-41 1:758313.54 2:2118.4721 3:2184.2789 4:2083.5266 5:2090.1579 6:1521.8593 7:1370.8817 8:1314.0028 9:1151.7661 10:1241.6618 11:940.76589 12:706.84813 13:518.47638 14:381.53069 15:304.9605 16:279.67975 17:193.45566 18:140.45651 19:95.227489 20:62.984323 21:44.836463 22:27.199997 23:15.558077 24:8.2733263 25:5.6464802 
1.850853170442526e-41 1:760659.32 2:2205.1629 3:1739.9605 4:1437.386 5:2299.5862 6:1873.4056 7:1496.5271 8:1836.4404 9:1480.6059 10:1438.4138 11:1078.7773 12:800.34435 13:785.68874 14:718.32636 15:454.73174 16:390.33573 17:354.1289 18:247.60041 19:156.58464 20:96.441484 21:67.720168 22:36.058212 23:12.928445 24:8.3642915 25:7.3054502 
1.850853170442526e-41 1:763790.33 2:1877.3333 3:2596.38 4:2926.7296 5:2225.7046 6:1747.0693 7:1928.3568 8:2174.4146 9:1621.1985 10:901.74822 11:756.06019 12:642.72769 13:584.95272 14:505.73746 15:459.27535 16:354.51732 17:237.7301 18:217.4544 19:145.83229 20:65.611011 21:49.371819 22:38.201085 23:12.3549 24:6.6386282 25:4.5538909 
1.850853170442526e-41 1:760847.05 2:2291.4159 3:2715.4941 4:2666.191 5:2079.7516 6:2361.8684 7:2327.7381 8:1827.5911 9:1568.8341 10:1398.7484 11:1385.3772 12:1206.0484 13:1262.1966 14:899.50331 15:458.13702 16:466.58556 17:368.94843 18:239.13967 19:157.18537 20:79.068193 21:57.526245 22:29.72141 23:18.65166 24:15.753284 25:14.9141 
1.850853170442526e-41 1:760100.34 2:2676.1658 3:2028.3041 4:1545.0941 5:1496.9624 6:1662.8848 7:1697.6277 8:1369.9053 9:1304.5909 10:1224.8694 11:990.59103 12:746.18397 13:528.44189 14:538.45243 15:583.33064 16:544.22916 17:376.89672 18:229.2215 19:151.18274 20:83.288507 21:48.976101 22:24.104285 23:12.887962 24:11.159255 25:7.3433523 
1.850853170442526e-41 1:761402.94 2:2192.0787 3:2356.7827 4:2005.5056 5:1653.6583 6:2039.3983 7:2318.1232 8:1825.6594 9:1470.7103 10:1469.3267 11:1303.0007 12:1054.5261 13:849.97773 14:614.03416 15:518.0546 16:419.25983 17:276.28226 18:237.05598 19:167.32927 20:134.66203 21:68.663343 22:28.763981 23:14.46695 24:7.9391284 25:3.9193439 
1.850853170442526e-41 1:762823.1 2:1632.1155 3:1772.9506 4:1779.5246 5:1292.2555 6:1374.5411 7:1554.7498 8:1170.7781 9:1455.2792 10:1276.9464 11:634.26982 12:593.84086 13:575.23027 14:446.70042 15:456.30711 16:419.42965 17:268.95314 18:193.90166 19:132.40685 20:85.784257 21:40.675855 22:20.9129 23:16.602835 24:9.4118042 25:6.1272193 
1.850853170442526e-41 1:764883.57 2:1087.0262 3:1550.5269 4:1787.2742 5:1749.3731 6:1580.0415 7:1492.0514 8:1556.4827 9:1497.9705 10:1361.8505 11:885.48449 12:650.66824 13:702.65167 14:580.17631 15:500.70251 16:419.41943 17:262.04167 18:167.03302 19:113.95149 20:94.413296 21:48.127696 22:26.80728 23:22.279698 24:15.03194 25:11.904895 
1.850853170442526e-41 1:765091.33 2:2395.1042 3:2142.4051 4:2452.4333 5:2005.9807 6:1429.8686 7:2005.6699 8:1975.0706 9:1515.7237 10:1511.847 11:1325.4265 12:847.87712 13:623.20174 14:736.3614 15:654.56268 16:474.05367 17:368.12793 18:223.36093 19:112.17479 20:60.151156 21:47.103516 22:29.885791 23:15.029411 24:11.94052 25:8.0077646 
1.850853170442526e-41 1:761957.47 2:1828.2397 3:2097.8879 4:2516.4123 5:1997.1844 6:1309.94 7:1410.4655 8:1672.8462 9:1439.5145 10:1194.868 11:950.0339 12:815.16117 13:546.10107 14:298.90339 15:428.13929 16:501.48418 17:302.05169 18:181.40778 19:126.54232 20:81.213757 21:53.874788 22:29.493221 23:12.948084 24:6.9263738 25:4.462824 
1.850853170442526e-41 1:758428.16 2:1912.905 3:1546.1842 4:1646.7236 5:1595.5285 6:1496.8818 7:1287.1371 8:1523.9761 9:1463.3067 10:1058.1148 11:857.13204 12:596.16412 13:494.92874 14:464.48651 15:519.78599 16:457.38287 17:258.03497 18:128.82925 19:104.23466 20:75.814501 21:48.726823 22:28.346558 23:9.8268958 24:6.7882409 25:3.8791724 
1.850853170442526e-41 1:761150.18 2:1319.591 3:1195.0196 4:1303.9811 5:1241.9885 6:912.51483 7:956.36102 8:1109.9179 9:1217.1486 10:1166.6276 11:886.94761 12:562.04318 13:419.0254 14:499.01923 15:586.63823 16:457.64057 17:272.19413 18:153.35127 19:95.681306 20:80.556961 21:51.383441 22:25.374877 23:16.946604 24:7.6127172 25:2.5921772 
1.850853170442526e-41 1:761539.3 2:1796.1083 3:1900.1756 4:1785.2825 5:1332.4485 6:1348.3567 7:1539.6872 8:1475.9558 9:1403.9544 10:1191.552 11:809.42037 12:632.30652 13:563.67381 14:629.50974 15:580.85283 16:366.88218 17:244.74963 18:170.29113 19:82.278603 20:65.036438 21:51.270798 22:23.666314 23:12.537909 24:6.9023335 25:7.1272961 
1.850853170442526e-41 1:759566.46 2:2067.4862 3:2039.4698 4:1837.6184 5:1527.3572 6:1356.1197 7:1431.6198 8:1412.5807 9:1227.4944 10:847.76393 11:678.15936 12:570.89221 13:520.4726 14:455.03357 15:436.87738 16:373.89457 17:218.82304 18:169.86078 19:129.5581 20:66.889878 21:29.45105 22:20.046391 23:15.685024 24:6.4674276 25:2.5646135 
