svm_type nu_svc
kernel_type polynomial
degree 3
gamma 0.5
coef0 0
nr_class 2
total_sv 3819
rho -13.4176
label 1 0
nr_sv 1911 1908
SV
-1.730276458538686e-31 1:1514676 2:1213.1842 3:1398.0257 4:1364.4117 5:886.8422 6:895.87304 7:784.56115 8:651.75771 9:725.10741 10:724.06108 11:466.91904 12:306.48448 13:278.08078 14:256.15065 15:225.25478 16:186.89185 17:144.64086 18:99.226283 19:78.455903 20:54.235591 21:22.435448 22:15.126054 23:9.5514394 24:5.3472853 25:3.504132 
-1.730276458538686e-31 1:1516471.7 2:1483.6042 3:1302.6687 4:1227.1102 5:862.27949 6:677.76447 7:719.32341 8:632.21774 9:693.88967 10:859.87072 11:588.85749 12:298.47821 13:184.48536 14:279.74951 15:274.78491 16:151.11917 17:125.91662 18:94.996972 19:59.462353 20:41.018009 21:31.72886 22:21.920033 23:12.010689 24:7.0376953 25:6.4549942 
-1.730276458538686e-31 1:1519855.2 2:1557.2124 3:1663.6351 4:1566.9526 5:685.58486 6:671.51214 7:962.55792 8:807.49713 9:633.12805 10:586.32466 11:449.96236 12:411.5814 13:308.96067 14:238.34882 15:195.31661 16:158.36438 17:113.0123 18:75.716173 19:60.493274 20:47.498697 21:24.370876 22:16.483528 23:7.9658096 24:4.9571483 25:2.9051808 
-1.730276458538686e-31 1:1520540.8 2:1610.1904 3:1827.3647 4:1634.2008 5:1075.5683 6:1015.257 7:856.68789 8:809.02362 9:726.38425 10:629.88103 11:581.72468 12:351.85532 13:353.60709 14:346.6085 15:212.82263 16:168.00835 17:122.73329 18:77.768246 19:64.631313 20:48.423682 21:28.996391 22:20.781014 23:9.0743417 24:6.0724282 25:6.8934354 
-1.730276458538686e-31 1:1521109.8 2:1495.4938 3:1741.4849 4:1791.6765 5:1045.5304 6:905.36211 7:893.13079 8:750.20885 9:731.08873 10:743.71609 11:568.73603 12:416.13244 13:330.24402 14:309.0529 15:259.52943 16:192.11898 17:157.81151 18:107.13907 19:60.383052 20:43.293865 21:32.787945 22:22.494932 23:16.277043 24:10.696431 25:10.50618 
-1.730276458538686e-31 1:1522217.4 2:1202.9966 3:1333.0404 4:1298.0992 5:686.7413 6:638.3426 7:834.47764 8:852.74368 9:763.72874 10:724.6721 11:575.69223 12:351.27476 13:196.07768 14:204.81782 15:204.32953 16:155.39791 17:120.79262 18:101.00791 19:58.425298 20:45.560248 21:29.071707 22:18.210192 23:8.9470766 24:7.4080273 25:5.647682 
-1.730276458538686e-31 1:1524302.7 2:1172.8388 3:1359.7249 4:1231.6247 5:739.32429 6:696.16805 7:516.89138 8:457.51349 9:673.23097 10:647.59745 11:314.13341 12:311.17067 13:304.2265 14:232.86033 15:226.17777 16:196.54267 17:168.50877 18:116.57291 19:50.453064 20:38.513577 21:28.200711 22:17.986694 23:11.922873 24:4.1682258 25:2.6214074 
-1.730276458538686e-31 1:1514189.1 2:1701.6013 3:1338.1799 4:1406.8161 5:1156.1989 6:1001.8827 7:705.04657 8:705.93268 9:862.35076 10:811.80195 11:577.44622 12:387.29316 13:340.53545 14:372.57364 15:277.78408 16:182.87804 17:131.92392 18:108.79102 19:76.935969 20:31.178876 21:16.870885 22:12.914578 23:8.7191652 24:3.991473 25:2.7813998 
-1.730276458538686e-31 1:1508206.6 2:1462.099 3:1486.1007 4:1729.4036 5:1214.9625 6:873.63211 7:760.22828 8:744.39765 9:950.48215 10:1027.3523 11:735.36837 12:374.0804 13:311.59187 14:297.01145 15:222.82622 16:187.01417 17:142.46484 18:88.204316 19:58.507604 20:43.131925 21:36.68287 22:20.309153 23:11.215089 24:6.1522646 25:4.8323075 
-1.730276458538686e-31 1:1507287 2:1845.5245 3:1690.9138 4:1426.9194 5:913.14346 6:985.64452 7:898.78483 8:1008.0638 9:1141.7117 10:730.43164 11:425.4977 12:372.7032 13:391.3948 14:345.52089 15:233.80852 16:181.19862 17:120.05785 18:105.70948 19:93.719164 20:50.726425 21:20.75684 22:13.997591 23:10.410964 24:5.6951879 25:2.8927975 
-1.730276458538686e-31 1:1504591.3 2:1363.9745 3:1646.199 4:1453.8868 5:843.88252 6:614.17605 7:622.81443 8:588.10175 9:564.02941 10:561.0287 11:516.0923 12:425.14584 13:351.01252 14:297.74091 15:288.53625 16:221.69696 17:95.695982 18:83.055796 19:69.647036 20:43.317477 21:30.756468 22:20.276392 23:8.0517885 24:6.374099 25:2.7460636 
-1.730276458538686e-31 1:1506293.4 2:1204.2256 3:1654.6127 4:1877.9854 5:1127.2758 6:944.55993 7:995.38752 8:889.04023 9:1059.6887 10:946.95974 11:648.31654 12:525.30001 13:360.25197 14:273.01759 15:197.5201 16:184.55464 17:123.25212 18:90.400543 19:65.882887 20:32.089928 21:20.438969 22:17.048074 23:6.1053257 24:2.9731421 25:2.8932363 
-1.730276458538686e-31 1:1507405.7 2:1486.5811 3:1577.3983 4:1477.4138 5:995.63093 6:898.04026 7:699.72226 8:685.72871 9:921.10644 10:736.84101 11:629.12106 12:488.88283 13:309.41189 14:361.84532 15:271.94174 16:197.78773 17:129.02506 18:79.682599 19:51.927846 20:46.109957 21:27.441888 22:17.014676 23:12.017597 24:6.158609 25:5.7012857 
-1.730276458538686e-31 1:1511095.5 2:1270.2614 3:1140.8452 4:1382.9546 5:948.99771 6:687.35569 7:665.66056 8:831.77277 9:942.2053 10:598.34032 11:395.02463 12:417.01498 13:333.16945 14:259.24623 15:258.59913 16:232.22276 17:161.62591 18:143.28232 19:107.15267 20:34.123087 21:26.392861 22:16.31183 23:8.4669549 24:5.7100393 25:4.29258 
-1.730276458538686e-31 1:1512199.6 2:1716.1371 3:1206.9499 4:1067.2964 5:972.32333 6:1016.8258 7:715.19398 8:698.05642 9:839.28658 10:842.82306 11:537.19351 12:323.90709 13:389.44853 14:345.4664 15:215.96296 16:173.23602 17:118.00674 18:114.16281 19:89.003986 20:49.009342 21:29.958824 22:16.907549 23:13.062907 24:12.000167 25:9.605016 
-1.730276458538686e-31 1:1516957.4 2:1253.2635 3:1752.9596 4:1740.2462 5:930.17158 6:790.56916 7:826.37769 8:666.105 9:818.34427 10:779.47231 11:545.03033 12:495.36272 13:478.61665 14:345.76031 15:233.98146 16:172.62173 17:105.60556 18:73.614985 19:70.407896 20:63.167126 21:29.799572 22:15.872752 23:9.6141185 24:5.6565721 25:2.348924 
-1.730276458538686e-31 1:1513373 2:1202.3389 3:1106.7826 4:1226.076 5:957.42833 6:683.90424 7:614.20542 8:604.57696 9:671.011 10:651.52861 11:421.53322 12:297.45097 13:273.32247 14:231.93445 15:224.79545 16:199.31547 17:131.06765 18:76.563383 19:61.994146 20:40.545278 21:23.969751 22:11.11662 23:6.8693957 24:2.9725203 25:2.1354184 
-1.953251657294972e-32 1:1517787.9 2:1538.5088 3:1134.7027 4:1357.7089 5:953.99275 6:533.90949 7:611.72965 8:554.92699 9:548.94796 10:478.9416 11:339.93688 12:314.98947 13:292.66021 14:225.0894 15:222.27182 16:216.15095 17:156.9348 18:105.67891 19:66.456871 20:39.82913 21:24.788876 22:16.542497 23:11.524296 24:9.688141 25:9.8482635 
-1.730276458538686e-31 1:1516453.5 2:1302.6928 3:1223.707 4:1132.9972 5:848.8408 6:724.5096 7:667.98699 8:713.65102 9:722.9486 10:642.58976 11:465.40357 12:346.83867 13:260.28146 14:281.65586 15:227.69838 16:169.73949 17:154.13188 18:107.21685 19:72.885571 20:53.68144 21:32.249422 22:17.562893 23:8.2789624 24:5.178275 25:3.0340121 
-1.730276458538686e-31 1:1517503.9 2:1190.9214 3:1533.1799 4:1502.6332 5:908.36212 6:818.62738 7:726.0593 8:425.20156 9:510.44163 10:624.1401 11:412.62245 12:304.97118 13:349.07977 14:305.01285 15:251.71144 16:206.7264 17:109.51872 18:91.604906 19:65.573986 20:40.566991 21:26.752587 22:19.90455 23:10.119732 24:3.8162843 25:2.3629411 
-1.730276458538686e-31 1:1518580.4 2:1756.6583 3:1529.1264 4:1648.8219 5:1568.9204 6:1126.8293 7:807.01433 8:820.64319 9:840.03062 10:786.7757 11:564.88517 12:461.62732 13:326.85672 14:229.35332 15:283.98156 16:247.10178 17:132.26406 18:98.760314 19:71.200353 20:42.357234 21:20.923476 22:18.445368 23:15.460053 24:12.296806 25:10.895207 
-1.730276458538686e-31 1:1518751.6 2:1315.8486 3:1092.5056 4:1400.2334 5:1111.3263 6:1002.5052 7:872.5643 8:610.98058 9:583.64121 10:538.0181 11:321.16923 12:292.22538 13:305.89695 14:264.86127 15:236.71728 16:203.21553 17:111.16447 18:79.45799 19:59.401939 20:44.632993 21:31.386556 22:17.492318 23:8.3230534 24:6.815799 25:8.1557956 
-1.151381183920923e-31 1:1519722.1 2:1657.8637 3:1390.9617 4:1466.0203 5:940.9837 6:685.6373 7:728.34118 8:824.58275 9:1007.2892 10:894.08133 11:584.80543 12:449.57201 13:293.93306 14:258.3949 15:257.00584 16:204.69447 17:137.61321 18:106.12314 19:85.34078 20:55.982917 21:37.418851 22:19.99712 23:10.907199 24:5.1423927 25:2.6369269 
-1.730276458538686e-31 1:1517678.7 2:1298.3902 3:1777.7852 4:1691.7867 5:1103.3383 6:836.60442 7:780.84885 8:847.55305 9:804.42534 10:732.88629 11:515.17655 12:335.50996 13:266.47415 14:275.47914 15:263.69551 16:227.73451 17:156.28669 18:107.98154 19:71.246725 20:37.794833 21:26.105433 22:14.983102 23:13.194745 24:9.1258792 25:7.2817353 
-1.730276458538686e-31 1:1517817.6 2:1470.5978 3:1135.7037 4:1041.4608 5:889.32161 6:806.47071 7:675.51671 8:453.22933 9:594.75221 10:709.75491 11:514.34291 12:372.63365 13:281.53304 14:247.92445 15:227.85083 16:189.02148 17:127.77972 18:92.680815 19:61.949262 20:41.62769 21:30.515979 22:18.117754 23:7.1860002 24:6.3592843 25:6.5770789 
-1.730276458538686e-31 1:1517258.9 2:1315.2077 3:1305.0097 4:1419.6497 5:902.20102 6:501.6175 7:731.6915 8:701.08995 9:522.18339 10:568.41045 11:435.51271 12:309.21503 13:347.28564 14:320.56564 15:217.9433 16:188.39711 17:138.26322 18:101.24419 19:67.496261 20:41.004468 21:24.437711 22:14.288746 23:8.6278297 24:6.3708941 25:4.616723 
-1.730276458538686e-31 1:1516168.1 2:1344.7433 3:1403.5353 4:1296.5904 5:851.60523 6:733.41626 7:726.59904 8:639.51994 9:667.60464 10:678.11858 11:450.67612 12:336.1613 13:356.80981 14:337.92874 15:245.7201 16:208.03701 17:127.23811 18:89.249524 19:74.864294 20:45.57847 21:23.305061 22:14.529196 23:10.939434 24:7.5078253 25:7.7766084 
-1.730276458538686e-31 1:1516751.4 2:1022.4612 3:1442.9929 4:1601.6163 5:1003.5074 6:527.27908 7:737.18154 8:660.13245 9:564.30921 10:752.61742 11:565.06711 12:293.10165 13:257.55305 14:259.21279 15:189.1485 16:150.90638 17:148.20562 18:102.87096 19:57.843481 20:44.55634 21:22.324819 22:11.116602 23:8.6872359 24:7.2773393 25:5.4758078 
-1.730276458538686e-31 1:1516385.9 2:1468.3893 3:1381.5192 4:1114.6844 5:884.38712 6:815.97205 7:700.80643 8:534.42267 9:738.187 10:769.72013 11:451.1974 12:358.17382 13:344.783 14:285.14377 15:283.77799 16:256.11863 17:122.96585 18:92.268385 19:64.222146 20:31.026422 21:23.171568 22:14.0946 23:6.6474581 24:3.8153475 25:2.6180782 
-1.730276458538686e-31 1:1513433.6 2:1110.5304 3:1483.1633 4:1488.6516 5:962.33681 6:785.59916 7:656.03298 8:585.72265 9:708.91054 10:720.93659 11:408.85589 12:315.7977 13:297.5839 14:281.25535 15:313.81383 16:195.05302 17:77.702716 18:80.551458 19:53.501327 20:28.808892 21:24.154381 22:19.022002 23:11.165378 24:4.6476311 25:3.2454494 
-1.730276458538686e-31 1:1514351.3 2:1544.0483 3:1444.3416 4:1145.7619 5:741.21141 6:596.62375 7:552.64098 8:660.492 9:750.47113 10:628.37509 11:462.49243 12:321.57044 13:363.01333 14:367.21271 15:299.68599 16:242.73252 17:169.76302 18:138.23437 19:72.004653 20:38.437535 21:23.774905 22:15.005177 23:10.57172 24:4.7377544 25:2.5834012 
-1.730276458538686e-31 1:1516590 2:1360.6249 3:1450.0637 4:1679.8518 5:1177.2893 6:868.50499 7:702.42196 8:704.22356 9:832.38604 10:739.60405 11:476.85927 12:291.5687 13:312.93134 14:297.97644 15:245.65056 16:194.71234 17:156.63329 18:129.90775 19:61.860077 20:34.4967 21:31.478452 22:19.868914 23:11.844197 24:9.9964667 25:9.0562474 
-1.730276458538686e-31 1:1515754.7 2:1581.4105 3:1880.6181 4:1621.0814 5:834.8651 6:757.0884 7:661.99175 8:568.0866 9:587.13809 10:610.35 11:505.90139 12:394.30656 13:332.61062 14:258.23792 15:229.62414 16:148.81857 17:119.58699 18:113.44264 19:72.120085 20:45.37221 21:33.309055 22:15.567998 23:8.9607402 24:8.4065589 25:7.6510133 
-1.730276458538686e-31 1:1515069.9 2:1215.7169 3:1157.1155 4:1146.0034 5:763.17533 6:561.38716 7:663.79692 8:867.70389 9:712.89237 10:585.89658 11:460.77213 12:333.61057 13:359.07057 14:305.86384 15:241.48508 16:237.2361 17:163.70692 18:96.122909 19:56.559016 20:41.024248 21:30.488493 22:21.056951 23:10.011803 24:7.8479701 25:6.4832135 
-1.730276458538686e-31 1:1520364.7 2:1221.9632 3:1489.9448 4:1361.3565 5:801.56267 6:681.80049 7:598.57131 8:609.0122 9:570.19167 10:511.17423 11:415.37567 12:291.57709 13:260.35494 14:273.8191 15:197.76343 16:190.10576 17:141.69065 18:81.893225 19:69.829039 20:45.318189 21:32.263945 22:20.533801 23:12.983598 24:12.216461 25:12.353951 
-1.730276458538686e-31 1:1516534.8 2:1179.2179 3:1429.235 4:1513.5058 5:984.45997 6:840.62979 7:720.16312 8:665.48234 9:734.3866 10:673.44334 11:368.54038 12:317.72545 13:281.32522 14:255.67995 15:216.66871 16:165.98777 17:104.27064 18:81.905471 19:74.757579 20:40.742135 21:24.359866 22:15.238859 23:7.3119261 24:3.9935748 25:2.851091 
-1.188440438979662e-33 1:1516222.9 2:1261.1636 3:1453.9845 4:1656.8435 5:1018.579 6:984.79928 7:833.68508 8:632.32558 9:809.22097 10:652.3532 11:428.62442 12:359.04044 13:373.78821 14:352.93703 15:275.9302 16:261.28474 17:163.06301 18:108.84907 19:61.078226 20:44.211862 21:23.14457 22:9.3214263 23:11.075252 24:11.882743 25:10.229481 
-1.730276458538686e-31 1:1510401.1 2:1213.0951 3:1352.1238 4:1438.4591 5:1083.5631 6:963.62112 7:724.05607 8:598.5616 9:699.72087 10:702.55675 11:460.80088 12:347.93052 13:314.28841 14:335.13013 15:275.27691 16:171.4696 17:106.51265 18:65.104872 19:49.366741 20:35.900789 21:32.515639 22:24.757204 23:14.649204 24:11.89302 25:13.308261 
-1.039675294399777e-31 1:1510742.3 2:1370.8112 3:1711.8095 4:1601.5365 5:938.81435 6:610.01177 7:566.82236 8:678.09434 9:764.3361 10:633.9831 11:388.8085 12:323.6914 13:281.94573 14:298.97666 15:256.09887 16:195.72867 17:128.33034 18:76.022541 19:89.74407 20:83.483294 21:36.427409 22:17.407667 23:8.8638189 24:5.8173584 25:6.1194613 
-1.730276458538686e-31 1:1507610.3 2:1367.7166 3:1129.6337 4:1087.9083 5:822.50086 6:800.7221 7:642.5964 8:616.16583 9:625.0084 10:393.14001 11:369.25884 12:317.4393 13:191.76831 14:215.8275 15:224.20001 16:205.85052 17:116.53184 18:68.885425 19:61.763717 20:57.820823 21:39.095147 22:14.203319 23:10.168014 24:8.5621202 25:8.0707052 
-1.730276458538686e-31 1:1509743.3 2:1187.8519 3:1073.3313 4:944.38796 5:637.2143 6:511.4351 7:513.32457 8:618.40837 9:790.02191 10:588.05027 11:275.74134 12:289.52632 13:276.75133 14:204.49244 15:184.30129 16:163.91736 17:113.17119 18:106.89118 19:71.531459 20:42.945262 21:26.676087 22:16.530657 23:9.2336712 24:4.4564116 25:4.349644 
-1.730276458538686e-31 1:1511991.1 2:1136.2875 3:1529.4728 4:1388.8202 5:697.4684 6:684.16814 7:627.02369 8:489.43921 9:648.56453 10:636.0382 11:411.75196 12:281.86056 13:165.62795 14:224.95842 15:236.67034 16:182.06784 17:117.34524 18:85.208826 19:67.515674 20:48.216004 21:35.251898 22:17.161331 23:10.835121 24:3.9373661 25:2.85475 
-1.730276458538686e-31 1:1508922 2:1381.7721 3:1355.6973 4:1366.4367 5:787.54778 6:753.43213 7:709.21879 8:576.07278 9:614.08919 10:586.62169 11:365.31682 12:306.33806 13:334.23058 14:298.57131 15:237.43508 16:152.18194 17:108.58063 18:76.599199 19:42.720304 20:34.316864 21:26.234275 22:20.106042 23:13.391895 24:8.2436173 25:7.0203184 
-1.730276458538686e-31 1:1510542.8 2:1318.1916 3:1458.3145 4:1457.7662 5:884.85183 6:806.00251 7:800.46759 8:795.77465 9:887.85765 10:732.26342 11:455.91639 12:320.13139 13:331.13555 14:287.33581 15:206.95159 16:148.55218 17:119.46341 18:111.46222 19:69.591201 20:45.183872 21:34.736603 22:19.542066 23:9.0836427 24:6.20029 25:4.5404221 
-1.730276458538686e-31 1:1511265.1 2:1368.8776 3:1419.5261 4:1455.8544 5:919.19774 6:876.095 7:759.18519 8:686.68228 9:676.17367 10:545.8305 11:425.47538 12:274.94279 13:202.45563 14:180.46734 15:191.43324 16:176.26226 17:127.7172 18:97.261301 19:54.088303 20:33.686477 21:22.410686 22:12.085007 23:8.7276535 24:5.2204157 25:2.4662632 
-1.730276458538686e-31 1:1510991.4 2:1422.149 3:1811.4169 4:1371.8686 5:727.6557 6:760.87618 7:621.18201 8:605.28337 9:674.28293 10:681.5338 11:539.88946 12:391.26508 13:283.33324 14:270.94424 15:248.04521 16:176.63655 17:131.93166 18:85.20863 19:60.991174 20:51.489804 21:33.973489 22:27.422823 23:17.886301 24:14.530759 25:14.608409 
-1.730276458538686e-31 1:1512695.4 2:1449.478 3:1678.9278 4:1393.8692 5:859.34742 6:856.02865 7:729.4613 8:593.18555 9:573.76015 10:525.60156 11:458.51193 12:340.73546 13:361.6891 14:367.91844 15:267.64258 16:215.82224 17:126.38916 18:80.596005 19:67.276324 20:47.9288 21:33.164625 22:21.779184 23:8.3909218 24:4.474941 25:2.715321 
-1.730276458538686e-31 1:1512338.3 2:1129.8596 3:1222.8601 4:1346.6193 5:1183.5503 6:872.56732 7:498.22099 8:597.83373 9:919.74804 10:779.17245 11:335.87745 12:169.0183 13:169.99099 14:226.45848 15:197.67313 16:162.74972 17:132.58624 18:100.45005 19:64.451251 20:38.970319 21:29.000359 22:21.424303 23:18.397149 24:14.593466 25:15.110245 
-1.730276458538686e-31 1:1508732.6 2:1378.5806 3:1357.839 4:1068.4644 5:614.43974 6:547.85833 7:558.06402 8:524.96089 9:503.38305 10:490.48958 11:308.69674 12:223.1486 13:198.85148 14:219.18932 15:200.51451 16:153.74903 17:117.8899 18:74.491184 19:48.021493 20:40.997319 21:26.476601 22:12.963377 23:7.2466083 24:3.8322089 25:2.5421004 
-1.730276458538686e-31 1:1508804 2:1303.3695 3:1392.3934 4:1188.3497 5:983.45492 6:789.91915 7:549.67857 8:589.8351 9:789.01871 10:633.67481 11:295.87172 12:312.72822 13:327.5445 14:296.86043 15:252.84742 16:180.19864 17:120.96024 18:107.55989 19:64.36267 20:41.811799 21:36.20728 22:16.428677 23:6.0519694 24:3.6609071 25:2.3658574 
-1.730276458538686e-31 1:1507135.7 2:1450.5425 3:1361.634 4:1395.6488 5:624.73863 6:712.60212 7:905.56167 8:722.14137 9:696.60101 10:519.8214 11:431.11747 12:407.4069 13:230.14308 14:212.48713 15:227.63463 16:210.08096 17:145.86546 18:94.380537 19:67.966402 20:42.328586 21:22.400171 22:12.831762 23:10.295033 24:5.5550922 25:3.3484275 
-1.730276458538686e-31 1:1507786.6 2:1605.0322 3:1407.0955 4:987.86098 5:695.48319 6:685.39268 7:632.0222 8:739.75514 9:816.20087 10:717.1287 11:500.65994 12:407.72029 13:263.27935 14:231.99573 15:224.99071 16:167.81815 17:117.45397 18:75.527191 19:65.321646 20:49.128127 21:25.824521 22:13.073034 23:7.1335703 24:4.9161813 25:4.5456144 
-1.730276458538686e-31 1:1506158 2:1362.1397 3:1306.519 4:1139.5494 5:762.52812 6:655.75675 7:558.29329 8:452.58726 9:508.47142 10:561.76626 11:334.22059 12:208.96935 13:250.21155 14:284.82334 15:237.6683 16:183.21151 17:113.88764 18:74.496148 19:59.972129 20:37.007957 21:24.657011 22:15.269084 23:10.177349 24:5.3238871 25:4.0970506 
-1.730276458538686e-31 1:1506474.3 2:1069.0637 3:1376.5369 4:1251.7197 5:1016.6619 6:843.30778 7:510.06335 8:437.8672 9:627.58082 10:551.1022 11:364.73626 12:324.04957 13:286.8319 14:307.21017 15:219.88256 16:194.53345 17:166.69558 18:95.912131 19:61.486369 20:34.510131 21:31.189571 22:22.254276 23:11.225089 24:6.7309765 25:6.3542897 
-1.730276458538686e-31 1:1507101.1 2:1136.2755 3:1551.9878 4:1332.0452 5:619.25276 6:601.2377 7:819.1954 8:766.37598 9:568.03479 10:467.10915 11:360.46054 12:337.30998 13:296.83994 14:228.18476 15:167.43204 16:131.47322 17:112.57728 18:101.92802 19:70.52354 20:43.527524 21:25.711495 22:13.114084 23:8.1800599 24:4.9476334 25:3.6327435 
-1.730276458538686e-31 1:1505777.5 2:1189.9379 3:1550.4252 4:1229.4201 5:722.70076 6:639.04665 7:620.65449 8:693.24395 9:659.14922 10:505.33175 11:382.74771 12:350.63461 13:292.72226 14:238.28351 15:158.38083 16:149.49773 17:120.37081 18:89.81411 19:57.840029 20:38.29324 21:27.018986 22:16.899604 23:9.3648177 24:6.6299402 25:5.697196 
-1.730276458538686e-31 1:1507239.9 2:1412.7547 3:1490.6214 4:1093.5092 5:838.73384 6:681.76697 7:489.83131 8:481.667 9:591.94988 10:606.98625 11:341.16342 12:225.75086 13:182.09097 14:238.16289 15:259.27168 16:207.49789 17:134.70112 18:75.188216 19:62.228508 20:46.436024 21:27.342968 22:12.21189 23:6.6592721 24:4.2212361 25:2.8356413 
-1.730276458538686e-31 1:1506055.7 2:858.33665 3:1535.2872 4:1648.9555 5:769.901 6:534.51894 7:518.31493 8:465.07965 9:576.45646 10:485.93739 11:404.76104 12:354.06074 13:177.17582 14:220.46656 15:228.40258 16:151.65039 17:86.073323 18:65.141715 19:57.147567 20:38.283073 21:24.300487 22:12.948507 23:6.5011029 24:4.4453874 25:3.2157948 
-1.730276458538686e-31 1:1500921.5 2:1617.6182 3:1641.9222 4:1398.7533 5:753.1153 6:811.50485 7:702.5584 8:483.96546 9:544.71914 10:539.12421 11:376.91435 12:281.39851 13:276.95833 14:240.64477 15:193.38325 16:193.78934 17:126.01934 18:90.239249 19:59.875512 20:35.453262 21:22.591525 22:14.604277 23:7.3071165 24:3.8779864 25:2.8451121 
-1.730276458538686e-31 1:1501655.9 2:1271.5542 3:1450.1961 4:1297.6615 5:800.24308 6:638.98269 7:673.65425 8:620.29191 9:627.43279 10:617.24144 11:383.99335 12:234.53652 13:253.84211 14:257.13632 15:209.04936 16:151.20357 17:113.06119 18:83.754928 19:55.716631 20:51.569626 21:30.95363 22:15.894554 23:9.3612894 24:4.0790024 25:2.8159567 
-1.730276458538686e-31 1:1504155.5 2:1276.0579 3:1435.4925 4:1494.758 5:881.80659 6:651.83391 7:755.88434 8:770.87765 9:645.47586 10:609.46025 11:506.49503 12:324.53263 13:240.33121 14:300.33984 15:242.98754 16:149.89317 17:108.5565 18:96.810295 19:80.222728 20:45.365992 21:26.005792 22:14.947037 23:10.041837 24:6.8758307 25:4.3563435 
-1.730276458538686e-31 1:1502843.4 2:930.56046 3:1426.3678 4:1563.7605 5:888.15281 6:684.18655 7:817.3836 8:731.10321 9:630.36742 10:455.32276 11:315.49595 12:325.91352 13:269.18101 14:262.7285 15:258.49808 16:173.03186 17:103.16834 18:85.111721 19:52.025789 20:35.903664 21:32.749906 22:19.55732 23:11.148713 24:8.0844098 25:6.5156971 
-1.730276458538686e-31 1:1508274.5 2:1077.1774 3:1396.0088 4:1247.0509 5:888.53654 6:845.32009 7:718.9849 8:549.41769 9:641.62807 10:608.52638 11:420.83789 12:412.66839 13:385.24979 14:319.52342 15:224.05953 16:165.57425 17:115.44454 18:80.873981 19:62.716623 20:46.40978 21:32.844249 22:19.62972 23:9.7290253 24:6.6925573 25:5.1740563 
-1.730276458538686e-31 1:1503448.6 2:1304.5127 3:1583.8232 4:1352.5587 5:573.56798 6:568.46945 7:630.69542 8:503.01655 9:582.93342 10:606.42279 11:414.46346 12:359.36851 13:347.20544 14:281.09008 15:169.65801 16:161.80665 17:144.1946 18:101.71967 19:67.325224 20:29.67167 21:21.340758 22:22.537679 23:14.62367 24:8.4953863 25:6.9188075 
-1.730276458538686e-31 1:1507417.8 2:1591.1581 3:1324.8805 4:1136.0869 5:635.83363 6:686.37154 7:744.79857 8:483.52345 9:453.33757 10:555.07003 11:466.2401 12:358.97687 13:312.11751 14:289.92806 15:213.38112 16:173.92416 17:130.0556 18:81.218187 19:57.47986 20:37.752574 21:27.861548 22:16.445567 23:13.032856 24:9.5167998 25:8.3879172 
-1.730276458538686e-31 1:1505621.1 2:700.7342 3:997.14686 4:901.77547 5:653.35274 6:464.86845 7:608.69329 8:703.53348 9:681.76973 10:667.39168 11:417.40072 12:231.3222 13:210.45354 14:304.35857 15:241.55374 16:148.1739 17:154.12713 18:112.58598 19:46.456475 20:36.73957 21:25.533647 22:17.077161 23:7.3114098 24:3.5408741 25:3.0382961 
-1.730276458538686e-31 1:1504069.1 2:1031.1279 3:1641.8479 4:1422.9387 5:977.65845 6:1023.7301 7:607.19574 8:525.07187 9:645.30363 10:578.00331 11:453.66106 12:314.62363 13:279.5177 14:373.00819 15:323.00567 16:206.47595 17:146.98415 18:106.6893 19:53.241746 20:26.037572 21:18.960104 22:11.401692 23:4.7841986 24:3.5877709 25:3.2812416 
-1.730276458538686e-31 1:1505026.8 2:1343.2384 3:1301.9687 4:1338.2858 5:757.45772 6:565.10182 7:641.44694 8:655.4981 9:633.28247 10:475.70464 11:243.24015 12:228.25364 13:269.29253 14:267.33932 15:213.6804 16:198.99422 17:154.84844 18:87.460397 19:55.421213 20:42.548882 21:27.416342 22:14.646777 23:10.235809 24:6.704962 25:5.1671442 
-1.730276458538686e-31 1:1505991.2 2:1588.1088 3:1369.2359 4:1193.6216 5:749.30731 6:747.24522 7:693.8361 8:628.3885 9:751.18473 10:578.65779 11:385.38322 12:351.12029 13:417.56737 14:376.52366 15:201.43591 16:182.55149 17:158.79285 18:112.06001 19:76.489291 20:40.537584 21:25.948136 22:17.854422 23:11.972826 24:6.6886861 25:3.1996702 
-1.730276458538686e-31 1:1505621.9 2:1234.7181 3:1575.5641 4:1323.0191 5:747.43064 6:594.76223 7:557.6646 8:591.91079 9:679.7431 10:555.69981 11:356.20896 12:276.03308 13:251.73424 14:251.28537 15:182.65406 16:128.53793 17:123.14954 18:108.68922 19:79.246718 20:59.486199 21:30.973611 22:17.458829 23:10.782695 24:5.3120635 25:3.8378825 
-1.730276458538686e-31 1:1504305.6 2:640.69739 3:1142.142 4:1190.8204 5:794.34002 6:804.90041 7:552.06083 8:436.4604 9:662.67044 10:583.12446 11:336.41874 12:309.24231 13:242.15793 14:203.24835 15:254.2352 16:197.90368 17:85.484906 18:87.340341 19:70.518666 20:36.334029 21:21.551833 22:11.86064 23:8.0693898 24:5.2440927 25:3.7844366 
-1.730276458538686e-31 1:1504690.7 2:1222.1769 3:1608.4572 4:1481.8015 5:897.08556 6:815.78687 7:658.10873 8:457.29372 9:583.18357 10:608.76014 11:362.47363 12:229.9306 13:196.50766 14:254.43786 15:252.39045 16:195.96835 17:126.75256 18:77.011135 19:61.330881 20:48.951101 21:31.675092 22:14.714787 23:7.2913931 24:5.7632524 25:2.9688365 
-1.730276458538686e-31 1:1505495.4 2:1388.3606 3:1645.1732 4:1266.9279 5:728.69068 6:619.69563 7:598.82757 8:580.2721 9:608.9801 10:526.28131 11:318.94961 12:299.26571 13:340.07498 14:349.03793 15:230.05702 16:163.89286 17:140.88878 18:88.954865 19:68.843797 20:40.666437 21:24.603187 22:21.771028 23:10.381705 24:5.3358983 25:4.5975047 
-1.730276458538686e-31 1:1505520.6 2:1429.6787 3:1481.5743 4:1335.2971 5:721.17084 6:651.33783 7:577.60207 8:533.37988 9:687.23802 10:662.54522 11:430.2153 12:355.84894 13:288.77303 14:196.73688 15:167.32281 16:171.1706 17:121.38477 18:106.82521 19:86.068039 20:55.553616 21:38.797791 22:18.820483 23:8.9515317 24:4.6567215 25:5.7921847 
-1.730276458538686e-31 1:1506756.2 2:1513.7694 3:1623.4883 4:1493.3521 5:913.09661 6:813.16877 7:682.84106 8:560.85099 9:537.83171 10:452.34786 11:333.41238 12:345.46521 13:286.17733 14:238.97177 15:228.6112 16:239.12355 17:163.21383 18:102.28889 19:58.894516 20:44.959357 21:26.996895 22:15.635098 23:10.62855 24:3.0618891 25:2.6363917 
-1.730276458538686e-31 1:1502219.1 2:1438.5108 3:1723.384 4:1759.7692 5:987.45517 6:824.32407 7:699.15806 8:592.7278 9:567.7351 10:503.09472 11:347.46588 12:291.64725 13:252.45145 14:195.01965 15:223.79069 16:192.09327 17:110.28804 18:98.008001 19:74.996348 20:46.91997 21:25.172787 22:15.234243 23:10.675025 24:9.2779736 25:7.5386773 
-1.730276458538686e-31 1:1501406 2:1218.4558 3:1323.101 4:1130.966 5:801.32963 6:638.60878 7:594.7032 8:688.54684 9:824.6786 10:620.02786 11:432.84147 12:387.25197 13:340.86367 14:294.1635 15:287.45714 16:266.20626 17:155.82421 18:91.493049 19:50.5953 20:39.187319 21:21.109056 22:11.052191 23:14.927304 24:14.509296 25:12.304824 
-1.730276458538686e-31 1:1500201 2:1453.9061 3:1618.4161 4:1638.8598 5:887.33034 6:744.77876 7:820.74588 8:614.07447 9:602.18751 10:664.46618 11:438.70411 12:319.06887 13:284.64627 14:249.96002 15:193.80277 16:148.18567 17:106.88916 18:76.190421 19:55.878787 20:41.094133 21:22.677309 22:15.449406 23:10.516823 24:5.1070038 25:3.5659931 
-1.730276458538686e-31 1:1500054.9 2:1076.1279 3:1200.3546 4:1437.4013 5:1023.6783 6:897.74747 7:826.58302 8:560.31762 9:667.78269 10:690.4971 11:407.80337 12:364.88269 13:353.23586 14:317.2637 15:260.64446 16:186.80594 17:120.00193 18:84.35961 19:62.412462 20:42.865018 21:22.94331 22:15.588318 23:11.230345 24:7.8251904 25:6.807448 
-1.730276458538686e-31 1:1505008.7 2:1406.9212 3:1480.2305 4:1250.9138 5:833.55949 6:767.42161 7:671.94304 8:608.19473 9:687.64895 10:620.81928 11:419.52758 12:294.42359 13:266.90845 14:226.81776 15:197.23936 16:178.39516 17:120.81797 18:78.075458 19:63.710848 20:49.410465 21:33.242537 22:16.313574 23:10.450839 24:6.365208 25:5.9460102 
-1.730276458538686e-31 1:1506278 2:1182.0878 3:1384.3485 4:1328.8804 5:770.56058 6:647.00338 7:621.39214 8:613.51151 9:710.57711 10:642.92954 11:387.02089 12:289.32567 13:303.58014 14:291.13043 15:226.4839 16:182.10662 17:113.57075 18:72.028933 19:58.358411 20:49.823635 21:37.753653 22:18.11487 23:9.4253287 24:7.2483478 25:4.3483907 
-1.730276458538686e-31 1:1506156.3 2:1023.4516 3:1668.973 4:1630.9845 5:752.84221 6:786.22552 7:885.70437 8:815.27898 9:889.54781 10:587.88248 11:329.72799 12:346.10349 13:310.39982 14:273.90193 15:204.74806 16:135.48428 17:121.64663 18:99.809052 19:65.022845 20:41.360867 21:21.217554 22:11.998107 23:8.3298525 24:5.0377641 25:2.1664651 
-7.623219055748887e-32 1:1508042.4 2:1578.8532 3:1309.7531 4:1101.5278 5:876.16873 6:860.24372 7:621.64287 8:492.11379 9:563.77306 10:584.42101 11:407.52027 12:319.31669 13:267.29863 14:284.00045 15:308.95196 16:195.66815 17:82.023537 18:75.619487 19:57.867578 20:41.877097 21:25.186853 22:13.571902 23:8.9599585 24:6.5517795 25:5.406372 
-1.730276458538686e-31 1:1505858.9 2:1382.5975 3:1371.6026 4:1146.6021 5:634.88008 6:655.08588 7:631.44348 8:621.76899 9:645.35779 10:523.4412 11:309.54002 12:296.74513 13:302.47985 14:215.04773 15:214.93663 16:238.07786 17:140.31073 18:85.240097 19:58.54826 20:38.871362 21:23.509269 22:14.442501 23:13.734887 24:12.094264 25:10.752241 
-1.730276458538686e-31 1:1504420.5 2:1309.0273 3:1340.7252 4:1150.8515 5:551.30711 6:649.66875 7:812.3873 8:805.41426 9:765.94437 10:556.08297 11:447.8902 12:399.44047 13:308.14372 14:256.50094 15:152.06286 16:151.95682 17:114.26134 18:83.183101 19:70.73703 20:44.176218 21:31.013804 22:19.935959 23:11.332376 24:5.4585344 25:4.9413935 
-1.730276458538686e-31 1:1510401.6 2:1325.1663 3:1509.0969 4:1316.9034 5:1030.991 6:1014.2541 7:695.39857 8:695.83637 9:644.86082 10:489.48377 11:321.08433 12:283.03934 13:298.37061 14:287.05234 15:230.9014 16:199.51541 17:138.98286 18:91.578706 19:60.307113 20:39.061572 21:28.947949 22:18.817032 23:8.4168791 24:5.0610893 25:4.4584929 
-1.730276458538686e-31 1:1505756.5 2:1694.718 3:1325.3868 4:1200.6081 5:845.29209 6:683.85665 7:610.42765 8:550.63224 9:585.43667 10:476.76652 11:357.28808 12:308.7583 13:292.62553 14:244.98144 15:210.63404 16:197.07555 17:141.16546 18:88.700421 19:33.75547 20:35.898291 21:27.507924 22:16.822794 23:9.7550742 24:3.6757431 25:2.0313924 
-1.730276458538686e-31 1:1504352 2:1179.8304 3:1494.3081 4:1267.4627 5:709.07002 6:842.71471 7:633.08795 8:458.06304 9:660.2009 10:658.46705 11:417.51209 12:291.57996 13:301.99577 14:296.67949 15:229.45506 16:189.5766 17:114.37349 18:80.537363 19:67.882165 20:42.855964 21:25.084069 22:16.420353 23:12.863671 24:8.802329 25:8.0814212 
-1.730276458538686e-31 1:1502183.5 2:1174.6507 3:1668.3395 4:1670.7465 5:1113.5238 6:961.76422 7:958.74546 8:762.15706 9:742.238 10:610.89874 11:384.9723 12:359.11162 13:247.14222 14:178.77095 15:201.12848 16:191.12132 17:117.87066 18:88.510037 19:68.230566 20:40.229457 21:35.160428 22:20.47825 23:8.6912604 24:5.6564562 25:6.0701824 
-1.730276458538686e-31 1:1499327.7 2:1695.5433 3:1427.0047 4:1216.5153 5:947.82605 6:947.47801 7:806.92485 8:730.34467 9:676.28567 10:642.70404 11:601.81541 12:484.87702 13:325.45044 14:300.97664 15:267.28777 16:191.15737 17:116.23143 18:89.79216 19:57.211869 20:45.927499 21:21.554533 22:11.32578 23:8.7733735 24:3.7365885 25:3.7385329 
-1.730276458538686e-31 1:1498704.5 2:1507.3241 3:1378.5453 4:1243.2719 5:825.07609 6:787.90954 7:747.78698 8:507.64826 9:609.26062 10:680.94406 11:487.28593 12:319.52766 13:203.98268 14:238.1623 15:247.09222 16:147.12892 17:114.6896 18:88.701233 19:52.091908 20:39.571317 21:16.699899 22:9.0822187 23:8.4545685 24:5.8361709 25:3.356892 
-1.730276458538686e-31 1:1496756.6 2:1217.8643 3:1471.5993 4:1459.31 5:749.6601 6:607.29399 7:739.50647 8:604.07688 9:628.13156 10:592.56892 11:348.8541 12:324.06643 13:312.95587 14:288.81231 15:274.2308 16:208.2552 17:116.7062 18:100.07833 19:56.495567 20:37.88103 21:25.254279 22:21.312376 23:13.198963 24:5.1412153 25:3.3322828 
-1.730276458538686e-31 1:1493378.8 2:1513.855 3:1606.7081 4:1449.6092 5:845.0692 6:745.66776 7:519.06992 8:491.00163 9:623.38721 10:592.46963 11:475.47177 12:328.46474 13:347.5013 14:350.244 15:277.44699 16:232.70296 17:108.97547 18:81.548283 19:55.197466 20:37.213561 21:26.341799 22:22.12607 23:13.631703 24:7.4434958 25:7.5252981 
-1.730276458538686e-31 1:1491424.6 2:1076.1228 3:1522.8844 4:1435.5863 5:989.60368 6:560.56507 7:492.17407 8:553.17184 9:657.37077 10:697.91047 11:500.24557 12:339.14881 13:238.97262 14:267.66313 15:265.68538 16:186.14979 17:125.95025 18:110.31017 19:86.788448 20:51.277575 21:28.107606 22:15.756264 23:7.326354 24:5.5372425 25:4.1960467 
-1.730276458538686e-31 1:1493939.8 2:1643.7401 3:1855.0144 4:1493.7711 5:963.36485 6:658.0077 7:542.42184 8:590.10948 9:687.52123 10:703.36855 11:533.28101 12:435.89073 13:296.51829 14:296.6915 15:309.16566 16:212.75244 17:116.66011 18:82.759282 19:68.437587 20:54.584457 21:29.40308 22:14.754053 23:9.8850075 24:4.4767876 25:2.323462 
-1.730276458538686e-31 1:1496241 2:1149.4884 3:1467.3578 4:1591.8651 5:915.4366 6:744.00226 7:653.0899 8:550.94905 9:543.72196 10:569.44904 11:479.9055 12:321.16376 13:276.51585 14:259.8923 15:186.80609 16:133.39233 17:89.629686 18:92.697893 19:55.6937 20:37.726385 21:33.383184 22:23.919737 23:11.174834 24:3.9974204 25:2.9214437 
-1.730276458538686e-31 1:1494035.7 2:1550.9159 3:1517.0637 4:1325.4443 5:678.38353 6:788.98826 7:781.91476 8:603.84489 9:563.92419 10:576.9399 11:531.49323 12:439.01839 13:310.37888 14:281.16279 15:247.69864 16:168.81009 17:101.61192 18:83.202315 19:54.461857 20:41.954808 21:28.720007 22:18.411824 23:9.9050494 24:5.0963176 25:4.1598843 
-1.730276458538686e-31 1:1495952.1 2:1846.2576 3:1763.9766 4:1560.0008 5:953.93708 6:903.4419 7:736.78991 8:662.37014 9:650.76281 10:568.62775 11:441.9504 12:298.39898 13:221.28062 14:259.00928 15:274.93626 16:192.78415 17:97.218996 18:86.274307 19:60.953695 20:32.71448 21:32.594238 22:20.72412 23:9.1696904 24:5.12032 25:3.8629264 
-1.730276458538686e-31 1:1490144 2:1131.9383 3:1431.1319 4:1460.9093 5:991.96742 6:759.16734 7:537.12229 8:539.87536 9:669.7592 10:632.44696 11:434.99593 12:372.83315 13:279.60507 14:239.47466 15:248.03901 16:194.21089 17:131.50406 18:89.936251 19:49.499659 20:29.72885 21:26.994948 22:21.279407 23:12.840827 24:5.7191083 25:4.0958911 
-1.730276458538686e-31 1:1486675 2:1580.3917 3:2078.2779 4:1590.2022 5:840.61421 6:777.38109 7:606.75824 8:486.66317 9:747.31621 10:784.50313 11:382.42581 12:267.92661 13:235.5697 14:197.77546 15:245.4558 16:209.94198 17:130.55098 18:93.541407 19:71.092412 20:52.99378 21:22.677383 22:14.72621 23:8.8628844 24:5.7729689 25:3.7692833 
-1.730276458538686e-31 1:1486168.5 2:1422.8172 3:1374.5051 4:1172.3914 5:973.39531 6:764.81535 7:540.09343 8:541.61109 9:582.31324 10:568.64096 11:401.71104 12:283.57791 13:234.11694 14:295.47834 15:279.25968 16:201.84704 17:156.75741 18:134.35729 19:89.091165 20:35.645406 21:26.461321 22:15.560851 23:8.2747811 24:6.501006 25:5.3785975 
-1.730276458538686e-31 1:1489188.7 2:1711.8306 3:1313.6869 4:1080.1621 5:676.7714 6:809.28747 7:651.77144 8:508.34249 9:777.31557 10:762.69111 11:449.49114 12:311.43198 13:312.66437 14:290.97517 15:224.02809 16:210.99704 17:120.60302 18:70.99128 19:65.161302 20:49.147597 21:32.721475 22:14.884995 23:6.6120326 24:3.7766116 25:3.2891172 
-1.730276458538686e-31 1:1481163.5 2:1559.0057 3:1879.6843 4:1483.9677 5:937.45855 6:938.25367 7:711.27399 8:426.6459 9:690.5035 10:616.81722 11:327.86696 12:317.01927 13:344.54948 14:262.04254 15:181.20059 16:166.05467 17:120.77729 18:95.311997 19:71.889395 20:47.479637 21:26.073747 22:14.322962 23:7.8378777 24:5.3370129 25:4.0688447 
-1.730276458538686e-31 1:1482633.3 2:1634.411 3:1802.2696 4:1524.1321 5:946.80546 6:868.02275 7:809.4824 8:644.7565 9:730.4017 10:605.77582 11:434.96735 12:403.85989 13:349.30285 14:310.9374 15:187.91353 16:166.24353 17:121.57657 18:100.59807 19:73.805287 20:38.816202 21:24.973499 22:16.891969 23:12.20726 24:9.45604 25:6.9916336 
-1.730276458538686e-31 1:1482079.3 2:1497.8047 3:1594.3386 4:1318.9826 5:620.24185 6:725.72342 7:674.15551 8:518.55049 9:665.38385 10:644.21418 11:435.66034 12:336.10474 13:259.2348 14:274.60342 15:263.68541 16:188.22619 17:156.30905 18:108.43486 19:59.106289 20:58.255164 21:32.98364 22:14.505768 23:9.7755295 24:7.2001126 25:5.6629896 
-1.730276458538686e-31 1:1481305.9 2:1575.2626 3:1504.621 4:1293.6053 5:959.21927 6:764.56265 7:686.47728 8:683.53969 9:625.21732 10:650.05545 11:602.67841 12:412.43957 13:300.72074 14:312.14456 15:279.44232 16:263.07473 17:179.90394 18:102.0693 19:69.476904 20:56.500949 21:29.167235 22:14.652991 23:8.7858911 24:5.8283764 25:4.6171929 
-1.730276458538686e-31 1:1480053.5 2:1237.5835 3:1565.1663 4:1444.134 5:932.08747 6:1088.2975 7:889.98082 8:588.44987 9:558.1529 10:488.85523 11:426.94795 12:340.79418 13:291.80121 14:316.66004 15:274.11972 16:245.04323 17:116.8396 18:75.208032 19:75.591057 20:49.109829 21:26.255585 22:11.903575 23:9.5487509 24:8.1890721 25:7.0960602 
-1.730276458538686e-31 1:1480211.1 2:1545.286 3:1358.242 4:1222.0476 5:850.05488 6:827.25954 7:606.12452 8:535.42965 9:632.52026 10:545.4565 11:404.8079 12:376.54155 13:322.60994 14:307.18905 15:255.75312 16:156.84248 17:108.43483 18:92.250988 19:84.67481 20:45.876263 21:20.451916 22:15.364882 23:8.5908616 24:3.5805588 25:2.3191814 
-1.730276458538686e-31 1:1486910 2:1606.0766 3:1391.901 4:1420.2797 5:885.42114 6:781.73585 7:492.0587 8:519.49933 9:799.83124 10:661.47354 11:443.06455 12:450.45537 13:326.56727 14:217.29984 15:227.19284 16:172.15909 17:126.95072 18:96.795566 19:46.681126 20:36.892591 21:31.570941 22:18.17641 23:9.8183415 24:3.5143433 25:2.7432491 
-1.730276458538686e-31 1:1489195 2:1453.9314 3:1593.6098 4:1373.3697 5:848.62945 6:816.93994 7:884.00839 8:630.66354 9:663.11209 10:636.46232 11:471.2237 12:377.30428 13:230.63143 14:219.4267 15:218.41614 16:155.09151 17:105.05202 18:93.868455 19:73.320476 20:41.02455 21:22.143414 22:14.072537 23:7.8920763 24:5.3061857 25:5.031004 
-1.730276458538686e-31 1:1489474.7 2:1371.4811 3:1578.4058 4:1280.1046 5:937.94326 6:923.44285 7:786.88283 8:669.3176 9:709.14214 10:597.60756 11:438.01543 12:269.79007 13:248.22761 14:314.05308 15:246.24933 16:177.12139 17:121.37865 18:60.264251 19:48.378973 20:39.284581 21:26.006286 22:18.227795 23:9.8410699 24:4.1109438 25:1.8169677 
-1.730276458538686e-31 1:1489462.2 2:1568.232 3:2000.7937 4:1770.9789 5:938.85318 6:526.69347 7:513.68435 8:743.52444 9:890.17323 10:707.31912 11:402.73258 12:286.87379 13:237.74136 14:225.09974 15:249.65119 16:192.63341 17:109.97099 18:71.637334 19:56.06043 20:36.234036 21:24.112858 22:15.893634 23:10.78943 24:6.1773286 25:4.3258534 
-1.730276458538686e-31 1:1489399.2 2:1495.2112 3:1563.3896 4:1464.4373 5:807.82017 6:875.79915 7:720.50159 8:534.02337 9:795.59883 10:755.60656 11:376.39458 12:383.77205 13:386.24226 14:316.73182 15:263.66341 16:169.87504 17:140.42378 18:99.230037 19:55.633692 20:40.012571 21:30.254623 22:16.525913 23:7.4196444 24:4.6236291 25:5.1674682 
-1.730276458538686e-31 1:1485618.7 2:1519.3231 3:1894.3438 4:1577.8968 5:1061.9161 6:1010.135 7:834.85259 8:735.44897 9:873.6882 10:724.81524 11:321.60197 12:355.30397 13:329.02334 14:220.40994 15:202.36544 16:187.2378 17:137.92201 18:100.93783 19:68.716522 20:48.988483 21:34.994667 22:23.089614 23:13.026261 24:11.125365 25:10.400548 
-1.730276458538686e-31 1:1486502.4 2:1502.4288 3:1538.653 4:1337.5055 5:941.26985 6:862.40004 7:848.04454 8:722.65099 9:651.58464 10:626.43526 11:348.62047 12:235.55259 13:254.7514 14:206.71571 15:210.42634 16:197.94601 17:113.02995 18:94.909408 19:72.636857 20:37.717763 21:29.730842 22:15.685408 23:5.5597828 24:3.3708129 25:3.5390598 
-1.730276458538686e-31 1:1486498.1 2:1138.6269 3:1274.8701 4:1421.3779 5:1065.29 6:821.02392 7:653.02355 8:648.23059 9:686.26673 10:539.6538 11:343.88772 12:283.9366 13:250.1906 14:282.88684 15:205.52193 16:142.8545 17:116.18811 18:79.509168 19:67.381793 20:48.517524 21:29.84256 22:19.869456 23:10.305301 24:3.9671727 25:3.1352004 
-1.730276458538686e-31 1:1485115.5 2:1671.0163 3:1358.3357 4:1097.7502 5:591.87608 6:587.52777 7:506.80627 8:469.55916 9:756.27668 10:629.22429 11:313.78671 12:328.93656 13:257.51583 14:218.37524 15:195.82422 16:136.23029 17:143.8522 18:133.36258 19:77.662506 20:43.123809 21:32.138277 22:22.503381 23:10.902531 24:6.5590438 25:5.159936 
-1.730276458538686e-31 1:1484347 2:1496.6185 3:1545.1132 4:1292.9787 5:804.70239 6:751.84227 7:715.83982 8:758.92611 9:871.15555 10:797.42644 11:526.5971 12:241.08181 13:173.62754 14:203.62283 15:209.07836 16:161.64984 17:122.94496 18:101.47815 19:63.071429 20:39.530016 21:22.877456 22:15.279245 23:7.9709601 24:5.6015158 25:3.373071 
-1.730276458538686e-31 1:1486891.5 2:1196.0054 3:1546.4498 4:1688.5653 5:961.95695 6:720.83594 7:739.92412 8:683.35717 9:702.19344 10:507.91343 11:351.66411 12:363.12024 13:356.82597 14:315.03868 15:204.63689 16:155.77246 17:110.69376 18:84.303383 19:69.759204 20:46.255541 21:27.684793 22:16.533514 23:8.2176424 24:6.1291343 25:5.2203206 
-1.730276458538686e-31 1:1484991.3 2:1378.915 3:1201.7119 4:825.84389 5:583.47758 6:550.52199 7:476.75951 8:541.21496 9:693.77846 10:620.55939 11:417.04196 12:378.1074 13:271.95951 14:194.72551 15:194.6998 16:161.41515 17:93.121641 18:92.187495 19:66.187658 20:47.56416 21:28.110386 22:13.875033 23:8.4623829 24:5.7838559 25:3.5352112 
-1.730276458538686e-31 1:1486424.8 2:1481.9947 3:1416.4124 4:1314.3888 5:735.97645 6:819.10751 7:798.5021 8:661.26832 9:845.20177 10:754.83207 11:370.74033 12:250.18919 13:343.40086 14:314.65448 15:196.04141 16:161.36193 17:125.17659 18:100.72789 19:69.730925 20:47.261038 21:29.275574 22:15.485851 23:8.1538111 24:4.4089019 25:3.1008541 
-1.730276458538686e-31 1:1486443.7 2:1938.5695 3:1404.0919 4:1416.5564 5:1179.3504 6:897.72822 7:700.27414 8:656.23974 9:669.35376 10:580.82952 11:523.60644 12:448.52598 13:342.76252 14:264.35893 15:201.42276 16:195.80618 17:132.0142 18:77.182221 19:52.723725 20:41.054009 21:27.693876 22:21.402093 23:11.245415 24:7.4877655 25:6.8517004 
-1.730276458538686e-31 1:1484074.3 2:1544.5634 3:1589.4373 4:1382.7964 5:908.81436 6:721.2555 7:657.6282 8:540.01655 9:629.30659 10:680.65957 11:488.71238 12:277.52111 13:191.68861 14:199.12783 15:203.26206 16:148.50342 17:82.879986 18:76.923302 19:67.847404 20:50.223447 21:37.777258 22:23.528057 23:9.8238705 24:4.917181 25:2.4967246 
-1.730276458538686e-31 1:1484033 2:1662.173 3:1575.0152 4:1292.8544 5:818.5764 6:940.81188 7:767.753 8:660.18972 9:752.49441 10:718.51295 11:434.56701 12:297.16514 13:286.33442 14:281.67895 15:220.43405 16:135.132 17:82.756391 18:81.027372 19:63.509589 20:48.707622 21:29.227176 22:18.464654 23:8.9838094 24:6.1137247 25:6.3319254 
-1.730276458538686e-31 1:1482480.9 2:1535.8282 3:1678.3202 4:1507.5526 5:1051.826 6:811.45 7:516.94943 8:464.96273 9:561.96348 10:692.51084 11:500.29201 12:300.71692 13:225.80031 14:276.16194 15:310.56347 16:229.25447 17:132.04355 18:69.348138 19:50.740958 20:37.814767 21:20.795355 22:18.513214 23:14.609124 24:10.883533 25:10.454316 
-1.730276458538686e-31 1:1482067.6 2:1778.8751 3:1553.0687 4:1016.5663 5:822.1696 6:973.22181 7:623.10097 8:496.52447 9:634.97518 10:590.48705 11:438.2816 12:306.79306 13:278.12246 14:259.0228 15:219.00011 16:165.65982 17:111.73308 18:99.989154 19:64.87367 20:36.267316 21:23.637807 22:11.075308 23:7.2255023 24:5.2727292 25:2.5820987 
-1.730276458538686e-31 1:1480558.9 2:1438.3849 3:1394.0423 4:1166.5564 5:878.83559 6:926.93364 7:636.92164 8:401.60678 9:593.54218 10:585.7046 11:380.92571 12:302.2137 13:265.88236 14:273.99477 15:205.72207 16:174.81936 17:125.06077 18:88.040317 19:78.279661 20:48.783389 21:32.149923 22:21.5878 23:7.2035127 24:3.3366371 25:3.0940832 
-1.730276458538686e-31 1:1484863.3 2:1694.8214 3:1553.3747 4:1299.9787 5:787.90765 6:886.45884 7:840.80053 8:596.13369 9:606.69385 10:652.44247 11:545.23562 12:394.39747 13:246.8249 14:189.12961 15:186.0859 16:200.55547 17:147.55023 18:103.44824 19:72.872974 20:50.334911 21:28.660962 22:15.262397 23:10.187018 24:6.1548464 25:5.9704293 
-1.730276458538686e-31 1:1481815.3 2:1409.261 3:1704.468 4:1612.8016 5:725.57039 6:752.23099 7:688.92933 8:566.86928 9:607.42718 10:495.13409 11:424.15419 12:368.26797 13:316.24885 14:306.08226 15:224.45772 16:186.46538 17:107.17796 18:45.78146 19:41.633363 20:40.456846 21:27.689147 22:14.777442 23:5.2184521 24:4.3336255 25:2.8865736 
-1.730276458538686e-31 1:1483724.9 2:1318.3379 3:1456.5973 4:1398.1261 5:795.75015 6:603.71649 7:758.72277 8:905.84211 9:878.20883 10:704.32105 11:450.82578 12:255.47708 13:188.87931 14:205.58082 15:210.99196 16:183.44192 17:107.86173 18:76.00781 19:56.7721 20:39.536297 21:27.817628 22:14.855624 23:8.4202307 24:6.9373415 25:6.3603839 
-1.730276458538686e-31 1:1480754.3 2:1573.1801 3:1286.0227 4:1171.7751 5:981.08683 6:771.1609 7:570.57988 8:510.48941 9:545.9512 10:612.8918 11:438.88857 12:272.99894 13:222.93583 14:303.95734 15:328.72052 16:221.41226 17:135.41728 18:84.410131 19:64.749204 20:48.66406 21:27.80794 22:13.905711 23:7.6416179 24:4.7138553 25:3.6555161 
-1.730276458538686e-31 1:1480573.2 2:1323.6589 3:1258.6806 4:1123.593 5:806.37862 6:808.67821 7:706.58714 8:702.09748 9:783.94601 10:680.2919 11:525.24177 12:354.95812 13:237.54592 14:221.1928 15:160.29558 16:134.59051 17:115.32928 18:100.14483 19:81.934018 20:43.931237 21:21.35783 22:14.610778 23:10.592012 24:6.8522578 25:5.8343626 
-1.730276458538686e-31 1:1478931.5 2:1444.3273 3:1345.2196 4:1292.4565 5:857.01194 6:590.7105 7:672.31026 8:690.93173 9:727.86044 10:654.33715 11:392.78719 12:288.08425 13:174.64089 14:201.46659 15:228.80828 16:183.57559 17:105.73027 18:80.685089 19:63.212918 20:38.100106 21:29.841341 22:15.545038 23:8.5707088 24:6.0553597 25:6.8774724 
-1.730276458538686e-31 1:1477440.9 2:1211.9329 3:1572.9525 4:1352.9254 5:814.28402 6:714.11131 7:599.96229 8:544.21871 9:601.39662 10:614.16391 11:368.78336 12:238.67806 13:246.61552 14:251.51622 15:218.04356 16:175.67299 17:141.22192 18:101.71266 19:74.263672 20:59.72408 21:29.383265 22:15.575975 23:9.674466 24:7.5017887 25:7.0569595 
-1.730276458538686e-31 1:1476660.6 2:1557.0163 3:1539.2119 4:935.76805 5:592.29915 6:695.01725 7:554.79929 8:406.11285 9:655.70242 10:598.84846 11:357.13557 12:347.2453 13:325.72866 14:315.5976 15:269.46584 16:193.0685 17:90.390636 18:63.84732 19:53.158233 20:43.438331 21:31.652401 22:16.349511 23:9.5214543 24:5.5115019 25:4.8585865 
-1.730276458538686e-31 1:1477778.2 2:1376.5793 3:1650.9357 4:1396.9065 5:683.14918 6:674.69618 7:559.37419 8:450.69315 9:686.3163 10:648.33237 11:389.44639 12:292.14852 13:319.23068 14:281.29502 15:276.32362 16:248.99088 17:106.16411 18:98.913391 19:79.535543 20:44.378284 21:27.853894 22:13.395539 23:7.6744873 24:5.7416756 25:4.1818207 
-1.730276458538686e-31 1:1477346.7 2:1079.0573 3:1324.2182 4:1186.6021 5:959.1696 6:813.7664 7:679.04932 8:476.90095 9:569.00929 10:647.99327 11:401.27846 12:356.95706 13:261.4348 14:240.65645 15:218.12992 16:153.39489 17:119.81284 18:85.537609 19:62.940253 20:30.488123 21:20.445123 22:17.953713 23:8.8992533 24:3.7993801 25:4.0803322 
-1.730276458538686e-31 1:1479240.5 2:1506.0137 3:1400.7155 4:1491.5244 5:1112.5141 6:838.09392 7:596.63391 8:639.41909 9:614.88244 10:522.81301 11:478.20323 12:351.98914 13:305.57507 14:265.4305 15:184.85626 16:156.15069 17:114.86188 18:73.234653 19:53.908002 20:31.367675 21:19.864267 22:17.307073 23:11.185321 24:7.0519205 25:6.5848609 
-1.730276458538686e-31 1:1481312.8 2:1429.8107 3:1424.8221 4:1367.4602 5:931.27352 6:841.41528 7:555.47064 8:500.46774 9:582.16147 10:560.60156 11:491.30031 12:321.96963 13:217.38621 14:192.72421 15:197.1534 16:166.42091 17:93.344446 18:68.428912 19:62.584768 20:42.104625 21:25.393661 22:17.299075 23:7.9484566 24:3.9414583 25:3.4121125 
-1.730276458538686e-31 1:1477318.4 2:1345.18 3:1723.4832 4:1512.648 5:770.99199 6:702.86026 7:673.99831 8:736.53675 9:914.25726 10:675.59481 11:372.91973 12:290.63136 13:271.38726 14:271.14006 15:235.47171 16:223.41393 17:153.03907 18:77.519016 19:70.703647 20:54.735945 21:27.833114 22:14.280982 23:9.2189976 24:5.4958256 25:3.4167942 
-1.730276458538686e-31 1:1476296.2 2:1526.5729 3:1863.5904 4:1308.9738 5:521.10713 6:677.52942 7:687.66129 8:605.281 9:739.10484 10:650.44632 11:351.0234 12:195.56786 13:155.04807 14:231.44477 15:256.29888 16:212.41226 17:162.48065 18:127.88324 19:54.161076 20:29.176779 21:21.087639 22:14.004143 23:7.4257641 24:4.443303 25:3.4468777 
-1.730276458538686e-31 1:1476947.2 2:1531.2099 3:1259.6077 4:931.99032 5:601.66614 6:422.60801 7:567.07998 8:646.55003 9:656.50016 10:558.607 11:434.89397 12:338.1071 13:232.94946 14:259.80026 15:235.15574 16:140.04926 17:88.272992 18:88.717094 19:66.076463 20:40.374294 21:19.887204 22:14.529822 23:9.4791351 24:4.6771789 25:2.635571 
-1.730276458538686e-31 1:1478188.9 2:1350.1222 3:1454.9406 4:1258.9624 5:679.24717 6:551.50164 7:477.48083 8:557.42094 9:635.66716 10:582.5185 11:438.56685 12:342.87327 13:288.28713 14:218.47019 15:167.41709 16:182.81908 17:151.90279 18:94.579463 19:62.064378 20:35.0411 21:29.717101 22:18.797133 23:13.775709 24:11.527094 25:9.8184754 
-1.730276458538686e-31 1:1477652.9 2:1337.1418 3:1604.532 4:1292.6571 5:831.44529 6:744.82383 7:694.79259 8:612.91528 9:651.57552 10:688.838 11:535.23753 12:320.89366 13:166.08634 14:265.85021 15:351.95317 16:213.47991 17:72.987588 18:67.042989 19:78.5684 20:55.055615 21:26.002913 22:16.55603 23:8.0242832 24:5.146112 25:4.852133 
-1.730276458538686e-31 1:1478239.1 2:1368.6035 3:1392.063 4:1295.2464 5:1084.7168 6:877.38804 7:714.26817 8:532.77133 9:555.89297 10:572.13877 11:370.8642 12:248.83587 13:205.01883 14:148.71766 15:158.25758 16:190.99067 17:123.77216 18:67.694892 19:60.619345 20:44.484209 21:24.402182 22:13.499338 23:9.8628229 24:6.4093359 25:4.1494839 
-1.730276458538686e-31 1:1479703 2:1419.1648 3:1612.3199 4:1224.2339 5:833.36963 6:869.08245 7:629.61428 8:581.57074 9:677.6844 10:662.96661 11:564.55677 12:492.21801 13:336.32318 14:268.7513 15:220.41922 16:163.86999 17:139.79335 18:98.265204 19:68.399915 20:36.979337 21:19.967075 22:15.585552 23:9.0237146 24:4.50717 25:2.8071325 
-1.730276458538686e-31 1:1478843.9 2:1353.5915 3:1305.7591 4:1201.7643 5:821.09832 6:887.47072 7:744.70789 8:568.85762 9:672.57416 10:774.80446 11:612.45419 12:276.00644 13:172.87547 14:268.15981 15:291.28716 16:189.54889 17:118.91868 18:113.2063 19:66.164529 20:44.347087 21:29.351972 22:14.650412 23:10.353933 24:8.5899297 25:7.7004986 
-1.730276458538686e-31 1:1472460.9 2:1479.707 3:1756.5589 4:1442.583 5:1037.1591 6:898.7745 7:642.34588 8:539.94039 9:813.44539 10:722.41369 11:568.95597 12:532.36951 13:331.46321 14:294.0463 15:277.69787 16:202.57922 17:104.63507 18:68.886258 19:61.275467 20:41.681711 21:21.996705 22:16.299317 23:9.7507093 24:9.4861664 25:7.919734 
-1.730276458538686e-31 1:1473763.6 2:1542.2895 3:1722.3167 4:1660.9343 5:891.03678 6:826.41596 7:832.164 8:660.94675 9:663.97287 10:713.20766 11:752.46121 12:576.71377 13:383.40559 14:263.42351 15:222.93332 16:268.62551 17:211.87224 18:135.75489 19:65.109624 20:49.166584 21:37.71724 22:22.356152 23:12.155417 24:5.0782007 25:2.7650267 
-1.730276458538686e-31 1:1474740.6 2:1564.2598 3:1471.0039 4:1632.0106 5:1341.3641 6:1126.5001 7:818.70517 8:714.48139 9:886.17043 10:667.14028 11:496.77265 12:585.67985 13:461.26209 14:275.28391 15:158.86281 16:194.164 17:160.5958 18:110.19202 19:73.177983 20:48.129945 21:28.25744 22:15.805984 23:7.3340867 24:3.9497222 25:2.7647213 
-1.730276458538686e-31 1:1471224.7 2:1580.3419 3:1574.0617 4:1453.5664 5:862.23278 6:598.74593 7:586.94355 8:613.29049 9:761.97365 10:820.83683 11:605.93462 12:372.27911 13:212.13154 14:244.80231 15:252.839 16:198.35408 17:139.30378 18:88.216348 19:59.789096 20:40.367867 21:27.699188 22:14.936542 23:11.48819 24:7.6248905 25:6.4517106 
-1.730276458538686e-31 1:1471913.5 2:860.10989 3:1442.1899 4:1341.6758 5:981.68821 6:1043.9836 7:865.04745 8:627.23138 9:624.68882 10:657.21396 11:446.4714 12:274.46842 13:235.60084 14:276.65253 15:275.49811 16:178.29526 17:87.015144 18:73.147473 19:60.741116 20:49.827542 21:39.243378 22:22.346111 23:11.241247 24:7.6848668 25:6.6111701 
-1.730276458538686e-31 1:1471157.6 2:1637.1338 3:1482.9456 4:1243.7846 5:822.49665 6:593.22837 7:815.58296 8:780.62376 9:582.53677 10:625.04025 11:399.49482 12:298.74318 13:285.4034 14:243.10963 15:234.90805 16:205.8824 17:128.24165 18:96.231664 19:70.69632 20:42.591986 21:29.04353 22:17.191655 23:9.9941801 24:6.9376087 25:6.533387 
-1.730276458538686e-31 1:1470855.4 2:1757.3616 3:1368.2092 4:998.47338 5:851.03599 6:786.56363 7:664.61488 8:584.88119 9:677.21847 10:543.53108 11:441.63086 12:351.76222 13:233.28823 14:261.43654 15:242.63771 16:165.38918 17:124.03756 18:112.40298 19:74.08311 20:49.573595 21:29.258918 22:14.236476 23:6.641491 24:3.2392169 25:3.1429257 
-1.730276458538686e-31 1:1470307.5 2:1455.2695 3:1485.3177 4:1602.2004 5:927.21298 6:751.61906 7:666.46859 8:686.55045 9:776.81588 10:587.76292 11:463.68894 12:422.005 13:344.21309 14:274.0075 15:163.96979 16:171.67465 17:148.63607 18:68.378331 19:66.768653 20:54.136033 21:30.314349 22:15.065498 23:10.194407 24:4.25226 25:2.2682594 
-1.730276458538686e-31 1:1472400.9 2:1856.6165 3:1679.1206 4:960.40558 5:595.53092 6:574.18095 7:597.0538 8:700.19756 9:600.28124 10:456.72447 11:509.50244 12:395.10299 13:234.36788 14:267.57218 15:288.30956 16:231.35147 17:128.15022 18:101.8095 19:84.207654 20:50.858185 21:29.693428 22:15.926201 23:8.1204026 24:4.529678 25:2.5122031 
-1.730276458538686e-31 1:1469863.5 2:1602.5067 3:1617.0121 4:1211.9572 5:574.30835 6:545.2293 7:589.69126 8:425.42772 9:713.96121 10:704.62129 11:395.27382 12:355.0426 13:308.63287 14:253.63728 15:220.62031 16:204.12818 17:102.75549 18:49.155953 19:53.403937 20:35.070931 21:21.52633 22:16.204951 23:12.478883 24:6.3567512 25:2.2638481 
-1.730276458538686e-31 1:1469888.7 2:1812.445 3:1500.9229 4:1420.5557 5:737.52313 6:849.53778 7:892.46016 8:779.00621 9:795.73512 10:696.41916 11:488.08407 12:343.20137 13:271.92068 14:290.84379 15:281.33618 16:169.01119 17:96.964007 18:96.999321 19:78.30848 20:50.603153 21:23.372494 22:19.475419 23:15.649568 24:8.7938446 25:7.1047019 
-1.730276458538686e-31 1:1469444.9 2:1205.8852 3:1629.1264 4:1684.9706 5:903.16386 6:836.7119 7:811.55498 8:445.47908 9:562.09758 10:630.30115 11:416.89576 12:343.06422 13:282.21059 14:208.76906 15:157.92807 16:122.0701 17:91.302019 18:79.11522 19:52.938835 20:37.026932 21:20.369221 22:13.688448 23:12.41654 24:10.745945 25:7.8629219 
-1.730276458538686e-31 1:1468613.4 2:1178.2192 3:1296.8275 4:1261.1905 5:895.18793 6:666.57555 7:568.42929 8:777.72758 9:876.53454 10:755.59165 11:512.31887 12:357.84533 13:347.08745 14:257.10534 15:184.57592 16:161.78629 17:113.17287 18:90.010056 19:80.028886 20:45.812915 21:31.104461 22:17.361648 23:8.456773 24:6.4980621 25:5.2679472 
-1.730276458538686e-31 1:1467169.5 2:1653.8457 3:1656.4111 4:1426.0479 5:796.30868 6:813.22442 7:675.10129 8:400.12328 9:609.82661 10:709.57225 11:517.00131 12:410.6406 13:299.68852 14:300.31789 15:268.71021 16:191.8835 17:136.5406 18:115.83946 19:83.974831 20:47.927633 21:26.217093 22:15.369836 23:13.047565 24:10.759089 25:7.2462848 
-1.730276458538686e-31 1:1469075.8 2:1292.5685 3:1516.5975 4:1595.6366 5:867.93711 6:655.02021 7:885.83539 8:815.29989 9:616.61008 10:489.71523 11:366.62303 12:416.1229 13:323.38262 14:249.92206 15:200.87894 16:124.73372 17:93.897664 18:93.702694 19:65.437998 20:52.298064 21:30.044502 22:14.485682 23:6.7367367 24:3.3550163 25:2.4642254 
-1.730276458538686e-31 1:1465205.4 2:1146.7345 3:1388.5094 4:1288.6063 5:1014.384 6:897.5201 7:788.54382 8:738.65096 9:665.83788 10:606.57824 11:474.78756 12:490.7072 13:362.87285 14:263.16407 15:266.62519 16:212.49887 17:134.33306 18:88.144394 19:47.478735 20:36.620998 21:28.288802 22:18.801255 23:8.9149238 24:7.8742093 25:6.4031618 
-1.730276458538686e-31 1:1465191.2 2:1488.731 3:1458.1182 4:1540.0352 5:1032.2374 6:810.44399 7:560.76252 8:585.49329 9:624.30519 10:550.12898 11:411.02401 12:346.28381 13:247.42822 14:241.21043 15:285.10787 16:207.65968 17:136.87534 18:95.633066 19:66.390173 20:42.342389 21:33.847638 22:17.551231 23:10.597885 24:7.2567706 25:4.4849231 
-1.730276458538686e-31 1:1465586.9 2:1347.2281 3:1503.5194 4:1453.0786 5:1196.0542 6:656.25818 7:369.745 8:438.02837 9:630.50857 10:552.86518 11:394.62774 12:331.64324 13:268.55926 14:261.2641 15:240.81439 16:185.28151 17:128.8309 18:112.36367 19:83.582034 20:52.75405 21:31.996374 22:15.637924 23:9.6298883 24:8.1330776 25:7.2680858 
-1.730276458538686e-31 1:1463653.3 2:1553.1769 3:1469.0749 4:1372.7834 5:767.49711 6:806.5022 7:667.10187 8:516.24495 9:596.67072 10:599.90125 11:402.59961 12:278.20407 13:264.13022 14:257.79336 15:174.0954 16:119.44918 17:112.74001 18:99.289034 19:68.585176 20:30.075904 21:20.251683 22:18.394136 23:13.074316 24:9.5589329 25:8.6785802 
-1.730276458538686e-31 1:1465374.2 2:1520.8751 3:1790.1469 4:1575.0676 5:929.74762 6:826.03423 7:806.68119 8:648.21312 9:700.71541 10:672.25951 11:394.04082 12:344.9229 13:360.75127 14:349.76087 15:308.9499 16:224.33636 17:105.13409 18:79.317361 19:61.997622 20:40.393909 21:23.562256 22:12.659054 23:10.109845 24:6.6736624 25:2.7800852 
-1.730276458538686e-31 1:1465145.3 2:1151.8525 3:1093.8061 4:853.23976 5:601.20949 6:668.1207 7:623.85946 8:470.00253 9:673.9995 10:796.51146 11:630.28158 12:440.02078 13:230.40518 14:252.72045 15:245.20727 16:184.66132 17:127.32674 18:84.85307 19:51.730442 20:32.946042 21:17.498318 22:14.276297 23:8.3991005 24:4.1218803 25:2.6292707 
-1.730276458538686e-31 1:1465565.5 2:1162.3627 3:1313.2807 4:1317.7938 5:945.0046 6:846.31803 7:835.49789 8:687.12862 9:551.60642 10:588.71955 11:552.1246 12:460.36705 13:299.9338 14:247.26211 15:246.18076 16:218.55189 17:121.93298 18:84.659882 19:74.753665 20:43.821623 21:24.03313 22:14.986912 23:6.5028962 24:3.5777144 25:2.4442303 
-1.730276458538686e-31 1:1466057.3 2:1136.6174 3:1306.7565 4:1382.9646 5:1085.3741 6:922.55877 7:724.094 8:460.61112 9:567.00301 10:578.24694 11:417.90798 12:369.3366 13:266.78886 14:266.68865 15:268.61623 16:190.38522 17:116.32503 18:75.798187 19:66.22705 20:55.510156 21:28.146213 22:16.835452 23:10.206273 24:6.0757835 25:5.5179369 
-1.730276458538686e-31 1:1466825.7 2:1358.901 3:1619.6472 4:1497.2781 5:893.14354 6:844.53476 7:633.35881 8:569.62073 9:676.44827 10:625.85289 11:512.40653 12:408.36517 13:290.51389 14:320.83429 15:303.02508 16:224.6688 17:130.97623 18:82.019754 19:46.995898 20:31.757512 21:25.030119 22:15.258228 23:7.0958986 24:4.0429078 25:3.4575475 
-1.730276458538686e-31 1:1468557.3 2:1316.873 3:1592.0567 4:1776.3961 5:1239.8839 6:942.03812 7:574.1419 8:491.45892 9:735.40308 10:687.7767 11:360.52337 12:280.3698 13:286.51458 14:251.09257 15:238.94488 16:193.38501 17:116.73802 18:100.46058 19:65.375125 20:45.867694 21:30.673206 22:15.215781 23:7.4503503 24:4.6240244 25:3.3849086 
-1.730276458538686e-31 1:1468729.9 2:1492.3599 3:1734.3815 4:1647.2453 5:904.60878 6:839.85946 7:764.79666 8:634.65381 9:807.64926 10:745.28838 11:567.47605 12:406.94728 13:351.15916 14:315.63836 15:260.84607 16:218.16188 17:131.24003 18:111.00788 19:75.454112 20:34.830066 21:20.604839 22:14.479825 23:8.3636463 24:6.7879703 25:5.0600398 
-1.730276458538686e-31 1:1464889.4 2:1496.94 3:1561.7869 4:925.14717 5:652.63164 6:651.18819 7:760.91019 8:623.09156 9:515.70694 10:560.28018 11:467.0734 12:388.95888 13:236.86535 14:239.23492 15:239.42405 16:176.34651 17:118.75599 18:87.533055 19:68.805412 20:53.959274 21:34.336685 22:19.649276 23:15.781407 24:10.982606 25:9.4747272 
-1.730276458538686e-31 1:1464273.8 2:1242.7284 3:1758.1152 4:1729.2552 5:1061.8147 6:974.46939 7:745.82869 8:578.16709 9:720.79041 10:702.36255 11:375.55647 12:283.94126 13:292.62284 14:247.86323 15:237.08914 16:185.60091 17:135.71215 18:115.22529 19:60.438638 20:31.977953 21:18.559325 22:12.856088 23:13.334748 24:9.8921767 25:9.5157713 
-1.730276458538686e-31 1:1464022.3 2:1403.8708 3:1455.2199 4:1295.1625 5:1059.3173 6:934.88187 7:698.71678 8:584.12241 9:825.78427 10:794.1671 11:461.44674 12:377.24101 13:360.60979 14:332.7649 15:276.30479 16:165.45107 17:107.21658 18:87.729519 19:64.636226 20:50.488468 21:24.41464 22:13.161037 23:6.6213303 24:4.3629564 25:3.7006497 
-1.730276458538686e-31 1:1463668.9 2:1236.6181 3:1759.1793 4:1752.6651 5:951.45987 6:574.44121 7:641.32537 8:774.40929 9:772.38704 10:645.96779 11:321.66517 12:204.70634 13:216.04368 14:249.28704 15:219.73596 16:136.29379 17:87.588746 18:74.711418 19:60.235208 20:48.346649 21:27.79046 22:16.230336 23:10.104111 24:5.3919044 25:3.3061802 
-1.730276458538686e-31 1:1464929.2 2:1164.5802 3:1326.9389 4:1454.7005 5:1012.7689 6:708.10318 7:816.45708 8:835.27223 9:899.38496 10:707.15366 11:432.24832 12:329.26538 13:197.00946 14:218.22807 15:297.51856 16:277.22319 17:158.52079 18:82.488139 19:50.065391 20:44.946609 21:29.430231 22:17.976349 23:12.97776 24:9.9325694 25:9.120476 
-1.730276458538686e-31 1:1463559.9 2:1152.6492 3:1639.9082 4:1447.937 5:1135.5008 6:1087.8431 7:889.89036 8:758.44626 9:797.13292 10:750.49955 11:640.76929 12:506.8684 13:224.88225 14:214.23654 15:245.5316 16:179.96569 17:113.29667 18:99.032422 19:62.047661 20:42.58339 21:31.292035 22:21.437082 23:10.361741 24:7.4486179 25:6.4281521 
-1.730276458538686e-31 1:1466539.4 2:1594.9187 3:1669.2963 4:1612.9329 5:1083.3151 6:889.3124 7:867.96835 8:868.84739 9:633.45541 10:625.0763 11:507.3639 12:392.9782 13:367.63472 14:307.48677 15:245.26573 16:179.20269 17:125.03916 18:106.48186 19:54.205419 20:43.974902 21:37.276878 22:19.942934 23:8.3833429 24:6.6673765 25:5.2574148 
-1.730276458538686e-31 1:1470934.8 2:1386.1676 3:1841.6606 4:1683.4584 5:983.65546 6:781.49504 7:666.9556 8:496.74891 9:591.92365 10:662.73284 11:494.99341 12:376.42548 13:265.68619 14:169.79348 15:148.8756 16:157.43979 17:111.96626 18:89.88396 19:77.416468 20:50.836331 21:26.490978 22:14.199986 23:13.417193 24:10.961248 25:11.51805 
-1.730276458538686e-31 1:1475109.7 2:1621.8951 3:1364.7374 4:1247.9323 5:717.81235 6:843.72918 7:812.42574 8:618.13362 9:707.2053 10:655.02307 11:479.38584 12:354.56585 13:236.33641 14:226.9898 15:214.71946 16:179.79021 17:120.12008 18:111.97101 19:79.614749 20:34.343519 21:23.563161 22:18.887436 23:9.4632998 24:5.5995761 25:4.4796867 
-1.730276458538686e-31 1:1472474.1 2:1395.1023 3:1371.9134 4:1173.942 5:725.60265 6:660.0803 7:817.45207 8:717.22677 9:713.81806 10:715.03006 11:466.87738 12:247.05097 13:241.18072 14:205.85167 15:165.27499 16:149.3761 17:100.8604 18:72.162899 19:51.353235 20:35.177745 21:31.327601 22:17.842063 23:7.3698137 24:5.3196967 25:3.865193 
-1.730276458538686e-31 1:1471204.8 2:1152.6421 3:1330.1298 4:1160.5524 5:749.42113 6:527.65553 7:611.07134 8:633.8224 9:691.28311 10:525.45908 11:367.76452 12:284.86778 13:215.17537 14:239.4377 15:239.56663 16:204.9249 17:122.43503 18:80.022939 19:51.254375 20:32.307081 21:25.192031 22:15.897863 23:7.345102 24:4.7704942 25:2.95964 
-1.730276458538686e-31 1:1471260.5 2:1355.2817 3:1390.5648 4:1335.4997 5:859.22778 6:552.78197 7:569.63411 8:568.3096 9:501.54176 10:500.77944 11:467.41661 12:339.99862 13:233.30487 14:252.79627 15:213.20118 16:168.73277 17:134.46893 18:118.57833 19:83.941334 20:38.060337 21:28.724054 22:17.782559 23:7.6439552 24:4.0771255 25:3.2324064 
-1.730276458538686e-31 1:1472193.6 2:1279.9504 3:1549.1492 4:1525.5142 5:1102.7842 6:925.75881 7:707.22359 8:649.22212 9:684.47269 10:570.60375 11:439.15985 12:365.18529 13:252.81226 14:187.50132 15:181.83604 16:217.1208 17:150.24328 18:85.515862 19:74.801703 20:54.797856 21:32.122966 22:18.1754 23:11.820886 24:5.8823443 25:2.877414 
-1.730276458538686e-31 1:1471855.9 2:1369.2766 3:1434.9754 4:1391.1929 5:789.9085 6:758.32552 7:825.0853 8:708.75934 9:688.21367 10:525.73637 11:386.55195 12:373.45025 13:246.02008 14:206.8669 15:210.63893 16:171.94834 17:148.11582 18:118.42755 19:55.478116 20:38.703888 21:25.121259 22:15.033638 23:7.9765419 24:5.0285003 25:3.4250733 
-1.730276458538686e-31 1:1472127.6 2:1413.3893 3:1369.6046 4:1258.7723 5:692.0463 6:809.76339 7:791.70927 8:582.41637 9:677.93932 10:689.30708 11:451.84379 12:273.4702 13:197.98768 14:218.3339 15:201.98822 16:191.01267 17:165.73416 18:120.06073 19:68.808425 20:32.189044 21:20.757964 22:19.35565 23:10.762201 24:4.9956986 25:2.7658818 
-1.730276458538686e-31 1:1472397.7 2:1514.0801 3:1635.7194 4:1492.6255 5:943.20387 6:814.58794 7:601.96435 8:559.21716 9:751.66846 10:667.52768 11:467.36185 12:389.9999 13:345.1895 14:272.49993 15:185.6494 16:172.21376 17:131.59272 18:96.0502 19:92.352523 20:51.30847 21:21.062497 22:13.735176 23:7.8543185 24:4.2638365 25:2.6648169 
-1.730276458538686e-31 1:1467054.1 2:1399.079 3:1384.6332 4:1048.6977 5:707.98899 6:939.84734 7:759.83478 8:623.58282 9:674.88516 10:497.76255 11:387.27038 12:370.48309 13:348.05052 14:249.05986 15:212.03541 16:191.77986 17:123.20065 18:83.759924 19:53.922138 20:38.625444 21:22.340392 22:16.696308 23:10.185147 24:3.6863054 25:2.4340768 
-1.730276458538686e-31 1:1468854.1 2:1280.5899 3:1779.3419 4:1588.1725 5:913.24292 6:639.95379 7:680.75125 8:712.00552 9:685.26406 10:596.91478 11:372.9478 12:219.43225 13:194.42938 14:187.85139 15:251.68858 16:252.24643 17:169.8652 18:107.47732 19:60.463348 20:36.770545 21:28.677082 22:17.969328 23:12.689976 24:8.5355468 25:7.2801604 
-1.730276458538686e-31 1:1473309.9 2:1523.8555 3:1586.6792 4:1438.0911 5:956.83656 6:946.26289 7:573.2565 8:480.02829 9:685.01194 10:710.61823 11:531.32723 12:357.91941 13:233.27722 14:254.10187 15:218.95729 16:124.79848 17:107.45892 18:104.34944 19:68.139153 20:52.316724 21:27.790566 22:12.819977 23:7.9017664 24:3.9904595 25:3.9209705 
-1.730276458538686e-31 1:1467953.3 2:1369.7085 3:1393.1601 4:1344.4898 5:791.83933 6:840.01941 7:699.3115 8:429.44182 9:653.76329 10:582.56939 11:331.3423 12:384.1196 13:315.2855 14:228.90616 15:194.94132 16:113.35294 17:99.245977 18:91.089413 19:66.041649 20:37.305302 21:24.825912 22:15.532718 23:6.1585234 24:4.4677672 25:3.8732836 
-1.730276458538686e-31 1:1467462 2:1648.2923 3:1762.4011 4:1306.4837 5:743.32658 6:732.39419 7:474.51745 8:456.55823 9:581.89957 10:590.51302 11:376.51537 12:324.09308 13:304.27912 14:215.06376 15:181.97311 16:152.15519 17:93.262026 18:79.73636 19:60.308397 20:49.302741 21:24.766548 22:10.821457 23:7.7582409 24:6.1315587 25:5.1945943 
-1.730276458538686e-31 1:1467590.9 2:1432.0681 3:1402.0195 4:1389.909 5:747.7848 6:748.81147 7:570.07099 8:486.49608 9:690.71383 10:619.70468 11:375.56888 12:258.86843 13:221.23605 14:195.65135 15:217.75843 16:206.36408 17:122.42016 18:85.708585 19:63.829714 20:42.084749 21:19.306347 22:11.615084 23:7.3510818 24:5.4472389 25:4.1365999 
-1.730276458538686e-31 1:1468464.5 2:1553.2735 3:1524.9675 4:1331.3752 5:922.76716 6:865.47162 7:682.12105 8:646.77793 9:705.01786 10:648.07689 11:404.9452 12:322.5151 13:268.86643 14:189.85775 15:174.54323 16:136.76633 17:83.242498 18:69.463967 19:45.425152 20:36.644908 21:25.819838 22:16.197084 23:8.9625545 24:4.2749347 25:2.673069 
-1.730276458538686e-31 1:1469277.9 2:1666.8475 3:1868.0329 4:1676.5381 5:1056.616 6:782.2436 7:687.73019 8:719.04786 9:679.66375 10:582.60211 11:370.6103 12:289.29537 13:298.81021 14:259.98893 15:170.90943 16:168.63735 17:143.04411 18:72.75663 19:59.495572 20:45.784878 21:21.754056 22:13.779934 23:9.4372578 24:5.79934 25:3.6075721 
-1.730276458538686e-31 1:1466625.5 2:1260.1049 3:1631.7579 4:1453.9059 5:766.62284 6:563.35553 7:707.49179 8:790.65736 9:732.43204 10:646.7359 11:418.21884 12:270.28174 13:219.05942 14:205.29393 15:199.96793 16:153.82146 17:88.584161 18:92.815511 19:70.891875 20:43.169356 21:31.493184 22:15.772866 23:9.5462305 24:9.1714116 25:8.1903198 
-1.730276458538686e-31 1:1463782.7 2:1708.4375 3:1093.9708 4:1226.7332 5:1070.7778 6:830.45288 7:508.01398 8:562.23812 9:716.17268 10:607.20193 11:333.86154 12:299.80165 13:262.03127 14:166.19577 15:236.94015 16:217.01841 17:100.2673 18:70.427371 19:40.302708 20:43.369257 21:36.700358 22:18.079243 23:12.827248 24:7.8940182 25:8.9425914 
-1.730276458538686e-31 1:1461921.5 2:1628.7709 3:1700.3254 4:1279.7571 5:847.15201 6:821.68978 7:732.82677 8:544.56422 9:648.9842 10:623.75011 11:418.04198 12:328.25699 13:316.32838 14:285.23575 15:200.82451 16:169.64074 17:117.50208 18:97.748607 19:71.727358 20:48.256234 21:33.997593 22:15.497592 23:10.305295 24:5.340573 25:2.3734323 
-1.730276458538686e-31 1:1462795.7 2:1455.231 3:1655.1177 4:1541.5247 5:1113.6825 6:954.02784 7:656.53637 8:580.86387 9:726.76798 10:703.09798 11:386.75364 12:322.75685 13:305.18637 14:231.43826 15:232.16511 16:209.95297 17:123.40947 18:77.317129 19:55.122014 20:38.393561 21:26.493478 22:19.557176 23:9.3098964 24:5.5897838 25:5.3016333 
-1.730276458538686e-31 1:1461190.5 2:1785.9182 3:1315.7303 4:1100.5392 5:867.33418 6:1060.1786 7:906.34439 8:851.39329 9:887.30076 10:583.03968 11:258.15236 12:155.32574 13:228.46783 14:279.325 15:191.40517 16:189.10312 17:154.987 18:121.3846 19:76.813776 20:40.896354 21:31.583584 22:17.483527 23:11.009175 24:5.5093678 25:4.7116845 
-1.730276458538686e-31 1:1460561.5 2:1533.4072 3:1448.3748 4:1380.9321 5:891.86038 6:652.36444 7:593.04497 8:580.99062 9:764.96894 10:644.24889 11:359.15457 12:356.54089 13:340.0812 14:284.72061 15:211.87621 16:190.68837 17:160.30359 18:84.973071 19:36.746081 20:35.728647 21:30.912454 22:18.213577 23:10.012518 24:6.6541452 25:4.2222595 
-1.730276458538686e-31 1:1465000.6 2:1502.9924 3:1336.8446 4:1294.8363 5:870.68139 6:824.32128 7:704.7289 8:538.2592 9:458.3149 10:395.40525 11:330.77675 12:352.27059 13:293.61809 14:249.79725 15:237.65633 16:180.15875 17:102.61022 18:86.638152 19:72.957749 20:45.026096 21:24.501886 22:14.994109 23:8.1309602 24:7.6223304 25:6.5292547 
-1.730276458538686e-31 1:1459024.2 2:1192.4479 3:1639.3963 4:1393.0457 5:755.61105 6:515.01771 7:440.45173 8:654.10272 9:750.99241 10:611.47803 11:424.75111 12:379.49309 13:333.24077 14:243.10972 15:166.80996 16:117.41158 17:93.69039 18:94.332114 19:56.692999 20:39.73959 21:24.493006 22:12.310182 23:7.9054369 24:5.571601 25:4.1423662 
-1.730276458538686e-31 1:1458071.2 2:1276.7415 3:1637.3442 4:1535.655 5:956.59304 6:781.07967 7:528.66128 8:329.74843 9:493.32088 10:645.01085 11:449.60557 12:235.34529 13:185.32101 14:155.43397 15:157.39281 16:176.01175 17:117.45212 18:61.269194 19:37.353969 20:25.679022 21:20.518867 22:16.027176 23:12.327297 24:11.171408 25:10.083953 
-1.730276458538686e-31 1:1457295.5 2:1203.0678 3:1448.2689 4:1496.407 5:982.07465 6:659.08676 7:648.02472 8:652.32294 9:681.3759 10:628.95689 11:459.09124 12:293.80601 13:268.19179 14:242.79878 15:224.30752 16:177.70561 17:130.12722 18:114.2264 19:51.724703 20:41.153795 21:24.853672 22:16.909621 23:15.484244 24:8.5893336 25:7.5469176 
-1.730276458538686e-31 1:1456258.2 2:1182.6363 3:1506.7332 4:1266.4833 5:749.74534 6:725.91697 7:654.24258 8:551.97586 9:665.83276 10:567.34932 11:307.70205 12:273.7849 13:305.51445 14:316.7393 15:271.85469 16:209.86534 17:108.43344 18:69.88185 19:60.336318 20:36.684333 21:31.216059 22:24.310104 23:12.89591 24:6.6788067 25:5.4008162 
-1.730276458538686e-31 1:1457051.7 2:1672.2312 3:1580.4458 4:1252.8981 5:947.28828 6:856.78821 7:835.43248 8:880.35947 9:874.04374 10:669.35655 11:453.92239 12:324.85442 13:234.35215 14:246.5499 15:208.2378 16:156.16909 17:96.959005 18:51.445799 19:49.645192 20:45.324511 21:26.863986 22:14.82786 23:6.9968456 24:4.2970035 25:1.9468288 
-1.730276458538686e-31 1:1457861.2 2:1565.5021 3:1825.4821 4:1602.7866 5:571.60852 6:428.57615 7:643.89209 8:724.93908 9:625.59606 10:555.95893 11:575.34969 12:438.10119 13:247.81942 14:278.44209 15:245.38672 16:161.28593 17:110.54721 18:90.704568 19:77.488798 20:50.548345 21:33.661194 22:25.455161 23:12.202954 24:7.353565 25:8.9706015 
-1.730276458538686e-31 1:1457671.1 2:1524.7383 3:1329.7749 4:1297.3585 5:945.41893 6:727.56317 7:682.55246 8:807.17078 9:741.68582 10:503.04449 11:339.15293 12:320.89603 13:252.57178 14:214.30774 15:238.62315 16:219.01402 17:103.39129 18:69.36429 19:68.172195 20:55.216206 21:36.002244 22:15.53982 23:6.9727361 24:2.5483885 25:1.7070862 
-1.730276458538686e-31 1:1456937.9 2:1695.2417 3:1534.6171 4:1093.8099 5:914.65456 6:973.84846 7:857.04439 8:681.18408 9:653.06858 10:607.54866 11:423.14966 12:314.08142 13:257.67977 14:222.8507 15:196.74841 16:172.65057 17:138.79216 18:115.43172 19:70.809449 20:49.182494 21:33.091692 22:17.182932 23:7.6133325 24:7.3443528 25:5.8497154 
-1.730276458538686e-31 1:1454823.8 2:1553.2553 3:1721.3262 4:1400.2571 5:1024.0074 6:1009.5375 7:793.06236 8:727.90993 9:744.37532 10:532.83315 11:440.4575 12:427.07254 13:300.61018 14:292.45087 15:268.4181 16:212.93092 17:123.24864 18:85.060971 19:68.260719 20:41.112725 21:22.799049 22:12.783153 23:7.4264379 24:4.2959161 25:3.9614575 
-1.730276458538686e-31 1:1455453.1 2:1111.2877 3:1505.9043 4:1835.4862 5:1169.8172 6:796.44159 7:601.72399 8:540.98583 9:580.66405 10:473.20054 11:373.94238 12:356.27207 13:294.41429 14:316.99136 15:271.79333 16:193.43224 17:120.57273 18:62.267424 19:45.275457 20:35.206086 21:22.676139 22:17.17073 23:9.1578295 24:3.878709 25:3.0731257 
-1.730276458538686e-31 1:1456729.8 2:1033.7753 3:1319.9342 4:1411.5358 5:1022.296 6:833.73432 7:858.45631 8:787.33334 9:897.13797 10:683.68842 11:405.99801 12:319.821 13:199.83121 14:195.63638 15:255.65299 16:256.5139 17:136.8439 18:61.791346 19:49.156975 20:44.903542 21:29.66398 22:16.625638 23:8.7378291 24:5.0115242 25:2.5632102 
-1.730276458538686e-31 1:1455544.5 2:1081.1986 3:1632.5375 4:1514.8751 5:880.02981 6:737.74738 7:683.9615 8:660.84347 9:699.30055 10:511.6925 11:349.21313 12:373.80432 13:317.52459 14:215.5505 15:214.18359 16:216.45477 17:107.62611 18:101.41017 19:84.797484 20:50.742479 21:31.582143 22:21.657924 23:8.9550182 24:5.8755976 25:6.8044286 
-1.730276458538686e-31 1:1455713.8 2:1575.1131 3:1318.2232 4:1264.4785 5:1128.7474 6:825.0116 7:650.1075 8:513.12034 9:689.23452 10:713.98226 11:450.92659 12:329.58057 13:303.27158 14:308.6501 15:252.86043 16:195.95922 17:107.59966 18:81.654693 19:66.963567 20:46.674551 21:23.353011 22:12.946852 23:6.2911055 24:3.8486074 25:2.244954 
-1.730276458538686e-31 1:1455457.4 2:1539.569 3:1974.2504 4:1533.4841 5:864.33349 6:734.7234 7:675.47883 8:663.43123 9:662.28198 10:582.7347 11:399.89975 12:296.66871 13:280.43938 14:201.98634 15:192.10069 16:174.95386 17:110.71161 18:79.026735 19:56.573463 20:41.5551 21:34.686484 22:16.002316 23:6.3919988 24:3.8137582 25:3.6178472 
-1.730276458538686e-31 1:1457963.6 2:1950.6828 3:1738.6487 4:1303.3599 5:803.45139 6:742.57335 7:664.07996 8:542.95585 9:659.70368 10:620.25936 11:379.61224 12:282.36856 13:239.80964 14:290.4013 15:270.81406 16:208.57232 17:115.69713 18:70.851323 19:60.800019 20:44.759071 21:22.72743 22:18.010133 23:10.826195 24:4.9730026 25:2.749371 
-1.730276458538686e-31 1:1455278 2:1743.8414 3:1646.2949 4:1377.9367 5:746.52542 6:696.46309 7:786.15863 8:596.35746 9:677.36262 10:624.04309 11:321.19262 12:404.53034 13:363.82946 14:263.6577 15:244.10011 16:165.29756 17:124.27673 18:101.35098 19:61.450829 20:42.450584 21:21.210989 22:13.854327 23:12.869016 24:9.7442395 25:8.2919026 
-1.730276458538686e-31 1:1453451.7 2:1656.7192 3:1637.9913 4:1605.2796 5:1200.7536 6:953.28097 7:798.47135 8:706.00039 9:724.36694 10:739.99188 11:433.57197 12:344.13099 13:328.27846 14:295.38741 15:261.13183 16:211.99401 17:143.50246 18:90.049211 19:68.600939 20:46.897598 21:24.203727 22:15.86041 23:6.8593719 24:3.834505 25:4.0620238 
-1.730276458538686e-31 1:1453536.2 2:1399.3933 3:1707.1595 4:1332.4049 5:939.80525 6:851.02297 7:689.73578 8:560.63762 9:657.5985 10:639.26443 11:352.79872 12:241.21791 13:166.19595 14:144.91287 15:215.58357 16:209.34993 17:119.37772 18:88.257764 19:66.217311 20:49.829508 21:36.922439 22:19.21269 23:9.5891619 24:3.682415 25:2.5863758 
-1.730276458538686e-31 1:1454321.7 2:1171.1878 3:1341.6387 4:1607.5238 5:1044.6413 6:892.85157 7:725.78799 8:414.20327 9:661.29227 10:651.71692 11:389.72559 12:319.31465 13:297.62548 14:244.39995 15:222.02998 16:223.29865 17:141.86899 18:78.33738 19:60.235334 20:42.350662 21:28.644717 22:13.812426 23:7.1181405 24:4.5745637 25:4.0858663 
-1.730276458538686e-31 1:1453866.5 2:1378.6928 3:1710.836 4:1329.2943 5:813.10586 6:641.03083 7:494.28491 8:445.55332 9:614.98943 10:686.42824 11:537.74754 12:448.84046 13:363.77129 14:379.20371 15:259.62621 16:177.9795 17:125.73717 18:73.777918 19:67.483297 20:43.402894 21:23.528795 22:15.239499 23:7.0990772 24:3.7230526 25:2.5712611 
-1.730276458538686e-31 1:1454118.8 2:1644.7566 3:1782.6217 4:1581.4198 5:999.86302 6:946.85337 7:806.78163 8:625.28061 9:651.78743 10:688.3602 11:389.30999 12:201.87827 13:226.93546 14:232.61755 15:241.11537 16:208.93854 17:111.8404 18:92.917971 19:62.661382 20:41.665808 21:21.694081 22:13.77372 23:9.2216982 24:4.537788 25:3.7994594 
-1.730276458538686e-31 1:1454795.3 2:1247.7826 3:1693.6674 4:1444.9209 5:984.24871 6:869.52805 7:605.97229 8:620.18998 9:608.91263 10:533.08761 11:436.08093 12:393.65713 13:251.90582 14:275.37519 15:244.74602 16:158.00392 17:123.19842 18:93.030851 19:55.375136 20:29.7492 21:23.710587 22:12.760514 23:10.292029 24:8.7832003 25:8.8056652 
-1.730276458538686e-31 1:1460858.6 2:1506.465 3:1281.2933 4:1453.375 5:894.15375 6:681.17341 7:678.46988 8:660.60823 9:749.41958 10:651.40175 11:432.54846 12:339.92809 13:247.75995 14:243.75309 15:196.43162 16:123.07903 17:108.58493 18:94.347626 19:52.162727 20:35.990753 21:29.216251 22:22.076318 23:12.200746 24:7.2967477 25:6.3307391 
-1.730276458538686e-31 1:1457929.2 2:2026.0751 3:1277.1098 4:1130.6289 5:957.60068 6:755.11524 7:629.79989 8:561.12457 9:645.97135 10:637.62765 11:338.44491 12:256.06602 13:279.11052 14:212.20919 15:168.17805 16:204.42513 17:169.4552 18:98.092567 19:59.393826 20:44.564617 21:24.462816 22:13.668558 23:10.380167 24:8.3965744 25:6.2564412 
-1.730276458538686e-31 1:1456423.7 2:1153.449 3:1457.8595 4:1470.2399 5:1036.5292 6:798.4079 7:620.80471 8:512.15811 9:748.67482 10:744.17095 11:412.8707 12:254.39996 13:239.92059 14:293.98031 15:250.12621 16:147.87823 17:105.78757 18:87.190534 19:73.224613 20:52.138352 21:27.43744 22:15.157472 23:11.992595 24:8.6845478 25:7.8178541 
-1.730276458538686e-31 1:1456507.8 2:949.68857 3:1185.1545 4:1187.6085 5:727.72281 6:762.82649 7:759.7094 8:651.74689 9:732.10836 10:664.18539 11:464.59174 12:340.36662 13:235.98139 14:202.83826 15:213.20384 16:202.35764 17:139.23168 18:115.55209 19:82.38903 20:47.740429 21:29.326262 22:15.233428 23:8.7264341 24:3.2723963 25:2.4547792 
-1.730276458538686e-31 1:1456935.1 2:1232.9752 3:1331.0825 4:1351.2694 5:1051.7247 6:1038.6028 7:782.81224 8:576.80378 9:657.39711 10:626.90116 11:517.40108 12:446.94022 13:313.46226 14:272.91571 15:231.74878 16:185.2319 17:98.947935 18:63.580367 19:57.761414 20:41.419778 21:28.05487 22:20.254598 23:10.974317 24:6.6626328 25:6.512691 
-1.730276458538686e-31 1:1457474.9 2:1219.2001 3:1466.8934 4:1378.2972 5:947.44847 6:900.28333 7:746.89195 8:621.60894 9:713.08694 10:589.95941 11:309.95373 12:246.46928 13:243.81658 14:191.65727 15:140.16176 16:153.10392 17:114.75539 18:75.43446 19:54.907427 20:43.072716 21:26.610087 22:13.749009 23:10.110264 24:7.424307 25:5.2489046 
-1.730276458538686e-31 1:1455829.5 2:1382.2948 3:1768.9301 4:1653.994 5:850.92833 6:501.50043 7:575.50288 8:729.58741 9:747.9156 10:690.4068 11:465.38556 12:241.08171 13:198.95137 14:220.54745 15:199.81446 16:189.94013 17:148.87729 18:101.54912 19:51.809904 20:45.888166 21:33.671953 22:16.339619 23:11.03842 24:3.988106 25:2.3178229 
-1.730276458538686e-31 1:1455268.9 2:1465.0197 3:1544.873 4:1052.9641 5:646.14831 6:936.32462 7:866.20582 8:622.33964 9:644.92396 10:637.82858 11:460.28517 12:354.15759 13:312.94246 14:260.83214 15:243.14639 16:190.92984 17:102.20197 18:83.747199 19:57.888096 20:39.054726 21:21.51727 22:12.502058 23:8.8108257 24:5.5043968 25:3.9448982 
-1.730276458538686e-31 1:1456549.2 2:1451.7901 3:1802.2422 4:1400.1692 5:895.69395 6:926.79281 7:697.27447 8:781.92213 9:860.04888 10:635.00989 11:455.57632 12:397.49763 13:297.1073 14:250.55067 15:198.67522 16:153.64936 17:113.33487 18:91.956686 19:72.90571 20:51.450773 21:28.437673 22:14.250496 23:8.917116 24:6.3875001 25:4.2379078 
-1.730276458538686e-31 1:1455041.6 2:1131.8456 3:1501.229 4:1571.0091 5:1052.7836 6:895.381 7:853.14805 8:702.13793 9:639.08209 10:499.36855 11:354.42126 12:370.9488 13:313.88592 14:251.67391 15:266.72725 16:198.37547 17:104.72436 18:93.772409 19:74.744542 20:38.27119 21:25.832713 22:16.879462 23:11.76152 24:11.388664 25:10.751689 
-1.730276458538686e-31 1:1453639.9 2:1534.8522 3:1448.4794 4:1389.7532 5:747.75442 6:640.96353 7:635.31358 8:560.0914 9:633.04306 10:535.73477 11:345.49524 12:412.14225 13:397.68157 14:239.91275 15:217.82519 16:199.96892 17:121.45813 18:98.619985 19:58.510745 20:38.276768 21:30.019468 22:21.738003 23:12.984808 24:5.9499141 25:5.4379557 
-1.730276458538686e-31 1:1453108.7 2:1215.5717 3:1372.1349 4:1449.4157 5:834.62035 6:591.61271 7:559.07453 8:564.67306 9:597.1914 10:530.38712 11:319.07252 12:304.85438 13:299.19226 14:249.00397 15:180.26223 16:156.79672 17:120.50453 18:100.33592 19:83.014969 20:49.518445 21:28.392831 22:16.738405 23:12.009592 24:10.724657 25:10.21689 
-1.730276458538686e-31 1:1452628 2:1742.6078 3:1860.1223 4:1268.938 5:799.06319 6:791.10856 7:752.29709 8:622.8688 9:655.61704 10:615.50644 11:413.29656 12:331.90129 13:227.24695 14:212.77768 15:225.94512 16:199.92586 17:170.7308 18:112.83306 19:81.867375 20:67.128962 21:37.95232 22:17.903593 23:11.469649 24:9.9554346 25:8.3460543 
-1.730276458538686e-31 1:1455875.7 2:1827.9683 3:1314.4737 4:1154.0388 5:1003.4407 6:1034.0042 7:856.82358 8:659.29895 9:551.62034 10:494.87364 11:365.52229 12:327.01886 13:275.7366 14:236.04357 15:211.68726 16:163.63828 17:128.11787 18:74.706017 19:58.442798 20:42.259079 21:26.653484 22:18.815623 23:12.827354 24:9.6086057 25:9.1295157 
-1.730276458538686e-31 1:1455606.1 2:1423.2595 3:1390.715 4:1531.1821 5:1006.058 6:649.56699 7:559.82648 8:635.73258 9:756.22507 10:597.05172 11:290.33148 12:204.11802 13:189.65761 14:187.98115 15:213.52514 16:196.45256 17:125.61062 18:71.858438 19:47.23842 20:32.31476 21:23.710141 22:12.581087 23:7.5055458 24:3.473551 25:1.7544425 
-1.730276458538686e-31 1:1459014.4 2:1312.1304 3:1787.7413 4:1520.8648 5:892.44371 6:624.61806 7:400.70789 8:584.26377 9:751.15256 10:536.33115 11:344.33646 12:289.19873 13:268.50321 14:280.25414 15:232.23377 16:167.0324 17:111.1233 18:62.79681 19:52.290918 20:32.627239 21:22.60421 22:13.775547 23:8.3178791 24:4.7705366 25:3.1152524 
-1.730276458538686e-31 1:1457970.4 2:1482.9445 3:1225.4351 4:1100.9652 5:763.67967 6:752.74845 7:699.11367 8:602.99277 9:692.63939 10:723.69015 11:456.22159 12:268.04661 13:311.82777 14:280.44407 15:191.44358 16:194.88144 17:137.96348 18:100.41816 19:69.461347 20:33.297028 21:18.697333 22:17.074942 23:10.556823 24:5.9581339 25:4.7298371 
-1.730276458538686e-31 1:1457402.1 2:1456.8882 3:2094.4154 4:1546.3211 5:668.00873 6:704.19014 7:683.62946 8:601.1859 9:656.59815 10:679.15405 11:426.36191 12:265.98699 13:275.76403 14:243.07491 15:195.90086 16:157.43868 17:154.48517 18:127.45073 19:72.760698 20:37.644262 21:24.216577 22:16.117041 23:9.6750809 24:5.1410559 25:3.6098644 
-1.730276458538686e-31 1:1459864.9 2:1393.8445 3:1590.0711 4:1221.3117 5:725.63629 6:713.10941 7:696.84476 8:517.38994 9:567.48133 10:495.44478 11:274.43477 12:250.47821 13:227.87052 14:241.85452 15:213.84781 16:148.04755 17:98.641087 18:78.519477 19:49.797995 20:34.394482 21:28.671925 22:15.535247 23:6.8506288 24:3.5739366 25:2.8137875 
-1.730276458538686e-31 1:1461105.8 2:1773.3171 3:1589.7121 4:1208.5345 5:1028.3149 6:1010.9865 7:805.76374 8:769.60443 9:826.59763 10:743.94193 11:476.25589 12:288.63627 13:264.7868 14:259.1515 15:224.26895 16:191.11699 17:143.45641 18:109.71202 19:75.370185 20:42.366867 21:28.745974 22:12.615325 23:8.2826739 24:5.2170442 25:3.3183566 
-1.730276458538686e-31 1:1459590.5 2:1190.9167 3:1028.2584 4:966.63721 5:865.52722 6:728.22748 7:531.35502 8:477.18189 9:610.06775 10:507.3986 11:315.59858 12:282.86684 13:293.27079 14:242.32263 15:199.83516 16:188.99098 17:115.37445 18:76.111824 19:52.970137 20:36.764292 21:25.409141 22:10.012566 23:4.8973793 24:3.252255 25:2.2823706 
-1.730276458538686e-31 1:1456981.8 2:1601.6055 3:1546.4066 4:1561.1654 5:1067.0544 6:725.14976 7:634.14938 8:617.80056 9:696.69304 10:614.5548 11:443.96006 12:365.85642 13:260.40377 14:268.63594 15:270.64683 16:187.24214 17:115.39666 18:95.170884 19:72.171175 20:40.818052 21:28.51482 22:18.887532 23:17.254123 24:15.957277 25:12.870651 
-1.730276458538686e-31 1:1458079.8 2:1878.3182 3:1226.6393 4:1087.599 5:815.27245 6:795.58042 7:779.02448 8:525.03627 9:498.471 10:586.43268 11:540.32502 12:302.58116 13:256.68407 14:274.59477 15:210.72136 16:183.62055 17:97.998939 18:75.0644 19:55.394437 20:37.514347 21:29.894097 22:18.362958 23:8.9975541 24:5.6103987 25:2.5832447 
-1.730276458538686e-31 1:1456822.7 2:1447.1079 3:1665.7664 4:1355.7075 5:736.87577 6:673.89177 7:705.14719 8:656.32173 9:779.43392 10:744.76188 11:467.34213 12:361.34242 13:324.17131 14:259.64409 15:210.85595 16:212.94466 17:146.49256 18:93.149509 19:56.110901 20:31.059632 21:20.129035 22:11.380285 23:7.4552156 24:3.6945767 25:2.6740898 
-1.730276458538686e-31 1:1456403.8 2:1213.5649 3:1619.9088 4:1363.3358 5:860.42847 6:844.04283 7:804.33405 8:691.17795 9:567.5531 10:496.32406 11:365.6602 12:293.29267 13:268.78644 14:221.01417 15:235.26606 16:200.63977 17:118.34944 18:62.206424 19:52.985918 20:65.323536 21:38.126769 22:11.750989 23:9.1395835 24:4.6972144 25:2.5701712 
-1.730276458538686e-31 1:1457934.4 2:1476.1319 3:1414.9925 4:1276.9989 5:760.50298 6:688.29226 7:652.27096 8:499.38451 9:531.76444 10:702.69123 11:540.50636 12:392.90871 13:302.93384 14:239.12858 15:175.92358 16:120.54743 17:113.53262 18:81.446183 19:42.401796 20:34.585596 21:30.418677 22:19.789784 23:9.5584867 24:6.6615137 25:7.4339466 
-1.730276458538686e-31 1:1457558.8 2:1783.5882 3:1661.1949 4:1645.1957 5:1107.2099 6:698.44247 7:682.07483 8:570.03568 9:588.39703 10:607.01365 11:480.53437 12:371.36901 13:270.95104 14:246.831 15:235.80651 16:191.8842 17:97.021468 18:54.638014 19:52.903777 20:45.882602 21:32.508715 22:20.846126 23:10.217265 24:4.1480248 25:2.6082707 
-1.730276458538686e-31 1:1459426.6 2:1612.006 3:1731.9839 4:1577.7269 5:776.61749 6:465.51621 7:682.28722 8:693.25002 9:769.14349 10:756.65024 11:517.50863 12:313.7323 13:191.44764 14:221.37771 15:242.35684 16:201.13721 17:131.47944 18:108.44479 19:86.097818 20:45.587584 21:23.346191 22:15.40721 23:9.0364766 24:6.6994819 25:5.3863578 
-1.730276458538686e-31 1:1458453.8 2:1501.0176 3:1468.3383 4:1454.0781 5:1098.875 6:1108.1995 7:776.87997 8:535.6253 9:656.09136 10:602.09562 11:398.65799 12:331.47195 13:277.01643 14:257.52141 15:185.28134 16:145.49823 17:159.91225 18:111.08228 19:62.830032 20:43.136381 21:23.891331 22:15.475157 23:7.2485163 24:4.3542259 25:4.3397932 
-1.730276458538686e-31 1:1459687.6 2:1419.2352 3:1889.1404 4:1595.9464 5:736.07628 6:790.13569 7:685.13756 8:645.9635 9:534.93333 10:403.5309 11:344.37727 12:295.58854 13:253.16529 14:250.19149 15:233.89965 16:204.25347 17:136.47941 18:101.9217 19:65.022561 20:46.651751 21:34.170668 22:20.387798 23:12.875841 24:10.107684 25:10.113896 
-1.730276458538686e-31 1:1458346.5 2:1513.3932 3:1388.888 4:1288.6821 5:930.94602 6:657.7263 7:448.35913 8:539.02216 9:585.24595 10:520.34338 11:340.24661 12:273.90256 13:273.6427 14:266.0804 15:259.0419 16:153.38241 17:101.01939 18:101.05407 19:70.936723 20:29.453039 21:17.355627 22:9.4468596 23:8.1428557 24:10.132375 25:9.8387539 
-1.730276458538686e-31 1:1459171.4 2:1726.8595 3:1573.4859 4:955.43885 5:703.89263 6:806.73368 7:752.49805 8:658.85158 9:776.67592 10:680.39231 11:429.24782 12:437.65051 13:340.38624 14:308.63111 15:248.46398 16:146.11945 17:123.72654 18:93.589855 19:58.583602 20:30.492565 21:20.154656 22:15.941656 23:8.721806 24:4.6829687 25:2.961667 
-1.730276458538686e-31 1:1458981.2 2:1350.8867 3:1770.0607 4:1520.2268 5:675.11034 6:615.88418 7:516.0731 8:501.0277 9:705.39616 10:706.06888 11:449.60301 12:274.22167 13:237.41247 14:271.32958 15:187.94211 16:138.3157 17:105.90786 18:95.697233 19:79.768037 20:42.665734 21:18.064235 22:9.6055392 23:7.6987297 24:7.7784547 25:5.7855369 
-1.730276458538686e-31 1:1458713.8 2:1671.2943 3:1831.3373 4:1447.6086 5:893.3546 6:587.99344 7:460.98083 8:579.30969 9:661.31329 10:642.08717 11:448.38976 12:242.27058 13:273.30302 14:301.4326 15:228.37673 16:176.46994 17:137.70326 18:87.715211 19:40.913582 20:21.839926 21:19.64197 22:15.009557 23:9.6181496 24:5.7540631 25:5.4035415 
-1.730276458538686e-31 1:1457318.2 2:1265.9304 3:1579.377 4:1680.0676 5:1076.7765 6:997.06631 7:817.27439 8:587.15964 9:642.29799 10:590.15349 11:441.40558 12:280.57355 13:260.09393 14:263.49638 15:223.56047 16:173.76493 17:103.11534 18:83.223826 19:60.268276 20:35.853727 21:31.683448 22:17.858729 23:7.9357852 24:5.2127165 25:3.7701207 
-1.730276458538686e-31 1:1457714.8 2:1488.5635 3:1718.3959 4:1498.8204 5:774.12349 6:756.28978 7:715.16713 8:673.80812 9:734.13121 10:577.93013 11:468.06745 12:404.88888 13:266.26759 14:256.5615 15:225.13181 16:149.71218 17:95.092999 18:80.765324 19:45.612705 20:32.824517 21:23.895134 22:15.52205 23:11.989199 24:5.2041274 25:2.2910538 
-1.730276458538686e-31 1:1457903.2 2:1411.0281 3:1589.4967 4:1489.2123 5:1272.0666 6:1044.3321 7:814.65492 8:668.47999 9:670.69143 10:717.90905 11:479.95704 12:246.97439 13:210.84213 14:257.212 15:233.68603 16:178.5497 17:108.63252 18:86.56738 19:64.671206 20:43.91913 21:31.316394 22:19.136312 23:10.744029 24:7.5439537 25:5.8321677 
-1.730276458538686e-31 1:1456053.2 2:1319.3486 3:1508.6924 4:1270.1212 5:752.43789 6:714.8534 7:729.57193 8:765.97017 9:769.2043 10:623.64242 11:433.44215 12:296.88916 13:208.4967 14:221.81115 15:255.07952 16:214.20304 17:145.3311 18:110.08295 19:75.783193 20:29.217892 21:25.746726 22:20.018106 23:12.388446 24:9.1363249 25:6.1865433 
-1.730276458538686e-31 1:1457874.7 2:1695.1184 3:1618.6275 4:1607.5011 5:985.07256 6:796.94247 7:703.98053 8:604.38219 9:696.44724 10:874.78607 11:503.66263 12:230.45335 13:239.01144 14:242.3138 15:221.54522 16:185.58207 17:120.5804 18:89.298329 19:74.219486 20:54.338639 21:32.395837 22:12.215 23:9.3266588 24:4.7196228 25:2.4405541 
-1.730276458538686e-31 1:1453372 2:1821.0158 3:1340.1267 4:1230.3741 5:857.5855 6:773.3967 7:884.75579 8:611.67903 9:455.37908 10:420.45759 11:340.16709 12:444.74865 13:373.14886 14:208.73065 15:197.51884 16:191.25138 17:141.20653 18:89.81215 19:52.192511 20:40.324452 21:24.064889 22:12.677923 23:10.936087 24:7.3646912 25:7.2810711 
-1.730276458538686e-31 1:1455501.1 2:1691.0644 3:1364.4864 4:1269.098 5:723.16069 6:497.57854 7:576.93747 8:544.02839 9:613.19748 10:639.8714 11:457.83974 12:319.37216 13:258.90643 14:278.69821 15:250.97174 16:175.26523 17:104.74763 18:99.765716 19:81.670505 20:59.055428 21:36.079889 22:14.777252 23:11.070925 24:8.4022313 25:6.9249937 
-1.730276458538686e-31 1:1452421.6 2:1542.8847 3:1449.3593 4:1282.2237 5:1092.6497 6:935.06087 7:759.54998 8:663.71871 9:634.2444 10:461.34508 11:393.32474 12:302.6708 13:292.84475 14:327.53097 15:216.96078 16:177.52635 17:151.09063 18:116.26901 19:67.839357 20:44.126963 21:30.433548 22:20.758005 23:16.345194 24:17.025274 25:16.880968 
-1.730276458538686e-31 1:1451252.4 2:1393.074 3:1694.216 4:1786.5864 5:1214.936 6:928.09909 7:652.43934 8:478.17586 9:654.62876 10:691.45202 11:532.66329 12:432.45361 13:401.61145 14:379.66778 15:234.26812 16:164.60484 17:124.38359 18:101.6148 19:58.468263 20:36.629273 21:26.66028 22:21.411678 23:10.501515 24:7.5072179 25:7.6888361 
-1.730276458538686e-31 1:1452774.4 2:1674.5876 3:1500.7155 4:1421.8181 5:1105.6696 6:829.6661 7:714.41025 8:635.83464 9:645.10144 10:663.78743 11:410.4813 12:319.90263 13:278.7311 14:227.42701 15:190.82557 16:166.15708 17:161.21853 18:117.12717 19:63.11753 20:32.173189 21:20.626575 22:14.266875 23:9.9320798 24:5.1895237 25:3.5732286 
-1.730276458538686e-31 1:1454985.3 2:1858.1611 3:1053.3185 4:1011.3748 5:1008.506 6:873.34118 7:750.68361 8:742.59911 9:710.91992 10:550.28408 11:344.17353 12:356.23537 13:327.09797 14:277.58716 15:222.84126 16:166.30787 17:150.74499 18:108.24077 19:37.279278 20:34.818433 21:30.780024 22:16.935635 23:8.2489832 24:5.2751468 25:4.3285395 
-1.730276458538686e-31 1:1449602.8 2:1543.8183 3:1221.8061 4:1303.6052 5:1061.6238 6:1026.1216 7:976.49278 8:780.38927 9:688.2746 10:536.41944 11:380.11963 12:302.90458 13:252.92692 14:244.14286 15:224.65165 16:171.44447 17:76.673975 18:54.16168 19:47.032499 20:29.975308 21:21.988801 22:10.825786 23:7.0544794 24:4.2562234 25:2.4643454 
-1.730276458538686e-31 1:1449159.3 2:1595.2026 3:1694.2908 4:1321.3407 5:724.90375 6:879.04136 7:845.50473 8:686.17465 9:635.67089 10:587.87802 11:441.06596 12:286.00719 13:222.50407 14:278.76619 15:267.59992 16:216.72311 17:133.02631 18:86.225323 19:54.856637 20:43.114198 21:34.106933 22:19.19969 23:7.1840167 24:4.5975207 25:3.116775 
-1.730276458538686e-31 1:1451244.3 2:1491.4005 3:1599.5815 4:1439.3327 5:909.52019 6:680.53139 7:619.14947 8:566.99393 9:803.88451 10:635.46246 11:403.61338 12:311.14985 13:218.54853 14:259.48025 15:181.75394 16:139.33389 17:94.662536 18:71.325173 19:65.788722 20:39.922487 21:25.264792 22:18.099585 23:7.3932501 24:4.206079 25:2.6776123 
-1.730276458538686e-31 1:1449207.7 2:1546.597 3:1434.9918 4:1205.3075 5:903.68422 6:930.31886 7:928.06965 8:816.93727 9:865.28725 10:699.37505 11:343.25697 12:298.09748 13:284.19575 14:263.75833 15:208.69227 16:136.82821 17:106.71184 18:104.33529 19:71.583712 20:44.403235 21:27.831959 22:15.865062 23:10.458432 24:6.4623028 25:4.5989334 
-1.730276458538686e-31 1:1449420.9 2:1613.1901 3:1667.5629 4:1448.9715 5:1028.8328 6:909.89167 7:812.13856 8:741.05881 9:556.04113 10:499.05144 11:367.73994 12:334.26089 13:322.91677 14:263.72875 15:289.98451 16:219.04143 17:112.95089 18:107.27233 19:70.139666 20:35.775604 21:29.075297 22:17.642109 23:8.3149696 24:3.4192175 25:2.4419911 
-1.730276458538686e-31 1:1456689.8 2:1542.3501 3:1725.5274 4:1478.0781 5:1096.825 6:933.70842 7:835.26273 8:658.87706 9:871.8385 10:790.90971 11:374.46251 12:295.36685 13:222.78339 14:202.5917 15:219.68549 16:204.40963 17:147.15155 18:113.06183 19:90.174346 20:51.449618 21:25.734929 22:15.835524 23:7.4414635 24:4.8006393 25:3.092956 
-1.730276458538686e-31 1:1455648.6 2:1157.0505 3:1181.2343 4:1290.7685 5:977.53518 6:924.40579 7:740.9224 8:675.18297 9:750.99 10:656.69222 11:346.51382 12:325.47204 13:309.41807 14:244.85539 15:230.55622 16:168.30196 17:90.116241 18:85.090278 19:60.753218 20:27.727136 21:18.045803 22:16.133413 23:11.754731 24:5.3497645 25:3.8040768 
-1.730276458538686e-31 1:1454004.1 2:1487.317 3:1842.0019 4:1632.6346 5:851.15344 6:704.21912 7:616.62164 8:694.15073 9:875.66471 10:637.00533 11:451.82336 12:332.44316 13:266.42024 14:247.11196 15:227.18154 16:198.15161 17:106.03739 18:89.070572 19:60.385165 20:35.502494 21:31.681849 22:18.377881 23:10.507323 24:7.7052136 25:7.7977446 
-1.730276458538686e-31 1:1452275.7 2:1748.4892 3:1744.2943 4:1447.5065 5:881.65081 6:878.04427 7:584.50247 8:588.12143 9:710.16037 10:481.2897 11:393.1182 12:328.53489 13:211.6966 14:204.63385 15:181.63596 16:180.94546 17:160.01586 18:108.19516 19:64.974136 20:43.329743 21:32.678468 22:24.080868 23:16.583649 24:13.006352 25:11.438649 
-1.730276458538686e-31 1:1450215.6 2:1676.2481 3:1665.6463 4:1349.001 5:1101.0382 6:880.34734 7:584.04353 8:660.54155 9:863.83907 10:615.20798 11:328.21918 12:299.71248 13:228.03234 14:226.89153 15:249.88657 16:201.31932 17:126.89079 18:87.372641 19:75.665572 20:41.505882 21:21.769167 22:18.38762 23:10.825087 24:7.3900813 25:8.2846836 
-1.730276458538686e-31 1:1448948.4 2:1489.6699 3:1481.1703 4:1701.9417 5:1243.7712 6:989.39021 7:854.37419 8:792.94898 9:818.92404 10:627.63876 11:339.65804 12:308.83957 13:281.01655 14:281.25001 15:264.03135 16:172.21081 17:107.60318 18:81.887797 19:66.336886 20:48.597096 21:30.338511 22:25.934282 23:15.833133 24:12.292025 25:12.589789 
-1.730276458538686e-31 1:1453426.8 2:926.15436 3:1118.3887 4:1388.6412 5:1103.7916 6:952.8156 7:790.75538 8:640.36758 9:586.06304 10:516.65519 11:377.8085 12:320.9601 13:280.43519 14:234.25614 15:189.95787 16:165.87486 17:115.31297 18:88.332773 19:66.3684 20:38.162693 21:24.83379 22:16.512472 23:9.3418634 24:6.2275601 25:4.0639671 
-1.730276458538686e-31 1:1452733 2:1450.166 3:1727.3435 4:1659.7013 5:1187.8373 6:992.20092 7:626.63142 8:567.44821 9:858.26534 10:741.89032 11:413.63442 12:347.69477 13:291.95257 14:252.47119 15:210.69803 16:175.69921 17:119.5724 18:72.099469 19:54.756156 20:39.993492 21:26.414846 22:11.483597 23:7.0076801 24:4.807772 25:3.3990327 
-1.730276458538686e-31 1:1452215.7 2:1730.1716 3:1678.7608 4:1359.4559 5:1253.7788 6:1118.3207 7:724.09397 8:582.46138 9:585.21755 10:542.83022 11:495.51758 12:462.52903 13:297.2701 14:271.79216 15:208.21608 16:178.18516 17:142.23119 18:104.74722 19:65.116406 20:40.510976 21:30.800203 22:19.067055 23:9.4503649 24:6.8515586 25:3.6130124 
-1.730276458538686e-31 1:1451347.1 2:1429.3394 3:1493.1224 4:1316.9201 5:845.55871 6:677.31565 7:756.913 8:747.23551 9:752.06879 10:719.14544 11:378.79056 12:326.29547 13:283.49352 14:270.59655 15:252.01308 16:194.629 17:122.18159 18:89.842018 19:75.594914 20:48.860347 21:36.054464 22:16.794463 23:8.1125236 24:5.0733888 25:3.6514918 
-1.730276458538686e-31 1:1449791.8 2:1781.3537 3:1777.1066 4:1585.8452 5:1074.0351 6:1065.9895 7:880.53823 8:641.40182 9:799.90769 10:736.93011 11:412.53412 12:318.72603 13:271.04617 14:262.82487 15:238.89956 16:205.66196 17:157.12305 18:117.85897 19:69.870848 20:49.948504 21:32.147825 22:13.906568 23:6.8492806 24:4.5927901 25:2.5801159 
-1.730276458538686e-31 1:1449606.1 2:1441.3746 3:1602.3929 4:1429.1771 5:990.0049 6:818.55722 7:712.34909 8:788.46872 9:804.30209 10:631.03125 11:410.66849 12:345.31099 13:237.13886 14:214.79283 15:241.10572 16:198.8283 17:152.97665 18:104.90259 19:78.444281 20:50.399567 21:25.139989 22:13.618081 23:7.3880353 24:4.5271526 25:5.9374473 
-1.730276458538686e-31 1:1450732.6 2:1490.9189 3:1360.2302 4:1497.4548 5:898.17717 6:813.18378 7:674.34243 8:519.23381 9:587.11838 10:634.82704 11:523.4734 12:399.35175 13:374.32892 14:307.22196 15:192.55166 16:184.72655 17:121.30916 18:58.802382 19:56.886658 20:44.630882 21:17.743277 22:11.055944 23:8.6763451 24:6.8767212 25:4.9931589 
-1.730276458538686e-31 1:1448375.1 2:1500.851 3:1372.6003 4:1506.4877 5:1082.7391 6:934.21736 7:837.04269 8:615.80084 9:524.12969 10:544.07474 11:509.85852 12:420.3488 13:291.87486 14:227.53686 15:210.93033 16:169.3845 17:110.59395 18:95.123263 19:57.620594 20:37.25281 21:25.724382 22:21.932757 23:13.262825 24:6.7753981 25:9.0796923 
-1.730276458538686e-31 1:1448943.3 2:1456.9721 3:1523.266 4:1270.5509 5:707.94831 6:621.53752 7:557.46575 8:474.9598 9:617.31232 10:575.0535 11:381.5318 12:347.90816 13:286.20419 14:253.34656 15:230.53631 16:168.0306 17:129.38738 18:97.960657 19:65.95146 20:29.959818 21:21.010446 22:13.657454 23:8.3845649 24:4.4891411 25:3.9347282 
-1.730276458538686e-31 1:1451051.8 2:1959.6034 3:1748.0979 4:1289.4695 5:965.9936 6:594.50674 7:632.45468 8:716.29401 9:887.09777 10:750.37008 11:456.01031 12:376.95814 13:252.25643 14:258.26381 15:241.65819 16:162.80843 17:119.90243 18:84.994947 19:57.01486 20:39.018639 21:19.722896 22:14.776802 23:10.439951 24:4.5223269 25:2.5151289 
-1.730276458538686e-31 1:1450715.9 2:1582.3396 3:1380.2828 4:1305.3364 5:1176.6127 6:878.59655 7:849.47094 8:755.244 9:661.64521 10:612.78948 11:516.41604 12:435.90807 13:348.10497 14:266.13936 15:207.19351 16:156.42893 17:85.765545 18:74.732722 19:55.240926 20:35.73787 21:28.695879 22:19.433903 23:11.275369 24:8.5250946 25:8.5703515 
-1.730276458538686e-31 1:1446435.2 2:1070.494 3:1756.9641 4:1790.3827 5:1105.8018 6:995.17537 7:877.18147 8:758.13817 9:686.03855 10:631.30635 11:354.3307 12:314.27795 13:329.68762 14:193.81952 15:245.40905 16:242.65261 17:103.18292 18:46.907981 19:55.865857 20:43.924429 21:27.946891 22:19.854425 23:11.253161 24:9.375718 25:7.2329017 
-1.730276458538686e-31 1:1448162.2 2:1920.5008 3:1481.4756 4:1065.071 5:842.83348 6:715.92576 7:670.04755 8:680.69143 9:726.7785 10:660.15909 11:408.93157 12:278.44267 13:315.33583 14:352.55512 15:299.00352 16:180.69547 17:137.79083 18:117.01268 19:59.689464 20:36.547369 21:21.1097 22:14.832774 23:9.6635088 24:5.875688 25:3.1864793 
-1.730276458538686e-31 1:1448728.9 2:1215.7841 3:1328.1306 4:1275.8848 5:877.63587 6:724.81485 7:668.97135 8:700.80861 9:854.08539 10:823.64772 11:440.48789 12:267.23691 13:242.72684 14:266.00165 15:264.27861 16:244.18334 17:171.53718 18:94.374357 19:66.662537 20:40.14734 21:26.77527 22:17.745575 23:7.843992 24:5.0533961 25:3.729063 
