svm_type one_class
kernel_type polynomial
degree 3
gamma 1
coef0 0
nr_class 2
total_sv 983
rho 7.73291e+34
SV
1 1:230230.73 2:2515.7863 3:2514.3912 4:2557.5469 5:2046.1019 6:2410.2108 7:2777.2989 8:2246.527 9:2280.9114 10:2155.3801 11:1242.1616 12:1022.8652 13:931.50651 14:831.48889 15:591.15828 16:640.89297 17:650.50011 18:363.47936 19:243.6477 20:154.25703 21:93.473847 22:52.873025 23:29.232857 24:28.253652 25:25.415878 
1 1:222321.41 2:1932.3804 3:2173.6456 4:3018.8237 5:2169.3675 6:1413.143 7:1951.4495 8:1933.637 9:1860.317 10:1602.5735 11:1169.9631 12:1241.0096 13:1035.3563 14:900.99629 15:874.48334 16:609.84497 17:354.34508 18:285.27711 19:219.11754 20:100.1065 21:60.787049 22:47.430015 23:24.541121 24:10.851507 25:6.8000589 
1 1:222334.75 2:2401.3456 3:2695.8353 4:1974.3001 5:1920.3949 6:1862.0803 7:1504.5279 8:1582.3263 9:1153.1435 10:959.47631 11:1094.7816 12:817.89148 13:613.366 14:712.66381 15:716.23712 16:674.37724 17:454.73557 18:297.90716 19:172.52643 20:75.475832 21:53.308579 22:36.705236 23:21.06519 24:12.617319 25:6.7701366 
1 1:222712.17 2:2506.6682 3:2345.8205 4:2462.3406 5:2261.7937 6:2042.1938 7:1717.8624 8:1394.1955 9:1407.949 10:1314.9304 11:1113.0498 12:988.98409 13:658.90945 14:619.53543 15:687.57679 16:566.41907 17:360.99264 18:157.0233 19:132.11557 20:109.33419 21:72.184107 22:31.345563 23:21.721195 24:13.699931 25:9.6848081 
1 1:216861.29 2:3191.7377 3:3242.7906 4:3085.2098 5:2284.8101 6:1979.7217 7:2197.6648 8:2035.0642 9:1164.5867 10:1072.0458 11:1291.0432 12:893.23297 13:683.80058 14:788.15182 15:717.79509 16:469.03494 17:309.72694 18:272.25601 19:210.03247 20:112.9686 21:72.600841 22:50.50259 23:29.584068 24:28.474163 25:25.573528 
1 1:205552.75 2:2340.811 3:2485.5208 4:2357.184 5:2100.4494 6:1556.7283 7:1064.2103 8:1577.4553 9:1764.8682 10:1551.175 11:1130.7145 12:872.0077 13:878.04072 14:683.35403 15:544.72172 16:434.96393 17:398.42075 18:307.68755 19:164.89609 20:99.966427 21:58.214821 22:26.077531 23:14.806613 24:13.540629 25:7.5200043 
1 1:199842.13 2:2190.6171 3:3570.158 4:3180.8714 5:3513.7331 6:3361.0931 7:2531.2415 8:2270.4071 9:2000.3563 10:1831.2099 11:1278.2251 12:1013.7925 13:939.03129 14:870.1253 15:577.1231 16:378.88891 17:409.51712 18:369.82918 19:199.24408 20:118.74114 21:50.839563 22:25.210684 23:19.98724 24:10.328323 25:5.1461996 
1 1:203106.51 2:4469.7712 3:6311.3095 4:6319.3742 5:4787.5866 6:2895.2301 7:2688.2977 8:2735.0307 9:2705.3776 10:2411.5255 11:1908.065 12:1800.426 13:1226.3585 14:999.83422 15:700.60242 16:728.5777 17:514.25662 18:376.5165 19:263.31779 20:199.176 21:108.40635 22:52.003664 23:23.532087 24:12.921887 25:7.4706186 
1 1:207961.87 2:3274.5941 3:3728.5086 4:3780.2975 5:3547.321 6:2054.9792 7:1759.9906 8:1963.1239 9:1194.3446 10:1491.0499 11:1386.7687 12:855.68797 13:938.3697 14:1044.0556 15:697.80404 16:331.44208 17:258.89859 18:242.68169 19:211.82618 20:139.33404 21:81.353011 22:46.216862 23:37.576651 24:31.598598 25:32.336326 
1 1:217312.66 2:1320.4148 3:1692.3779 4:1724.188 5:1708.3184 6:1573.5685 7:1277.55 8:1155.5955 9:887.77171 10:845.47091 11:814.19819 12:728.68701 13:701.8147 14:584.44391 15:550.32893 16:397.03008 17:273.64282 18:201.42731 19:161.23846 20:109.84864 21:64.015368 22:43.028751 23:28.854656 24:27.567225 25:24.417763 
1 1:230490.5 2:4055.9953 3:3443.6289 4:3767.5887 5:3584.6094 6:2908.7345 7:2381.5938 8:2170.8736 9:2101.715 10:1620.1737 11:1478.3254 12:1140.6716 13:905.88207 14:926.58911 15:760.46191 16:716.48472 17:523.21071 18:334.50849 19:234.36492 20:187.92657 21:126.38806 22:76.273234 23:64.547362 24:68.196642 25:66.247885 
1 1:224033.4 2:6635.7156 3:6449.0047 4:5148.2452 5:5831.795 6:6117.9243 7:5411.1252 8:4631.5318 9:5401.841 10:6111.8416 11:4454.3527 12:4111.5514 13:4007.0139 14:2909.3613 15:2189.5898 16:1320.2912 17:1124.7355 18:1155.1116 19:844.92845 20:404.04043 21:166.82207 22:101.71206 23:82.513968 24:86.779862 25:76.656002 
1 1:199490.37 2:3822.5878 3:3496.1707 4:2877.4915 5:2997.6918 6:3009.6209 7:3572.938 8:2955.8868 9:2399.4717 10:2361.6787 11:1927.1445 12:1584.5653 13:1348.7095 14:1388.5262 15:1168.1941 16:1039.8454 17:822.48197 18:544.51607 19:379.45559 20:229.59948 21:139.82299 22:75.267519 23:44.924037 24:43.600906 25:44.714842 
1 1:196872.35 2:1612.8809 3:1462.2929 4:1240.6537 5:940.28728 6:1075.6764 7:991.73015 8:895.74773 9:863.20946 10:828.92556 11:672.78325 12:417.9914 13:473.76354 14:506.55379 15:419.37859 16:343.83828 17:220.09164 18:136.3898 19:76.837757 20:60.942431 21:48.291917 22:27.718696 23:19.052086 24:13.264011 25:16.761783 
1 1:220421.45 2:3539.7126 3:2882.4834 4:3254.8586 5:3560.6726 6:3309.8576 7:3296.5845 8:3149.1942 9:2709.4627 10:1957.1098 11:1999.6248 12:1852.3133 13:1325.3718 14:1097.2206 15:848.22452 16:516.67188 17:405.60423 18:314.48622 19:170.59806 20:120.50968 21:69.957078 22:54.099928 23:50.111636 24:51.953764 25:54.675111 
1 1:232278.16 2:8184.9503 3:8340.839 4:8233.1826 5:8717.7203 6:7955.0091 7:7780.2401 8:7724.2304 9:6060.569 10:6099.1 11:5664.259 12:3950.466 13:3916.1545 14:3225.6337 15:2568.6471 16:2625.0584 17:1633.181 18:791.45753 19:555.78886 20:509.40849 21:262.84143 22:110.71972 23:113.78179 24:71.679357 25:45.307445 
1 1:202155.96 2:7623.1015 3:8542.8504 4:8215.9851 5:8620.2113 6:7125.2858 7:6548.238 8:7626.685 9:6527.2642 10:4544.1068 11:3719.9782 12:2686.7267 13:3332.4066 14:3587.3457 15:2747.266 16:2243.2556 17:1132.0811 18:758.38728 19:793.67129 20:541.75715 21:282.82183 22:130.83974 23:105.35766 24:84.71132 25:75.621728 
1 1:194627.96 2:4396.9229 3:5731.9212 4:5913.596 5:5001.9041 6:5056.7365 7:3993.5475 8:3757.6089 9:4111.1767 10:3419.138 11:3627.1701 12:2648.7201 13:1783.7443 14:1994.3766 15:1666.3013 16:1341.0486 17:1078.5405 18:727.10641 19:455.63266 20:274.19402 21:142.39075 22:105.34222 23:65.248735 24:23.046431 25:7.1479933 
1 1:196650.18 2:4353.2097 3:4653.1276 4:5698.2776 5:4679.2499 6:4606.7076 7:6170.8479 8:6137.4963 9:5072.3505 10:3764.3147 11:3079.0365 12:2365.181 13:2280.5224 14:2457.8966 15:1977.3529 16:1526.4217 17:896.29046 18:674.46556 19:492.37784 20:348.32751 21:246.683 22:128.11356 23:45.356635 24:35.45256 25:21.08389 
1 1:193836.75 2:4227.1624 3:6754.7661 4:7290.1246 5:6724.7786 6:5353.6926 7:3905.4442 8:4392.7352 9:4863.5471 10:4207.6612 11:3711.121 12:2590.0292 13:1710.4332 14:1848.1227 15:1846.1691 16:1396.2775 17:1016.1738 18:759.64258 19:386.14823 20:228.78296 21:142.89028 22:79.207685 23:35.549253 24:16.920249 25:7.1765636 
1 1:189190.11 2:3092.598 3:3824.7914 4:3715.3579 5:4045.8656 6:4205.407 7:3391.221 8:3863.1196 9:3796.826 10:2894.5726 11:2519.7442 12:2274.1769 13:2124.1212 14:1847.5095 15:1349.7852 16:899.95268 17:801.33613 18:720.35057 19:518.353 20:293.01506 21:138.57074 22:71.535755 23:27.814429 24:15.21629 25:7.6572831 
1 1:190837.38 2:3905.3493 3:5309.2645 4:5643.1361 5:5440.6983 6:3924.3117 7:3335.3098 8:3711.3826 9:3656.8244 10:3589.8241 11:2792.3316 12:2507.349 13:2616.7723 14:1962.6684 15:1218.318 16:1175.5243 17:951.42062 18:744.86737 19:428.33732 20:301.40969 21:141.31606 22:57.340576 23:31.873132 24:16.741514 25:8.9552814 
1 1:194795.81 2:2915.3548 3:4356.0562 4:3961.779 5:2593.192 6:3622.3962 7:3993.341 8:2810.4567 9:2640.1898 10:2313.8689 11:1960.3783 12:1848.236 13:2089.4992 14:1618.3009 15:1052.8857 16:865.12219 17:612.2926 18:701.27163 19:475.91234 20:216.40104 21:129.69631 22:57.511253 23:31.254485 24:18.890223 25:16.597851 
1 1:199434.19 2:3210.3883 3:4494.289 4:4407.2708 5:3100.6892 6:3147.027 7:3467.9476 8:4054.5581 9:3963.1632 10:2872.0441 11:2316.6527 12:1930.6365 13:1702.5198 14:1597.5395 15:1334.46 16:1021.2713 17:718.22261 18:515.13708 19:362.22714 20:250.47046 21:139.74899 22:70.053403 23:43.251685 24:18.096536 25:8.9953777 
1 1:207443.29 2:4669.6984 3:5760.6574 4:6457.0087 5:5276.936 6:5139.2216 7:5071.4039 8:3812.6194 9:3857.038 10:4280.4272 11:3012.825 12:1037.4273 13:1345.2659 14:1686.1574 15:1189.6779 16:949.39727 17:737.97582 18:489.07912 19:231.30789 20:174.11617 21:118.31519 22:57.489151 23:34.099094 24:27.371718 25:23.192308 
1 1:210058.74 2:3432.514 3:3388.0757 4:3137.8281 5:3546.3934 6:3767.5259 7:3729.6936 8:3754.462 9:3262.8026 10:2680.8389 11:1930.9507 12:1793.1339 13:1822.8136 14:1181.5054 15:1075.6104 16:875.45095 17:572.58822 18:471.80293 19:269.31435 20:174.88381 21:113.74818 22:71.35769 23:30.376342 24:16.161781 25:7.8187493 
1 1:215663.56 2:4177.2542 3:5271.5033 4:5188.1974 5:5594.2891 6:5336.4038 7:3724.0384 8:3466.9605 9:2606.3001 10:2121.5316 11:2052.5981 12:1536.9664 13:1414.0604 14:1464.6496 15:1151.3332 16:865.14401 17:532.91806 18:219.84803 19:200.53942 20:192.79189 21:127.7932 22:75.844476 23:29.862649 24:8.5715612 25:3.1597281 
1 1:220167.55 2:3542.7202 3:4537.7455 4:5662.4803 5:5207.9991 6:4132.4315 7:3294.4865 8:2550.7538 9:2337.0887 10:2545.5027 11:2677.0464 12:2392.2044 13:1252.7365 14:1000.447 15:1248.2145 16:1049.4462 17:636.04025 18:433.91689 19:297.61373 20:213.65613 21:104.63737 22:54.754998 23:40.921815 24:36.591323 25:37.179792 
1 1:226855.75 2:2586.7365 3:3214.2836 4:3875.6586 5:3247.5931 6:2972.7321 7:3840.182 8:3373.8902 9:2331.4201 10:2074.4803 11:2165.9165 12:1667.5456 13:944.56184 14:1157.7299 15:869.54434 16:557.11355 17:545.03086 18:432.99297 19:336.102 20:180.75903 21:106.19312 22:48.821446 23:26.086835 24:15.792585 25:14.484036 
1 1:230355.74 2:3383.029 3:5098.0254 4:6168.4979 5:5007.4592 6:4402.7941 7:4219.5126 8:3448.7845 9:3629.8137 10:2817.6468 11:2223.5834 12:1482.6115 13:1402.1189 14:1296.2379 15:1054.3029 16:1050.3551 17:855.67712 18:656.31052 19:387.99966 20:214.27961 21:95.961722 22:52.273165 23:29.048729 24:9.0847212 25:3.9995485 
1 1:233873.23 2:2106.2241 3:2977.7488 4:3099.3222 5:2984.689 6:2522.6954 7:1952.3478 8:2200.7107 9:2236.7382 10:1648.1394 11:1714.7377 12:1444.2361 13:977.8072 14:1142.1914 15:924.21797 16:727.36123 17:547.60978 18:328.54039 19:202.78679 20:143.29001 21:95.986298 22:63.242521 23:56.029479 24:50.943687 25:51.187387 
1 1:230890.32 2:5080.6218 3:5767.0927 4:5727.5953 5:5736.9813 6:5293.2741 7:5283.3828 8:6029.7908 9:5010.4671 10:3472.237 11:3239.6835 12:2353.2326 13:1729.4378 14:1871.4649 15:1826.159 16:1718.6266 17:1203.7651 18:799.8247 19:544.3972 20:335.63962 21:255.35264 22:204.09928 23:158.29299 24:129.88402 25:131.02245 
1 1:198142.3 2:6083.4834 3:6536.8039 4:5821.9262 5:4748.7853 6:6313.6571 7:6025.4313 8:4319.6255 9:3506.3417 10:3495.9065 11:3222.3925 12:1693.3323 13:955.80873 14:1466.4657 15:1445.5715 16:1102.197 17:872.47679 18:561.61695 19:355.77447 20:217.17115 21:150.90551 22:82.47612 23:65.292288 24:54.665653 25:51.092395 
1 1:185566.1 2:4016.6552 3:3962.4581 4:3007.5201 5:3079.2505 6:3823.1253 7:3664.1486 8:3238.5236 9:3346.6291 10:2855.0361 11:2259.8664 12:2128.3907 13:1651.5691 14:1451.4204 15:1351.0813 16:1261.7621 17:1004.6207 18:498.06413 19:364.05409 20:226.01693 21:113.68323 22:66.033865 23:41.366466 24:31.78234 25:23.386733 
1 1:181657.59 2:2952.8289 3:3086.0576 4:3209.7086 5:3293.1264 6:3986.0057 7:3620.5496 8:2251.66 9:2174.9923 10:1835.9397 11:1462.8573 12:1576.963 13:1360.9121 14:1038.7247 15:802.41876 16:590.75072 17:429.42995 18:429.69909 19:320.87486 20:185.59067 21:112.50801 22:62.345007 23:20.057884 24:10.747556 25:6.7648976 
1 1:186236.66 2:4571.229 3:5824.2779 4:7502.9261 5:8477.3687 6:6320.4991 7:3186.3755 8:2070.7755 9:2525.1203 10:2606.0436 11:2581.4859 12:1968.2557 13:1358.2945 14:1284.5466 15:1353.7051 16:1151.4599 17:637.79894 18:352.75307 19:264.77227 20:175.90909 21:75.09053 22:44.747441 23:39.038156 24:24.398168 25:21.754004 
1 1:191845.87 2:2966.5265 3:2680.226 4:3144.9908 5:2561.6747 6:1989.9856 7:2144.3628 8:2507.8809 9:2680.4504 10:2419.6243 11:1979.4177 12:1319.1282 13:1234.9488 14:1277.1681 15:868.95273 16:554.26262 17:524.08793 18:392.26361 19:262.18639 20:100.181 21:62.559555 22:50.086145 23:27.815145 24:15.594675 25:12.184508 
1 1:200287.21 2:4300.5186 3:3989.7504 4:3022.105 5:3022.1053 6:2651.6968 7:4407.9189 8:4584.8911 9:2796.8458 10:2101.7591 11:1756.3472 12:1941.1709 13:2190.0615 14:1641.4284 15:1090.0189 16:911.40829 17:499.63769 18:300.59261 19:220.20347 20:177.77638 21:110.18929 22:71.195142 23:31.032614 24:18.266153 25:17.961493 
1 1:205428.58 2:2783.662 3:2623.0851 4:2095.7994 5:2765.4284 6:3561.7174 7:2774.6883 8:2485.3557 9:2388.7578 10:1488.357 11:1161.2676 12:755.03949 13:998.17055 14:1067.0312 15:640.15664 16:556.21171 17:370.26134 18:200.30727 19:156.051 20:122.56579 21:60.100416 22:46.128742 23:26.44696 24:22.89126 25:23.783653 
1 1:208832.31 2:2253.5327 3:3220.5918 4:3430.6292 5:3525.4734 6:3415.5456 7:2926.56 8:2324.1115 9:1969.4554 10:1899.9083 11:1302.7937 12:1247.0137 13:1318.8735 14:1260.2793 15:1037.6692 16:817.41337 17:624.15582 18:367.08781 19:165.23184 20:117.61672 21:64.421496 22:35.15891 23:25.090233 24:15.319078 25:9.2877901 
1 1:215785.97 2:1937.4855 3:3414.8239 4:3880.7811 5:2637.8182 6:2531.9411 7:2602.9241 8:2708.9892 9:3018.911 10:2495.7393 11:1623.1768 12:1295.5923 13:987.30093 14:1021.3763 15:922.56957 16:483.90252 17:360.74944 18:232.66565 19:133.05483 20:131.64084 21:80.334383 22:50.918381 23:38.345623 24:23.256047 25:19.402837 
1 1:223900.31 2:2027.0504 3:2336.1891 4:2485.9139 5:2118.3652 6:2114.6622 7:2232.9424 8:2044.7986 9:1823.2779 10:1839.1922 11:1490.2861 12:940.3972 13:768.09551 14:762.86364 15:560.49425 16:482.35583 17:322.59559 18:209.61291 19:183.22972 20:107.62723 21:67.575739 22:47.744657 23:47.245484 24:45.073167 25:44.59114 
1 1:235262.21 2:1653.6183 3:1686.8049 4:2103.6382 5:2274.1256 6:2089.6421 7:1831.0646 8:1841.8962 9:1826.8232 10:1778.4972 11:1327.0481 12:893.54702 13:704.78568 14:673.44854 15:676.32737 16:590.8555 17:411.22856 18:233.74557 19:150.01004 20:112.62733 21:70.077859 22:42.202859 23:25.932631 24:16.67034 25:14.564471 
1 1:235037.14 2:1392.9254 3:1750.3175 4:1835.6342 5:1851.3564 6:1700.4003 7:1276.2603 8:1072.0866 9:1230.4224 10:1411.9763 11:1088.2975 12:575.30926 13:507.19808 14:549.60123 15:400.07748 16:323.4166 17:209.83601 18:159.90718 19:117.07584 20:76.039954 21:61.070701 22:28.170218 23:15.63355 24:7.5876614 25:5.253409 
1 1:239401.01 2:1383.3819 3:1670.1737 4:2344.6764 5:1803.3415 6:1228.1504 7:1075.4132 8:1069.7744 9:1203.0529 10:1107.164 11:877.79379 12:842.31791 13:612.71507 14:455.35666 15:288.41513 16:232.84106 17:210.38371 18:143.35909 19:120.69945 20:79.189804 21:53.241282 22:36.741984 23:27.70124 24:27.128806 25:26.922121 
1 1:240866.13 2:1088.6283 3:1016.9731 4:1056.1382 5:997.57266 6:1071.3398 7:916.53966 8:579.49537 9:618.04703 10:598.6291 11:393.13085 12:385.81314 13:352.99668 14:305.06673 15:195.32005 16:131.75386 17:102.24329 18:107.96393 19:95.93214 20:51.730963 21:27.085501 22:18.905051 23:11.958137 24:4.9875251 25:3.5737071 
0.7000000000000455 1:242099.3 2:823.10927 3:893.27964 4:899.272 5:485.99154 6:350.23875 7:405.44623 8:415.97971 9:490.10938 10:494.46868 11:370.74987 12:305.23246 13:294.32338 14:216.71725 15:206.04967 16:225.87018 17:129.90725 18:82.84152 19:63.419754 20:44.713235 21:36.545838 22:23.364384 23:9.2389121 24:4.5830439 25:4.1678839 
1 1:241342.73 2:825.70245 3:906.48445 4:922.35234 5:576.21139 6:533.10526 7:429.39295 8:394.65715 9:548.4522 10:460.11881 11:285.61545 12:241.61871 13:234.09146 14:239.91016 15:203.81497 16:162.86324 17:115.69766 18:80.147053 19:71.218468 20:47.874823 21:33.960645 22:22.138531 23:10.509863 24:6.6648959 25:3.4116877 
1 1:241744.18 2:1316.6045 3:912.895 4:740.71494 5:562.99615 6:512.69152 7:325.75274 8:359.92811 9:549.61335 10:476.36053 11:296.78133 12:219.23516 13:195.80751 14:227.15081 15:207.54533 16:169.09168 17:126.29115 18:103.10092 19:59.884027 20:39.344491 21:28.059822 22:16.180756 23:9.783428 24:7.9985551 25:7.6325771 
1 1:241073.89 2:781.50014 3:680.50559 4:670.4818 5:414.79464 6:345.59802 7:401.07336 8:519.01479 9:522.99881 10:352.82055 11:181.40017 12:164.9959 13:166.29495 14:171.47961 15:202.84703 16:170.7823 17:114.86482 18:122.40333 19:76.399976 20:41.183481 21:22.158824 22:11.964542 23:14.904809 24:14.726205 25:13.242562 
1 1:239856.68 2:645.82075 3:811.59087 4:902.54479 5:414.46766 6:260.23274 7:367.26524 8:446.9337 9:558.89838 10:551.81174 11:282.43342 12:151.41988 13:167.96945 14:260.14851 15:267.1822 16:166.62707 17:112.7611 18:99.295537 19:56.47176 20:45.172492 21:30.721777 22:18.699169 23:7.4057499 24:3.108943 25:2.7791216 
1 1:239552.29 2:1132.0942 3:1053.9715 4:705.88212 5:429.29013 6:423.33979 7:381.96509 8:399.45864 9:558.73053 10:487.157 11:236.37673 12:184.63195 13:192.68011 14:240.42178 15:239.0056 16:201.12191 17:132.6765 18:81.189443 19:68.193064 20:53.412933 21:39.633859 22:28.04559 23:12.774928 24:6.4232863 25:5.5585439 
1 1:239859.81 2:1040.9998 3:1082.2264 4:1029.9861 5:587.32794 6:446.58385 7:382.70126 8:386.90199 9:521.91868 10:540.58502 11:450.03577 12:286.44773 13:166.20049 14:190.36739 15:210.02835 16:171.76726 17:124.83566 18:85.091793 19:66.539334 20:52.95101 21:30.22489 22:23.224783 23:12.508202 24:5.3180285 25:2.3495534 
1 1:236618.81 2:951.6771 3:947.46802 4:948.29099 5:598.30372 6:342.17921 7:353.30461 8:451.9482 9:549.48444 10:483.70556 11:273.92217 12:209.4072 13:120.52864 14:151.80211 15:161.93322 16:143.5963 17:110.56925 18:89.035415 19:76.040167 20:55.200833 21:30.919709 22:12.955094 23:9.5278629 24:7.918474 25:8.6499774 
1 1:237155.53 2:796.08638 3:918.81025 4:834.69448 5:398.977 6:387.93761 7:398.80736 8:308.16544 9:375.6869 10:357.61087 11:316.02537 12:339.95726 13:303.2541 14:256.67767 15:209.8677 16:140.41647 17:124.06833 18:118.01594 19:74.076896 20:45.55473 21:24.151958 22:16.280207 23:8.0763542 24:3.3551868 25:2.8558783 
1 1:235994.1 2:983.83885 3:847.53895 4:825.17284 5:493.60695 6:388.92827 7:394.98496 8:366.61992 9:386.32446 10:368.56249 11:275.06452 12:207.28087 13:196.60783 14:224.19913 15:217.04102 16:173.25054 17:103.94453 18:75.618931 19:58.653651 20:33.765581 21:26.576801 22:16.177428 23:10.398615 24:4.9432072 25:3.8656089 
1 1:236463.62 2:1047.1695 3:1092.6142 4:947.89317 5:610.09535 6:530.33031 7:397.39549 8:368.16491 9:439.55042 10:427.82019 11:214.78822 12:163.72198 13:221.93583 14:181.86758 15:151.07537 16:117.75788 17:94.662042 18:100.00918 19:69.919533 20:45.884856 21:25.234641 22:15.371443 23:10.65541 24:5.8354902 25:4.5226648 
1 1:236300.94 2:882.19812 3:870.58977 4:770.8895 5:536.10601 6:475.43142 7:316.97468 8:310.70392 9:409.2037 10:331.41032 11:243.10364 12:282.95729 13:231.08263 14:151.01782 15:166.18515 16:182.10804 17:123.04056 18:99.522083 19:79.446157 20:58.168677 21:34.881619 22:21.927243 23:11.67102 24:6.6332266 25:6.7131924 
1 1:238500.06 2:958.56413 3:778.87868 4:923.55225 5:519.05555 6:335.35051 7:329.31873 8:357.21953 9:526.4814 10:471.65902 11:270.63286 12:266.90233 13:280.1219 14:237.06321 15:143.98386 16:124.97897 17:138.04613 18:104.80249 19:52.29607 20:40.685437 21:26.24898 22:16.657541 23:8.6037632 24:3.9059978 25:3.1939291 
1 1:236803.22 2:1180.8548 3:922.42544 4:872.24355 5:671.40584 6:544.16363 7:542.58617 8:468.62058 9:463.70011 10:489.53119 11:346.94885 12:272.68958 13:174.69472 14:167.35095 15:184.82913 16:129.11143 17:77.69732 18:82.088182 19:63.885906 20:45.9421 21:37.906458 22:25.902983 23:16.905846 24:14.19817 25:15.596222 
1 1:235118.37 2:935.18538 3:907.96482 4:872.7476 5:464.43646 6:312.65487 7:352.11894 8:381.62996 9:476.50428 10:475.39741 11:359.49161 12:259.29046 13:272.10282 14:248.94684 15:178.46136 16:173.50171 17:110.13306 18:78.781321 19:64.870345 20:40.855863 21:25.126321 22:20.10893 23:13.564532 24:7.0743895 25:4.6983337 
1 1:237189.17 2:1305.6343 3:1065.6153 4:970.25908 5:533.09108 6:485.78764 7:421.88873 8:357.67315 9:561.7401 10:485.42071 11:358.1931 12:357.76316 13:247.54574 14:231.33266 15:182.10908 16:154.5443 17:133.12086 18:107.93876 19:75.839428 20:45.604053 21:35.566067 22:18.435163 23:11.392818 24:8.5267549 25:7.0798411 
1 1:236087.81 2:849.29378 3:1022.9727 4:907.15268 5:555.19269 6:453.05678 7:402.02629 8:496.29264 9:517.33331 10:376.72044 11:193.76303 12:245.97167 13:267.86368 14:179.77844 15:180.06825 16:195.69604 17:137.75867 18:89.082219 19:71.419606 20:57.030992 21:40.21064 22:23.719609 23:12.480175 24:9.7453007 25:9.348205 
1 1:234580.96 2:898.56806 3:877.91498 4:924.44666 5:756.52726 6:642.62667 7:393.43597 8:351.6123 9:502.78314 10:507.6835 11:322.43627 12:232.91547 13:244.25215 14:246.93471 15:183.2947 16:151.26946 17:110.07064 18:70.352643 19:74.064298 20:47.191971 21:37.071314 22:24.094226 23:10.675564 24:6.8449134 25:5.9277286 
1 1:236505.41 2:799.21619 3:1028.0606 4:884.9334 5:483.22177 6:427.18778 7:414.45504 8:384.74495 9:480.91977 10:428.7552 11:248.66245 12:260.42086 13:255.87007 14:266.55924 15:295.72879 16:233.4495 17:161.64836 18:89.767495 19:65.278395 20:46.150865 21:31.397613 22:22.765541 23:11.348886 24:7.309691 25:6.5098939 
1 1:234890.61 2:754.07981 3:1122.9628 4:1146.9684 5:451.19371 6:331.01279 7:358.42837 8:391.6123 9:491.4925 10:415.93896 11:259.47235 12:202.42721 13:257.04316 14:260.5054 15:165.03979 16:135.49836 17:92.013619 18:76.447504 19:53.945072 20:31.955703 21:24.321877 22:13.539459 23:8.0260808 24:4.4810015 25:2.3493844 
1 1:233655.75 2:934.96104 3:879.7833 4:673.85951 5:479.03729 6:574.76526 7:561.28086 8:481.85858 9:441.10842 10:361.10542 11:269.80957 12:245.70509 13:244.52033 14:221.62505 15:173.30168 16:176.89644 17:123.01995 18:86.978852 19:71.221009 20:52.046911 21:29.184299 22:15.565108 23:13.460119 24:9.8666744 25:9.400666 
1 1:236214.16 2:915.90563 3:1010.5178 4:958.14655 5:539.27338 6:521.04868 7:516.79861 8:451.31905 9:599.84762 10:575.95972 11:404.32955 12:307.2034 13:211.5559 14:256.28459 15:232.40126 16:185.66749 17:123.21582 18:69.067423 19:53.225344 20:40.85807 21:28.53207 22:10.695236 23:7.8854491 24:5.5822328 25:2.1071803 
1 1:235081.07 2:1147.676 3:825.05689 4:891.86935 5:586.2916 6:411.80704 7:364.05822 8:446.12234 9:606.04595 10:478.34997 11:331.93267 12:250.47927 13:152.67291 14:275.35987 15:280.28161 16:178.44134 17:136.48837 18:82.905883 19:51.470253 20:34.793081 21:25.002182 22:16.007205 23:8.3685193 24:5.4310946 25:4.3248304 
1 1:235764.29 2:864.31525 3:850.79435 4:817.90048 5:478.37797 6:479.24269 7:413.8205 8:455.14991 9:573.4449 10:501.54858 11:330.99796 12:270.50388 13:164.56316 14:162.58394 15:221.5331 16:187.45894 17:124.71518 18:100.15357 19:59.845275 20:39.168649 21:32.452667 22:16.83421 23:9.3925035 24:5.6577882 25:4.0312116 
1 1:237115.89 2:966.35496 3:1059.6558 4:971.6453 5:530.11227 6:475.28943 7:460.8929 8:397.68388 9:627.16617 10:597.68933 11:367.69071 12:390.77744 13:262.32415 14:214.82206 15:245.66261 16:179.54863 17:101.241 18:84.014095 19:70.143344 20:50.222484 21:31.666584 22:19.046612 23:15.411937 24:8.5480499 25:3.7817174 
1 1:238466.2 2:1046.2255 3:885.30528 4:724.04087 5:530.68564 6:577.92177 7:525.72172 8:415.6394 9:551.74626 10:546.21697 11:332.90893 12:289.92813 13:240.66868 14:209.81066 15:280.96358 16:193.39961 17:93.419372 18:110.10955 19:67.76636 20:37.796638 21:22.458646 22:15.707339 23:9.4129499 24:6.0499821 25:5.1935348 
1 1:240609.39 2:896.92305 3:1161.521 4:990.81924 5:491.68509 6:379.09048 7:410.85814 8:434.36355 9:475.38825 10:402.42271 11:306.48542 12:302.60868 13:198.85812 14:164.17556 15:160.66502 16:146.84226 17:147.13231 18:130.47759 19:68.51768 20:36.190921 21:32.785897 22:24.191841 23:11.752171 24:5.3139091 25:2.2631633 
1 1:240081.72 2:1026.1421 3:882.23676 4:803.21166 5:476.97305 6:408.95897 7:524.43641 8:464.74855 9:461.94167 10:424.9717 11:281.47164 12:267.72671 13:230.29104 14:199.90435 15:168.00532 16:128.36797 17:100.06303 18:91.182393 19:68.79561 20:48.932405 21:36.203828 22:21.105577 23:8.8069707 24:6.5783733 25:7.896397 
1 1:239579.72 2:866.35152 3:1097.5743 4:824.17794 5:418.78722 6:494.84285 7:515.68507 8:418.59075 9:470.30666 10:539.03289 11:320.44466 12:172.85257 13:201.65884 14:201.10395 15:162.15106 16:180.66645 17:159.58392 18:107.21427 19:73.700585 20:53.445771 21:29.538116 22:15.302194 23:8.1765149 24:3.7406206 25:2.8506008 
1 1:240147.08 2:1176.4938 3:1100.4149 4:935.87986 5:561.76739 6:426.14246 7:378.91374 8:294.95519 9:428.87714 10:409.5912 11:337.36857 12:270.07028 13:149.35035 14:198.91155 15:153.98907 16:177.82555 17:148.92696 18:91.338016 19:73.627459 20:52.072897 21:35.810057 22:20.017782 23:14.748011 24:13.663394 25:11.71118 
1 1:240361.82 2:1023.6448 3:819.73494 4:854.23854 5:574.718 6:466.25212 7:407.7972 8:308.1372 9:420.22329 10:411.701 11:290.98037 12:226.73202 13:162.92608 14:191.42479 15:196.84645 16:178.11308 17:174.07995 18:103.36112 19:72.059807 20:58.171318 21:31.812944 22:15.39143 23:8.8369734 24:6.8752424 25:7.9259274 
1 1:239486.4 2:908.91418 3:1078.0861 4:915.36361 5:548.70977 6:544.89178 7:412.28207 8:345.97649 9:467.14451 10:457.6279 11:335.28396 12:246.01013 13:207.87658 14:208.77975 15:181.03166 16:153.14623 17:132.48904 18:97.788831 19:65.070008 20:47.328892 21:28.510854 22:18.224975 23:10.674754 24:9.6628645 25:8.0871216 
1 1:241650.96 2:1044.7975 3:980.7331 4:950.32947 5:482.99657 6:504.5944 7:504.72394 8:344.041 9:480.76687 10:377.2357 11:269.51655 12:314.54105 13:246.38263 14:226.13668 15:218.2025 16:163.15395 17:110.88611 18:102.52408 19:80.496706 20:49.025228 21:29.024081 22:15.582151 23:10.229893 24:4.6242433 25:2.2944213 
1 1:241742.25 2:862.87768 3:1053.957 4:931.66563 5:444.05821 6:395.06433 7:318.38287 8:355.14031 9:486.04769 10:397.48487 11:221.46292 12:211.59641 13:221.59265 14:189.72312 15:187.22164 16:148.89954 17:55.132952 18:50.813354 19:54.22464 20:43.35523 21:30.053035 22:19.695715 23:8.3186444 24:4.3149471 25:3.2373353 
1 1:240995.06 2:798.13452 3:1090.1593 4:985.66906 5:427.45131 6:411.25727 7:375.26805 8:286.0132 9:513.26508 10:468.17801 11:314.47342 12:268.26854 13:182.09313 14:199.0792 15:187.85357 16:184.78243 17:147.25679 18:84.517543 19:47.1611 20:39.583968 21:38.949888 22:22.890638 23:14.348519 24:7.2836645 25:3.5270637 
1 1:240146.44 2:1262.8952 3:1320.931 4:953.21343 5:411.10232 6:373.7145 7:397.42633 8:453.96248 9:484.58181 10:469.84558 11:306.67135 12:190.992 13:196.21971 14:268.84638 15:286.5998 16:200.02808 17:97.636055 18:63.601441 19:63.510391 20:44.869218 21:25.554885 22:21.395134 23:15.670825 24:5.3959323 25:3.7218787 
1 1:240227.68 2:971.92759 3:1014.7154 4:838.19089 5:463.1911 6:514.37203 7:432.95765 8:398.14755 9:494.96687 10:399.89795 11:213.04079 12:256.59152 13:293.97859 14:214.63984 15:167.84177 16:146.31465 17:112.57453 18:77.621307 19:56.957927 20:39.117619 21:26.311873 22:17.966242 23:10.078228 24:3.5446624 25:2.6772314 
1 1:241000.85 2:1008.6482 3:1161.0644 4:1047.5002 5:499.25835 6:511.86793 7:485.8622 8:345.72384 9:481.03064 10:549.14928 11:323.56547 12:243.0002 13:209.07353 14:250.13194 15:225.37301 16:178.30264 17:140.19891 18:84.942351 19:45.41894 20:27.290594 21:25.137393 22:18.653065 23:9.4345297 24:7.506596 25:7.2076918 
1 1:242024.94 2:1020.9438 3:1073.0111 4:978.95221 5:576.87246 6:559.4656 7:464.66452 8:308.30616 9:512.00235 10:483.71028 11:208.63269 12:245.28226 13:198.36953 14:189.73626 15:238.02683 16:195.48134 17:122.72071 18:82.436064 19:74.099507 20:55.685125 21:28.765373 22:20.525475 23:11.01974 24:6.4719727 25:4.3122779 
1 1:241890.18 2:819.61326 3:992.70658 4:939.15277 5:424.47034 6:451.71461 7:448.61074 8:373.48838 9:505.8363 10:529.34032 11:312.37324 12:209.96795 13:198.82238 14:190.44371 15:209.8968 16:201.91842 17:118.28879 18:70.582653 19:52.874171 20:40.632786 21:32.35638 22:14.585501 23:10.350611 24:8.2864831 25:5.819235 
1 1:240639.29 2:1229.5312 3:792.45912 4:824.07922 5:472.00615 6:416.8854 7:335.68611 8:345.33978 9:453.82931 10:424.75337 11:353.79843 12:272.44021 13:255.41228 14:255.25323 15:180.23476 16:174.10838 17:128.04212 18:74.514461 19:43.212269 20:45.524483 21:35.700633 22:23.099936 23:11.863843 24:6.0385676 25:5.7561439 
1 1:236759.16 2:876.85116 3:850.95166 4:759.65398 5:411.25445 6:407.02181 7:357.06632 8:359.47519 9:520.80025 10:485.89868 11:326.58924 12:308.48033 13:276.49125 14:243.70375 15:219.21548 16:158.1921 17:113.46233 18:102.23183 19:76.561259 20:41.810677 21:27.970502 22:15.54149 23:11.644021 24:7.2646778 25:7.0224875 
1 1:236255.77 2:1162.9068 3:930.25095 4:777.62637 5:525.20746 6:541.9032 7:421.64235 8:318.04326 9:493.16169 10:534.73154 11:417.46984 12:313.00041 13:210.80709 14:247.03814 15:236.99252 16:155.94313 17:120.19065 18:102.65505 19:55.386833 20:55.611527 21:40.323733 22:19.815383 23:11.307257 24:7.1751417 25:7.320811 
1 1:235654.49 2:886.80694 3:795.08118 4:890.98706 5:700.81514 6:482.25413 7:297.62884 8:341.62792 9:546.79018 10:538.0168 11:375.9205 12:254.39921 13:197.18059 14:202.44533 15:249.95147 16:223.56874 17:134.85304 18:98.932889 19:64.6788 20:56.942675 21:40.306593 22:18.563886 23:9.6632205 24:7.5525647 25:4.5616916 
1 1:237225.52 2:1129.1705 3:1022.0487 4:909.78803 5:565.27956 6:459.38128 7:415.33808 8:413.96783 9:535.0357 10:486.77506 11:339.0068 12:236.62385 13:205.37427 14:216.95401 15:166.07011 16:139.38536 17:97.979907 18:73.084969 19:53.790067 20:40.737756 21:30.341776 22:21.694291 23:11.368058 24:7.7200304 25:5.1943611 
1 1:237035.69 2:776.81318 3:1065.9843 4:1073.166 5:780.21831 6:573.00871 7:477.54327 8:336.80563 9:516.18154 10:535.19255 11:357.43774 12:275.64577 13:185.85233 14:215.44553 15:258.71551 16:212.28821 17:145.86647 18:120.11406 19:67.059351 20:45.658919 21:27.203812 22:18.648658 23:12.06793 24:7.0015624 25:3.346892 
1 1:236579.58 2:643.31956 3:808.79909 4:724.15573 5:358.83939 6:450.93859 7:466.15945 8:298.93449 9:401.38511 10:432.30156 11:299.99881 12:217.34045 13:236.80107 14:293.02933 15:236.1822 16:131.12233 17:100.37909 18:100.83209 19:76.626666 20:52.066083 21:32.213773 22:14.232876 23:8.258952 24:4.1402651 25:3.3136667 
1 1:237365.73 2:713.81811 3:871.35896 4:777.47071 5:641.70438 6:504.7996 7:303.34512 8:264.35657 9:427.04542 10:482.63648 11:306.24073 12:255.20216 13:246.90404 14:189.42822 15:154.02923 16:154.97374 17:136.7021 18:113.78393 19:84.610561 20:58.167519 21:37.502018 22:22.563729 23:9.6289285 24:4.3490953 25:2.4787567 
1 1:239390.74 2:937.89911 3:1072.486 4:1036.6605 5:494.70918 6:521.21854 7:438.35038 8:273.79264 9:453.56298 10:462.19198 11:266.39566 12:230.73245 13:309.5768 14:384.03077 15:345.80259 16:215.95811 17:110.50499 18:80.220603 19:47.573679 20:31.391635 21:24.713174 22:19.605067 23:15.555184 24:14.468226 25:12.667657 
1 1:241208.6 2:6517.0335 3:7949.7965 4:8589.3133 5:7939.9528 6:7204.8367 7:9222.4913 8:11379.829 9:8879.0885 10:6957.0701 11:6202.607 12:4344.4804 13:3461.6151 14:3702.5124 15:3363.1774 16:2169.659 17:1315.6241 18:1048.294 19:743.44955 20:501.77059 21:295.54705 22:212.90441 23:132.95031 24:109.50895 25:101.07257 
1 1:188872.28 2:8162.9656 3:7055.3932 4:6729.8504 5:7127.3659 6:7349.1322 7:8052.6869 8:8116.9117 9:6752.1446 10:5715.8004 11:6010.2325 12:5250.7885 13:4644.8513 14:4863.8263 15:3953.9458 16:2618.4309 17:1448.5605 18:1003.5087 19:714.4283 20:479.57614 21:380.99512 22:245.69349 23:141.28945 24:132.26976 25:119.90521 
1 1:166294.04 2:4790.2554 3:4762.9447 4:5685.1355 5:6047.4528 6:5563.3211 7:5766.5124 8:7430.1527 9:6517.4545 10:4930.5313 11:5637.0799 12:4039.8392 13:3188.083 14:3324.6231 15:2710.356 16:2364.3884 17:1627.8507 18:956.15186 19:687.12864 20:424.15812 21:275.8492 22:158.89318 23:85.794281 24:53.349588 25:50.231031 
1 1:153016.91 2:3345.8014 3:5096.6594 4:5178.8597 5:5146.783 6:6058.7425 7:4975.4216 8:4746.761 9:5935.9026 10:4702.1737 11:4003.5221 12:2870.4916 13:1784.5237 14:1989.8391 15:1892.4307 16:1574.1425 17:1188.4597 18:870.25995 19:566.91703 20:310.84142 21:209.90843 22:129.82096 23:60.009575 24:19.392356 25:7.3612735 
1 1:144542.23 2:4471.1678 3:4227.4812 4:4157.5723 5:5147.7782 6:4943.9329 7:4458.7068 8:4033.1532 9:4039.8473 10:5193.932 11:4743.7541 12:3690.3678 13:3295.4188 14:2871.9881 15:2081.0634 16:1289.1124 17:1067.516 18:1181.5241 19:894.78906 20:484.86436 21:246.39466 22:118.5902 23:84.08467 24:53.393598 25:38.066939 
1 1:133838.73 2:4078.3659 3:5059.9333 4:3955.7654 5:3523.4976 6:4470.6824 7:4544.9892 8:3962.6221 9:3717.9079 10:5385.2847 11:4891.2771 12:3103.0513 13:2664.5739 14:2227.3061 15:1688.9648 16:1148.1527 17:1056.08 18:855.39711 19:513.84482 20:280.76094 21:196.29328 22:151.14831 23:71.621427 24:32.7643 25:12.525077 
1 1:142702.82 2:4436.4959 3:5166.1008 4:4254.0854 5:6333.6037 6:6574.3661 7:5240.5555 8:4248.0686 9:4123.1058 10:4980.0431 11:3815.1745 12:3301.2813 13:3093.1581 14:2491.4786 15:1885.7148 16:1313.6812 17:916.8764 18:917.65237 19:600.72064 20:290.69474 21:264.39937 22:167.23102 23:68.745436 24:34.740664 25:27.841132 
1 1:134399.33 2:5699.0141 3:7519.2356 4:6978.0396 5:6229.378 6:8052.1612 7:7035.5828 8:4524.0663 9:4619.5558 10:3991.6254 11:3111.6915 12:3307.3219 13:3476.5667 14:2732.7437 15:2064.8976 16:1649.6703 17:986.67383 18:944.32159 19:667.2632 20:445.4523 21:350.7061 22:141.6155 23:82.603968 24:55.72303 25:47.660298 
1 1:122765.3 2:5823.1714 3:6404.0123 4:6159.9553 5:7265.1106 6:7695.63 7:5555.3318 8:7206.2678 9:6343.9564 10:4660.3792 11:6012.7269 12:4461.7842 13:2639.2912 14:2241.2523 15:1816.8468 16:1814.4198 17:1844.677 18:1310.9681 19:675.52991 20:546.88981 21:336.75663 22:220.36938 23:102.8323 24:61.240936 25:54.899748 
1 1:107256.04 2:6518.4734 3:7080.7309 4:8081.5466 5:7351.9356 6:4893.729 7:5788.3277 8:8427.5546 9:7080.8799 10:4615.1122 11:3589.7759 12:2815.5509 13:2139.6497 14:2640.4719 15:2912.536 16:2522.2003 17:2230.0964 18:1392.7197 19:880.99248 20:532.59705 21:330.94202 22:182.45476 23:93.849266 24:69.037723 25:69.906504 
1 1:96272.927 2:14484.879 3:9632.3818 4:11507.779 5:11504.238 6:10862.442 7:9037.5829 8:6981.7085 9:5771.7791 10:4358.529 11:4744.464 12:4645.0156 13:3430.6999 14:3823.0603 15:3419.237 16:2147.6417 17:1440.6385 18:846.37285 19:775.25022 20:679.13528 21:328.16759 22:151.56792 23:120.95637 24:64.542323 25:36.091039 
1 1:96573.759 2:11997.007 3:9392.0907 4:8594.0189 5:8250.8279 6:6800.6244 7:4770.907 8:5913.3574 9:5983.8839 10:5750.8328 11:3787.8488 12:2741.1458 13:3246.2195 14:3770.9441 15:3026.0349 16:1686.6258 17:1314.1339 18:1133.6785 19:765.75937 20:394.96044 21:218.21551 22:126.16171 23:73.790966 24:35.409633 25:9.130887 
1 1:82805.095 2:10033.021 3:9384.4522 4:8102.3289 5:7687.588 6:7479.3117 7:7251.9118 8:5709.6933 9:5150.48 10:4272.3127 11:3089.8415 12:2607.2591 13:2875.2456 14:2875.1026 15:2539.095 16:2210.2152 17:1438.8925 18:867.62077 19:609.77241 20:329.14872 21:223.15535 22:167.36884 23:71.20551 24:45.909432 25:32.344932 
1 1:66580.394 2:6431.9672 3:5669.3535 4:6459.7955 5:6807.8698 6:5819.6052 7:5115.2868 8:5595.4843 9:6016.3455 10:4728.0588 11:3737.2562 12:2609.7672 13:2769.1663 14:2829.5093 15:2035.3745 16:1834.0459 17:1242.4868 18:899.0989 19:563.41836 20:339.88449 21:178.63591 22:99.249877 23:42.235826 24:22.54784 25:16.116425 
1 1:58086.063 2:6384.4882 3:4391.3578 4:3176.2658 5:3558.4791 6:4141.3745 7:4526.3743 8:5025.5607 9:5639.0688 10:4235.0745 11:2490.2474 12:2170.4433 13:2176.3654 14:1672.6698 15:1360.9136 16:1334.8967 17:1180.3148 18:799.12254 19:514.11356 20:255.10085 21:192.26965 22:110.06409 23:45.369883 24:16.244541 25:4.2626769 
1 1:60564.706 2:4644.6211 3:5409.4742 4:5596.6967 5:4841.2382 6:3620.4565 7:3264.2552 8:2348.3274 9:2124.9396 10:2756.4552 11:2670.5732 12:2669.0122 13:2403.3824 14:1769.7452 15:1337.3065 16:873.86839 17:683.45622 18:563.14393 19:370.39622 20:256.432 21:162.78135 22:70.755757 23:38.235271 24:20.47088 25:10.035719 
1 1:74467.033 2:3765.4407 3:4027.7559 4:4779.3261 5:5566.1789 6:5126.1329 7:3733.5019 8:3235.0023 9:3120.8582 10:3833.5383 11:3662.2482 12:2997.4854 13:2360.949 14:1608.1516 15:1561.8555 16:1528.9696 17:1200.7311 18:922.44969 19:572.09133 20:336.75059 21:206.29738 22:135.53638 23:42.85299 24:41.23494 25:45.075288 
1 1:89092.65 2:4145.4862 3:3895.4285 4:4656.8656 5:4522.4055 6:3919.6161 7:3737.3794 8:3562.1408 9:3689.3673 10:3279.3203 11:2764.6376 12:2153.3842 13:2096.9682 14:2155.8305 15:1803.3297 16:1314.9497 17:780.72927 18:744.81493 19:657.87488 20:301.25442 21:176.51353 22:92.541854 23:58.878053 24:47.868965 25:44.264733 
1 1:82834.418 2:2538.7373 3:3357.786 4:4742.0843 5:4662.4313 6:3534.0997 7:3073.2295 8:3916.491 9:3456.1037 10:2229.945 11:2448.7894 12:2146.3535 13:2128.9857 14:2196.219 15:1985.5323 16:1702.4862 17:1016.4538 18:508.39418 19:312.45173 20:265.15771 21:177.0296 22:98.914981 23:50.675982 24:29.764146 25:26.262527 
1 1:75511.082 2:3689.2062 3:3414.068 4:2889.8251 5:2947.3348 6:3203.2962 7:3004.7076 8:2333.2618 9:2455.2532 10:2698.1795 11:2799.7097 12:2416.4811 13:1680.3426 14:2001.1732 15:1733.3642 16:1172.8065 17:745.29156 18:551.7148 19:337.67157 20:208.11573 21:132.61918 22:73.249209 23:42.85579 24:28.494153 25:26.480998 
1 1:70944.95 2:2135.4713 3:2896.1578 4:3621.8202 5:3081.3817 6:3091.2861 7:3568.4785 8:3276.9925 9:3142.4986 10:2638.5698 11:2126.1415 12:1782.6513 13:1457.7648 14:1559.69 15:1151.2645 16:823.36071 17:669.69371 18:546.81589 19:335.41203 20:168.94929 21:95.501108 22:53.574384 23:22.844022 24:8.8877114 25:5.3017464 
1 1:73356.246 2:3218.5657 3:3129.2319 4:2706.0853 5:2017.5411 6:1710.0066 7:2165.3757 8:2566.6742 9:2409.9928 10:2354.883 11:1971.1034 12:1494.4994 13:1360.2395 14:1181.7724 15:1215.191 16:1057.3811 17:472.18247 18:308.45371 19:293.12719 20:197.54719 21:102.00949 22:43.302699 23:19.384371 24:11.45886 25:5.742112 
1 1:71403.201 2:2588.0915 3:2070.9887 4:2398.307 5:2701.233 6:1991.2065 7:2162.8654 8:2431.9933 9:2256.2048 10:1813.3035 11:1361.1377 12:1221.6112 13:1202.1351 14:1464.3751 15:1054.6723 16:654.96917 17:385.09454 18:300.47178 19:295.91714 20:172.64637 21:84.161513 22:53.429888 23:33.325986 24:27.286082 25:23.282126 
1 1:74643.754 2:2622.6487 3:2982.9282 4:2393.0583 5:2749.9352 6:3277.4073 7:2696.6386 8:3220.0181 9:2957.5749 10:2213.5592 11:2133.0889 12:1774.1756 13:1630.8872 14:1656.3129 15:1303.4926 16:794.25862 17:606.45685 18:507.89093 19:346.48022 20:223.08732 21:108.22841 22:73.192326 23:31.201777 24:14.220983 25:12.19016 
1 1:80259.088 2:3522.1629 3:3547.9882 4:3075.6453 5:2489.0386 6:2982.8332 7:3438.4004 8:3649.5142 9:3918.3985 10:2909.5 11:1477.0584 12:1539.6976 13:1686.5941 14:1075.8734 15:941.72713 16:781.38538 17:567.62263 18:480.06973 19:341.27102 20:199.34974 21:90.979451 22:69.507876 23:30.545771 24:16.20943 25:16.046944 
1 1:87786.129 2:2492.6765 3:3140.0445 4:4228.0488 5:3507.9117 6:2325.9813 7:2232.6581 8:1767.9988 9:2155.3826 10:2767.3529 11:2799.4195 12:2512.9629 13:1723.1033 14:1312.4147 15:1165.4179 16:656.26778 17:435.1959 18:471.20131 19:335.30452 20:167.33454 21:93.775583 22:58.316294 23:36.973593 24:17.028136 25:12.322782 
1 1:95045.206 2:3019.8489 3:3020.0478 4:3185.8145 5:3988.8322 6:3973.6033 7:3369.4913 8:3270.4357 9:3702.8849 10:2938.2393 11:2012.0153 12:1973.9213 13:1586.4972 14:1524.6749 15:1422.5822 16:1088.761 17:879.6531 18:588.48271 19:397.37146 20:262.87495 21:117.17094 22:58.039684 23:33.513255 24:11.774794 25:10.075944 
1 1:104875.8 2:3754.3333 3:4043.291 4:3424.1747 5:3794.8622 6:3232.0658 7:3680.1238 8:3814.8161 9:3318.5016 10:3487.3509 11:2981.0684 12:2075.9592 13:1503.3216 14:1351.7825 15:1440.4821 16:1203.9465 17:785.71194 18:425.72781 19:330.90076 20:252.2312 21:149.93077 22:73.965613 23:41.514162 24:37.022751 25:36.469183 
1 1:111650.55 2:3362.2735 3:4154.72 4:3505.4408 5:3143.788 6:2886.0419 7:2763.4403 8:3424.6096 9:3463.7354 10:2531.5452 11:1656.0296 12:1078.5062 13:1312.9501 14:1695.2904 15:1146.378 16:909.59574 17:813.26712 18:503.57059 19:396.2184 20:216.91804 21:110.27067 22:53.408475 23:30.320523 24:30.198665 25:32.462176 
1 1:125129.54 2:3885.4625 3:4201.0553 4:3607.6281 5:2964.6166 6:3356.4782 7:3624.7976 8:3073.7267 9:3272.2452 10:3452.487 11:2919.1396 12:2103.1024 13:2042.8393 14:1827.9719 15:1355.5384 16:1227.4717 17:958.47991 18:727.84975 19:436.26033 20:287.58169 21:197.5673 22:76.758979 23:35.555437 24:11.111645 25:6.1815769 
1 1:120731.01 2:4634.301 3:5710.7428 4:4885.7287 5:3571.9642 6:4174.3741 7:5305.6706 8:4112.3716 9:3237.4013 10:3183.9615 11:3091.4133 12:2790.8264 13:2004.2982 14:2036.8563 15:1831.7739 16:1393.2424 17:864.39604 18:396.66244 19:273.12283 20:276.96623 21:150.21925 22:68.446251 23:40.768847 24:28.093727 25:18.210718 
1 1:114692.53 2:5282.7965 3:3870.4028 4:4492.0376 5:4750.7756 6:3362.5641 7:2573.8718 8:3051.055 9:3181.9065 10:2659.2983 11:2148.7522 12:2029.2046 13:1968.1838 14:1860.2124 15:1424.1515 16:1180.3001 17:936.01915 18:598.73157 19:345.64871 20:174.37474 21:127.51863 22:55.784166 23:38.097548 24:13.375175 25:7.5436449 
1 1:109178.25 2:3333.7168 3:3224.5354 4:3289.4607 5:2578.7132 6:2269.9992 7:2153.2853 8:2227.5792 9:2279.3516 10:1966.7774 11:2007.0388 12:1710.219 13:1393.7876 14:1278.6052 15:900.22156 16:679.51906 17:621.26524 18:455.28997 19:274.44231 20:175.4059 21:88.685491 22:43.011717 23:26.432461 24:18.401086 25:14.176316 
1 1:109320.94 2:2615.5083 3:3086.6304 4:3074.1113 5:1901.6898 6:2135.1503 7:2685.7513 8:2336.5534 9:2498.4045 10:2523.3208 11:1585.735 12:981.55163 13:883.55098 14:1160.2301 15:1036.6236 16:664.87584 17:498.82536 18:341.57284 19:224.7758 20:153.9128 21:94.869833 22:44.050132 23:23.474877 24:19.186996 25:20.227083 
1 1:114764.86 2:1955.6099 3:1996.3382 4:1780.8469 5:2018.9242 6:2530.9943 7:2381.7683 8:1862.8715 9:1643.3128 10:1808.2583 11:1851.155 12:1497.0749 13:1549.8717 14:1338.8577 15:1007.5842 16:810.73306 17:520.96526 18:380.3254 19:226.54247 20:145.07988 21:84.516048 22:56.008794 23:40.939629 24:35.425487 25:37.568206 
1 1:121330.17 2:2801.1019 3:2711.1732 4:2868.0587 5:2655.5595 6:2415.6745 7:3220.0328 8:3132.9983 9:2117.4489 10:2193.6271 11:2305.1442 12:1847.6192 13:1727.4551 14:1546.2183 15:1135.0917 16:793.99731 17:470.437 18:299.51128 19:228.83443 20:184.41762 21:105.98502 22:60.826614 23:31.872967 24:11.732556 25:8.2599018 
1 1:120052.67 2:2630.8345 3:2908.7567 4:3264.9898 5:2876.7617 6:2889.6312 7:2849.5803 8:2193.0733 9:2524.1695 10:2733.2859 11:2106.1175 12:1572.0514 13:1588.6642 14:1466.8137 15:1066.8676 16:706.81074 17:389.36032 18:282.52948 19:262.57929 20:221.4911 21:98.797411 22:37.543004 23:22.901296 24:17.514473 25:14.087027 
1 1:122084.81 2:2171.9989 3:2330.3722 4:2273.0542 5:1899.7658 6:1907.5753 7:2235.4444 8:2174.7764 9:2128.3709 10:1711.3448 11:1156.6053 12:1043.8709 13:959.29187 14:922.7767 15:875.21575 16:578.03226 17:435.10485 18:280.60116 19:151.75548 20:114.76137 21:82.471888 22:57.976662 23:30.249142 24:21.886012 25:22.55123 
1 1:128123.65 2:2961.4898 3:2937.638 4:2485.5063 5:2178.7886 6:2426.9116 7:2893.1735 8:2510.5599 9:1868.1155 10:1659.3477 11:1694.7246 12:1276.0176 13:512.32169 14:923.44354 15:1123.6 16:727.63586 17:455.17501 18:302.65746 19:236.76321 20:146.22519 21:72.358834 22:38.151177 23:27.165305 24:28.848459 25:27.767895 
1 1:137167.41 2:1968.4296 3:3357.4538 4:3832.6158 5:3346.0787 6:3171.4865 7:2781.4883 8:2596.0791 9:2085.1984 10:1728.268 11:1685.3836 12:1281.927 13:1099.9934 14:1198.8603 15:857.52452 16:711.54566 17:622.16616 18:402.1396 19:286.21894 20:178.08026 21:98.05742 22:69.048247 23:32.106634 24:22.892352 25:18.851271 
1 1:143646.91 2:3328.6581 3:3729.5986 4:3172.8367 5:3235.9962 6:3285.2846 7:2664.0567 8:2486.524 9:1961.3698 10:1843.185 11:1896.126 12:1520.7312 13:1545.3148 14:1446.1076 15:962.70838 16:907.57901 17:709.16964 18:328.95889 19:267.06719 20:198.21747 21:91.323011 22:64.735104 23:33.067276 24:9.4457115 25:5.6538731 
1 1:147860.96 2:5850.3407 3:5216.5464 4:4775.8296 5:2909.3062 6:2795.8244 7:2832.4362 8:2321.3831 9:1392.4169 10:1508.8866 11:1622.3414 12:1367.1094 13:1129.5967 14:951.59337 15:868.7561 16:589.8293 17:378.92794 18:253.17056 19:184.85103 20:134.56904 21:72.89111 22:47.401663 23:28.257754 24:15.378387 25:8.3704093 
1 1:149877.43 2:2454.452 3:2688.5096 4:2659.2951 5:2728.9779 6:2357.1004 7:2185.0406 8:2188.052 9:1858.2831 10:1896.2022 11:1792.5251 12:1282.6691 13:1064.428 14:1090.2196 15:778.44887 16:592.47859 17:551.27549 18:344.38469 19:218.1452 20:180.70462 21:107.73918 22:57.836639 23:44.671823 24:40.542422 25:41.27818 
1 1:167261.69 2:3120.2261 3:2504.7678 4:2337.4061 5:2147.6956 6:2105.8042 7:2271.0318 8:2355.0513 9:2083.5292 10:1777.8823 11:1901.865 12:1783.4842 13:1264.0991 14:869.28753 15:690.43284 16:631.00596 17:566.47933 18:428.45626 19:270.97612 20:178.80375 21:87.280197 22:62.167809 23:49.341135 24:39.303355 25:38.867134 
1 1:242050.41 2:784.58818 3:978.38593 4:828.76669 5:511.79471 6:461.26307 7:367.5093 8:376.92489 9:410.0502 10:365.74345 11:304.85352 12:250.44047 13:190.11756 14:227.46025 15:218.09823 16:154.40351 17:98.589348 18:87.469701 19:70.46348 20:53.773882 21:40.63606 22:21.635191 23:12.340629 24:8.1981446 25:6.6937478 
1 1:240905.05 2:657.74794 3:820.5367 4:805.23347 5:581.80807 6:506.99588 7:364.76287 8:296.2631 9:422.92984 10:456.93784 11:320.49713 12:338.21817 13:314.08872 14:250.69799 15:231.91127 16:162.60372 17:112.43989 18:109.8505 19:80.149742 20:44.029694 21:35.99406 22:24.018829 23:13.48946 24:9.0798065 25:9.4208985 
1 1:242077.94 2:832.30039 3:683.32852 4:650.92653 5:367.71264 6:447.88195 7:496.79798 8:417.35524 9:410.27475 10:412.2712 11:311.06114 12:231.59888 13:174.29217 14:221.05917 15:243.12662 16:201.56096 17:142.23285 18:85.483899 19:59.445338 20:47.204124 21:37.86566 22:28.350165 23:15.825182 24:9.038065 25:7.3536883 
1 1:241447.77 2:996.22424 3:1066.4428 4:812.23941 5:379.74025 6:356.11456 7:384.98143 8:341.50152 9:380.94979 10:427.98307 11:349.75934 12:286.46934 13:283.17745 14:255.94174 15:174.9464 16:166.23095 17:127.80235 18:88.683924 19:79.586958 20:55.623393 21:34.221475 22:23.497874 23:10.596064 24:7.3993915 25:6.4276334 
1 1:239556.39 2:902.42968 3:995.74558 4:751.6254 5:392.40754 6:314.83729 7:309.83919 8:302.7453 9:356.00124 10:320.24465 11:212.64794 12:250.06114 13:199.64925 14:172.02143 15:201.08966 16:153.64357 17:110.78751 18:77.730483 19:64.33268 20:57.416826 21:32.506785 22:15.208114 23:11.33356 24:5.7760577 25:2.7409522 
1 1:240531.55 2:770.47477 3:660.81409 4:674.88087 5:531.42739 6:435.71641 7:450.93308 8:460.77057 9:456.0799 10:454.55431 11:321.3487 12:300.21394 13:264.05087 14:195.31465 15:210.19716 16:232.9478 17:188.39873 18:106.73601 19:82.795402 20:66.011741 21:32.416483 22:18.333214 23:11.92085 24:8.5686732 25:5.9456791 
1 1:240990.57 2:1005.7199 3:1305.9145 4:1162.0771 5:647.74126 6:600.69694 7:510.00917 8:393.21769 9:431.87474 10:404.08742 11:324.26567 12:252.33983 13:221.00977 14:246.55172 15:205.15809 16:120.50463 17:86.394912 18:94.197028 19:60.483078 20:37.100269 21:34.125439 22:20.92246 23:9.735872 24:5.0736005 25:4.4585723 
1 1:237704.15 2:998.80188 3:968.98055 4:694.02598 5:355.31212 6:432.41781 7:383.96239 8:311.91693 9:393.38296 10:421.47387 11:322.41185 12:287.98089 13:270.8923 14:227.97359 15:230.97012 16:255.18693 17:191.96779 18:105.10022 19:72.826821 20:41.977875 21:28.321959 22:23.592413 23:17.732525 24:14.532097 25:15.377059 
1 1:235568.62 2:1022.6938 3:1156.9296 4:868.46956 5:540.93137 6:432.94933 7:367.20065 8:386.10742 9:406.25106 10:432.42582 11:371.12267 12:262.93291 13:267.29247 14:291.03425 15:218.06997 16:138.6854 17:122.18448 18:83.617146 19:61.841104 20:45.636909 21:29.615266 22:17.184107 23:8.1447508 24:5.6837149 25:3.4802502 
1 1:237959.1 2:818.7022 3:947.49739 4:820.63271 5:523.09341 6:429.72645 7:363.48226 8:463.65196 9:580.95654 10:500.22758 11:261.50438 12:200.81438 13:240.10223 14:196.44854 15:140.72774 16:128.99514 17:92.537965 18:91.828912 19:62.887394 20:44.563856 21:36.352036 22:20.44319 23:14.470019 24:7.3125714 25:6.2808144 
1 1:239190.31 2:1115.4486 3:1243.7881 4:1022.2878 5:601.19502 6:366.74754 7:376.38091 8:457.88416 9:431.5263 10:345.11387 11:227.60575 12:179.70107 13:205.07463 14:212.23175 15:161.87091 16:149.70834 17:122.18945 18:85.989448 19:58.892544 20:51.236007 21:36.779875 22:20.785016 23:13.995519 24:6.1215017 25:2.3449495 
1 1:238600.06 2:680.43502 3:1052.9616 4:946.20674 5:343.53757 6:430.89363 7:482.63473 8:407.22558 9:396.555 10:403.60376 11:382.46452 12:257.85212 13:209.29382 14:207.30761 15:158.96612 16:144.05072 17:120.91575 18:95.064245 19:77.615032 20:54.592854 21:38.602775 22:20.466621 23:9.3996065 24:4.9520646 25:4.506789 
1 1:236848.38 2:967.76155 3:657.38908 4:555.93924 5:330.59903 6:283.39849 7:369.742 8:398.35612 9:473.31692 10:484.40774 11:391.97649 12:341.20013 13:289.79236 14:247.57161 15:217.56432 16:225.42161 17:172.05475 18:113.57877 19:79.42684 20:51.547131 21:28.492353 22:18.069871 23:10.9121 24:5.2434359 25:5.6005328 
1 1:234434.44 2:1048.4373 3:919.45038 4:799.14577 5:437.48318 6:366.52331 7:338.13382 8:340.16382 9:434.94518 10:389.25857 11:316.52251 12:336.36118 13:268.06613 14:201.93235 15:183.04063 16:157.02622 17:121.85509 18:82.16314 19:55.963807 20:45.358432 21:31.00615 22:17.635633 23:11.071551 24:6.0760516 25:4.2752418 
1 1:234184.94 2:812.96195 3:701.89056 4:828.84644 5:585.36176 6:409.77395 7:368.42467 8:450.89756 9:584.79003 10:468.86858 11:349.14088 12:307.48787 13:251.14 14:260.32837 15:207.09449 16:161.76332 17:128.78387 18:91.656322 19:63.926143 20:46.588346 21:47.958316 22:30.278237 23:9.849322 24:4.3794205 25:2.7976873 
1 1:233848.83 2:1087.244 3:1293.6016 4:1144.3261 5:591.7433 6:434.98064 7:367.45106 8:275.15739 9:364.98106 10:414.60558 11:373.59451 12:292.27787 13:237.7763 14:232.65851 15:225.87677 16:167.25698 17:121.04024 18:114.45185 19:70.22664 20:47.810195 21:35.743849 22:27.111076 23:12.419414 24:8.4974733 25:9.6566627 
1 1:230850.96 2:897.78608 3:720.33163 4:660.24653 5:517.82023 6:496.99614 7:502.00603 8:370.34556 9:484.59337 10:524.72932 11:341.02515 12:283.02589 13:273.16587 14:221.63842 15:209.74705 16:175.72558 17:111.11944 18:81.12269 19:62.716293 20:49.938275 21:35.421716 22:20.981147 23:14.834634 24:11.406937 25:9.3824069 
1 1:228964.4 2:758.05836 3:815.99075 4:716.88897 5:485.67549 6:505.88086 7:365.14848 8:372.98505 9:496.11858 10:415.85855 11:276.53062 12:272.45233 13:252.38151 14:212.2874 15:207.8121 16:180.87978 17:110.67146 18:81.469717 19:66.498057 20:62.369111 21:34.183169 22:15.3498 23:9.3328004 24:5.9113326 25:2.8997811 
1 1:228076.5 2:874.86793 3:780.90385 4:617.10109 5:440.49477 6:473.56741 7:426.18399 8:391.57596 9:308.29341 10:298.84338 11:273.49508 12:244.28427 13:324.32529 14:272.05293 15:187.61974 16:185.7241 17:133.71322 18:73.142117 19:42.896192 20:44.250166 21:34.862136 22:16.089168 23:7.8754538 24:5.9526671 25:3.0059057 
1 1:230317.87 2:1008.0201 3:1027.1339 4:967.17116 5:510.52235 6:351.63219 7:448.04502 8:408.39588 9:388.65536 10:511.66391 11:409.15203 12:291.10496 13:242.75266 14:252.24741 15:255.95301 16:194.78309 17:120.5884 18:88.762413 19:68.581463 20:56.292259 21:35.280864 22:15.003213 23:7.2734813 24:5.8666676 25:4.9284163 
1 1:229594.37 2:817.13127 3:842.58302 4:907.95846 5:531.99502 6:404.34467 7:450.32966 8:325.69758 9:374.57498 10:471.39581 11:373.84339 12:343.33968 13:354.24481 14:265.74522 15:220.04545 16:193.25321 17:131.75683 18:102.40385 19:70.590456 20:38.446193 21:26.336076 22:19.250432 23:11.679833 24:7.8722525 25:5.0988015 
1 1:229088.57 2:1059.7921 3:1013.4389 4:867.27483 5:439.95821 6:425.67883 7:451.58167 8:378.56363 9:554.32641 10:569.21028 11:323.31345 12:276.17455 13:292.79304 14:224.74548 15:183.08768 16:185.68307 17:113.15404 18:95.527943 19:83.431223 20:49.19446 21:31.819354 22:24.037176 23:9.5892234 24:5.3522893 25:4.7955776 
1 1:228242.3 2:1083.1396 3:855.78881 4:866.67153 5:590.52727 6:486.94081 7:351.16645 8:352.07763 9:524.7162 10:474.44781 11:319.34797 12:314.46785 13:301.26162 14:253.37289 15:201.15225 16:153.40874 17:144.37247 18:128.38342 19:83.597201 20:47.765093 21:24.251528 22:12.714404 23:11.395361 24:11.409561 25:9.1851549 
1 1:229464.09 2:693.69265 3:952.85838 4:942.67799 5:442.08328 6:297.12494 7:315.73652 8:299.25695 9:372.57584 10:453.69575 11:341.34879 12:254.3459 13:227.38626 14:194.04449 15:176.99169 16:174.64859 17:140.59304 18:116.0392 19:74.858107 20:47.674088 21:41.099512 22:19.812171 23:10.110072 24:7.3234294 25:6.2224886 
1 1:232907.43 2:863.60638 3:765.02899 4:752.3354 5:441.26009 6:356.06325 7:454.4932 8:480.74541 9:521.27365 10:493.08372 11:294.6508 12:220.00314 13:284.29517 14:276.25406 15:185.67581 16:194.90722 17:142.21275 18:74.678521 19:74.826919 20:52.94748 21:31.955215 22:14.173987 23:7.9748383 24:4.6867432 25:2.9489179 
1 1:234168.06 2:954.28217 3:880.77684 4:866.11477 5:517.04192 6:254.45301 7:423.13715 8:516.08004 9:460.9725 10:428.20201 11:322.76007 12:275.45178 13:269.05547 14:216.35045 15:189.49612 16:175.78445 17:135.44427 18:106.41839 19:72.754872 20:44.036196 21:21.515102 22:19.110009 23:12.634171 24:5.9599665 25:3.6729421 
1 1:231842.97 2:927.87669 3:845.25702 4:796.12243 5:459.90195 6:410.12948 7:421.08778 8:413.82352 9:507.17941 10:425.94178 11:289.28995 12:224.93888 13:242.05945 14:280.13121 15:255.03627 16:159.13366 17:155.42651 18:128.43321 19:66.057589 20:47.964191 21:28.509903 22:18.643921 23:12.703222 24:7.4238083 25:6.3796796 
1 1:230348.74 2:929.3482 3:979.37894 4:1103.9814 5:590.19854 6:370.1112 7:448.80232 8:429.18088 9:451.87251 10:442.18342 11:306.81313 12:317.09156 13:290.17742 14:258.23449 15:250.01978 16:200.44632 17:153.54812 18:123.81356 19:76.239372 20:37.783416 21:26.220533 22:18.214968 23:9.6087246 24:4.3119825 25:2.0046947 
1 1:230184.54 2:659.78433 3:911.1555 4:807.96592 5:368.11209 6:232.91062 7:290.9759 8:397.62098 9:517.25552 10:438.02208 11:294.56164 12:254.02896 13:229.80651 14:234.39421 15:203.5348 16:142.09621 17:92.512811 18:76.302674 19:62.195809 20:40.915419 21:32.577318 22:23.267872 23:14.239035 24:9.5821741 25:7.6218979 
1 1:232223.55 2:662.92856 3:751.15535 4:763.07156 5:489.20323 6:458.61216 7:424.74322 8:321.85804 9:329.08717 10:363.01849 11:321.30151 12:260.05087 13:259.96267 14:239.96235 15:181.07599 16:175.35099 17:153.89544 18:112.89462 19:74.19643 20:57.222312 21:32.982454 22:15.334186 23:9.5290803 24:6.0606915 25:4.1451503 
1 1:231824.5 2:837.18768 3:1110.5245 4:1040.9123 5:644.20599 6:743.06065 7:533.32787 8:383.04275 9:465.48322 10:409.24168 11:312.04749 12:251.27241 13:252.01238 14:261.10592 15:214.29451 16:174.61997 17:148.30162 18:107.3652 19:62.476042 20:48.797622 21:37.096372 22:18.609904 23:10.079195 24:6.3307427 25:3.8391503 
1 1:231329.23 2:1114.0478 3:1127.4868 4:862.7272 5:598.82759 6:606.01947 7:473.484 8:439.27462 9:482.38606 10:384.41247 11:316.07211 12:245.40544 13:210.45432 14:222.41077 15:226.07513 16:191.6526 17:125.58002 18:95.905551 19:76.021815 20:66.063797 21:36.706737 22:17.656754 23:8.3336444 24:6.1696366 25:3.9418403 
1 1:227471.15 2:596.89804 3:719.37447 4:753.43761 5:595.43394 6:603.60372 7:455.85285 8:422.74574 9:548.12279 10:417.34509 11:283.15083 12:281.95186 13:266.153 14:267.00926 15:238.88525 16:203.91305 17:150.91658 18:116.00381 19:71.406932 20:50.59497 21:32.261163 22:24.874136 23:15.199474 24:8.8415632 25:6.6546364 
1 1:227206.87 2:972.0154 3:911.11529 4:912.58486 5:568.10422 6:433.28477 7:357.41502 8:334.73733 9:448.86394 10:435.63505 11:341.56484 12:303.28111 13:186.258 14:172.65538 15:218.07987 16:162.22681 17:108.51097 18:89.865017 19:56.281584 20:39.666672 21:26.331957 22:18.721469 23:10.629835 24:6.9145941 25:5.0975612 
1 1:229177.42 2:664.76879 3:727.39663 4:774.7576 5:467.03639 6:338.3389 7:286.23908 8:326.72706 9:431.49172 10:406.66421 11:258.67635 12:215.31223 13:186.0438 14:257.71338 15:241.04036 16:190.26367 17:134.24197 18:80.270074 19:63.706827 20:46.573654 21:26.988121 22:18.363165 23:10.148682 24:5.1555522 25:2.6165491 
1 1:226458.81 2:728.82342 3:765.75013 4:742.68296 5:446.90714 6:404.97283 7:468.77694 8:442.90882 9:464.97965 10:455.19616 11:325.48079 12:299.20694 13:292.8487 14:219.83403 15:151.02387 16:175.63656 17:144.55339 18:89.204928 19:80.919866 20:43.429555 21:31.65887 22:20.612978 23:8.9786854 24:4.8644462 25:4.2016131 
1 1:222756.29 2:1082.392 3:1021.9182 4:843.26847 5:545.50596 6:422.75802 7:405.87591 8:471.35945 9:502.67552 10:424.58504 11:270.61112 12:236.37689 13:218.58947 14:196.71244 15:228.81307 16:205.1051 17:126.36844 18:92.684262 19:59.44327 20:44.401429 21:29.238826 22:17.876329 23:14.597242 24:9.4392138 25:8.980321 
1 1:221854.79 2:788.84126 3:987.87829 4:780.94651 5:540.78086 6:493.93628 7:411.27397 8:330.0409 9:449.55276 10:471.89857 11:325.30291 12:264.83356 13:253.50092 14:240.2219 15:227.34289 16:216.25149 17:150.38037 18:89.050614 19:64.284413 20:57.874638 21:32.313252 22:23.03079 23:13.458038 24:3.898653 25:3.1095987 
1 1:225030.06 2:910.02521 3:956.30554 4:954.46627 5:465.87995 6:500.64272 7:506.23158 8:480.77518 9:560.30328 10:444.67439 11:323.21599 12:220.45668 13:179.5505 14:241.37474 15:221.9365 16:163.26153 17:122.15944 18:94.2711 19:62.748574 20:49.846725 21:32.015815 22:22.585013 23:17.402672 24:10.89869 25:8.0515997 
1 1:226961.79 2:792.87881 3:655.69628 4:577.99309 5:421.47317 6:448.12024 7:414.46553 8:298.71222 9:376.08846 10:430.19857 11:294.45841 12:235.1687 13:269.47119 14:272.33401 15:169.68172 16:100.13395 17:94.616267 18:91.843092 19:65.099655 20:46.924192 21:28.463671 22:19.3017 23:9.5134186 24:5.7188011 25:3.9803225 
1 1:224383.57 2:1075.4303 3:771.79165 4:796.82992 5:608.19823 6:481.08773 7:457.03141 8:454.44211 9:533.1531 10:449.88376 11:281.84775 12:237.97493 13:244.04092 14:234.79535 15:208.08065 16:153.29303 17:104.8321 18:91.209364 19:62.504817 20:45.991813 21:29.964533 22:18.570497 23:11.876313 24:7.5433904 25:5.0376818 
1 1:224770.87 2:842.95543 3:1190.1978 4:1123.631 5:558.48189 6:550.69799 7:530.1163 8:437.36293 9:569.29311 10:526.96506 11:333.03033 12:282.37537 13:261.71468 14:204.14912 15:208.97624 16:188.17947 17:123.83338 18:102.89923 19:69.057553 20:52.014306 21:34.078159 22:20.960424 23:9.4669679 24:4.9698853 25:2.5386537 
1 1:222218.86 2:919.72621 3:743.04603 4:688.8493 5:468.8331 6:497.17259 7:451.19402 8:501.34057 9:594.04904 10:437.35312 11:228.21563 12:285.25866 13:338.02179 14:276.86982 15:231.76916 16:209.61835 17:164.50229 18:89.040165 19:52.697876 20:56.627839 21:40.038619 22:17.843559 23:9.9648569 24:4.9070575 25:2.6409394 
1 1:221441.23 2:891.70872 3:996.8918 4:761.8336 5:495.61886 6:417.38986 7:560.88611 8:583.94092 9:529.81289 10:532.17545 11:419.34628 12:295.40268 13:191.27859 14:167.34871 15:188.5649 16:167.81538 17:111.5746 18:102.14659 19:74.688763 20:53.333297 21:39.866439 22:15.590688 23:6.7471369 24:4.0483305 25:3.8004623 
1 1:220147.23 2:976.03992 3:1098.8072 4:964.61474 5:475.93514 6:338.62374 7:334.33712 8:427.64114 9:467.8405 10:489.0302 11:358.9229 12:302.35525 13:260.69756 14:190.66008 15:173.32052 16:121.94241 17:105.35617 18:92.168921 19:68.717214 20:46.535816 21:27.642882 22:15.3103 23:9.8700364 24:5.8249606 25:2.7942561 
1 1:221950.76 2:720.29268 3:747.96168 4:760.52825 5:582.56418 6:611.26405 7:426.30895 8:287.21193 9:432.36107 10:444.88347 11:208.58529 12:212.78235 13:249.53915 14:230.32139 15:237.61506 16:178.73411 17:88.771669 18:72.198579 19:65.515073 20:52.075565 21:30.349938 22:18.386659 23:12.161196 24:7.3875691 25:4.0667134 
1 1:222717.65 2:864.13835 3:956.28941 4:955.34477 5:545.6142 6:415.65488 7:354.18366 8:246.56775 9:357.76099 10:426.29423 11:301.74325 12:253.75799 13:204.73128 14:187.65887 15:194.67837 16:145.49079 17:116.72723 18:104.82563 19:65.616502 20:42.888639 21:20.926885 22:16.991706 23:15.69071 24:8.9362663 25:5.3202488 
1 1:222443.87 2:756.23135 3:810.61646 4:892.65068 5:454.16435 6:414.43635 7:413.27946 8:323.6847 9:395.85406 10:386.37831 11:292.87335 12:274.17311 13:213.29609 14:206.59286 15:174.80363 16:154.70223 17:136.38101 18:89.400837 19:66.328761 20:49.148961 21:33.804562 22:23.287859 23:11.439316 24:6.1553939 25:3.6485871 
1 1:222321.66 2:565.80566 3:886.29244 4:951.19948 5:600.68823 6:492.10329 7:377.28376 8:440.76633 9:531.67771 10:492.96651 11:371.74218 12:289.1422 13:209.98552 14:238.81992 15:285.12434 16:183.12666 17:87.225623 18:92.670665 19:78.944164 20:45.164199 21:21.967577 22:18.211225 23:12.674563 24:4.2710699 25:2.6575284 
1 1:219390.24 2:805.25741 3:852.45553 4:942.98654 5:562.59871 6:412.45442 7:535.30116 8:448.23739 9:414.99605 10:442.22598 11:412.81533 12:356.14382 13:271.86142 14:251.07821 15:213.93095 16:169.55628 17:120.02059 18:106.49809 19:80.577513 20:43.8191 21:25.987546 22:19.15159 23:9.2402901 24:5.5320334 25:4.13376 
1 1:219583.14 2:929.74232 3:860.77283 4:705.75593 5:560.59258 6:509.03809 7:420.77696 8:509.57322 9:585.95667 10:484.04678 11:296.86784 12:237.61362 13:236.32089 14:214.10478 15:175.0358 16:133.17994 17:125.67124 18:95.328976 19:65.661871 20:53.358373 21:27.336587 22:16.748152 23:10.775584 24:6.1894157 25:4.1984448 
1 1:221058.58 2:846.98292 3:979.50903 4:897.88959 5:590.80255 6:596.68362 7:509.30808 8:418.17172 9:487.80374 10:513.65989 11:277.60196 12:208.62154 13:241.31115 14:234.11341 15:198.92105 16:136.21389 17:105.06988 18:88.182776 19:57.313771 20:40.987999 21:28.410616 22:15.062091 23:9.7863602 24:6.4433941 25:3.7648181 
1 1:222026.51 2:907.91066 3:829.09946 4:713.97759 5:506.80991 6:463.10155 7:417.54268 8:416.05756 9:410.21331 10:461.2966 11:325.1101 12:237.51186 13:265.86156 14:255.52692 15:205.43639 16:138.17661 17:116.11314 18:91.382193 19:75.971546 20:56.222207 21:26.328142 22:17.095816 23:11.073259 24:5.2180405 25:4.0604799 
1 1:222207.56 2:1207.292 3:1043.7777 4:998.12029 5:570.73272 6:434.03505 7:483.74781 8:476.43118 9:525.69032 10:472.09605 11:337.28134 12:272.66085 13:246.49783 14:184.48756 15:124.74152 16:132.01585 17:125.09094 18:89.546723 19:68.370088 20:48.285898 21:30.786655 22:16.715556 23:6.9094708 24:4.9116217 25:4.3395302 
1 1:223001.69 2:786.11354 3:832.73128 4:914.40315 5:456.4266 6:289.25855 7:382.47383 8:374.51784 9:461.23118 10:489.42885 11:310.55494 12:214.06267 13:219.35175 14:216.08483 15:167.08529 16:149.53016 17:119.70278 18:94.139196 19:66.14881 20:55.619838 21:35.016139 22:16.663183 23:7.7436687 24:5.2673964 25:2.5501229 
1 1:224866.16 2:880.43138 3:688.22649 4:618.10767 5:543.42916 6:671.60651 7:476.29775 8:301.691 9:437.36501 10:495.77877 11:311.35893 12:259.54686 13:282.74322 14:195.80519 15:131.64065 16:124.59181 17:122.10675 18:86.142154 19:58.477681 20:47.166861 21:34.798079 22:28.204883 23:16.402983 24:13.613256 25:12.520684 
1 1:221689.54 2:734.78481 3:822.90055 4:695.84987 5:456.23732 6:442.13684 7:311.56989 8:368.44474 9:529.02107 10:461.41291 11:378.13974 12:310.38536 13:225.646 14:230.36438 15:234.81272 16:195.61176 17:140.62881 18:109.74389 19:91.906134 20:70.374912 21:32.914008 22:21.132204 23:18.540325 24:15.566064 25:12.264803 
1 1:218817.52 2:1145.1156 3:935.26943 4:840.57827 5:460.58928 6:458.15562 7:395.47572 8:300.57721 9:352.83588 10:327.58223 11:274.23521 12:284.52064 13:268.54239 14:248.55042 15:197.26359 16:139.88576 17:131.02788 18:129.00765 19:77.081799 20:50.991814 21:31.691909 22:16.788302 23:8.9474449 24:4.7441132 25:3.3919473 
1 1:219797.83 2:1035.0622 3:1048.6698 4:781.88829 5:406.98289 6:499.25481 7:413.18693 8:335.86273 9:398.04968 10:371.84399 11:349.7672 12:315.29792 13:204.88677 14:179.83434 15:210.38733 16:204.02655 17:110.1882 18:103.86188 19:103.83245 20:46.682276 21:21.328267 22:14.295956 23:9.3998968 24:6.1861721 25:3.1787879 
1 1:219659.55 2:770.2304 3:969.61356 4:777.84165 5:426.04189 6:617.22523 7:504.29527 8:381.44925 9:424.69831 10:278.65312 11:180.2814 12:158.62282 13:197.9419 14:234.65606 15:230.0411 16:225.57139 17:153.2754 18:106.36651 19:82.631743 20:61.93708 21:37.951034 22:24.346798 23:12.482218 24:6.0053325 25:3.5393881 
1 1:217975.34 2:1003.5882 3:1025.3705 4:794.78833 5:506.34048 6:489.84573 7:431.20829 8:452.32564 9:544.74416 10:519.81024 11:355.26336 12:192.38568 13:162.39635 14:261.07376 15:245.15713 16:149.20954 17:113.40937 18:78.143002 19:69.735723 20:52.894984 21:28.551282 22:18.547791 23:11.55601 24:10.388062 25:9.0310527 
1 1:219513.41 2:840.37956 3:832.92948 4:759.5921 5:447.80949 6:441.34517 7:507.04172 8:546.75088 9:473.38183 10:444.28218 11:366.55861 12:282.37951 13:227.71037 14:180.69322 15:211.37711 16:199.65031 17:153.28801 18:109.12837 19:49.81257 20:44.600917 21:34.968077 22:19.950569 23:9.7281064 24:6.8588979 25:5.6017351 
1 1:218403.2 2:965.35974 3:1046.1602 4:742.58662 5:496.21538 6:502.02303 7:474.74312 8:440.50276 9:533.04524 10:498.58971 11:329.21524 12:246.94852 13:217.79339 14:182.88498 15:162.36924 16:125.77768 17:109.52017 18:113.00133 19:92.073578 20:60.936359 21:37.272233 22:22.97757 23:14.244505 24:6.3167046 25:5.3302856 
1 1:217997.89 2:710.16289 3:723.97246 4:775.6392 5:517.80929 6:602.60266 7:497.01852 8:383.31415 9:493.88227 10:487.3988 11:424.17785 12:268.18758 13:221.33183 14:256.26896 15:225.58029 16:187.58942 17:122.22298 18:86.05934 19:56.042086 20:42.853628 21:32.099054 22:16.119725 23:11.496325 24:6.9505758 25:2.4510349 
1 1:216884.42 2:729.42945 3:936.72811 4:950.12541 5:618.55024 6:617.0465 7:634.04679 8:443.27039 9:457.97316 10:469.83441 11:272.45387 12:205.86547 13:204.04038 14:206.68218 15:151.53635 16:128.20388 17:97.08035 18:67.135372 19:62.891018 20:49.265743 21:30.172443 22:18.083862 23:7.2166183 24:4.7307218 25:3.6352962 
1 1:217396.58 2:1089.4672 3:868.40413 4:675.23349 5:422.01052 6:476.52676 7:439.71981 8:341.41358 9:465.07255 10:469.80035 11:278.72771 12:192.40677 13:155.06237 14:164.69683 15:195.51423 16:165.41303 17:120.75736 18:112.48442 19:85.348917 20:47.000085 21:34.38448 22:20.107978 23:9.1781982 24:4.7540416 25:4.187141 
1 1:216353.43 2:913.10531 3:907.72007 4:921.59809 5:602.2882 6:384.67921 7:335.79778 8:333.73046 9:451.83768 10:438.5286 11:302.77404 12:295.1325 13:261.08928 14:239.69287 15:235.00101 16:169.41238 17:133.2187 18:106.53931 19:61.971603 20:43.37597 21:33.689573 22:24.733452 23:12.554466 24:7.3942102 25:7.4281569 
1 1:215480.48 2:961.00684 3:901.00714 4:654.27977 5:485.37719 6:454.24358 7:323.37848 8:322.06935 9:405.97989 10:396.7701 11:278.67318 12:209.407 13:207.98214 14:240.13159 15:228.006 16:146.66302 17:105.40943 18:98.549266 19:81.550031 20:49.103215 21:31.415425 22:18.747112 23:11.283219 24:7.1990957 25:3.8058464 
1 1:216209.15 2:857.00731 3:866.06506 4:782.83753 5:363.23705 6:398.12149 7:417.70471 8:441.93022 9:471.84611 10:422.52635 11:288.49319 12:248.0594 13:316.48129 14:294.01017 15:192.46778 16:190.06712 17:141.00045 18:88.873722 19:73.124003 20:46.584185 21:29.491649 22:18.10031 23:7.9123828 24:4.0584947 25:2.4651179 
1 1:216959.06 2:811.69539 3:897.71703 4:746.571 5:333.47906 6:416.95514 7:538.92384 8:425.22644 9:331.26513 10:274.16533 11:267.22784 12:305.34506 13:278.49927 14:226.97493 15:183.53286 16:176.97364 17:154.81447 18:96.050941 19:61.424353 20:43.342418 21:30.4349 22:21.306871 23:8.3828344 24:4.1708033 25:2.2930778 
1 1:215572.06 2:913.0761 3:829.30397 4:906.2837 5:512.2828 6:527.18743 7:488.80208 8:349.96189 9:432.64739 10:395.19447 11:283.92691 12:269.01475 13:332.37842 14:385.84436 15:275.93342 16:151.59407 17:104.84038 18:103.43414 19:78.796341 20:45.606978 21:23.612846 22:21.49717 23:13.179367 24:5.1664484 25:3.9044948 
1 1:215627.91 2:873.81424 3:819.39295 4:703.92257 5:433.9674 6:448.79987 7:423.5206 8:295.77298 9:382.7558 10:353.39628 11:199.1779 12:182.96441 13:225.52565 14:242.81968 15:212.02691 16:172.84501 17:116.34415 18:86.081289 19:71.502157 20:52.78069 21:39.331901 22:21.083203 23:8.1609839 24:4.578089 25:2.9019728 
1 1:215158.2 2:657.99636 3:995.03314 4:1033.5512 5:497.79817 6:383.77524 7:428.49212 8:410.58157 9:394.41155 10:450.74566 11:370.84329 12:294.24487 13:292.60974 14:276.12266 15:225.27137 16:193.1591 17:146.68319 18:112.53873 19:102.90838 20:54.242013 21:31.152614 22:20.337903 23:9.541683 24:4.6108679 25:2.6836093 
1 1:218075.92 2:734.11155 3:972.1092 4:874.3503 5:525.9111 6:424.88919 7:368.09319 8:452.4233 9:490.43939 10:335.40291 11:255.39085 12:238.53011 13:219.85899 14:242.17514 15:192.40465 16:147.25351 17:137.09713 18:100.48493 19:65.549952 20:61.738895 21:46.54175 22:26.494739 23:13.851484 24:5.8908811 25:3.7393024 
1 1:217333.96 2:481.9692 3:634.55299 4:693.50264 5:528.78558 6:550.87649 7:511.30323 8:451.59346 9:422.09873 10:397.08137 11:276.75369 12:252.95478 13:266.42374 14:215.59048 15:227.64055 16:179.74092 17:110.41981 18:99.971035 19:66.385951 20:49.37638 21:37.230101 22:26.376927 23:10.311777 24:6.7409613 25:4.6402096 
1 1:219027.26 2:1134.4294 3:839.51525 4:748.49807 5:479.21151 6:507.14118 7:490.75934 8:407.37822 9:396.76334 10:424.19289 11:347.77018 12:258.85875 13:234.38943 14:223.03357 15:189.24272 16:163.9441 17:143.09221 18:87.209918 19:58.820407 20:42.454273 21:34.352142 22:24.40373 23:11.390986 24:5.0133762 25:2.7732205 
1 1:218804.65 2:891.16222 3:1020.5863 4:765.98467 5:443.77763 6:385.7751 7:347.46619 8:460.37586 9:594.77044 10:478.07267 11:281.86839 12:246.96372 13:306.68163 14:266.96445 15:227.22427 16:211.76201 17:118.97489 18:67.851628 19:48.394591 20:40.199155 21:28.232332 22:16.973469 23:10.971018 24:6.2752095 25:4.7098979 
1 1:219657.47 2:1066.4323 3:671.67037 4:646.14553 5:398.49582 6:396.23264 7:427.30292 8:406.47254 9:518.62395 10:457.73682 11:257.09811 12:238.79066 13:252.51309 14:252.97273 15:233.72691 16:184.30966 17:120.86824 18:95.234618 19:71.053533 20:59.307703 21:35.276485 22:13.235279 23:9.2522202 24:5.240079 25:4.904716 
1 1:217971.28 2:834.7613 3:758.55657 4:762.69818 5:496.30472 6:453.14262 7:464.16512 8:313.65869 9:341.96674 10:384.79631 11:294.08039 12:221.71489 13:250.24578 14:272.94853 15:157.27888 16:125.82403 17:119.50197 18:122.17687 19:110.25661 20:63.03262 21:32.203331 22:20.928921 23:15.883242 24:11.135366 25:8.564603 
1 1:216036.23 2:1065.9043 3:925.25618 4:823.04857 5:462.04153 6:408.17287 7:477.11062 8:402.04338 9:372.55063 10:328.16625 11:302.02078 12:306.44867 13:254.85555 14:239.39428 15:204.66339 16:156.75094 17:105.08323 18:109.21554 19:71.780834 20:42.699124 21:37.833908 22:26.97964 23:12.948528 24:11.573965 25:10.456598 
1 1:216012.06 2:998.79308 3:895.11823 4:810.59302 5:551.32165 6:488.51788 7:464.94355 8:426.87721 9:530.78691 10:479.88388 11:307.79201 12:271.22048 13:304.67887 14:271.68615 15:193.24177 16:220.96825 17:169.9211 18:69.897639 19:49.230638 20:38.152486 21:31.899238 22:24.365843 23:14.621514 24:9.8416248 25:8.8129158 
1 1:218810.81 2:1188.7992 3:982.83872 4:707.00092 5:435.74538 6:416.51045 7:322.08228 8:323.16114 9:401.20814 10:313.2037 11:215.83999 12:174.62968 13:171.37735 14:184.71685 15:234.37168 16:225.0148 17:117.66361 18:88.175907 19:77.016294 20:51.087948 21:26.162068 22:18.574908 23:13.698516 24:12.058887 25:12.213836 
1 1:220740.11 2:1008.716 3:640.25272 4:791.84462 5:576.95957 6:483.84481 7:416.08953 8:375.96328 9:508.58057 10:494.91931 11:325.64198 12:268.46149 13:236.65125 14:204.72053 15:192.36533 16:152.3039 17:119.62517 18:85.280493 19:70.626109 20:54.921638 21:33.236165 22:15.539934 23:8.2313613 24:6.0662139 25:3.8254569 
1 1:219168.87 2:800.16293 3:968.95924 4:828.56106 5:430.376 6:437.56484 7:356.08549 8:409.70885 9:430.33174 10:318.06304 11:251.32784 12:242.31503 13:214.25319 14:149.16141 15:155.46885 16:184.59901 17:127.2066 18:76.322736 19:64.879696 20:51.809949 21:42.74771 22:26.627726 23:12.186962 24:4.9976891 25:3.5825267 
1 1:220202.13 2:828.80515 3:833.62661 4:713.8649 5:420.28342 6:420.72247 7:389.53183 8:409.27621 9:510.01897 10:510.91308 11:300.58988 12:289.44688 13:269.55424 14:195.49669 15:265.01921 16:257.85083 17:160.94023 18:100.58326 19:58.719814 20:37.617957 21:26.018933 22:18.109681 23:9.5146562 24:5.9925745 25:6.2038605 
1 1:218705.1 2:814.89139 3:847.09308 4:787.90168 5:429.82619 6:373.62041 7:360.15428 8:301.13179 9:481.7885 10:522.88421 11:339.69418 12:259.91961 13:222.82857 14:207.55266 15:165.28265 16:127.4949 17:128.06322 18:92.245153 19:65.456052 20:61.165765 21:44.762392 22:20.014123 23:9.5388423 24:11.103432 25:11.858954 
1 1:215979.3 2:926.86241 3:1000.3415 4:1023.7324 5:601.58233 6:409.74419 7:344.53515 8:327.50973 9:406.25683 10:422.42485 11:284.28182 12:265.44519 13:221.52274 14:194.76291 15:216.75119 16:185.31267 17:131.45371 18:93.206602 19:77.833312 20:67.333922 21:37.134649 22:23.725952 23:9.8901167 24:5.0328541 25:3.3912368 
1 1:216394.3 2:1172.0804 3:868.79627 4:705.33012 5:457.55368 6:386.79687 7:382.59677 8:437.19397 9:483.5598 10:422.49221 11:346.02029 12:270.07466 13:211.53106 14:231.04383 15:217.4991 16:190.51201 17:132.33307 18:97.94948 19:81.393232 20:58.893176 21:36.474225 22:17.110651 23:9.2312625 24:5.394372 25:2.4587814 
1 1:214353.24 2:720.56521 3:764.6224 4:575.53627 5:411.81951 6:523.88233 7:535.19774 8:390.42959 9:430.43177 10:436.65734 11:294.37568 12:269.99703 13:295.94353 14:228.6975 15:169.62451 16:135.30953 17:109.47797 18:111.40986 19:85.021287 20:54.489987 21:41.653944 22:17.353736 23:10.107092 24:6.5469958 25:4.8577548 
1 1:216107.42 2:1094.8784 3:908.75012 4:774.14496 5:474.85105 6:372.5009 7:463.7491 8:506.83013 9:493.88495 10:491.81817 11:333.91686 12:268.26845 13:201.42063 14:248.50328 15:249.74099 16:201.26366 17:179.44443 18:113.04905 19:65.195107 20:42.932161 21:29.321511 22:15.923031 23:8.8152832 24:5.3670156 25:2.6334122 
1 1:214212.93 2:655.0969 3:796.83442 4:787.22212 5:468.47367 6:437.95057 7:523.88249 8:476.70276 9:632.06563 10:546.63394 11:337.68127 12:320.69085 13:270.86406 14:238.08787 15:152.63854 16:161.77087 17:154.34788 18:98.318322 19:93.457257 20:66.017162 21:30.077454 22:16.917076 23:11.933233 24:5.8671489 25:2.2966699 
1 1:213968.33 2:843.66539 3:748.31087 4:760.24103 5:541.54164 6:547.98462 7:492.96006 8:442.82167 9:531.6849 10:429.17558 11:286.82324 12:256.06927 13:195.29149 14:188.1573 15:197.61797 16:166.28124 17:124.44812 18:103.18191 19:86.404479 20:57.316452 21:36.783282 22:30.679372 23:20.565807 24:16.91548 25:15.86424 
1 1:210211.47 2:835.17201 3:693.50584 4:633.89428 5:438.28212 6:435.15735 7:447.90662 8:413.03791 9:447.82612 10:398.69616 11:289.75645 12:305.85533 13:264.88114 14:259.6688 15:279.55117 16:225.60846 17:128.99123 18:91.302065 19:76.801381 20:36.158797 21:26.407763 22:21.448968 23:14.797759 24:13.094816 25:12.007781 
1 1:209678.68 2:683.27139 3:842.73483 4:908.45524 5:486.93687 6:401.60741 7:515.38405 8:442.95794 9:524.12044 10:540.74963 11:395.35959 12:272.92446 13:246.17079 14:283.15286 15:243.68673 16:188.59953 17:128.3609 18:97.944969 19:59.071004 20:37.057378 21:19.684353 22:13.080143 23:9.1997894 24:5.0344913 25:3.6881489 
1 1:209545.52 2:784.88201 3:737.95026 4:644.57583 5:315.02218 6:417.01717 7:408.46204 8:364.00888 9:492.77639 10:510.46127 11:330.41238 12:210.50763 13:291.17027 14:257.69306 15:178.64948 16:142.70744 17:88.022106 18:108.24191 19:93.260217 20:51.382978 21:39.968409 22:21.059224 23:8.0026904 24:5.5139775 25:2.6599614 
1 1:210033.64 2:726.16931 3:844.76226 4:899.8301 5:540.12476 6:361.70696 7:335.69992 8:359.86803 9:488.78954 10:534.56869 11:318.48192 12:222.37838 13:206.40791 14:209.34225 15:218.1598 16:169.9319 17:133.73764 18:104.9231 19:81.895558 20:52.198802 21:30.621079 22:20.488448 23:8.2398906 24:4.9514017 25:4.4872625 
1 1:212640.28 2:773.57774 3:939.50675 4:893.29944 5:621.8068 6:436.75036 7:521.35161 8:551.11105 9:504.03079 10:358.87293 11:255.09783 12:301.46542 13:249.3641 14:229.84218 15:234.10189 16:146.45214 17:116.06048 18:112.9676 19:67.969067 20:31.309154 21:28.566453 22:19.128873 23:8.2695781 24:5.6211245 25:5.2359847 
1 1:210289.58 2:960.88509 3:914.581 4:608.13569 5:427.9066 6:384.81015 7:340.28536 8:374.39936 9:430.77654 10:408.61144 11:286.162 12:278.52486 13:235.83184 14:208.39451 15:184.85374 16:150.01508 17:159.00158 18:110.74286 19:69.713888 20:54.896435 21:40.448107 22:27.489712 23:13.529238 24:8.401728 25:6.8254832 
1 1:208328.9 2:899.90272 3:928.72859 4:824.64521 5:553.69207 6:458.17004 7:325.62858 8:267.94646 9:451.02589 10:489.04959 11:339.42815 12:249.09932 13:241.07103 14:225.75786 15:182.62768 16:150.06119 17:135.71397 18:120.86718 19:66.385386 20:37.374063 21:22.98084 22:18.870014 23:15.446117 24:9.804182 25:8.6517451 
1 1:204825.66 2:976.98842 3:1007.36 4:878.50398 5:509.37812 6:464.98586 7:469.95606 8:440.17005 9:435.34416 10:453.02178 11:328.12847 12:224.63595 13:198.96767 14:227.47978 15:230.16009 16:171.06171 17:94.823365 18:112.24975 19:83.100318 20:43.76142 21:40.61558 22:18.450036 23:8.8086011 24:7.3569577 25:6.3645999 
1 1:207586.51 2:683.18349 3:618.45664 4:702.05491 5:567.05807 6:512.8969 7:395.21931 8:378.36306 9:488.38963 10:561.97493 11:367.60595 12:237.45122 13:209.49274 14:170.22327 15:148.28599 16:163.82892 17:141.88594 18:106.7996 19:73.617104 20:49.959043 21:40.773064 22:25.436764 23:10.392205 24:6.4626239 25:3.7086072 
1 1:207535.76 2:1102.995 3:1016.3372 4:915.03598 5:486.95843 6:414.73864 7:352.89422 8:403.06471 9:611.96376 10:500.11215 11:353.33751 12:347.55034 13:264.27541 14:239.57362 15:210.33349 16:146.93452 17:138.437 18:121.93849 19:80.124348 20:54.997653 21:31.186539 22:10.431174 23:8.7459487 24:4.4630898 25:2.4917819 
1 1:208535.01 2:595.41278 3:651.29218 4:666.88415 5:397.54548 6:494.20655 7:509.14212 8:364.99179 9:462.20627 10:512.49284 11:397.06191 12:316.43701 13:288.58585 14:290.25505 15:272.71408 16:176.85101 17:115.58889 18:104.8483 19:83.431641 20:57.66973 21:35.274316 22:21.23495 23:11.418025 24:8.5116426 25:6.4227319 
1 1:209461.25 2:792.73497 3:818.31619 4:647.59722 5:411.43732 6:431.65237 7:436.47295 8:404.76173 9:478.01777 10:443.2097 11:295.56203 12:242.06625 13:262.77582 14:272.85619 15:208.29822 16:182.61251 17:144.66112 18:96.112567 19:72.247237 20:50.848642 21:33.264596 22:22.763775 23:11.717528 24:5.467252 25:2.8498701 
1 1:209130.56 2:851.97522 3:898.56158 4:809.5601 5:455.09384 6:376.0092 7:280.55277 8:346.54277 9:480.18888 10:421.45329 11:232.33889 12:183.39882 13:234.80522 14:260.94292 15:211.29288 16:198.6091 17:162.14613 18:110.26153 19:82.322285 20:53.632384 21:38.037958 22:21.500906 23:15.450249 24:9.3060363 25:6.0527588 
1 1:209487.01 2:1010.7846 3:873.50123 4:810.6028 5:424.68668 6:407.59245 7:454.57876 8:531.58706 9:570.04484 10:429.01621 11:339.16847 12:383.01171 13:306.05439 14:228.95891 15:204.56622 16:191.34329 17:128.2655 18:99.501507 19:78.015407 20:47.229949 21:28.062492 22:15.067035 23:11.56139 24:7.9643253 25:5.1842548 
1 1:208589.88 2:1100.1772 3:823.83002 4:673.33379 5:377.91452 6:518.22999 7:492.5536 8:353.33865 9:437.57022 10:359.51811 11:273.86918 12:304.04061 13:254.66616 14:205.20354 15:223.65238 16:240.97006 17:183.21141 18:122.12181 19:69.910087 20:42.532377 21:26.721625 22:14.801424 23:9.0954008 24:6.2826243 25:3.8441755 
1 1:209137.57 2:784.13409 3:812.82181 4:742.52536 5:375.1693 6:374.54226 7:385.45169 8:414.72046 9:573.85072 10:542.16687 11:356.19733 12:243.37397 13:288.57864 14:294.00042 15:255.96199 16:216.07143 17:126.94312 18:95.782257 19:64.416179 20:52.463254 21:30.32296 22:14.920247 23:9.4956101 24:5.418571 25:3.2736787 
1 1:207668.36 2:873.65702 3:1003.8212 4:814.247 5:483.47243 6:580.43088 7:517.07124 8:470.32449 9:508.3052 10:409.25049 11:303.25324 12:262.89932 13:230.88443 14:216.2667 15:237.62879 16:227.62969 17:168.85998 18:96.305614 19:47.764585 20:48.524179 21:36.44831 22:22.905161 23:13.432447 24:7.3580377 25:4.9428063 
1 1:206790.08 2:886.33114 3:893.15717 4:647.74124 5:350.54325 6:519.44905 7:519.43168 8:388.69344 9:417.0312 10:447.91521 11:314.87889 12:300.99391 13:253.25851 14:252.10105 15:230.05981 16:177.71502 17:171.35323 18:109.64756 19:59.378447 20:47.990153 21:37.263294 22:28.230732 23:19.565227 24:14.695911 25:12.907075 
1 1:209224.21 2:776.03435 3:801.08931 4:685.53139 5:564.14002 6:491.24872 7:371.49953 8:342.19689 9:374.37971 10:450.89677 11:356.45354 12:268.06503 13:241.03224 14:259.08667 15:259.69511 16:205.66205 17:170.70778 18:148.81774 19:90.694841 20:33.493188 21:20.930504 22:13.541053 23:8.6561492 24:5.0626119 25:3.5400886 
1 1:206589.39 2:741.38466 3:758.19311 4:707.64265 5:431.69182 6:463.71936 7:440.26271 8:341.40564 9:362.35322 10:394.88292 11:269.46058 12:228.44136 13:246.48919 14:212.49167 15:147.38506 16:146.11194 17:124.38135 18:88.852389 19:71.107141 20:53.21799 21:29.536946 22:17.392286 23:12.135653 24:8.9970554 25:8.0465054 
1 1:208640.36 2:846.90788 3:623.95561 4:666.75876 5:430.60301 6:474.43437 7:447.96872 8:310.39148 9:459.57684 10:440.55626 11:250.28644 12:204.02154 13:194.40877 14:208.2256 15:176.34692 16:126.29959 17:101.83088 18:91.951376 19:57.615597 20:38.530956 21:33.529964 22:18.027199 23:8.4245492 24:4.2736044 25:2.7528251 
1 1:208147.08 2:707.81027 3:818.27177 4:750.65338 5:511.81454 6:598.76093 7:561.16555 8:388.14798 9:458.19838 10:495.49567 11:296.47309 12:233.97825 13:236.04762 14:228.51912 15:191.85851 16:144.72236 17:108.01026 18:99.292031 19:73.950507 20:34.575571 21:26.680183 22:17.901336 23:10.981171 24:7.4639199 25:4.1243797 
1 1:206119.22 2:592.11091 3:1096.5094 4:972.77078 5:426.64708 6:381.67243 7:469.25015 8:624.90158 9:557.8551 10:426.04807 11:397.67543 12:329.65073 13:316.37586 14:299.00195 15:193.95898 16:149.27137 17:116.61446 18:73.99595 19:47.659323 20:47.318088 21:37.603534 22:15.395619 23:7.5552813 24:9.5390032 25:11.478194 
1 1:206635.87 2:865.05201 3:717.95885 4:800.92527 5:492.16006 6:424.65637 7:450.87405 8:475.2098 9:488.15807 10:424.86628 11:257.90898 12:207.45999 13:225.0727 14:178.07002 15:189.23352 16:194.10263 17:128.6932 18:87.438055 19:58.15535 20:38.552567 21:29.142445 22:18.770165 23:9.0861824 24:5.0524801 25:6.5267048 
1 1:207327.27 2:957.36699 3:668.83685 4:691.87538 5:493.11895 6:406.0522 7:387.82437 8:416.60291 9:619.90051 10:551.2737 11:268.57311 12:233.70243 13:280.73951 14:260.07993 15:245.04882 16:182.91829 17:148.27491 18:122.94435 19:60.097195 20:47.888723 21:38.98547 22:28.560294 23:19.746773 24:15.12988 25:15.858471 
1 1:208264.85 2:778.85557 3:850.6565 4:803.58585 5:513.82936 6:392.38814 7:322.24344 8:264.87391 9:431.88059 10:451.92641 11:242.33175 12:172.16852 13:157.10892 14:212.52021 15:203.3832 16:168.59116 17:136.42671 18:111.8614 19:91.032188 20:41.052617 21:28.417004 22:19.535662 23:8.2666836 24:6.6626117 25:5.9139022 
1 1:205165.59 2:763.19344 3:819.78059 4:716.62891 5:516.70514 6:441.69697 7:410.31965 8:446.98975 9:453.06608 10:384.61443 11:282.77444 12:259.50695 13:202.81958 14:179.45498 15:204.92283 16:204.97988 17:123.25678 18:103.27024 19:82.634514 20:48.561937 21:39.082346 22:28.942933 23:22.23906 24:15.262997 25:13.76642 
1 1:201991.19 2:1080.6836 3:759.7841 4:767.26221 5:525.57295 6:488.25885 7:470.78392 8:424.46371 9:551.3419 10:420.44827 11:269.45749 12:202.26527 13:183.27684 14:229.08248 15:232.34335 16:182.49536 17:141.09919 18:105.19439 19:76.580615 20:50.59352 21:27.645722 22:14.420297 23:12.301816 24:9.6618909 25:7.4794761 
1 1:202042.12 2:873.80193 3:868.68575 4:960.34076 5:697.09969 6:544.56651 7:438.92261 8:303.61771 9:397.71969 10:528.05424 11:421.80967 12:229.15896 13:216.73066 14:291.05149 15:254.44384 16:186.09313 17:142.10269 18:90.489098 19:67.097795 20:46.453019 21:35.865475 22:26.081465 23:13.376295 24:4.5835016 25:4.4911977 
1 1:198881.23 2:578.74569 3:767.76665 4:721.89473 5:406.63949 6:456.03263 7:419.75229 8:364.46292 9:517.89947 10:559.73247 11:371.12729 12:271.74334 13:279.46853 14:217.39029 15:140.75473 16:134.57372 17:124.91512 18:104.08514 19:87.65617 20:57.760809 21:38.107883 22:25.092701 23:16.004277 24:13.821017 25:14.746965 
1 1:196903.44 2:1184.1774 3:840.8195 4:1033.8767 5:636.50474 6:444.02598 7:349.61786 8:358.69211 9:489.71303 10:461.58061 11:277.13552 12:151.52731 13:151.86584 14:192.32691 15:232.06582 16:202.07578 17:109.54838 18:87.981057 19:81.716452 20:54.690669 21:32.411801 22:20.578311 23:12.406305 24:8.1083375 25:6.0936926 
1 1:200575.97 2:962.16684 3:874.54044 4:830.45769 5:609.39584 6:529.95075 7:344.10501 8:321.70946 9:484.5445 10:517.15323 11:310.26365 12:205.43093 13:228.55409 14:240.40576 15:202.79816 16:205.63823 17:148.39692 18:88.469934 19:53.465189 20:38.913318 21:31.678547 22:15.71051 23:10.623977 24:6.5216962 25:3.9163103 
1 1:196061.84 2:1145.9623 3:731.93231 4:769.4311 5:604.9401 6:467.78008 7:438.37387 8:471.33158 9:486.41394 10:471.89196 11:408.1024 12:369.42804 13:298.88 14:269.85057 15:219.77606 16:185.21837 17:148.06768 18:98.359619 19:76.213716 20:48.51116 21:41.387877 22:29.570283 23:16.529292 24:16.67371 25:15.78492 
1 1:192697.53 2:920.73656 3:1018.2249 4:903.39211 5:456.0217 6:350.4035 7:299.96946 8:365.52929 9:544.29376 10:509.20193 11:357.49334 12:251.26292 13:173.76129 14:164.90999 15:156.9844 16:129.64433 17:118.47919 18:85.164942 19:66.08945 20:54.482702 21:34.39559 22:18.951861 23:11.482226 24:5.5422316 25:4.7333117 
1 1:195974.74 2:813.16122 3:802.06077 4:651.20635 5:393.3039 6:395.74249 7:394.87589 8:378.2279 9:561.75264 10:498.15225 11:290.92075 12:248.41448 13:268.96879 14:238.51705 15:211.31752 16:190.16153 17:123.51414 18:85.747245 19:61.09284 20:40.168841 21:38.932754 22:24.514908 23:9.9928116 24:10.846362 25:11.64443 
1 1:198370.57 2:577.37791 3:799.92347 4:832.93477 5:489.68618 6:483.08429 7:568.29385 8:495.85955 9:507.42015 10:476.05815 11:359.09063 12:271.59676 13:246.66352 14:247.56962 15:238.28455 16:171.39698 17:97.253838 18:123.01582 19:84.890302 20:38.645183 21:25.051824 22:14.423892 23:6.5546371 24:4.7075301 25:2.666948 
1 1:197157.88 2:718.12223 3:818.84248 4:926.64636 5:576.77076 6:321.04887 7:397.17798 8:437.10647 9:394.41248 10:400.55204 11:334.88632 12:238.59663 13:200.11008 14:199.46196 15:226.3318 16:199.68497 17:120.02057 18:108.09703 19:85.62509 20:44.570627 21:29.472611 22:15.691233 23:9.6227782 24:6.8734329 25:3.5730548 
1 1:197476.33 2:698.98313 3:785.30941 4:836.3389 5:463.12706 6:419.94845 7:367.98337 8:444.61104 9:555.70494 10:433.36529 11:283.30158 12:323.43846 13:287.75631 14:252.17448 15:243.281 16:205.39472 17:126.39396 18:90.240937 19:84.695532 20:48.701446 21:29.368463 22:21.919714 23:11.984003 24:5.2236965 25:2.3748489 
1 1:197434.37 2:886.3173 3:998.77658 4:901.57883 5:590.02119 6:425.00854 7:379.68713 8:449.49465 9:409.47357 10:350.60592 11:340.11559 12:278.32238 13:246.94532 14:305.94532 15:223.95109 16:195.30293 17:168.01388 18:127.57365 19:108.93499 20:64.428748 21:29.239638 22:16.651365 23:12.036119 24:6.7816929 25:2.9551984 
1 1:197748.94 2:905.40497 3:772.38684 4:756.81646 5:509.56399 6:442.69194 7:468.13983 8:422.05686 9:448.90965 10:480.79914 11:345.81168 12:250.11553 13:227.23616 14:254.65844 15:189.45702 16:126.6925 17:89.362054 18:88.38839 19:73.21831 20:44.781707 21:24.826968 22:23.087647 23:12.907562 24:3.6004125 25:2.3833332 
1 1:198124.67 2:653.4136 3:748.98314 4:786.16635 5:421.07274 6:446.5973 7:505.24883 8:458.14973 9:467.63509 10:377.99055 11:263.34221 12:286.02234 13:321.19571 14:271.542 15:219.00944 16:179.46905 17:109.52064 18:100.89138 19:76.014556 20:50.396386 21:38.706075 22:26.765583 23:12.190364 24:6.222185 25:6.0709004 
1 1:199410.95 2:698.20743 3:921.09766 4:855.5249 5:479.21532 6:548.92851 7:495.43834 8:402.21762 9:449.74336 10:404.23525 11:389.18263 12:354.0512 13:239.29544 14:255.28771 15:233.44912 16:169.41028 17:108.77263 18:76.772682 19:69.677906 20:66.049898 21:44.242512 22:18.080932 23:12.428217 24:7.9907777 25:6.103292 
1 1:201614.06 2:897.56407 3:1019.0041 4:818.55448 5:347.0076 6:527.08655 7:480.72765 8:362.50191 9:456.59786 10:424.13329 11:389.18807 12:330.10535 13:225.48784 14:243.7632 15:245.49976 16:196.40146 17:125.74834 18:94.302708 19:81.269572 20:47.154736 21:29.981103 22:16.934869 23:8.1640877 24:4.6537704 25:4.0824714 
1 1:201455.1 2:834.37779 3:759.78652 4:780.43118 5:449.92379 6:421.34702 7:334.10838 8:314.77728 9:478.15786 10:526.53706 11:385.33455 12:304.15534 13:255.56406 14:171.85777 15:168.98391 16:181.96531 17:146.1626 18:101.74793 19:98.4787 20:69.794673 21:35.50164 22:23.354528 23:12.653322 24:5.4061197 25:4.7289005 
1 1:198841.09 2:805.266 3:727.63587 4:773.44789 5:620.09193 6:460.11866 7:369.31517 8:342.16109 9:398.6167 10:508.85043 11:337.38198 12:251.19323 13:231.46989 14:234.92769 15:250.13268 16:198.92795 17:146.46305 18:115.76325 19:88.56288 20:61.803729 21:38.460034 22:24.421515 23:15.414882 24:9.3163797 25:6.7421575 
1 1:198667.93 2:952.81534 3:950.11944 4:882.40717 5:548.4942 6:630.58858 7:534.19242 8:382.06497 9:445.54897 10:474.66738 11:355.51769 12:267.22796 13:221.21144 14:159.56435 15:212.65993 16:218.7087 17:102.72314 18:67.5708 19:59.078909 20:47.49765 21:27.433207 22:17.802008 23:11.923318 24:7.7619159 25:7.887169 
1 1:196326.39 2:967.96523 3:859.53571 4:953.57689 5:545.47461 6:526.35597 7:581.22821 8:365.90036 9:394.45969 10:446.58234 11:409.48488 12:283.41721 13:189.03887 14:209.22126 15:182.64923 16:125.79249 17:117.45078 18:108.24175 19:71.345745 20:35.973652 21:24.062209 22:22.261466 23:12.56079 24:10.603727 25:9.0576528 
1 1:196254.34 2:859.52292 3:972.21864 4:944.30851 5:570.86585 6:514.69024 7:464.02247 8:428.53259 9:576.70829 10:402.67168 11:346.03699 12:297.77686 13:180.74509 14:231.75713 15:214.84938 16:155.94248 17:129.53105 18:111.07418 19:68.836919 20:70.46823 21:43.856969 22:18.115256 23:9.9189602 24:4.5837178 25:2.7363903 
1 1:195147.28 2:896.37752 3:1064.9947 4:837.1063 5:529.76714 6:552.15507 7:503.13531 8:503.77321 9:652.3215 10:506.51364 11:351.14018 12:320.17852 13:306.61828 14:251.80028 15:177.37013 16:157.35691 17:118.61493 18:106.96145 19:79.34435 20:52.984952 21:30.137486 22:19.110705 23:11.007599 24:6.738516 25:6.1595329 
1 1:193466.71 2:828.81196 3:782.02988 4:934.6239 5:772.76895 6:557.66472 7:489.12043 8:476.78708 9:465.48637 10:427.43655 11:298.61793 12:228.59724 13:249.15731 14:240.48139 15:158.45889 16:149.71146 17:133.52995 18:107.44983 19:105.61226 20:71.014147 21:32.636412 22:21.782399 23:10.076918 24:5.1944409 25:3.7609569 
1 1:194726.69 2:955.78577 3:986.04365 4:716.16387 5:391.76645 6:545.65455 7:677.17047 8:635.02883 9:652.12813 10:560.20449 11:416.99913 12:326.47904 13:298.41167 14:310.52604 15:248.95132 16:175.36574 17:113.06017 18:111.48588 19:87.825815 20:49.690663 21:40.000634 22:25.584198 23:12.361803 24:6.392279 25:2.891299 
1 1:195138.99 2:1085.2189 3:1148.916 4:1055.6262 5:856.40816 6:823.89073 7:729.26893 8:554.02059 9:498.4904 10:398.27 11:327.74678 12:365.40209 13:300.84144 14:247.13505 15:229.89337 16:170.30689 17:136.55203 18:102.24906 19:66.58062 20:46.964772 21:31.114947 22:24.456497 23:10.52986 24:5.7748757 25:5.3568572 
1 1:194186.98 2:1273.3551 3:1124.9858 4:916.98655 5:739.04227 6:751.57177 7:642.52631 8:563.97337 9:578.20469 10:563.83492 11:438.03426 12:347.23612 13:408.97215 14:312.87383 15:204.95304 16:193.01328 17:165.3973 18:118.54153 19:83.961948 20:58.995126 21:24.481197 22:21.946171 23:11.046181 24:6.8994764 25:3.6103378 
1 1:192209.54 2:919.26446 3:786.09286 4:855.85825 5:766.96132 6:744.53399 7:808.55548 8:663.7391 9:611.85234 10:694.35964 11:424.09936 12:288.25628 13:206.02507 14:178.64199 15:208.49985 16:185.08523 17:140.87175 18:93.088804 19:57.600317 20:45.384524 21:30.229713 22:16.146359 23:11.181177 24:5.6286366 25:3.9044728 
1 1:189975.03 2:1011.3666 3:1086.7481 4:868.22907 5:645.87883 6:619.5033 7:615.53894 8:530.84457 9:607.90535 10:652.27825 11:435.24397 12:270.25119 13:186.53017 14:226.27947 15:216.63051 16:181.55073 17:166.34547 18:106.66621 19:58.686545 20:51.586275 21:37.484253 22:19.857602 23:6.0486565 24:3.5110733 25:3.0223082 
1 1:191292.05 2:1046.5318 3:953.02878 4:914.38039 5:693.93685 6:611.03684 7:525.69138 8:540.71905 9:600.31538 10:471.52236 11:368.00175 12:317.88869 13:266.0545 14:272.70032 15:242.06971 16:231.31131 17:193.0232 18:116.05804 19:56.88567 20:41.824436 21:25.023931 22:15.997514 23:11.499122 24:8.0912081 25:8.7885603 
1 1:192631.18 2:1022.2622 3:833.54232 4:899.05086 5:508.42645 6:489.20902 7:501.99735 8:508.85721 9:580.44209 10:425.87137 11:288.73625 12:274.91098 13:299.79057 14:299.95443 15:243.4497 16:167.91927 17:129.29431 18:127.06876 19:96.847678 20:52.320189 21:29.785156 22:16.094086 23:10.125509 24:7.4578994 25:4.8476629 
1 1:192187.02 2:1212.108 3:1035.6686 4:882.39479 5:564.81471 6:647.13841 7:511.79412 8:530.93077 9:605.76448 10:439.48386 11:227.18743 12:189.6141 13:216.94213 14:291.05787 15:225.62419 16:180.04346 17:156.53242 18:89.179081 19:64.758813 20:47.167818 21:33.306676 22:22.901572 23:9.7940503 24:6.8253335 25:5.4559239 
1 1:191365.53 2:1069.3386 3:785.75558 4:762.90012 5:614.55814 6:512.67223 7:522.52617 8:530.04579 9:711.0638 10:590.10883 11:372.78932 12:334.4983 13:272.54537 14:261.66702 15:205.92632 16:172.43525 17:135.01108 18:109.32905 19:98.183215 20:62.986176 21:39.932513 22:25.319678 23:11.783137 24:8.6854011 25:7.523137 
1 1:189400.29 2:1095.9306 3:838.47716 4:994.90627 5:905.91521 6:847.50826 7:665.4598 8:563.09752 9:544.08879 10:397.26741 11:295.47178 12:274.90952 13:242.0094 14:244.03203 15:231.29603 16:194.64089 17:150.82822 18:104.38083 19:79.497656 20:59.03645 21:29.403671 22:20.140549 23:10.65884 24:6.1201794 25:4.1488759 
1 1:189569.27 2:1094.3584 3:782.77201 4:807.31393 5:568.33257 6:599.03828 7:554.58321 8:468.94015 9:593.09124 10:445.26943 11:295.83546 12:285.01879 13:189.84456 14:189.00828 15:203.96649 16:185.64396 17:133.12997 18:98.50222 19:74.941491 20:45.86646 21:25.383863 22:16.857984 23:13.216637 24:7.0921121 25:4.5754778 
1 1:187747.75 2:916.22502 3:1056.5044 4:997.29938 5:652.23594 6:562.93662 7:521.23581 8:484.20149 9:608.77269 10:538.42411 11:245.3715 12:193.55334 13:207.23295 14:251.65214 15:195.61532 16:151.75488 17:92.95688 18:63.452872 19:61.386285 20:53.820969 21:30.499509 22:15.205457 23:13.453822 24:10.514581 25:8.4479513 
1 1:186301.42 2:830.41943 3:974.48422 4:909.71169 5:688.82464 6:681.1991 7:545.55224 8:390.71222 9:488.01912 10:560.24998 11:333.06099 12:197.02126 13:255.02166 14:240.58692 15:175.3349 16:155.59094 17:155.82456 18:126.98446 19:80.652092 20:50.451152 21:25.92441 22:17.921018 23:10.941027 24:4.3496831 25:2.1821787 
1 1:186367.65 2:1064.7677 3:842.6424 4:886.87499 5:697.55527 6:481.86492 7:310.64936 8:344.68743 9:387.50575 10:404.17963 11:297.32389 12:248.9325 13:327.30102 14:339.65394 15:205.62519 16:136.21981 17:134.91153 18:118.87943 19:70.617356 20:49.00709 21:35.255615 22:21.582633 23:11.488142 24:8.1960456 25:7.4721701 
1 1:183558.36 2:997.92294 3:791.14818 4:805.05227 5:597.06425 6:461.09876 7:427.36735 8:421.39697 9:465.32076 10:379.44201 11:315.00163 12:266.0861 13:178.39008 14:174.27982 15:182.76995 16:210.49059 17:189.38528 18:116.89499 19:70.879779 20:50.603013 21:29.425194 22:19.912173 23:11.393905 24:7.3359977 25:6.2365756 
1 1:184205.58 2:864.81807 3:817.15868 4:670.30278 5:466.52873 6:427.66317 7:435.28226 8:539.12806 9:525.737 10:429.14368 11:266.71372 12:245.72672 13:238.19156 14:193.32671 15:199.08628 16:179.29189 17:146.8046 18:137.49173 19:78.504177 20:46.416349 21:37.057046 22:24.364715 23:13.76712 24:8.4431597 25:9.000225 
1 1:185602.52 2:983.3525 3:934.98323 4:871.69053 5:607.40932 6:499.21959 7:590.65112 8:608.13391 9:403.1245 10:326.80301 11:301.456 12:218.31812 13:221.3036 14:229.26916 15:163.98302 16:191.96514 17:166.44466 18:100.3577 19:61.894594 20:37.273499 21:24.228965 22:17.238345 23:10.099762 24:4.6247781 25:2.7209662 
1 1:184935.71 2:912.15017 3:751.42794 4:740.00991 5:535.07369 6:453.48468 7:399.31853 8:347.06424 9:422.62327 10:499.08171 11:467.36627 12:321.8193 13:191.6679 14:141.69452 15:133.16459 16:146.21575 17:116.2058 18:97.386216 19:74.383251 20:53.721581 21:29.618926 22:13.792133 23:11.112371 24:7.1159446 25:4.2303551 
1 1:180558.51 2:666.91103 3:830.27604 4:782.75758 5:682.54654 6:595.6806 7:376.47205 8:310.98206 9:349.6238 10:371.61554 11:307.97708 12:240.12208 13:157.09415 14:181.06393 15:202.19332 16:121.63038 17:92.631056 18:85.987152 19:86.628251 20:60.887256 21:33.412228 22:21.210222 23:10.804584 24:5.9168715 25:4.857591 
1 1:179351.48 2:835.53423 3:927.78239 4:725.46405 5:468.94146 6:518.69642 7:503.46899 8:545.32316 9:552.98863 10:432.40341 11:306.36294 12:219.39353 13:221.55492 14:207.13924 15:149.16885 16:138.91359 17:108.00495 18:79.508978 19:73.924778 20:53.243519 21:25.467148 22:17.23299 23:10.149611 24:5.8594951 25:4.8974522 
1 1:181344.85 2:1079.0015 3:1263.649 4:946.44108 5:462.1393 6:527.02206 7:452.47671 8:420.70473 9:619.79901 10:611.20186 11:401.19743 12:247.69054 13:196.79958 14:210.60903 15:199.36611 16:154.7497 17:113.87134 18:100.98797 19:82.666141 20:45.658331 21:20.967899 22:13.308004 23:7.4301052 24:4.4558678 25:2.4657719 
1 1:181968.57 2:1250.3019 3:786.24795 4:533.93647 5:528.0619 6:415.86279 7:436.44515 8:484.93917 9:437.12723 10:452.94362 11:415.5235 12:303.4611 13:204.28755 14:249.68883 15:231.05013 16:160.0312 17:89.640363 18:57.073313 19:56.553666 20:38.661787 21:24.351905 22:16.255132 23:10.406912 24:7.1963387 25:4.3775689 
1 1:180215.23 2:1050.5383 3:1101.6118 4:940.04091 5:519.3354 6:548.21484 7:507.84688 8:378.28055 9:447.12896 10:433.02295 11:326.13171 12:335.4843 13:255.8131 14:179.05275 15:191.03888 16:197.46329 17:130.60801 18:95.282314 19:64.429648 20:47.116157 21:36.731345 22:21.525097 23:11.990128 24:6.843402 25:4.6977411 
1 1:178519.19 2:690.76366 3:867.97744 4:771.05948 5:556.66582 6:495.5605 7:385.38751 8:426.40201 9:618.52661 10:536.96442 11:292.15983 12:188.56803 13:215.96792 14:261.43626 15:248.64871 16:203.75962 17:101.28889 18:65.646379 19:59.811629 20:46.695461 21:36.955496 22:22.199021 23:7.5716585 24:6.2261098 25:4.0991022 
1 1:179020.82 2:710.76617 3:873.04781 4:722.70189 5:501.6559 6:455.83665 7:360.78489 8:336.78831 9:487.16877 10:512.32829 11:364.08973 12:305.82055 13:261.68423 14:260.41325 15:189.39547 16:118.92408 17:102.84551 18:110.48025 19:88.007036 20:43.666819 21:27.230522 22:16.011183 23:10.046959 24:4.8788966 25:2.8155962 
1 1:177676.7 2:740.70627 3:813.97361 4:859.52487 5:673.51095 6:525.21448 7:586.38619 8:580.04065 9:556.01936 10:434.90063 11:299.43079 12:307.35185 13:238.23881 14:172.71715 15:173.87367 16:136.10851 17:99.765168 18:80.49797 19:54.802256 20:43.587512 21:28.305167 22:16.881795 23:8.3582498 24:5.1733866 25:4.6481643 
1 1:179784.17 2:863.27745 3:972.32514 4:1114.3088 5:742.04609 6:487.38209 7:431.03616 8:449.97579 9:543.18171 10:420.94021 11:286.34196 12:241.71141 13:228.117 14:283.15693 15:213.23452 16:153.0611 17:134.01717 18:105.50036 19:67.648316 20:43.495669 21:26.143781 22:16.345735 23:10.402619 24:5.8159901 25:3.7252901 
1 1:180615.75 2:531.37316 3:655.3891 4:702.66779 5:530.78762 6:520.41892 7:498.94648 8:516.48364 9:522.05275 10:406.56356 11:278.25249 12:283.91393 13:308.3116 14:304.835 15:240.39141 16:207.62381 17:144.37934 18:87.239395 19:83.863488 20:55.899014 21:34.149952 22:19.208756 23:13.77363 24:11.501187 25:8.6692174 
1 1:183619.22 2:821.01147 3:1032.0805 4:1072.1961 5:590.34403 6:443.42898 7:362.83578 8:378.90107 9:481.19905 10:411.47639 11:265.2237 12:237.04294 13:242.58708 14:221.72327 15:173.07965 16:172.39672 17:178.00329 18:114.83321 19:54.585085 20:44.153264 21:25.666119 22:14.631966 23:10.650739 24:6.3145396 25:6.0823699 
1 1:181098.03 2:1020.7068 3:875.45091 4:781.35984 5:526.36652 6:464.50307 7:405.14871 8:391.31584 9:586.14705 10:564.48699 11:317.31189 12:220.56116 13:139.77628 14:179.71385 15:203.74774 16:165.94159 17:141.33067 18:107.20891 19:82.665741 20:60.540692 21:30.572182 22:13.589539 23:11.001243 24:9.06436 25:6.765657 
1 1:181318.42 2:878.86955 3:1115.8267 4:997.01981 5:614.99192 6:568.29335 7:492.09541 8:342.72017 9:426.5121 10:530.90603 11:492.23613 12:334.00966 13:217.25266 14:296.98968 15:314.21325 16:194.62177 17:120.23281 18:110.61412 19:81.605909 20:52.686356 21:40.442469 22:21.161237 23:10.611274 24:6.0622735 25:4.6427982 
1 1:183347.01 2:1111.4813 3:1178.5114 4:1062.2185 5:372.52156 6:458.16257 7:536.68709 8:441.6723 9:442.04589 10:417.96183 11:332.59541 12:248.6243 13:204.25945 14:203.34213 15:199.21792 16:180.37523 17:155.25846 18:117.70656 19:75.780328 20:49.742626 21:29.166153 22:19.301722 23:10.482075 24:6.5293894 25:4.3457902 
1 1:180761.71 2:1250.9442 3:933.00076 4:908.20264 5:634.82988 6:582.27838 7:431.9971 8:399.08186 9:475.1627 10:534.99239 11:330.67121 12:197.67967 13:236.96404 14:287.65507 15:199.91445 16:123.13769 17:129.69994 18:129.50815 19:99.451783 20:54.684448 21:28.54277 22:17.412154 23:9.5942875 24:5.6319484 25:4.8693903 
1 1:180429.91 2:1111.8616 3:918.24405 4:878.7775 5:701.54062 6:502.06266 7:447.77953 8:441.68326 9:393.88778 10:409.64276 11:268.62203 12:181.32156 13:205.90314 14:198.99198 15:170.81265 16:148.85837 17:111.7728 18:92.501727 19:67.657609 20:52.676437 21:42.711762 22:24.138163 23:12.500094 24:7.1133063 25:4.2484085 
