svm_type nu_svc
kernel_type polynomial
degree 3
gamma 1
coef0 0
nr_class 2
total_sv 5530
rho -7.59334
label 1 0
nr_sv 2765 2765
SV
6.316031198707285e-33 1:911184.03 2:2463.1588 3:2732.7843 4:2305.0739 5:1401.7192 6:1297.4987 7:998.51353 8:931.30352 9:1187.8164 10:1053.2465 11:568.92724 12:506.2481 13:399.36008 14:250.71248 15:309.09145 16:274.8048 17:147.96741 18:99.017598 19:82.840617 20:63.99641 21:33.875394 22:15.388932 23:7.6134468 24:5.0140856 25:3.5621864 
6.316031198707285e-33 1:905317.25 2:3184.1502 3:2561.1997 4:1941.3906 5:1142.449 6:1360.9437 7:1290.589 8:921.18888 9:1200.2707 10:1095.3201 11:499.49669 12:458.20868 13:452.91059 14:364.99993 15:335.40155 16:297.37829 17:191.8952 18:131.66169 19:67.700716 20:57.652416 21:43.769796 22:25.542556 23:20.70921 24:23.165259 25:19.74877 
6.316031198707285e-33 1:899498.17 2:2364.8935 3:2623.5636 4:2915.8461 5:1940.6609 6:1620.7921 7:1335.8047 8:1110.6848 9:1069.0204 10:913.0482 11:486.86778 12:405.63678 13:422.7666 14:423.71802 15:464.09948 16:424.15152 17:275.04146 18:142.88681 19:94.161559 20:55.747146 21:25.877938 22:24.065449 23:16.262634 24:5.8968472 25:4.642683 
6.316031198707285e-33 1:893019.1 2:3096.603 3:2841.824 4:2622.7169 5:1854.5824 6:1822.4343 7:1653.5885 8:1240.6659 9:1212.8969 10:983.82723 11:780.67906 12:606.9352 13:551.63796 14:538.88384 15:435.9454 16:351.78496 17:250.97157 18:161.27335 19:115.99254 20:86.365173 21:48.193586 22:21.553996 23:9.6332462 24:8.3840387 25:7.6239738 
6.316031198707285e-33 1:877695.42 2:1777.657 3:1956.7133 4:1616.0835 5:1045.3374 6:1138.5063 7:832.56636 8:721.33818 9:959.73523 10:776.6869 11:425.28416 12:405.59368 13:355.51613 14:529.3883 15:493.6313 16:278.5942 17:140.02151 18:95.466648 19:71.558962 20:65.236821 21:47.084583 22:23.344748 23:12.685626 24:8.6992495 25:6.3309388 
6.316031198707285e-33 1:876773.3 2:1813.1326 3:2532.1118 4:2318.1372 5:1382.0366 6:1200.8338 7:842.5391 8:863.86129 9:1002.0574 10:871.5777 11:548.56382 12:493.38293 13:470.66298 14:418.91067 15:321.03257 16:250.07483 17:168.57377 18:87.205446 19:67.311716 20:48.366543 21:27.678124 22:23.222194 23:13.010942 24:9.5103641 25:7.2641583 
6.316031198707285e-33 1:875963.89 2:2063.8299 3:2667.9905 4:2270.6488 5:1512.5163 6:1331.6048 7:965.15579 8:751.15343 9:1103.4571 10:1036.7044 11:580.56275 12:451.70818 13:320.11648 14:375.18275 15:365.89345 16:287.93043 17:191.66143 18:90.289835 19:53.805194 20:42.544253 21:27.260406 22:19.915813 23:12.612636 24:7.3109444 25:4.3479446 
6.316031198707285e-33 1:869373.22 2:1335.0069 3:2437.6876 4:1945.1378 5:887.63171 6:849.90813 7:779.67656 8:800.68835 9:1046.8345 10:942.62574 11:507.3002 12:413.89951 13:340.81605 14:336.90337 15:302.93889 16:216.66066 17:109.765 18:111.53978 19:90.26655 20:45.055124 21:34.006932 22:30.573469 23:23.830423 24:19.038084 25:18.847687 
6.316031198707285e-33 1:866819.56 2:2035.6026 3:2305.2079 4:2050.1656 5:1146.3655 6:959.29331 7:743.40939 8:664.40846 9:1057.3626 10:886.23959 11:594.96124 12:566.86272 13:319.85673 14:337.08635 15:391.34466 16:315.92284 17:159.13044 18:120.68571 19:80.140225 20:58.070741 21:35.219762 22:24.478797 23:15.00274 24:6.0323676 25:3.6491386 
6.316031198707285e-33 1:864028.49 2:1854.8527 3:2563.7614 4:2291.5383 5:1073.4605 6:1005.6345 7:850.04443 8:720.33624 9:1071.1545 10:942.87107 11:532.48338 12:460.89839 13:327.06517 14:292.37199 15:320.49068 16:267.13746 17:174.13481 18:118.54584 19:84.953982 20:65.809829 21:47.949398 22:28.033501 23:14.933686 24:11.831948 25:10.637359 
6.316031198707285e-33 1:861167.27 2:1257.4754 3:2261.3685 4:1980.8507 5:903.14904 6:651.60705 7:684.18138 8:981.5808 9:1195.4932 10:1084.2484 11:736.85108 12:553.89362 13:341.38394 14:260.13928 15:302.99308 16:249.92741 17:159.11892 18:147.77853 19:109.83238 20:63.746874 21:34.049227 22:15.599012 23:8.4751577 24:8.2483131 25:7.7411201 
6.316031198707285e-33 1:857801.1 2:1480.0053 3:2292.2974 4:1852.3428 5:745.79789 6:885.65103 7:863.30359 8:912.09011 9:1251.7434 10:1072.9255 11:672.11429 12:467.98415 13:319.73608 14:313.71456 15:259.2463 16:219.15213 17:183.45079 18:148.3126 19:105.97655 20:77.150879 21:47.885897 22:20.795014 23:11.972026 24:5.5272961 25:2.9699991 
6.316031198707285e-33 1:854145.94 2:2470.5904 3:2895.4367 4:2192.9658 5:1329.6497 6:1544.9974 7:1407.3149 8:870.14608 9:1214.8571 10:1241.054 11:534.15387 12:367.76034 13:318.13346 14:364.10797 15:410.12288 16:323.40495 17:159.9801 18:109.47318 19:84.915725 20:45.159581 21:24.895715 22:17.236707 23:10.644928 24:5.1531429 25:4.4823816 
6.316031198707285e-33 1:852775.35 2:1875.3825 3:2212.4978 4:2177.7744 5:1233.4327 6:902.45003 7:714.62646 8:845.4099 9:1163.321 10:1122.1185 11:603.66665 12:367.86214 13:385.84986 14:404.24908 15:360.97974 16:287.47739 17:211.27941 18:132.90931 19:96.430986 20:59.192216 21:39.560063 22:26.835253 23:12.549338 24:8.1535876 25:7.229323 
6.316031198707285e-33 1:853199.79 2:1588.5682 3:2570.9922 4:2155.4813 5:987.30615 6:848.43457 7:909.18479 8:881.75047 9:1050.5814 10:1026.2093 11:404.40274 12:298.42395 13:296.13994 14:240.50047 15:303.66124 16:271.78674 17:155.31566 18:98.83384 19:60.506184 20:56.743278 21:36.276125 22:20.41745 23:17.946799 24:16.544914 25:14.976829 
6.316031198707285e-33 1:846113.91 2:1521.029 3:2415.1651 4:2168.6675 5:1003.7221 6:939.73645 7:836.69118 8:759.0701 9:1069.5448 10:916.97113 11:448.97212 12:368.16265 13:272.98073 14:210.74982 15:289.07588 16:305.98553 17:202.3765 18:150.56339 19:82.41074 20:36.458472 21:29.672863 22:18.412533 23:9.2257039 24:7.6912547 25:5.9125252 
6.316031198707285e-33 1:843115.71 2:1567.5832 3:2333.933 4:1958.7162 5:801.22572 6:738.67532 7:783.0045 8:639.64142 9:808.20593 10:789.35906 11:405.33223 12:365.2279 13:311.62922 14:324.70357 15:349.57126 16:252.51526 17:136.43427 18:118.81325 19:86.501541 20:41.934628 21:21.529186 22:14.514415 23:8.1403987 24:5.0086306 25:2.1488563 
6.316031198707285e-33 1:841132.56 2:1314.6502 3:2417.663 4:2075.4559 5:825.41905 6:859.5837 7:673.42872 8:733.15319 9:1183.6281 10:951.42055 11:398.26076 12:346.89486 13:270.95162 14:283.60815 15:360.22536 16:301.41088 17:162.43242 18:94.639494 19:74.040823 20:63.469266 21:38.885213 22:23.46573 23:21.448652 24:21.547375 25:19.839467 
6.316031198707285e-33 1:836036.47 2:1171.0809 3:1880.0218 4:1848.9755 5:803.03711 6:828.70649 7:915.9614 8:844.89586 9:1033.5562 10:777.26043 11:339.07432 12:269.48226 13:268.59825 14:322.39011 15:301.16176 16:194.12241 17:106.30394 18:84.372517 19:70.793465 20:55.362689 21:40.645327 22:22.10156 23:13.567046 24:9.9463013 25:8.2995063 
6.316031198707285e-33 1:833917.13 2:1565.8963 3:2184.264 4:2148.4441 5:1042.868 6:659.76268 7:779.81302 8:800.97676 9:974.82344 10:823.58935 11:347.11965 12:372.50303 13:323.50081 14:235.26986 15:249.22179 16:209.4421 17:137.40005 18:90.289862 19:53.049256 20:34.13379 21:17.594169 22:13.906581 23:11.961889 24:4.5790212 25:2.2385496 
6.316031198707285e-33 1:833584.9 2:1263.1379 3:1947.1137 4:2145.3142 5:933.06654 6:656.66482 7:530.53745 8:546.63649 9:818.77002 10:728.58598 11:363.46389 12:319.6488 13:295.26486 14:259.63143 15:274.86634 16:251.04602 17:148.80072 18:114.55035 19:64.434547 20:39.774702 21:35.019715 22:19.511965 23:14.192912 24:15.478013 25:13.2734 
6.316031198707285e-33 1:826217.11 2:1004.8587 3:2067.5291 4:2093.2027 5:768.85057 6:661.9377 7:621.91888 8:559.75348 9:926.96126 10:836.08071 11:305.97872 12:214.96088 13:202.09296 14:184.31318 15:187.0725 16:228.82416 17:149.60043 18:90.36882 19:77.174255 20:50.823326 21:26.052739 22:27.259124 23:22.572496 24:19.812075 25:18.58808 
6.316031198707285e-33 1:836473.12 2:2103.4158 3:2719.44 4:2291.3886 5:774.90813 6:742.17958 7:790.36771 8:644.28678 9:869.16069 10:713.98697 11:421.04868 12:342.77505 13:172.86315 14:212.52019 15:308.56013 16:257.44203 17:151.06274 18:110.41235 19:71.994173 20:48.880434 21:35.587484 22:32.325346 23:27.242803 24:27.293583 25:26.987967 
6.316031198707285e-33 1:843143.1 2:1702.3983 3:2007.6989 4:1753.0816 5:877.35142 6:840.49071 7:624.60492 8:598.75071 9:899.82685 10:857.0709 11:378.63577 12:275.38624 13:281.00866 14:291.97596 15:302.26986 16:274.55708 17:161.1106 18:92.541084 19:61.718344 20:40.338618 21:25.168802 22:14.500061 23:8.5798263 24:6.1971914 25:4.7891798 
6.316031198707285e-33 1:839786.19 2:1622.6766 3:2612.451 4:2049.9447 5:688.32975 6:766.90036 7:844.06316 8:615.90097 9:931.17871 10:967.45353 11:436.60919 12:309.1302 13:258.02344 14:280.20194 15:344.2215 16:280.74138 17:150.9109 18:84.753918 19:57.818505 20:54.480343 21:32.302827 22:18.496869 23:14.180014 24:11.12235 25:10.611716 
6.316031198707285e-33 1:849275.91 2:1202.5187 3:2083.9079 4:1942.7498 5:824.53381 6:791.31594 7:738.1859 8:621.92379 9:855.25478 10:804.49209 11:305.47072 12:190.84237 13:214.73953 14:204.6189 15:250.32649 16:202.95275 17:97.01352 18:106.87531 19:72.819675 20:28.831802 21:25.066686 22:16.176917 23:7.6970182 24:6.0640205 25:3.7527839 
6.316031198707285e-33 1:849236.08 2:1042.6245 3:2012.6503 4:1927.5341 5:693.18171 6:455.92037 7:514.08974 8:470.58451 9:781.67003 10:703.75899 11:273.54997 12:246.224 13:203.23962 14:217.51544 15:217.21621 16:187.18654 17:115.87535 18:80.308469 19:48.175883 20:33.411335 21:30.26455 22:19.337427 23:8.8121726 24:4.4165156 25:2.8362098 
6.316031198707285e-33 1:850291.97 2:1118.356 3:2028.4328 4:1978.6141 5:790.72185 6:753.81227 7:640.54982 8:500.68854 9:809.90725 10:770.64612 11:360.5273 12:268.92826 13:139.00763 14:161.84422 15:229.76968 16:221.97082 17:129.38637 18:103.97111 19:63.133929 20:43.125164 21:35.444979 22:25.648444 23:19.290066 24:11.363129 25:10.48303 
6.316031198707285e-33 1:854256.12 2:1148.1326 3:1978.553 4:1933.1595 5:766.61549 6:633.76555 7:531.8226 8:498.91665 9:868.66428 10:702.97599 11:348.00885 12:379.84047 13:288.99645 14:281.19877 15:244.39871 16:215.41165 17:140.52634 18:95.701622 19:71.937696 20:43.409195 21:37.55284 22:30.915115 23:21.932883 24:16.801771 25:16.652552 
6.316031198707285e-33 1:857402.86 2:1976.9661 3:2904.9825 4:2285.825 5:952.01912 6:991.68184 7:802.41892 8:498.49096 9:820.67527 10:807.03464 11:365.17006 12:310.92237 13:239.98785 14:224.36927 15:300.5385 16:253.05357 17:133.84962 18:92.451174 19:62.543242 20:42.100885 21:27.254895 22:20.869868 23:17.622796 24:15.251885 25:13.936863 
6.316031198707285e-33 1:853621 2:1172.5629 3:2151.0233 4:2225.3438 5:1031.4852 6:676.76284 7:737.23571 8:771.1885 9:1004.1722 10:919.80257 11:425.93716 12:318.76831 13:234.25214 14:289.6034 15:363.39316 16:238.52218 17:109.57076 18:103.53171 19:66.234474 20:39.965264 21:26.739915 22:19.518549 23:9.8785054 24:5.6385313 25:3.2210994 
6.316031198707285e-33 1:857285.89 2:1304.0323 3:2253.2564 4:2388.9733 5:1113.5338 6:714.27049 7:606.97742 8:590.62435 9:871.92268 10:814.72378 11:325.1545 12:227.95427 13:207.64126 14:201.27973 15:253.01781 16:220.74094 17:149.08481 18:117.84577 19:52.709427 20:33.540054 21:26.703991 22:27.120224 23:26.245395 24:21.916901 25:22.054239 
6.316031198707285e-33 1:858602.99 2:1402.889 3:2158.0716 4:1935.3615 5:585.44358 6:609.53046 7:691.9641 8:482.26383 9:790.26248 10:759.8478 11:330.61332 12:326.83043 13:249.88581 14:170.86299 15:176.7458 16:157.60554 17:90.2386 18:94.002882 19:62.238463 20:42.429167 21:30.226755 22:19.117968 23:10.186034 24:4.540929 25:2.1513955 
6.316031198707285e-33 1:859436.21 2:1554.2768 3:1879.0518 4:1841.5387 5:881.66201 6:616.49219 7:541.4414 8:508.66161 9:871.13778 10:762.84864 11:321.76389 12:307.87614 13:255.36491 14:207.24159 15:208.82883 16:205.89965 17:126.45166 18:93.920805 19:70.20377 20:49.263886 21:33.242939 22:15.487379 23:8.3687974 24:4.9003881 25:4.9559352 
6.316031198707285e-33 1:858806.56 2:1338.4525 3:1975.4657 4:2022.4779 5:843.21121 6:496.24138 7:456.75199 8:509.01002 9:888.8834 10:886.20028 11:426.91558 12:280.44092 13:225.86363 14:255.40091 15:276.01085 16:205.41741 17:97.15128 18:69.988795 19:56.660355 20:36.142763 21:27.554681 22:16.749918 23:10.729503 24:6.6650138 25:4.6234257 
6.316031198707285e-33 1:860283.73 2:956.20935 3:1968.179 4:2018.1083 5:808.87045 6:660.98785 7:482.2343 8:468.40473 9:845.43841 10:814.94606 11:370.69736 12:247.9337 13:189.67517 14:247.68527 15:299.49889 16:183.63292 17:63.723219 18:65.298641 19:47.8094 20:35.125395 21:29.06681 22:16.471568 23:7.6261268 24:3.9025016 25:2.8726214 
6.316031198707285e-33 1:861348.77 2:834.90419 3:1573.0849 4:1570.4917 5:566.132 6:409.53725 7:383.41846 8:456.8421 9:770.53789 10:682.55367 11:291.39228 12:279.38151 13:181.6435 14:212.93027 15:293.29408 16:214.85018 17:96.110209 18:73.505764 19:71.59051 20:40.243586 21:26.828953 22:16.684893 23:7.5294299 24:7.9848863 25:8.6400714 
6.316031198707285e-33 1:862225.9 2:951.75695 3:1877.2102 4:1895.5283 5:706.15704 6:746.41853 7:668.82314 8:539.21778 9:957.25178 10:819.34357 11:336.86198 12:256.57038 13:216.35548 14:225.94615 15:222.11142 16:196.6888 17:107.54965 18:73.528626 19:48.715689 20:33.416857 21:25.264687 22:19.150971 23:10.847963 24:7.1464193 25:5.0799339 
6.316031198707285e-33 1:862011.72 2:1232.5374 3:2161.1203 4:1972.0688 5:561.58483 6:448.98231 7:496.11135 8:464.19983 9:814.11522 10:720.25069 11:214.30395 12:221.64545 13:218.82653 14:204.97769 15:237.31992 16:214.32456 17:136.63017 18:72.890869 19:54.166798 20:49.228365 21:24.176509 22:11.650895 23:6.100092 24:4.7526375 25:4.7939112 
6.316031198707285e-33 1:862064.09 2:1313.754 3:2031.4673 4:1653.2178 5:526.93487 6:419.84425 7:608.37464 8:605.37131 9:822.81313 10:727.63153 11:255.35124 12:250.51248 13:205.094 14:194.48252 15:268.09479 16:217.50257 17:108.17235 18:81.400366 19:54.556531 20:37.48167 21:30.675116 22:18.243008 23:10.899437 24:8.031488 25:5.8699103 
6.316031198707285e-33 1:861974.15 2:778.91804 3:2070.8148 4:2044.548 5:581.79561 6:598.51889 7:693.16347 8:518.42905 9:726.13415 10:735.71696 11:295.78462 12:164.23851 13:182.89613 14:193.47762 15:189.77559 16:175.41567 17:116.36399 18:96.292715 19:52.405916 20:30.338601 21:19.777853 22:16.989769 23:15.205784 24:11.917474 25:6.4896572 
6.316031198707285e-33 1:861896.45 2:1596.2229 3:2589.4128 4:2275.6848 5:911.98211 6:741.66622 7:620.13023 8:421.2812 9:754.93322 10:709.77143 11:240.83727 12:274.40483 13:272.13531 14:207.21482 15:262.95383 16:250.46556 17:140.11197 18:87.495124 19:43.978914 20:30.829429 21:29.917994 22:16.717345 23:6.9295985 24:3.7513935 25:2.2467667 
6.316031198707285e-33 1:863838.86 2:1491.7147 3:2326.2038 4:1981.9911 5:920.3734 6:662.04023 7:605.92399 8:524.2209 9:771.51244 10:700.16621 11:272.58017 12:213.88332 13:228.03348 14:176.17237 15:183.17952 16:171.39072 17:72.706783 18:57.324396 19:54.577335 20:33.259602 21:27.990134 22:22.252415 23:16.594928 24:15.7282 25:11.551534 
6.316031198707285e-33 1:863774.11 2:918.35594 3:1736.2781 4:2019.0916 5:1028.68 6:853.09606 7:713.02492 8:642.35477 9:918.9941 10:746.55666 11:283.56204 12:227.70349 13:216.80098 14:173.91703 15:282.93505 16:269.38188 17:124.32333 18:77.017183 19:52.196549 20:32.13019 21:24.716876 22:19.255099 23:9.5009978 24:6.3651319 25:6.6276904 
6.316031198707285e-33 1:861366.25 2:1360.7204 3:2435.2358 4:2272.1856 5:914.38089 6:780.53057 7:635.39036 8:558.30056 9:902.41443 10:814.52072 11:336.51432 12:294.26498 13:236.22122 14:205.18752 15:270.46642 16:240.78724 17:119.71869 18:81.951349 19:61.084276 20:36.414664 21:21.700649 22:15.071756 23:9.8257472 24:6.6843933 25:5.4342598 
6.316031198707285e-33 1:862668.44 2:1357.9943 3:2045.4887 4:1900.9879 5:706.06267 6:515.77873 7:537.80697 8:618.00087 9:1049.0208 10:1042.1145 11:471.77839 12:352.36438 13:303.58246 14:300.928 15:293.96652 16:231.27751 17:124.18133 18:93.878131 19:56.7689 20:33.689173 21:26.408758 22:16.911696 23:7.9481059 24:7.4989262 25:7.2510807 
6.316031198707285e-33 1:862021.37 2:1269.7689 3:2088.0631 4:1856.6232 5:637.90265 6:548.46513 7:663.18732 8:670.39899 9:941.10468 10:823.84757 11:276.74605 12:245.19478 13:266.53655 14:283.38906 15:304.27072 16:249.86898 17:133.35388 18:101.33088 19:72.333388 20:39.839841 21:33.66542 22:34.503119 23:32.94078 24:30.56144 25:27.699253 
6.316031198707285e-33 1:863590.47 2:2264.5233 3:2767.2389 4:2332.7045 5:980.93982 6:862.78387 7:903.95901 8:837.19979 9:1112.1124 10:968.15544 11:413.14248 12:305.78251 13:263.14025 14:294.3447 15:345.47352 16:273.64399 17:147.75219 18:107.86799 19:76.174889 20:47.988038 21:31.946064 22:29.556536 23:21.104522 24:20.744735 25:20.875482 
6.316031198707285e-33 1:874143.68 2:1199.8819 3:2135.5663 4:1942.3318 5:878.47109 6:618.74783 7:477.01469 8:417.64272 9:889.70469 10:917.80304 11:339.29476 12:257.91052 13:287.14452 14:309.78357 15:264.55892 16:206.37122 17:135.83425 18:85.234292 19:66.426307 20:38.656048 21:19.306247 22:16.813457 23:9.1682231 24:6.1470471 25:5.4786898 
6.316031198707285e-33 1:869595.6 2:1329.8771 3:2023.3153 4:1928.1025 5:854.78683 6:894.84675 7:919.62055 8:688.68235 9:754.04521 10:895.3238 11:550.96887 12:333.72891 13:200.44959 14:199.46994 15:287.35475 16:211.66805 17:85.781513 18:66.48109 19:51.642261 20:36.39584 21:23.648029 22:16.734166 23:13.536952 24:13.655829 25:14.127035 
6.316031198707285e-33 1:871844.99 2:1450.1854 3:2261.7968 4:2332.4235 5:893.73752 6:750.52765 7:799.26965 8:806.20213 9:1122.4769 10:909.11058 11:430.53229 12:299.2375 13:277.17624 14:292.15667 15:301.4878 16:245.43743 17:161.01942 18:110.78819 19:93.235697 20:64.979481 21:29.228112 22:22.201965 23:11.365642 24:7.6405214 25:6.4887683 
6.316031198707285e-33 1:873830.26 2:1702.8298 3:2220.5746 4:2163.3254 5:1008.7882 6:1004.5809 7:775.98898 8:546.58626 9:856.54314 10:875.79739 11:463.81972 12:348.80622 13:292.5694 14:280.15749 15:275.14367 16:190.56985 17:122.7121 18:91.108822 19:59.971573 20:42.297969 21:28.307357 22:17.703925 23:14.899959 24:11.612372 25:9.6425604 
6.316031198707285e-33 1:876438.66 2:2041.5964 3:2601.7843 4:2301.6659 5:931.31959 6:764.26744 7:701.30606 8:533.20827 9:1011.3107 10:936.75816 11:380.16459 12:386.77843 13:374.00207 14:285.6327 15:286.16602 16:223.74913 17:118.2332 18:96.426557 19:83.746876 20:65.422658 21:39.784533 22:23.65998 23:15.523209 24:12.593194 25:12.097353 
6.316031198707285e-33 1:878544.94 2:1627.2213 3:2107.711 4:2177.7337 5:1141.0745 6:809.8389 7:813.84293 8:844.76841 9:1136.866 10:1061.0446 11:581.67772 12:432.02038 13:322.44881 14:283.27745 15:252.24651 16:254.01867 17:132.54112 18:81.800747 19:71.531102 20:56.631924 21:41.977982 22:23.574766 23:19.918487 24:16.157513 25:15.000615 
6.316031198707285e-33 1:873981.7 2:1781.1741 3:2070.3431 4:2003.5693 5:937.39542 6:966.18219 7:793.31332 8:662.94874 9:927.68927 10:972.62145 11:658.55741 12:465.77554 13:285.40612 14:306.50099 15:338.62247 16:290.35045 17:166.39415 18:103.66232 19:68.446187 20:45.121487 21:36.304964 22:24.404153 23:20.649666 24:16.996398 25:14.25217 
6.316031198707285e-33 1:872626.44 2:1163.3464 3:2112.59 4:1916.2031 5:734.82442 6:992.77921 7:917.10864 8:556.927 9:880.94414 10:971.29176 11:565.40524 12:325.35536 13:249.52005 14:301.93421 15:328.36273 16:287.89 17:201.29432 18:137.73985 19:76.942071 20:37.821894 21:33.175109 22:22.004008 23:6.5228427 24:6.5726496 25:6.6202685 
6.316031198707285e-33 1:878773.4 2:4241.0568 3:3060.3115 4:2280.0533 5:1158.4418 6:752.98783 7:734.00616 8:700.46623 9:954.03596 10:893.32616 11:418.99749 12:348.94245 13:195.14739 14:198.21961 15:300.68913 16:217.75655 17:102.71627 18:88.638885 19:73.308971 20:46.168378 21:28.07421 22:15.727357 23:7.4428802 24:5.0709875 25:4.6284385 
6.316031198707285e-33 1:875307.32 2:1314.4064 3:1808.0185 4:2002.9663 5:808.14455 6:676.3767 7:696.59598 8:478.45944 9:888.50315 10:873.5032 11:405.14782 12:310.09053 13:244.75895 14:256.8489 15:263.57437 16:240.48953 17:133.21477 18:91.104509 19:54.962363 20:36.440602 21:25.813572 22:16.466013 23:9.0847314 24:5.690059 25:4.6905243 
6.316031198707285e-33 1:874630.23 2:1089.6406 3:1993.3098 4:1774.5412 5:609.46361 6:613.67073 7:594.60542 8:602.36145 9:941.6824 10:761.56372 11:279.73841 12:293.90574 13:243.18316 14:154.22264 15:185.06922 16:209.26691 17:132.96843 18:96.974768 19:51.435789 20:31.636676 21:28.319497 22:13.850503 23:5.6901716 24:5.5224946 25:3.9799067 
6.316031198707285e-33 1:873831.8 2:1287.0633 3:2214.3166 4:2086.7319 5:782.07044 6:599.80112 7:441.23128 8:436.51953 9:901.23363 10:798.15549 11:304.53562 12:303.45881 13:232.7045 14:182.86403 15:220.26637 16:194.11641 17:103.40509 18:66.386381 19:55.242375 20:36.122255 21:24.068176 22:14.84562 23:5.388699 24:3.3268629 25:2.4073884 
6.316031198707285e-33 1:871332.1 2:989.53349 3:2023.4763 4:1916.4497 5:550.5353 6:501.31137 7:490.11592 8:425.92188 9:755.72152 10:696.66877 11:278.99683 12:213.32029 13:143.99386 14:177.7603 15:231.7124 16:188.47877 17:104.93245 18:85.155643 19:62.664825 20:35.781534 21:20.935469 22:16.65288 23:8.0842331 24:4.5488787 25:2.9005179 
6.316031198707285e-33 1:871070.28 2:1036.8821 3:1952.5984 4:1713.3547 5:568.49904 6:650.44131 7:428.7982 8:481.23748 9:924.32997 10:757.81279 11:334.27007 12:263.22393 13:205.14901 14:233.77176 15:257.98018 16:207.81887 17:96.153084 18:79.684076 19:61.719992 20:41.948404 21:26.824409 22:13.111941 23:6.9195878 24:4.0893462 25:3.286142 
6.316031198707285e-33 1:873080.07 2:1134.3464 3:2083.1273 4:1956.8971 5:662.83529 6:677.58813 7:577.99951 8:543.92698 9:866.1281 10:778.67713 11:353.58839 12:251.20813 13:152.63377 14:205.72817 15:313.51864 16:271.09544 17:88.774385 18:63.937071 19:63.727064 20:40.360719 21:31.362106 22:21.55453 23:14.228574 24:14.48494 25:14.040292 
6.316031198707285e-33 1:875391.81 2:873.34269 3:1450.1444 4:1442.4758 5:659.72264 6:533.37804 7:392.83781 8:366.2367 9:810.8017 10:903.76567 11:433.96318 12:261.96938 13:154.22709 14:128.04282 15:259.73114 16:272.87125 17:111.82609 18:61.101729 19:56.200368 20:41.6317 21:33.745781 22:18.271472 23:7.9143613 24:5.6860851 25:4.393442 
6.316031198707285e-33 1:873312.84 2:1043.1601 3:2028.4516 4:2015.1375 5:790.64442 6:606.24985 7:531.82492 8:418.04874 9:838.58031 10:858.38379 11:345.98651 12:246.13021 13:232.38172 14:200.69712 15:253.66266 16:256.62323 17:113.76776 18:88.214056 19:68.035756 20:33.551744 21:31.416592 22:23.424622 23:10.102715 24:8.9002967 25:8.2331128 
6.316031198707285e-33 1:874080 2:819.92791 3:1914.3793 4:1862.8186 5:822.37086 6:638.17225 7:389.31428 8:398.64234 9:815.78768 10:768.19456 11:321.54618 12:222.47523 13:179.15166 14:154.71274 15:192.37477 16:205.85144 17:113.8831 18:81.705136 19:66.102708 20:46.545665 21:21.515488 22:15.570122 23:10.778359 24:7.5659413 25:7.2674747 
6.316031198707285e-33 1:874935.99 2:869.5029 3:1937.0203 4:1997.4044 5:838.63506 6:822.82537 7:679.86746 8:418.90949 9:715.00719 10:704.6587 11:251.64021 12:221.17516 13:174.60515 14:177.18382 15:239.12665 16:219.78204 17:106.49092 18:70.379501 19:61.19828 20:45.531819 21:30.780419 22:18.191566 23:7.7697067 24:6.0254529 25:4.8531779 
6.316031198707285e-33 1:875139.51 2:692.84876 3:1865.1117 4:1849.5253 5:646.10363 6:613.28896 7:493.63767 8:507.86361 9:920.71212 10:818.78036 11:265.59625 12:176.16897 13:210.41987 14:210.07422 15:222.89847 16:179.47426 17:91.664636 18:81.510831 19:50.486674 20:31.49362 21:25.494611 22:16.693257 23:7.2598151 24:4.4832674 25:5.0429243 
6.316031198707285e-33 1:880414.92 2:1100.7009 3:2349.4824 4:2096.2382 5:761.17513 6:485.47871 7:531.64497 8:478.91596 9:825.45869 10:752.96157 11:350.52126 12:384.45904 13:259.54841 14:190.29124 15:276.94775 16:232.90015 17:126.49564 18:91.511607 19:59.923211 20:38.245233 21:21.810605 22:15.26259 23:10.737146 24:8.573584 25:8.0438023 
6.316031198707285e-33 1:876671.14 2:962.82238 3:1953.8889 4:1958.4252 5:650.22371 6:547.1274 7:504.529 8:564.09413 9:993.76649 10:853.33318 11:350.97345 12:201.79285 13:162.27081 14:190.30317 15:262.83227 16:248.07741 17:92.870615 18:67.001644 19:57.681441 20:35.319858 21:23.274008 22:17.949034 23:10.628411 24:6.7959817 25:4.8643544 
6.316031198707285e-33 1:875677.39 2:964.02009 3:1934.017 4:2063.9358 5:684.91039 6:515.10698 7:472.17781 8:392.42978 9:758.88116 10:641.78158 11:223.74377 12:207.1459 13:206.16655 14:228.75113 15:277.95639 16:226.10851 17:133.36463 18:108.29804 19:65.364027 20:42.098471 21:27.06043 22:15.019149 23:9.7842876 24:5.3284933 25:3.29583 
6.316031198707285e-33 1:875430.17 2:1556.2894 3:1971.2781 4:1676.3109 5:617.30005 6:520.26837 7:659.49048 8:658.64963 9:934.93941 10:856.7083 11:251.37057 12:208.33398 13:240.74669 14:229.71921 15:273.60468 16:219.11089 17:116.59252 18:86.929519 19:49.258925 20:33.633364 21:28.282678 22:20.745977 23:19.608825 24:17.346549 25:16.439147 
6.316031198707285e-33 1:873451.5 2:1366.0749 3:2231.1191 4:1880.9619 5:635.59729 6:848.91092 7:764.17441 8:613.45834 9:996.69933 10:828.92612 11:437.23795 12:363.31872 13:278.84566 14:265.50351 15:330.13477 16:264.88594 17:166.72079 18:138.2381 19:89.845205 20:52.731889 21:34.347781 22:24.100191 23:12.105637 24:12.259585 25:10.890342 
6.316031198707285e-33 1:871784.87 2:2375.2336 3:2887.4689 4:2209.6106 5:1309.8016 6:1292.4219 7:1091.8457 8:1018.7229 9:1162.0955 10:988.6781 11:598.92106 12:510.81081 13:397.66888 14:247.64867 15:254.71088 16:314.17873 17:221.86293 18:114.28595 19:79.434521 20:53.621108 21:30.42456 22:17.903281 23:12.091924 24:9.100261 25:8.1152109 
6.316031198707285e-33 1:874161.1 2:1638.3592 3:2323.776 4:2098.6235 5:839.50296 6:783.30559 7:764.38265 8:570.50001 9:949.85896 10:956.26866 11:421.82624 12:328.77634 13:285.6616 14:257.85556 15:249.66459 16:227.77375 17:113.48769 18:67.250565 19:65.249686 20:49.684906 21:26.498434 22:17.902484 23:8.4922909 24:4.5242169 25:3.1090551 
6.316031198707285e-33 1:872291.76 2:1156.6178 3:2075.8867 4:2274.2766 5:1180.2063 6:981.77708 7:717.59983 8:590.62408 9:1016.7835 10:941.67796 11:456.78166 12:273.80952 13:199.41373 14:189.04895 15:259.30158 16:212.07932 17:71.210101 18:65.876634 19:61.318636 20:53.905692 21:33.227031 22:24.477091 23:25.249945 24:29.690688 25:30.912797 
6.316031198707285e-33 1:867164.18 2:1467.2501 3:2092.8456 4:1828.6639 5:983.57223 6:962.36912 7:738.51546 8:585.65269 9:1091.0325 10:1109.3222 11:540.96029 12:365.82523 13:302.35487 14:269.46987 15:272.9008 16:258.03366 17:148.17536 18:95.663564 19:70.028939 20:46.291997 21:27.201059 22:19.416536 23:11.116949 24:9.3606368 25:8.2773149 
6.316031198707285e-33 1:864566.11 2:1654.1971 3:2491.2545 4:2369.2042 5:1268.4204 6:905.55551 7:791.49159 8:930.41023 9:1304.0439 10:1200.4687 11:777.81313 12:495.89686 13:406.39719 14:465.07239 15:383.20959 16:261.1433 17:163.99654 18:143.41867 19:93.204342 20:46.92917 21:33.405846 22:26.729226 23:10.789494 24:5.7835927 25:5.6930038 
6.316031198707285e-33 1:866963.13 2:1639.2272 3:2431.3485 4:2410.3076 5:1111.1593 6:809.90186 7:945.95274 8:1149.0005 9:1351.3174 10:1279.4484 11:625.67099 12:428.82832 13:454.32716 14:434.50335 15:425.55898 16:330.26726 17:224.38578 18:137.92483 19:78.623224 20:48.681603 21:33.332354 22:24.100476 23:14.673644 24:9.3034478 25:8.2388485 
6.316031198707285e-33 1:866635.72 2:1268.1572 3:2191.9187 4:2125.7283 5:1109.9208 6:767.31455 7:814.44567 8:804.44319 9:1298.8763 10:1415.2758 11:668.68772 12:406.50521 13:310.99461 14:286.26825 15:339.93521 16:281.81885 17:146.31116 18:87.540625 19:64.064011 20:57.336179 21:28.976984 22:9.2594857 23:6.9083207 24:5.4384522 25:4.1344804 
6.316031198707285e-33 1:864357.38 2:1452.0858 3:2559.142 4:2271.9929 5:923.31888 6:694.4301 7:698.51966 8:763.94821 9:1055.1701 10:813.94473 11:355.16451 12:323.77767 13:274.67541 14:232.46028 15:235.45996 16:215.92145 17:103.73652 18:96.950987 19:68.716028 20:38.030087 21:23.929927 22:17.050671 23:8.8016802 24:5.7602622 25:4.5122184 
6.316031198707285e-33 1:866480.31 2:786.3375 3:1820.109 4:1893.5741 5:849.90636 6:922.68625 7:805.4333 8:658.57145 9:1001.1668 10:994.03442 11:548.79893 12:376.79682 13:333.7794 14:325.14252 15:277.71281 16:237.72366 17:153.87694 18:105.36379 19:55.597362 20:34.213159 21:31.877314 22:19.459444 23:7.9580349 24:3.9509312 25:3.4958359 
6.316031198707285e-33 1:865056.51 2:1582.1814 3:2250.201 4:2033.7363 5:743.99339 6:668.69212 7:612.17812 8:551.9592 9:1014.1316 10:954.03011 11:363.64844 12:301.27956 13:256.62682 14:238.71903 15:289.01766 16:258.34985 17:134.9642 18:76.935434 19:56.9741 20:37.840266 21:20.950639 22:17.028349 23:14.489446 24:11.496025 25:9.5946638 
6.316031198707285e-33 1:864768.85 2:1178.3685 3:2193.0787 4:2254.4529 5:1020.5811 6:815.21343 7:759.05021 8:768.00167 9:1078.6753 10:951.40943 11:399.25785 12:300.27992 13:186.59407 14:180.21297 15:265.25542 16:188.16545 17:47.810065 18:76.200321 19:65.084924 20:23.904044 21:27.626482 22:23.198164 23:17.062964 24:15.796803 25:15.365809 
6.316031198707285e-33 1:866655.26 2:1329.6968 3:2167.9994 4:2057.8033 5:845.04387 6:627.14759 7:617.59998 8:562.80479 9:850.51892 10:866.87303 11:393.23166 12:304.13583 13:277.98637 14:208.67801 15:253.22517 16:248.88096 17:130.13108 18:107.07936 19:55.501815 20:34.4782 21:22.331952 22:15.620258 23:10.824825 24:7.0622888 25:6.4074989 
6.316031198707285e-33 1:864158.58 2:1067.5028 3:2160.8087 4:1879.0627 5:550.93513 6:561.9613 7:581.18917 8:616.09221 9:1115.0714 10:995.9407 11:406.4357 12:360.58564 13:296.94763 14:214.89785 15:264.07158 16:240.91784 17:115.22375 18:82.156571 19:53.161351 20:38.498338 21:27.317668 22:17.52272 23:9.555715 24:7.2730519 25:4.8634382 
6.316031198707285e-33 1:864970.26 2:1146.8203 3:2363.5373 4:2177.4882 5:674.8172 6:712.72742 7:676.88026 8:586.29264 9:967.79793 10:957.32816 11:506.62626 12:350.88586 13:310.85406 14:234.24204 15:200.25959 16:191.17179 17:118.6718 18:88.578782 19:54.085819 20:35.984524 21:20.693762 22:12.406326 23:13.644013 24:11.731021 25:10.602598 
6.316031198707285e-33 1:865069.85 2:1426.6213 3:2011.4472 4:1591.3131 5:628.21185 6:719.93602 7:664.70522 8:552.56976 9:1018.9055 10:970.2008 11:367.67083 12:237.32697 13:196.74071 14:195.23587 15:256.70487 16:236.64068 17:119.74196 18:79.397114 19:52.107258 20:40.008863 21:26.033993 22:17.944147 23:9.6958538 24:5.2214033 25:3.1974065 
6.316031198707285e-33 1:864383.44 2:1558.4845 3:2301.7074 4:2445.6807 5:861.31876 6:616.96277 7:694.3111 8:493.9583 9:838.2758 10:783.27148 11:365.03808 12:276.84696 13:201.40091 14:207.44225 15:230.13669 16:211.65961 17:92.110194 18:59.833775 19:55.394464 20:50.618248 21:35.138285 22:23.652927 23:14.508101 24:11.275498 25:11.815922 
6.316031198707285e-33 1:863792.94 2:1454.1061 3:2354.2232 4:2090.9249 5:699.00874 6:540.27882 7:502.82318 8:392.41598 9:854.72758 10:854.06655 11:304.81089 12:184.58039 13:243.19099 14:223.08644 15:246.24733 16:251.61633 17:138.45982 18:92.456562 19:54.89897 20:37.740968 21:23.133143 22:18.033571 23:9.5802976 24:3.8073052 25:2.384584 
6.316031198707285e-33 1:862339.31 2:1066.297 3:2065.4449 4:2012.532 5:631.34409 6:699.68854 7:613.07706 8:480.62223 9:932.00701 10:903.42932 11:293.5653 12:259.78243 13:248.96567 14:210.94606 15:277.51733 16:256.11903 17:139.07104 18:77.927344 19:42.077436 20:43.179555 21:37.582356 22:25.118363 23:19.465803 24:17.340468 25:16.818458 
6.316031198707285e-33 1:860077.43 2:1012.6331 3:2108.7228 4:2257.6964 5:814.60157 6:632.36834 7:677.85043 8:518.73039 9:952.21984 10:919.86665 11:305.83521 12:213.84558 13:198.97032 14:196.86894 15:209.28592 16:177.40022 17:102.57706 18:93.084843 19:54.149853 20:38.427083 21:21.661712 22:11.086088 23:7.7549632 24:3.6662197 25:3.0224432 
6.316031198707285e-33 1:863829.54 2:866.06636 3:2120.7453 4:1934.7766 5:611.53199 6:681.34708 7:656.05778 8:503.16411 9:962.83123 10:896.58866 11:243.06614 12:230.83226 13:234.26824 14:180.44121 15:229.00216 16:185.60051 17:54.733043 18:67.047388 19:75.934618 20:52.792363 21:25.734993 22:18.855386 23:21.999159 24:17.69939 25:15.618617 
6.316031198707285e-33 1:862779.29 2:1189.8589 3:2066.7599 4:1774.557 5:561.34247 6:514.37846 7:397.20965 8:446.74871 9:947.09682 10:904.31815 11:393.94658 12:256.70652 13:134.13442 14:160.30098 15:212.90224 16:224.40209 17:152.37444 18:92.392139 19:60.059506 20:36.163243 21:34.223747 22:17.44721 23:8.2873389 24:6.6143118 25:5.1628003 
6.316031198707285e-33 1:862906.3 2:893.36203 3:2000.0052 4:2094.6568 5:734.67685 6:648.70859 7:554.93199 8:407.28236 9:803.51437 10:806.21475 11:368.37453 12:289.60731 13:206.31893 14:193.25093 15:244.65575 16:197.49128 17:112.90874 18:89.126774 19:44.565411 20:25.491092 21:19.733763 22:14.159633 23:10.325665 24:5.4528619 25:2.9065585 
6.316031198707285e-33 1:862497.13 2:769.13081 3:1873.4401 4:1775.7786 5:564.37831 6:573.99695 7:416.57857 8:402.66522 9:846.86564 10:803.37586 11:287.49412 12:229.66426 13:217.82035 14:142.65943 15:216.88266 16:209.28933 17:83.421913 18:60.031835 19:55.936388 20:38.892024 21:25.822304 22:24.109386 23:16.608539 24:13.257817 25:12.728354 
6.316031198707285e-33 1:864753.63 2:1285.7137 3:2120.7793 4:1901.6279 5:544.56185 6:621.63099 7:552.81684 8:397.80087 9:835.76613 10:786.17864 11:269.26527 12:192.07518 13:176.87646 14:195.72108 15:208.93712 16:158.83896 17:80.120528 18:65.385533 19:47.597568 20:38.347664 21:23.801656 22:16.080677 23:7.4758341 24:3.8035064 25:3.0680686 
6.316031198707285e-33 1:864218.12 2:911.2039 3:1798.451 4:1863.4858 5:582.55564 6:510.07369 7:441.70721 8:348.78779 9:829.26903 10:830.54494 11:268.55955 12:189.87064 13:165.94425 14:195.94335 15:260.3342 16:210.15875 17:102.71379 18:66.288382 19:46.377733 20:33.430645 21:22.170377 22:16.204631 23:8.6305276 24:4.7475179 25:4.8870017 
6.316031198707285e-33 1:864052.06 2:1035.1933 3:2050.9709 4:1941.9104 5:570.67028 6:516.93851 7:430.19655 8:335.05176 9:783.96786 10:761.06273 11:237.69937 12:232.29156 13:208.77187 14:196.8186 15:250.24982 16:214.2185 17:106.74153 18:63.017686 19:36.773094 20:30.498698 21:22.631439 22:16.443718 23:9.6259963 24:5.7708744 25:3.5238556 
6.316031198707285e-33 1:866404.2 2:802.07507 3:1981.0009 4:2023.0237 5:656.68709 6:493.7969 7:441.73865 8:330.30983 9:734.31806 10:771.0009 11:295.03803 12:281.06969 13:241.10831 14:206.47156 15:248.5951 16:198.10095 17:93.880845 18:77.208085 19:56.006583 20:42.329274 21:27.253166 22:18.658507 23:13.204732 24:11.818354 25:9.6647553 
6.316031198707285e-33 1:865265.41 2:844.37096 3:2110.0608 4:2018.4461 5:594.88584 6:670.85883 7:619.54621 8:437.74814 9:709.75117 10:733.23799 11:301.49519 12:246.38921 13:234.39553 14:221.11865 15:283.60821 16:234.23127 17:113.98486 18:73.242967 19:49.692563 20:36.15804 21:24.934058 22:21.089006 23:13.072626 24:8.263311 25:4.7044147 
6.316031198707285e-33 1:862732.49 2:1204.8563 3:1844.1728 4:1834.9769 5:584.69138 6:545.40839 7:598.13745 8:531.42373 9:892.99614 10:828.93484 11:315.39495 12:200.10652 13:132.80697 14:161.25807 15:258.13232 16:190.56337 17:69.319391 18:67.813311 19:60.496269 20:40.991267 21:27.246572 22:19.526307 23:10.070106 24:5.392862 25:5.0896985 
6.316031198707285e-33 1:863110.77 2:865.02312 3:2128.0073 4:2122.7761 5:707.52712 6:581.33482 7:581.83479 8:516.01284 9:884.57608 10:830.95204 11:262.48167 12:210.34911 13:195.20888 14:176.30616 15:237.55249 16:204.40052 17:107.8616 18:78.497874 19:51.709807 20:26.566243 21:21.25498 22:17.03267 23:7.6021975 24:3.841094 25:2.3104482 
6.316031198707285e-33 1:864434.78 2:932.52274 3:2061.133 4:1775.6032 5:381.84549 6:475.58771 7:430.41378 8:349.88029 9:772.81258 10:813.74774 11:356.07642 12:273.82573 13:196.49229 14:167.09745 15:271.55761 16:224.55237 17:74.209446 18:66.263357 19:56.558498 20:43.11696 21:23.338254 22:16.923494 23:13.193248 24:9.7099724 25:7.0660327 
6.316031198707285e-33 1:863582.86 2:913.54585 3:2004.1465 4:1883.9512 5:575.19926 6:553.29835 7:546.44025 8:421.99501 9:913.45055 10:971.97724 11:276.11741 12:165.49818 13:153.36602 14:129.21746 15:214.07289 16:186.98413 17:87.820166 18:69.274158 19:49.853406 20:34.68557 21:21.490031 22:15.500964 23:9.9743541 24:8.2010112 25:5.7295616 
6.316031198707285e-33 1:865654.02 2:1202.177 3:2013.2555 4:1991.4221 5:583.0117 6:478.52297 7:405.19053 8:392.79816 9:835.00669 10:763.1528 11:253.84138 12:189.42978 13:182.48221 14:186.01804 15:222.27035 16:197.79278 17:91.627775 18:64.121606 19:50.294023 20:30.210575 21:14.999712 22:12.372027 23:9.327292 24:4.37068 25:2.5919305 
6.316031198707285e-33 1:864792.84 2:982.20793 3:1965.1246 4:2032.3656 5:623.65811 6:437.56587 7:353.69057 8:386.5316 9:896.75117 10:792.23767 11:258.24595 12:281.97214 13:228.13528 14:203.16958 15:244.76423 16:209.55584 17:107.97941 18:67.281084 19:37.288676 20:38.55704 21:32.196416 22:15.198414 23:11.763376 24:11.202568 25:11.023446 
6.316031198707285e-33 1:861436.4 2:921.96631 3:1867.2765 4:1841.6562 5:458.53774 6:428.64732 7:429.69743 8:383.05808 9:875.64073 10:859.66396 11:284.1879 12:178.69379 13:135.99403 14:144.79817 15:239.40536 16:224.12414 17:84.202939 18:61.823484 19:45.245665 20:32.202747 21:26.264086 22:17.903318 23:10.301602 24:7.4398372 25:5.3101929 
6.316031198707285e-33 1:863442.49 2:1108.4094 3:2039.5694 4:1897.936 5:555.78114 6:533.78291 7:428.38618 8:386.69964 9:866.79072 10:773.33124 11:315.71987 12:265.87061 13:209.51168 14:236.38548 15:263.98655 16:224.32794 17:117.83909 18:87.299771 19:69.547605 20:46.102519 21:38.926338 22:30.978119 23:23.100631 24:23.154039 25:24.973946 
6.316031198707285e-33 1:866174.11 2:708.67885 3:1888.4321 4:1845.077 5:663.22828 6:697.07846 7:583.53055 8:486.21398 9:973.06423 10:815.75847 11:234.66016 12:190.90997 13:174.43187 14:183.2384 15:206.08845 16:216.44253 17:145.65782 18:77.738275 19:48.8853 20:37.38578 21:25.820652 22:21.469813 23:12.953933 24:10.163559 25:10.823164 
6.316031198707285e-33 1:866882.17 2:860.54238 3:1900.1146 4:1838.8394 5:748.87123 6:715.67349 7:587.27069 8:455.30171 9:873.29048 10:876.90378 11:273.1972 12:227.70637 13:199.33109 14:138.37846 15:209.8614 16:211.6805 17:123.0691 18:85.93959 19:45.440906 20:37.052962 21:38.40397 22:23.6575 23:13.783224 24:12.536977 25:12.812253 
6.316031198707285e-33 1:865524.87 2:942.5805 3:1923.3495 4:1804.9932 5:618.74448 6:476.22763 7:375.1941 8:453.12288 9:920.0518 10:777.46671 11:212.96864 12:214.93479 13:199.25521 14:164.91847 15:238.53831 16:218.40998 17:81.805641 18:68.878381 19:48.388805 20:29.510787 21:24.966168 22:15.086633 23:6.0321249 24:4.3409142 25:3.3613052 
6.316031198707285e-33 1:865021.25 2:1027.4856 3:1907.0286 4:1918.1506 5:715.07882 6:699.64316 7:660.6519 8:549.76963 9:857.82459 10:828.10031 11:270.04865 12:182.62969 13:168.57292 14:209.88547 15:304.02102 16:256.50691 17:122.63524 18:69.053903 19:44.62851 20:36.581661 21:29.830264 22:18.875056 23:7.5146919 24:5.4006207 25:3.1156803 
6.316031198707285e-33 1:862133.8 2:1024.346 3:1901.3079 4:1798.111 5:658.72177 6:717.47766 7:619.69496 8:437.00391 9:899.86007 10:789.73911 11:344.32829 12:318.99461 13:205.65381 14:173.54361 15:280.31097 16:271.13087 17:133.33634 18:80.343407 19:52.292238 20:46.404613 21:35.46407 22:26.889522 23:18.746007 24:13.806153 25:12.101945 
6.316031198707285e-33 1:864208.51 2:1128.2958 3:2051.0793 4:1860.6061 5:524.4036 6:660.88473 7:661.33266 8:434.15015 9:827.35464 10:755.21774 11:289.84117 12:343.20876 13:285.04933 14:218.9509 15:265.39228 16:244.0774 17:114.64497 18:74.743014 19:47.441704 20:29.217207 21:27.975852 22:22.747534 23:10.536256 24:6.95789 25:7.8584207 
6.316031198707285e-33 1:864824.16 2:1251.3329 3:1954.1483 4:1777.7591 5:425.34008 6:503.51177 7:507.7383 8:414.62094 9:818.94174 10:806.59269 11:335.74702 12:318.49687 13:228.77469 14:159.63489 15:226.21671 16:183.06332 17:91.34858 18:62.646991 19:48.77234 20:43.395156 21:25.104335 22:16.810094 23:9.8199346 24:4.8306037 25:3.7210334 
6.316031198707285e-33 1:863431.87 2:1113.412 3:2145.8158 4:1868.7685 5:586.61232 6:541.47481 7:547.99911 8:490.54119 9:872.02845 10:838.686 11:331.79579 12:208.73552 13:162.47005 14:170.41717 15:245.39283 16:215.71256 17:86.229338 18:73.517645 19:55.318124 20:26.320918 21:23.83162 22:21.012745 23:11.056241 24:5.5081268 25:4.2466939 
6.316031198707285e-33 1:864332.63 2:1166.3025 3:2333.6107 4:2043.9566 5:701.26779 6:704.09631 7:496.97192 8:454.79511 9:898.29528 10:830.4672 11:318.18627 12:246.52773 13:188.05236 14:182.55381 15:218.24492 16:184.62659 17:110.76987 18:87.647386 19:56.750615 20:40.882037 21:27.17104 22:21.34465 23:15.989421 24:12.028514 25:10.127302 
6.316031198707285e-33 1:863695.23 2:1045.5109 3:2203.6055 4:1981.2703 5:576.64771 6:619.34914 7:467.70404 8:411.15938 9:919.64435 10:860.54118 11:355.94467 12:254.12148 13:210.88616 14:223.12873 15:273.69592 16:236.42948 17:97.295937 18:68.539309 19:52.909023 20:36.859228 21:25.331105 22:18.043194 23:11.678361 24:8.7383421 25:9.0709573 
6.316031198707285e-33 1:862434.25 2:1182.4438 3:2010.1588 4:1762.3133 5:603.88628 6:644.86614 7:518.98677 8:357.31857 9:809.54983 10:789.70606 11:334.46701 12:284.73237 13:233.88227 14:171.6811 15:232.89313 16:211.5804 17:88.450293 18:85.152313 19:59.679235 20:28.843827 21:19.100022 22:12.575272 23:8.9427063 24:5.1514585 25:3.4731068 
6.316031198707285e-33 1:862832.01 2:1362.1004 3:2281.2482 4:2058.8373 5:505.52028 6:475.97273 7:440.0178 8:506.03021 9:982.2047 10:933.49728 11:349.3026 12:228.37514 13:213.21672 14:188.74449 15:260.42906 16:229.34186 17:80.930937 18:79.482672 19:63.918508 20:40.284323 21:22.478652 22:18.028389 23:15.661618 24:10.521986 25:11.749534 
6.316031198707285e-33 1:864006.34 2:804.2287 3:1964.2279 4:1769.3538 5:480.09546 6:438.41615 7:308.29079 8:331.66714 9:832.25472 10:759.16077 11:276.45466 12:216.95716 13:129.45791 14:112.17178 15:227.04409 16:236.20698 17:111.40489 18:89.807818 19:59.996989 20:38.626039 21:29.263886 22:19.870228 23:10.26482 24:6.6201914 25:7.0786927 
6.316031198707285e-33 1:863230.25 2:739.09102 3:1938.9333 4:1872.9393 5:540.6999 6:449.22549 7:390.64121 8:382.37683 9:800.7542 10:729.39264 11:274.17673 12:221.15456 13:212.58714 14:219.91358 15:211.57695 16:173.46739 17:80.609374 18:65.383048 19:65.831231 20:44.715215 21:22.162385 22:12.615313 23:7.3245057 24:3.7191135 25:2.783155 
6.316031198707285e-33 1:862835.96 2:902.20104 3:2113.3096 4:1823.4854 5:543.9892 6:596.88822 7:443.25261 8:295.39622 9:900.34205 10:871.51214 11:292.70666 12:232.76737 13:232.61289 14:179.61977 15:218.43767 16:244.09652 17:123.92733 18:76.834482 19:46.542955 20:43.132372 21:32.333158 22:16.660445 23:10.071942 24:8.3148541 25:7.7287449 
6.316031198707285e-33 1:865289.5 2:1104.6068 3:1927.2468 4:1839.2194 5:516.2616 6:651.57937 7:547.51021 8:332.15669 9:869.92754 10:809.41692 11:292.56338 12:252.49098 13:214.4974 14:208.84696 15:283.07795 16:221.47964 17:100.01686 18:83.170017 19:45.979233 20:33.207187 21:20.660845 22:17.567164 23:10.41733 24:8.6248725 25:7.0888253 
6.316031198707285e-33 1:867201.3 2:1200.6986 3:2096.0554 4:1922.8753 5:526.25446 6:518.86476 7:492.97176 8:494.06188 9:892.03939 10:808.04485 11:363.28044 12:248.43127 13:164.47847 14:200.14426 15:233.48551 16:184.12214 17:89.042464 18:76.833451 19:58.618942 20:34.673152 21:24.552506 22:15.41113 23:8.2068685 24:5.2627942 25:4.1344878 
6.316031198707285e-33 1:864626.15 2:631.50848 3:1788.7827 4:1843.1241 5:552.11521 6:478.67578 7:508.75932 8:408.76433 9:781.59023 10:833.42413 11:329.61118 12:262.37238 13:232.81423 14:199.92244 15:261.42887 16:220.06168 17:110.06596 18:84.177464 19:68.572059 20:36.468702 21:27.108903 22:18.864068 23:9.1466424 24:5.8429093 25:6.7182358 
6.316031198707285e-33 1:867007.84 2:869.54041 3:2057.6174 4:1901.6201 5:528.89883 6:504.60236 7:539.23672 8:483.39872 9:874.51621 10:799.31147 11:279.2048 12:250.9285 13:215.96062 14:204.32341 15:247.46944 16:202.1549 17:101.28089 18:88.188265 19:49.599779 20:34.216662 21:31.754164 22:18.747894 23:10.285529 24:6.0233742 25:2.8418822 
6.316031198707285e-33 1:866444.85 2:1167.2594 3:2291.9827 4:2196.3768 5:621.75861 6:415.55804 7:365.39324 8:402.72523 9:865.10329 10:738.06389 11:278.53298 12:272.96051 13:214.20945 14:211.21839 15:296.62372 16:218.84314 17:70.006428 18:69.762496 19:49.599396 20:40.002856 21:27.604929 22:13.230189 23:10.876596 24:7.2002365 25:7.1430701 
6.316031198707285e-33 1:868340.3 2:1136.4018 3:1921.717 4:1857.7624 5:703.76122 6:651.55748 7:470.18355 8:400.26194 9:821.1628 10:704.30594 11:262.32951 12:249.76503 13:184.5271 14:162.60112 15:258.04352 16:234.81666 17:121.21103 18:103.85493 19:65.432695 20:33.892058 21:19.674403 22:15.396928 23:12.727637 24:11.148995 25:8.6951508 
6.316031198707285e-33 1:866774.35 2:658.00946 3:1901.3759 4:1892.1317 5:523.16171 6:613.3878 7:587.53082 8:494.53484 9:851.27407 10:837.67386 11:331.25797 12:252.46547 13:220.06522 14:177.55223 15:226.15083 16:244.44365 17:111.21866 18:66.324544 19:47.258275 20:24.144512 21:14.588092 22:12.746476 23:7.9144064 24:4.0119491 25:2.1441145 
6.316031198707285e-33 1:868170.69 2:749.67633 3:1879.4288 4:1818.1502 5:562.39058 6:603.68481 7:566.5257 8:472.19177 9:940.78542 10:859.2861 11:300.3273 12:258.2356 13:233.8 14:184.64829 15:215.08216 16:207.79627 17:103.90089 18:66.523799 19:47.844707 20:41.633762 21:27.556109 22:21.357881 23:19.347314 24:18.88585 25:17.347098 
6.316031198707285e-33 1:870391.99 2:882.62132 3:1900.0591 4:1848.2054 5:462.17139 6:468.72199 7:531.03474 8:386.19875 9:824.93497 10:841.06217 11:300.22163 12:253.31373 13:214.1793 14:144.87562 15:188.6701 16:171.46053 17:77.065624 18:68.332517 19:53.390822 20:28.021095 21:20.979832 22:18.461726 23:9.3831894 24:5.6165977 25:4.6112367 
6.316031198707285e-33 1:870913.55 2:1186.5298 3:2044.1865 4:1832.3579 5:491.193 6:419.72192 7:384.79837 8:425.70911 9:841.10473 10:796.53615 11:306.01986 12:175.47623 13:176.09145 14:208.60183 15:248.13351 16:216.71139 17:105.45776 18:61.015339 19:40.695367 20:32.880555 21:25.766592 22:16.459299 23:6.4950944 24:5.0836882 25:3.2083391 
6.316031198707285e-33 1:867499.84 2:1117.1363 3:2176.1993 4:1954.89 5:485.22826 6:528.77354 7:442.5289 8:424.09407 9:809.13636 10:718.5646 11:186.07526 12:107.96854 13:145.74982 14:201.86302 15:235.40593 16:186.14664 17:87.050775 18:71.555772 19:63.93682 20:33.236198 21:26.034296 22:15.413378 23:6.4417671 24:4.5459507 25:3.0635004 
6.316031198707285e-33 1:870034.89 2:1195.0268 3:2024.7289 4:1863.7145 5:563.05198 6:505.52404 7:401.80398 8:302.19866 9:767.61523 10:804.79962 11:292.49934 12:184.05769 13:127.54608 14:148.74158 15:225.28126 16:188.85553 17:75.113453 18:54.352552 19:45.880807 20:41.745504 21:38.147057 22:19.426735 23:7.6882365 24:5.2400243 25:3.6316111 
6.316031198707285e-33 1:870140.21 2:1129.6246 3:2142.0782 4:1848.1114 5:516.64116 6:464.63719 7:460.82172 8:413.47783 9:766.86695 10:741.65219 11:309.53846 12:321.76919 13:206.08898 14:206.71284 15:286.942 16:238.43979 17:103.80789 18:65.349841 19:50.679933 20:26.758162 21:28.189995 22:23.926358 23:13.895205 24:13.951049 25:13.415355 
6.316031198707285e-33 1:871750.95 2:832.07046 3:2019.9839 4:1939.3303 5:487.79754 6:473.246 7:429.34861 8:325.62407 9:921.97605 10:905.04017 11:256.76056 12:118.78711 13:98.090319 14:169.56481 15:252.67541 16:184.24748 17:74.754126 18:64.985192 19:46.041373 20:33.520843 21:26.714082 22:15.600722 23:8.0925658 24:5.9996239 25:5.0373553 
6.316031198707285e-33 1:873336.33 2:671.96841 3:1988.5141 4:1804.5496 5:460.20205 6:468.38878 7:377.48308 8:402.94157 9:944.94489 10:928.17893 11:354.04219 12:242.98347 13:222.50026 14:204.47904 15:256.58819 16:230.05105 17:122.22464 18:85.185935 19:55.395284 20:47.758117 21:33.835448 22:24.877717 23:16.980791 24:12.69177 25:12.686691 
6.316031198707285e-33 1:872123.95 2:673.87703 3:1993.1249 4:1990.8535 5:679.88749 6:628.67021 7:523.06595 8:552.2685 9:1048.6289 10:899.59406 11:336.80599 12:261.15917 13:237.57009 14:243.6574 15:255.51381 16:195.35782 17:71.005324 18:73.169326 19:53.571545 20:38.538343 21:28.686151 22:16.197303 23:8.515032 24:4.5276347 25:2.2368578 
6.316031198707285e-33 1:872192.59 2:933.31609 3:1966.721 4:2034.7261 5:613.12177 6:456.26281 7:349.29789 8:482.12235 9:995.92471 10:849.56598 11:302.11384 12:202.94583 13:200.34917 14:225.90467 15:286.74276 16:250.43224 17:107.47212 18:75.676608 19:57.225558 20:24.580598 21:19.458857 22:15.189261 23:8.4812771 24:3.3835634 25:2.021055 
6.316031198707285e-33 1:872502.26 2:1412.4127 3:2172.3326 4:2011.9018 5:580.21969 6:513.6553 7:365.95225 8:259.51739 9:828.58843 10:834.49743 11:266.76132 12:240.30455 13:181.78495 14:199.97959 15:275.52423 16:239.99898 17:115.84503 18:67.516698 19:50.634746 20:32.988625 21:29.074472 22:21.416393 23:11.148985 24:3.6856964 25:2.6345264 
6.316031198707285e-33 1:873177.32 2:1312.0067 3:2396.2885 4:1986.6162 5:584.86427 6:564.02975 7:497.42672 8:514.44503 9:977.1542 10:815.73368 11:322.88875 12:314.30632 13:187.57953 14:215.09472 15:302.2474 16:230.20113 17:105.49902 18:73.875761 19:66.932716 20:61.012341 21:45.898283 22:29.047329 23:19.173884 24:15.558542 25:15.509111 
6.316031198707285e-33 1:875236.94 2:702.53493 3:2095.1474 4:1996.3538 5:522.47775 6:490.34444 7:431.38617 8:398.35443 9:799.84687 10:777.1313 11:277.20887 12:152.1798 13:161.54011 14:190.98189 15:249.34095 16:254.76313 17:124.10296 18:68.786067 19:58.547753 20:43.099611 21:26.986192 22:13.174794 23:12.934714 24:13.819076 25:13.390551 
6.316031198707285e-33 1:873520.46 2:1064.4451 3:2117.1962 4:2042.534 5:534.83116 6:454.10512 7:403.04703 8:495.20495 9:836.59945 10:744.73313 11:290.17486 12:212.90393 13:139.55561 14:181.83759 15:273.57164 16:227.27976 17:109.27667 18:77.801566 19:65.227796 20:39.01643 21:21.845971 22:15.816683 23:10.205995 24:7.508569 25:4.316783 
6.316031198707285e-33 1:873207.21 2:862.09128 3:1609.1804 4:1637.7136 5:500.12825 6:346.62422 7:307.81721 8:335.84636 9:854.70231 10:838.80719 11:260.82258 12:229.02374 13:213.5018 14:181.12181 15:228.08726 16:219.72018 17:95.398521 18:63.413569 19:57.150284 20:45.260714 21:32.85311 22:23.731447 23:23.664305 24:24.309074 25:26.206792 
6.316031198707285e-33 1:876463.24 2:1114.6808 3:2293.4073 4:1991.2118 5:730.39776 6:709.59059 7:518.77063 8:386.06095 9:743.31952 10:735.19573 11:292.28827 12:287.64902 13:234.4298 14:181.09199 15:235.11212 16:195.99911 17:70.699241 18:55.312029 19:44.034709 20:28.110065 21:22.644079 22:14.35674 23:7.1124568 24:6.2857234 25:4.1884574 
6.316031198707285e-33 1:875003.86 2:1117.203 3:2161.7246 4:1962.2069 5:481.19072 6:445.18025 7:462.73814 8:516.0396 9:906.72528 10:798.4245 11:260.28418 12:190.23679 13:168.43645 14:212.93263 15:280.63923 16:238.70714 17:131.10215 18:87.561774 19:49.58417 20:35.096648 21:27.178564 22:18.277831 23:7.778997 24:4.5939545 25:2.6957121 
6.316031198707285e-33 1:876044.39 2:1329.3534 3:2141.8084 4:1920.0163 5:645.31547 6:439.11355 7:342.03352 8:339.0289 9:804.6564 10:780.09937 11:254.57486 12:233.24779 13:234.76834 14:208.38705 15:259.83111 16:217.00342 17:112.82758 18:88.330439 19:67.405387 20:42.077805 21:26.906669 22:24.208288 23:18.292885 24:16.772956 25:16.918826 
6.316031198707285e-33 1:874265.67 2:1085.8588 3:1912.9645 4:1768.7684 5:685.01362 6:690.85483 7:619.6367 8:528.47102 9:739.0548 10:742.26763 11:318.9633 12:221.66268 13:195.50816 14:206.01879 15:266.13594 16:244.71231 17:100.02334 18:47.674379 19:44.697687 20:44.272204 21:38.45007 22:24.831092 23:14.317022 24:10.119318 25:9.1434881 
6.316031198707285e-33 1:875379.67 2:1286.2021 3:2093.4853 4:1721.3327 5:347.52969 6:340.02281 7:464.43368 8:484.98166 9:876.33985 10:846.94557 11:324.10998 12:204.41519 13:231.6881 14:226.19199 15:181.01881 16:152.65152 17:79.099875 18:70.125764 19:52.12725 20:42.094586 21:34.461529 22:35.548527 23:31.723639 24:29.486121 25:29.146546 
6.316031198707285e-33 1:879534.93 2:973.28113 3:2090.1862 4:1805.1469 5:596.63617 6:580.37778 7:506.05736 8:416.47035 9:661.15062 10:714.82722 11:359.08898 12:289.48503 13:185.44444 14:172.26813 15:279.58147 16:223.88565 17:84.978002 18:73.241658 19:57.468338 20:52.170343 21:40.014725 22:16.7637 23:9.3029913 24:7.485129 25:4.4380094 
6.316031198707285e-33 1:879790.34 2:959.48684 3:1960.1321 4:1751.7732 5:499.1055 6:502.16991 7:386.50173 8:406.43645 9:855.91901 10:794.7487 11:326.70919 12:248.0004 13:181.84099 14:215.84417 15:252.47959 16:179.80653 17:86.253696 18:72.013103 19:50.418115 20:41.177114 21:25.491682 22:12.298737 23:6.3710918 24:3.8639151 25:3.0455751 
6.316031198707285e-33 1:879749.88 2:1024.4071 3:2099.0239 4:1862.1022 5:498.34523 6:438.78414 7:477.86046 8:412.33068 9:800.01287 10:828.08829 11:322.32136 12:226.1781 13:140.56771 14:137.42359 15:205.44262 16:208.17751 17:92.929629 18:56.365063 19:51.447388 20:41.210073 21:32.744922 22:17.422004 23:6.7779379 24:3.9486261 25:2.4250352 
6.316031198707285e-33 1:876694.97 2:772.11135 3:1933.4021 4:1884.8304 5:543.72183 6:438.76171 7:399.55982 8:394.43592 9:869.9784 10:806.91721 11:247.02051 12:175.32681 13:169.34742 14:162.24826 15:214.92818 16:200.71997 17:95.929799 18:88.42514 19:71.471858 20:30.05442 21:26.207707 22:17.779606 23:10.027416 24:8.768231 25:7.6148066 
6.316031198707285e-33 1:878497.84 2:693.19843 3:1903.5066 4:1811.3861 5:525.72065 6:620.51086 7:473.68409 8:332.49715 9:805.12172 10:708.48477 11:268.76987 12:275.39287 13:212.57523 14:191.5671 15:262.53187 16:217.83645 17:105.36259 18:91.251293 19:66.135142 20:40.58011 21:29.478115 22:17.99518 23:12.398569 24:8.4085146 25:7.6506448 
6.316031198707285e-33 1:878742.95 2:712.14226 3:1988.5479 4:1847.8085 5:470.77784 6:386.31877 7:283.5063 8:340.83373 9:807.47823 10:749.71111 11:270.54935 12:206.49913 13:211.3698 14:199.82913 15:200.72 16:155.81899 17:90.182608 18:72.116271 19:49.768119 20:32.833529 21:27.081737 22:20.789515 23:10.205541 24:8.2966446 25:8.655992 
6.316031198707285e-33 1:879205.97 2:683.24699 3:1929.16 4:1804.3017 5:424.21726 6:456.62365 7:458.1966 8:278.57995 9:711.27895 10:811.29283 11:346.72796 12:294.52077 13:224.84452 14:183.34338 15:242.03624 16:191.6785 17:113.81222 18:110.8066 19:65.604245 20:34.885149 21:31.383047 22:23.684394 23:23.209661 24:21.763098 25:19.277119 
6.316031198707285e-33 1:874140.52 2:623.61785 3:1852.6439 4:1773.544 5:404.38973 6:427.78876 7:418.384 8:343.87514 9:760.85367 10:843.49001 11:327.06301 12:167.786 13:179.99411 14:218.23579 15:245.22406 16:175.219 17:75.744171 18:78.249215 19:55.436219 20:36.271503 21:21.922096 22:13.717327 23:7.5176956 24:5.2412569 25:2.7626301 
6.316031198707285e-33 1:875647.12 2:1009.1111 3:2008.4474 4:1733.2064 5:426.15604 6:444.90416 7:492.3107 8:358.7648 9:764.71173 10:788.57776 11:282.57438 12:253.54911 13:246.90792 14:176.10254 15:242.52739 16:224.11864 17:94.474265 18:76.170569 19:52.219226 20:37.159445 21:20.770999 22:17.975713 23:14.979626 24:13.522504 25:12.550024 
6.316031198707285e-33 1:878053.41 2:1032.6027 3:2070.5496 4:1966.2936 5:583.62236 6:489.57368 7:389.33463 8:414.36204 9:923.55476 10:812.70572 11:263.51439 12:258.44485 13:206.80718 14:162.333 15:248.12108 16:236.97753 17:90.599744 18:62.062861 19:37.511788 20:28.343394 21:23.656585 22:16.832315 23:10.990911 24:5.2800301 25:2.5056544 
6.316031198707285e-33 1:878902.83 2:1138.7958 3:2017.757 4:1873.85 5:502.10084 6:280.30694 7:285.06256 8:415.4124 9:969.66872 10:957.5863 11:336.01158 12:200.57437 13:230.68519 14:228.50006 15:237.66792 16:211.63809 17:97.917666 18:79.239445 19:54.73339 20:37.894399 21:30.582048 22:23.738842 23:13.120884 24:8.6649757 25:8.0158444 
6.316031198707285e-33 1:879223.73 2:870.61106 3:2151.0759 4:2015.7478 5:510.17482 6:523.44625 7:499.29664 8:415.16655 9:874.34889 10:836.8741 11:293.88978 12:189.65662 13:175.97501 14:174.77404 15:215.99666 16:206.00319 17:86.817553 18:54.661653 19:52.204983 20:43.73499 21:25.718594 22:13.598297 23:8.4847389 24:5.0953431 25:2.4860659 
6.316031198707285e-33 1:880607.26 2:763.43038 3:2024.3002 4:2013.3488 5:603.30126 6:409.8359 7:367.40843 8:271.37941 9:702.84768 10:729.61219 11:249.61511 12:192.27633 13:147.05631 14:197.07475 15:283.62492 16:226.55062 17:116.82155 18:78.72358 19:50.61266 20:35.841031 21:25.516566 22:21.585252 23:11.108366 24:7.7456175 25:10.284388 
6.316031198707285e-33 1:878547.02 2:506.42563 3:1814.3271 4:1725.8594 5:488.22657 6:522.11659 7:448.20436 8:291.56628 9:675.76569 10:661.54602 11:221.42342 12:265.38518 13:236.53097 14:207.28195 15:280.28892 16:221.18055 17:110.71641 18:88.767441 19:61.423519 20:38.996122 21:21.404414 22:17.772541 23:8.8534367 24:3.4922331 25:2.3767097 
6.316031198707285e-33 1:879381.35 2:877.25008 3:1916.4203 4:1807.8816 5:503.0135 6:433.84299 7:396.19166 8:349.98481 9:745.03983 10:715.43079 11:208.02406 12:169.10652 13:169.33297 14:172.48251 15:264.00881 16:219.63086 17:98.647086 18:70.502206 19:43.823449 20:31.510327 21:23.633682 22:16.996875 23:7.058467 24:3.8901623 25:2.1426832 
6.316031198707285e-33 1:882703.69 2:1138.3477 3:2061.4299 4:2023.7656 5:619.82613 6:512.68587 7:432.77414 8:349.36256 9:802.80952 10:796.30413 11:242.98197 12:209.61216 13:235.69243 14:195.80636 15:223.67392 16:180.67434 17:86.0864 18:79.24958 19:52.807021 20:36.947458 21:25.292695 22:19.091983 23:7.2119024 24:5.4005228 25:4.7589003 
6.316031198707285e-33 1:879506.66 2:754.80506 3:1787.9736 4:1773.2044 5:565.12048 6:452.74727 7:368.04719 8:344.03974 9:843.38264 10:744.28364 11:204.66359 12:223.35426 13:203.36572 14:159.74644 15:175.65449 16:184.81207 17:94.718472 18:84.940369 19:77.868053 20:41.086839 21:24.925495 22:17.146442 23:11.064527 24:11.91091 25:10.769311 
6.316031198707285e-33 1:881681.61 2:898.48405 3:1853.9952 4:1651.7723 5:346.79549 6:458.75531 7:435.26629 8:315.60755 9:749.8854 10:782.10963 11:275.76608 12:202.6808 13:156.92644 14:134.174 15:209.14696 16:192.96507 17:89.501186 18:85.863686 19:59.86403 20:41.560072 21:31.256035 22:21.361773 23:9.3645024 24:7.6523124 25:6.054065 
6.316031198707285e-33 1:882678.29 2:797.33122 3:1801.7815 4:1916.9083 5:596.07298 6:488.25728 7:466.13081 8:388.12727 9:832.67381 10:856.39845 11:266.40746 12:247.11059 13:225.26015 14:173.05493 15:222.60016 16:175.22438 17:80.268764 18:68.934734 19:51.750069 20:44.604927 21:24.134561 22:14.092276 23:8.194304 24:5.5777583 25:3.189366 
6.316031198707285e-33 1:880966.92 2:739.25284 3:1747.678 4:1652.8748 5:489.18455 6:432.47569 7:393.232 8:385.08077 9:777.78179 10:740.50338 11:314.52299 12:225.03233 13:177.37528 14:187.30155 15:251.56095 16:204.49268 17:78.957086 18:75.489764 19:56.826981 20:33.321955 21:27.542656 22:23.550547 23:13.688386 24:11.16628 25:9.6852249 
6.316031198707285e-33 1:881945.38 2:1038.3692 3:2216.4701 4:1774.2702 5:510.72226 6:476.1911 7:401.89765 8:332.70808 9:691.45904 10:701.37168 11:274.80224 12:178.04942 13:144.30089 14:152.25632 15:204.6626 16:199.4419 17:83.493436 18:67.422355 19:71.309034 20:47.499836 21:33.097691 22:25.33194 23:17.284467 24:17.390665 25:16.094548 
6.316031198707285e-33 1:882401.16 2:866.04549 3:1988.2902 4:1929.4843 5:517.27028 6:389.34844 7:468.03493 8:452.02983 9:801.97866 10:830.04388 11:286.55029 12:170.49 13:195.01877 14:200.20168 15:241.60125 16:213.20531 17:109.04762 18:90.104384 19:47.837975 20:26.625905 21:21.946735 22:13.879374 23:8.0070551 24:4.1518792 25:2.2208171 
6.316031198707285e-33 1:884041.73 2:862.57722 3:2242.4946 4:2097.1923 5:567.20506 6:470.98709 7:490.59895 8:498.91318 9:856.19387 10:790.56578 11:316.32818 12:206.77923 13:180.46709 14:201.87032 15:247.59238 16:211.4218 17:117.07604 18:84.238185 19:51.609191 20:34.491657 21:23.286097 22:14.572342 23:7.9667786 24:4.9259605 25:2.9614941 
6.316031198707285e-33 1:885418.5 2:842.55437 3:2076.7464 4:1879.5386 5:676.46948 6:602.89978 7:532.54613 8:498.98715 9:849.10184 10:707.36504 11:269.56814 12:266.81519 13:188.81513 14:172.29366 15:211.28304 16:191.53184 17:95.426642 18:75.054361 19:72.585614 20:43.077743 21:23.595053 22:20.095608 23:9.4316908 24:6.2554825 25:6.9590527 
6.316031198707285e-33 1:882225.96 2:937.2181 3:1923.3098 4:1954.9486 5:615.0196 6:571.64239 7:547.67479 8:598.09661 9:939.06909 10:686.77682 11:227.0191 12:220.99237 13:129.35901 14:144.10076 15:241.93001 16:219.26962 17:100.54112 18:67.18567 19:50.268078 20:36.365863 21:25.765378 22:18.960969 23:13.000388 24:9.8364762 25:12.529505 
6.316031198707285e-33 1:884648.48 2:854.88665 3:2028.983 4:1848.1019 5:476.11002 6:684.96382 7:646.85856 8:410.802 9:844.42101 10:760.17811 11:304.07133 12:273.42245 13:244.42745 14:177.58398 15:262.79269 16:284.26517 17:103.77934 18:73.969507 19:56.844367 20:36.347905 21:24.341309 22:14.176113 23:8.6628619 24:8.1967108 25:9.2857573 
6.316031198707285e-33 1:883872.44 2:1015.1305 3:2138.3249 4:2084.6279 5:623.97057 6:581.50079 7:498.49851 8:411.29658 9:802.1145 10:750.89339 11:235.49158 12:201.44063 13:169.83404 14:242.38884 15:296.7741 16:211.37403 17:115.47704 18:77.876348 19:50.286557 20:35.249203 21:22.550006 22:17.449379 23:13.043249 24:11.533442 25:10.119899 
6.316031198707285e-33 1:883578.25 2:1135.2813 3:2039.8236 4:1836.4566 5:430.48327 6:391.16668 7:358.17308 8:387.31374 9:870.13898 10:773.26233 11:237.09919 12:213.85683 13:153.2317 14:134.8292 15:187.56877 16:183.45754 17:111.47887 18:91.553372 19:59.297373 20:35.037984 21:21.896757 22:12.628838 23:7.7731987 24:4.171468 25:2.3401403 
6.316031198707285e-33 1:886364.42 2:760.22676 3:1855.3007 4:1848.7888 5:521.4149 6:440.95252 7:360.13879 8:298.69441 9:710.74383 10:713.00874 11:298.53448 12:281.51378 13:215.25492 14:194.61491 15:227.26843 16:183.15446 17:95.576594 18:82.316552 19:51.985083 20:36.044941 21:27.04343 22:14.720823 23:6.1195226 24:4.4313055 25:3.1103747 
6.316031198707285e-33 1:883767.78 2:817.97911 3:1815.3743 4:1826.8243 5:598.79033 6:536.38105 7:314.73343 8:243.74394 9:762.80704 10:719.63817 11:169.91726 12:146.7128 13:188.03235 14:232.80291 15:271.91515 16:194.90285 17:94.661449 18:99.972976 19:63.580701 20:35.570422 21:26.312094 22:19.142106 23:8.9905269 24:5.9593627 25:6.3023168 
6.316031198707285e-33 1:885170.43 2:855.4844 3:1694.1072 4:1651.369 5:392.06295 6:464.92528 7:498.19136 8:366.86594 9:730.84499 10:730.72263 11:258.32544 12:219.86524 13:208.86479 14:166.71173 15:231.57429 16:222.1049 17:111.2784 18:102.46951 19:73.275768 20:44.509973 21:30.931347 22:11.159124 23:6.10089 24:4.5570322 25:3.2772794 
6.316031198707285e-33 1:887899.54 2:1040.3497 3:1956.5512 4:1838.2184 5:480.75728 6:473.36261 7:406.27019 8:401.20462 9:936.0674 10:763.27339 11:223.79728 12:222.69947 13:195.07936 14:257.11405 15:333.72437 16:237.62395 17:84.395205 18:78.705481 19:60.809842 20:39.969898 21:27.485509 22:13.953336 23:7.3037139 24:7.9445594 25:7.3800119 
6.316031198707285e-33 1:886481.92 2:945.277 3:2099.1012 4:1978.1351 5:735.36608 6:782.15115 7:824.82446 8:761.71343 9:1067.3144 10:845.70604 11:288.68945 12:240.57802 13:313.75188 14:320.57747 15:378.99024 16:392.91702 17:201.80136 18:100.53158 19:74.257343 20:51.062731 21:29.144849 22:16.996818 23:7.5412204 24:4.765878 25:2.483627 
6.316031198707285e-33 1:888682.83 2:870.6624 3:2151.7378 4:2175.2909 5:699.86768 6:610.17383 7:597.80072 8:396.36449 9:864.42757 10:874.49159 11:343.50715 12:303.78246 13:282.36217 14:240.44871 15:246.25435 16:209.82451 17:135.19982 18:107.58184 19:71.684187 20:48.149291 21:31.39729 22:17.609852 23:10.414555 24:11.387813 25:12.280793 
6.316031198707285e-33 1:886954.96 2:965.19944 3:2099.4573 4:1852.5831 5:647.56637 6:584.08466 7:551.72678 8:514.83562 9:934.36307 10:863.47737 11:379.27907 12:385.75941 13:307.72157 14:273.35184 15:317.29785 16:258.9166 17:139.74504 18:123.87131 19:68.978944 20:35.046446 21:25.124581 22:13.468794 23:8.8951609 24:6.5912071 25:5.3523717 
6.316031198707285e-33 1:888974.02 2:1270.7264 3:2226.2165 4:2010.367 5:627.11949 6:671.85984 7:603.70264 8:499.32323 9:1073.2408 10:1150.696 11:457.6899 12:309.36898 13:273.97158 14:231.38432 15:256.91861 16:230.91632 17:154.38193 18:111.59032 19:65.464563 20:51.192421 21:33.279603 22:20.025056 23:9.4154166 24:4.3099879 25:2.2166687 
6.316031198707285e-33 1:890653.46 2:963.76582 3:2137.0822 4:1994.4167 5:550.59859 6:708.88169 7:758.37151 8:550.05594 9:985.64446 10:941.11933 11:418.54691 12:354.89943 13:223.99659 14:195.97954 15:333.69472 16:301.57474 17:157.40093 18:136.04114 19:100.96465 20:44.23725 21:24.612691 22:17.745773 23:7.5468642 24:8.3271614 25:7.5350798 
6.316031198707285e-33 1:888860.12 2:888.1183 3:1948.3574 4:1917.568 5:771.61615 6:780.35428 7:609.25231 8:390.93064 9:870.47722 10:881.52619 11:430.67294 12:364.19696 13:207.28134 14:184.99825 15:305.5759 16:263.55657 17:102.20344 18:80.713899 19:59.063521 20:37.227207 21:23.620992 22:16.645162 23:10.338039 24:8.7386337 25:6.5070949 
6.316031198707285e-33 1:892093.21 2:1225.121 3:2162.6056 4:1963.1456 5:617.40462 6:691.89071 7:738.77952 8:631.416 9:1057.9352 10:986.42033 11:393.70714 12:248.74743 13:259.45361 14:327.79592 15:343.64679 16:247.025 17:95.491231 18:88.6701 19:62.459742 20:37.281661 21:18.057 22:12.843664 23:8.8988384 24:5.2851189 25:3.1898901 
6.316031198707285e-33 1:889905.94 2:1350.9182 3:2150.4586 4:1928.3643 5:731.83237 6:779.38721 7:704.52645 8:517.83725 9:939.3878 10:973.39201 11:466.64975 12:364.48888 13:362.45798 14:333.8473 15:322.67395 16:277.36046 17:117.80206 18:79.792247 19:67.235732 20:43.90278 21:30.080702 22:22.849842 23:10.972335 24:6.4467936 25:6.0669306 
6.316031198707285e-33 1:889773.56 2:1242.6262 3:2319.0512 4:2123.5563 5:755.61872 6:528.6791 7:444.87807 8:437.23351 9:809.63727 10:876.04913 11:438.27668 12:322.91647 13:246.08409 14:228.88212 15:296.64776 16:242.46028 17:141.875 18:99.36628 19:49.255004 20:30.465996 21:24.336346 22:22.255784 23:11.5832 24:5.0457533 25:2.4648158 
6.316031198707285e-33 1:891861.61 2:983.09141 3:2150.408 4:2129.0338 5:685.63578 6:545.41572 7:586.13767 8:565.91216 9:966.4767 10:833.46761 11:376.70504 12:401.16573 13:307.70055 14:240.37937 15:270.34771 16:231.31547 17:109.39343 18:104.35983 19:74.15449 20:36.138004 21:24.449672 22:21.043114 23:20.776761 24:21.785089 25:19.729407 
6.316031198707285e-33 1:894280.78 2:1262.0966 3:2332.2818 4:2166.6095 5:643.2647 6:443.97322 7:415.86138 8:389.33347 9:936.38588 10:904.86206 11:391.35823 12:393.69107 13:283.02499 14:191.73531 15:208.07419 16:191.51647 17:115.53572 18:100.97132 19:54.802757 20:30.843753 21:28.948539 22:19.571125 23:6.3935887 24:3.991373 25:3.2363573 
6.316031198707285e-33 1:892877.14 2:1160.2523 3:1748.2462 4:1829.6084 5:865.17066 6:685.87107 7:639.297 8:533.97373 9:892.77983 10:855.37087 11:431.44172 12:429.33895 13:310.51673 14:285.76298 15:301.73011 16:257.62074 17:140.56465 18:92.011727 19:66.953772 20:52.734567 21:38.499112 22:24.06538 23:17.258922 24:16.273849 25:14.739281 
6.316031198707285e-33 1:892458.99 2:807.62753 3:1990.9316 4:1956.4589 5:755.55045 6:685.73354 7:576.05502 8:526.31348 9:919.27604 10:856.28552 11:259.65289 12:211.06315 13:233.07169 14:246.64553 15:344.50909 16:289.88992 17:122.85283 18:81.297994 19:65.693774 20:48.860246 21:22.262594 22:12.05471 23:8.8288951 24:6.2647454 25:4.3011947 
6.316031198707285e-33 1:892346.71 2:1036.317 3:2140.3949 4:2143.5235 5:738.30187 6:517.38832 7:444.27776 8:341.24299 9:816.75153 10:947.51489 11:429.28947 12:253.48743 13:230.11132 14:218.86207 15:208.62245 16:197.46181 17:117.81415 18:113.6524 19:71.084831 20:39.132436 21:36.794228 22:19.166608 23:10.174051 24:7.9227779 25:9.1545696 
6.316031198707285e-33 1:889483.83 2:829.86723 3:2009.2268 4:2078.3557 5:761.25827 6:566.12311 7:346.7252 8:466.21636 9:907.45219 10:838.06149 11:300.36253 12:214.10365 13:250.8348 14:234.47243 15:224.93308 16:206.16372 17:128.48088 18:82.536374 19:45.992937 20:32.937869 21:26.013379 22:14.902143 23:8.1152731 24:4.4884365 25:2.1641002 
6.316031198707285e-33 1:890576.17 2:1084.0454 3:2099.993 4:2012.7611 5:574.69757 6:446.86154 7:430.47536 8:375.8371 9:827.49353 10:825.91541 11:336.92619 12:235.03794 13:159.20243 14:160.86071 15:257.6156 16:234.55513 17:114.37558 18:90.420762 19:57.584292 20:51.425855 21:34.187575 22:18.009785 23:10.967831 24:8.6745399 25:7.3267573 
6.316031198707285e-33 1:889361.47 2:1175.8756 3:1993.5536 4:1978.5448 5:633.42984 6:583.10536 7:493.65756 8:423.05014 9:864.74678 10:767.5754 11:208.32648 12:294.41935 13:265.95723 14:185.54018 15:228.0471 16:189.38776 17:102.54851 18:66.436663 19:46.716598 20:25.825828 21:23.46471 22:21.828537 23:8.6367304 24:4.0279881 25:3.6217533 
6.316031198707285e-33 1:891426.41 2:906.25561 3:1923.1752 4:1810.6058 5:606.03781 6:543.49774 7:492.94987 8:372.05548 9:810.43476 10:822.36082 11:217.42744 12:175.26696 13:210.71614 14:178.68436 15:180.43319 16:167.12518 17:91.472334 18:77.954889 19:40.176612 20:27.895434 21:26.364255 22:15.937899 23:6.6397251 24:6.8905593 25:4.9258022 
6.316031198707285e-33 1:888735.77 2:1177.8506 3:2172.9973 4:2083.7611 5:676.87342 6:470.51168 7:393.59543 8:395.56401 9:871.17816 10:806.88726 11:232.56954 12:209.15652 13:184.17012 14:121.79926 15:206.59548 16:201.22438 17:92.743737 18:79.469787 19:60.961204 20:46.154849 21:27.209329 22:16.900417 23:13.922979 24:13.285519 25:12.775714 
6.316031198707285e-33 1:888296.88 2:1283.8531 3:1993.8965 4:1891.9288 5:746.31639 6:772.55566 7:627.66053 8:470.42436 9:835.82905 10:879.19798 11:443.50284 12:262.33281 13:268.06485 14:285.59876 15:226.66256 16:188.70642 17:99.150072 18:72.886234 19:51.448623 20:41.491822 21:26.598921 22:19.028607 23:13.55002 24:10.259651 25:9.5975147 
6.316031198707285e-33 1:885866.34 2:848.31965 3:2261.4178 4:2324.9667 5:1060.0727 6:876.82138 7:680.27668 8:643.21351 9:1024.024 10:973.73202 11:382.51199 12:262.71782 13:301.86149 14:259.26447 15:246.67099 16:234.92819 17:109.81961 18:92.540945 19:65.218069 20:43.070749 21:26.64886 22:23.777236 23:21.346036 24:18.987141 25:17.350983 
6.316031198707285e-33 1:884653.77 2:885.7271 3:1846.3871 4:1949.8747 5:704.40011 6:614.51809 7:775.41219 8:706.40695 9:978.07844 10:938.08968 11:391.87795 12:270.64378 13:317.41986 14:268.37973 15:228.60256 16:208.85724 17:91.780065 18:71.733027 19:57.506138 20:45.476947 21:29.958452 22:18.981827 23:10.888298 24:7.2572965 25:5.6250559 
6.316031198707285e-33 1:886824.18 2:1045.5264 3:1838.6965 4:1817.2446 5:776.79345 6:699.21758 7:503.54973 8:470.09062 9:985.90335 10:938.10671 11:333.87264 12:241.22455 13:220.29858 14:139.14513 15:215.85346 16:236.72029 17:125.71257 18:101.73456 19:69.164248 20:36.493536 21:37.549465 22:30.160404 23:19.626293 24:21.022842 25:20.577065 
6.316031198707285e-33 1:882863.24 2:981.82234 3:2146.3974 4:2180.4647 5:709.93014 6:464.03587 7:392.11398 8:495.61657 9:890.59502 10:763.67175 11:282.99516 12:203.14559 13:175.92293 14:206.46365 15:246.68119 16:199.81007 17:95.64595 18:57.72645 19:59.257558 20:47.165278 21:20.783934 22:14.41751 23:6.3029039 24:4.7544713 25:3.7011465 
6.316031198707285e-33 1:886648.21 2:1446.392 3:2137.0802 4:1922.4391 5:608.98838 6:598.06642 7:546.95313 8:497.46355 9:867.46255 10:738.80168 11:247.39305 12:242.61184 13:245.35712 14:258.04593 15:276.73939 16:216.03891 17:105.51693 18:80.578081 19:53.893784 20:39.907027 21:41.731304 22:36.966604 23:32.963673 24:29.4461 25:29.600129 
6.316031198707285e-33 1:889172.53 2:828.38451 3:1783.8432 4:1800.7457 5:668.17662 6:665.6136 7:545.66532 8:412.74051 9:790.94555 10:745.39767 11:357.48414 12:255.32801 13:223.5753 14:255.16306 15:242.16045 16:203.62674 17:109.38166 18:102.03408 19:97.553901 20:58.556889 21:26.804804 22:13.732765 23:9.5951681 24:7.1048648 25:5.7395465 
6.316031198707285e-33 1:887641 2:915.64002 3:1983.2711 4:1994.7989 5:677.69452 6:393.24376 7:420.79063 8:455.82821 9:862.46486 10:916.58986 11:416.63811 12:313.90376 13:271.11695 14:197.39037 15:262.67435 16:259.38841 17:126.39432 18:90.006767 19:63.719648 20:50.844749 21:35.848269 22:21.751305 23:8.5135698 24:5.1416259 25:3.1656348 
6.316031198707285e-33 1:889533.78 2:1092.3681 3:2060.8798 4:1928.9141 5:626.77222 6:552.41684 7:524.81453 8:492.07312 9:936.93147 10:912.22035 11:311.20593 12:282.12712 13:236.95649 14:182.10682 15:284.07366 16:230.46474 17:92.631091 18:67.503432 19:45.04835 20:38.261248 21:34.567947 22:21.443037 23:13.017199 24:13.394985 25:13.728078 
6.316031198707285e-33 1:888276.3 2:653.64073 3:1711.1341 4:1849.0124 5:634.18875 6:629.96081 7:541.42402 8:368.37673 9:838.3586 10:776.56282 11:243.19219 12:194.09841 13:181.90678 14:210.49776 15:253.21367 16:212.75674 17:107.61616 18:71.818634 19:59.87055 20:42.426179 21:26.165863 22:16.20061 23:10.325961 24:8.4045829 25:7.9249597 
6.316031198707285e-33 1:889539.12 2:1188.7519 3:2082.617 4:1976.0903 5:570.51752 6:765.53474 7:797.8491 8:533.77519 9:893.56197 10:793.38305 11:257.71041 12:232.39843 13:219.59075 14:191.96889 15:229.96642 16:234.48815 17:117.79439 18:80.408494 19:49.263889 20:39.010936 21:33.24654 22:22.210374 23:9.2946327 24:5.5338469 25:3.908053 
6.316031198707285e-33 1:888822.34 2:975.53014 3:2042.2086 4:1834.577 5:405.40274 6:327.91328 7:414.30641 8:517.36677 9:873.52779 10:804.5072 11:285.48368 12:193.31037 13:191.99231 14:215.48451 15:296.03238 16:258.38962 17:116.81433 18:79.468445 19:35.86998 20:23.127915 21:31.001293 22:21.480308 23:9.6986997 24:9.3466825 25:9.4184439 
6.316031198707285e-33 1:891289.32 2:886.69369 3:1891.1856 4:1789.6706 5:543.2673 6:617.94458 7:643.83966 8:402.24751 9:788.8901 10:820.18682 11:308.73533 12:223.88979 13:193.79298 14:228.76163 15:278.22428 16:204.41619 17:105.19954 18:76.824886 19:51.132708 20:44.630543 21:27.313232 22:20.383984 23:11.515521 24:10.234848 25:12.618373 
6.316031198707285e-33 1:892802.15 2:1007.082 3:1926.4821 4:1892.1134 5:597.57099 6:450.05484 7:452.8655 8:438.23307 9:853.39371 10:859.78425 11:336.4868 12:251.36609 13:249.95028 14:210.06085 15:236.91497 16:243.80526 17:156.20517 18:110.26049 19:69.22781 20:49.901657 21:22.22398 22:14.055696 23:7.4672778 24:6.1046561 25:6.5995023 
6.316031198707285e-33 1:891240.29 2:962.15564 3:2064.573 4:1774.6582 5:461.83451 6:430.65297 7:360.55231 8:348.28176 9:784.03025 10:740.23083 11:228.58482 12:192.8461 13:210.25212 14:228.56814 15:244.44875 16:179.33494 17:83.540509 18:80.023535 19:64.216874 20:45.72101 21:29.62189 22:18.863969 23:15.866353 24:13.835953 25:12.469362 
6.316031198707285e-33 1:892659.54 2:922.42432 3:1958.4289 4:1797.0708 5:399.91936 6:408.61971 7:441.67814 8:345.2912 9:799.04279 10:825.9934 11:356.69152 12:237.14984 13:146.89599 14:173.16548 15:244.55817 16:197.4254 17:108.31612 18:116.85662 19:69.86143 20:44.748582 21:31.955219 22:22.617125 23:13.99274 24:14.181884 25:14.64987 
6.316031198707285e-33 1:894705.33 2:1042.7301 3:1920.5363 4:1830.6909 5:579.52205 6:528.70079 7:509.65772 8:441.01132 9:895.81248 10:866.29447 11:267.29688 12:202.53197 13:206.13064 14:178.96311 15:193.80119 16:171.72987 17:77.182896 18:79.948387 19:63.414488 20:34.430122 21:20.318698 22:15.847853 23:9.2527927 24:4.753468 25:3.7489286 
6.316031198707285e-33 1:894481.41 2:893.75991 3:1960.3998 4:1687.4349 5:399.75304 6:361.79751 7:384.93488 8:470.63493 9:783.74146 10:696.17713 11:294.64434 12:253.15074 13:154.34055 14:133.90448 15:238.47799 16:208.19206 17:80.231095 18:84.365289 19:76.765341 20:45.049258 21:25.988876 22:17.540716 23:6.4779046 24:6.466868 25:7.4677398 
6.316031198707285e-33 1:891856.56 2:790.19582 3:2021.106 4:1808.6954 5:416.55366 6:500.03784 7:495.29135 8:467.21477 9:886.14889 10:811.21974 11:276.70636 12:222.48485 13:180.52872 14:197.99869 15:265.35834 16:216.53884 17:115.67872 18:89.327682 19:59.860158 20:38.936009 21:31.014551 22:22.431306 23:11.556775 24:8.5995738 25:8.550711 
6.316031198707285e-33 1:892681.52 2:931.92186 3:1922.5945 4:1787.5767 5:547.58138 6:554.69168 7:427.43681 8:402.01788 9:866.53719 10:795.86977 11:269.98559 12:180.17468 13:158.83647 14:184.58867 15:258.51545 16:241.04353 17:103.65866 18:66.184999 19:56.589576 20:40.258504 21:23.228406 22:16.884113 23:8.9024948 24:5.8079064 25:4.7727959 
6.316031198707285e-33 1:898213.69 2:1352.523 3:2332.8427 4:2344.9032 5:1000.2447 6:826.78411 7:599.02124 8:502.58633 9:937.39689 10:868.87041 11:417.08713 12:316.29678 13:323.23168 14:353.4775 15:333.39604 16:304.24189 17:172.61277 18:151.97506 19:96.197786 20:47.523751 21:52.224006 22:35.190114 23:23.958741 24:23.731035 25:20.849495 
6.316031198707285e-33 1:903300.65 2:1799.5547 3:2601.5512 4:1840.2632 5:536.2781 6:584.31905 7:521.17096 8:399.34698 9:858.73413 10:845.11171 11:344.6902 12:316.87903 13:257.73235 14:200.39407 15:221.75788 16:189.21233 17:82.939917 18:86.307922 19:61.20306 20:41.479358 21:31.479583 22:16.457639 23:7.7446652 24:5.6903635 25:2.7562949 
6.316031198707285e-33 1:896912.92 2:1395.5919 3:2272.704 4:1913.78 5:554.19009 6:614.56306 7:488.01301 8:405.21726 9:824.95751 10:697.00806 11:230.7834 12:225.23669 13:146.45967 14:133.15749 15:261.32411 16:248.44019 17:102.46643 18:73.705144 19:60.319747 20:49.287022 21:33.173204 22:20.408287 23:17.227946 24:12.705869 25:12.165069 
6.316031198707285e-33 1:898141.18 2:1094.0583 3:2136.236 4:1865.7005 5:477.5891 6:424.23408 7:415.10638 8:460.14519 9:790.38026 10:671.30783 11:278.98678 12:263.31784 13:194.10917 14:216.54665 15:270.40722 16:210.12414 17:83.94495 18:74.427766 19:49.526621 20:43.54951 21:34.094799 22:23.870823 23:16.651019 24:15.765693 25:16.445716 
6.316031198707285e-33 1:898789.99 2:971.24954 3:2002.6092 4:1898.9971 5:424.98183 6:511.84833 7:493.92531 8:426.23981 9:892.73893 10:788.22514 11:244.96295 12:215.31675 13:210.15396 14:175.92452 15:244.11169 16:212.12438 17:116.41924 18:105.72804 19:55.828059 20:38.711464 21:32.993361 22:19.184193 23:9.0074707 24:9.2265345 25:8.1377881 
6.316031198707285e-33 1:895883.08 2:688.65019 3:1765.296 4:1793.8689 5:493.72968 6:467.25885 7:570.14682 8:387.27282 9:767.99817 10:813.02693 11:278.90887 12:163.17561 13:136.78702 14:230.56578 15:318.55069 16:233.88301 17:89.766704 18:71.084458 19:48.482721 20:32.259688 21:21.703631 22:18.678854 23:14.924073 24:12.988867 25:14.070905 
6.316031198707285e-33 1:897164.35 2:906.75884 3:1903.3945 4:1865.5939 5:370.72053 6:422.44829 7:559.23782 8:427.21812 9:718.18247 10:713.34107 11:250.19685 12:250.53698 13:179.89154 14:143.42902 15:212.34445 16:205.30434 17:119.18141 18:83.44457 19:66.491654 20:50.178613 21:27.549979 22:13.149309 23:9.3579108 24:9.1208679 25:7.2204552 
6.316031198707285e-33 1:895255.85 2:807.72279 3:1854.7918 4:1894.6701 5:658.67756 6:449.8121 7:323.39656 8:347.91303 9:821.27965 10:758.6009 11:238.05803 12:180.27919 13:162.1486 14:165.63884 15:209.69577 16:195.3541 17:106.16207 18:90.862573 19:67.592073 20:45.771872 21:29.958932 22:23.864684 23:17.376046 24:11.036599 25:9.5397143 
6.316031198707285e-33 1:894559.81 2:1004.5816 3:2038.3356 4:1886.2892 5:663.88711 6:520.79006 7:390.32489 8:366.18923 9:854.74684 10:833.75845 11:271.91816 12:205.22718 13:201.95123 14:187.99965 15:216.99412 16:189.46195 17:91.092823 18:82.21183 19:68.10847 20:39.789718 21:25.75548 22:13.912953 23:6.3827333 24:3.3256584 25:2.5210635 
6.316031198707285e-33 1:894423.96 2:1142.3914 3:2018.1959 4:1816.5816 5:513.4323 6:584.2303 7:558.7135 8:424.98468 9:944.71978 10:951.23286 11:330.24652 12:258.11312 13:204.74184 14:215.06199 15:260.02302 16:176.14507 17:87.21419 18:85.664365 19:43.805057 20:29.492916 21:26.763762 22:17.761664 23:10.827322 24:9.4296446 25:9.5694288 
6.316031198707285e-33 1:894430.99 2:995.79491 3:2098.2051 4:2209.5987 5:772.12305 6:479.96316 7:526.60356 8:500.0763 9:888.83273 10:875.30586 11:344.49504 12:256.3271 13:202.71019 14:174.55933 15:258.80139 16:213.95761 17:93.195423 18:71.18468 19:38.784112 20:32.749428 21:31.902541 22:20.221663 23:11.41679 24:10.790203 25:9.542086 
6.316031198707285e-33 1:894445.1 2:915.9756 3:1886.3358 4:1850.7762 5:724.80752 6:585.13087 7:430.92342 8:383.64844 9:779.04088 10:777.26181 11:324.13706 12:262.45598 13:209.67883 14:244.71072 15:306.01678 16:216.07108 17:107.41886 18:79.322879 19:39.949026 20:35.225516 21:34.746479 22:17.134576 23:6.803525 24:5.4609216 25:4.529561 
6.316031198707285e-33 1:892753.44 2:794.76906 3:1778.7897 4:1892.1824 5:615.86514 6:626.41724 7:544.22708 8:364.02677 9:847.37359 10:869.0682 11:294.99955 12:209.16293 13:220.53194 14:201.15338 15:265.23072 16:267.22716 17:132.90499 18:73.36161 19:50.902793 20:36.448049 21:31.485881 22:17.145684 23:10.710767 24:8.1475083 25:6.8366638 
6.316031198707285e-33 1:892296.06 2:1041.1486 3:1927.7602 4:1859.3765 5:605.4108 6:463.93724 7:457.1068 8:522.84926 9:881.47828 10:753.67328 11:218.08105 12:251.72816 13:221.76097 14:189.41858 15:281.31585 16:249.97784 17:115.43288 18:71.132549 19:47.706994 20:36.724309 21:27.100791 22:21.252627 23:17.728786 24:18.5803 25:18.97903 
6.316031198707285e-33 1:888916.22 2:1184.6322 3:2054.1413 4:2001.2267 5:529.95762 6:558.7373 7:597.26129 8:421.67434 9:802.23714 10:786.34446 11:250.64254 12:242.59847 13:278.2185 14:199.14323 15:240.07712 16:202.5421 17:78.43729 18:83.657487 19:66.642838 20:37.796358 21:25.451761 22:14.70659 23:9.195675 24:7.2899036 25:4.577011 
6.316031198707285e-33 1:889377.18 2:636.74979 3:1985.1084 4:2068.8042 5:610.90977 6:525.94856 7:510.55865 8:493.20456 9:929.92474 10:841.65249 11:286.23746 12:229.16763 13:190.61444 14:130.33005 15:202.69967 16:210.0511 17:75.903658 18:57.796022 19:57.491771 20:42.756353 21:28.255612 22:18.39244 23:9.9395897 24:8.2132156 25:8.6172658 
6.316031198707285e-33 1:890953.65 2:1217.2364 3:2010.8745 4:1928.8715 5:480.38022 6:328.42644 7:425.28926 8:443.14679 9:948.57775 10:852.64125 11:232.48326 12:207.78047 13:198.23469 14:175.57174 15:233.58012 16:214.14625 17:103.78606 18:77.038982 19:42.618551 20:37.302791 21:30.9832 22:19.022374 23:9.3165278 24:8.6619714 25:9.4325843 
6.316031198707285e-33 1:887899.4 2:1126.0924 3:1880.6832 4:1955.8912 5:986.34091 6:522.81522 7:364.42395 8:454.92377 9:883.74336 10:825.34948 11:221.15037 12:180.68354 13:179.59872 14:203.85019 15:281.93725 16:232.08567 17:100.98515 18:90.910489 19:77.032804 20:36.026196 21:22.289024 22:19.622467 23:13.086599 24:10.434832 25:8.5291862 
6.316031198707285e-33 1:888987.31 2:706.13568 3:1936.7358 4:1928.4687 5:575.5178 6:513.85513 7:320.68786 8:346.33625 9:835.53919 10:773.86733 11:299.10649 12:250.20985 13:213.30958 14:217.79983 15:228.49952 16:184.65801 17:111.76342 18:73.93234 19:49.587315 20:27.386624 21:19.126309 22:18.793404 23:7.7151471 24:4.9583857 25:3.4493535 
6.316031198707285e-33 1:892160.26 2:921.24971 3:2060.1462 4:2035.8561 5:688.57998 6:592.51483 7:469.17294 8:443.20501 9:960.23416 10:882.66555 11:329.91928 12:232.02209 13:203.07117 14:192.95709 15:209.94286 16:204.51282 17:110.67671 18:105.34696 19:67.524664 20:32.518884 21:25.152715 22:17.61979 23:11.851098 24:12.853519 25:13.707485 
6.316031198707285e-33 1:892516.16 2:887.25117 3:2002.0382 4:1843.4442 5:444.05554 6:568.46939 7:489.11524 8:330.86329 9:743.87242 10:677.24696 11:199.00996 12:247.45836 13:227.88642 14:171.21392 15:241.41612 16:202.50812 17:83.516195 18:73.336184 19:56.819006 20:41.91474 21:30.032473 22:24.769052 23:17.83053 24:11.707284 25:10.31631 
6.316031198707285e-33 1:890892.91 2:977.77784 3:2131.4853 4:1929.8843 5:593.90875 6:655.72372 7:407.93856 8:229.26892 9:794.62787 10:808.22463 11:250.18639 12:261.02945 13:206.23988 14:150.8635 15:207.35645 16:199.25882 17:144.66973 18:114.72663 19:53.664466 20:39.892247 21:26.803082 22:18.770892 23:14.293227 24:17.626102 25:18.158463 
6.316031198707285e-33 1:886556.83 2:715.1459 3:1818.2702 4:1760.347 5:405.6923 6:377.91993 7:466.954 8:469.79029 9:848.11491 10:802.56142 11:292.69031 12:238.43595 13:234.99927 14:270.77189 15:278.56975 16:193.37887 17:96.566427 18:62.419881 19:46.817038 20:42.523558 21:26.755876 22:19.165636 23:12.629579 24:12.669653 25:9.5672265 
6.316031198707285e-33 1:883589.32 2:1046.0412 3:2006.1573 4:2020.6535 5:545.94273 6:454.37134 7:442.20345 8:427.93372 9:869.58519 10:722.50969 11:166.96733 12:187.1249 13:136.43153 14:114.48539 15:240.95936 16:214.53654 17:105.39897 18:84.568617 19:50.44542 20:32.577346 21:25.679529 22:16.83611 23:10.367874 24:8.4283213 25:10.809173 
6.316031198707285e-33 1:888182.74 2:1043.1887 3:2146.0967 4:1832.638 5:360.69556 6:445.59911 7:448.99976 8:429.41035 9:927.04785 10:786.75907 11:283.44904 12:239.95329 13:173.97492 14:187.30144 15:256.7508 16:217.44898 17:96.396033 18:89.790634 19:73.813634 20:40.395838 21:29.552147 22:18.842107 23:10.008461 24:4.3865633 25:2.5956039 
6.316031198707285e-33 1:887643.91 2:1452.4951 3:1928.8721 4:1824.9688 5:595.06618 6:514.2843 7:429.20266 8:297.50466 9:853.24809 10:829.52931 11:275.42952 12:245.45242 13:160.53949 14:152.19437 15:217.11445 16:189.02695 17:102.32871 18:77.332786 19:50.657284 20:37.377488 21:30.415618 22:21.5431 23:13.716164 24:11.82011 25:10.697114 
6.316031198707285e-33 1:890358.39 2:1254.8805 3:2090.8898 4:1999.6421 5:579.62502 6:539.36388 7:372.66534 8:346.91264 9:922.25813 10:806.98256 11:261.85136 12:205.54938 13:165.64879 14:193.5952 15:265.99224 16:221.6961 17:90.386463 18:66.073326 19:58.86244 20:42.597041 21:32.622027 22:17.387873 23:5.8694163 24:5.1566374 25:5.796237 
6.316031198707285e-33 1:889027.14 2:955.92262 3:2038.8803 4:1880.4829 5:547.38201 6:566.66006 7:401.50996 8:269.46212 9:733.38017 10:726.67763 11:249.60628 12:209.24375 13:138.86996 14:121.56567 15:196.35027 16:198.16271 17:89.031435 18:76.9547 19:60.400145 20:31.361375 21:25.53457 22:22.510813 23:15.438869 24:18.431587 25:16.581638 
6.316031198707285e-33 1:886060.57 2:1346.8738 3:2255.9483 4:1900.2217 5:499.01264 6:480.00592 7:491.31515 8:360.92647 9:791.53931 10:760.06173 11:256.17983 12:260.14143 13:231.36924 14:139.00043 15:197.37749 16:191.66663 17:101.14769 18:88.967944 19:52.757331 20:37.092431 21:21.906581 22:12.826097 23:9.4111243 24:5.8867755 25:4.1292771 
6.316031198707285e-33 1:886925.1 2:925.00273 3:2240.5939 4:1986.4559 5:444.07456 6:450.37917 7:527.44083 8:462.49032 9:755.85972 10:743.60463 11:321.10203 12:210.10437 13:176.33462 14:190.15539 15:244.70309 16:224.17588 17:135.31592 18:107.89825 19:53.753144 20:30.093559 21:23.602852 22:17.041462 23:14.140695 24:9.2300304 25:9.9829613 
6.316031198707285e-33 1:883689.83 2:858.3452 3:2075.3627 4:1900.7017 5:480.99349 6:507.62408 7:489.80529 8:417.49448 9:863.7035 10:792.32562 11:229.3397 12:173.43273 13:161.01472 14:157.20826 15:270.29472 16:254.73199 17:107.51518 18:110.16697 19:64.852925 20:34.378484 21:28.885382 22:18.322206 23:10.01645 24:7.0203635 25:6.3307079 
6.316031198707285e-33 1:886828.48 2:858.02893 3:2019.4944 4:1834.8094 5:609.96537 6:434.13752 7:294.779 8:305.05914 9:813.74638 10:895.80322 11:298.02706 12:197.23279 13:190.19723 14:163.56947 15:246.07267 16:243.47533 17:115.37057 18:82.509781 19:67.04369 20:46.488911 21:36.586225 22:28.709118 23:18.576838 24:16.705958 25:15.956234 
6.316031198707285e-33 1:887951.74 2:1415.7941 3:2132.8895 4:1870.3836 5:597.01676 6:501.81228 7:456.00292 8:380.50313 9:734.44798 10:776.96857 11:261.81139 12:152.16248 13:163.66024 14:183.53545 15:252.39136 16:207.71415 17:80.138322 18:63.37125 19:49.891372 20:41.581976 21:24.092133 22:12.089139 23:7.3846508 24:3.6519943 25:3.0794666 
6.316031198707285e-33 1:887396.14 2:945.96413 3:2068.539 4:1881.0208 5:459.73567 6:474.24625 7:416.80324 8:327.24824 9:812.16002 10:786.84929 11:178.76599 12:157.93624 13:233.75156 14:201.45194 15:227.18989 16:184.37037 17:82.248945 18:72.290844 19:57.341051 20:41.668058 21:23.479286 22:11.533954 23:6.4740993 24:4.5949054 25:3.0337045 
6.316031198707285e-33 1:886240.51 2:700.08367 3:1757.329 4:1694.5883 5:476.71996 6:684.42087 7:578.76504 8:390.83262 9:790.10767 10:724.87688 11:235.92147 12:190.4593 13:197.97749 14:189.97897 15:243.20573 16:233.03273 17:110.17061 18:91.036606 19:66.40462 20:40.293587 21:25.746695 22:11.014594 23:4.1894577 24:2.9576515 25:2.794284 
6.316031198707285e-33 1:885807.11 2:1035.3159 3:2003.2538 4:1927.9806 5:652.7567 6:517.03602 7:445.27821 8:434.14089 9:769.68582 10:695.46791 11:277.08025 12:278.66875 13:261.90786 14:195.38869 15:247.70454 16:216.44057 17:70.76433 18:67.369191 19:59.315785 20:38.587595 21:31.213992 22:22.512517 23:12.761496 24:10.515608 25:7.7840556 
6.316031198707285e-33 1:886627.46 2:841.68127 3:1896.0359 4:1796.8105 5:611.3621 6:461.59572 7:382.23579 8:294.03122 9:794.88013 10:810.14834 11:296.52991 12:215.98974 13:186.96754 14:194.60059 15:224.79349 16:198.97482 17:92.943606 18:75.891169 19:67.125418 20:45.085274 21:27.032817 22:12.974469 23:10.860431 24:10.191046 25:8.5062113 
6.316031198707285e-33 1:878950.86 2:772.3768 3:2040.8278 4:2032.7863 5:676.79113 6:472.55958 7:317.2149 8:314.91119 9:794.38459 10:779.80873 11:290.96285 12:191.77603 13:177.30292 14:216.85246 15:303.69783 16:263.86153 17:121.02018 18:78.556879 19:51.897076 20:37.65123 21:23.216135 22:15.574293 23:9.0753213 24:4.3323475 25:2.6632314 
6.316031198707285e-33 1:884224.69 2:1004.3355 3:2150.9296 4:2023.8703 5:592.35171 6:523.48587 7:436.67049 8:404.90146 9:792.60795 10:783.95704 11:320.29753 12:275.30305 13:260.87613 14:198.42197 15:279.2425 16:243.48651 17:76.344662 18:76.410939 19:54.734447 20:43.080849 21:30.048976 22:15.286379 23:9.4817283 24:6.1800194 25:3.9394637 
6.316031198707285e-33 1:882710.63 2:739.21933 3:1953.7866 4:1895.4621 5:569.43884 6:446.67361 7:348.89867 8:379.45888 9:817.98575 10:705.25698 11:267.9559 12:336.29616 13:273.33322 14:203.035 15:267.53631 16:201.38023 17:68.391666 18:59.411871 19:46.595302 20:37.200957 21:25.982219 22:16.606721 23:11.624089 24:7.1714678 25:4.3453532 
6.316031198707285e-33 1:880513.31 2:717.36899 3:2073.9339 4:1993.1763 5:599.79396 6:644.45651 7:634.84419 8:552.16302 9:806.33008 10:742.2295 11:277.42785 12:230.97343 13:208.97938 14:211.11037 15:240.46667 16:168.23357 17:91.538527 18:66.522128 19:54.918524 20:45.613077 21:27.743033 22:17.513845 23:6.7858033 24:5.734928 25:5.6734958 
6.316031198707285e-33 1:883309.38 2:1024.0898 3:1951.0358 4:1997.2165 5:634.07477 6:597.96556 7:573.2017 8:428.11267 9:843.65794 10:850.01748 11:278.0878 12:259.97527 13:201.47264 14:133.52329 15:200.58526 16:191.40396 17:118.95309 18:100.03636 19:55.463661 20:35.402597 21:26.758175 22:14.941142 23:8.9566789 24:5.5734691 25:2.8700702 
6.316031198707285e-33 1:882673.02 2:896.8505 3:2038.9972 4:2022.7128 5:664.28943 6:504.84033 7:422.10532 8:406.63843 9:800.19842 10:692.25992 11:196.27918 12:208.93039 13:185.53069 14:180.27878 15:274.57078 16:229.65169 17:122.3838 18:85.578809 19:43.63595 20:37.92104 21:30.65594 22:21.391749 23:9.411575 24:7.2239202 25:5.6473757 
6.316031198707285e-33 1:881362.13 2:811.33205 3:1903.0476 4:1808.5219 5:528.03523 6:572.49523 7:610.12687 8:533.79681 9:874.07146 10:827.16004 11:308.92941 12:205.81965 13:180.45301 14:162.99577 15:215.67691 16:207.05334 17:109.35988 18:78.189311 19:50.291798 20:32.093085 21:28.764108 22:21.34659 23:17.894721 24:18.147316 25:19.848905 
6.316031198707285e-33 1:879154.19 2:1116.0659 3:2110.4466 4:1955.2109 5:482.51857 6:501.08426 7:377.4648 8:358.44116 9:863.15499 10:739.88223 11:215.49917 12:168.41311 13:143.06322 14:167.48848 15:191.66213 16:178.41279 17:125.85413 18:101.91762 19:50.344872 20:43.115787 21:35.352204 22:23.534567 23:18.324498 24:15.712883 25:14.099262 
6.316031198707285e-33 1:882631.19 2:862.52813 3:2058.1463 4:1898.4142 5:439.73212 6:480.56997 7:455.61507 8:440.68777 9:898.93291 10:742.2666 11:265.11063 12:239.26548 13:175.51572 14:201.73226 15:273.59173 16:188.03958 17:120.48324 18:118.93534 19:57.862198 20:41.66964 21:26.04302 22:17.618739 23:17.356104 24:20.618129 25:19.384568 
6.316031198707285e-33 1:882011.19 2:781.35327 3:1776.5379 4:1732.1324 5:608.80832 6:608.88724 7:461.47748 8:303.0791 9:772.0436 10:762.26226 11:249.23888 12:234.85249 13:181.46181 14:176.37358 15:233.92876 16:210.55733 17:112.501 18:81.787165 19:62.985414 20:44.324261 21:30.014005 22:27.437881 23:26.143686 24:22.41898 25:20.324665 
6.316031198707285e-33 1:881971.16 2:1288.3056 3:1989.1917 4:1672.3962 5:476.19145 6:578.34993 7:488.61549 8:349.85354 9:827.74298 10:735.58415 11:249.96207 12:231.1435 13:171.54135 14:157.13923 15:198.44707 16:200.38287 17:96.731248 18:70.768415 19:51.697398 20:29.082343 21:26.287124 22:25.679245 23:15.359188 24:10.751326 25:9.4232093 
6.316031198707285e-33 1:881779.96 2:785.83128 3:1958.9898 4:1737.2384 5:483.18085 6:522.86845 7:561.73937 8:467.49367 9:837.13703 10:740.46382 11:163.28416 12:188.02249 13:247.97526 14:214.71641 15:218.83075 16:257.02032 17:125.78743 18:54.5509 19:51.962301 20:34.901118 21:23.773642 22:18.771488 23:9.1015689 24:8.0889499 25:8.3664062 
6.316031198707285e-33 1:882722.11 2:962.44884 3:1997.4977 4:2091.5621 5:577.97174 6:452.0675 7:380.98621 8:325.42142 9:809.99719 10:740.29392 11:231.17492 12:162.3105 13:147.75454 14:178.56113 15:215.42196 16:208.79825 17:106.72646 18:61.07619 19:56.208911 20:45.441304 21:35.072716 22:30.118284 23:22.058278 24:16.739096 25:17.035517 
6.316031198707285e-33 1:882996.57 2:1153.0339 3:1815.6916 4:1734.5112 5:519.67905 6:435.64062 7:366.64643 8:426.01462 9:884.28951 10:822.04687 11:301.35526 12:289.10514 13:234.36035 14:168.95122 15:233.58944 16:232.88737 17:109.90576 18:83.200959 19:43.680546 20:27.924811 21:26.161797 22:15.227693 23:7.6195811 24:5.75422 25:4.3410264 
6.316031198707285e-33 1:881331.31 2:1001.9614 3:2129.7626 4:1975.5148 5:474.079 6:381.18122 7:404.86522 8:368.34484 9:726.97915 10:674.49143 11:169.29988 12:138.07649 13:179.00902 14:176.04395 15:223.56584 16:212.02525 17:90.058386 18:72.968496 19:52.013615 20:30.726583 21:20.187712 22:12.837555 23:10.394563 24:9.0711249 25:5.8350524 
6.316031198707285e-33 1:881186.75 2:1101.3207 3:1925.7703 4:1656.1329 5:514.46806 6:587.82042 7:421.45409 8:285.73021 9:817.10326 10:845.33064 11:306.44731 12:204.16103 13:162.75933 14:163.37738 15:245.62564 16:222.16975 17:83.830153 18:67.953674 19:47.941287 20:37.940184 21:30.900203 22:19.536894 23:9.822427 24:6.2056668 25:3.448195 
6.316031198707285e-33 1:885037.36 2:1052.1034 3:2105.8283 4:1833.7144 5:604.35123 6:634.0189 7:583.22164 8:499.29363 9:985.08622 10:1014.171 11:389.70184 12:329.90719 13:293.89202 14:197.94005 15:250.69603 16:250.4539 17:98.022447 18:70.061113 19:61.991736 20:31.156939 21:20.531365 22:15.176364 23:10.601506 24:5.8207827 25:3.0307979 
6.316031198707285e-33 1:880636.19 2:1207.3255 3:2235.1568 4:1835.0097 5:666.66181 6:586.01177 7:569.4119 8:607.63344 9:881.44634 10:898.28481 11:409.10486 12:251.46833 13:270.03951 14:293.17488 15:274.5206 16:202.20043 17:103.25307 18:80.59621 19:60.903421 20:38.709393 21:27.253932 22:21.90264 23:20.865355 24:18.889513 25:16.694352 
6.316031198707285e-33 1:879757.71 2:1077.9846 3:2203.221 4:2100.1034 5:497.77727 6:439.38537 7:488.38391 8:476.35206 9:901.78523 10:797.34248 11:286.00364 12:236.99661 13:189.64516 14:201.27466 15:303.60326 16:253.26861 17:95.364211 18:70.078137 19:64.867293 20:43.478978 21:30.857225 22:17.98558 23:8.4859187 24:5.8732605 25:4.6516116 
6.316031198707285e-33 1:880602.48 2:1108.7948 3:2045.9891 4:1982.7069 5:676.45845 6:638.63074 7:479.76485 8:352.99535 9:864.79976 10:832.60292 11:256.48791 12:203.47357 13:149.55416 14:146.64829 15:239.00405 16:203.49106 17:103.24166 18:83.941662 19:50.318854 20:37.833671 21:17.361404 22:13.151154 23:12.730646 24:9.9472682 25:7.281496 
6.316031198707285e-33 1:881993.13 2:1033.6767 3:1961.5864 4:1974.4811 5:613.78551 6:557.9461 7:497.48871 8:336.81721 9:861.17036 10:841.48127 11:329.26327 12:286.41777 13:207.68436 14:199.54088 15:278.20117 16:205.62391 17:85.980102 18:82.096181 19:59.156475 20:32.545754 21:22.257487 22:17.811882 23:8.5573467 24:4.3020148 25:4.3268435 
6.316031198707285e-33 1:879023.01 2:1033.9668 3:1882.1435 4:1840.1766 5:706.80329 6:723.04445 7:512.19957 8:331.59516 9:855.95874 10:798.97113 11:230.38685 12:218.04817 13:188.54708 14:154.84359 15:195.75229 16:169.09419 17:78.593242 18:72.842436 19:61.476866 20:43.234716 21:26.968907 22:14.829757 23:9.6914147 24:9.8443728 25:7.7289922 
6.316031198707285e-33 1:879025.66 2:1074.3051 3:2051.2429 4:1891.0499 5:508.69512 6:649.20603 7:518.31815 8:374.81817 9:854.65006 10:738.51719 11:174.19132 12:171.82958 13:209.86793 14:195.49782 15:228.18624 16:201.64453 17:77.419497 18:66.843399 19:43.643653 20:27.179263 21:26.258096 22:23.527258 23:21.314629 24:17.089314 25:17.700055 
6.316031198707285e-33 1:874200.88 2:942.04881 3:1954.6709 4:1792.062 5:431.22817 6:326.74254 7:342.69623 8:412.90619 9:879.83342 10:824.08312 11:280.54104 12:197.36254 13:197.6691 14:212.08377 15:250.71861 16:213.94685 17:96.626141 18:76.187992 19:61.828553 20:39.715054 21:19.978044 22:17.25801 23:13.542331 24:9.6109445 25:8.9520372 
6.316031198707285e-33 1:879850.05 2:908.38673 3:1913.6261 4:1823.0302 5:444.89686 6:494.33915 7:470.51749 8:307.57279 9:807.99262 10:799.09648 11:221.96118 12:210.73529 13:147.89983 14:145.55022 15:217.74243 16:203.18126 17:106.3279 18:85.572672 19:61.513036 20:41.45297 21:46.138629 22:34.168113 23:23.689189 24:24.331448 25:24.530505 
6.316031198707285e-33 1:880466.68 2:876.27277 3:1848.971 4:1836.6877 5:513.69904 6:401.82094 7:418.44457 8:401.65805 9:725.23719 10:716.28955 11:268.41106 12:185.27981 13:122.30649 14:141.41945 15:264.06034 16:212.06985 17:59.230498 18:55.137128 19:53.056869 20:40.033679 21:32.651574 22:20.682412 23:9.7358384 24:5.3564555 25:4.4361117 
6.316031198707285e-33 1:881203.22 2:1071.0844 3:2141.5569 4:1931.5059 5:474.44348 6:488.69715 7:470.38093 8:408.35686 9:862.54873 10:766.60802 11:208.45342 12:174.03331 13:163.55083 14:220.98515 15:305.90688 16:231.60265 17:84.708217 18:83.494162 19:74.74479 20:35.256629 21:30.24811 22:17.750897 23:7.062452 24:4.5083979 25:2.5782953 
6.316031198707285e-33 1:882199.24 2:967.04694 3:2006.7134 4:2014.5146 5:601.30476 6:499.06204 7:485.14651 8:353.07901 9:743.6557 10:720.62494 11:236.39478 12:203.94063 13:184.14 14:179.84277 15:216.31027 16:180.70937 17:90.340612 18:74.966078 19:49.432829 20:33.04369 21:24.146869 22:12.109337 23:8.1495243 24:5.1175236 25:2.6287353 
6.316031198707285e-33 1:878779.52 2:1347.8992 3:2082.7041 4:2138.909 5:744.95884 6:526.97631 7:495.53846 8:416.10892 9:773.99646 10:731.11922 11:260.99668 12:221.10612 13:257.53966 14:221.83953 15:265.85928 16:245.55432 17:124.09906 18:126.58 19:97.369141 20:43.719347 21:22.118956 22:14.603935 23:10.908591 24:10.756392 25:8.6384509 
6.316031198707285e-33 1:879071.75 2:959.06963 3:1788.308 4:1871.6738 5:645.77305 6:440.34684 7:421.47533 8:379.52385 9:756.42176 10:725.30914 11:248.73425 12:198.12479 13:175.33491 14:168.55624 15:215.8601 16:186.49605 17:88.050928 18:70.060568 19:62.944158 20:42.245154 21:21.070994 22:16.661974 23:6.4254874 24:3.048806 25:2.2903531 
6.316031198707285e-33 1:877251.36 2:804.91684 3:1744.7128 4:1578.7881 5:252.71855 6:337.26549 7:365.00596 8:327.46754 9:841.8787 10:828.68266 11:300.64337 12:180.1265 13:123.04832 14:154.54517 15:251.06739 16:233.08572 17:99.669785 18:84.660216 19:64.254312 20:36.144895 21:23.392707 22:14.645042 23:9.3751612 24:6.4333289 25:2.6438092 
6.316031198707285e-33 1:874590 2:899.40116 3:1830.9768 4:1616.595 5:341.6232 6:389.1464 7:414.95762 8:352.04909 9:810.26522 10:774.29011 11:248.71264 12:180.88274 13:159.21784 14:174.16782 15:244.76999 16:207.38988 17:90.197756 18:77.112221 19:50.705996 20:36.600175 21:25.299018 22:19.707225 23:13.178406 24:9.2289354 25:8.0728702 
6.316031198707285e-33 1:875390.68 2:1404.9555 3:2211.7223 4:1874.3018 5:466.33746 6:514.72341 7:521.23728 8:405.34355 9:747.86707 10:783.67428 11:278.89369 12:186.49736 13:171.99608 14:175.89844 15:247.59275 16:247.58561 17:130.62916 18:77.479887 19:48.060098 20:28.724773 21:23.184025 22:19.113345 23:9.2478875 24:4.4281771 25:2.8573435 
6.316031198707285e-33 1:872621.69 2:897.12012 3:1970.9045 4:1923.3909 5:506.17792 6:339.73755 7:397.01848 8:441.14711 9:869.40605 10:829.82878 11:261.41146 12:177.78032 13:191.28175 14:203.31037 15:255.63827 16:203.24842 17:87.228214 18:70.327118 19:57.798443 20:39.205416 21:28.097952 22:16.624885 23:7.0667601 24:4.3575269 25:2.0972881 
6.316031198707285e-33 1:871337.62 2:887.08092 3:1998.5495 4:1911.9961 5:567.70922 6:557.60674 7:514.55741 8:415.30956 9:874.54421 10:861.94641 11:273.80099 12:238.05515 13:236.64866 14:181.70703 15:215.95473 16:218.14271 17:93.851957 18:70.024492 19:66.213102 20:46.638967 21:28.157514 22:22.799145 23:22.706688 24:20.00962 25:20.323936 
6.316031198707285e-33 1:866715.55 2:963.70498 3:2154.8548 4:2090.7192 5:693.1998 6:519.76877 7:544.98635 8:465.36829 9:834.62177 10:800.09803 11:289.69888 12:275.08262 13:217.00751 14:207.9234 15:237.4501 16:196.0456 17:92.124333 18:65.24211 19:52.863853 20:36.944927 21:24.847486 22:18.483926 23:11.699873 24:4.6781336 25:2.9921796 
6.316031198707285e-33 1:870608.84 2:1010.1317 3:1883.4021 4:1780.4494 5:622.55696 6:476.23514 7:397.56572 8:304.42756 9:763.05994 10:791.46898 11:280.8087 12:218.35195 13:198.70568 14:188.15553 15:250.89589 16:226.22698 17:100.65618 18:91.365048 19:59.151229 20:31.736417 21:25.472777 22:20.856757 23:14.519204 24:9.6715267 25:9.2499047 
