svm_type one_class
kernel_type polynomial
degree 3
gamma 5
coef0 0
nr_class 2
total_sv 967
rho 2.82189e+38
SV
1 1:256522.14 2:3709.0506 3:3611.199 4:4050.0087 5:2862.9701 6:2822.7441 7:3116.2402 8:2381.199 9:1458.9595 10:1064.1042 11:842.33229 12:726.98388 13:769.86307 14:715.14569 15:405.13321 16:320.45376 17:273.21895 18:165.9713 19:110.84782 20:74.17709 21:51.779414 22:41.319465 23:35.373105 24:31.676658 25:29.72676 
1 1:268393.44 2:2392.4169 3:2305.8628 4:1965.561 5:1561.3835 6:1786.8246 7:1728.84 8:1214.4247 9:1031.1114 10:918.87409 11:708.06941 12:616.74205 13:514.81104 14:505.96356 15:419.12996 16:311.37478 17:263.61458 18:183.28882 19:94.611002 20:73.721162 21:53.947069 22:50.092391 23:46.013193 24:42.532541 25:43.324494 
1 1:283472.89 2:2647.1419 3:2006.4642 4:1862.5095 5:1724.1148 6:1497.2035 7:1427.2829 8:1341.4378 9:1435.2074 10:1094.9021 11:652.16679 12:638.69344 13:478.30954 14:370.43331 15:408.80952 16:350.57801 17:268.73856 18:201.04935 19:111.09689 20:87.211228 21:65.26068 22:56.935967 23:49.76944 24:50.825493 25:49.432158 
1 1:292737.04 2:2842.8662 3:2203.9688 4:1868.1898 5:1405.3467 6:945.74495 7:823.85128 8:926.18198 9:1051.3396 10:1036.8497 11:679.47432 12:397.721 13:379.28925 14:364.95793 15:270.82265 16:233.01768 17:163.65451 18:128.72899 19:97.188442 20:58.815368 21:39.381699 22:22.320449 23:9.4070633 24:6.6050871 25:4.7364581 
1 1:285217.71 2:2190.9555 3:2967.2229 4:2242.7957 5:1138.4445 6:1258.8972 7:945.76707 8:771.44641 9:973.35011 10:891.07628 11:567.74751 12:343.00444 13:284.44036 14:318.07759 15:294.13774 16:224.01764 17:156.68723 18:126.59952 19:76.970057 20:35.719022 21:29.5174 22:19.223605 23:13.237075 24:11.69972 25:11.999543 
1 1:286683.98 2:2046.438 3:1978.7018 4:2248.6772 5:1888.8508 6:1222.792 7:814.79202 8:1068.0167 9:1279.2803 10:824.10891 11:505.77822 12:463.33377 13:400.84192 14:451.03718 15:333.26878 16:186.68294 17:188.37323 18:169.64781 19:94.019345 20:51.736018 21:47.494255 22:30.672345 23:21.608177 24:16.580874 25:15.063519 
1 1:280795.09 2:2785.6014 3:2071.1731 4:1888.4405 5:1817.55 6:1423.9275 7:937.50537 8:928.83905 9:1168.1536 10:1020.4912 11:737.71731 12:518.96849 13:442.68422 14:441.14651 15:459.71892 16:296.8234 17:187.40387 18:225.50336 19:151.09959 20:79.057226 21:52.987971 22:32.022172 23:28.281844 24:27.753151 25:26.009992 
1 1:274220.93 2:2529.3044 3:2361.023 4:2117.7486 5:1930.1487 6:1808.4993 7:1162.194 8:727.14841 9:849.0844 10:702.97378 11:472.15564 12:516.14295 13:482.82826 14:294.81055 15:249.11227 16:249.50893 17:153.02343 18:122.35171 19:101.1879 20:81.394596 21:44.039578 22:22.981438 23:14.224179 24:6.5165108 25:4.7960841 
1 1:267405.72 2:1387.9592 3:1962.911 4:2144.4092 5:1209.8456 6:1137.4899 7:1197.7275 8:869.60392 9:894.82776 10:897.23692 11:599.35031 12:495.19713 13:421.00629 14:270.89849 15:265.44123 16:234.45952 17:157.73108 18:115.18468 19:92.625528 20:61.750418 21:40.300369 22:22.767917 23:10.292491 24:7.7690328 25:7.8696181 
1 1:272372.76 2:5585.7303 3:3686.354 4:2964.7886 5:3401.9929 6:2331.8315 7:2062.8482 8:2424.8891 9:1693.4399 10:1171.6295 11:1064.8684 12:701.68562 13:559.03187 14:545.2366 15:431.47694 16:403.96038 17:262.851 18:170.82943 19:138.40637 20:68.844173 21:44.967583 22:27.049549 23:14.967103 24:5.6581132 25:2.2037397 
1 1:270110.74 2:3195.1779 3:2163.9763 4:2093.9147 5:1690.4208 6:1753.905 7:1390.9023 8:1124.4778 9:1120.8749 10:832.23135 11:617.9756 12:567.32659 13:464.58772 14:482.3565 15:514.79226 16:304.16752 17:153.20423 18:131.44584 19:116.64516 20:78.610539 21:48.877593 22:26.150605 23:13.397938 24:10.135455 25:11.277848 
1 1:271736.72 2:2672.69 3:2410.4363 4:2241.5233 5:1688.5732 6:1739.0478 7:1623.7518 8:1250.2754 9:1303.867 10:942.15838 11:779.23496 12:745.47962 13:497.48989 14:354.82146 15:243.41975 16:240.19185 17:196.9202 18:146.34803 19:113.72476 20:58.134473 21:35.081067 22:27.134483 23:16.656324 24:12.768528 25:13.719281 
1 1:274848.56 2:2712.0718 3:2829.2299 4:2283.467 5:1662.3888 6:1533.716 7:1226.1917 8:787.15594 9:1001.3425 10:1103.9471 11:707.98898 12:520.5758 13:399.33045 14:363.55815 15:289.79122 16:246.7103 17:177.41373 18:140.77163 19:129.52132 20:65.474254 21:40.357932 22:26.847192 23:9.5913079 24:5.943401 25:3.0062694 
1 1:276487.66 2:2504.4549 3:2433.9478 4:2016.807 5:1512.8467 6:1433.9687 7:1191.4919 8:1056.1417 9:1169.4492 10:912.96913 11:468.18966 12:434.28357 13:409.18882 14:367.76593 15:297.19624 16:239.60916 17:164.12686 18:142.95824 19:77.643316 20:38.206215 21:30.237652 22:21.470889 23:11.011333 24:5.6639415 25:5.7040034 
1 1:277287.28 2:1734.8462 3:2387.4416 4:2385.8448 5:1486.7714 6:1062.0054 7:1024.4484 8:865.19199 9:884.51418 10:849.71957 11:542.74419 12:530.62582 13:615.65865 14:516.76891 15:299.96922 16:186.77611 17:148.20467 18:127.38558 19:90.056815 20:67.391679 21:45.910005 22:20.982111 23:13.41353 24:8.6242011 25:7.5157784 
1 1:276133.55 2:1783.6112 3:2609.1364 4:2407.7549 5:1322.7642 6:1235.8987 7:1057.6456 8:836.0972 9:978.11128 10:789.23326 11:528.74741 12:448.19735 13:416.88337 14:380.56674 15:286.24383 16:256.51686 17:160.45803 18:96.508307 19:97.569494 20:63.85427 21:30.563552 22:19.956156 23:13.720824 24:10.610064 25:10.98378 
1 1:275729.9 2:1712.258 3:2188.9522 4:2438.5477 5:1862.3437 6:1595.8929 7:1368.1896 8:1113.4776 9:1074.4929 10:686.54735 11:517.05356 12:594.63969 13:467.65448 14:432.5597 15:335.30441 16:243.84184 17:192.20822 18:151.72107 19:95.62952 20:51.783156 21:34.187246 22:20.869733 23:11.052384 24:6.609065 25:4.1629555 
1 1:280711.67 2:2004.3444 3:2151.8675 4:2381.7866 5:1715.5604 6:1295.6639 7:1098.7392 8:955.34531 9:1140.4783 10:1026.1897 11:528.91187 12:456.66678 13:471.45476 14:414.73699 15:387.14854 16:328.12405 17:216.3029 18:130.71648 19:55.565362 20:41.887949 21:24.950879 22:14.452683 23:10.430038 24:9.9957819 25:11.546975 
1 1:280811.06 2:1688.7196 3:2134.4421 4:2022.4367 5:1220.5691 6:1172.9101 7:1078.155 8:790.63945 9:934.77605 10:742.98297 11:418.09335 12:449.50136 13:384.91822 14:319.00104 15:310.57463 16:253.9279 17:150.30914 18:111.25185 19:70.493701 20:56.194182 21:40.739462 22:17.100336 23:9.0228226 24:4.672257 25:2.9279859 
1 1:280302.55 2:1913.971 3:1913.7416 4:1667.1561 5:906.90067 6:1037.6942 7:1168.5465 8:1108.4269 9:1018.7785 10:831.84122 11:577.71083 12:340.35346 13:324.92917 14:375.37863 15:300.75353 16:228.88047 17:185.21469 18:151.98521 19:86.554332 20:68.776304 21:42.873285 22:22.053412 23:9.5570242 24:4.9928568 25:2.2154358 
1 1:280633.15 2:1342.8281 3:1570.8812 4:1360.5366 5:649.86442 6:538.15371 7:703.27395 8:692.45111 9:803.52101 10:838.16447 11:527.7695 12:362.64848 13:337.30185 14:285.90145 15:311.88645 16:325.09548 17:181.17663 18:108.94013 19:91.978168 20:64.766695 21:30.778539 22:18.765366 23:11.468066 24:6.9052444 25:6.0263467 
1 1:279051.46 2:1134.1795 3:1543.4453 4:1463.8185 5:1037.7907 6:698.87452 7:682.68123 8:776.40082 9:852.06594 10:805.23797 11:518.67671 12:329.84524 13:352.23885 14:347.09824 15:316.25142 16:282.79099 17:155.78819 18:92.204517 19:64.295463 20:46.467526 21:34.12595 22:22.758045 23:11.499402 24:5.1252404 25:2.3145302 
1 1:280841.26 2:1625.5317 3:1689.6865 4:1504.8279 5:1197.3421 6:1348.4187 7:1099.7194 8:843.63961 9:907.47586 10:751.71293 11:572.05718 12:455.51868 13:360.32382 14:342.84499 15:317.5216 16:232.98529 17:177.01476 18:136.1393 19:74.609617 20:51.057059 21:38.245978 22:21.469581 23:19.037517 24:17.693655 25:15.150645 
1 1:282624.8 2:2050.1073 3:2140.3094 4:2042.7852 5:1499.8619 6:1333.8982 7:1221.4835 8:1057.3472 9:1022.2212 10:785.91855 11:558.69791 12:667.02509 13:536.58673 14:370.51194 15:233.30659 16:240.39951 17:200.82918 18:126.28446 19:98.39152 20:53.209223 21:34.842337 22:25.962405 23:16.544787 24:7.5731772 25:5.0609473 
1 1:281847 2:1598.3222 3:1995.9337 4:1947.6371 5:1424.8705 6:1336.7565 7:1187.2183 8:872.17432 9:854.95833 10:807.40398 11:604.32617 12:511.67845 13:378.14097 14:367.84731 15:372.74941 16:345.86791 17:269.35579 18:191.36531 19:118.10957 20:63.702041 21:40.138489 22:20.497255 23:12.972898 24:8.8381236 25:5.7476195 
1 1:282580.25 2:1810.2652 3:1811.227 4:1673.4435 5:1341.4727 6:1211.5622 7:1162.0072 8:945.35504 9:908.15433 10:939.86018 11:607.22412 12:447.63141 13:411.55765 14:374.13864 15:276.31591 16:216.04499 17:166.47792 18:150.96579 19:114.82531 20:61.252842 21:26.166725 22:17.572439 23:9.6978104 24:8.049665 25:7.5863937 
1 1:284200.87 2:1708.2041 3:2251.2726 4:1543.2375 5:975.97058 6:885.7014 7:580.19635 8:717.23275 9:1182.4606 10:1151.0939 11:611.03504 12:490.79557 13:502.57242 14:381.16449 15:314.02008 16:244.40404 17:156.22643 18:150.32991 19:70.707273 20:43.500932 21:34.761631 22:22.007866 23:13.383097 24:6.1771468 25:3.105481 
1 1:282656.16 2:1615.3014 3:2137.3112 4:1982.9944 5:1289.1103 6:1199.3298 7:1117.3389 8:988.81065 9:1085.0695 10:975.60022 11:674.04605 12:597.58364 13:544.35259 14:536.43295 15:375.77088 16:267.45395 17:217.99125 18:151.78904 19:91.968325 20:50.442839 21:32.556216 22:34.411147 23:27.927507 24:21.542065 25:21.640806 
1 1:273697.75 2:2768.2911 3:2698.776 4:2338.7689 5:1764.7165 6:1108.7708 7:884.26223 8:914.7363 9:1426.4159 10:1479.7124 11:1044.063 12:652.85725 13:566.1347 14:584.69397 15:495.75989 16:333.74836 17:217.40204 18:139.65687 19:80.541285 20:72.559612 21:47.136193 22:26.902024 23:15.40255 24:10.711326 25:10.335876 
1 1:274396.12 2:1539.8498 3:1956.3142 4:2549.8097 5:2384.8456 6:2075.9348 7:1715.4458 8:1604.8268 9:1866.5191 10:1622.3486 11:1125.8485 12:787.36619 13:686.39152 14:584.4672 15:469.73849 16:350.90747 17:194.5584 18:143.36824 19:92.717727 20:53.710638 21:39.64057 22:28.717714 23:18.807156 24:13.717099 25:13.220369 
1 1:281022.41 2:1588.0495 3:2626.5608 4:2502.2546 5:1462.9084 6:1476.9259 7:1564.8081 8:1395.5865 9:1331.985 10:1313.5159 11:1029.3464 12:883.66282 13:616.3046 14:495.15687 15:562.43329 16:486.48312 17:328.05323 18:190.35324 19:127.76635 20:77.274886 21:49.221894 22:42.056018 23:16.05016 24:8.2395436 25:5.6029501 
1 1:279529.7 2:2468.8069 3:2667.3555 4:2703.2264 5:1807.6549 6:1636.8456 7:1386.2704 8:1258.2313 9:1731.088 10:1454.6584 11:822.8629 12:615.33213 13:508.93549 14:583.44313 15:545.99576 16:480.42696 17:331.74972 18:193.77793 19:158.15686 20:98.593458 21:44.919271 22:21.074034 23:13.187536 24:12.40197 25:8.8469219 
1 1:277886.46 2:2472.0484 3:3343.6957 4:2961.5675 5:1948.4019 6:1305.8602 7:1435.502 8:1580.0045 9:1703.6716 10:1363.7231 11:923.172 12:860.10177 13:614.18091 14:499.10901 15:412.40044 16:318.26148 17:253.71722 18:204.97243 19:138.11996 20:77.917065 21:39.206564 22:24.799437 23:15.561006 24:10.018684 25:9.7204596 
1 1:279322.86 2:2350.6488 3:2552.3914 4:2569.7714 5:1861.6564 6:1652.2364 7:1296.1133 8:926.81421 9:1009.76 10:1096.2375 11:769.1565 12:441.50013 13:378.08209 14:535.30408 15:534.78677 16:396.70913 17:239.17361 18:156.52925 19:87.502399 20:59.342371 21:39.718172 22:26.172553 23:12.647919 24:6.3522222 25:6.6395453 
1 1:278113.88 2:1417.2621 3:2232.9396 4:1864.5443 5:1503.5724 6:1564.2303 7:1114.0222 8:1072.7978 9:892.0736 10:992.79565 11:1072.607 12:869.04741 13:629.1912 14:488.986 15:368.89754 16:314.23633 17:215.16952 18:136.93098 19:88.278442 20:59.588968 21:38.726055 22:20.125947 23:11.762339 24:6.6013111 25:5.1845851 
1 1:276781.26 2:2615.7564 3:2702.2211 4:2076.0365 5:1847.5 6:1559.2126 7:1440.268 8:1272.7509 9:1687.788 10:1815.8216 11:1182.7958 12:854.95085 13:746.80581 14:682.71265 15:489.88197 16:284.73252 17:200.16973 18:188.76506 19:174.65127 20:131.98688 21:51.64728 22:32.832968 23:32.179931 24:24.94334 25:25.396543 
1 1:275535 2:2782.6825 3:4074.0851 4:4142.4023 5:3096.4742 6:2771.3752 7:2783.6619 8:2356.498 9:2108.302 10:1903.6049 11:1757.7217 12:1156.6398 13:586.60838 14:608.46313 15:712.21052 16:692.53296 17:425.95597 18:284.14476 19:216.87439 20:114.93329 21:69.126947 22:39.471516 23:24.767032 24:15.129812 25:13.625328 
1 1:274931.32 2:2818.3589 3:2321.6402 4:2214.66 5:2676.1076 6:2656.2991 7:2581.7175 8:2345.2564 9:2224.8752 10:1911.6708 11:1549.6454 12:1175.9252 13:985.63115 14:964.87606 15:796.96463 16:581.84447 17:446.60985 18:235.48299 19:169.95798 20:142.44778 21:91.187579 22:56.007132 23:31.194001 24:16.809215 25:19.608676 
1 1:273422.99 2:4311.2604 3:3992.0183 4:2964.0763 5:2210.7328 6:2196.7116 7:2628.6967 8:2348.4848 9:2293.8968 10:2149.3624 11:1413.589 12:932.39689 13:547.23028 14:507.24469 15:576.7537 16:488.04368 17:283.2482 18:192.14088 19:145.45925 20:104.99337 21:62.395016 22:35.466191 23:24.513755 24:14.592545 25:11.855186 
1 1:266104.82 2:2805.054 3:2549.0355 4:2781.7183 5:2528.1685 6:2322.6028 7:2235.8817 8:1944.0837 9:2109.1228 10:1688.1681 11:1148.0142 12:1101.8786 13:920.11664 14:773.68062 15:694.12816 16:613.82099 17:397.80521 18:236.79866 19:153.90753 20:104.43491 21:48.908671 22:26.41725 23:17.851385 24:16.247472 25:18.440236 
1 1:265210.85 2:3271.5246 3:2544.2073 4:2383.7439 5:2367.2437 6:2135.512 7:1853.7991 8:1787.1487 9:1720.4868 10:1382.4049 11:702.75838 12:494.99078 13:644.01175 14:790.33626 15:526.43997 16:323.49107 17:291.1787 18:231.84487 19:154.75304 20:86.973766 21:43.953685 22:29.797303 23:11.911296 24:6.2841334 25:3.7700956 
1 1:261729.11 2:3390.3168 3:3406.6223 4:1991.245 5:1769.7164 6:1786.5077 7:1541.9595 8:1415.0691 9:1495.6778 10:1404.316 11:1250.0935 12:902.40551 13:597.11368 14:546.64993 15:509.56497 16:309.76232 17:200.824 18:176.48051 19:118.1465 20:69.495158 21:46.500817 22:30.349521 23:16.901494 24:8.6860787 25:6.3014532 
1 1:265272.42 2:3512.7014 3:3116.2825 4:2640.0705 5:1961.9966 6:1720.2926 7:1290.9382 8:1682.2683 9:1557.8434 10:1044.477 11:666.37263 12:524.67873 13:669.47364 14:596.14929 15:360.58719 16:319.14967 17:271.68406 18:171.13774 19:101.39764 20:56.719411 21:40.493327 22:30.373285 23:14.016124 24:8.6565614 25:8.5821982 
1 1:248855.46 2:3330.1466 3:2731.9639 4:2152.8281 5:2029.4708 6:1845.8832 7:1410.3265 8:1766.7239 9:2014.7488 10:1610.8132 11:1055.4651 12:656.30714 13:580.19544 14:521.45025 15:395.48269 16:279.20836 17:219.95631 18:213.79941 19:146.21052 20:99.676125 21:73.353569 22:66.887241 23:67.121786 24:68.125573 25:68.03388 
1 1:218108.07 2:2787.8714 3:2808.9173 4:2601.489 5:2553.6705 6:2287.4177 7:2038.5671 8:2261.7164 9:1915.1294 10:1287.4838 11:1127.815 12:1054.075 13:655.26209 14:535.56179 15:432.59799 16:383.17585 17:259.36028 18:174.42823 19:137.79365 20:123.21819 21:130.75555 22:129.35559 23:128.43941 24:122.72795 25:119.99925 
1 1:180196.59 2:3581.71 3:3125.3894 4:3040.8649 5:2833.2795 6:2136.7652 7:1770.679 8:1684.5269 9:1440.2543 10:1064.2244 11:823.99704 12:751.81469 13:591.85834 14:458.24385 15:459.43918 16:354.29175 17:288.74526 18:279.14273 19:179.93401 20:134.41143 21:106.32923 22:110.43706 23:113.04422 24:113.0459 25:110.31181 
1 1:144297.2 2:4130.2958 3:3812.8106 4:2522.8045 5:2300.5439 6:1910.9711 7:1492.1721 8:1423.3321 9:1308.7309 10:1397.6866 11:1089.5223 12:670.59206 13:535.582 14:509.38253 15:442.30917 16:345.72252 17:208.69969 18:173.73757 19:143.7382 20:121.29161 21:85.428799 22:80.777105 23:77.825088 24:73.937589 25:75.29619 
1 1:121453.16 2:3845.3632 3:3903.6119 4:3516.603 5:2439.5448 6:2494.8068 7:2203.5489 8:1278.7932 9:1945.3273 10:2033.5656 11:1023.7807 12:878.13446 13:1269.9175 14:1225.059 15:754.77267 16:670.8642 17:379.74573 18:167.62288 19:146.64855 20:97.551148 21:61.945858 22:63.637413 23:64.375017 24:61.997633 25:60.233111 
1 1:104569 2:3698.4621 3:3466.9995 4:3637.8538 5:3347.5451 6:2014.3506 7:1487.5947 8:1655.9212 9:1707.3124 10:1433.6337 11:1151.0472 12:882.09193 13:697.30727 14:565.00306 15:407.42694 16:361.40253 17:259.49256 18:184.54783 19:105.53762 20:70.316216 21:47.150824 22:34.342652 23:17.299118 24:12.921161 25:14.95302 
1 1:100221.07 2:3328.815 3:4741.0307 4:3909.2742 5:2249.6808 6:1971.0937 7:2324.053 8:2004.0632 9:1354.2191 10:1422.9203 11:1171.1529 12:939.33331 13:795.81526 14:688.57534 15:594.25639 16:462.24376 17:287.51041 18:171.03778 19:96.558097 20:91.828321 21:63.850602 22:45.007375 23:22.698201 24:7.8586631 25:4.8371137 
1 1:100231.99 2:3754.4001 3:2574.3438 4:2969.6761 5:2950.4759 6:2316.7015 7:2032.0021 8:1561.3615 9:1367.898 10:1418.0893 11:1223.4378 12:1003.9149 13:733.1816 14:662.97781 15:594.02877 16:443.47799 17:339.07006 18:215.08479 19:159.98474 20:103.50666 21:65.242322 22:33.447563 23:15.159662 24:7.0529331 25:5.2817894 
1 1:104825.46 2:3354.2092 3:3295.6624 4:3241.7095 5:2041.2631 6:2028.3439 7:2037.8582 8:1864.6418 9:2193.5356 10:1949.4783 11:1220.3091 12:1208.6944 13:1123.5078 14:693.14515 15:565.38681 16:567.0806 17:328.60199 18:229.61519 19:196.66242 20:146.16123 21:91.908676 22:56.095811 23:37.256751 24:29.592122 25:28.360618 
1 1:112384.39 2:2467.7113 3:3385.4051 4:3209.1463 5:1991.7238 6:1717.5913 7:1996.5411 8:1865.0189 9:1683.2523 10:1581.9035 11:1116.8449 12:752.15475 13:980.64467 14:1068.9247 15:638.20324 16:419.07175 17:364.99964 18:240.95052 19:159.19004 20:100.82143 21:65.38962 22:48.908258 23:38.875197 24:31.626539 25:29.903223 
1 1:124593.5 2:2876.9221 3:3007.882 4:3101.2245 5:2605.9712 6:2347.285 7:2199.144 8:2138.1535 9:2315.4741 10:1918.6747 11:1162.3657 12:957.41026 13:877.13324 14:852.20942 15:685.85798 16:554.17884 17:385.30832 18:232.79866 19:153.0745 20:126.47942 21:88.019332 22:53.555005 23:35.923452 24:34.987256 25:34.313947 
1 1:136368.57 2:2055.173 3:2789.3347 4:2733.2773 5:2383.1014 6:2423.6905 7:2410.4294 8:2211.7714 9:2055.9637 10:1704.0731 11:1313.0202 12:969.8106 13:662.53162 14:677.10591 15:672.89933 16:547.65607 17:284.82489 18:202.69552 19:148.31703 20:110.23792 21:63.76941 22:55.196241 23:51.205782 24:44.634758 25:44.363497 
1 1:151051.65 2:2790.2325 3:2830.5965 4:3190.1796 5:3267.2358 6:2698.743 7:2242.4107 8:1886.9699 9:1744.143 10:1610.2989 11:1316.3628 12:1042.6805 13:836.21976 14:869.43588 15:732.70882 16:498.2165 17:378.24646 18:254.40984 19:189.89835 20:121.64162 21:87.444852 22:46.584632 23:26.947773 24:20.573227 25:24.138159 
1 1:163476.05 2:3408.1798 3:3868.2779 4:3598.9972 5:2730.1009 6:2203.6418 7:2540.4882 8:3030.4294 9:2179.166 10:1516.6931 11:1652.5941 12:1152.7941 13:726.10005 14:832.862 15:708.81563 16:580.89414 17:437.74514 18:283.58902 19:133.71741 20:102.89535 21:98.319845 22:59.805706 23:45.036929 24:38.737213 25:36.507235 
1 1:179935.66 2:3808.1818 3:2943.3291 4:2452.7703 5:2314.7581 6:2385.9037 7:1728.735 8:1412.438 9:2133.1622 10:1879.3016 11:1147.6787 12:1035.0646 13:980.31388 14:1104.2124 15:944.63647 16:604.1416 17:445.57729 18:297.23515 19:193.32885 20:173.48677 21:94.114983 22:50.717302 23:55.660271 24:54.11567 25:54.436332 
1 1:190566.78 2:2451.057 3:2889.5809 4:3276.6396 5:2427.411 6:1905.105 7:2237.5088 8:2426.9602 9:2270.5103 10:1774.32 11:1028.178 12:850.23959 13:891.87129 14:870.53358 15:728.40954 16:483.86637 17:360.86151 18:276.03486 19:179.95611 20:108.63891 21:87.521504 22:47.254697 23:30.858964 24:29.362776 25:29.936899 
1 1:200034.17 2:3531.7661 3:3165.864 4:2805.7992 5:2665.4933 6:2673.7133 7:2366.5208 8:2367.8334 9:2226.1006 10:1940.8023 11:1493.5027 12:848.68161 13:783.60767 14:905.54958 15:483.2852 16:378.83381 17:396.79282 18:294.66308 19:202.32408 20:123.0388 21:90.287802 22:52.006931 23:28.030555 24:27.281261 25:23.118623 
1 1:208559.83 2:3995.3643 3:4209.0562 4:3157.6564 5:2456.8943 6:2618.6702 7:2266.4732 8:1833.3156 9:1709.3846 10:1433.9323 11:1335.5276 12:1109.6196 13:881.00101 14:736.12082 15:554.31606 16:483.60519 17:385.66816 18:329.43614 19:211.35058 20:91.664513 21:57.616275 22:36.991273 23:29.141581 24:16.699697 25:15.294545 
1 1:214972.18 2:3609.49 3:3949.5423 4:2850.9977 5:1875.2878 6:1761.8804 7:1567.4281 8:1677.1046 9:1910.6262 10:1376.7269 11:1015.4116 12:1003.1712 13:889.74231 14:819.01194 15:622.69434 16:510.39042 17:414.11213 18:336.77529 19:250.9787 20:121.8642 21:59.296157 22:30.506566 23:17.603825 24:18.959289 25:18.391187 
1 1:220393.68 2:2967.9336 3:3669.8751 4:2817.6967 5:2651.0111 6:2643.5426 7:2749.4565 8:2733.7058 9:2072.2093 10:2045.228 11:1623.1772 12:853.40845 13:632.26737 14:756.08278 15:704.01314 16:485.21172 17:317.32035 18:272.15582 19:194.42729 20:131.20101 21:68.218004 22:57.569712 23:43.548898 24:42.920191 25:45.49 
1 1:235381.96 2:3645.5261 3:3638.2394 4:3372.6312 5:3077.9002 6:2912.8636 7:2166.9384 8:1845.6551 9:2121.856 10:1831.223 11:1481.9414 12:1251.4866 13:1069.3686 14:895.42323 15:650.28202 16:507.1915 17:285.2728 18:265.9923 19:202.31344 20:96.889209 21:41.083401 22:45.194266 23:37.26958 24:29.493248 25:29.252776 
1 1:252564.89 2:3755.5449 3:3301.2425 4:3282.4015 5:2883.0784 6:2428.8774 7:2446.5667 8:2131.2474 9:1956.9682 10:1663.2645 11:1313.1126 12:1087.3034 13:897.68295 14:717.76093 15:610.13793 16:599.16489 17:479.38705 18:319.88169 19:216.99522 20:118.02336 21:74.841939 22:75.94333 23:66.650212 24:61.976239 25:64.600344 
1 1:277534.19 2:4260.8382 3:4147.9147 4:3347.3191 5:2380.8244 6:2557.3634 7:2837.4778 8:2637.4001 9:2258.558 10:1825.5606 11:1487.0633 12:942.2305 13:761.09877 14:736.33503 15:553.04876 16:440.12983 17:372.9272 18:219.94105 19:151.35022 20:143.34044 21:123.90183 22:97.131437 23:91.380557 24:93.69082 25:92.649851 
1 1:304311.22 2:3909.0096 3:3755.3912 4:2885.9678 5:2389.2416 6:2386.3926 7:2532.9076 8:2424.7494 9:2193.2316 10:2306.9431 11:1486.0272 12:809.19149 13:915.86435 14:889.21412 15:600.41598 16:487.44483 17:401.21181 18:269.27297 19:167.52292 20:117.7257 21:77.608558 22:63.446558 23:51.592741 24:50.566361 25:49.752088 
1 1:328091.2 2:3046.1148 3:4095.7007 4:4911.9896 5:3610.6699 6:2850.7153 7:2940.8104 8:2750.5487 9:2201.8895 10:1512.2853 11:1120.4438 12:956.89616 13:784.29214 14:756.25935 15:719.31488 16:561.58739 17:350.08093 18:291.02733 19:193.89301 20:84.647949 21:74.475552 22:59.590377 23:46.584039 24:42.926543 25:44.699874 
1 1:344540.26 2:3332.9631 3:4147.1498 4:2744.3939 5:2560.6252 6:3091.9696 7:2149.4766 8:1532.7391 9:1538.3096 10:1480.3625 11:1138.3455 12:823.89948 13:685.2666 14:623.64693 15:537.77552 16:336.79478 17:254.19815 18:206.72907 19:128.90994 20:101.4332 21:80.441047 22:55.19783 23:50.803304 24:51.063257 25:48.857653 
1 1:356054.3 2:4198.3776 3:4135.9656 4:3734.5087 5:2267.6125 6:2759.4127 7:2789.2245 8:2042.5608 9:2051.9811 10:1219.1071 11:693.87303 12:591.69879 13:743.83738 14:802.49607 15:516.45804 16:275.80691 17:253.46503 18:239.23949 19:140.02997 20:102.87439 21:55.793907 22:32.550784 23:20.059213 24:19.794355 25:17.695085 
1 1:360548.91 2:3828.5337 3:3912.091 4:3161.9329 5:2156.4153 6:2213.6253 7:2135.6472 8:1295.2433 9:1211.0426 10:1464.2848 11:1114.7843 12:733.77144 13:566.37169 14:521.84889 15:419.73731 16:283.30763 17:254.10748 18:188.4012 19:128.5946 20:93.706189 21:40.794877 22:24.997779 23:11.535955 24:7.9274163 25:8.4565304 
1 1:365491.61 2:4884.6502 3:3757.1254 4:3932.9827 5:3336.1251 6:2030.7969 7:1717.5412 8:1311.5656 9:997.70642 10:1048.9063 11:1145.8089 12:832.84024 13:642.28298 14:705.02886 15:503.40965 16:393.23717 17:373.99988 18:207.82188 19:108.30869 20:94.260464 21:59.205785 22:34.312903 23:22.600839 24:14.462504 25:12.266623 
1 1:364197.12 2:3881.8429 3:4521.5204 4:3631.6394 5:2992.6217 6:3057.471 7:2538.7626 8:1949.0304 9:1423.1151 10:1257.8433 11:917.32444 12:587.491 13:548.78967 14:491.64463 15:397.93154 16:347.57251 17:254.54203 18:203.70275 19:132.18639 20:69.067714 21:35.231137 22:27.543643 23:17.228187 24:9.6302832 25:6.5387492 
1 1:368060.71 2:5325.9197 3:3961.1274 4:3958.8791 5:3049.5692 6:2641.4209 7:2602.3387 8:2051.0352 9:1507.3894 10:1378.2311 11:1093.527 12:681.36802 13:656.17228 14:757.34282 15:574.93677 16:397.13445 17:275.00635 18:213.74945 19:176.95979 20:92.676241 21:46.432006 22:28.65002 23:15.25052 24:11.530204 25:8.4959084 
1 1:356985.77 2:2944.6804 3:2432.7766 4:2555.9124 5:1846.8112 6:1299.2326 7:1240.9871 8:1241.5789 9:979.47379 10:944.34696 11:956.17022 12:774.85611 13:649.53352 14:537.18241 15:465.22081 16:381.71674 17:258.149 18:211.15783 19:133.59772 20:84.057611 21:44.0905 22:28.752633 23:25.168472 24:21.222314 25:19.104567 
1 1:346163.26 2:1696.9849 3:2263.3713 4:2426.6869 5:2342.1088 6:2140.5064 7:1511.8325 8:1239.1719 9:1357.8022 10:1036.8765 11:729.8987 12:474.13413 13:468.25131 14:577.80073 15:433.67176 16:265.27437 17:126.92555 18:124.47209 19:112.99344 20:77.192455 21:56.43974 22:43.73016 23:45.323829 24:42.335144 25:43.539584 
1 1:334258.75 2:1812.4569 3:2628.9834 4:2281.3661 5:1427.8077 6:1789.2352 7:1664.4137 8:1232.3668 9:1094.5563 10:995.84865 11:745.78882 12:515.96917 13:557.31852 14:539.2939 15:319.13765 16:283.54643 17:229.49103 18:123.34509 19:77.115253 20:71.224963 21:57.041038 22:47.632828 23:40.373043 24:37.42656 25:41.836844 
1 1:316153.02 2:1870.3296 3:2297.4953 4:2304.7396 5:1711.1009 6:1581.5382 7:1397.5464 8:946.30291 9:968.96267 10:879.93139 11:509.68627 12:428.91426 13:497.22505 14:413.66743 15:284.12379 16:238.3337 17:202.08465 18:172.00943 19:95.2734 20:59.87982 21:45.36938 22:36.356899 23:35.73562 24:34.946578 25:36.730428 
1 1:305800.95 2:2850.2178 3:3201.8875 4:2165.0839 5:1540.1828 6:1641.7738 7:1581.2031 8:1316.4195 9:1220.7055 10:1061.6515 11:822.40926 12:616.99038 13:441.63813 14:387.60001 15:253.37593 16:201.88166 17:221.90655 18:211.46109 19:137.61088 20:84.524558 21:52.964262 22:36.441276 23:33.02335 24:36.246607 25:37.154083 
1 1:295398.61 2:3034.9574 3:2928.4019 4:2510.6454 5:1945.4395 6:1883.7873 7:2522.3779 8:2163.0221 9:1218.8552 10:1245.7887 11:942.45336 12:569.25331 13:557.89936 14:544.68594 15:302.56801 16:236.22725 17:196.73381 18:133.75032 19:113.31151 20:69.710979 21:50.219538 22:39.38431 23:25.421695 24:27.417759 25:27.030373 
1 1:286692.44 2:2227.2722 3:2201.0095 4:2007.134 5:2851.9967 6:2559.0598 7:1431.735 8:1685.7818 9:1914.2322 10:1495.0865 11:1106.6768 12:712.8728 13:516.78378 14:475.73632 15:409.14012 16:379.17058 17:299.72934 18:228.00376 19:176.31022 20:100.4041 21:47.456155 22:27.986396 23:18.761212 24:20.632593 25:21.309567 
1 1:283693.82 2:2846.0497 3:2413.6789 4:2463.2729 5:1874.2915 6:1246.909 7:1517.3648 8:1543.0884 9:1432.6567 10:1131.6123 11:768.59976 12:674.41549 13:701.40564 14:581.90903 15:403.68741 16:372.60479 17:292.22308 18:239.26422 19:176.83499 20:85.962549 21:44.487062 22:26.714946 23:19.209287 24:18.573623 25:18.499939 
1 1:277703.44 2:4026.9906 3:3442.1595 4:2643.6489 5:2512.5844 6:1992.0516 7:1670.4039 8:1903.9072 9:1699.4161 10:1451.643 11:981.75106 12:547.53498 13:539.29707 14:540.54006 15:443.78015 16:305.44746 17:295.70086 18:193.20107 19:104.69398 20:78.78521 21:46.409465 22:29.778167 23:20.434106 24:20.69015 25:19.917624 
1 1:266053.18 2:3690.957 3:4170.3305 4:3407.9321 5:2454.3651 6:2412.8852 7:2333.5073 8:2100.8994 9:1886.4917 10:1606.2745 11:1108.1273 12:828.20283 13:893.5178 14:751.92296 15:464.30189 16:365.54084 17:336.08925 18:227.62662 19:125.55581 20:100.86157 21:57.959068 22:28.212283 23:20.920749 24:22.006643 25:21.116586 
1 1:261882.39 2:4201.3028 3:3742.1406 4:3723.4201 5:2592.5887 6:2172.3396 7:2504.7821 8:1955.0512 9:1478.996 10:1248.9593 11:1363.3568 12:1115.3488 13:683.2666 14:838.69859 15:804.02021 16:601.57732 17:377.70119 18:266.64758 19:177.18305 20:123.32451 21:83.779265 22:40.75723 23:24.125482 24:27.286799 25:26.011621 
1 1:255479.05 2:3352.5753 3:3403.4751 4:1869.9564 5:1156.3445 6:1398.4379 7:1297.5733 8:1326.3581 9:1397.1606 10:1244.3918 11:869.64914 12:588.29478 13:468.89283 14:543.39038 15:482.46243 16:312.12613 17:209.61904 18:190.89186 19:115.76818 20:48.362191 21:31.361229 22:22.746614 23:11.995443 24:8.8333235 25:6.1613105 
1 1:264480.24 2:3176.8876 3:3193.6102 4:2504.9352 5:2049.7428 6:1710.2751 7:1450.0922 8:1225.2238 9:1161.9681 10:1123.1179 11:859.05752 12:668.16485 13:684.71747 14:740.90133 15:460.40638 16:267.14759 17:207.39328 18:161.64376 19:131.56691 20:77.415968 21:63.626486 22:52.009785 23:49.21343 24:47.074003 25:44.827613 
1 1:280582.1 2:4810.7066 3:4256.0432 4:3356.9714 5:2325.4459 6:2053.1168 7:1303.0249 8:942.26696 9:1121.5264 10:1113.785 11:941.04391 12:649.02813 13:594.66692 14:612.81602 15:482.28387 16:398.29493 17:224.56809 18:129.69601 19:85.061944 20:74.670751 21:57.449238 22:36.234129 23:32.899748 24:29.740489 25:25.697137 
1 1:285985.42 2:3009.8792 3:2846.8772 4:2577.9268 5:2009.3046 6:1897.9235 7:1301.9979 8:1101.573 9:1312.1807 10:1299.4249 11:975.55524 12:526.44338 13:444.30207 14:458.77163 15:270.92575 16:199.57523 17:217.12187 18:160.71646 19:81.728274 20:49.361177 21:44.034271 22:27.44687 23:23.803914 24:23.598631 25:22.765434 
1 1:291335.34 2:2522.2552 3:2775.1331 4:2062.503 5:1504.5401 6:1389.4819 7:1293.7261 8:1145.115 9:1231.6304 10:973.42692 11:385.68144 12:248.91004 13:355.39001 14:344.47362 15:314.15455 16:278.43372 17:168.18992 18:89.106332 19:52.973271 20:43.384484 21:45.358813 22:31.717525 23:17.175963 24:15.859678 25:14.667209 
1 1:293670.33 2:2593.8267 3:2415.0911 4:1782.8296 5:1176.4106 6:1161.3558 7:1166.7659 8:1016.7529 9:982.76454 10:867.97363 11:604.16057 12:510.50813 13:358.99631 14:317.17883 15:328.20117 16:287.64479 17:202.3984 18:114.99092 19:59.767782 20:46.369402 21:35.304292 22:23.812635 23:12.621128 24:8.068368 25:6.7281727 
1 1:290353.88 2:2399.5172 3:2211.269 4:1978.6934 5:1329.5956 6:1283.4545 7:1113.909 8:890.01065 9:936.45625 10:845.35676 11:647.41769 12:615.72742 13:468.44896 14:347.13749 15:372.85751 16:334.92555 17:193.62563 18:141.14959 19:92.747361 20:59.303082 21:36.449745 22:20.167272 23:15.199626 24:9.2141659 25:6.3266888 
1 1:287487.03 2:2141.6942 3:1886.4463 4:2072.642 5:1654.2316 6:1248.3585 7:1109.3248 8:1151.0251 9:1274.0384 10:1191.1365 11:755.7163 12:395.90535 13:437.39994 14:376.66869 15:223.04589 16:190.23462 17:127.78438 18:104.20595 19:86.328459 20:73.965026 21:38.769649 22:16.387603 23:13.885011 24:10.471416 25:7.4668019 
1 1:285769.22 2:1727.052 3:2310.5817 4:1791.3832 5:1255.7787 6:1151.7868 7:748.88788 8:672.80584 9:871.30958 10:756.13945 11:316.94092 12:306.52645 13:384.58844 14:390.667 15:354.52623 16:246.29963 17:124.76815 18:77.175999 19:60.887675 20:54.760723 21:28.287232 22:15.354343 23:11.122547 24:8.1393522 25:7.0663681 
1 1:291878.84 2:2411.558 3:2544.4497 4:2071.408 5:1550.1787 6:1090.3557 7:760.67617 8:604.3808 9:866.17592 10:870.9989 11:668.66381 12:560.91988 13:446.13883 14:334.05773 15:306.82104 16:271.1294 17:164.11586 18:122.95005 19:59.623452 20:47.427377 21:29.41316 22:21.383707 23:18.438079 24:17.030978 25:17.878565 
1 1:292189.08 2:2453.2895 3:2119.0049 4:1354.2331 5:1031.0833 6:1147.6002 7:1170.4884 8:893.93837 9:815.54084 10:760.21047 11:646.27663 12:434.73226 13:360.56186 14:408.12662 15:267.40601 16:164.16301 17:122.50015 18:114.57899 19:81.260974 20:57.03174 21:42.337501 22:20.438865 23:9.5955699 24:3.9038253 25:4.0470234 
1 1:294796.51 2:2382.8999 3:2256.474 4:1562.4611 5:1102.9845 6:1315.8723 7:1315.2021 8:944.06045 9:720.73489 10:848.27105 11:654.66195 12:490.37168 13:332.75022 14:357.53752 15:342.72345 16:267.72861 17:186.00015 18:101.72964 19:69.616119 20:53.305907 21:32.610419 22:15.334223 23:10.446258 24:9.0760344 25:6.844184 
1 1:297091.4 2:2081.9343 3:2346.337 4:1914.5019 5:1424.8765 6:1629.2187 7:1315.7711 8:1017.8789 9:1335.2041 10:1116.8399 11:752.32041 12:635.80664 13:332.75661 14:250.76583 15:282.5786 16:278.75477 17:192.52275 18:126.73018 19:89.804847 20:70.054231 21:39.970383 22:20.410696 23:11.284544 24:8.023071 25:8.771881 
1 1:310169.62 2:7340.2105 3:6112.0614 4:4958.1276 5:3210.6494 6:3027.7391 7:2292.2979 8:1862.1892 9:2017.9975 10:1819.6252 11:1368.5995 12:1022.7094 13:761.94967 14:853.76884 15:626.77091 16:337.36627 17:312.54873 18:216.35034 19:144.053 20:110.08146 21:86.338256 22:86.038524 23:77.981193 24:81.402389 25:83.301764 
1 1:368494.15 2:5244.506 3:5054.2161 4:4924.6136 5:4072.9767 6:2996.6425 7:2600.4879 8:2378.7512 9:1728.3326 10:1729.4033 11:1295.0452 12:883.70256 13:1043.2626 14:980.33632 15:727.0727 16:610.50476 17:447.6277 18:313.51493 19:259.61837 20:259.65737 21:236.91825 22:216.71823 23:213.51874 24:215.08718 25:214.01022 
1 1:369612.78 2:3228.7889 3:2991.1817 4:2348.8943 5:1811.2314 6:1601.6113 7:1618.6804 8:1394.6841 9:1211.2757 10:1169.0628 11:1074.7334 12:772.73066 13:606.94467 14:595.10346 15:490.20481 16:350.23125 17:255.12469 18:226.26131 19:160.98634 20:106.13305 21:78.370021 22:62.564369 23:64.909539 24:68.773747 25:68.642385 
1 1:359891.07 2:2816.9279 3:3855.4094 4:2813.4446 5:1200.9484 6:1128.9444 7:1222.2561 8:1068.9041 9:1081.6708 10:1271.1859 11:798.67246 12:449.8712 13:372.32065 14:351.35457 15:327.45656 16:229.66009 17:169.53053 18:142.9316 19:93.212495 20:60.573443 21:41.401276 22:22.049472 23:20.622674 24:18.814116 25:18.446413 
1 1:354531.64 2:1920.0777 3:2333.2395 4:1796.8025 5:844.16786 6:850.74171 7:792.61458 8:712.92214 9:899.58876 10:995.93731 11:659.91341 12:425.71743 13:369.3028 14:266.3048 15:276.10099 16:264.29939 17:175.07085 18:105.49264 19:55.383324 20:46.960117 21:34.325818 22:18.834744 23:7.3913603 24:5.0158627 25:4.3425205 
1 1:352870.89 2:1885.8153 3:2135.4173 4:2270.6033 5:1437.9916 6:1180.1014 7:917.62194 8:699.2817 9:819.29823 10:752.19526 11:689.24335 12:665.75819 13:435.51407 14:389.91092 15:295.42061 16:242.07998 17:201.7219 18:128.23499 19:73.992092 20:53.281503 21:36.045634 22:24.070296 23:24.884564 24:24.177517 25:25.001315 
1 1:346030.93 2:4057.7992 3:4664.5626 4:3698.7006 5:2217.0685 6:1941.6063 7:1521.398 8:1251.5853 9:1240.1565 10:1078.9381 11:842.24502 12:749.41792 13:530.9901 14:518.18283 15:407.31278 16:306.64062 17:214.91475 18:164.62957 19:111.04097 20:82.589687 21:47.024719 22:36.662711 23:26.630464 24:25.336802 25:26.714599 
1 1:336926.11 2:3757.8352 3:3847.1884 4:2829.8008 5:2336.0258 6:2152.3446 7:1610.9738 8:1335.1219 9:1284.1205 10:908.0762 11:699.57662 12:654.00128 13:608.62949 14:440.39327 15:297.44435 16:270.15906 17:221.68585 18:142.46712 19:71.371586 20:66.839972 21:56.444321 22:29.12369 23:13.458363 24:10.879491 25:10.398482 
1 1:335539.2 2:7157.9018 3:5142.4796 4:2717.4879 5:2054.5552 6:2624.7575 7:2207.327 8:1570.9602 9:1356.3075 10:1243.4941 11:878.68462 12:571.82694 13:556.31312 14:548.50083 15:414.2902 16:297.56797 17:270.9737 18:186.83805 19:113.84328 20:81.680488 21:49.270332 22:29.470551 23:17.634274 24:13.547227 25:13.265116 
1 1:336299.48 2:3970.7009 3:2661.1968 4:2866.0999 5:2361.3629 6:1978.6301 7:1396.9129 8:952.7356 9:1469.8501 10:1621.1903 11:1026.5933 12:836.96945 13:626.8368 14:517.91294 15:421.87637 16:352.71949 17:217.38523 18:112.80841 19:106.31512 20:74.450747 21:40.152306 22:18.044729 23:10.471193 24:5.1989353 25:2.7004732 
1 1:344839.53 2:8872.1438 3:5732.0913 4:3352.76 5:2486.4917 6:2332.4938 7:1535.5224 8:1270.3046 9:1466.9155 10:1098.4824 11:821.88633 12:902.19155 13:960.54955 14:710.69881 15:594.13466 16:501.65726 17:265.11279 18:150.46423 19:126.25004 20:80.617279 21:52.343279 22:36.319967 23:27.59482 24:23.430602 25:24.4453 
1 1:352796.47 2:6212.5153 3:5525.827 4:4075.5763 5:2486.8872 6:2810.3835 7:2810.5666 8:2262.3841 9:2659.5734 10:2082.8787 11:1373.7351 12:1371.148 13:1282.824 14:987.02826 15:807.09391 16:623.13812 17:361.62662 18:352.4302 19:236.28942 20:114.56602 21:97.407939 22:72.99263 23:59.726703 24:57.918501 25:53.875571 
1 1:376257.62 2:7513.4962 3:7100.4899 4:4662.1956 5:2791.2328 6:2413.7723 7:2529.6011 8:1641.5443 9:1420.2651 10:1707.8824 11:1475.8032 12:1393.8887 13:1120.0121 14:847.19972 15:719.61197 16:508.00388 17:319.73014 18:219.83627 19:159.24365 20:118.25421 21:122.36629 22:100.43322 23:92.573797 24:95.179064 25:91.986649 
1 1:377727.8 2:4344.6404 3:3821.0201 4:2773.0104 5:2718.7752 6:2745.1616 7:2040.0528 8:2064.5934 9:1777.2122 10:1418.1135 11:1090.7054 12:824.82595 13:817.16037 14:696.09557 15:565.88723 16:422.15798 17:246.9333 18:187.1786 19:142.32779 20:83.862945 21:54.446372 22:32.522195 23:21.780863 24:21.071299 25:21.40216 
1 1:374270.32 2:4462.417 3:4182.8774 4:3181.7471 5:1944.6356 6:1458.476 7:1554.0816 8:963.97814 9:1138.5308 10:1153.3488 11:862.00172 12:650.06593 13:522.58539 14:615.88863 15:594.35713 16:503.64671 17:270.82124 18:122.05543 19:114.92775 20:72.816356 21:52.428562 22:28.009747 23:14.697645 24:13.100369 25:13.835967 
1 1:364308.8 2:3636.2806 3:3154.6783 4:2534.4529 5:2154.9677 6:2212.5825 7:1768.6977 8:1327.5684 9:1380.9354 10:1456.5517 11:1037.2472 12:625.36477 13:509.87877 14:450.75652 15:371.94922 16:357.07694 17:251.67331 18:162.40073 19:96.757453 20:69.083308 21:60.491127 22:39.220551 23:23.9578 24:25.646964 25:26.642937 
1 1:357404.77 2:2823.6476 3:2388.2026 4:2082.0436 5:1737.8084 6:1363.2587 7:1215.1987 8:1258.7141 9:1190.8159 10:1418.4387 11:1110.8262 12:738.64537 13:685.92631 14:516.11224 15:456.23316 16:335.40015 17:261.68871 18:217.722 19:127.05857 20:67.954298 21:60.232191 22:53.149419 23:47.338556 24:45.29322 25:45.227816 
1 1:350989.03 2:3571.9106 3:4764.0217 4:4216.651 5:2892.0833 6:2872.3707 7:2280.1988 8:1688.1512 9:1453.0832 10:1264.466 11:914.28076 12:515.75365 13:455.09133 14:498.68274 15:425.37567 16:318.37451 17:226.57731 18:219.97736 19:165.61627 20:78.359932 21:43.489994 22:28.522042 23:17.218689 24:16.686809 25:18.099383 
1 1:346693.21 2:3379.7834 3:3730.2539 4:3330.5318 5:2304.6039 6:1730.6135 7:1400.5392 8:1380.6492 9:1355.8114 10:1135.7339 11:785.20058 12:539.58813 13:548.66966 14:631.70249 15:463.7703 16:374.68305 17:245.58084 18:146.82832 19:99.930375 20:77.077982 21:51.260333 22:30.465168 23:25.807759 24:22.497187 25:21.781124 
1 1:345313.75 2:2349.609 3:2931.5285 4:2545.75 5:1692.7878 6:1521.6372 7:951.87507 8:851.34797 9:1192.149 10:1044.2602 11:735.88079 12:479.64091 13:285.78929 14:349.90559 15:361.53101 16:249.02381 17:158.0551 18:102.51018 19:89.713512 20:74.700438 21:37.89239 22:17.433474 23:14.045338 24:11.116753 25:9.7135303 
1 1:342538.95 2:3356.6994 3:2541.4165 4:2166.1518 5:1989.9965 6:1618.2893 7:1452.2233 8:953.53124 9:803.04553 10:871.51192 11:655.18416 12:340.60044 13:355.65976 14:446.81532 15:282.66796 16:263.38295 17:228.42621 18:118.59988 19:72.567873 20:53.394766 21:32.165966 22:19.308248 23:11.693674 24:5.6826198 25:5.8540945 
1 1:341499.63 2:3184.697 3:3114.2127 4:2594.9618 5:1740.9379 6:1328.2834 7:842.82186 8:675.38085 9:1116.014 10:1145.6467 11:604.30756 12:346.92709 13:271.93506 14:323.45669 15:351.54889 16:249.39613 17:175.66832 18:151.97172 19:114.51477 20:68.470138 21:29.348403 22:23.227684 23:16.697112 24:13.810388 25:13.172495 
1 1:335851.64 2:4307.8459 3:3825.494 4:3350.1108 5:1818.6463 6:1393.5342 7:1510.4649 8:1101.3195 9:901.27712 10:985.54138 11:713.09514 12:461.02688 13:341.3051 14:399.41639 15:429.51742 16:311.63814 17:205.23063 18:156.12568 19:90.84699 20:58.378984 21:63.927586 22:62.370421 23:52.859397 24:48.42833 25:49.681046 
1 1:326854.96 2:6727.3125 3:7452.807 4:5325.438 5:2564.7596 6:2181.0035 7:1667.8243 8:1764.3613 9:1714.926 10:1417.6534 11:1149.4769 12:866.28968 13:769.96763 14:662.83938 15:570.9646 16:579.06092 17:393.14437 18:242.29767 19:128.37698 20:82.996206 21:61.704326 22:29.117604 23:19.050411 24:6.9602497 25:3.4822682 
1 1:334200.76 2:4370.2459 3:4771.0522 4:3748.279 5:3047.9765 6:2816.4516 7:2308.497 8:2169.4266 9:2147.549 10:1738.0656 11:1054.2453 12:895.9158 13:717.5009 14:508.3971 15:626.41355 16:631.71415 17:368.28649 18:163.53218 19:117.223 20:87.438943 21:60.583381 22:43.291249 23:41.311475 24:45.633132 25:48.157822 
1 1:349328.74 2:5170.6061 3:4952.4978 4:3675.4678 5:2556.6969 6:1529.9538 7:1054.548 8:1234.2794 9:1349.9953 10:1261.0389 11:1085.865 12:815.4774 13:609.77759 14:570.036 15:582.55043 16:498.20345 17:267.71764 18:155.78832 19:127.45996 20:103.98481 21:65.993915 22:42.48152 23:39.198674 24:34.151587 25:32.029686 
1 1:353046.06 2:2597.9442 3:3208.8788 4:3734.8179 5:2793.0147 6:2045.6588 7:1649.1377 8:1286.3895 9:1080.9866 10:950.1286 11:907.72367 12:682.09849 13:422.13798 14:436.61338 15:332.10648 16:279.76599 17:219.65816 18:121.66903 19:120.63634 20:82.19925 21:32.433937 22:24.572189 23:17.799519 24:15.125894 25:14.575146 
1 1:356867.34 2:3340.3283 3:2877.785 4:2668.6722 5:2296.6656 6:1914.3892 7:1196.5529 8:1020.3981 9:1329.8125 10:1155.9425 11:855.47989 12:768.69157 13:739.11002 14:674.89647 15:523.75764 16:427.23665 17:292.02565 18:235.25002 19:158.18471 20:52.680782 21:33.472346 22:25.618358 23:15.730207 24:6.5208388 25:4.7286559 
1 1:356906.02 2:2966.7992 3:2707.1037 4:2184.4843 5:1799.236 6:1734.752 7:1531.073 8:1139.6599 9:1155.9849 10:1100.6109 11:682.72693 12:410.20354 13:406.61979 14:433.56294 15:456.45339 16:413.99127 17:228.01354 18:142.99093 19:120.37402 20:75.292925 21:45.402215 22:29.189822 23:12.631091 24:4.9399849 25:2.9080518 
1 1:355984.29 2:2535.1773 3:2455.3944 4:2250.7958 5:1673.8863 6:1928.8927 7:1546.1002 8:1361.5123 9:1334.0933 10:1065.2824 11:723.08353 12:606.25202 13:812.58802 14:982.83301 15:713.89597 16:437.52882 17:397.02772 18:317.02012 19:168.9184 20:105.3447 21:66.815317 22:35.012593 23:17.769479 24:10.611085 25:7.426601 
1 1:355845.06 2:2803.0129 3:2359.1381 4:2162.5034 5:1679.3731 6:1655.7701 7:1407.0979 8:1222.4222 9:1436.4708 10:1225.666 11:947.21694 12:963.6684 13:793.3371 14:657.44275 15:546.05262 16:468.35653 17:260.89229 18:180.12082 19:120.82563 20:74.730725 21:54.490537 22:33.73393 23:13.527361 24:5.8255274 25:3.90898 
1 1:354150.4 2:3226.4722 3:3930.8913 4:4072.3262 5:2985.3342 6:2133.6518 7:1289.6595 8:1253.0875 9:1300.4292 10:1086.9829 11:707.11253 12:575.62347 13:769.13849 14:821.96286 15:553.78833 16:451.0498 17:360.40987 18:215.43852 19:112.5492 20:78.153572 21:61.676208 22:39.117248 23:23.468551 24:12.491496 25:8.8793395 
1 1:346042.72 2:6045.2387 3:7072.5316 4:8022.7458 5:7652.5503 6:8053.031 7:6206.5483 8:3568.0524 9:3111.352 10:2677.1247 11:2658.4517 12:2204.4238 13:1699.9952 14:2030.1809 15:1908.9503 16:1340.0544 17:571.96422 18:301.2286 19:303.11241 20:247.52317 21:114.23365 22:53.743917 23:43.125404 24:31.559799 25:28.355516 
1 1:341927.52 2:3848.2778 3:5859.6594 4:6321.9362 5:5279.619 6:6125.9096 7:4296.998 8:2358.106 9:3366.0282 10:3287.2929 11:2493.9175 12:1825.9163 13:1227.8194 14:1156.1687 15:880.74513 16:640.62018 17:690.57527 18:491.11665 19:250.28482 20:125.1963 21:76.698216 22:60.405503 23:27.689837 24:7.5968262 25:2.5971151 
1 1:345668.9 2:2420.4239 3:2099.6234 4:2275.3733 5:1732.47 6:1085.0949 7:1049.7364 8:947.82683 9:1381.936 10:1252.5477 11:780.25529 12:619.34878 13:459.36682 14:389.25294 15:344.16043 16:241.10701 17:148.62957 18:109.29574 19:106.06612 20:68.578927 21:36.76316 22:25.047651 23:22.849557 24:18.98826 25:18.455094 
1 1:349194.59 2:2037.2831 3:2306.5774 4:2033.0543 5:1606.9474 6:1291.0919 7:858.87201 8:936.91663 9:931.45069 10:748.54553 11:510.31459 12:333.56231 13:357.28764 14:343.91249 15:261.83978 16:229.03413 17:141.13856 18:107.35264 19:79.458929 20:55.629999 21:34.792862 22:20.019235 23:13.174546 24:8.2992531 25:7.2144526 
1 1:349870.17 2:2635.9285 3:2965.3066 4:1993.0347 5:1497.8931 6:1558.3719 7:1137.4918 8:1007.8235 9:981.98817 10:699.13154 11:639.6027 12:509.94569 13:346.01345 14:376.80115 15:383.16816 16:286.51956 17:191.96206 18:128.99359 19:76.482564 20:55.64714 21:36.151406 22:27.405068 23:10.190695 24:3.6826259 25:2.5546846 
1 1:354027.16 2:2755.2699 3:3589.7232 4:2540.7042 5:1706.8536 6:1407.2466 7:1064.0508 8:942.64875 9:1013.1399 10:914.78828 11:475.39587 12:407.57756 13:427.9736 14:332.92623 15:283.79996 16:253.67651 17:172.35265 18:126.3035 19:95.502771 20:52.472227 21:37.686301 22:20.826209 23:10.842138 24:6.0928762 25:3.5454178 
1 1:349522.92 2:3013.5635 3:3451.7736 4:2792.6072 5:1641.4199 6:1666.3516 7:1688.6871 8:1459.1612 9:1104.6461 10:856.66917 11:728.11854 12:643.05187 13:386.88236 14:314.03938 15:334.53591 16:271.59085 17:153.61209 18:109.26803 19:79.965993 20:65.66941 21:41.437893 22:28.307721 23:13.336179 24:5.0729423 25:3.10172 
1 1:346721.81 2:3135.7171 3:2463.8415 4:2133.4615 5:1296.9528 6:1032.9276 7:929.46858 8:900.62348 9:1225.7013 10:1030.9121 11:476.17411 12:281.11495 13:355.5575 14:402.4137 15:306.37472 16:280.80581 17:217.44396 18:157.12436 19:84.966285 20:53.277547 21:38.008439 22:18.273021 23:8.8389627 24:4.7255135 25:4.1224201 
1 1:343376.43 2:2219.9143 3:2373.9186 4:1941.481 5:1113.187 6:817.1365 7:750.50454 8:734.7522 9:953.76608 10:915.31634 11:532.40284 12:447.33925 13:326.7066 14:246.76096 15:261.54398 16:162.57166 17:116.13445 18:112.60865 19:78.293761 20:53.063417 21:29.940221 22:16.977755 23:12.893687 24:8.8434472 25:7.3180771 
1 1:339849.14 2:1715.5309 3:2202.9793 4:2039.967 5:1025.1366 6:929.96789 7:804.50589 8:687.8361 9:990.62839 10:1012.3376 11:536.66941 12:325.6112 13:300.20026 14:302.76779 15:333.79675 16:233.11506 17:125.1345 18:98.971081 19:81.185583 20:61.413327 21:36.69423 22:26.997894 23:21.489235 24:17.580905 25:16.645955 
1 1:336387.43 2:2245.4428 3:2252.1048 4:1789.7934 5:1062.9285 6:933.63598 7:924.67754 8:740.35348 9:926.37405 10:983.6685 11:598.18591 12:372.42336 13:248.59547 14:245.46547 15:270.51093 16:232.48863 17:157.36284 18:110.19311 19:88.035078 20:52.015527 21:24.06757 22:16.767279 23:12.529871 24:12.338489 25:11.987426 
1 1:336698.51 2:2042.7536 3:2073.2343 4:2131.7055 5:1494.7974 6:812.29504 7:702.42201 8:734.41127 9:962.49981 10:918.15221 11:635.34004 12:458.32297 13:339.39418 14:308.9002 15:245.5229 16:203.48701 17:127.93095 18:90.080787 19:70.192332 20:59.051387 21:37.110699 22:22.513296 23:14.138727 24:11.94963 25:9.2096939 
1 1:337687.66 2:1598.2446 3:1907.9822 4:1713.6768 5:1063.0882 6:742.11986 7:619.52033 8:754.05464 9:918.71036 10:815.31178 11:503.23451 12:319.21223 13:208.27328 14:203.37083 15:266.03587 16:253.91874 17:173.74072 18:115.92462 19:66.942344 20:45.081012 21:27.066193 22:14.439492 23:9.8073262 24:6.2359256 25:3.3790292 
1 1:338679.04 2:1946.2406 3:1633.6948 4:1394.2623 5:1134.6913 6:1072.8382 7:1100.6263 8:1077.7756 9:941.0357 10:788.51131 11:627.49229 12:455.07648 13:283.32436 14:261.3972 15:304.54203 16:226.91976 17:97.118962 18:86.79489 19:73.64824 20:48.445911 21:34.513795 22:18.510207 23:11.848777 24:8.0196527 25:4.400913 
1 1:337106.46 2:2162.0057 3:1929.6674 4:1851.3795 5:1307.7601 6:958.00498 7:1027.0034 8:666.89662 9:902.14801 10:936.69774 11:402.05915 12:383.45443 13:414.48222 14:357.09293 15:329.88209 16:257.70722 17:101.81401 18:71.781972 19:64.465331 20:40.734881 21:22.812999 22:18.229476 23:8.6872752 24:4.6225073 25:2.8619468 
1 1:335405.58 2:1618.2521 3:1886.5892 4:1895.2597 5:1125.6985 6:834.36262 7:857.04384 8:821.69024 9:982.93383 10:969.66006 11:488.86619 12:329.77796 13:393.29304 14:337.09804 15:257.85748 16:196.46521 17:101.49114 18:85.554667 19:57.974009 20:39.544178 21:23.36034 22:11.896137 23:6.8610844 24:4.4781552 25:2.7665148 
1 1:336520.25 2:1762.5587 3:1791.9134 4:1692.5385 5:1170.4481 6:641.12153 7:509.55687 8:559.96943 9:760.54537 10:799.14893 11:487.37313 12:306.11451 13:280.86535 14:285.93163 15:257.08492 16:205.70663 17:122.51928 18:117.38021 19:79.404564 20:46.037331 21:28.284671 22:15.696444 23:7.1937373 24:4.5833152 25:2.1664687 
1 1:335797.75 2:1272.4276 3:1978.7782 4:2090.7164 5:1063.9704 6:679.23825 7:720.84988 8:785.16172 9:853.94273 10:766.2113 11:512.23195 12:360.92956 13:218.15265 14:208.40434 15:288.05648 16:234.82158 17:142.33228 18:124.00397 19:66.345138 20:32.146748 21:26.972911 22:15.52113 23:8.5848369 24:4.8934264 25:2.8834751 
1 1:338345.11 2:1873.9187 3:2041.7457 4:1870.8244 5:1099.2621 6:865.45431 7:692.72758 8:577.50503 9:777.34752 10:741.02854 11:360.28339 12:287.34349 13:239.4575 14:207.52863 15:215.06304 16:177.33988 17:113.28783 18:96.943844 19:74.941033 20:51.374447 21:31.948298 22:15.83271 23:10.27461 24:6.8546366 25:4.0852181 
1 1:339345.59 2:1593.4223 3:2108.2225 4:1939.3435 5:987.51103 6:869.56695 7:755.97791 8:681.85824 9:948.63728 10:953.76642 11:438.18903 12:292.00948 13:265.3808 14:257.89864 15:281.23627 16:198.52587 17:98.102842 18:89.197819 19:64.312572 20:40.419921 21:32.745847 22:18.397291 23:8.5382238 24:5.5277438 25:3.671629 
1 1:337100.49 2:1597.9396 3:1829.1947 4:1789.836 5:1072.5364 6:848.4819 7:733.07806 8:765.90419 9:884.16526 10:796.73957 11:566.61288 12:369.85522 13:324.40678 14:297.50911 15:227.02011 16:178.12117 17:105.8294 18:73.62823 19:54.759762 20:43.032705 21:32.628534 22:18.125972 23:8.9076497 24:6.1208623 25:4.8701294 
1 1:338749.28 2:2334.3916 3:2160.5502 4:1463.3547 5:940.83957 6:905.9071 7:705.89473 8:643.71092 9:851.53009 10:794.34437 11:527.50846 12:395.85418 13:281.58125 14:215.52649 15:172.91995 16:220.68006 17:176.32088 18:85.519073 19:46.375087 20:36.252451 21:26.777177 22:16.65897 23:8.2663307 24:6.2858103 25:4.7882406 
1 1:340072.61 2:1678.7063 3:1799.058 4:1665.4985 5:875.82761 6:1030.5145 7:1018.1367 8:764.31854 9:752.51281 10:578.78841 11:330.30446 12:345.3302 13:239.54083 14:206.1 15:203.02044 16:206.09141 17:151.3757 18:85.634101 19:52.870143 20:42.070116 21:25.431037 22:16.958466 23:21.853294 24:21.026939 25:18.964465 
1 1:342077.45 2:1340.8584 3:1890.9083 4:1920.1736 5:1053.5116 6:1123.9997 7:725.29645 8:497.09016 9:854.00053 10:802.66865 11:385.08605 12:349.15785 13:296.07724 14:265.37957 15:231.34573 16:157.13717 17:95.92405 18:58.770071 19:62.322951 20:41.287751 21:19.002301 22:13.974103 23:9.7359817 24:8.8043846 25:8.8480225 
1 1:339448.7 2:1464.4368 3:2030.155 4:1868.4732 5:924.90732 6:826.1382 7:737.90642 8:665.47332 9:776.89894 10:717.48389 11:445.25978 12:333.68553 13:277.55431 14:269.52531 15:247.04085 16:180.01429 17:115.36332 18:116.05663 19:69.282733 20:41.941737 21:26.699615 22:14.882966 23:10.505751 24:9.8136222 25:11.009662 
1 1:338624.34 2:1596.2939 3:1855.2342 4:2043.1416 5:978.09714 6:863.18124 7:875.63736 8:692.74505 9:815.20665 10:679.2241 11:417.35455 12:302.60984 13:177.07073 14:208.63669 15:216.46075 16:172.89613 17:134.46642 18:90.218642 19:50.302064 20:45.097785 21:34.68307 22:23.443097 23:20.661086 24:17.693972 25:18.627814 
1 1:343951.96 2:1585.3918 3:1689.4287 4:1593.0014 5:1171.2201 6:788.99286 7:542.81536 8:449.66915 9:717.78026 10:644.91039 11:402.60623 12:319.76727 13:219.88022 14:212.81486 15:186.8833 16:210.03271 17:125.05025 18:74.893387 19:50.719554 20:36.755091 21:34.137107 22:19.53534 23:12.395425 24:11.40772 25:12.082931 
1 1:345699.96 2:1132.8997 3:2144.1815 4:1869.6349 5:787.39192 6:753.70216 7:747.53883 8:529.48871 9:715.31065 10:694.48875 11:389.57134 12:296.12648 13:181.03426 14:164.06461 15:223.4965 16:182.32898 17:97.617128 18:96.382023 19:76.46656 20:39.668581 21:28.162543 22:17.684127 23:10.319679 24:7.5943312 25:7.0103349 
1 1:342846.24 2:1792.0023 3:2198.4182 4:1589.2802 5:929.31248 6:604.76099 7:584.41884 8:628.94337 9:707.80157 10:637.42152 11:387.10121 12:262.07096 13:232.1434 14:224.05437 15:219.1094 16:208.25397 17:128.9963 18:89.215504 19:61.09123 20:33.182494 21:25.586161 22:17.322065 23:9.1486715 24:5.258782 25:2.6850266 
1 1:343660.55 2:1518.0848 3:1932.7196 4:1889.1705 5:953.66476 6:881.46979 7:782.83019 8:712.29617 9:764.37065 10:629.07896 11:349.22558 12:260.91707 13:235.05716 14:177.98841 15:198.92789 16:187.53708 17:95.099827 18:98.277427 19:65.77513 20:36.516427 21:23.199661 22:14.504301 23:8.4302357 24:4.41635 25:2.0041763 
1 1:344417.35 2:1200.2209 3:1523.9334 4:1537.7481 5:911.71372 6:670.87555 7:687.39823 8:745.37153 9:851.84828 10:694.1219 11:440.32182 12:324.334 13:246.32423 14:241.75495 15:209.29573 16:189.73881 17:111.74554 18:66.434749 19:58.623054 20:46.618693 21:30.818704 22:16.306073 23:10.582719 24:5.8558783 25:4.7335911 
1 1:344344.94 2:1318.8056 3:1790.1114 4:1646.9762 5:822.28367 6:907.76644 7:718.76937 8:583.71947 9:854.07202 10:716.53307 11:297.96554 12:201.82902 13:191.66836 14:263.8489 15:237.34286 16:189.76185 17:138.95321 18:80.359644 19:56.69067 20:50.76468 21:30.40278 22:12.641534 23:6.9059449 24:4.7921419 25:3.2248482 
1 1:344664.54 2:1582.8965 3:1643.3499 4:1556.8893 5:878.59726 6:673.45478 7:614.04052 8:662.77964 9:617.42579 10:507.57705 11:346.25139 12:277.01462 13:237.05787 14:214.9364 15:221.79911 16:168.62168 17:110.02618 18:104.84134 19:61.521028 20:44.893626 21:29.057378 22:12.857703 23:9.0626176 24:7.4862908 25:7.5772922 
1 1:343868.23 2:1287.5924 3:1835.8804 4:1696.1234 5:897.83347 6:725.24657 7:624.34972 8:514.67733 9:698.04794 10:731.6039 11:408.05957 12:321.70558 13:255.61032 14:238.00308 15:271.46901 16:195.57587 17:114.66316 18:84.706062 19:58.032368 20:37.525901 21:25.363661 22:15.746558 23:8.3259859 24:6.9721225 25:6.5922718 
1 1:343626.17 2:1505.7589 3:1436.6433 4:1336.2126 5:749.74709 6:549.32075 7:486.8042 8:465.63172 9:655.61481 10:603.97323 11:260.44311 12:239.14359 13:260.7699 14:209.91699 15:169.62712 16:162.47941 17:103.78438 18:81.553355 19:66.065067 20:38.16385 21:21.632766 22:12.714207 23:6.5806366 24:5.1864548 25:2.8818832 
1 1:344047.74 2:1472.4961 3:1744.7215 4:1468.3114 5:891.17604 6:1033.0312 7:947.49752 8:693.31932 9:748.09452 10:616.08363 11:306.69433 12:271.26885 13:256.53887 14:224.95323 15:213.91973 16:198.96877 17:134.09167 18:102.02324 19:63.759866 20:34.425696 21:22.389573 22:13.293045 23:8.0744462 24:5.873768 25:5.6496076 
1 1:344658.17 2:1400.9355 3:1926.7481 4:1446.2657 5:713.96015 6:792.17706 7:560.67128 8:518.46845 9:849.00593 10:779.02696 11:343.13966 12:290.96696 13:264.00692 14:203.8883 15:172.40353 16:141.91153 17:89.140553 18:81.326647 19:68.582324 20:40.540946 21:31.262877 22:21.926052 23:11.646257 24:9.7803872 25:9.2328957 
1 1:340408.55 2:2034.2184 3:2395.1123 4:1874.7523 5:1070.9033 6:1090.1336 7:787.24098 8:572.55167 9:1071.98 10:917.80143 11:367.06285 12:304.82571 13:242.1985 14:262.3495 15:263.01044 16:203.06652 17:105.23929 18:75.857989 19:76.619636 20:43.606073 21:32.647671 22:32.76094 23:20.87659 24:19.264361 25:19.558927 
1 1:338554.24 2:1539.6932 3:2115.3128 4:2063.5806 5:1062.6321 6:880.02431 7:751.43201 8:615.0978 9:813.7404 10:778.74548 11:484.94842 12:362.0487 13:262.44137 14:226.00199 15:273.46971 16:243.41706 17:127.2086 18:73.973077 19:54.005729 20:39.181201 21:19.821775 22:12.79064 23:6.0308931 24:4.0951769 25:4.3504022 
1 1:339975.09 2:1368.7386 3:1830.4134 4:1757.5161 5:866.99512 6:675.07465 7:704.65138 8:738.9926 9:655.0301 10:636.17999 11:414.17136 12:351.60015 13:299.78616 14:284.78294 15:272.85613 16:215.14015 17:97.987062 18:61.175154 19:83.314828 20:54.313483 21:21.970568 22:24.07694 23:22.687319 24:18.78522 25:19.416452 
1 1:341649.5 2:2011.7515 3:1697.053 4:1270.3173 5:1033.0206 6:876.37334 7:762.54702 8:617.13765 9:739.51733 10:712.48742 11:367.09049 12:342.23903 13:316.14123 14:290.8606 15:321.98329 16:312.23079 17:173.07332 18:94.448233 19:78.858501 20:61.576127 21:32.672569 22:17.494693 23:13.068992 24:9.6232082 25:8.0535171 
1 1:337282.57 2:1968.1745 3:2242.8852 4:2220.1011 5:1329.0436 6:924.05874 7:959.30769 8:730.04517 9:842.46999 10:832.58359 11:553.42132 12:431.37463 13:289.85957 14:295.36648 15:308.797 16:266.09608 17:154.35518 18:122.03227 19:78.24491 20:54.775488 21:26.796019 22:15.88622 23:11.782279 24:6.7868782 25:2.7605531 
1 1:339213.94 2:1815.7003 3:2007.4 4:1683.8151 5:827.99179 6:741.04061 7:728.86173 8:831.75815 9:975.52078 10:691.57915 11:406.29193 12:326.36783 13:241.60631 14:227.57928 15:232.2981 16:186.05196 17:95.014925 18:86.769454 19:78.737232 20:42.333169 21:29.917995 22:27.323878 23:19.328862 24:14.110904 25:14.730877 
1 1:340216.62 2:1560.5156 3:1771.0024 4:1690.8797 5:901.54258 6:864.84861 7:823.43944 8:829.61674 9:846.57428 10:786.37556 11:513.65834 12:300.80652 13:322.57946 14:308.57794 15:284.56222 16:223.10122 17:128.98767 18:111.82349 19:81.653541 20:54.247611 21:33.769824 22:23.405843 23:15.881057 24:15.65801 25:17.175571 
1 1:338933.19 2:1540.2642 3:1988.3827 4:2173.0313 5:1097.2732 6:929.51934 7:677.6835 8:523.79791 9:739.77255 10:745.27378 11:459.27587 12:306.25972 13:265.64956 14:222.39279 15:217.84035 16:202.17275 17:140.75636 18:100.09016 19:73.332761 20:51.856965 21:27.289186 22:16.045353 23:10.089489 24:5.5720368 25:3.9180396 
1 1:339085.46 2:2238.4931 3:2195.5442 4:2042.7079 5:1179.0913 6:820.0362 7:746.50848 8:751.68491 9:870.43215 10:731.03001 11:387.1578 12:324.89116 13:272.38063 14:255.18777 15:268.48371 16:244.80102 17:118.64981 18:77.725107 19:44.60263 20:40.167866 21:33.225179 22:20.642391 23:11.128918 24:7.1809393 25:6.1987763 
1 1:334513.47 2:1494.7153 3:1862.0292 4:1766.7204 5:1098.2346 6:992.56356 7:843.4712 8:634.55453 9:772.55844 10:759.17047 11:431.67983 12:256.88759 13:240.76908 14:197.06915 15:237.59799 16:213.95334 17:110.87207 18:94.116569 19:55.389351 20:35.568916 21:23.448758 22:12.744416 23:15.142773 24:13.950023 25:14.481835 
1 1:332091.68 2:1845.8049 3:1743.1784 4:1733.4418 5:1122.3139 6:956.58945 7:855.44827 8:839.34739 9:827.86659 10:568.89558 11:360.91708 12:428.01233 13:409.19438 14:304.47025 15:265.9888 16:249.7618 17:158.99606 18:106.52793 19:64.724552 20:41.960699 21:19.394409 22:10.693793 23:8.3086634 24:5.8094929 25:4.5159377 
1 1:332862.35 2:1994.7205 3:2113.1497 4:1696.9003 5:876.98083 6:957.26065 7:700.86558 8:572.09528 9:871.55007 10:720.96831 11:431.01705 12:423.35883 13:319.1036 14:267.20712 15:266.07216 16:232.54808 17:178.75303 18:114.36331 19:58.373079 20:29.461918 21:17.606879 22:13.393321 23:8.7208211 24:4.5482588 25:2.9204436 
1 1:331703.56 2:1802.494 3:2028.212 4:1826.4726 5:980.22321 6:957.24982 7:837.12584 8:649.50867 9:645.2054 10:592.22779 11:428.24574 12:316.04327 13:263.25511 14:262.8419 15:293.78129 16:261.40378 17:142.73395 18:87.042267 19:59.568078 20:37.119069 21:34.666106 22:31.23399 23:24.597667 24:25.220748 25:26.10756 
1 1:329661.29 2:1949.4642 3:2376.4927 4:2471.6061 5:1730.0695 6:1619.4965 7:1140.591 8:938.79106 9:1041.7854 10:993.77674 11:686.8791 12:510.70937 13:485.57239 14:486.89989 15:385.54082 16:278.7656 17:170.11909 18:102.49676 19:72.166598 20:30.542044 21:24.241125 22:21.190159 23:19.734676 24:13.898385 25:12.733772 
1 1:334405.09 2:1580.2134 3:1953.3203 4:1613.0658 5:887.49014 6:970.43558 7:946.29074 8:814.95595 9:964.46976 10:828.19287 11:495.22864 12:432.09825 13:375.53195 14:276.37101 15:227.11496 16:183.13534 17:131.96586 18:126.05277 19:85.301512 20:29.311134 21:33.302341 22:33.418498 23:29.708297 24:27.197287 25:25.6261 
1 1:340117.25 2:2426.4434 3:2330.7234 4:2166.3332 5:1723.7249 6:1557.542 7:1000.0679 8:731.00428 9:784.0045 10:686.72365 11:508.62971 12:449.66555 13:298.99994 14:234.29906 15:265.39235 16:174.98849 17:96.269681 18:99.750206 19:64.176861 20:55.445871 21:45.979463 22:23.353407 23:18.034507 24:19.219638 25:16.319326 
1 1:336699.29 2:2050.1093 3:2571.5078 4:2523.0772 5:1306.596 6:1199.2459 7:1356.7383 8:1109.7982 9:832.28915 10:761.29083 11:622.04404 12:510.0142 13:428.90835 14:386.8774 15:350.4344 16:277.31586 17:168.56489 18:114.06018 19:88.485938 20:67.402144 21:40.131622 22:22.748768 23:11.255372 24:3.9096993 25:3.0047108 
1 1:335196.7 2:2187.0112 3:2373.3911 4:2212.1948 5:1942.6255 6:1615.6177 7:1054.2504 8:679.77599 9:861.94624 10:961.18318 11:664.1548 12:468.28713 13:345.32832 14:285.20669 15:260.13082 16:207.34695 17:104.60576 18:116.56818 19:86.561883 20:61.881646 21:43.310334 22:21.129198 23:10.42329 24:5.2140803 25:4.5288823 
1 1:333311.36 2:1983.378 3:2331.9758 4:1647.0462 5:894.24927 6:1136.6855 7:941.90402 8:754.09244 9:1021.6661 10:946.11321 11:450.47991 12:270.76078 13:243.7245 14:224.07061 15:185.78359 16:139.59001 17:128.73387 18:102.91188 19:65.374973 20:39.490848 21:22.384478 22:15.056574 23:11.126515 24:9.5687512 25:8.6773819 
1 1:333187.41 2:2220.3782 3:2291.8749 4:1820.7506 5:804.46423 6:740.41308 7:721.93924 8:645.30178 9:934.03773 10:762.03703 11:428.78263 12:346.64479 13:273.11401 14:181.16027 15:170.50694 16:178.1658 17:104.69621 18:96.514074 19:84.110205 20:47.773301 21:24.151748 22:17.885929 23:11.894534 24:12.299585 25:11.488969 
1 1:335064.92 2:1677.7065 3:1856.2425 4:1697.1122 5:952.06708 6:872.21926 7:757.39047 8:736.47899 9:888.6178 10:643.50947 11:326.75501 12:297.99177 13:230.60397 14:194.34037 15:229.41228 16:195.32943 17:97.176801 18:78.365028 19:69.914791 20:40.858823 21:19.688975 22:14.800589 23:9.5001226 24:6.1964315 25:3.8456099 
1 1:332243.14 2:1570.587 3:2431.7984 4:1916.8785 5:873.85872 6:674.16341 7:559.71128 8:510.72779 9:747.35315 10:639.37542 11:374.12964 12:372.73517 13:322.62918 14:277.52438 15:230.11767 16:185.66894 17:109.44429 18:74.045026 19:61.21105 20:48.489365 21:25.588195 22:18.989862 23:13.356705 24:10.539336 25:8.9471987 
1 1:330640.99 2:1580.3589 3:1875.7362 4:1696.6212 5:1003.3146 6:967.05762 7:713.11692 8:478.87007 9:668.94292 10:597.72207 11:330.8207 12:261.5622 13:245.86609 14:212.58038 15:173.91676 16:163.68491 17:134.13708 18:83.063979 19:51.168419 20:40.873486 21:26.087634 22:13.481332 23:10.690595 24:8.433714 25:8.0545897 
1 1:332445.78 2:939.9836 3:1450.2946 4:1616.4028 5:906.70246 6:647.38977 7:605.18387 8:519.93863 9:660.33866 10:627.17301 11:351.60162 12:283.44854 13:265.53213 14:267.21544 15:226.20454 16:165.14744 17:110.67194 18:91.573624 19:44.170946 20:37.274503 21:32.701814 22:18.084904 23:8.5985018 24:5.4062458 25:3.6112863 
1 1:331635.02 2:1765.8992 3:2147.1814 4:1839.604 5:849.35574 6:577.30737 7:467.91255 8:591.83343 9:754.42274 10:655.66284 11:377.60984 12:277.25745 13:260.02775 14:233.19892 15:239.78302 16:221.01441 17:150.9151 18:107.1908 19:64.785483 20:34.305702 21:22.270653 22:17.489567 23:15.740627 24:11.495649 25:9.9464101 
1 1:330114.09 2:1389.9624 3:1718.2611 4:1529.9547 5:759.36154 6:757.43607 7:471.46868 8:327.22798 9:696.83905 10:667.69826 11:337.02119 12:340.38425 13:276.90822 14:201.70186 15:210.63442 16:157.64093 17:79.573752 18:77.907715 19:71.827789 20:49.725369 21:25.494408 22:17.006059 23:10.143175 24:9.9920309 25:10.513502 
1 1:335266.33 2:1681.4438 3:2691.2393 4:2452.3867 5:1174.0992 6:989.57638 7:755.67218 8:620.65151 9:781.70882 10:683.41108 11:367.31209 12:262.68673 13:166.05262 14:156.62439 15:247.2504 16:221.71563 17:109.06813 18:95.408477 19:71.963379 20:47.567212 21:27.313512 22:14.666851 23:8.6047395 24:6.5691789 25:6.9346612 
1 1:332533.17 2:1218.3457 3:2193.1318 4:1714.131 5:599.8077 6:643.68725 7:651.35743 8:716.79586 9:879.94937 10:684.10552 11:341.07343 12:314.98859 13:225.85751 14:209.80772 15:206.84945 16:141.79356 17:108.08776 18:90.930579 19:59.844233 20:42.906392 21:23.409564 22:17.55929 23:11.349996 24:8.0274649 25:9.9583813 
1 1:333119.49 2:1393.0931 3:1214.6585 4:1138.5313 5:968.70615 6:948.02645 7:690.95601 8:532.64105 9:698.24366 10:657.83924 11:337.95 12:260.45768 13:243.43828 14:193.16988 15:197.5975 16:170.39584 17:116.90247 18:93.298345 19:58.004963 20:35.010147 21:32.64335 22:25.187187 23:6.1359236 24:3.740866 25:1.8175554 
1 1:332994.45 2:1185.258 3:1259.8553 4:1394.4905 5:924.7419 6:779.77367 7:542.81264 8:456.39613 9:738.48942 10:709.44754 11:329.43943 12:208.20068 13:166.81618 14:170.13401 15:179.56296 16:176.34856 17:108.90662 18:63.382287 19:57.138874 20:33.470979 21:13.894687 22:11.729101 23:9.1042719 24:4.7671576 25:3.0800633 
1 1:334449.6 2:1317.6263 3:1824.8553 4:1601.778 5:587.23258 6:631.36857 7:760.23246 8:725.98621 9:734.47107 10:668.8094 11:364.6934 12:216.13683 13:171.53486 14:161.02129 15:211.62172 16:198.98977 17:121.99955 18:93.421067 19:56.137553 20:35.38729 21:21.077328 22:16.902433 23:12.578652 24:6.6683212 25:5.21344 
1 1:334478.44 2:1216.258 3:1292.6895 4:1265.0843 5:682.34082 6:457.62978 7:518.14438 8:552.0908 9:663.84925 10:698.48203 11:343.3842 12:222.66919 13:201.36099 14:231.79209 15:269.74887 16:182.70256 17:110.81007 18:100.93499 19:66.454631 20:41.484443 21:22.952405 22:13.924119 23:10.195278 24:7.389491 25:5.8779467 
1 1:333585.3 2:1640.5445 3:2050.4894 4:1764.7932 5:620.28384 6:566.10167 7:666.77149 8:647.33247 9:740.70457 10:575.19158 11:275.55961 12:246.49184 13:204.90694 14:231.43068 15:247.00604 16:176.78739 17:97.83878 18:78.188252 19:50.632123 20:32.820531 21:25.022497 22:20.992943 23:8.3179788 24:5.2318708 25:4.450704 
1 1:337771.08 2:1541.0872 3:1652.0465 4:1667.2995 5:977.19999 6:671.85848 7:474.36225 8:553.09117 9:883.05119 10:742.45192 11:281.8017 12:214.07421 13:216.74072 14:180.74451 15:183.67727 16:151.42909 17:90.530172 18:78.416241 19:62.962384 20:46.523409 21:33.277164 22:18.886646 23:10.279487 24:10.798746 25:9.9265355 
1 1:333235.8 2:1565.6301 3:1972.8743 4:1733.0486 5:694.31788 6:583.12911 7:613.60082 8:664.4796 9:828.36627 10:648.73528 11:400.39644 12:275.95375 13:194.01098 14:241.72255 15:220.48323 16:166.96206 17:96.183966 18:68.202071 19:59.632535 20:38.59711 21:26.781334 22:17.049755 23:10.831336 24:5.9147707 25:3.213304 
1 1:335154.18 2:1146.8921 3:1987.4258 4:1887.9129 5:878.53201 6:912.09277 7:1004.15 8:759.32749 9:786.56348 10:603.04607 11:268.04296 12:230.47975 13:275.42433 14:274.63641 15:192.8751 16:141.53745 17:92.662707 18:62.473312 19:49.064288 20:38.666812 21:33.272743 22:22.918445 23:14.792562 24:11.62506 25:9.431562 
1 1:336223.82 2:1552.1597 3:1888.7028 4:1714.4742 5:770.22392 6:560.58688 7:648.52847 8:588.33928 9:635.28539 10:647.17691 11:354.5701 12:204.36785 13:176.59055 14:190.61919 15:209.93822 16:203.28103 17:88.600932 18:41.257779 19:44.380889 20:39.347704 21:28.095089 22:17.023062 23:9.1986568 24:4.7416611 25:3.3450933 
1 1:335620.98 2:1228.2968 3:1502.6958 4:1458.5108 5:910.05299 6:1038.7973 7:725.74798 8:655.30801 9:881.83218 10:669.78335 11:278.20204 12:206.37839 13:199.03722 14:172.52816 15:182.67337 16:177.03521 17:92.135897 18:72.559828 19:43.925071 20:34.06213 21:29.188438 22:15.272851 23:6.7977385 24:3.4818116 25:2.2311474 
1 1:336892.65 2:1659.6076 3:1736.7212 4:1547.6945 5:836.36116 6:684.14045 7:552.34464 8:546.32125 9:768.26145 10:689.42557 11:315.28679 12:245.72614 13:234.44897 14:223.94387 15:230.02484 16:200.26152 17:118.98619 18:91.079333 19:66.733139 20:47.385955 21:30.614921 22:21.332169 23:9.2010009 24:5.0789016 25:4.7952575 
1 1:338012.48 2:1674.1498 3:2024.0964 4:1644.4434 5:754.21584 6:541.4141 7:573.72547 8:559.77341 9:719.91265 10:581.81361 11:340.31684 12:323.60306 13:249.952 14:194.54752 15:154.15274 16:145.40784 17:106.34223 18:69.052718 19:53.823082 20:45.083566 21:29.210332 22:14.208081 23:10.408488 24:9.1428371 25:8.3321335 
1 1:337721.39 2:1695.2248 3:2157.5626 4:1602.0371 5:872.67552 6:777.32452 7:631.46747 8:491.66284 9:705.34535 10:632.2712 11:292.47711 12:213.18333 13:216.852 14:256.85816 15:245.09611 16:165.46537 17:109.19031 18:102.29482 19:64.006164 20:44.511055 21:25.68492 22:15.439793 23:10.450345 24:4.7252543 25:3.4465309 
1 1:337058.31 2:1859.4963 3:1920.5419 4:1732.3641 5:897.77361 6:873.77456 7:746.58273 8:531.6945 9:762.14119 10:724.48882 11:334.77874 12:245.68763 13:219.60158 14:226.6729 15:249.9367 16:189.98789 17:126.51001 18:105.83166 19:59.149967 20:33.300049 21:24.979123 22:20.595478 23:11.651863 24:11.394276 25:12.393206 
1 1:337036.08 2:2076.1842 3:2532.3794 4:1820.6907 5:794.40631 6:482.48656 7:407.08999 8:559.07811 9:804.53309 10:650.04829 11:324.93034 12:280.98928 13:210.61873 14:224.71443 15:207.66453 16:195.23877 17:131.31345 18:65.562115 19:50.747687 20:29.663753 21:15.709264 22:11.061692 23:7.8939 24:5.61178 25:3.3319918 
1 1:336108.14 2:1057.7711 3:1370.7299 4:1443.6106 5:813.06519 6:777.78072 7:753.20093 8:589.51254 9:639.66125 10:670.5965 11:350.18087 12:217.29978 13:192.07553 14:183.9085 15:225.50159 16:214.54933 17:135.87555 18:88.961313 19:56.261428 20:37.992129 21:20.483093 22:12.751577 23:9.8560664 24:8.2114503 25:6.8271641 
1 1:337357.05 2:1953.9781 3:2104.2946 4:1860.5342 5:886.14377 6:804.07802 7:762.77663 8:522.3838 9:680.94272 10:660.53692 11:302.99001 12:220.61114 13:192.76077 14:225.04456 15:211.60954 16:134.83529 17:104.59962 18:94.261819 19:62.543068 20:52.218292 21:31.773577 22:12.337253 23:5.7094213 24:4.4434793 25:3.8293863 
1 1:337852.24 2:1425.3895 3:2014.5739 4:1816.7057 5:848.99296 6:837.14463 7:768.56071 8:603.39953 9:833.26675 10:729.50582 11:338.16662 12:263.00347 13:187.72716 14:151.54625 15:190.36058 16:148.3734 17:110.34156 18:102.6218 19:54.975225 20:32.049018 21:18.058234 22:15.43673 23:12.306041 24:5.777859 25:3.653174 
1 1:335510.13 2:1284.027 3:1814.3655 4:1717.5731 5:787.20147 6:555.33433 7:471.33148 8:523.84398 9:831.59157 10:701.87452 11:336.30565 12:277.82451 13:229.71759 14:253.42016 15:223.98733 16:175.66752 17:120.56421 18:77.704812 19:43.05685 20:31.838709 21:27.978254 22:20.823176 23:10.73312 24:7.4752495 25:6.6347453 
1 1:335917.83 2:1187.1557 3:1460.4052 4:1342.3054 5:777.68887 6:801.26883 7:707.50066 8:508.98794 9:671.76225 10:734.06464 11:437.49635 12:299.61734 13:231.09049 14:217.87911 15:223.18846 16:146.11268 17:95.626514 18:101.79719 19:81.815327 20:53.411866 21:25.094448 22:10.159433 23:9.2130086 24:6.1958041 25:3.2678618 
1 1:336211.92 2:1474.0923 3:1656.2075 4:1305.3784 5:932.77667 6:939.45876 7:662.76673 8:620.38627 9:781.31661 10:719.12386 11:445.59875 12:375.55307 13:229.36908 14:161.62705 15:218.66034 16:181.00637 17:92.15454 18:95.276785 19:77.558851 20:56.791778 21:28.30865 22:14.732595 23:6.7304013 24:4.770475 25:3.2606688 
1 1:333547.62 2:937.97085 3:1660.2471 4:1697.7301 5:943.06457 6:754.81258 7:588.53414 8:492.28404 9:637.94899 10:580.298 11:332.95928 12:327.9111 13:272.60735 14:222.78798 15:198.89326 16:206.13425 17:134.70465 18:69.417905 19:45.764816 20:40.552464 21:31.111987 22:28.614349 23:25.761543 24:23.520417 25:22.199409 
1 1:331785.61 2:1241.9118 3:1816.3911 4:1825.9161 5:768.67782 6:807.79081 7:787.15562 8:436.66422 9:764.17637 10:730.44232 11:273.02892 12:237.99411 13:217.99393 14:222.36991 15:245.54263 16:217.24427 17:137.30244 18:77.203622 19:49.348028 20:38.097121 21:21.350277 22:17.366237 23:10.843286 24:8.7714871 25:7.7440624 
1 1:334653.26 2:1037.0863 3:1242.1391 4:1536.4726 5:1039.1604 6:820.41455 7:767.27168 8:641.56576 9:754.03358 10:732.94177 11:403.20015 12:278.26294 13:253.05641 14:265.30379 15:318.9525 16:267.34842 17:126.07482 18:79.568246 19:39.353161 20:41.974095 21:43.480341 22:21.123404 23:13.429732 24:14.638541 25:13.771328 
1 1:331248.46 2:1328.2763 3:1939.041 4:1683.1822 5:847.99221 6:695.67715 7:562.77232 8:542.6419 9:709.82069 10:606.48104 11:307.59679 12:280.75235 13:270.85388 14:224.97671 15:220.55892 16:219.93954 17:127.94448 18:76.428553 19:57.105498 20:38.423918 21:26.439007 22:20.98956 23:18.655859 24:16.871904 25:17.213464 
1 1:330614.87 2:1244.8773 3:1372.9795 4:1314.1454 5:968.91688 6:906.7649 7:645.86497 8:436.43393 9:761.23166 10:697.57771 11:376.20692 12:311.13365 13:186.50193 14:176.21055 15:224.75183 16:213.05078 17:122.07626 18:79.440514 19:47.758464 20:30.700196 21:26.953354 22:15.186245 23:6.0683972 24:5.3188874 25:4.8946474 
1 1:331710.58 2:1124.4926 3:1732.9733 4:1487.5354 5:726.49073 6:724.82316 7:720.54407 8:627.832 9:730.10057 10:655.87789 11:312.84447 12:341.51937 13:375.93561 14:290.18422 15:214.20734 16:214.73092 17:129.59944 18:72.837515 19:58.285661 20:40.73803 21:33.259094 22:25.771759 23:17.364326 24:13.260141 25:11.609684 
1 1:332249.48 2:1108.5001 3:1673.0235 4:1678.8208 5:939.98413 6:701.82838 7:547.35812 8:497.05585 9:629.80548 10:638.39842 11:287.56294 12:225.68315 13:234.96752 14:235.7124 15:201.05803 16:148.11934 17:120.73955 18:79.799086 19:53.380765 20:39.49824 21:24.532881 22:19.155713 23:9.8613931 24:8.7240451 25:8.4340581 
1 1:330274.15 2:1140.4907 3:1330.8682 4:1380.3787 5:919.02337 6:789.3624 7:705.32023 8:676.73754 9:728.32358 10:565.60391 11:340.21599 12:305.85612 13:241.80618 14:253.75841 15:274.83271 16:198.28516 17:116.74528 18:100.32633 19:52.071817 20:36.275766 21:29.532808 22:20.813105 23:8.6700464 24:4.2828281 25:2.9909976 
1 1:330711.44 2:1238.8276 3:1948.9166 4:1814.6265 5:960.26063 6:839.18242 7:617.82271 8:534.48722 9:830.86988 10:757.51629 11:402.55082 12:212.58739 13:135.90723 14:211.19167 15:277.59334 16:207.60696 17:111.4166 18:99.343871 19:58.32912 20:36.711228 21:31.116071 22:15.061323 23:7.3694262 24:3.6327602 25:3.2836932 
1 1:329962.09 2:1533.2026 3:1607.294 4:1460.0211 5:837.80717 6:638.93508 7:688.11796 8:715.34021 9:764.74367 10:585.50457 11:266.94283 12:300.29988 13:265.89417 14:245.33789 15:320.42584 16:249.34246 17:115.10841 18:75.036253 19:46.88896 20:27.801855 21:25.822072 22:15.65631 23:7.6563559 24:6.2254275 25:4.4941537 
1 1:329148.14 2:1351.0244 3:1555.6226 4:1231.6121 5:698.60152 6:640.37219 7:557.49253 8:424.35081 9:629.58813 10:630.29804 11:294.15065 12:296.60935 13:224.56164 14:203.67083 15:247.23321 16:207.13922 17:103.96875 18:76.264412 19:56.866278 20:38.699472 21:24.407079 22:19.06994 23:10.341554 24:7.5532221 25:7.2016322 
1 1:329973.85 2:1434.5347 3:1947.1442 4:1751.8977 5:696.19968 6:542.06712 7:567.57187 8:502.5521 9:688.29158 10:714.3653 11:324.96902 12:236.80963 13:192.24685 14:157.88722 15:187.71002 16:156.58955 17:99.231828 18:80.985419 19:49.302597 20:34.508894 21:23.68099 22:17.718872 23:10.22512 24:8.2003901 25:8.8556879 
1 1:328770.72 2:997.68805 3:1598.9857 4:1478.3097 5:848.39192 6:956.93773 7:759.95271 8:521.64527 9:737.40523 10:717.5632 11:357.93308 12:327.78013 13:328.06676 14:227.55094 15:199.34253 16:191.94265 17:147.43247 18:116.92793 19:83.381329 20:52.053687 21:25.12268 22:14.744487 23:8.1738157 24:4.7753434 25:3.6858209 
1 1:328818.72 2:1262.5363 3:1647.0124 4:1427.0423 5:708.88667 6:668.40209 7:702.66995 8:755.62068 9:788.7404 10:710.04012 11:413.94019 12:281.67304 13:266.9044 14:213.23867 15:206.79899 16:199.45395 17:122.1792 18:69.737218 19:44.063976 20:36.91267 21:21.670648 22:10.899738 23:6.3811159 24:4.2716433 25:2.7032351 
1 1:327672.16 2:1180.526 3:1535.4494 4:1361.6809 5:627.82795 6:467.41346 7:513.25243 8:496.31873 9:678.18118 10:709.47342 11:403.19982 12:249.21445 13:247.63082 14:248.61287 15:220.00555 16:203.61162 17:119.69469 18:98.351594 19:63.998348 20:47.828789 21:48.434627 22:34.826017 23:20.986011 24:18.71602 25:16.36744 
1 1:325075.94 2:1557.9224 3:1938.7143 4:1758.5552 5:1025.0547 6:864.826 7:701.34463 8:472.55793 9:784.00813 10:724.44349 11:292.67158 12:234.97771 13:211.60817 14:218.26627 15:229.72829 16:190.34649 17:127.27178 18:78.642062 19:48.284814 20:51.304201 21:39.779874 22:21.123744 23:9.6311145 24:6.2857768 25:6.8981477 
1 1:328061.1 2:1363.1979 3:1721.9569 4:1893.6252 5:993.4209 6:598.34491 7:600.7215 8:542.44983 9:845.39691 10:786.379 11:360.3408 12:218.21367 13:166.5771 14:170.90378 15:174.79096 16:180.70981 17:122.16446 18:80.713084 19:64.355169 20:47.545263 21:34.294192 22:22.193729 23:16.02681 24:11.644651 25:11.864324 
1 1:328456.11 2:1721.1848 3:1688.7647 4:1442.201 5:663.94636 6:613.75527 7:782.83161 8:689.04127 9:772.94574 10:682.31683 11:420.08835 12:320.3751 13:268.20054 14:235.78784 15:202.2573 16:175.8659 17:100.63473 18:76.82993 19:55.141337 20:34.862112 21:23.611906 22:15.505599 23:8.3194117 24:4.8520053 25:2.9135883 
1 1:328491.31 2:1431.0757 3:1773.2242 4:1499.6748 5:737.45444 6:794.95379 7:634.00241 8:463.93644 9:658.95884 10:535.86314 11:312.74002 12:260.61885 13:258.92499 14:236.60257 15:194.43085 16:154.19048 17:109.17971 18:113.49572 19:59.02276 20:31.608614 21:22.120031 22:15.244043 23:11.191018 24:6.845048 25:7.2513561 
1 1:329805.85 2:977.25702 3:1466.2919 4:1574.7706 5:803.29278 6:640.39325 7:421.83873 8:399.52751 9:719.45207 10:695.05007 11:333.07496 12:312.4992 13:311.96232 14:279.82295 15:225.88838 16:155.12163 17:87.134366 18:83.559343 19:62.622863 20:25.89728 21:19.76606 22:17.226391 23:8.6482447 24:4.2439511 25:3.5186514 
1 1:330936.05 2:1001.528 3:1462.0861 4:1579.1402 5:839.06935 6:638.60329 7:460.34339 8:455.9334 9:722.70381 10:653.59542 11:366.45067 12:263.32344 13:210.41283 14:231.72879 15:244.07974 16:174.41289 17:127.10013 18:108.23608 19:59.134196 20:28.474236 21:20.882357 22:13.042142 23:6.4157567 24:3.1683809 25:2.7347767 
1 1:331888.99 2:1169.7176 3:1750.0645 4:1659.2567 5:800.50896 6:700.25095 7:640.22912 8:506.98881 9:623.00472 10:544.46848 11:245.15483 12:228.13412 13:211.24018 14:170.80034 15:212.87108 16:202.36806 17:110.38558 18:63.07813 19:63.770358 20:47.518178 21:26.428202 22:16.064708 23:9.0367074 24:5.5588709 25:3.8347005 
1 1:329805.76 2:966.14363 3:1965.6464 4:1709.2973 5:612.82168 6:684.91287 7:578.12176 8:487.76662 9:686.14009 10:599.5227 11:316.48013 12:265.12435 13:228.60681 14:166.49174 15:182.1474 16:169.51161 17:106.12583 18:91.840738 19:52.797357 20:32.209387 21:20.042723 22:13.438228 23:7.5981964 24:6.2496853 25:3.9453817 
1 1:330356.31 2:854.81506 3:1229.9432 4:1180.7676 5:607.58485 6:570.30724 7:724.63309 8:632.76609 9:838.74415 10:774.96225 11:314.1287 12:254.56075 13:248.31553 14:286.04936 15:263.63444 16:164.94122 17:109.44307 18:80.722447 19:45.617634 20:43.427152 21:29.667238 22:14.497754 23:7.3928107 24:4.4373066 25:2.1575312 
1 1:330351.48 2:847.22726 3:1615.4555 4:1516.3448 5:626.34718 6:588.99678 7:636.32579 8:536.93393 9:597.66565 10:624.18994 11:344.46856 12:230.43299 13:232.60951 14:240.87945 15:263.65962 16:198.82306 17:99.031412 18:88.369044 19:64.862784 20:31.081068 21:15.864534 22:13.543584 23:7.8173273 24:4.5791113 25:4.2343943 
1 1:328600.64 2:943.69492 3:1401.7951 4:1272.85 5:564.70265 6:384.20342 7:502.29787 8:494.40507 9:652.54616 10:624.3271 11:239.05706 12:233.91117 13:298.27172 14:242.59772 15:189.04944 16:171.11226 17:77.195924 18:60.261392 19:59.134731 20:39.037952 21:26.489773 22:16.906175 23:9.0904114 24:5.5635222 25:3.66393 
1 1:330950.78 2:1387.8123 3:1695.607 4:1488.0494 5:689.74805 6:499.6054 7:487.43085 8:451.5307 9:726.25154 10:655.33612 11:317.35486 12:305.04138 13:236.22247 14:187.26416 15:199.9189 16:155.21979 17:90.698834 18:90.584543 19:55.632579 20:32.174962 21:20.24568 22:11.71506 23:9.4687316 24:7.9246179 25:8.022092 
1 1:332836.11 2:1458.911 3:1825.5498 4:1548.7587 5:666.89689 6:483.33657 7:452.75133 8:429.16087 9:638.4428 10:590.2324 11:247.05222 12:218.20416 13:255.03622 14:211.90893 15:178.09371 16:180.10239 17:133.1291 18:101.21422 19:59.312534 20:35.60006 21:22.227843 22:16.080067 23:14.094845 24:10.537539 25:9.7173192 
1 1:329309.38 2:1325.2815 3:1805.0478 4:1642.2858 5:723.70934 6:670.0487 7:587.8505 8:564.44232 9:750.3825 10:594.55895 11:297.75543 12:296.91712 13:301.78756 14:255.60532 15:213.9878 16:181.90835 17:104.4731 18:66.222613 19:50.097519 20:33.263055 21:19.045976 22:11.888054 23:5.921565 24:3.2815746 25:2.6284743 
1 1:332128.35 2:1258.692 3:1693.5762 4:1771.67 5:916.13682 6:621.8101 7:619.38582 8:657.9391 9:751.95938 10:544.60908 11:416.20649 12:360.63833 13:245.50475 14:216.3248 15:218.97208 16:207.26797 17:136.32673 18:79.731608 19:55.790042 20:44.537635 21:31.01773 22:26.328647 23:22.645444 24:19.635415 25:19.26884 
1 1:334594.34 2:1468.9366 3:1992.837 4:1680.1814 5:967.03231 6:997.30652 7:990.18513 8:741.71981 9:701.13928 10:526.96705 11:314.92362 12:302.8083 13:226.17272 14:226.95147 15:199.37789 16:160.00214 17:104.41525 18:78.503842 19:51.298918 20:42.657557 21:29.596499 22:17.170734 23:9.0822681 24:4.4367687 25:3.104031 
1 1:332602.51 2:723.74474 3:1597.8728 4:1557.2872 5:727.66532 6:639.75566 7:516.43633 8:483.38345 9:718.04309 10:593.51291 11:204.46681 12:254.23797 13:221.05388 14:235.47945 15:258.16827 16:187.82437 17:116.24934 18:78.680632 19:54.270926 20:40.890833 21:26.54079 22:12.904568 23:7.6285121 24:3.8486509 25:2.3696851 
1 1:336848.46 2:1195.8583 3:1569.0343 4:1783.2405 5:1235.1823 6:1014.6489 7:782.1768 8:643.66676 9:828.25827 10:685.95875 11:230.5205 12:227.48905 13:302.41785 14:276.97239 15:235.3642 16:203.11887 17:124.0613 18:75.026232 19:50.650859 20:36.386345 21:28.204294 22:19.126577 23:14.358884 24:9.5119407 25:7.8392487 
1 1:337651.43 2:1086.3536 3:1634.5612 4:1802.077 5:948.16921 6:637.02989 7:569.00353 8:646.96988 9:915.69596 10:792.30871 11:363.66823 12:270.36143 13:238.20758 14:238.0561 15:229.77984 16:188.07453 17:124.64956 18:90.086535 19:56.925855 20:37.969485 21:27.519172 22:19.027339 23:10.597582 24:5.9958023 25:6.9605857 
1 1:336306.14 2:1066.6015 3:1513.7005 4:1466.2594 5:908.97837 6:793.54857 7:640.11511 8:460.8745 9:667.37001 10:589.69012 11:223.98436 12:238.03041 13:286.78742 14:323.20952 15:319.61618 16:201.47185 17:107.28421 18:73.728302 19:62.267364 20:41.100591 21:22.882164 22:13.606382 23:7.6123371 24:5.1697927 25:2.8701402 
1 1:336934.02 2:996.48799 3:1724.6084 4:1452.8266 5:559.15622 6:671.50601 7:687.45497 8:482.11367 9:660.87522 10:647.96852 11:264.46231 12:225.03081 13:226.83146 14:214.51087 15:197.23418 16:137.48335 17:90.379519 18:70.848829 19:46.902228 20:39.829336 21:27.96195 22:20.353791 23:12.743479 24:8.0062925 25:5.9510642 
1 1:336694.39 2:886.38264 3:1299.8101 4:1313.284 5:774.8808 6:722.70933 7:578.38517 8:443.1711 9:640.23333 10:625.16482 11:450.16639 12:345.39468 13:206.99817 14:230.3927 15:266.13109 16:209.22002 17:125.15473 18:98.425044 19:63.512761 20:39.704712 21:28.147683 22:15.290756 23:9.2492006 24:4.5203445 25:2.4593026 
1 1:335999 2:1379.4143 3:2161.1225 4:2068.4238 5:937.76801 6:517.64002 7:550.72849 8:480.44375 9:649.34551 10:561.1575 11:263.3575 12:232.77222 13:218.36132 14:227.26947 15:244.289 16:229.06079 17:121.27552 18:76.811707 19:51.693564 20:38.400119 21:28.975619 22:18.193703 23:11.106585 24:4.5240384 25:3.7257722 
1 1:335495.18 2:924.34671 3:1477.8482 4:1639.7407 5:993.32681 6:801.5397 7:596.92282 8:510.54405 9:695.51023 10:719.3208 11:368.74881 12:227.01595 13:241.36548 14:263.13185 15:294.66038 16:224.74794 17:96.162407 18:62.503797 19:42.528466 20:30.567722 21:25.923127 22:21.484525 23:15.631106 24:13.24822 25:11.01887 
1 1:333630.74 2:1231.9738 3:1732.7503 4:1439.3452 5:664.67728 6:678.57743 7:452.19603 8:420.36929 9:732.80958 10:708.02325 11:371.86274 12:272.95479 13:186.79753 14:206.5205 15:206.54515 16:154.7939 17:104.21107 18:74.314575 19:43.729524 20:30.920117 21:22.623959 22:15.761541 23:7.7713314 24:4.2449183 25:3.4198691 
1 1:336127.31 2:1079.9847 3:1624.3003 4:1566.7466 5:653.38739 6:638.95456 7:610.69715 8:468.69304 9:676.4067 10:658.58798 11:400.00299 12:335.85016 13:260.14741 14:227.07683 15:186.59053 16:137.57007 17:79.85575 18:62.141399 19:54.100923 20:40.131214 21:29.649541 22:18.637921 23:6.603302 24:4.5478613 25:7.2981161 
1 1:335130.8 2:1377.4144 3:1537.3571 4:1299.2166 5:677.76932 6:544.17415 7:502.43048 8:512.13736 9:683.97795 10:536.00698 11:288.21699 12:248.52608 13:189.75194 14:258.20377 15:282.15662 16:183.34182 17:99.269165 18:87.46155 19:56.230077 20:34.797143 21:28.473076 22:18.512544 23:9.1086248 24:5.9151729 25:6.1224675 
1 1:335151.77 2:1496.7209 3:1862.4625 4:1475.1717 5:518.34668 6:549.22971 7:558.53092 8:396.70462 9:596.99759 10:615.81561 11:368.3806 12:328.93123 13:190.04199 14:172.74623 15:239.5594 16:186.62487 17:107.18324 18:100.62717 19:67.497637 20:39.471668 21:26.193438 22:14.852603 23:7.8668893 24:4.4984237 25:3.7402668 
1 1:332931.14 2:1104.3951 3:1806.9123 4:1390.4549 5:577.50218 6:548.42347 7:561.25971 8:564.84545 9:742.33096 10:585.55985 11:333.11737 12:272.00573 13:168.88107 14:122.61389 15:171.31754 16:196.2103 17:129.32713 18:92.141455 19:46.130072 20:34.424282 21:18.726149 22:9.450134 23:8.6273652 24:6.4280432 25:3.9236166 
1 1:332582.65 2:1318.0135 3:1518.1983 4:1534.198 5:848.92747 6:634.20989 7:536.08424 8:445.79369 9:699.85721 10:745.91284 11:424.75667 12:276.50858 13:215.57133 14:221.53528 15:246.89044 16:165.61655 17:91.989411 18:93.674416 19:67.978647 20:33.01383 21:24.1731 22:18.918641 23:9.9980529 24:5.4643105 25:3.0608939 
1 1:334167.15 2:1305.6446 3:1646.3156 4:1405.0865 5:640.92337 6:616.82014 7:691.50541 8:589.1504 9:781.59137 10:754.34315 11:403.26473 12:285.49404 13:179.62673 14:170.93789 15:232.08147 16:223.34301 17:132.34145 18:81.586073 19:71.447419 20:50.219022 21:24.171901 22:18.647579 23:11.130055 24:4.3222007 25:1.7837338 
1 1:332460.95 2:901.34652 3:1771.4334 4:1782.564 5:844.513 6:734.76388 7:744.06679 8:628.0733 9:725.17181 10:687.314 11:458.97951 12:312.20482 13:283.46136 14:291.48476 15:214.08442 16:204.27449 17:122.75091 18:55.479859 19:76.130331 20:50.702173 21:20.699853 22:18.478351 23:10.501164 24:7.039486 25:5.4089939 
1 1:334535.52 2:1400.8925 3:1995.9065 4:1745.9039 5:780.61815 6:645.43917 7:566.85553 8:454.07529 9:650.01063 10:678.83394 11:390.58815 12:293.24608 13:269.77403 14:250.01985 15:194.66382 16:174.50334 17:152.8412 18:117.37903 19:75.563764 20:54.907351 21:38.039439 22:18.595587 23:7.9421993 24:5.0438335 25:5.1430344 
1 1:333397.08 2:954.82824 3:1538.9238 4:1297.7326 5:628.58326 6:590.0035 7:556.03036 8:491.57066 9:673.15987 10:649.1027 11:358.38255 12:302.26502 13:238.50975 14:251.02221 15:306.96624 16:249.94092 17:148.35812 18:101.49067 19:72.604323 20:54.902454 21:40.810054 22:17.796528 23:8.9464507 24:6.6006199 25:4.1246183 
1 1:333735.02 2:767.51204 3:1341.4501 4:1323.4576 5:808.41848 6:874.24206 7:680.90083 8:494.33372 9:671.06625 10:657.32339 11:336.31586 12:221.71444 13:226.80377 14:217.3315 15:217.75679 16:217.30838 17:143.70306 18:105.20197 19:79.444766 20:46.915501 21:24.052939 22:16.629608 23:10.322325 24:4.980412 25:4.0928385 
1 1:335219.36 2:1137.3213 3:1729.8196 4:1559.6554 5:701.45584 6:764.46687 7:682.40831 8:519.46125 9:694.39374 10:630.51711 11:281.42732 12:248.64586 13:286.89932 14:246.8959 15:211.21146 16:168.4747 17:101.44849 18:60.097377 19:60.817675 20:50.156015 21:30.625876 22:20.594989 23:8.971831 24:4.7115529 25:2.898911 
1 1:331952.31 2:1601.7735 3:1764.4868 4:1399.0543 5:803.67272 6:575.86623 7:476.52582 8:472.78814 9:706.04959 10:645.047 11:355.3228 12:323.49952 13:270.66702 14:249.53983 15:301.48811 16:235.25113 17:106.93048 18:85.630356 19:69.66792 20:52.15333 21:33.760237 22:14.764793 23:6.9364474 24:3.4539222 25:2.8604868 
1 1:333058.82 2:1501.239 3:1944.2223 4:1525.0687 5:660.8138 6:633.63685 7:670.93993 8:668.05862 9:797.10815 10:659.27373 11:427.63845 12:359.11012 13:247.11311 14:215.01117 15:223.41374 16:203.3345 17:109.53989 18:93.171779 19:62.380726 20:36.631847 21:28.336957 22:14.397326 23:6.5236543 24:5.0542253 25:3.3617825 
1 1:332635.32 2:914.53713 3:1363.4304 4:1351.0406 5:649.3491 6:572.14993 7:506.55341 8:478.38887 9:738.89653 10:711.97651 11:383.78574 12:262.57982 13:236.97133 14:261.70026 15:225.4876 16:142.72061 17:84.890605 18:86.971136 19:74.94764 20:45.020921 21:20.634992 22:15.714398 23:9.059035 24:5.3956754 25:4.5483562 
1 1:332208.62 2:846.65406 3:1595.8543 4:1392.9014 5:509.80921 6:629.90266 7:570.54539 8:499.64913 9:812.29271 10:655.94879 11:284.3312 12:271.08994 13:279.54501 14:222.70965 15:251.43408 16:251.35752 17:127.88325 18:101.66299 19:63.187953 20:30.969607 21:23.468893 22:16.838397 23:9.32967 24:6.8856927 25:4.915635 
1 1:333266.82 2:917.79608 3:1726.1137 4:1438.6656 5:499.92914 6:566.57657 7:565.19026 8:512.68521 9:752.53644 10:706.91339 11:385.88839 12:291.57401 13:208.76245 14:195.04174 15:229.06009 16:221.28885 17:119.73973 18:74.466424 19:48.078526 20:34.166877 21:31.276192 22:19.529171 23:9.4573917 24:5.5339103 25:2.3290286 
1 1:334618.34 2:1536.2794 3:1631.79 4:1617.5915 5:782.98104 6:690.98112 7:573.2198 8:463.95446 9:648.2153 10:595.73498 11:353.40051 12:357.03032 13:337.27258 14:261.80632 15:239.07875 16:190.46971 17:91.17583 18:74.059235 19:61.92238 20:35.923003 21:21.415325 22:16.28482 23:10.684565 24:7.3738305 25:5.4202363 
1 1:331578.87 2:864.97112 3:1291.1151 4:1489.5573 5:752.72382 6:671.74288 7:558.99943 8:545.63688 9:784.02642 10:643.20318 11:321.63084 12:246.99338 13:192.95267 14:190.46085 15:263.16101 16:215.34637 17:98.335534 18:77.87413 19:50.456965 20:37.853436 21:29.595165 22:24.081671 23:17.253979 24:14.788773 25:14.21382 
1 1:329428.89 2:901.11535 3:1337.6081 4:1302.2959 5:787.60734 6:714.52728 7:626.15662 8:567.36465 9:724.74176 10:642.48147 11:298.67562 12:253.43629 13:212.80237 14:187.06744 15:199.99785 16:194.71485 17:117.88139 18:78.05548 19:55.104621 20:33.365543 21:25.025348 22:24.058141 23:12.477907 24:6.4781543 25:7.0839148 
1 1:330758.55 2:708.89915 3:1514.6468 4:1493.6365 5:500.02066 6:413.97262 7:494.80341 8:583.53382 9:750.17025 10:632.46335 11:372.16737 12:305.79679 13:240.31341 14:211.8066 15:222.66284 16:191.73628 17:101.39625 18:80.378742 19:60.502829 20:49.140486 21:26.301057 22:14.109455 23:17.934952 24:19.097289 25:17.578508 
1 1:330937.79 2:763.47092 3:1144.0172 4:1188.4637 5:772.91819 6:764.11097 7:525.34933 8:546.24437 9:801.42461 10:735.12503 11:483.38781 12:345.39966 13:264.85873 14:249.62512 15:215.13359 16:190.4278 17:125.11542 18:105.52093 19:75.389723 20:46.216468 21:34.590632 22:22.15698 23:13.403751 24:9.0289511 25:9.1796307 
1 1:330224.36 2:1107.9985 3:1597.5523 4:1538.3521 5:714.00769 6:674.358 7:518.30037 8:421.16904 9:683.52118 10:686.51963 11:323.77643 12:238.4854 13:238.04307 14:210.87827 15:263.60367 16:216.05537 17:81.053871 18:72.48196 19:67.077122 20:36.420617 21:25.533927 22:17.44733 23:9.6279534 24:9.1849584 25:7.996371 
1 1:331893 2:1116.4821 3:1688.396 4:1374.9151 5:539.25276 6:572.04647 7:734.52109 8:598.62582 9:642.80292 10:586.79087 11:291.80148 12:302.70555 13:285.57604 14:312.93987 15:299.52965 16:202.45518 17:108.66796 18:82.036672 19:64.37463 20:36.490988 21:26.157287 22:19.205065 23:9.9053036 24:5.0215701 25:2.7843126 
1 1:331257.31 2:1076.3887 3:1533.9275 4:1330.0667 5:716.79749 6:660.77496 7:587.44227 8:440.40055 9:551.15656 10:533.47301 11:321.70849 12:302.34686 13:260.70918 14:213.91081 15:208.57231 16:189.1134 17:122.14631 18:90.390654 19:50.427903 20:32.377853 21:21.931406 22:16.998338 23:9.3372123 24:6.1205418 25:4.2483891 
1 1:332485.36 2:992.37193 3:1781.7263 4:1920.0252 5:892.84653 6:530.78545 7:525.25005 8:451.56444 9:604.97075 10:656.11764 11:384.1745 12:302.2275 13:228.29801 14:212.06371 15:224.84587 16:164.24109 17:80.605209 18:57.783962 19:57.773306 20:44.173874 21:25.21015 22:16.12665 23:8.097158 24:5.0861201 25:3.4832401 
1 1:333956.07 2:1238.3718 3:1740.9318 4:1330.4166 5:391.87482 6:471.06781 7:573.06285 8:660.80404 9:905.3688 10:713.82803 11:257.85496 12:203.1036 13:261.58471 14:277.02507 15:232.36496 16:200.46553 17:152.06077 18:105.09752 19:64.170108 20:37.559669 21:26.891589 22:16.512541 23:9.3252825 24:4.5459097 25:3.7898414 
1 1:332295.6 2:887.56935 3:1483.1314 4:1456.8485 5:734.27314 6:665.68095 7:562.25058 8:518.8696 9:828.60721 10:819.92822 11:439.00853 12:326.55165 13:259.25058 14:189.97989 15:241.09089 16:237.49031 17:145.72223 18:92.759235 19:82.532457 20:52.068398 21:22.490303 22:17.825703 23:12.672802 24:8.3672477 25:8.3795189 
1 1:332896.23 2:1115.0868 3:1685.0405 4:1582.1284 5:704.36249 6:711.38193 7:588.67683 8:539.33919 9:846.86402 10:783.82218 11:361.19781 12:268.26914 13:190.60624 14:220.13058 15:243.6565 16:154.80218 17:107.69938 18:105.33212 19:75.523552 20:44.893092 21:26.468528 22:19.166212 23:10.158179 24:5.0800021 25:2.930756 
1 1:332911.84 2:1049.9064 3:1514.0392 4:1575.3823 5:778.16003 6:679.58889 7:573.73217 8:480.08226 9:781.49322 10:762.43628 11:399.53907 12:277.02721 13:202.82596 14:236.70081 15:289.34221 16:195.22253 17:129.17471 18:119.15465 19:81.853102 20:50.743953 21:36.921579 22:21.167243 23:7.5945478 24:4.3350977 25:3.3163753 
1 1:333045.07 2:1172.0098 3:1665.0446 4:1596.0099 5:753.98692 6:688.89793 7:564.87582 8:421.27206 9:681.06475 10:692.44188 11:391.91955 12:237.77001 13:211.58467 14:231.96955 15:220.42415 16:185.02926 17:107.11065 18:85.191708 19:63.558246 20:40.094202 21:28.08946 22:16.861932 23:8.7702476 24:5.3420148 25:3.224004 
1 1:333618.4 2:1510.8514 3:1757.6931 4:1534.2366 5:655.65464 6:525.33276 7:541.07335 8:532.00862 9:630.83182 10:596.8276 11:286.15504 12:229.75778 13:288.56925 14:272.20275 15:194.23019 16:151.26642 17:127.20664 18:112.62857 19:56.951485 20:30.306899 21:32.468758 22:22.823883 23:11.553718 24:9.757272 25:10.201102 
1 1:332110.69 2:1110.4763 3:1579.7379 4:1581.8775 5:863.9938 6:922.38708 7:714.927 8:502.78832 9:700.61438 10:608.97526 11:367.10172 12:299.21447 13:291.10997 14:295.06188 15:266.18244 16:196.49813 17:116.35487 18:103.26348 19:66.460898 20:42.720304 21:31.255918 22:17.311209 23:8.3758078 24:5.1968287 25:3.5970237 
1 1:331265.53 2:810.70234 3:1729.7231 4:1896.4964 5:796.06923 6:700.25272 7:823.16308 8:611.75171 9:767.91848 10:905.8116 11:579.37852 12:484.86381 13:391.14891 14:246.9118 15:252.89463 16:240.44515 17:169.81557 18:113.82826 19:101.70051 20:71.923792 21:33.001324 22:15.342472 23:13.566011 24:14.707011 25:9.2070924 
1 1:331021.7 2:1455.9339 3:1634.3898 4:1347.8856 5:726.03133 6:897.14006 7:1006.0235 8:762.28286 9:891.52958 10:856.91162 11:461.72682 12:372.0751 13:351.97163 14:376.02474 15:381.2566 16:303.03989 17:199.27586 18:162.53686 19:102.49523 20:66.44081 21:34.993527 22:24.62811 23:11.559875 24:5.3481368 25:4.1808177 
1 1:330407.1 2:1033.7859 3:1973.4918 4:1713.0505 5:943.15141 6:1014.7129 7:669.27974 8:664.91867 9:982.63255 10:900.1425 11:643.13628 12:436.60645 13:313.23677 14:391.05597 15:381.23506 16:347.03252 17:231.25786 18:102.6186 19:92.967353 20:80.068112 21:46.449612 22:21.097582 23:9.1020904 24:5.2507446 25:2.8260472 
1 1:331707.11 2:1287.8815 3:1856.1355 4:1818.0929 5:1178.5324 6:934.58778 7:690.32605 8:784.20482 9:1194.9726 10:998.9118 11:588.48506 12:581.30141 13:578.55889 14:448.85467 15:349.21728 16:328.29025 17:244.10461 18:167.98464 19:122.18157 20:80.598055 21:50.16573 22:26.645207 23:16.528009 24:10.736354 25:8.6525908 
1 1:330220.71 2:1376.9068 3:1507.7431 4:1540.335 5:977.58361 6:831.46535 7:742.52361 8:578.17334 9:949.63954 10:884.42615 11:472.14776 12:570.59767 13:614.88308 14:538.90811 15:479.42461 16:377.77272 17:254.42927 18:206.92983 19:129.42175 20:91.731297 21:61.707805 22:27.94393 23:15.990515 24:10.15216 25:9.7814339 
1 1:332317.27 2:1218.71 3:1761.1786 4:1915.8339 5:1245.2845 6:820.70846 7:615.84173 8:565.89416 9:974.65596 10:1049.001 11:589.79149 12:469.98644 13:513.74268 14:489.51194 15:433.07091 16:365.73321 17:251.94799 18:230.76172 19:190.81039 20:109.09927 21:47.685344 22:22.55002 23:14.322146 24:6.8436557 25:4.9570184 
1 1:332404.14 2:1013.246 3:1647.9907 4:1781.4834 5:1165.1879 6:998.12632 7:760.76163 8:753.59436 9:973.27834 10:853.86852 11:656.86507 12:713.62229 13:575.74705 14:547.70689 15:564.6883 16:401.60319 17:231.6925 18:196.04166 19:143.66197 20:105.01067 21:56.364939 22:23.992049 23:16.318932 24:6.9853732 25:2.0734306 
1 1:332947.85 2:1112.1755 3:1454.7118 4:1538.1592 5:918.35127 6:873.16418 7:873.76557 8:777.25596 9:969.69895 10:959.19799 11:620.38705 12:456.90831 13:446.92449 14:490.60721 15:435.37503 16:328.24201 17:179.73251 18:143.44749 19:100.57323 20:64.893166 21:52.325675 22:31.645524 23:15.604791 24:7.7225845 25:7.3326001 
1 1:333286.4 2:937.56345 3:1489.3871 4:1541.6939 5:910.89031 6:858.21744 7:881.55349 8:792.3994 9:748.73784 10:755.13123 11:610.14677 12:562.07524 13:402.15176 14:318.83797 15:450.97887 16:391.18094 17:214.91771 18:173.77241 19:108.41936 20:54.920271 21:38.775701 22:26.28031 23:13.915658 24:9.3007877 25:5.7106368 
1 1:334335.42 2:1234.9503 3:1464.7978 4:1218.2081 5:679.05849 6:798.9174 7:765.07362 8:793.03806 9:815.55233 10:707.01068 11:623.40543 12:513.84923 13:332.73579 14:344.19896 15:368.48242 16:275.6489 17:205.68622 18:146.75501 19:87.946279 20:64.222166 21:51.591458 22:31.319665 23:18.739357 24:8.6966105 25:5.6325913 
1 1:335488.61 2:1489.3482 3:1836.2966 4:1750.633 5:900.01571 6:907.00161 7:864.71812 8:674.5034 9:748.02265 10:711.2575 11:540.25005 12:514.26518 13:349.94284 14:359.43075 15:398.02352 16:348.50707 17:240.78967 18:171.20191 19:142.80428 20:90.28451 21:43.186055 22:23.376812 23:13.985999 24:9.8888825 25:7.68475 
1 1:334279.55 2:1268.3699 3:1510.9263 4:1502.6313 5:1025.3824 6:982.96026 7:792.98755 8:647.23783 9:815.07388 10:825.37689 11:560.04366 12:456.91336 13:496.16161 14:554.31769 15:472.68098 16:340.02057 17:213.55508 18:176.91458 19:116.36759 20:79.265037 21:43.282821 22:26.146061 23:13.785313 24:10.646707 25:7.2705636 
1 1:334522.51 2:1373.4808 3:1586.9062 4:1781.4482 5:1028.9932 6:697.14448 7:728.49199 8:600.59365 9:676.18775 10:813.26373 11:556.60283 12:493.22673 13:527.22843 14:412.71667 15:379.42632 16:392.67136 17:241.4973 18:130.25713 19:95.207681 20:67.669673 21:39.391425 22:15.724879 23:10.609724 24:8.1451634 25:4.622525 
1 1:333972.16 2:1726.0203 3:1970.7548 4:1615.4 5:763.05337 6:808.98444 7:730.57301 8:678.73642 9:962.62178 10:941.61861 11:648.45267 12:568.84113 13:456.93735 14:420.49357 15:419.70804 16:342.10221 17:247.69534 18:171.21801 19:77.616815 20:68.685673 21:58.913211 22:34.601696 23:19.572406 24:17.027129 25:14.12286 
1 1:330584.06 2:1626.7232 3:1798.3835 4:1583.0384 5:996.75061 6:663.04067 7:422.86787 8:569.95674 9:848.26372 10:834.79641 11:527.05828 12:382.44577 13:364.92667 14:511.97248 15:445.80676 16:261.62426 17:167.91857 18:121.31405 19:75.224106 20:68.333614 21:41.860532 22:23.697481 23:12.575624 24:10.173247 25:11.053441 
1 1:329752.43 2:1009.1253 3:1424.1499 4:1500.6443 5:896.60025 6:799.08734 7:755.51558 8:536.63289 9:683.30494 10:759.45421 11:478.27575 12:370.36277 13:376.30162 14:343.404 15:354.43447 16:266.10449 17:135.19356 18:158.06735 19:132.76749 20:65.938951 21:39.58601 22:27.69857 23:25.242194 24:20.75441 25:19.403917 
1 1:329681.38 2:1210.5883 3:2090.6977 4:1979.708 5:1089.6175 6:795.02742 7:620.54514 8:527.34492 9:846.10279 10:866.26836 11:480.25364 12:334.60871 13:245.33443 14:321.9994 15:321.67829 16:245.29286 17:162.26529 18:132.68669 19:108.67363 20:68.103783 21:33.033749 22:15.382469 23:8.7232867 24:6.054092 25:3.2357505 
1 1:329353.99 2:978.7777 3:1498.167 4:1345.2775 5:825.5572 6:701.01276 7:787.60084 8:811.40592 9:888.92154 10:795.91833 11:470.37356 12:469.29527 13:369.18466 14:334.52818 15:326.56067 16:280.23527 17:220.66322 18:163.64501 19:135.57324 20:80.934309 21:38.609801 22:24.909244 23:15.956406 24:10.034972 25:9.849084 
1 1:329370.68 2:1307.6766 3:1981.8182 4:1650.3494 5:904.33887 6:943.32985 7:709.26589 8:472.1666 9:816.99799 10:870.15666 11:507.14421 12:412.33637 13:266.42288 14:248.7443 15:337.55952 16:317.80055 17:197.18163 18:120.29898 19:87.389219 20:60.300517 21:34.740264 22:16.711851 23:14.363235 24:8.9975806 25:4.6614994 
1 1:327954.3 2:1198.166 3:1756.9387 4:1959.3135 5:866.73156 6:690.25929 7:761.62288 8:608.88145 9:886.03029 10:830.88555 11:396.06942 12:314.84899 13:316.28634 14:268.63864 15:277.59117 16:259.57618 17:160.45476 18:85.347546 19:67.928819 20:49.513187 21:35.713613 22:23.157899 23:10.564724 24:8.0639876 25:6.5610627 
1 1:327700.69 2:1252.8519 3:1413.771 4:1277.1056 5:774.91989 6:657.38554 7:589.56813 8:588.15534 9:776.54791 10:703.57539 11:454.88506 12:409.89166 13:219.93225 14:260.37173 15:354.67159 16:283.67175 17:194.40657 18:163.09537 19:101.40334 20:62.701622 21:40.744109 22:24.256793 23:11.287687 24:5.3241852 25:3.3585538 
1 1:326009.14 2:1202.7752 3:1830.7558 4:1687.2151 5:942.44514 6:1017.6994 7:877.09947 8:469.25407 9:774.68695 10:902.18672 11:541.82842 12:435.56274 13:306.41828 14:315.80868 15:356.71393 16:309.18458 17:210.67832 18:139.58665 19:104.53508 20:84.270912 21:48.068202 22:23.945371 23:11.105642 24:6.4465343 25:3.6029754 
1 1:327098.47 2:1332.5439 3:1640.5962 4:1670.1168 5:1047.0555 6:933.5394 7:616.4552 8:693.88681 9:871.01501 10:683.83261 11:489.8545 12:313.14942 13:251.53992 14:285.66172 15:344.83074 16:300.68675 17:197.2461 18:148.40434 19:83.684686 20:41.27672 21:29.002239 22:23.005802 23:11.627881 24:4.5279675 25:3.0783562 
1 1:327979.24 2:1181.6217 3:1639.0716 4:1498.3191 5:717.5426 6:652.2331 7:497.85358 8:531.72307 9:800.72632 10:730.38585 11:407.80995 12:407.34403 13:377.61367 14:310.83793 15:349.73558 16:223.56468 17:178.77277 18:191.37818 19:124.82344 20:67.904081 21:45.338314 22:29.059269 23:11.723273 24:5.8716039 25:2.1220573 
1 1:325624.25 2:1455.4899 3:1911.1175 4:1850.4749 5:952.02485 6:833.42284 7:908.58695 8:700.55772 9:761.98611 10:817.13893 11:551.34514 12:377.38851 13:325.90411 14:300.7148 15:249.8993 16:256.04885 17:213.39913 18:123.57058 19:87.736531 20:67.688519 21:42.782488 22:18.1227 23:9.1419073 24:5.3815668 25:2.9720561 
1 1:325800.84 2:1586.5839 3:1766.0822 4:1556.0106 5:776.20872 6:953.89187 7:797.78306 8:619.99816 9:919.88537 10:804.40285 11:497.3775 12:451.6303 13:319.71764 14:264.54402 15:250.20379 16:199.18756 17:151.61725 18:165.10613 19:125.75969 20:70.123979 21:33.778227 22:21.011443 23:13.992585 24:9.5569816 25:9.8630418 
1 1:323449.63 2:1098.0964 3:1874.1191 4:1883.2936 5:844.20432 6:677.03187 7:837.14279 8:841.8839 9:863.50107 10:769.96382 11:569.69786 12:462.84186 13:329.84836 14:371.13785 15:369.40815 16:302.94422 17:177.10661 18:128.44182 19:100.28964 20:83.478533 21:56.156524 22:19.050478 23:8.5795497 24:6.0073997 25:5.0252529 
