svm_type nu_svc
kernel_type polynomial
degree 3
gamma 1
coef0 0
nr_class 2
total_sv 1308
rho 1.18009
label 1 0
nr_sv 654 654
SV
4.470927337808056e-34 1:193836.75 2:4227.1624 3:6754.7661 4:7290.1246 5:6724.7786 6:5353.6926 7:3905.4442 8:4392.7352 9:4863.5471 10:4207.6612 11:3711.121 12:2590.0292 13:1710.4332 14:1848.1227 15:1846.1691 16:1396.2775 17:1016.1738 18:759.64258 19:386.14823 20:228.78296 21:142.89028 22:79.207685 23:35.549253 24:16.920249 25:7.1765636 
4.470927337808056e-34 1:189190.11 2:3092.598 3:3824.7914 4:3715.3579 5:4045.8656 6:4205.407 7:3391.221 8:3863.1196 9:3796.826 10:2894.5726 11:2519.7442 12:2274.1769 13:2124.1212 14:1847.5095 15:1349.7852 16:899.95268 17:801.33613 18:720.35057 19:518.353 20:293.01506 21:138.57074 22:71.535755 23:27.814429 24:15.21629 25:7.6572831 
4.470927337808056e-34 1:190837.38 2:3905.3493 3:5309.2645 4:5643.1361 5:5440.6983 6:3924.3117 7:3335.3098 8:3711.3826 9:3656.8244 10:3589.8241 11:2792.3316 12:2507.349 13:2616.7723 14:1962.6684 15:1218.318 16:1175.5243 17:951.42062 18:744.86737 19:428.33732 20:301.40969 21:141.31606 22:57.340576 23:31.873132 24:16.741514 25:8.9552814 
4.470927337808056e-34 1:185566.1 2:4016.6552 3:3962.4581 4:3007.5201 5:3079.2505 6:3823.1253 7:3664.1486 8:3238.5236 9:3346.6291 10:2855.0361 11:2259.8664 12:2128.3907 13:1651.5691 14:1451.4204 15:1351.0813 16:1261.7621 17:1004.6207 18:498.06413 19:364.05409 20:226.01693 21:113.68323 22:66.033865 23:41.366466 24:31.78234 25:23.386733 
4.470927337808056e-34 1:181657.59 2:2952.8289 3:3086.0576 4:3209.7086 5:3293.1264 6:3986.0057 7:3620.5496 8:2251.66 9:2174.9923 10:1835.9397 11:1462.8573 12:1576.963 13:1360.9121 14:1038.7247 15:802.41876 16:590.75072 17:429.42995 18:429.69909 19:320.87486 20:185.59067 21:112.50801 22:62.345007 23:20.057884 24:10.747556 25:6.7648976 
4.470927337808056e-34 1:186236.66 2:4571.229 3:5824.2779 4:7502.9261 5:8477.3687 6:6320.4991 7:3186.3755 8:2070.7755 9:2525.1203 10:2606.0436 11:2581.4859 12:1968.2557 13:1358.2945 14:1284.5466 15:1353.7051 16:1151.4599 17:637.79894 18:352.75307 19:264.77227 20:175.90909 21:75.09053 22:44.747441 23:39.038156 24:24.398168 25:21.754004 
4.470927337808056e-34 1:191845.87 2:2966.5265 3:2680.226 4:3144.9908 5:2561.6747 6:1989.9856 7:2144.3628 8:2507.8809 9:2680.4504 10:2419.6243 11:1979.4177 12:1319.1282 13:1234.9488 14:1277.1681 15:868.95273 16:554.26262 17:524.08793 18:392.26361 19:262.18639 20:100.181 21:62.559555 22:50.086145 23:27.815145 24:15.594675 25:12.184508 
4.470927337808056e-34 1:188872.28 2:8162.9656 3:7055.3932 4:6729.8504 5:7127.3659 6:7349.1322 7:8052.6869 8:8116.9117 9:6752.1446 10:5715.8004 11:6010.2325 12:5250.7885 13:4644.8513 14:4863.8263 15:3953.9458 16:2618.4309 17:1448.5605 18:1003.5087 19:714.4283 20:479.57614 21:380.99512 22:245.69349 23:141.28945 24:132.26976 25:119.90521 
4.470927337808056e-34 1:166294.04 2:4790.2554 3:4762.9447 4:5685.1355 5:6047.4528 6:5563.3211 7:5766.5124 8:7430.1527 9:6517.4545 10:4930.5313 11:5637.0799 12:4039.8392 13:3188.083 14:3324.6231 15:2710.356 16:2364.3884 17:1627.8507 18:956.15186 19:687.12864 20:424.15812 21:275.8492 22:158.89318 23:85.794281 24:53.349588 25:50.231031 
4.470927337808056e-34 1:153016.91 2:3345.8014 3:5096.6594 4:5178.8597 5:5146.783 6:6058.7425 7:4975.4216 8:4746.761 9:5935.9026 10:4702.1737 11:4003.5221 12:2870.4916 13:1784.5237 14:1989.8391 15:1892.4307 16:1574.1425 17:1188.4597 18:870.25995 19:566.91703 20:310.84142 21:209.90843 22:129.82096 23:60.009575 24:19.392356 25:7.3612735 
4.470927337808056e-34 1:144542.23 2:4471.1678 3:4227.4812 4:4157.5723 5:5147.7782 6:4943.9329 7:4458.7068 8:4033.1532 9:4039.8473 10:5193.932 11:4743.7541 12:3690.3678 13:3295.4188 14:2871.9881 15:2081.0634 16:1289.1124 17:1067.516 18:1181.5241 19:894.78906 20:484.86436 21:246.39466 22:118.5902 23:84.08467 24:53.393598 25:38.066939 
4.470927337808056e-34 1:133838.73 2:4078.3659 3:5059.9333 4:3955.7654 5:3523.4976 6:4470.6824 7:4544.9892 8:3962.6221 9:3717.9079 10:5385.2847 11:4891.2771 12:3103.0513 13:2664.5739 14:2227.3061 15:1688.9648 16:1148.1527 17:1056.08 18:855.39711 19:513.84482 20:280.76094 21:196.29328 22:151.14831 23:71.621427 24:32.7643 25:12.525077 
4.470927337808056e-34 1:142702.82 2:4436.4959 3:5166.1008 4:4254.0854 5:6333.6037 6:6574.3661 7:5240.5555 8:4248.0686 9:4123.1058 10:4980.0431 11:3815.1745 12:3301.2813 13:3093.1581 14:2491.4786 15:1885.7148 16:1313.6812 17:916.8764 18:917.65237 19:600.72064 20:290.69474 21:264.39937 22:167.23102 23:68.745436 24:34.740664 25:27.841132 
4.470927337808056e-34 1:134399.33 2:5699.0141 3:7519.2356 4:6978.0396 5:6229.378 6:8052.1612 7:7035.5828 8:4524.0663 9:4619.5558 10:3991.6254 11:3111.6915 12:3307.3219 13:3476.5667 14:2732.7437 15:2064.8976 16:1649.6703 17:986.67383 18:944.32159 19:667.2632 20:445.4523 21:350.7061 22:141.6155 23:82.603968 24:55.72303 25:47.660298 
4.470927337808056e-34 1:122765.3 2:5823.1714 3:6404.0123 4:6159.9553 5:7265.1106 6:7695.63 7:5555.3318 8:7206.2678 9:6343.9564 10:4660.3792 11:6012.7269 12:4461.7842 13:2639.2912 14:2241.2523 15:1816.8468 16:1814.4198 17:1844.677 18:1310.9681 19:675.52991 20:546.88981 21:336.75663 22:220.36938 23:102.8323 24:61.240936 25:54.899748 
4.470927337808056e-34 1:107256.04 2:6518.4734 3:7080.7309 4:8081.5466 5:7351.9356 6:4893.729 7:5788.3277 8:8427.5546 9:7080.8799 10:4615.1122 11:3589.7759 12:2815.5509 13:2139.6497 14:2640.4719 15:2912.536 16:2522.2003 17:2230.0964 18:1392.7197 19:880.99248 20:532.59705 21:330.94202 22:182.45476 23:93.849266 24:69.037723 25:69.906504 
4.470927337808056e-34 1:96272.927 2:14484.879 3:9632.3818 4:11507.779 5:11504.238 6:10862.442 7:9037.5829 8:6981.7085 9:5771.7791 10:4358.529 11:4744.464 12:4645.0156 13:3430.6999 14:3823.0603 15:3419.237 16:2147.6417 17:1440.6385 18:846.37285 19:775.25022 20:679.13528 21:328.16759 22:151.56792 23:120.95637 24:64.542323 25:36.091039 
4.470927337808056e-34 1:96573.759 2:11997.007 3:9392.0907 4:8594.0189 5:8250.8279 6:6800.6244 7:4770.907 8:5913.3574 9:5983.8839 10:5750.8328 11:3787.8488 12:2741.1458 13:3246.2195 14:3770.9441 15:3026.0349 16:1686.6258 17:1314.1339 18:1133.6785 19:765.75937 20:394.96044 21:218.21551 22:126.16171 23:73.790966 24:35.409633 25:9.130887 
4.470927337808056e-34 1:82805.095 2:10033.021 3:9384.4522 4:8102.3289 5:7687.588 6:7479.3117 7:7251.9118 8:5709.6933 9:5150.48 10:4272.3127 11:3089.8415 12:2607.2591 13:2875.2456 14:2875.1026 15:2539.095 16:2210.2152 17:1438.8925 18:867.62077 19:609.77241 20:329.14872 21:223.15535 22:167.36884 23:71.20551 24:45.909432 25:32.344932 
4.470927337808056e-34 1:66580.394 2:6431.9672 3:5669.3535 4:6459.7955 5:6807.8698 6:5819.6052 7:5115.2868 8:5595.4843 9:6016.3455 10:4728.0588 11:3737.2562 12:2609.7672 13:2769.1663 14:2829.5093 15:2035.3745 16:1834.0459 17:1242.4868 18:899.0989 19:563.41836 20:339.88449 21:178.63591 22:99.249877 23:42.235826 24:22.54784 25:16.116425 
4.470927337808056e-34 1:58086.063 2:6384.4882 3:4391.3578 4:3176.2658 5:3558.4791 6:4141.3745 7:4526.3743 8:5025.5607 9:5639.0688 10:4235.0745 11:2490.2474 12:2170.4433 13:2176.3654 14:1672.6698 15:1360.9136 16:1334.8967 17:1180.3148 18:799.12254 19:514.11356 20:255.10085 21:192.26965 22:110.06409 23:45.369883 24:16.244541 25:4.2626769 
4.470927337808056e-34 1:60564.706 2:4644.6211 3:5409.4742 4:5596.6967 5:4841.2382 6:3620.4565 7:3264.2552 8:2348.3274 9:2124.9396 10:2756.4552 11:2670.5732 12:2669.0122 13:2403.3824 14:1769.7452 15:1337.3065 16:873.86839 17:683.45622 18:563.14393 19:370.39622 20:256.432 21:162.78135 22:70.755757 23:38.235271 24:20.47088 25:10.035719 
4.470927337808056e-34 1:74467.033 2:3765.4407 3:4027.7559 4:4779.3261 5:5566.1789 6:5126.1329 7:3733.5019 8:3235.0023 9:3120.8582 10:3833.5383 11:3662.2482 12:2997.4854 13:2360.949 14:1608.1516 15:1561.8555 16:1528.9696 17:1200.7311 18:922.44969 19:572.09133 20:336.75059 21:206.29738 22:135.53638 23:42.85299 24:41.23494 25:45.075288 
4.470927337808056e-34 1:89092.65 2:4145.4862 3:3895.4285 4:4656.8656 5:4522.4055 6:3919.6161 7:3737.3794 8:3562.1408 9:3689.3673 10:3279.3203 11:2764.6376 12:2153.3842 13:2096.9682 14:2155.8305 15:1803.3297 16:1314.9497 17:780.72927 18:744.81493 19:657.87488 20:301.25442 21:176.51353 22:92.541854 23:58.878053 24:47.868965 25:44.264733 
4.470927337808056e-34 1:82834.418 2:2538.7373 3:3357.786 4:4742.0843 5:4662.4313 6:3534.0997 7:3073.2295 8:3916.491 9:3456.1037 10:2229.945 11:2448.7894 12:2146.3535 13:2128.9857 14:2196.219 15:1985.5323 16:1702.4862 17:1016.4538 18:508.39418 19:312.45173 20:265.15771 21:177.0296 22:98.914981 23:50.675982 24:29.764146 25:26.262527 
4.470927337808056e-34 1:75511.082 2:3689.2062 3:3414.068 4:2889.8251 5:2947.3348 6:3203.2962 7:3004.7076 8:2333.2618 9:2455.2532 10:2698.1795 11:2799.7097 12:2416.4811 13:1680.3426 14:2001.1732 15:1733.3642 16:1172.8065 17:745.29156 18:551.7148 19:337.67157 20:208.11573 21:132.61918 22:73.249209 23:42.85579 24:28.494153 25:26.480998 
4.470927337808056e-34 1:70944.95 2:2135.4713 3:2896.1578 4:3621.8202 5:3081.3817 6:3091.2861 7:3568.4785 8:3276.9925 9:3142.4986 10:2638.5698 11:2126.1415 12:1782.6513 13:1457.7648 14:1559.69 15:1151.2645 16:823.36071 17:669.69371 18:546.81589 19:335.41203 20:168.94929 21:95.501108 22:53.574384 23:22.844022 24:8.8877114 25:5.3017464 
4.470927337808056e-34 1:73356.246 2:3218.5657 3:3129.2319 4:2706.0853 5:2017.5411 6:1710.0066 7:2165.3757 8:2566.6742 9:2409.9928 10:2354.883 11:1971.1034 12:1494.4994 13:1360.2395 14:1181.7724 15:1215.191 16:1057.3811 17:472.18247 18:308.45371 19:293.12719 20:197.54719 21:102.00949 22:43.302699 23:19.384371 24:11.45886 25:5.742112 
4.470927337808056e-34 1:71403.201 2:2588.0915 3:2070.9887 4:2398.307 5:2701.233 6:1991.2065 7:2162.8654 8:2431.9933 9:2256.2048 10:1813.3035 11:1361.1377 12:1221.6112 13:1202.1351 14:1464.3751 15:1054.6723 16:654.96917 17:385.09454 18:300.47178 19:295.91714 20:172.64637 21:84.161513 22:53.429888 23:33.325986 24:27.286082 25:23.282126 
4.470927337808056e-34 1:74643.754 2:2622.6487 3:2982.9282 4:2393.0583 5:2749.9352 6:3277.4073 7:2696.6386 8:3220.0181 9:2957.5749 10:2213.5592 11:2133.0889 12:1774.1756 13:1630.8872 14:1656.3129 15:1303.4926 16:794.25862 17:606.45685 18:507.89093 19:346.48022 20:223.08732 21:108.22841 22:73.192326 23:31.201777 24:14.220983 25:12.19016 
4.470927337808056e-34 1:80259.088 2:3522.1629 3:3547.9882 4:3075.6453 5:2489.0386 6:2982.8332 7:3438.4004 8:3649.5142 9:3918.3985 10:2909.5 11:1477.0584 12:1539.6976 13:1686.5941 14:1075.8734 15:941.72713 16:781.38538 17:567.62263 18:480.06973 19:341.27102 20:199.34974 21:90.979451 22:69.507876 23:30.545771 24:16.20943 25:16.046944 
4.470927337808056e-34 1:87786.129 2:2492.6765 3:3140.0445 4:4228.0488 5:3507.9117 6:2325.9813 7:2232.6581 8:1767.9988 9:2155.3826 10:2767.3529 11:2799.4195 12:2512.9629 13:1723.1033 14:1312.4147 15:1165.4179 16:656.26778 17:435.1959 18:471.20131 19:335.30452 20:167.33454 21:93.775583 22:58.316294 23:36.973593 24:17.028136 25:12.322782 
4.470927337808056e-34 1:95045.206 2:3019.8489 3:3020.0478 4:3185.8145 5:3988.8322 6:3973.6033 7:3369.4913 8:3270.4357 9:3702.8849 10:2938.2393 11:2012.0153 12:1973.9213 13:1586.4972 14:1524.6749 15:1422.5822 16:1088.761 17:879.6531 18:588.48271 19:397.37146 20:262.87495 21:117.17094 22:58.039684 23:33.513255 24:11.774794 25:10.075944 
4.470927337808056e-34 1:104875.8 2:3754.3333 3:4043.291 4:3424.1747 5:3794.8622 6:3232.0658 7:3680.1238 8:3814.8161 9:3318.5016 10:3487.3509 11:2981.0684 12:2075.9592 13:1503.3216 14:1351.7825 15:1440.4821 16:1203.9465 17:785.71194 18:425.72781 19:330.90076 20:252.2312 21:149.93077 22:73.965613 23:41.514162 24:37.022751 25:36.469183 
4.470927337808056e-34 1:111650.55 2:3362.2735 3:4154.72 4:3505.4408 5:3143.788 6:2886.0419 7:2763.4403 8:3424.6096 9:3463.7354 10:2531.5452 11:1656.0296 12:1078.5062 13:1312.9501 14:1695.2904 15:1146.378 16:909.59574 17:813.26712 18:503.57059 19:396.2184 20:216.91804 21:110.27067 22:53.408475 23:30.320523 24:30.198665 25:32.462176 
4.470927337808056e-34 1:125129.54 2:3885.4625 3:4201.0553 4:3607.6281 5:2964.6166 6:3356.4782 7:3624.7976 8:3073.7267 9:3272.2452 10:3452.487 11:2919.1396 12:2103.1024 13:2042.8393 14:1827.9719 15:1355.5384 16:1227.4717 17:958.47991 18:727.84975 19:436.26033 20:287.58169 21:197.5673 22:76.758979 23:35.555437 24:11.111645 25:6.1815769 
4.470927337808056e-34 1:120731.01 2:4634.301 3:5710.7428 4:4885.7287 5:3571.9642 6:4174.3741 7:5305.6706 8:4112.3716 9:3237.4013 10:3183.9615 11:3091.4133 12:2790.8264 13:2004.2982 14:2036.8563 15:1831.7739 16:1393.2424 17:864.39604 18:396.66244 19:273.12283 20:276.96623 21:150.21925 22:68.446251 23:40.768847 24:28.093727 25:18.210718 
4.470927337808056e-34 1:114692.53 2:5282.7965 3:3870.4028 4:4492.0376 5:4750.7756 6:3362.5641 7:2573.8718 8:3051.055 9:3181.9065 10:2659.2983 11:2148.7522 12:2029.2046 13:1968.1838 14:1860.2124 15:1424.1515 16:1180.3001 17:936.01915 18:598.73157 19:345.64871 20:174.37474 21:127.51863 22:55.784166 23:38.097548 24:13.375175 25:7.5436449 
4.470927337808056e-34 1:109178.25 2:3333.7168 3:3224.5354 4:3289.4607 5:2578.7132 6:2269.9992 7:2153.2853 8:2227.5792 9:2279.3516 10:1966.7774 11:2007.0388 12:1710.219 13:1393.7876 14:1278.6052 15:900.22156 16:679.51906 17:621.26524 18:455.28997 19:274.44231 20:175.4059 21:88.685491 22:43.011717 23:26.432461 24:18.401086 25:14.176316 
4.470927337808056e-34 1:109320.94 2:2615.5083 3:3086.6304 4:3074.1113 5:1901.6898 6:2135.1503 7:2685.7513 8:2336.5534 9:2498.4045 10:2523.3208 11:1585.735 12:981.55163 13:883.55098 14:1160.2301 15:1036.6236 16:664.87584 17:498.82536 18:341.57284 19:224.7758 20:153.9128 21:94.869833 22:44.050132 23:23.474877 24:19.186996 25:20.227083 
4.470927337808056e-34 1:114764.86 2:1955.6099 3:1996.3382 4:1780.8469 5:2018.9242 6:2530.9943 7:2381.7683 8:1862.8715 9:1643.3128 10:1808.2583 11:1851.155 12:1497.0749 13:1549.8717 14:1338.8577 15:1007.5842 16:810.73306 17:520.96526 18:380.3254 19:226.54247 20:145.07988 21:84.516048 22:56.008794 23:40.939629 24:35.425487 25:37.568206 
4.470927337808056e-34 1:121330.17 2:2801.1019 3:2711.1732 4:2868.0587 5:2655.5595 6:2415.6745 7:3220.0328 8:3132.9983 9:2117.4489 10:2193.6271 11:2305.1442 12:1847.6192 13:1727.4551 14:1546.2183 15:1135.0917 16:793.99731 17:470.437 18:299.51128 19:228.83443 20:184.41762 21:105.98502 22:60.826614 23:31.872967 24:11.732556 25:8.2599018 
4.470927337808056e-34 1:120052.67 2:2630.8345 3:2908.7567 4:3264.9898 5:2876.7617 6:2889.6312 7:2849.5803 8:2193.0733 9:2524.1695 10:2733.2859 11:2106.1175 12:1572.0514 13:1588.6642 14:1466.8137 15:1066.8676 16:706.81074 17:389.36032 18:282.52948 19:262.57929 20:221.4911 21:98.797411 22:37.543004 23:22.901296 24:17.514473 25:14.087027 
4.470927337808056e-34 1:122084.81 2:2171.9989 3:2330.3722 4:2273.0542 5:1899.7658 6:1907.5753 7:2235.4444 8:2174.7764 9:2128.3709 10:1711.3448 11:1156.6053 12:1043.8709 13:959.29187 14:922.7767 15:875.21575 16:578.03226 17:435.10485 18:280.60116 19:151.75548 20:114.76137 21:82.471888 22:57.976662 23:30.249142 24:21.886012 25:22.55123 
4.470927337808056e-34 1:128123.65 2:2961.4898 3:2937.638 4:2485.5063 5:2178.7886 6:2426.9116 7:2893.1735 8:2510.5599 9:1868.1155 10:1659.3477 11:1694.7246 12:1276.0176 13:512.32169 14:923.44354 15:1123.6 16:727.63586 17:455.17501 18:302.65746 19:236.76321 20:146.22519 21:72.358834 22:38.151177 23:27.165305 24:28.848459 25:27.767895 
4.470927337808056e-34 1:137167.41 2:1968.4296 3:3357.4538 4:3832.6158 5:3346.0787 6:3171.4865 7:2781.4883 8:2596.0791 9:2085.1984 10:1728.268 11:1685.3836 12:1281.927 13:1099.9934 14:1198.8603 15:857.52452 16:711.54566 17:622.16616 18:402.1396 19:286.21894 20:178.08026 21:98.05742 22:69.048247 23:32.106634 24:22.892352 25:18.851271 
4.470927337808056e-34 1:143646.91 2:3328.6581 3:3729.5986 4:3172.8367 5:3235.9962 6:3285.2846 7:2664.0567 8:2486.524 9:1961.3698 10:1843.185 11:1896.126 12:1520.7312 13:1545.3148 14:1446.1076 15:962.70838 16:907.57901 17:709.16964 18:328.95889 19:267.06719 20:198.21747 21:91.323011 22:64.735104 23:33.067276 24:9.4457115 25:5.6538731 
4.470927337808056e-34 1:147860.96 2:5850.3407 3:5216.5464 4:4775.8296 5:2909.3062 6:2795.8244 7:2832.4362 8:2321.3831 9:1392.4169 10:1508.8866 11:1622.3414 12:1367.1094 13:1129.5967 14:951.59337 15:868.7561 16:589.8293 17:378.92794 18:253.17056 19:184.85103 20:134.56904 21:72.89111 22:47.401663 23:28.257754 24:15.378387 25:8.3704093 
4.470927337808056e-34 1:149877.43 2:2454.452 3:2688.5096 4:2659.2951 5:2728.9779 6:2357.1004 7:2185.0406 8:2188.052 9:1858.2831 10:1896.2022 11:1792.5251 12:1282.6691 13:1064.428 14:1090.2196 15:778.44887 16:592.47859 17:551.27549 18:344.38469 19:218.1452 20:180.70462 21:107.73918 22:57.836639 23:44.671823 24:40.542422 25:41.27818 
4.470927337808056e-34 1:167261.69 2:3120.2261 3:2504.7678 4:2337.4061 5:2147.6956 6:2105.8042 7:2271.0318 8:2355.0513 9:2083.5292 10:1777.8823 11:1901.865 12:1783.4842 13:1264.0991 14:869.28753 15:690.43284 16:631.00596 17:566.47933 18:428.45626 19:270.97612 20:178.80375 21:87.280197 22:62.167809 23:49.341135 24:39.303355 25:38.867134 
4.470927337808056e-34 1:189975.03 2:1011.3666 3:1086.7481 4:868.22907 5:645.87883 6:619.5033 7:615.53894 8:530.84457 9:607.90535 10:652.27825 11:435.24397 12:270.25119 13:186.53017 14:226.27947 15:216.63051 16:181.55073 17:166.34547 18:106.66621 19:58.686545 20:51.586275 21:37.484253 22:19.857602 23:6.0486565 24:3.5110733 25:3.0223082 
4.470927337808056e-34 1:191292.05 2:1046.5318 3:953.02878 4:914.38039 5:693.93685 6:611.03684 7:525.69138 8:540.71905 9:600.31538 10:471.52236 11:368.00175 12:317.88869 13:266.0545 14:272.70032 15:242.06971 16:231.31131 17:193.0232 18:116.05804 19:56.88567 20:41.824436 21:25.023931 22:15.997514 23:11.499122 24:8.0912081 25:8.7885603 
4.470927337808056e-34 1:192187.02 2:1212.108 3:1035.6686 4:882.39479 5:564.81471 6:647.13841 7:511.79412 8:530.93077 9:605.76448 10:439.48386 11:227.18743 12:189.6141 13:216.94213 14:291.05787 15:225.62419 16:180.04346 17:156.53242 18:89.179081 19:64.758813 20:47.167818 21:33.306676 22:22.901572 23:9.7940503 24:6.8253335 25:5.4559239 
4.470927337808056e-34 1:191365.53 2:1069.3386 3:785.75558 4:762.90012 5:614.55814 6:512.67223 7:522.52617 8:530.04579 9:711.0638 10:590.10883 11:372.78932 12:334.4983 13:272.54537 14:261.66702 15:205.92632 16:172.43525 17:135.01108 18:109.32905 19:98.183215 20:62.986176 21:39.932513 22:25.319678 23:11.783137 24:8.6854011 25:7.523137 
4.470927337808056e-34 1:189400.29 2:1095.9306 3:838.47716 4:994.90627 5:905.91521 6:847.50826 7:665.4598 8:563.09752 9:544.08879 10:397.26741 11:295.47178 12:274.90952 13:242.0094 14:244.03203 15:231.29603 16:194.64089 17:150.82822 18:104.38083 19:79.497656 20:59.03645 21:29.403671 22:20.140549 23:10.65884 24:6.1201794 25:4.1488759 
4.470927337808056e-34 1:189569.27 2:1094.3584 3:782.77201 4:807.31393 5:568.33257 6:599.03828 7:554.58321 8:468.94015 9:593.09124 10:445.26943 11:295.83546 12:285.01879 13:189.84456 14:189.00828 15:203.96649 16:185.64396 17:133.12997 18:98.50222 19:74.941491 20:45.86646 21:25.383863 22:16.857984 23:13.216637 24:7.0921121 25:4.5754778 
4.470927337808056e-34 1:187747.75 2:916.22502 3:1056.5044 4:997.29938 5:652.23594 6:562.93662 7:521.23581 8:484.20149 9:608.77269 10:538.42411 11:245.3715 12:193.55334 13:207.23295 14:251.65214 15:195.61532 16:151.75488 17:92.95688 18:63.452872 19:61.386285 20:53.820969 21:30.499509 22:15.205457 23:13.453822 24:10.514581 25:8.4479513 
4.470927337808056e-34 1:186301.42 2:830.41943 3:974.48422 4:909.71169 5:688.82464 6:681.1991 7:545.55224 8:390.71222 9:488.01912 10:560.24998 11:333.06099 12:197.02126 13:255.02166 14:240.58692 15:175.3349 16:155.59094 17:155.82456 18:126.98446 19:80.652092 20:50.451152 21:25.92441 22:17.921018 23:10.941027 24:4.3496831 25:2.1821787 
4.470927337808056e-34 1:186367.65 2:1064.7677 3:842.6424 4:886.87499 5:697.55527 6:481.86492 7:310.64936 8:344.68743 9:387.50575 10:404.17963 11:297.32389 12:248.9325 13:327.30102 14:339.65394 15:205.62519 16:136.21981 17:134.91153 18:118.87943 19:70.617356 20:49.00709 21:35.255615 22:21.582633 23:11.488142 24:8.1960456 25:7.4721701 
4.470927337808056e-34 1:183558.36 2:997.92294 3:791.14818 4:805.05227 5:597.06425 6:461.09876 7:427.36735 8:421.39697 9:465.32076 10:379.44201 11:315.00163 12:266.0861 13:178.39008 14:174.27982 15:182.76995 16:210.49059 17:189.38528 18:116.89499 19:70.879779 20:50.603013 21:29.425194 22:19.912173 23:11.393905 24:7.3359977 25:6.2365756 
4.470927337808056e-34 1:184205.58 2:864.81807 3:817.15868 4:670.30278 5:466.52873 6:427.66317 7:435.28226 8:539.12806 9:525.737 10:429.14368 11:266.71372 12:245.72672 13:238.19156 14:193.32671 15:199.08628 16:179.29189 17:146.8046 18:137.49173 19:78.504177 20:46.416349 21:37.057046 22:24.364715 23:13.76712 24:8.4431597 25:9.000225 
4.470927337808056e-34 1:185602.52 2:983.3525 3:934.98323 4:871.69053 5:607.40932 6:499.21959 7:590.65112 8:608.13391 9:403.1245 10:326.80301 11:301.456 12:218.31812 13:221.3036 14:229.26916 15:163.98302 16:191.96514 17:166.44466 18:100.3577 19:61.894594 20:37.273499 21:24.228965 22:17.238345 23:10.099762 24:4.6247781 25:2.7209662 
4.470927337808056e-34 1:184935.71 2:912.15017 3:751.42794 4:740.00991 5:535.07369 6:453.48468 7:399.31853 8:347.06424 9:422.62327 10:499.08171 11:467.36627 12:321.8193 13:191.6679 14:141.69452 15:133.16459 16:146.21575 17:116.2058 18:97.386216 19:74.383251 20:53.721581 21:29.618926 22:13.792133 23:11.112371 24:7.1159446 25:4.2303551 
4.470927337808056e-34 1:180558.51 2:666.91103 3:830.27604 4:782.75758 5:682.54654 6:595.6806 7:376.47205 8:310.98206 9:349.6238 10:371.61554 11:307.97708 12:240.12208 13:157.09415 14:181.06393 15:202.19332 16:121.63038 17:92.631056 18:85.987152 19:86.628251 20:60.887256 21:33.412228 22:21.210222 23:10.804584 24:5.9168715 25:4.857591 
4.470927337808056e-34 1:179351.48 2:835.53423 3:927.78239 4:725.46405 5:468.94146 6:518.69642 7:503.46899 8:545.32316 9:552.98863 10:432.40341 11:306.36294 12:219.39353 13:221.55492 14:207.13924 15:149.16885 16:138.91359 17:108.00495 18:79.508978 19:73.924778 20:53.243519 21:25.467148 22:17.23299 23:10.149611 24:5.8594951 25:4.8974522 
4.470927337808056e-34 1:181344.85 2:1079.0015 3:1263.649 4:946.44108 5:462.1393 6:527.02206 7:452.47671 8:420.70473 9:619.79901 10:611.20186 11:401.19743 12:247.69054 13:196.79958 14:210.60903 15:199.36611 16:154.7497 17:113.87134 18:100.98797 19:82.666141 20:45.658331 21:20.967899 22:13.308004 23:7.4301052 24:4.4558678 25:2.4657719 
4.470927337808056e-34 1:181968.57 2:1250.3019 3:786.24795 4:533.93647 5:528.0619 6:415.86279 7:436.44515 8:484.93917 9:437.12723 10:452.94362 11:415.5235 12:303.4611 13:204.28755 14:249.68883 15:231.05013 16:160.0312 17:89.640363 18:57.073313 19:56.553666 20:38.661787 21:24.351905 22:16.255132 23:10.406912 24:7.1963387 25:4.3775689 
4.470927337808056e-34 1:180215.23 2:1050.5383 3:1101.6118 4:940.04091 5:519.3354 6:548.21484 7:507.84688 8:378.28055 9:447.12896 10:433.02295 11:326.13171 12:335.4843 13:255.8131 14:179.05275 15:191.03888 16:197.46329 17:130.60801 18:95.282314 19:64.429648 20:47.116157 21:36.731345 22:21.525097 23:11.990128 24:6.843402 25:4.6977411 
4.470927337808056e-34 1:178519.19 2:690.76366 3:867.97744 4:771.05948 5:556.66582 6:495.5605 7:385.38751 8:426.40201 9:618.52661 10:536.96442 11:292.15983 12:188.56803 13:215.96792 14:261.43626 15:248.64871 16:203.75962 17:101.28889 18:65.646379 19:59.811629 20:46.695461 21:36.955496 22:22.199021 23:7.5716585 24:6.2261098 25:4.0991022 
4.470927337808056e-34 1:179020.82 2:710.76617 3:873.04781 4:722.70189 5:501.6559 6:455.83665 7:360.78489 8:336.78831 9:487.16877 10:512.32829 11:364.08973 12:305.82055 13:261.68423 14:260.41325 15:189.39547 16:118.92408 17:102.84551 18:110.48025 19:88.007036 20:43.666819 21:27.230522 22:16.011183 23:10.046959 24:4.8788966 25:2.8155962 
4.470927337808056e-34 1:177676.7 2:740.70627 3:813.97361 4:859.52487 5:673.51095 6:525.21448 7:586.38619 8:580.04065 9:556.01936 10:434.90063 11:299.43079 12:307.35185 13:238.23881 14:172.71715 15:173.87367 16:136.10851 17:99.765168 18:80.49797 19:54.802256 20:43.587512 21:28.305167 22:16.881795 23:8.3582498 24:5.1733866 25:4.6481643 
4.470927337808056e-34 1:179784.17 2:863.27745 3:972.32514 4:1114.3088 5:742.04609 6:487.38209 7:431.03616 8:449.97579 9:543.18171 10:420.94021 11:286.34196 12:241.71141 13:228.117 14:283.15693 15:213.23452 16:153.0611 17:134.01717 18:105.50036 19:67.648316 20:43.495669 21:26.143781 22:16.345735 23:10.402619 24:5.8159901 25:3.7252901 
4.470927337808056e-34 1:180615.75 2:531.37316 3:655.3891 4:702.66779 5:530.78762 6:520.41892 7:498.94648 8:516.48364 9:522.05275 10:406.56356 11:278.25249 12:283.91393 13:308.3116 14:304.835 15:240.39141 16:207.62381 17:144.37934 18:87.239395 19:83.863488 20:55.899014 21:34.149952 22:19.208756 23:13.77363 24:11.501187 25:8.6692174 
4.470927337808056e-34 1:183619.22 2:821.01147 3:1032.0805 4:1072.1961 5:590.34403 6:443.42898 7:362.83578 8:378.90107 9:481.19905 10:411.47639 11:265.2237 12:237.04294 13:242.58708 14:221.72327 15:173.07965 16:172.39672 17:178.00329 18:114.83321 19:54.585085 20:44.153264 21:25.666119 22:14.631966 23:10.650739 24:6.3145396 25:6.0823699 
4.470927337808056e-34 1:181098.03 2:1020.7068 3:875.45091 4:781.35984 5:526.36652 6:464.50307 7:405.14871 8:391.31584 9:586.14705 10:564.48699 11:317.31189 12:220.56116 13:139.77628 14:179.71385 15:203.74774 16:165.94159 17:141.33067 18:107.20891 19:82.665741 20:60.540692 21:30.572182 22:13.589539 23:11.001243 24:9.06436 25:6.765657 
4.470927337808056e-34 1:181318.42 2:878.86955 3:1115.8267 4:997.01981 5:614.99192 6:568.29335 7:492.09541 8:342.72017 9:426.5121 10:530.90603 11:492.23613 12:334.00966 13:217.25266 14:296.98968 15:314.21325 16:194.62177 17:120.23281 18:110.61412 19:81.605909 20:52.686356 21:40.442469 22:21.161237 23:10.611274 24:6.0622735 25:4.6427982 
4.470927337808056e-34 1:183347.01 2:1111.4813 3:1178.5114 4:1062.2185 5:372.52156 6:458.16257 7:536.68709 8:441.6723 9:442.04589 10:417.96183 11:332.59541 12:248.6243 13:204.25945 14:203.34213 15:199.21792 16:180.37523 17:155.25846 18:117.70656 19:75.780328 20:49.742626 21:29.166153 22:19.301722 23:10.482075 24:6.5293894 25:4.3457902 
4.470927337808056e-34 1:180761.71 2:1250.9442 3:933.00076 4:908.20264 5:634.82988 6:582.27838 7:431.9971 8:399.08186 9:475.1627 10:534.99239 11:330.67121 12:197.67967 13:236.96404 14:287.65507 15:199.91445 16:123.13769 17:129.69994 18:129.50815 19:99.451783 20:54.684448 21:28.54277 22:17.412154 23:9.5942875 24:5.6319484 25:4.8693903 
4.470927337808056e-34 1:180429.91 2:1111.8616 3:918.24405 4:878.7775 5:701.54062 6:502.06266 7:447.77953 8:441.68326 9:393.88778 10:409.64276 11:268.62203 12:181.32156 13:205.90314 14:198.99198 15:170.81265 16:148.85837 17:111.7728 18:92.501727 19:67.657609 20:52.676437 21:42.711762 22:24.138163 23:12.500094 24:7.1133063 25:4.2484085 
4.470927337808056e-34 1:182401.56 2:766.99698 3:923.58676 4:996.6547 5:560.62009 6:552.03245 7:510.88998 8:411.92718 9:466.65193 10:467.37152 11:298.97026 12:199.98599 13:192.0019 14:254.23942 15:226.97821 16:145.26543 17:140.15768 18:117.65877 19:74.874566 20:56.249179 21:39.778886 22:25.516221 23:13.67581 24:5.2904017 25:4.3025929 
4.470927337808056e-34 1:182188.64 2:1074.4984 3:886.78569 4:739.48268 5:634.37383 6:596.32675 7:352.03973 8:334.3381 9:478.67282 10:410.58078 11:291.24156 12:214.75667 13:171.93273 14:230.5765 15:174.81021 16:128.41503 17:148.43783 18:115.3143 19:76.29419 20:50.876547 21:28.988381 22:17.588354 23:9.5832483 24:4.9671866 25:3.9204449 
4.470927337808056e-34 1:182000.09 2:760.44518 3:879.23025 4:1094.6227 5:817.42597 6:507.86446 7:532.08634 8:413.13908 9:401.58052 10:420.60027 11:292.6339 12:314.68757 13:289.84619 14:230.69877 15:239.0036 16:179.65445 17:100.9192 18:94.702498 19:66.037001 20:49.06573 21:37.784011 22:23.215626 23:14.137139 24:9.3877287 25:7.7939627 
4.470927337808056e-34 1:185058.38 2:1197.8587 3:703.83134 4:760.39906 5:524.20269 6:469.90117 7:487.99194 8:428.1166 9:352.97207 10:425.31052 11:358.99398 12:270.32802 13:241.07351 14:208.85751 15:199.34303 16:175.79197 17:127.62765 18:91.590123 19:79.283188 20:54.560865 21:32.939169 22:16.863323 23:9.5529331 24:6.2610212 25:2.9509028 
4.470927337808056e-34 1:185321.4 2:714.57975 3:780.46481 4:896.96063 5:816.94465 6:532.71752 7:445.76252 8:431.46824 9:397.19433 10:500.40925 11:387.43786 12:240.91788 13:261.41071 14:313.19206 15:227.6998 16:141.88093 17:112.60055 18:98.614597 19:80.097258 20:54.235139 21:32.872408 22:19.204691 23:10.61462 24:6.6330994 25:6.4176468 
4.470927337808056e-34 1:186065.44 2:832.44368 3:968.43837 4:967.44068 5:514.58895 6:356.41562 7:428.11018 8:474.09788 9:437.09351 10:434.93747 11:297.82677 12:224.79873 13:251.27487 14:248.69991 15:233.25725 16:177.32832 17:104.20567 18:103.8175 19:89.077505 20:50.234769 21:34.102521 22:16.980594 23:8.1884119 24:6.5985957 25:4.0770347 
4.470927337808056e-34 1:181447.88 2:804.62515 3:884.33445 4:837.55729 5:484.81787 6:421.7696 7:467.40988 8:334.24359 9:427.48015 10:453.81387 11:243.81836 12:242.48118 13:248.15046 14:186.18164 15:170.42716 16:154.75635 17:128.17839 18:115.33061 19:70.561116 20:55.428924 21:39.302699 22:23.117495 23:22.160631 24:20.096182 25:20.238209 
4.470927337808056e-34 1:177881.29 2:936.19028 3:777.50622 4:757.0273 5:531.30276 6:506.0863 7:405.8105 8:370.20674 9:502.49202 10:518.53699 11:349.71958 12:209.87971 13:220.08746 14:309.51478 15:253.33067 16:188.47466 17:142.5661 18:82.221472 19:47.590775 20:45.824827 21:38.169655 22:20.073619 23:14.526016 24:8.9161861 25:8.3278499 
4.470927337808056e-34 1:176871.54 2:891.09091 3:815.50578 4:695.88974 5:407.32191 6:321.07148 7:346.37904 8:397.07294 9:543.11044 10:499.8014 11:372.49974 12:297.28043 13:231.04167 14:246.94111 15:234.15037 16:186.53006 17:117.49512 18:82.665076 19:50.4709 20:38.208464 21:35.821007 22:20.08313 23:14.819983 24:9.6805454 25:6.9717866 
4.470927337808056e-34 1:179994.95 2:762.98072 3:966.12001 4:978.64382 5:600.9852 6:430.47028 7:288.09526 8:352.48525 9:473.6725 10:397.41501 11:246.65345 12:220.71567 13:249.95466 14:255.3419 15:237.15548 16:184.84316 17:130.93798 18:91.538288 19:51.446058 20:37.559536 21:29.085167 22:21.358479 23:13.186339 24:10.730245 25:11.804261 
4.470927337808056e-34 1:182745.13 2:1367.6865 3:1316.4722 4:1067.1656 5:501.96346 6:395.95656 7:419.10234 8:473.54781 9:590.3173 10:423.59532 11:276.44886 12:275.57642 13:208.79461 14:231.7526 15:240.48955 16:219.29117 17:178.4471 18:109.54101 19:66.200442 20:43.490136 21:32.325058 22:27.007745 23:10.675972 24:4.6704893 25:4.1343574 
4.470927337808056e-34 1:181692.99 2:1049.8357 3:794.46983 4:804.887 5:585.97815 6:596.40993 7:541.13722 8:572.31015 9:667.35149 10:467.73023 11:236.14446 12:227.45154 13:294.43182 14:205.46978 15:143.62986 16:119.68467 17:84.834992 18:89.245164 19:84.524178 20:53.031119 21:25.634339 22:21.079099 23:11.86049 24:6.9105101 25:6.3015911 
4.470927337808056e-34 1:179022.91 2:988.26836 3:881.967 4:832.66211 5:593.80676 6:611.28426 7:672.72796 8:535.5717 9:607.58452 10:585.68027 11:330.01779 12:247.82308 13:186.90808 14:244.47815 15:213.02539 16:143.75266 17:135.68326 18:93.776768 19:67.606495 20:50.546974 21:30.574558 22:15.28789 23:9.0725681 24:4.9722596 25:3.3444485 
4.470927337808056e-34 1:176609.23 2:731.02829 3:950.7947 4:866.2988 5:475.46701 6:480.829 7:497.26574 8:525.06154 9:547.3744 10:433.42146 11:319.56727 12:309.52237 13:195.67403 14:234.98338 15:249.75379 16:175.12477 17:133.99562 18:69.314111 19:52.785627 20:40.741561 21:28.253335 22:16.641989 23:9.1873754 24:4.8343435 25:3.128292 
4.470927337808056e-34 1:175052.55 2:710.95325 3:824.57582 4:975.37034 5:695.7774 6:532.06865 7:496.83806 8:436.33723 9:439.01167 10:476.54905 11:485.11885 12:377.08918 13:227.50676 14:208.08492 15:215.79093 16:232.94859 17:159.28676 18:88.535916 19:72.668865 20:55.132141 21:30.432436 22:17.255787 23:10.03607 24:4.2617792 25:2.4301282 
4.470927337808056e-34 1:174485.59 2:675.8707 3:843.28921 4:839.68778 5:585.92807 6:581.93216 7:564.56029 8:572.29798 9:543.6762 10:425.72243 11:330.26113 12:254.39481 13:245.92103 14:265.37528 15:209.84311 16:188.2374 17:155.64655 18:97.737125 19:56.148173 20:49.035211 21:36.968233 22:17.685936 23:7.9300817 24:4.015074 25:3.115067 
4.470927337808056e-34 1:175071.74 2:895.33228 3:852.84199 4:725.92436 5:565.55977 6:550.58659 7:564.42199 8:543.57033 9:422.69728 10:372.19788 11:363.15095 12:369.00766 13:300.68951 14:256.09083 15:190.13796 16:164.77628 17:140.78722 18:110.43147 19:74.393756 20:36.549285 21:30.561931 22:13.877874 23:6.4751584 24:3.4526459 25:1.8397971 
4.470927337808056e-34 1:176112.72 2:1154.0451 3:980.82709 4:836.45703 5:624.86442 6:509.90615 7:428.81762 8:464.58746 9:553.49934 10:489.90813 11:378.00383 12:296.91699 13:208.9874 14:238.96676 15:203.45263 16:146.43235 17:110.36203 18:91.354453 19:60.600722 20:45.504167 21:27.240843 22:13.38861 23:8.5390151 24:5.2111706 25:3.0151234 
4.470927337808056e-34 1:176202.5 2:1034.3311 3:825.502 4:777.52602 5:385.16377 6:298.16523 7:310.15585 8:353.74583 9:569.93392 10:537.16585 11:265.35636 12:161.84402 13:190.20411 14:235.12382 15:197.9259 16:179.31118 17:125.26184 18:83.579033 19:68.467874 20:39.799172 21:24.561815 22:20.771394 23:15.692225 24:12.374732 25:11.144386 
4.470927337808056e-34 1:173205.24 2:1023.2072 3:985.43839 4:903.22744 5:508.01454 6:490.15172 7:452.48875 8:409.39615 9:493.60754 10:462.87749 11:306.8776 12:182.79923 13:180.55315 14:207.00084 15:186.24807 16:163.78228 17:140.98237 18:90.007442 19:76.039209 20:57.608947 21:33.10269 22:22.382217 23:12.021424 24:6.3198579 25:4.3960667 
4.470927337808056e-34 1:175244.2 2:916.70497 3:1144.8443 4:1116.9096 5:735.93877 6:695.46008 7:470.05262 8:370.35972 9:497.44003 10:418.97083 11:275.72373 12:218.85537 13:249.12628 14:249.48071 15:209.15402 16:213.83989 17:118.72015 18:87.77144 19:86.014571 20:46.432843 21:25.488805 22:23.880033 23:16.323476 24:10.745907 25:10.697233 
4.470927337808056e-34 1:177178.29 2:925.66034 3:874.17739 4:790.80733 5:496.25147 6:450.6619 7:428.24391 8:430.54789 9:494.99302 10:421.95943 11:283.35256 12:223.7693 13:219.97822 14:273.05923 15:211.43052 16:142.50254 17:113.99551 18:81.333107 19:54.691949 20:39.610639 21:23.689969 22:17.604702 23:9.4997924 24:5.7257888 25:4.2759006 
4.470927337808056e-34 1:175661.02 2:1096.3739 3:1071.6877 4:988.72902 5:598.67673 6:480.86044 7:350.53503 8:328.31868 9:453.50429 10:389.12178 11:300.52164 12:344.27302 13:250.65618 14:221.75386 15:196.99401 16:152.20578 17:114.90986 18:103.52294 19:61.718354 20:42.157179 21:44.585472 22:19.727781 23:8.5286138 24:8.654501 25:7.3075736 
4.470927337808056e-34 1:170700.8 2:757.60908 3:935.6866 4:807.68671 5:512.7792 6:533.85512 7:457.27544 8:399.27248 9:505.34767 10:431.10462 11:254.36683 12:221.18615 13:186.58444 14:184.56664 15:207.64004 16:171.45872 17:119.15684 18:98.473214 19:63.20029 20:33.890447 21:19.941217 22:12.892232 23:9.8313919 24:5.7000119 25:2.9377946 
4.470927337808056e-34 1:174995.92 2:866.99222 3:894.17658 4:813.37044 5:449.38898 6:467.76641 7:524.77379 8:466.43349 9:535.07755 10:593.23898 11:396.04054 12:289.38498 13:237.84632 14:246.72099 15:293.73173 16:210.94835 17:97.039474 18:56.182391 19:49.377354 20:46.135641 21:36.180109 22:23.58598 23:20.76151 24:15.674613 25:12.856492 
4.470927337808056e-34 1:177353.65 2:820.62451 3:787.22542 4:667.96724 5:560.87426 6:542.07795 7:384.92888 8:323.12377 9:511.13209 10:438.36267 11:268.72978 12:246.25153 13:231.78086 14:211.59363 15:177.72705 16:193.54315 17:152.6874 18:93.23807 19:76.103014 20:52.947718 21:35.24139 22:24.126364 23:13.181032 24:4.9624104 25:3.9520263 
4.470927337808056e-34 1:176120.47 2:698.36761 3:1038.9645 4:981.88925 5:591.39887 6:534.44331 7:493.21666 8:427.1866 9:365.75749 10:373.99757 11:346.58191 12:309.16503 13:240.76144 14:259.15546 15:289.9982 16:182.1787 17:124.17104 18:110.65066 19:55.874467 20:35.403828 21:32.882999 22:18.901158 23:12.133806 24:10.057512 25:9.1858956 
4.470927337808056e-34 1:176078.23 2:771.82195 3:692.71144 4:820.59358 5:579.30465 6:454.61501 7:386.00701 8:418.81496 9:445.82931 10:399.89132 11:292.23228 12:230.52559 13:204.9705 14:165.71361 15:226.96328 16:219.81566 17:105.37536 18:70.47519 19:63.026237 20:42.002321 21:28.948722 22:19.389372 23:11.597095 24:8.8879299 25:6.8337361 
4.470927337808056e-34 1:178093.14 2:671.66699 3:750.1622 4:884.03655 5:598.48133 6:490.28269 7:480.79051 8:473.75775 9:507.21402 10:352.70837 11:176.08308 12:206.90985 13:274.16017 14:263.95058 15:230.10685 16:176.94244 17:98.39894 18:79.465489 19:62.49886 20:47.368629 21:22.003999 22:14.275235 23:9.5692979 24:4.8430331 25:3.2397528 
4.470927337808056e-34 1:181379.07 2:1035.231 3:952.4397 4:968.42178 5:560.2598 6:583.94979 7:536.43384 8:438.06794 9:432.24211 10:336.3071 11:218.78586 12:228.81556 13:307.63265 14:280.45359 15:161.75208 16:134.01546 17:149.24767 18:131.1727 19:74.825902 20:48.580261 21:23.132212 22:14.160447 23:10.538208 24:8.0183326 25:7.3523179 
4.470927337808056e-34 1:182216.5 2:600.4214 3:810.11229 4:847.88792 5:493.90053 6:386.44651 7:447.70454 8:412.49553 9:442.26045 10:464.59245 11:294.10553 12:219.82209 13:254.22748 14:245.60572 15:226.42017 16:202.38324 17:135.97651 18:117.71429 19:79.168987 20:43.808074 21:32.76482 22:21.116746 23:11.011497 24:7.6243888 25:5.2656772 
4.470927337808056e-34 1:180073.24 2:973.14135 3:726.97729 4:588.4919 5:477.13607 6:489.03566 7:359.2688 8:373.28777 9:469.04569 10:397.28963 11:319.81167 12:249.76141 13:243.07776 14:243.75304 15:235.38935 16:238.64475 17:148.28162 18:95.446852 19:69.637927 20:37.890399 21:26.181916 22:17.483306 23:10.628009 24:8.9918616 25:7.2270085 
4.470927337808056e-34 1:179570.58 2:757.32332 3:870.06695 4:1092.1237 5:816.29522 6:626.99718 7:528.2277 8:398.78886 9:464.38618 10:420.84986 11:226.23417 12:161.70229 13:234.81505 14:217.0336 15:144.13096 16:176.51694 17:139.64809 18:82.754295 19:71.773664 20:43.897091 21:16.632993 22:14.905946 23:15.756335 24:14.23471 25:11.038152 
4.470927337808056e-34 1:175894.61 2:1130.5343 3:853.15275 4:890.74167 5:678.55809 6:492.34501 7:392.43165 8:405.97998 9:480.63676 10:592.232 11:415.53559 12:241.34508 13:240.13294 14:274.91335 15:260.45713 16:186.14664 17:130.11035 18:107.47254 19:71.170465 20:33.483189 21:21.738763 22:9.4555615 23:7.0656622 24:5.7780057 25:3.7716303 
4.470927337808056e-34 1:177129.39 2:1295.2458 3:755.30435 4:726.04561 5:648.35895 6:537.56259 7:422.51187 8:312.01629 9:412.62626 10:477.85101 11:350.65472 12:236.62868 13:193.56439 14:251.38037 15:231.17267 16:182.41281 17:152.34392 18:98.534111 19:52.7199 20:37.490147 21:27.0302 22:14.53849 23:9.376697 24:5.5246611 25:2.9892348 
4.470927337808056e-34 1:175671.14 2:857.9561 3:1041.7634 4:949.08939 5:560.08157 6:351.37227 7:397.1561 8:615.51627 9:561.48642 10:361.7353 11:230.23403 12:195.06118 13:223.86514 14:217.84235 15:188.79422 16:163.10584 17:123.42475 18:106.21588 19:76.044041 20:55.449418 21:44.617777 22:18.179139 23:7.3030481 24:5.5214932 25:1.9172932 
4.470927337808056e-34 1:177539.95 2:630.50858 3:657.88327 4:587.9675 5:487.34206 6:452.70242 7:383.72835 8:497.89211 9:549.9015 10:431.21925 11:357.82799 12:303.43896 13:263.05581 14:243.49913 15:223.72719 16:215.89035 17:143.71388 18:103.3155 19:83.132722 20:57.068857 21:40.574205 22:20.097903 23:10.42395 24:9.4380996 25:8.9602106 
4.470927337808056e-34 1:177999.23 2:1115.2328 3:912.22327 4:862.87618 5:599.69975 6:332.56554 7:314.56365 8:424.34575 9:410.33923 10:346.39438 11:286.21789 12:295.89179 13:301.93329 14:233.77755 15:198.15139 16:169.53524 17:137.09512 18:108.64974 19:60.233208 20:37.587938 21:35.61166 22:22.624295 23:14.887423 24:10.646323 25:8.6700572 
4.470927337808056e-34 1:179055.46 2:768.09933 3:952.96567 4:876.045 5:490.15669 6:435.32932 7:447.045 8:397.76958 9:472.06235 10:423.5814 11:376.02962 12:342.4395 13:197.6418 14:186.62543 15:217.49202 16:164.03935 17:124.32336 18:95.344182 19:48.095026 20:39.361284 21:26.877234 22:21.729909 23:10.177844 24:5.9654725 25:4.2286116 
4.470927337808056e-34 1:178377.33 2:811.39012 3:646.9502 4:724.2743 5:566.85162 6:533.68275 7:521.34281 8:402.8343 9:443.86363 10:456.92052 11:278.15136 12:260.79224 13:286.95811 14:234.77803 15:164.85655 16:132.97435 17:109.01107 18:87.198466 19:73.088467 20:56.121995 21:36.611428 22:21.244773 23:11.924468 24:13.376663 25:14.401989 
4.470927337808056e-34 1:175361.06 2:1264.3082 3:969.67081 4:628.7842 5:451.30855 6:517.59674 7:563.18651 8:490.75271 9:444.86741 10:447.43724 11:278.27907 12:217.8853 13:252.64521 14:228.53445 15:186.43895 16:152.83131 17:143.02168 18:123.22085 19:77.322224 20:51.905841 21:27.797419 22:20.503647 23:11.657814 24:7.4857253 25:7.8873819 
4.470927337808056e-34 1:170564.7 2:752.83624 3:828.99718 4:850.59981 5:615.73509 6:453.18849 7:427.10289 8:377.19738 9:350.81573 10:333.13232 11:281.79719 12:270.63921 13:201.59018 14:192.27043 15:199.11838 16:160.1739 17:125.62179 18:114.4029 19:82.055467 20:51.170607 21:26.333785 22:15.407004 23:9.6904259 24:4.00489 25:2.3235217 
4.470927337808056e-34 1:170411.62 2:755.56381 3:913.27694 4:789.66514 5:479.65619 6:567.43271 7:494.48706 8:372.18067 9:419.53195 10:409.33322 11:309.57853 12:211.4977 13:243.52538 14:248.2136 15:164.3812 16:180.68415 17:139.43555 18:76.791446 19:69.65348 20:53.066659 21:27.211709 22:17.9814 23:10.254612 24:6.9168063 25:6.1368888 
4.470927337808056e-34 1:171213.11 2:737.39816 3:708.59604 4:542.37069 5:413.89471 6:550.87214 7:530.98165 8:455.06214 9:497.71542 10:487.64294 11:376.28606 12:238.59959 13:222.74861 14:227.33455 15:206.15435 16:135.8217 17:99.680405 18:89.807226 19:61.630823 20:53.425775 21:33.393 22:20.283762 23:13.951713 24:9.7690991 25:8.2218085 
4.470927337808056e-34 1:169877.09 2:904.64969 3:1058.5095 4:883.36931 5:384.72857 6:447.15024 7:489.12077 8:417.75753 9:512.8028 10:445.59193 11:311.49893 12:304.31042 13:197.34467 14:216.48841 15:196.08622 16:160.74083 17:140.60469 18:101.84014 19:63.282807 20:36.116411 21:22.21089 22:21.246284 23:13.981115 24:11.386276 25:10.369253 
4.470927337808056e-34 1:167562.52 2:781.22261 3:956.42675 4:995.71731 5:605.2283 6:525.48117 7:416.03126 8:483.89064 9:439.62565 10:348.77908 11:351.21997 12:307.57436 13:211.32457 14:189.69858 15:228.22057 16:218.08132 17:165.96449 18:101.66535 19:59.218558 20:57.043398 21:34.542868 22:18.013286 23:9.121607 24:4.4436096 25:2.6066136 
4.470927337808056e-34 1:166535.83 2:759.66659 3:703.84409 4:716.67747 5:573.55245 6:702.50517 7:549.59714 8:448.57824 9:518.75684 10:539.30177 11:355.6949 12:193.93377 13:214.78668 14:262.79606 15:268.52722 16:229.61575 17:161.93704 18:122.27293 19:70.97759 20:41.550204 21:32.933002 22:21.993021 23:13.038004 24:6.0269047 25:4.5757512 
4.470927337808056e-34 1:164473.32 2:656.10401 3:727.86026 4:664.08579 5:483.5424 6:536.97595 7:521.38843 8:430.51844 9:453.38786 10:405.65057 11:333.11777 12:309.12724 13:252.909 14:234.87828 15:147.71873 16:93.635378 17:85.790056 18:88.873703 19:70.84935 20:44.705951 21:37.564573 22:21.598498 23:11.726473 24:8.1533314 25:4.9729393 
4.470927337808056e-34 1:167142.35 2:919.32162 3:1100.4619 4:959.16639 5:530.89119 6:458.00811 7:472.00222 8:399.05978 9:475.13843 10:476.85217 11:338.75649 12:242.59293 13:182.15955 14:150.80532 15:182.88023 16:173.15782 17:116.68462 18:117.59166 19:93.023106 20:42.846365 21:19.423244 22:13.61778 23:11.356036 24:6.6331874 25:3.6561814 
4.470927337808056e-34 1:166390.84 2:868.40679 3:749.78774 4:775.33209 5:387.68242 6:285.96587 7:418.73082 8:400.32495 9:363.89336 10:454.42296 11:404.61323 12:311.90066 13:275.65623 14:283.87742 15:199.06646 16:159.25676 17:135.03617 18:99.34443 19:94.537106 20:57.847479 21:32.552086 22:16.729913 23:8.9501829 24:5.1840052 25:3.1881271 
4.470927337808056e-34 1:166606.42 2:821.40894 3:977.82555 4:1025.97 5:667.91736 6:499.57946 7:477.64398 8:488.43986 9:539.27756 10:478.76385 11:288.02883 12:212.10316 13:190.03332 14:204.69963 15:177.7156 16:176.14883 17:136.70327 18:88.033233 19:69.888126 20:42.211975 21:26.774916 22:17.799393 23:9.0291188 24:7.385775 25:6.0214647 
4.470927337808056e-34 1:161702.18 2:871.42577 3:846.05184 4:896.42886 5:530.87193 6:512.05342 7:475.60534 8:380.93313 9:562.55558 10:550.16875 11:282.42978 12:201.89208 13:203.43316 14:178.54092 15:173.2246 16:171.92087 17:127.30508 18:98.557914 19:57.029596 20:43.506493 21:35.21352 22:19.067295 23:9.1208466 24:4.1662867 25:3.9197981 
4.470927337808056e-34 1:163400.34 2:751.81512 3:794.78987 4:688.94538 5:450.46088 6:401.60613 7:383.63739 8:391.08835 9:543.8375 10:478.88628 11:276.46633 12:275.66307 13:224.16671 14:139.2635 15:154.10028 16:161.57434 17:129.96937 18:119.4437 19:71.378214 20:53.094794 21:30.929138 22:15.947804 23:10.420287 24:5.9047859 25:5.6281046 
4.470927337808056e-34 1:163528.8 2:867.37801 3:905.02309 4:812.35645 5:535.07548 6:422.61995 7:245.07946 8:202.28121 9:506.60471 10:538.76639 11:335.6398 12:364.06236 13:311.59383 14:317.34445 15:298.36435 16:245.35102 17:169.61872 18:84.461633 19:51.653752 20:33.883106 21:18.162813 22:11.528735 23:7.2920261 24:4.4031905 25:3.6865342 
4.470927337808056e-34 1:166068.87 2:832.02656 3:888.59067 4:837.34234 5:536.42967 6:525.68121 7:623.10786 8:450.15392 9:415.60032 10:483.68449 11:366.67713 12:221.0343 13:238.30982 14:289.22589 15:209.35763 16:166.55427 17:132.13378 18:83.652894 19:51.696353 20:36.584997 21:22.13307 22:16.67662 23:13.064625 24:10.155793 25:9.18154 
4.470927337808056e-34 1:165785.6 2:636.60005 3:669.94253 4:681.18792 5:493.00679 6:424.54182 7:428.94747 8:401.94537 9:592.93423 10:600.38518 11:308.64798 12:232.44326 13:279.0686 14:266.40818 15:206.04044 16:189.67719 17:157.87115 18:126.56538 19:77.895038 20:46.804424 21:28.215221 22:17.926377 23:11.271682 24:3.7894725 25:1.8688269 
4.470927337808056e-34 1:163879.05 2:1048.2319 3:793.25477 4:800.03028 5:439.26174 6:415.03246 7:443.10359 8:382.54419 9:459.04205 10:422.67226 11:270.85253 12:293.92888 13:273.12066 14:223.7875 15:230.21734 16:197.38071 17:117.31243 18:88.423719 19:73.745474 20:58.059063 21:47.049263 22:28.501632 23:18.731858 24:16.997503 25:16.755069 
4.470927337808056e-34 1:162696.59 2:941.40553 3:709.28963 4:615.98283 5:506.31487 6:468.31498 7:530.38069 8:461.0998 9:456.71312 10:375.92122 11:272.61779 12:261.43091 13:243.91266 14:304.55246 15:276.17024 16:186.84594 17:120.43002 18:92.261941 19:56.371061 20:48.856051 21:37.592624 22:18.141861 23:9.5922552 24:4.9711529 25:4.3740171 
4.470927337808056e-34 1:164443.48 2:903.59277 3:913.41151 4:844.68197 5:493.32092 6:551.93164 7:529.31908 8:473.17268 9:558.46868 10:498.54991 11:405.75156 12:354.06242 13:230.51394 14:253.73024 15:296.25238 16:246.80263 17:155.44381 18:104.47022 19:89.251546 20:64.745025 21:34.232609 22:17.568164 23:14.877632 24:13.810942 25:11.195513 
4.470927337808056e-34 1:163011.61 2:1033.0467 3:1061.8501 4:801.72058 5:495.72679 6:482.56153 7:383.15669 8:366.05467 9:439.26872 10:520.69578 11:418.66388 12:252.56549 13:170.66862 14:147.99286 15:180.41314 16:170.91969 17:111.08203 18:88.212057 19:67.099463 20:39.826915 21:22.828702 22:16.263233 23:12.926385 24:11.485974 25:11.141564 
4.470927337808056e-34 1:160925.16 2:883.87931 3:959.39332 4:848.48017 5:571.92857 6:644.10347 7:543.56156 8:504.46668 9:546.40387 10:473.4152 11:313.64413 12:198.7801 13:169.9751 14:203.50163 15:197.00508 16:172.09749 17:144.44444 18:103.81054 19:65.215071 20:37.651648 21:29.194837 22:19.405089 23:8.6902216 24:6.0930167 25:4.0689056 
4.470927337808056e-34 1:162901.71 2:839.88863 3:1127.5397 4:951.83703 5:578.24666 6:604.50754 7:545.41355 8:469.20283 9:609.53678 10:565.47208 11:365.88541 12:320.41807 13:292.0494 14:201.87715 15:176.58351 16:165.80711 17:90.981065 18:46.824061 19:56.184608 20:41.016807 21:25.449039 22:16.856 23:7.7436424 24:4.4599947 25:4.2601428 
4.470927337808056e-34 1:162990.05 2:873.80257 3:965.58545 4:908.41025 5:448.12545 6:432.86302 7:350.3416 8:348.24268 9:522.91608 10:500.91134 11:314.97314 12:251.81544 13:234.81998 14:231.34304 15:179.17429 16:157.29931 17:118.80372 18:75.201953 19:66.953706 20:51.295658 21:33.403106 22:26.294443 23:12.76492 24:6.9639461 25:5.4763671 
4.470927337808056e-34 1:166186.06 2:1138.9525 3:930.77835 4:805.05827 5:527.17313 6:411.97961 7:307.19924 8:310.65905 9:419.70875 10:433.7175 11:377.51788 12:333.43584 13:242.6246 14:191.10148 15:170.91981 16:186.32427 17:127.38812 18:83.977776 19:70.192151 20:36.96942 21:29.184526 22:24.45257 23:18.95155 24:18.578864 25:18.839052 
4.470927337808056e-34 1:167909.11 2:1036.3816 3:1079.7078 4:1035.2812 5:508.56247 6:344.77767 7:498.29743 8:438.10753 9:595.66292 10:695.0844 11:388.10045 12:241.06021 13:216.44667 14:189.8779 15:200.68359 16:207.5976 17:150.85184 18:121.72504 19:61.241454 20:31.007869 21:27.712125 22:22.356128 23:16.414529 24:13.210331 25:10.554342 
4.470927337808056e-34 1:166659.99 2:924.42664 3:718.36858 4:735.36443 5:467.13215 6:410.31156 7:516.9806 8:522.65605 9:617.55537 10:531.70619 11:343.10634 12:272.34497 13:291.73405 14:305.91105 15:232.14083 16:173.64736 17:139.85798 18:114.8625 19:76.150794 20:46.369069 21:31.368929 22:19.271548 23:12.08607 24:5.4613031 25:2.5733188 
4.470927337808056e-34 1:168941.19 2:956.29384 3:1159.1792 4:1011.751 5:489.96392 6:388.89997 7:417.16396 8:405.88562 9:349.46176 10:351.68095 11:298.60345 12:284.46058 13:302.87884 14:228.2628 15:170.6607 16:174.65763 17:141.20048 18:86.493164 19:55.547002 20:51.109964 21:36.087602 22:29.378733 23:22.57777 24:20.157953 25:17.710805 
4.470927337808056e-34 1:170523.89 2:746.99717 3:923.04646 4:850.33807 5:375.2821 6:312.7259 7:266.86026 8:337.69128 9:493.5257 10:447.93383 11:278.60164 12:219.65815 13:172.0875 14:172.55876 15:197.95508 16:189.7648 17:110.12805 18:74.379523 19:74.262304 20:56.872666 21:28.580207 22:21.487379 23:14.78502 24:8.1219187 25:7.4999499 
4.470927337808056e-34 1:172873.32 2:1061.8967 3:929.09313 4:831.24756 5:561.463 6:506.53667 7:423.494 8:502.08493 9:575.44416 10:432.82348 11:309.67942 12:269.26344 13:263.87794 14:302.73345 15:249.55513 16:145.07214 17:98.032137 18:86.34873 19:79.433091 20:57.057339 21:32.104359 22:19.396644 23:6.8469062 24:3.6957615 25:2.5995357 
4.470927337808056e-34 1:170989.66 2:1166.5274 3:991.15797 4:811.02683 5:574.67341 6:648.07305 7:606.41419 8:461.552 9:563.84008 10:536.47457 11:352.59464 12:211.59315 13:171.96332 14:195.82499 15:159.03238 16:150.13735 17:125.26778 18:89.806063 19:56.647178 20:52.731336 21:46.641455 22:30.333284 23:20.461965 24:16.524593 25:15.490293 
4.470927337808056e-34 1:167204.79 2:878.17661 3:1016.9155 4:1032.8032 5:647.22683 6:476.39283 7:479.45048 8:574.8398 9:560.1766 10:422.0151 11:289.3666 12:301.26131 13:278.16395 14:224.17892 15:207.27147 16:189.88084 17:126.92053 18:94.175027 19:70.837758 20:51.625792 21:30.738233 22:15.194441 23:13.233857 24:11.369701 25:12.481969 
4.470927337808056e-34 1:166241.21 2:955.26052 3:887.04507 4:936.9943 5:580.68138 6:502.95356 7:585.91039 8:419.3313 9:526.96664 10:498.03853 11:298.07008 12:248.82962 13:275.52709 14:242.48337 15:163.23457 16:175.42432 17:127.38951 18:77.560278 19:73.454339 20:67.096672 21:47.400801 22:19.142039 23:12.705271 24:9.4625687 25:8.6785035 
4.470927337808056e-34 1:165090.15 2:636.42132 3:621.74189 4:619.71826 5:562.08359 6:564.0751 7:401.81241 8:352.85221 9:546.62823 10:467.43518 11:279.62398 12:235.75882 13:227.98611 14:271.74894 15:197.49481 16:139.19279 17:139.41095 18:120.13685 19:80.683879 20:42.483098 21:22.696968 22:10.852484 23:9.8221763 24:8.1960381 25:5.660115 
4.470927337808056e-34 1:162640.21 2:731.65873 3:837.87909 4:891.26672 5:604.9896 6:533.53472 7:464.75544 8:445.99957 9:532.70514 10:474.71621 11:292.17174 12:267.36702 13:273.60004 14:281.87644 15:196.19104 16:169.88471 17:151.30772 18:92.91371 19:83.25479 20:59.006585 21:20.444238 22:12.674152 23:8.811681 24:8.9948966 25:8.7140791 
4.470927337808056e-34 1:162854.48 2:1050.5159 3:854.68731 4:791.55777 5:593.01608 6:453.5076 7:384.72871 8:523.63902 9:583.05637 10:471.76828 11:310.81294 12:222.77138 13:270.47023 14:315.59144 15:264.12287 16:159.15747 17:109.22965 18:93.229788 19:61.070105 20:44.329871 21:27.562775 22:20.468889 23:11.125275 24:4.3868264 25:2.8633436 
4.470927337808056e-34 1:162111.99 2:881.71581 3:732.86257 4:815.32988 5:693.68984 6:526.05203 7:447.44575 8:387.23192 9:419.24664 10:451.20407 11:319.55375 12:199.52397 13:153.80116 14:241.95046 15:260.77804 16:160.36287 17:148.7406 18:118.1326 19:61.902454 20:49.813415 21:26.60088 22:18.051983 23:13.166613 24:6.1832157 25:5.4937042 
4.470927337808056e-34 1:158411.28 2:869.66402 3:937.00651 4:839.55196 5:422.17932 6:413.83282 7:416.48383 8:425.25404 9:462.43008 10:403.71752 11:298.22101 12:266.00333 13:244.7192 14:219.22658 15:156.98084 16:188.63879 17:159.30839 18:93.400649 19:59.702267 20:48.990251 21:37.821081 22:13.089646 23:6.7152479 24:4.9626046 25:2.693853 
4.470927337808056e-34 1:158203.44 2:878.86104 3:723.01352 4:726.70901 5:476.39469 6:403.87055 7:324.67366 8:258.60804 9:351.22562 10:359.55926 11:244.54167 12:202.27261 13:195.42297 14:189.19063 15:167.37716 16:158.49641 17:141.32652 18:101.70807 19:81.593946 20:58.504629 21:26.339417 22:17.009131 23:10.550524 24:5.5872456 25:4.7144295 
4.470927337808056e-34 1:155540.95 2:563.63862 3:773.09778 4:771.08724 5:555.46903 6:633.99202 7:706.29603 8:603.89683 9:586.54021 10:524.44413 11:359.92074 12:264.80639 13:188.98044 14:167.88391 15:212.83335 16:217.22377 17:128.4401 18:92.192453 19:88.371333 20:55.058019 21:36.001143 22:20.852321 23:11.759825 24:8.7529798 25:8.2229715 
4.470927337808056e-34 1:156054.77 2:677.70385 3:855.65176 4:787.39554 5:473.2599 6:410.58862 7:494.03023 8:433.40748 9:438.67166 10:463.74586 11:366.27458 12:315.18652 13:270.34393 14:224.13448 15:190.13154 16:161.03302 17:138.23453 18:105.65503 19:64.178066 20:54.767841 21:36.449689 22:18.940328 23:11.439384 24:7.0130855 25:3.3932667 
4.470927337808056e-34 1:154798.8 2:766.07856 3:890.34276 4:819.43158 5:464.61965 6:468.59033 7:602.36316 8:574.87083 9:555.38316 10:460.1703 11:331.97893 12:342.25624 13:279.36843 14:198.84916 15:155.5326 16:190.61313 17:165.56232 18:113.61674 19:85.326113 20:47.590579 21:29.787269 22:20.719693 23:10.231612 24:5.3496592 25:2.8411968 
4.470927337808056e-34 1:155279.71 2:841.67432 3:830.08444 4:610.20903 5:373.09577 6:363.88102 7:416.70695 8:503.10825 9:672.12431 10:496.76376 11:265.07489 12:245.26854 13:284.45645 14:284.31133 15:192.61013 16:133.39627 17:111.91312 18:75.726953 19:45.907476 20:43.037153 21:26.288266 22:17.647415 23:11.961778 24:5.7884541 25:4.6968563 
4.470927337808056e-34 1:153832.39 2:761.90425 3:934.34765 4:818.55954 5:375.61884 6:380.00986 7:400.12836 8:360.53089 9:461.05657 10:484.42275 11:267.44873 12:218.61186 13:223.50293 14:226.95462 15:223.3619 16:152.68116 17:101.70979 18:80.997878 19:63.364722 20:50.332538 21:35.696004 22:23.43975 23:15.306029 24:8.7498474 25:8.6644569 
4.470927337808056e-34 1:152022.54 2:858.36797 3:811.34759 4:780.27006 5:445.94621 6:443.35548 7:392.67315 8:396.19636 9:596.66826 10:445.10251 11:211.36418 12:213.44479 13:193.06869 14:193.45844 15:244.86532 16:199.73238 17:159.6218 18:115.19625 19:66.116299 20:39.373139 21:33.054462 22:24.176587 23:11.99613 24:7.4892741 25:5.8727775 
4.470927337808056e-34 1:151762.68 2:589.59742 3:780.07891 4:836.73832 5:645.17117 6:531.61334 7:427.53968 8:538.31315 9:554.2072 10:360.16505 11:253.12224 12:324.37959 13:294.14063 14:205.93837 15:206.48626 16:187.2131 17:129.69633 18:113.17198 19:69.125757 20:48.296077 21:38.319319 22:20.296743 23:10.924426 24:6.3797003 25:3.6856428 
4.470927337808056e-34 1:150813.14 2:660.70404 3:752.96616 4:888.26224 5:616.32191 6:599.21685 7:555.21029 8:376.85277 9:457.45953 10:456.09408 11:251.73304 12:195.7924 13:179.88772 14:224.59323 15:196.61214 16:108.67295 17:88.885757 18:93.767259 19:54.336971 20:34.649836 21:27.56851 22:16.060555 23:9.1335552 24:4.4196904 25:2.6905836 
4.470927337808056e-34 1:152299.42 2:714.47771 3:1012.4842 4:891.13219 5:567.05044 6:633.81679 7:607.86514 8:430.25211 9:364.9171 10:391.82403 11:373.23145 12:324.48628 13:242.73563 14:301.59581 15:271.88726 16:180.43552 17:148.54055 18:101.90676 19:81.886052 20:42.378888 21:25.088765 22:17.437784 23:9.6160281 24:6.9735486 25:5.3292991 
4.470927337808056e-34 1:151971.42 2:706.03369 3:611.38541 4:656.92646 5:541.07936 6:531.60346 7:452.14735 8:393.76101 9:399.195 10:386.59195 11:300.13055 12:239.32723 13:236.44242 14:193.10253 15:196.16902 16:177.15926 17:115.1566 18:95.978273 19:68.302498 20:41.932976 21:28.233457 22:18.738884 23:10.1256 24:4.4586709 25:4.0646323 
4.470927337808056e-34 1:154738.61 2:993.21336 3:710.58436 4:797.34784 5:525.46357 6:327.01594 7:380.23388 8:379.17421 9:360.43397 10:417.43689 11:341.75668 12:266.42869 13:243.35217 14:248.11055 15:242.59633 16:216.61911 17:147.00779 18:96.295145 19:64.863181 20:54.563355 21:39.448308 22:24.056772 23:11.815732 24:7.7288103 25:3.9958229 
4.470927337808056e-34 1:155037.55 2:1267.9942 3:1114.0391 4:1070.9302 5:521.02358 6:390.77413 7:441.9967 8:450.29025 9:375.8673 10:359.92893 11:350.94152 12:350.30068 13:299.99818 14:294.80019 15:274.23978 16:185.11448 17:115.22387 18:90.728472 19:66.702811 20:48.17637 21:32.696487 22:16.599689 23:11.299298 24:4.6410702 25:2.5228556 
4.470927337808056e-34 1:152338.92 2:928.11208 3:870.81536 4:794.30868 5:501.12146 6:477.6797 7:462.18924 8:366.8869 9:332.61954 10:303.0109 11:294.63127 12:310.0335 13:220.43246 14:177.89017 15:160.34485 16:182.16994 17:162.52578 18:124.22925 19:86.532505 20:52.455481 21:33.417101 22:19.165907 23:12.126832 24:11.630144 25:11.502823 
4.470927337808056e-34 1:148798.38 2:642.28784 3:770.19771 4:770.83883 5:439.46066 6:451.74855 7:370.46951 8:423.84333 9:538.79894 10:359.70313 11:253.20374 12:268.59042 13:239.85786 14:234.10946 15:189.76227 16:149.18946 17:140.89837 18:121.31648 19:71.445098 20:46.580653 21:37.055765 22:17.18035 23:7.9907564 24:4.4354302 25:3.2959374 
4.470927337808056e-34 1:152105.34 2:1023.1595 3:657.25368 4:690.62724 5:529.33964 6:495.26062 7:464.47502 8:444.95048 9:497.45652 10:393.08258 11:300.69044 12:252.31857 13:267.99405 14:239.83196 15:158.7843 16:202.25347 17:195.08092 18:131.49814 19:73.907871 20:42.31946 21:30.402083 22:23.694964 23:14.550951 24:9.4190498 25:8.2817466 
4.470927337808056e-34 1:153123.1 2:1034.2918 3:954.28477 4:837.45593 5:569.28506 6:613.2827 7:622.76885 8:525.50193 9:542.25477 10:499.80138 11:332.44209 12:229.18337 13:261.27291 14:303.2534 15:249.9452 16:177.90553 17:137.61709 18:117.35536 19:84.210997 20:53.085159 21:32.946009 22:20.1454 23:10.440603 24:9.0292668 25:7.5039614 
4.470927337808056e-34 1:150677.08 2:866.36353 3:925.95194 4:857.9918 5:553.70239 6:464.35959 7:435.09529 8:385.80457 9:469.01438 10:454.20504 11:366.29197 12:369.42148 13:300.97386 14:269.83676 15:218.80953 16:181.29457 17:148.59524 18:91.167878 19:60.690134 20:41.746652 21:33.784674 22:19.553848 23:9.7167105 24:7.4259187 25:3.622944 
4.470927337808056e-34 1:151781.76 2:933.20224 3:953.69052 4:776.97034 5:483.0492 6:495.37912 7:454.33846 8:343.56793 9:386.09713 10:414.0914 11:339.70547 12:252.16283 13:258.04559 14:218.79505 15:141.15054 16:141.3076 17:124.77681 18:120.94328 19:76.223482 20:43.67188 21:31.021294 22:20.653146 23:11.430079 24:7.0378518 25:4.8867378 
4.470927337808056e-34 1:151185.16 2:669.05982 3:1015.5422 4:863.20547 5:509.20496 6:567.44075 7:624.64391 8:509.69455 9:457.81878 10:443.33325 11:273.86009 12:235.92491 13:210.71622 14:172.71239 15:162.4436 16:201.39841 17:189.8761 18:114.68399 19:59.105735 20:42.047576 21:30.478318 22:21.679694 23:12.375991 24:8.4724014 25:7.5006397 
4.470927337808056e-34 1:149581 2:556.49834 3:763.7289 4:773.30028 5:546.15451 6:523.11672 7:580.92588 8:630.84412 9:563.5925 10:446.49257 11:344.58601 12:300.17393 13:248.65358 14:225.2385 15:231.22098 16:214.51421 17:174.90944 18:118.83083 19:86.401433 20:57.55462 21:33.651767 22:20.149628 23:11.898517 24:9.3582905 25:8.527214 
4.470927337808056e-34 1:147642.8 2:633.61098 3:668.15166 4:633.14885 5:399.88923 6:387.36896 7:436.84993 8:455.00603 9:500.77183 10:460.48191 11:319.69398 12:301.16492 13:337.512 14:327.58753 15:270.20808 16:175.05027 17:108.95841 18:106.36916 19:76.462119 20:45.565349 21:31.005548 22:23.137182 23:14.505673 24:5.7091225 25:3.581054 
4.470927337808056e-34 1:147704.14 2:875.44834 3:976.42368 4:994.43551 5:499.81859 6:412.1692 7:457.17765 8:448.15086 9:464.72552 10:456.89557 11:261.65428 12:291.17445 13:325.39411 14:284.07356 15:225.30975 16:144.81505 17:106.83233 18:85.103088 19:70.814998 20:37.930353 21:24.193721 22:19.275643 23:12.756548 24:8.6022916 25:6.2596693 
4.470927337808056e-34 1:149607.09 2:686.01606 3:797.1105 4:836.71115 5:549.24543 6:424.05645 7:380.38638 8:287.9984 9:331.43654 10:387.87506 11:297.63531 12:250.07836 13:168.41185 14:163.97939 15:163.56346 16:167.94369 17:147.69435 18:118.88259 19:90.705565 20:34.971867 21:21.961819 22:21.792292 23:10.883055 24:4.8807526 25:4.3475369 
4.470927337808056e-34 1:148917.77 2:786.63551 3:925.00036 4:878.41059 5:526.44267 6:552.77911 7:450.43988 8:346.1954 9:399.33698 10:385.23951 11:294.41685 12:229.50337 13:301.9022 14:280.78198 15:174.2969 16:161.87511 17:124.60101 18:83.267269 19:60.292382 20:42.886421 21:21.42014 22:17.071761 23:12.537783 24:6.6335928 25:4.1662929 
4.470927337808056e-34 1:148457.96 2:904.99678 3:939.78311 4:853.19621 5:562.91445 6:520.87825 7:427.66488 8:397.43048 9:495.61506 10:433.14059 11:333.23317 12:276.53109 13:255.05067 14:264.34952 15:191.65168 16:183.12854 17:160.91339 18:85.747456 19:62.365518 20:50.610977 21:26.46202 22:17.953506 23:8.7347825 24:5.4552165 25:3.9350393 
4.470927337808056e-34 1:147486.68 2:821.65108 3:674.39144 4:728.17912 5:546.72122 6:495.99125 7:453.95558 8:445.14148 9:577.99252 10:489.20996 11:245.43516 12:227.4014 13:249.49185 14:235.47027 15:238.93599 16:204.31703 17:123.41216 18:94.264506 19:62.424874 20:47.97277 21:23.940922 22:18.814479 23:17.850289 24:13.731297 25:10.9973 
4.470927337808056e-34 1:144755.57 2:1042.3172 3:818.30837 4:827.84291 5:412.29942 6:475.93335 7:510.73172 8:370.79134 9:413.45622 10:425.00905 11:255.47808 12:222.42329 13:275.125 14:256.77521 15:176.75343 16:159.64217 17:135.07313 18:76.251381 19:62.693093 20:43.50007 21:30.53627 22:26.975871 23:17.676056 24:15.033996 25:14.491465 
4.470927337808056e-34 1:142525.9 2:767.23279 3:805.48292 4:655.35877 5:365.16408 6:361.94707 7:440.26274 8:444.91441 9:526.97039 10:479.70442 11:319.80937 12:213.55488 13:203.70838 14:278.65021 15:254.31214 16:199.05827 17:140.8228 18:88.872953 19:69.380703 20:47.372739 21:28.473751 22:17.134378 23:10.925814 24:7.9525774 25:6.3607663 
4.470927337808056e-34 1:143292.82 2:970.26409 3:744.57305 4:578.04004 5:491.71127 6:482.93607 7:447.56429 8:413.05529 9:512.87466 10:512.13001 11:325.23966 12:228.9477 13:215.89751 14:193.81959 15:157.15109 16:154.68953 17:131.94228 18:93.216088 19:65.651943 20:45.37087 21:29.254632 22:22.163879 23:13.158276 24:9.1080855 25:7.9777762 
4.470927337808056e-34 1:143539.08 2:1105.9117 3:923.75786 4:956.06476 5:596.58434 6:391.41864 7:497.42623 8:442.60954 9:420.7872 10:388.65856 11:269.86365 12:347.57486 13:319.59384 14:205.44519 15:177.1111 16:116.84211 17:89.686906 18:93.174176 19:73.765206 20:53.30749 21:27.690148 22:17.567352 23:11.899013 24:7.6300899 25:3.9821377 
4.470927337808056e-34 1:144401.45 2:878.67822 3:746.51516 4:828.66088 5:740.68349 6:586.21955 7:373.82008 8:405.03871 9:462.37244 10:478.95104 11:354.59136 12:267.18824 13:301.6898 14:217.19835 15:129.95242 16:132.88565 17:117.4621 18:106.917 19:90.467852 20:59.155249 21:29.523305 22:16.534478 23:8.6133097 24:5.4473817 25:3.0815245 
4.470927337808056e-34 1:145615.19 2:934.13262 3:729.70912 4:745.77294 5:609.72538 6:514.23763 7:452.73982 8:499.41857 9:445.73114 10:365.68291 11:302.38533 12:291.09135 13:264.69621 14:184.37814 15:157.34468 16:153.05677 17:150.25669 18:126.56289 19:80.087472 20:57.40571 21:35.285755 22:15.561236 23:11.041999 24:7.3153602 25:6.1820073 
4.470927337808056e-34 1:148352.56 2:1093.192 3:963.95349 4:918.27526 5:535.01725 6:477.83617 7:489.20282 8:489.93031 9:578.16309 10:504.46667 11:299.49491 12:251.17639 13:250.77089 14:249.26684 15:258.52067 16:220.98393 17:161.5228 18:125.38152 19:86.907983 20:52.918858 21:36.675645 22:18.269399 23:12.357997 24:10.329614 25:8.8951914 
4.470927337808056e-34 1:148596.92 2:690.35 3:681.70511 4:708.15077 5:529.68764 6:493.73231 7:393.48443 8:437.93701 9:479.44703 10:390.35044 11:373.76751 12:370.07362 13:297.99793 14:195.63708 15:159.53512 16:191.30441 17:149.79924 18:72.118395 19:52.261514 20:49.513443 21:31.93895 22:22.045833 23:17.426757 24:14.374943 25:15.356501 
4.470927337808056e-34 1:146210.04 2:888.40817 3:758.10974 4:808.9905 5:582.62877 6:533.94386 7:497.83363 8:407.9232 9:459.96664 10:458.7749 11:392.83218 12:317.08855 13:249.8653 14:216.85178 15:154.19823 16:161.54396 17:143.92797 18:107.30132 19:65.152279 20:39.235167 21:32.924083 22:23.204331 23:11.892464 24:5.1173771 25:3.6231779 
4.470927337808056e-34 1:147781.14 2:958.19569 3:772.41229 4:700.17145 5:405.61893 6:387.87957 7:543.62375 8:627.30146 9:528.50311 10:428.30434 11:321.05305 12:233.68304 13:190.49412 14:235.06524 15:236.98071 16:158.81658 17:122.83269 18:117.39801 19:80.808581 20:39.53031 21:27.286641 22:26.952332 23:22.988405 24:18.074678 25:15.970302 
4.470927337808056e-34 1:150031.22 2:1363.0708 3:1135.7495 4:864.84427 5:660.11025 6:663.09297 7:562.99892 8:573.68554 9:481.31395 10:346.74271 11:265.03934 12:269.19538 13:302.42941 14:277.39236 15:222.8232 16:143.7161 17:110.3096 18:104.70824 19:72.472236 20:35.979745 21:22.800643 22:13.660086 23:11.071679 24:4.5045973 25:1.8510895 
4.470927337808056e-34 1:148948.2 2:905.32474 3:749.62258 4:737.58883 5:758.79431 6:673.24793 7:408.64989 8:340.98867 9:487.30093 10:528.13871 11:414.45344 12:344.4953 13:295.03918 14:259.38169 15:206.61398 16:148.22784 17:118.60404 18:98.355995 19:71.90989 20:41.72404 21:27.749196 22:16.706168 23:11.075339 24:6.2249311 25:6.3968216 
4.470927337808056e-34 1:147931.93 2:861.4028 3:827.74216 4:822.66069 5:463.15768 6:482.65512 7:599.89834 8:499.81811 9:416.79582 10:421.59298 11:327.33875 12:166.02764 13:169.32575 14:204.12184 15:202.71555 16:179.39468 17:121.05895 18:109.76777 19:76.652537 20:46.31098 21:26.727175 22:18.788425 23:15.40475 24:8.8250388 25:7.6507986 
4.470927337808056e-34 1:146846.25 2:976.45151 3:1271.8011 4:1110.654 5:573.44846 6:454.4319 7:534.17628 8:457.67006 9:427.90659 10:351.309 11:244.69595 12:228.90008 13:218.52336 14:282.75299 15:230.66553 16:152.32662 17:111.53963 18:69.197572 19:66.568904 20:54.246001 21:28.185383 22:16.345428 23:6.5914593 24:4.4407751 25:3.0381056 
4.470927337808056e-34 1:144589.2 2:839.43983 3:598.93455 4:704.27226 5:615.28324 6:482.85334 7:424.99877 8:330.21207 9:403.62122 10:432.49498 11:309.83717 12:218.90253 13:183.06204 14:216.83086 15:213.26163 16:146.14061 17:86.454053 18:72.701676 19:60.708888 20:50.40685 21:33.741027 22:19.624962 23:9.2677042 24:4.2983385 25:2.3910154 
4.470927337808056e-34 1:142220.2 2:935.51428 3:791.69077 4:774.43295 5:554.90964 6:463.47999 7:434.00569 8:414.15382 9:485.71062 10:455.94432 11:288.49754 12:189.82903 13:200.87675 14:269.94935 15:251.87023 16:222.44407 17:167.74845 18:112.07413 19:80.260317 20:57.550597 21:33.164326 22:18.116258 23:12.406643 24:8.6154626 25:5.130107 
4.470927337808056e-34 1:143481.86 2:1339.8667 3:1202.2242 4:817.15037 5:411.60592 6:325.05266 7:430.06115 8:509.75106 9:579.23467 10:493.58973 11:229.66415 12:175.08926 13:220.94673 14:293.63916 15:286.12006 16:199.74782 17:171.52323 18:121.84687 19:69.376232 20:43.953093 21:29.090498 22:18.771006 23:9.2959964 24:6.4631164 25:4.8011307 
4.470927337808056e-34 1:146435.91 2:802.02602 3:770.46066 4:791.22197 5:463.71669 6:423.34234 7:428.02617 8:326.16277 9:412.3933 10:344.16595 11:244.46233 12:199.58379 13:197.57731 14:215.57316 15:162.94876 16:145.15277 17:135.53678 18:116.23495 19:77.635182 20:34.037374 21:27.928339 22:20.974635 23:15.516647 24:12.460748 25:9.5381324 
4.470927337808056e-34 1:147167.87 2:868.95288 3:775.76836 4:915.40441 5:641.22608 6:395.92717 7:460.98001 8:442.59197 9:509.48543 10:522.10811 11:411.45021 12:359.56502 13:231.90635 14:218.61468 15:168.23353 16:135.35316 17:122.79726 18:96.011007 19:83.365021 20:43.738514 21:17.224544 22:14.8989 23:10.616392 24:5.2768472 25:3.5542385 
4.470927337808056e-34 1:146283.85 2:956.79669 3:865.85697 4:825.62599 5:602.44365 6:612.20161 7:643.5044 8:437.83445 9:388.28575 10:540.56259 11:473.10765 12:327.64217 13:211.39488 14:201.12989 15:247.33808 16:178.48493 17:123.91562 18:126.83392 19:73.65493 20:44.992942 21:28.831823 22:16.725654 23:10.237657 24:5.5895465 25:4.5594454 
4.470927337808056e-34 1:149147.18 2:882.2579 3:762.45084 4:694.43115 5:444.47018 6:491.81686 7:516.30019 8:497.07605 9:529.89783 10:471.29037 11:378.23288 12:335.42747 13:288.94992 14:239.06353 15:174.53988 16:148.18629 17:152.62629 18:116.81063 19:74.728451 20:61.098463 21:37.299127 22:17.776839 23:7.3702758 24:4.769686 25:2.8327134 
4.470927337808056e-34 1:147592.57 2:661.93248 3:793.48683 4:882.0333 5:579.13567 6:472.77767 7:440.7733 8:402.46456 9:507.51561 10:432.42115 11:279.61757 12:294.30575 13:276.1125 14:270.12615 15:198.48739 16:161.174 17:124.9534 18:112.18977 19:108.78082 20:60.166453 21:37.516969 22:21.91819 23:10.996423 24:11.56115 25:11.662357 
4.470927337808056e-34 1:147706.01 2:953.59344 3:986.28434 4:770.35305 5:559.88831 6:556.99088 7:430.62727 8:387.17066 9:543.22813 10:581.67115 11:343.26613 12:217.05007 13:186.97648 14:185.31242 15:195.9058 16:138.09178 17:124.55553 18:91.835674 19:57.424406 20:56.520831 21:35.805464 22:20.359851 23:10.967033 24:4.6129326 25:2.8028622 
4.470927337808056e-34 1:146717.25 2:882.7291 3:849.86484 4:733.41115 5:457.78405 6:489.99833 7:454.9108 8:345.68183 9:429.44438 10:430.31576 11:330.95631 12:259.81393 13:255.04765 14:308.86822 15:199.35865 16:155.21821 17:138.97343 18:102.43239 19:70.455424 20:46.26836 21:31.241678 22:15.317394 23:8.9171833 24:5.2089754 25:2.4291024 
4.470927337808056e-34 1:145197.31 2:969.23023 3:952.65277 4:927.31201 5:560.47141 6:459.56126 7:402.01555 8:433.75973 9:573.08646 10:471.70277 11:329.37406 12:265.53877 13:201.58169 14:193.07117 15:201.51725 16:219.42064 17:159.74848 18:82.00725 19:60.392411 20:50.582517 21:23.049028 22:18.427654 23:8.852786 24:3.9017634 25:2.9568853 
4.470927337808056e-34 1:144643.8 2:856.83372 3:1010.7898 4:902.85755 5:533.1297 6:512.25805 7:492.52852 8:435.85031 9:443.55333 10:513.62419 11:407.05856 12:284.68102 13:264.84263 14:193.30051 15:148.94048 16:144.5084 17:134.97866 18:133.71042 19:80.828988 20:38.443879 21:24.803382 22:16.937418 23:10.377413 24:6.8444719 25:3.808374 
4.470927337808056e-34 1:144395.34 2:1268.8047 3:1074.5743 4:962.57552 5:552.911 6:407.71655 7:488.341 8:436.46734 9:536.87055 10:571.51122 11:324.71676 12:244.15458 13:221.66908 14:235.70038 15:213.41959 16:165.13491 17:117.28457 18:79.847863 19:70.19925 20:47.333844 21:25.438981 22:20.277262 23:10.501056 24:5.3395315 25:4.0309875 
4.470927337808056e-34 1:145555.2 2:640.00047 3:896.60982 4:880.84926 5:549.97687 6:495.6261 7:393.31092 8:319.96405 9:383.51407 10:431.44877 11:307.70454 12:274.48766 13:281.19462 14:238.55024 15:202.21746 16:198.36939 17:158.86739 18:93.912432 19:69.177798 20:43.770509 21:24.473292 22:16.837737 23:12.687378 24:8.302332 25:5.1270468 
4.470927337808056e-34 1:144844.35 2:831.47645 3:966.58796 4:1024.4166 5:595.81401 6:588.29142 7:540.71008 8:411.612 9:459.7551 10:415.03646 11:326.80985 12:257.26394 13:214.07972 14:242.19464 15:203.82341 16:164.23345 17:132.81224 18:94.56031 19:71.31904 20:50.797528 21:37.356573 22:15.06521 23:12.218246 24:11.439723 25:9.5751385 
4.470927337808056e-34 1:144163.88 2:939.00693 3:716.60752 4:848.10746 5:646.6551 6:633.55426 7:545.27309 8:307.43029 9:387.53126 10:430.0225 11:315.2066 12:200.80149 13:197.45214 14:251.81142 15:227.86603 16:173.1893 17:129.33771 18:110.4799 19:76.095368 20:52.839752 21:36.796699 22:18.961337 23:10.642755 24:6.4752559 25:5.056456 
4.470927337808056e-34 1:143539.74 2:868.3782 3:630.26233 4:785.85079 5:699.06948 6:608.46775 7:515.17917 8:361.82874 9:482.78515 10:492.2536 11:316.66492 12:285.73644 13:251.66926 14:254.21848 15:302.59885 16:224.7349 17:116.19601 18:105.99301 19:74.831376 20:50.822447 21:33.756482 22:18.495364 23:10.859573 24:6.3613492 25:4.7059772 
4.470927337808056e-34 1:143066.54 2:1024.1573 3:980.67516 4:1007.0541 5:642.01374 6:484.04831 7:441.86289 8:371.2396 9:480.46282 10:502.02497 11:356.04395 12:296.18211 13:237.13656 14:191.64246 15:154.2089 16:187.97198 17:131.83128 18:79.156621 19:85.126724 20:52.417318 21:27.913115 22:22.059853 23:9.2993353 24:4.1430284 25:2.5429747 
4.470927337808056e-34 1:143886.84 2:713.25577 3:788.84371 4:646.8266 5:421.55084 6:363.38568 7:405.40088 8:407.38804 9:434.17789 10:431.68409 11:239.79869 12:256.11238 13:321.7044 14:292.48383 15:303.81109 16:214.18879 17:146.24607 18:104.16055 19:68.286754 20:45.13098 21:22.685313 22:19.245893 23:16.325897 24:12.317569 25:11.624743 
4.470927337808056e-34 1:147905.18 2:709.47717 3:826.27817 4:690.78367 5:592.76081 6:551.00477 7:499.72616 8:620.12064 9:605.20237 10:499.34288 11:375.40971 12:275.20062 13:247.18607 14:291.24286 15:235.75417 16:154.35739 17:143.1111 18:96.50888 19:56.087892 20:42.18574 21:29.138707 22:21.245033 23:12.769107 24:8.6085599 25:7.006443 
4.470927337808056e-34 1:147988.29 2:638.69935 3:797.61773 4:785.33045 5:496.16884 6:553.86235 7:459.61151 8:399.68078 9:496.46167 10:430.53795 11:419.00353 12:344.94768 13:184.82415 14:212.85508 15:256.07358 16:181.50022 17:111.7057 18:83.555007 19:73.151345 20:65.369848 21:39.312656 22:18.525227 23:10.433156 24:5.9847006 25:2.3652318 
4.470927337808056e-34 1:148780.79 2:614.57174 3:657.90093 4:769.62357 5:652.10517 6:477.45509 7:337.50515 8:448.43677 9:652.08596 10:517.47059 11:347.56058 12:354.88648 13:276.32475 14:251.01637 15:240.38419 16:170.85165 17:140.12437 18:121.79877 19:67.802366 20:49.298835 21:33.961295 22:19.497385 23:15.2479 24:14.922117 25:14.152642 
4.470927337808056e-34 1:144535.59 2:841.17308 3:907.12782 4:890.09448 5:493.87462 6:485.74146 7:533.97582 8:339.44042 9:444.40233 10:529.25249 11:330.92191 12:211.25626 13:226.34201 14:271.10297 15:210.78535 16:182.45307 17:161.74641 18:94.459752 19:59.657401 20:45.37987 21:34.816058 22:23.164812 23:13.794867 24:12.209205 25:13.848675 
4.470927337808056e-34 1:143918.91 2:847.57882 3:716.99658 4:741.91814 5:544.51515 6:521.94954 7:502.89811 8:413.03394 9:468.85127 10:516.94268 11:387.39799 12:228.35724 13:220.35406 14:224.62669 15:171.8543 16:172.14201 17:142.60095 18:121.01778 19:82.969753 20:42.401179 21:30.348314 22:22.585987 23:11.948213 24:10.920398 25:10.117404 
4.470927337808056e-34 1:146561.88 2:838.52639 3:791.61832 4:536.05915 5:409.69264 6:390.11543 7:420.84316 8:519.30722 9:437.17097 10:344.10478 11:248.6026 12:240.01233 13:282.39903 14:245.49371 15:236.80338 16:202.6439 17:120.85435 18:102.19611 19:73.497692 20:61.102546 21:36.375986 22:13.401975 23:9.1797094 24:4.3505416 25:3.7781731 
4.470927337808056e-34 1:146055.25 2:1143.7653 3:1137.3919 4:889.55076 5:523.80788 6:501.28267 7:501.33842 8:399.76275 9:394.53849 10:362.70784 11:307.04074 12:232.16804 13:207.3281 14:316.02942 15:265.65242 16:180.86632 17:163.1069 18:102.93778 19:72.502161 20:42.750059 21:26.035796 22:13.667751 23:6.5292935 24:3.7943624 25:3.6429551 
4.470927337808056e-34 1:145468.86 2:975.40128 3:1144.9135 4:909.38861 5:559.69972 6:573.24671 7:436.82061 8:484.74381 9:490.76891 10:429.53411 11:339.94992 12:269.12391 13:295.60398 14:296.77942 15:209.76939 16:158.85321 17:151.65624 18:121.10447 19:78.43286 20:53.00622 21:24.963333 22:15.188871 23:11.611322 24:6.088265 25:5.3666317 
4.470927337808056e-34 1:144363.16 2:615.17129 3:926.58469 4:968.99305 5:551.27436 6:362.8305 7:324.88944 8:380.2673 9:487.78353 10:410.86756 11:263.39401 12:332.65786 13:285.03882 14:202.26778 15:179.99997 16:142.79975 17:104.21543 18:77.70059 19:73.403797 20:61.547378 21:43.230561 22:24.779695 23:13.118095 24:7.477747 25:2.8759799 
4.470927337808056e-34 1:145600.45 2:1156.7968 3:877.02277 4:812.37458 5:543.7782 6:518.06179 7:468.34318 8:541.13469 9:546.84431 10:458.44679 11:368.48744 12:318.7799 13:275.65372 14:214.40977 15:198.4777 16:145.1087 17:84.271323 18:58.361997 19:56.588119 20:53.469177 21:35.182174 22:23.114215 23:11.544112 24:5.4948742 25:3.3877924 
4.470927337808056e-34 1:141207.2 2:742.1065 3:554.93746 4:606.19738 5:462.58822 6:399.5691 7:392.53504 8:468.56061 9:515.31208 10:442.79791 11:369.99277 12:362.68874 13:367.49727 14:314.29621 15:241.00169 16:191.97033 17:139.4127 18:97.754962 19:67.30628 20:53.657681 21:30.567065 22:24.14286 23:22.81553 24:15.521809 25:13.010337 
4.470927337808056e-34 1:140204.08 2:1016.186 3:1003.2253 4:902.92785 5:565.99855 6:528.61816 7:430.48934 8:316.83608 9:490.26564 10:435.89805 11:237.53384 12:244.32563 13:271.9198 14:296.18911 15:254.67797 16:199.72884 17:136.03212 18:104.39017 19:67.322322 20:41.033332 21:27.579837 22:17.108777 23:10.642773 24:4.0703467 25:3.8073414 
4.470927337808056e-34 1:142266.28 2:855.94219 3:858.6397 4:709.90782 5:508.18353 6:397.93998 7:379.52176 8:466.54418 9:478.24633 10:461.0024 11:347.04702 12:253.3881 13:208.53429 14:232.43296 15:207.81925 16:152.92714 17:139.49633 18:114.48264 19:77.394241 20:46.038529 21:26.650784 22:20.098961 23:13.494874 24:10.968223 25:12.12043 
4.470927337808056e-34 1:143413.37 2:817.77649 3:982.40264 4:768.46751 5:437.17827 6:485.77026 7:445.51587 8:348.43732 9:428.53064 10:470.39356 11:337.30763 12:282.16634 13:248.91941 14:187.46934 15:165.37453 16:142.2637 17:101.65303 18:109.11624 19:72.649605 20:41.494089 21:31.172532 22:18.375023 23:9.763041 24:6.3120802 25:4.0732454 
4.470927337808056e-34 1:141981.7 2:969.21398 3:1018.1365 4:808.86563 5:542.67064 6:507.17538 7:397.86213 8:367.75484 9:451.94506 10:405.94886 11:275.52763 12:253.61176 13:295.86932 14:228.98345 15:194.28972 16:194.89917 17:115.21723 18:94.082567 19:87.300217 20:59.065339 21:22.988205 22:11.417609 23:9.4778304 24:5.7129226 25:3.0652968 
4.470927337808056e-34 1:143486.73 2:874.57694 3:1001.6095 4:854.47964 5:398.49154 6:316.09207 7:351.84393 8:428.14753 9:445.42555 10:377.07856 11:322.81384 12:287.11268 13:233.71368 14:218.68247 15:163.02925 16:134.83674 17:129.58572 18:122.12286 19:70.297406 20:42.950901 21:33.826776 22:17.095946 23:9.4682173 24:4.0181025 25:2.3206598 
4.470927337808056e-34 1:144694.25 2:1023.1734 3:933.5902 4:873.41049 5:558.07568 6:429.20424 7:403.62517 8:466.10163 9:579.39172 10:472.06413 11:304.59977 12:237.15836 13:232.85976 14:305.44689 15:210.6437 16:161.69509 17:121.53665 18:71.108463 19:72.807028 20:68.328598 21:36.32779 22:20.294536 23:10.985329 24:6.0152851 25:3.3809198 
4.470927337808056e-34 1:143333.36 2:1049.1958 3:842.47692 4:659.88964 5:629.35456 6:602.70359 7:418.30915 8:392.99059 9:536.39075 10:523.09467 11:347.5775 12:281.2851 13:245.98256 14:258.99805 15:224.30301 16:172.31908 17:140.66633 18:91.423488 19:70.924838 20:45.777851 21:23.726876 22:15.757531 23:8.1021828 24:5.3657556 25:5.1325143 
4.470927337808056e-34 1:142996.48 2:1253.1343 3:989.37869 4:854.35469 5:437.59069 6:493.36107 7:449.80619 8:457.26278 9:475.60817 10:442.56275 11:426.24054 12:288.03459 13:165.14807 14:191.42487 15:220.83194 16:165.41739 17:90.111974 18:66.393608 19:72.458946 20:68.41412 21:40.922878 22:21.205357 23:10.083071 24:5.9494383 25:2.1625513 
4.470927337808056e-34 1:141173.65 2:1021.2678 3:793.42576 4:804.84029 5:579.66317 6:567.94055 7:551.78659 8:513.05076 9:480.8765 10:357.84552 11:242.39393 12:233.05092 13:296.31666 14:269.33724 15:167.38861 16:152.99413 17:107.19937 18:78.450613 19:84.664166 20:60.876967 21:34.864439 22:18.804193 23:12.022411 24:10.828905 25:7.254614 
4.470927337808056e-34 1:143149.02 2:1032.8376 3:780.52719 4:601.60396 5:514.63916 6:603.3266 7:568.71226 8:511.79207 9:558.33025 10:457.65856 11:302.95421 12:202.67907 13:199.89132 14:217.72482 15:196.22524 16:156.9263 17:105.89727 18:76.134001 19:67.530126 20:59.260718 21:30.439368 22:17.151096 23:10.348187 24:4.5466991 25:2.2273066 
4.470927337808056e-34 1:142285.79 2:844.17473 3:659.19608 4:697.23385 5:434.42818 6:402.17895 7:474.98249 8:474.09479 9:601.79056 10:569.76745 11:406.49213 12:278.97265 13:176.0368 14:197.54395 15:212.44397 16:199.60756 17:148.63921 18:104.72071 19:66.848658 20:46.972111 21:42.862975 22:32.473321 23:11.272486 24:7.4859359 25:6.4422483 
4.470927337808056e-34 1:142609.5 2:876.0757 3:838.2174 4:774.25666 5:524.65692 6:464.66134 7:333.2081 8:408.93391 9:436.34414 10:337.45896 11:302.41111 12:234.68218 13:207.69736 14:272.19303 15:256.01788 16:198.68058 17:105.90801 18:59.211372 19:58.193393 20:39.948083 21:28.352867 22:18.652949 23:11.49152 24:6.7136864 25:3.6184702 
4.470927337808056e-34 1:143335.57 2:852.34712 3:945.58432 4:930.58528 5:491.13421 6:408.83514 7:477.26875 8:371.14657 9:415.40814 10:390.9952 11:292.9815 12:229.62536 13:218.12497 14:265.53981 15:178.5864 16:144.35694 17:144.76961 18:117.34526 19:75.815213 20:42.698903 21:30.511687 22:20.459721 23:13.512479 24:8.6059465 25:6.8048149 
4.470927337808056e-34 1:144611.3 2:739.12878 3:850.75364 4:881.59977 5:502.63755 6:384.76786 7:291.1165 8:276.62958 9:444.02981 10:388.25964 11:253.61078 12:189.71329 13:205.0703 14:252.60593 15:191.79118 16:159.98298 17:109.8726 18:87.20462 19:62.464342 20:43.747663 21:33.439606 22:22.709738 23:13.922637 24:10.383091 25:8.5951442 
4.470927337808056e-34 1:142554.3 2:902.25956 3:966.32772 4:885.1215 5:528.23359 6:412.53799 7:307.55401 8:290.03697 9:500.03251 10:521.26067 11:250.26099 12:141.29452 13:204.16116 14:249.52051 15:245.55458 16:196.53968 17:138.02561 18:93.922678 19:52.505296 20:37.871964 21:26.999537 22:22.317441 23:13.014576 24:6.5913795 25:4.5799173 
4.470927337808056e-34 1:144041.72 2:858.26903 3:858.50157 4:752.50622 5:443.12872 6:470.50363 7:443.18595 8:385.37367 9:545.45875 10:532.92325 11:319.22838 12:177.00795 13:202.24776 14:219.4649 15:157.34193 16:138.09416 17:123.92801 18:113.63783 19:79.202034 20:55.500926 21:33.938152 22:24.295945 23:23.724289 24:18.060911 25:16.694682 
4.470927337808056e-34 1:145267.1 2:941.28361 3:961.18501 4:857.54928 5:511.48855 6:377.57823 7:344.54506 8:320.48041 9:372.38635 10:320.91666 11:271.30012 12:251.02624 13:196.37294 14:221.35329 15:167.43908 16:142.26421 17:130.79106 18:98.58847 19:55.787701 20:46.13979 21:36.327892 22:20.105625 23:8.6383551 24:3.800915 25:1.9985132 
4.470927337808056e-34 1:145862.21 2:938.97073 3:1030.7105 4:908.44311 5:484.69377 6:555.14374 7:707.13673 8:559.25717 9:472.04412 10:363.55238 11:238.01895 12:252.55521 13:239.1664 14:232.4097 15:198.19229 16:150.6538 17:134.30042 18:104.66734 19:63.872149 20:42.355587 21:23.583076 22:14.213028 23:12.282375 24:6.8095944 25:4.7782702 
4.470927337808056e-34 1:147406.06 2:780.54302 3:1024.7083 4:821.73512 5:457.90659 6:470.9132 7:514.92437 8:451.97181 9:478.9815 10:432.38276 11:305.72756 12:302.94096 13:260.57436 14:240.06716 15:196.65478 16:151.49339 17:133.99041 18:102.63301 19:50.897696 20:25.650428 21:22.60687 22:18.081743 23:11.502432 24:10.2716 25:9.7413101 
4.470927337808056e-34 1:150199.64 2:945.07979 3:772.24389 4:660.30096 5:446.31155 6:504.24061 7:418.96839 8:368.09917 9:490.48665 10:398.68072 11:256.69122 12:295.01048 13:230.22055 14:158.71759 15:174.38339 16:164.09076 17:126.31105 18:93.724922 19:69.642003 20:59.660615 21:35.829621 22:16.418172 23:10.553095 24:4.836532 25:3.46871 
4.470927337808056e-34 1:150455.89 2:968.86938 3:1061.7172 4:889.39261 5:447.41818 6:414.2287 7:395.02776 8:379.81348 9:481.58952 10:415.87615 11:244.0959 12:217.4574 13:214.92379 14:227.05928 15:193.90888 16:195.24475 17:170.93732 18:93.507003 19:57.465465 20:36.978897 21:25.012978 22:16.797124 23:9.4984997 24:4.8640394 25:3.8487454 
4.470927337808056e-34 1:148517.44 2:1269.2499 3:1101.05 4:859.53572 5:519.54417 6:455.27203 7:478.19112 8:480.0672 9:487.0548 10:495.73145 11:394.93516 12:288.92461 13:210.89239 14:224.43217 15:152.38906 16:113.66132 17:138.07205 18:107.67003 19:60.882574 20:52.448548 21:42.101479 22:19.786319 23:9.9267002 24:6.7245038 25:6.170757 
4.470927337808056e-34 1:150471.61 2:547.89353 3:790.07829 4:825.27282 5:560.91479 6:543.84046 7:422.07715 8:453.44159 9:580.89115 10:514.9371 11:424.89596 12:300.45193 13:207.87201 14:198.44075 15:175.70529 16:164.80571 17:137.15636 18:102.39724 19:73.231335 20:58.534983 21:39.118756 22:22.632764 23:10.946759 24:8.8978314 25:10.183062 
4.470927337808056e-34 1:152644.48 2:540.40838 3:890.36079 4:778.13309 5:476.99929 6:537.63892 7:554.83297 8:494.48531 9:521.00563 10:487.26346 11:352.4201 12:209.66536 13:212.33234 14:284.46427 15:250.40933 16:221.21145 17:156.42389 18:106.10283 19:59.776447 20:39.224525 21:40.696671 22:27.869019 23:11.116006 24:8.3323866 25:7.5799298 
4.470927337808056e-34 1:152385.82 2:1043.4499 3:1086.4489 4:828.82953 5:474.74035 6:516.18795 7:432.57536 8:390.48468 9:567.40798 10:488.08351 11:277.77933 12:236.34539 13:219.12697 14:234.97402 15:184.17767 16:159.72238 17:166.87266 18:107.2858 19:42.423247 20:29.693894 21:27.654641 22:20.74187 23:14.073938 24:10.655716 25:8.4414791 
4.470927337808056e-34 1:152372.78 2:962.33633 3:831.59658 4:789.3544 5:510.6364 6:328.30282 7:311.84876 8:320.18398 9:459.25611 10:409.23427 11:258.07243 12:308.12568 13:235.38488 14:199.3543 15:191.12151 16:150.85136 17:114.53867 18:96.728358 19:65.147405 20:46.724511 21:29.549627 22:20.915453 23:14.71068 24:10.775019 25:9.4951481 
4.470927337808056e-34 1:148250.29 2:912.32589 3:904.92725 4:846.15717 5:564.95615 6:477.96708 7:409.07627 8:328.97329 9:454.38304 10:476.11186 11:327.87566 12:212.54366 13:246.10025 14:265.31483 15:217.6147 16:191.03837 17:130.58454 18:81.627594 19:63.93834 20:50.207803 21:27.548552 22:11.777638 23:11.210202 24:9.82011 25:6.2328089 
4.470927337808056e-34 1:150827.73 2:738.93266 3:967.43065 4:1018.4834 5:598.03629 6:467.10005 7:368.62497 8:481.00945 9:638.12346 10:562.29121 11:402.56966 12:345.98308 13:278.67162 14:183.76237 15:211.25767 16:179.97996 17:110.40252 18:95.320028 19:66.133086 20:38.685113 21:31.390066 22:19.702968 23:9.8544095 24:2.8326415 25:1.4729506 
4.470927337808056e-34 1:150080.06 2:1050.239 3:957.78051 4:776.90927 5:462.68379 6:403.2666 7:450.40229 8:470.14792 9:514.27776 10:546.03498 11:315.65804 12:212.19662 13:222.444 14:184.80414 15:184.03818 16:205.47297 17:165.0603 18:90.733086 19:57.871065 20:32.653059 21:23.989622 22:18.465089 23:8.6883567 24:3.9341922 25:2.3902641 
4.470927337808056e-34 1:152679.05 2:836.83391 3:885.89335 4:857.38969 5:587.60454 6:555.97912 7:572.31552 8:512.09226 9:468.71852 10:372.65147 11:258.73854 12:240.34596 13:275.59854 14:341.24654 15:198.97357 16:99.926053 17:130.32858 18:125.75373 19:81.081725 20:43.840447 21:34.160413 22:30.282531 23:20.959318 24:15.41251 25:14.410141 
4.470927337808056e-34 1:154555.09 2:738.93845 3:1097.8166 4:1072.1082 5:501.30196 6:540.66792 7:480.96749 8:403.67953 9:441.91984 10:339.38589 11:316.83555 12:365.33327 13:281.55162 14:248.15017 15:249.85861 16:172.41462 17:112.72376 18:97.531413 19:59.224954 20:39.604113 21:27.334842 22:20.27523 23:11.977878 24:4.4546017 25:2.9936632 
4.470927337808056e-34 1:155549.91 2:756.48646 3:728.76608 4:742.90394 5:416.26507 6:450.25487 7:578.9546 8:425.53783 9:478.15082 10:586.3133 11:401.05883 12:246.37435 13:173.79599 14:217.32112 15:259.07931 16:195.37081 17:112.90155 18:85.312998 19:58.596579 20:32.25753 21:26.89105 22:19.541003 23:11.467678 24:9.4082369 25:6.0159511 
4.470927337808056e-34 1:156240.73 2:714.73367 3:762.68811 4:886.54458 5:594.24315 6:457.13003 7:503.53361 8:415.19887 9:471.33015 10:561.44478 11:455.97876 12:383.87756 13:272.28812 14:263.51526 15:213.15902 16:177.73795 17:129.56171 18:60.965104 19:54.159005 20:44.311761 21:29.202701 22:21.299009 23:13.924561 24:8.7152894 25:5.5169279 
4.470927337808056e-34 1:156925.11 2:840.85225 3:666.90158 4:693.21045 5:620.16742 6:539.78227 7:521.34038 8:473.25603 9:515.83731 10:465.8568 11:281.44929 12:214.05497 13:197.3792 14:204.76534 15:166.27388 16:159.40646 17:141.89102 18:118.26725 19:91.910086 20:56.167471 21:28.399832 22:15.868253 23:11.513855 24:5.0805229 25:2.6281914 
4.470927337808056e-34 1:154924.6 2:692.02087 3:916.324 4:607.66741 5:459.21668 6:538.3737 7:494.22264 8:463.44326 9:442.07873 10:469.998 11:409.91869 12:313.13004 13:259.88661 14:196.95616 15:131.64208 16:145.58793 17:141.79047 18:118.68364 19:72.305297 20:53.410804 21:39.366043 22:23.364091 23:8.2808007 24:6.0391979 25:3.6917183 
4.470927337808056e-34 1:154533.55 2:793.23825 3:579.333 4:630.97199 5:504.89036 6:468.70887 7:418.57547 8:357.87338 9:434.79185 10:480.41526 11:317.55117 12:240.53274 13:195.06773 14:175.67593 15:240.60218 16:215.56483 17:121.65145 18:84.602883 19:59.849702 20:35.500207 21:22.130789 22:17.133819 23:9.3309414 24:6.1477925 25:5.4854205 
4.470927337808056e-34 1:152428.04 2:1108.8506 3:623.43063 4:631.85683 5:508.77444 6:500.99704 7:376.1987 8:359.51469 9:513.97452 10:428.05304 11:265.59487 12:238.88424 13:140.08532 14:172.36003 15:218.63053 16:160.10989 17:122.45255 18:85.645783 19:53.131419 20:33.980829 21:24.420967 22:17.756393 23:12.598812 24:8.4407889 25:7.6884109 
4.470927337808056e-34 1:150707.47 2:1263.1436 3:1003.4106 4:899.54158 5:489.93924 6:367.89944 7:475.91402 8:544.45097 9:497.20574 10:465.28654 11:308.89533 12:234.84955 13:257.14147 14:255.38494 15:225.18595 16:172.22127 17:130.57727 18:111.11445 19:73.436426 20:50.304685 21:27.920063 22:20.292146 23:14.697999 24:11.97319 25:12.599649 
4.470927337808056e-34 1:148911.84 2:1752.5357 3:1055.3877 4:1088.7624 5:746.42124 6:602.39302 7:604.2474 8:519.5122 9:590.3869 10:493.20698 11:373.40659 12:292.5897 13:213.6797 14:224.78149 15:189.91413 16:150.20325 17:140.85042 18:109.70147 19:71.630789 20:40.923025 21:28.385078 22:15.766341 23:7.527985 24:7.0008377 25:3.2486779 
4.470927337808056e-34 1:149785.94 2:1033.3774 3:920.77292 4:764.63288 5:558.43793 6:516.97922 7:459.01426 8:475.96577 9:501.53909 10:466.07998 11:282.22207 12:227.55244 13:259.26024 14:274.64631 15:229.78145 16:202.05067 17:144.99145 18:103.83237 19:67.445748 20:33.421911 21:24.92532 22:19.006131 23:13.257657 24:10.731487 25:7.6849194 
4.470927337808056e-34 1:152138.56 2:1028.688 3:893.79505 4:952.83807 5:699.07183 6:597.29335 7:472.27156 8:454.64515 9:486.24847 10:461.04843 11:421.54378 12:278.92168 13:219.99035 14:202.4364 15:197.65199 16:196.64774 17:131.6883 18:83.548976 19:58.71616 20:40.261359 21:29.56682 22:17.980779 23:10.458721 24:5.7542303 25:3.1917536 
4.470927337808056e-34 1:150835.05 2:731.25628 3:621.64851 4:700.00138 5:439.36519 6:420.0335 7:486.55688 8:387.00807 9:394.59287 10:408.15423 11:298.64672 12:276.95278 13:248.62077 14:187.85063 15:172.41471 16:149.85303 17:93.47203 18:98.658062 19:68.672359 20:46.814253 21:36.600804 22:19.325385 23:12.637238 24:10.380755 25:10.464927 
4.470927337808056e-34 1:147578.59 2:821.09117 3:876.15693 4:852.19421 5:529.68686 6:538.22298 7:594.39101 8:618.62694 9:605.3823 10:483.71779 11:309.24288 12:249.03817 13:238.0557 14:263.4882 15:219.22657 16:165.85157 17:131.41449 18:89.76554 19:54.478243 20:51.107553 21:33.246851 22:18.501437 23:9.3425607 24:4.3165034 25:2.5190913 
4.470927337808056e-34 1:149444.01 2:1088.8002 3:946.34173 4:855.45814 5:558.92353 6:544.48079 7:482.15041 8:493.72003 9:550.22722 10:463.3396 11:230.84626 12:183.32004 13:231.69172 14:279.41668 15:244.88897 16:154.03131 17:89.783099 18:93.560595 19:90.516885 20:56.1162 21:31.14887 22:19.695696 23:11.506668 24:9.2389666 25:12.204387 
4.470927337808056e-34 1:147763.77 2:1021.2542 3:769.78652 4:724.28145 5:643.15256 6:569.2844 7:532.40393 8:541.12701 9:475.5131 10:473.35827 11:317.52916 12:264.21574 13:326.55906 14:284.99191 15:201.14422 16:176.78007 17:154.27951 18:130.03301 19:94.780942 20:58.852422 21:30.721858 22:14.215154 23:13.271521 24:13.967033 25:13.165024 
4.470927337808056e-34 1:143830.65 2:750.52851 3:832.15849 4:717.30198 5:464.07561 6:532.511 7:401.7828 8:385.04667 9:477.58211 10:428.69708 11:261.78655 12:260.98583 13:288.83827 14:285.85105 15:240.0718 16:159.07134 17:130.32692 18:101.23859 19:81.387151 20:51.264096 21:34.828097 22:15.81464 23:11.124305 24:9.1229525 25:7.6332712 
4.470927337808056e-34 1:143180.89 2:882.43545 3:821.16005 4:752.82922 5:458.07895 6:402.31885 7:379.82903 8:467.46544 9:577.68112 10:455.94492 11:302.16566 12:189.8161 13:186.78378 14:234.11265 15:213.81122 16:191.17458 17:147.3907 18:110.38949 19:91.503008 20:51.137339 21:25.479619 22:16.966731 23:10.31313 24:7.4539206 25:5.8646862 
4.470927337808056e-34 1:139996.26 2:1086.6365 3:826.00975 4:678.23891 5:493.99406 6:463.39119 7:409.28239 8:444.56013 9:551.01176 10:555.47313 11:397.86335 12:287.29601 13:231.092 14:250.63431 15:247.29598 16:196.49918 17:132.45479 18:100.94943 19:73.305409 20:41.110702 21:25.735986 22:18.924181 23:13.723364 24:10.841952 25:9.5665833 
4.470927337808056e-34 1:137395.15 2:465.20227 3:765.01182 4:894.91906 5:619.73168 6:480.73656 7:412.73492 8:352.84267 9:486.93445 10:503.54636 11:282.27255 12:199.63812 13:287.02122 14:292.59752 15:192.22182 16:153.9684 17:141.36649 18:105.64347 19:62.57155 20:43.001094 21:28.815921 22:22.219162 23:14.611512 24:10.070426 25:7.575685 
4.470927337808056e-34 1:134316.19 2:978.64512 3:882.09327 4:744.44041 5:513.84587 6:468.99627 7:377.11853 8:336.55038 9:400.89805 10:387.46057 11:302.55543 12:228.61956 13:197.85838 14:218.60656 15:190.69948 16:182.45381 17:194.85085 18:144.57668 19:66.451714 20:34.327958 21:26.246987 22:16.502507 23:15.819308 24:16.322803 25:15.643754 
4.470927337808056e-34 1:133250.33 2:822.40044 3:723.84672 4:670.37307 5:364.17683 6:443.11115 7:340.09675 8:335.51733 9:564.46836 10:533.88669 11:355.43905 12:268.19887 13:183.1928 14:147.34937 15:150.81341 16:141.40172 17:117.57547 18:89.698865 19:54.238231 20:41.145093 21:34.725418 22:25.124098 23:17.536872 24:12.852759 25:13.111218 
4.470927337808056e-34 1:136417.68 2:911.22076 3:699.57831 4:595.94493 5:330.13489 6:349.21238 7:399.25167 8:352.55004 9:478.44068 10:484.27427 11:344.98201 12:316.97176 13:307.78238 14:285.40415 15:264.09869 16:221.08791 17:141.26213 18:85.610693 19:67.913832 20:63.37141 21:34.851326 22:16.096486 23:12.166868 24:8.6655659 25:5.8141711 
4.470927337808056e-34 1:133870.76 2:1199.7325 3:966.73195 4:829.38995 5:472.91485 6:476.39284 7:449.99878 8:396.01916 9:460.89401 10:437.69419 11:345.896 12:268.85981 13:148.12846 14:171.56767 15:205.2339 16:212.63589 17:172.5937 18:89.648111 19:59.528371 20:46.938383 21:31.311875 22:26.139716 23:15.710801 24:13.400628 25:14.058635 
4.470927337808056e-34 1:130362.48 2:675.1328 3:853.53934 4:810.18776 5:496.71813 6:453.02849 7:600.16519 8:517.25539 9:416.03211 10:373.0707 11:279.68737 12:279.48067 13:235.46524 14:211.957 15:254.13404 16:240.50006 17:155.08945 18:106.72671 19:57.191545 20:40.920413 21:23.528199 22:15.646897 23:11.382216 24:6.7012903 25:3.7472742 
4.470927337808056e-34 1:128704.08 2:944.61174 3:695.40581 4:739.11919 5:605.14866 6:517.61511 7:496.20657 8:509.86872 9:488.67761 10:362.08557 11:355.5122 12:306.11064 13:194.54775 14:238.19777 15:198.54106 16:123.68183 17:109.83245 18:112.33409 19:77.31113 20:47.812241 21:37.345786 22:21.086984 23:12.380278 24:7.1848403 25:4.3322312 
4.470927337808056e-34 1:129087.66 2:871.23029 3:1006.8468 4:873.29421 5:473.21118 6:350.18562 7:327.98102 8:383.57419 9:471.14978 10:401.61863 11:255.42495 12:220.54808 13:222.07558 14:224.18491 15:221.60912 16:179.86918 17:116.70357 18:103.79621 19:75.410046 20:54.47179 21:34.653755 22:19.751377 23:12.75196 24:7.6422686 25:6.6093878 
4.470927337808056e-34 1:126852.7 2:770.45376 3:786.87894 4:712.23863 5:567.00168 6:593.6072 7:476.17539 8:407.69486 9:556.90151 10:548.29866 11:373.99002 12:290.88747 13:218.7612 14:213.08631 15:201.42174 16:136.68179 17:103.37629 18:89.565331 19:49.397203 20:45.548092 21:35.119618 22:24.199477 23:17.405632 24:11.548946 25:12.706356 
4.470927337808056e-34 1:122269.77 2:949.95872 3:907.22988 4:790.12265 5:538.06214 6:458.00101 7:382.23244 8:306.60761 9:416.60677 10:477.07236 11:305.50518 12:256.46677 13:232.30714 14:196.88125 15:157.39534 16:154.33073 17:126.12979 18:75.795501 19:63.226738 20:50.630152 21:25.541848 22:15.047 23:10.262586 24:5.1907499 25:2.9252857 
4.470927337808056e-34 1:124662.63 2:900.93144 3:853.5133 4:872.27755 5:560.28301 6:384.11116 7:361.49834 8:362.37939 9:488.03426 10:416.40557 11:277.0155 12:258.55313 13:189.20111 14:185.42855 15:201.31123 16:182.96331 17:152.60636 18:107.80536 19:60.961664 20:42.294411 21:29.096585 22:21.687031 23:11.938279 24:8.4480314 25:7.7130993 
4.470927337808056e-34 1:123878.16 2:639.89422 3:669.97178 4:532.32937 5:448.99576 6:530.37188 7:395.89321 8:321.23606 9:560.19066 10:493.38181 11:218.17782 12:238.24732 13:289.60146 14:277.20941 15:205.00062 16:169.27394 17:125.72986 18:81.098355 19:73.789407 20:57.772735 21:33.535459 22:22.519444 23:15.111262 24:9.3959632 25:8.6753155 
4.470927337808056e-34 1:124347.94 2:788.16013 3:858.25086 4:842.49557 5:429.9313 6:447.676 7:447.74138 8:407.08739 9:565.73849 10:500.12817 11:377.02501 12:333.8882 13:245.99203 14:232.9858 15:247.33428 16:199.43946 17:115.48482 18:106.33628 19:84.345029 20:46.075567 21:22.951788 22:10.53682 23:7.0094616 24:5.7998147 25:3.2441354 
4.470927337808056e-34 1:123803.91 2:838.74792 3:775.45332 4:708.80052 5:557.10258 6:473.15808 7:445.82362 8:423.4531 9:372.3038 10:377.72351 11:327.28555 12:254.44199 13:215.39748 14:203.92909 15:248.87789 16:230.74991 17:146.61369 18:102.79699 19:70.194181 20:51.496459 21:30.27451 22:11.930551 23:6.8616167 24:5.121428 25:4.8377827 
4.470927337808056e-34 1:123509.79 2:631.54161 3:730.03705 4:817.90458 5:472.67352 6:376.39527 7:458.05526 8:414.74966 9:425.01457 10:472.70389 11:351.77152 12:266.01929 13:233.57439 14:260.21405 15:260.65077 16:179.54297 17:137.46072 18:110.59859 19:62.587226 20:56.158668 21:43.129086 22:20.439351 23:10.94541 24:7.5068125 25:5.1832336 
4.470927337808056e-34 1:122033.41 2:596.02381 3:814.41031 4:744.78597 5:505.72302 6:544.4658 7:392.38237 8:388.68167 9:494.73187 10:419.33569 11:334.86964 12:267.29066 13:269.03834 14:248.5046 15:187.5866 16:161.52272 17:128.16221 18:117.14786 19:72.529973 20:45.563844 21:40.670293 22:21.014049 23:10.620778 24:8.7775825 25:8.5255563 
4.470927337808056e-34 1:119275.84 2:795.72801 3:1021.6823 4:791.26286 5:567.42952 6:475.05235 7:365.53032 8:409.31332 9:503.5883 10:462.54095 11:315.85103 12:227.9688 13:143.83106 14:174.41068 15:192.924 16:164.84693 17:142.18347 18:107.38936 19:88.799522 20:68.221641 21:36.166521 22:20.818914 23:12.950677 24:6.9427364 25:6.3494359 
4.470927337808056e-34 1:124360.05 2:1046.8931 3:957.28504 4:887.4501 5:480.66092 6:474.47026 7:497.01053 8:456.28574 9:471.8582 10:388.51673 11:217.40147 12:159.16799 13:209.38627 14:269.50869 15:200.08301 16:174.80349 17:126.63415 18:77.934983 19:63.238174 20:51.297702 21:34.15683 22:19.799241 23:12.08692 24:9.4111382 25:6.259437 
4.470927337808056e-34 1:123297.95 2:871.84205 3:858.25535 4:858.92452 5:568.5715 6:572.98495 7:406.00198 8:286.27241 9:451.4507 10:467.47658 11:326.38333 12:268.90593 13:250.74077 14:227.12979 15:226.12065 16:188.40629 17:117.44328 18:81.21268 19:62.725125 20:62.347054 21:37.694128 22:21.955106 23:13.700846 24:11.452566 25:8.6091154 
4.470927337808056e-34 1:119861.21 2:747.64938 3:799.2652 4:730.17527 5:463.89143 6:545.74586 7:461.94039 8:442.18831 9:578.33328 10:541.60853 11:356.53103 12:254.35721 13:185.42012 14:160.22756 15:187.8131 16:199.2862 17:127.42587 18:94.004716 19:56.920829 20:36.519998 21:23.06165 22:16.141672 23:10.530505 24:5.84281 25:4.5857351 
4.470927337808056e-34 1:118729.31 2:997.23506 3:876.22938 4:731.08578 5:390.2997 6:441.68135 7:441.40554 8:399.65872 9:524.83244 10:505.93695 11:361.50844 12:272.32483 13:206.61064 14:173.46759 15:161.81517 16:162.50087 17:116.20769 18:91.824125 19:63.909779 20:45.665595 21:28.266427 22:20.245907 23:13.074363 24:6.4028919 25:4.673395 
4.470927337808056e-34 1:119249.21 2:582.47727 3:777.06131 4:896.93585 5:694.47999 6:615.40369 7:516.86577 8:381.2373 9:395.65414 10:476.63002 11:336.97957 12:251.81058 13:232.64939 14:226.42691 15:275.62908 16:244.14662 17:138.25487 18:102.10879 19:81.411725 20:54.386894 21:30.864553 22:22.098318 23:12.748245 24:5.3119016 25:5.0673747 
