svm_type one_class
kernel_type polynomial
degree 3
gamma 2
coef0 0
nr_class 2
total_sv 3806
rho 4.18557e+41
SV
1 1:1508901.7 2:1383.4268 3:1877.6013 4:1430.2175 5:830.31147 6:763.61061 7:755.09678 8:847.45413 9:686.59587 10:587.50627 11:529.39891 12:393.67316 13:190.73058 14:257.64596 15:320.51669 16:191.87047 17:130.78298 18:111.77756 19:72.272956 20:38.674722 21:25.716448 22:16.306031 23:8.7573649 24:4.7499855 25:2.1186193 
1 1:1509802.3 2:1350.3127 3:2059.261 4:1786.7185 5:965.8253 6:776.31405 7:661.70552 8:774.27949 9:828.13772 10:677.42946 11:622.92142 12:447.57373 13:246.2958 14:232.37653 15:256.17508 16:202.57505 17:109.28334 18:74.662037 19:53.10222 20:47.185654 21:32.3021 22:15.692188 23:11.918056 24:4.9774779 25:2.527727 
1 1:1511586.7 2:1933.9697 3:1751.1182 4:1467.7471 5:1353.596 6:999.3418 7:779.83165 8:840.68255 9:890.55642 10:811.85855 11:614.7247 12:433.13993 13:268.10113 14:260.29606 15:236.31373 16:198.72405 17:171.03408 18:138.97403 19:79.554556 20:44.212985 21:33.432023 22:23.129894 23:17.345892 24:13.647052 25:11.95671 
1 1:1516746.9 2:2333.4873 3:1910.792 4:1663.1961 5:889.22367 6:777.88375 7:696.64769 8:663.22397 9:935.36669 10:745.69018 11:335.32309 12:330.19479 13:282.20936 14:238.71265 15:274.13543 16:238.46984 17:157.67832 18:104.96577 19:68.225259 20:46.418685 21:30.102542 22:13.704296 23:11.64599 24:13.745886 25:13.491766 
1 1:1514744.3 2:1790.1697 3:1788.0067 4:2036.6316 5:1215.8742 6:736.27636 7:738.3594 8:747.01121 9:949.54328 10:812.86603 11:524.12975 12:458.17674 13:345.76874 14:304.21816 15:225.32618 16:163.6396 17:132.55655 18:86.174751 19:53.887793 20:39.012726 21:29.250244 22:21.620578 23:15.149251 24:10.055907 25:8.6208586 
1 1:1514086 2:1762.4242 3:1964.7928 4:1548.3734 5:838.03292 6:967.36542 7:851.83463 8:838.05513 9:884.15621 10:687.68933 11:593.46864 12:411.27152 13:291.50132 14:337.51123 15:271.18389 16:181.84127 17:153.20464 18:135.87333 19:87.670464 20:55.647236 21:30.564611 22:16.334934 23:12.336626 24:7.4617778 25:4.7680632 
1 1:1514266.1 2:1939.0245 3:1588.3806 4:1240.7703 5:924.2721 6:939.68486 7:716.02743 8:555.53393 9:803.69062 10:792.30592 11:467.9154 12:326.11087 13:293.07819 14:235.50345 15:231.9894 16:171.2593 17:101.48661 18:88.564992 19:66.534347 20:40.548019 21:27.666824 22:12.982578 23:6.192301 24:3.353842 25:3.6853575 
1 1:1514556.1 2:1740.8705 3:1573.9355 4:1096.8452 5:763.4115 6:892.13042 7:689.45416 8:570.89289 9:843.22524 10:735.60737 11:478.53646 12:359.38029 13:212.75175 14:199.41301 15:207.99554 16:169.83465 17:114.67708 18:87.348971 19:68.292674 20:57.029758 21:29.056758 22:11.495671 23:8.3671993 24:6.2528647 25:4.1078101 
1 1:1514676 2:1213.1842 3:1398.0257 4:1364.4117 5:886.8422 6:895.87304 7:784.56115 8:651.75771 9:725.10741 10:724.06108 11:466.91904 12:306.48448 13:278.08078 14:256.15065 15:225.25478 16:186.89185 17:144.64086 18:99.226283 19:78.455903 20:54.235591 21:22.435448 22:15.126054 23:9.5514394 24:5.3472853 25:3.504132 
1 1:1516471.7 2:1483.6042 3:1302.6687 4:1227.1102 5:862.27949 6:677.76447 7:719.32341 8:632.21774 9:693.88967 10:859.87072 11:588.85749 12:298.47821 13:184.48536 14:279.74951 15:274.78491 16:151.11917 17:125.91662 18:94.996972 19:59.462353 20:41.018009 21:31.72886 22:21.920033 23:12.010689 24:7.0376953 25:6.4549942 
1 1:1518876 2:1471.8515 3:1286.2058 4:1402.2087 5:962.40957 6:646.99002 7:796.55219 8:818.40164 9:779.46016 10:800.35802 11:565.93054 12:383.48975 13:323.74672 14:243.65721 15:210.10951 16:199.86272 17:136.91321 18:88.654361 19:37.055394 20:32.598762 21:25.731356 22:16.189463 23:8.6150532 24:4.3464483 25:3.4285833 
1 1:1519855.2 2:1557.2124 3:1663.6351 4:1566.9526 5:685.58486 6:671.51214 7:962.55792 8:807.49713 9:633.12805 10:586.32466 11:449.96236 12:411.5814 13:308.96067 14:238.34882 15:195.31661 16:158.36438 17:113.0123 18:75.716173 19:60.493274 20:47.498697 21:24.370876 22:16.483528 23:7.9658096 24:4.9571483 25:2.9051808 
1 1:1517700.9 2:1640.5343 3:1961.0116 4:1885.0286 5:1071.1392 6:657.67262 7:671.31416 8:702.25334 9:742.20258 10:573.19338 11:365.19735 12:312.85061 13:225.941 14:236.52109 15:181.97367 16:173.0161 17:153.62351 18:103.17437 19:62.149374 20:40.953068 21:29.850195 22:22.577687 23:18.820996 24:16.745094 25:16.215869 
1 1:1522722.4 2:2128.4537 3:1733.1063 4:1418.7278 5:854.11902 6:744.14781 7:877.04014 8:851.87114 9:803.12021 10:536.98905 11:421.93013 12:443.51304 13:360.10765 14:273.72535 15:160.28187 16:134.33337 17:94.988295 18:59.940078 19:46.764068 20:43.380797 21:31.994399 22:19.690438 23:10.021407 24:6.9481934 25:6.8519922 
1 1:1520540.8 2:1610.1904 3:1827.3647 4:1634.2008 5:1075.5683 6:1015.257 7:856.68789 8:809.02362 9:726.38425 10:629.88103 11:581.72468 12:351.85532 13:353.60709 14:346.6085 15:212.82263 16:168.00835 17:122.73329 18:77.768246 19:64.631313 20:48.423682 21:28.996391 22:20.781014 23:9.0743417 24:6.0724282 25:6.8934354 
1 1:1521109.8 2:1495.4938 3:1741.4849 4:1791.6765 5:1045.5304 6:905.36211 7:893.13079 8:750.20885 9:731.08873 10:743.71609 11:568.73603 12:416.13244 13:330.24402 14:309.0529 15:259.52943 16:192.11898 17:157.81151 18:107.13907 19:60.383052 20:43.293865 21:32.787945 22:22.494932 23:16.277043 24:10.696431 25:10.50618 
1 1:1522217.4 2:1202.9966 3:1333.0404 4:1298.0992 5:686.7413 6:638.3426 7:834.47764 8:852.74368 9:763.72874 10:724.6721 11:575.69223 12:351.27476 13:196.07768 14:204.81782 15:204.32953 16:155.39791 17:120.79262 18:101.00791 19:58.425298 20:45.560248 21:29.071707 22:18.210192 23:8.9470766 24:7.4080273 25:5.647682 
1 1:1520175.2 2:1406.9908 3:1689.1434 4:1636.5799 5:756.07479 6:875.46315 7:955.01816 8:793.11957 9:756.76999 10:506.60589 11:347.8561 12:375.19145 13:279.06195 14:247.18783 15:245.1693 16:183.47361 17:105.57084 18:75.997766 19:71.855499 20:60.593561 21:28.826161 22:17.085175 23:9.6449113 24:4.0715352 25:2.6816632 
1 1:1519810.2 2:1337.7587 3:1615.6458 4:1244.4776 5:625.19497 6:757.23981 7:802.00397 8:668.64991 9:622.52175 10:549.28413 11:333.62526 12:222.10693 13:264.97252 14:253.62679 15:245.35711 16:158.78449 17:91.881539 18:110.81471 19:77.636271 20:45.694156 21:25.965951 22:19.098595 23:16.493552 24:11.667865 25:10.999411 
1 1:1525147.3 2:5249.0396 3:4015.1429 4:2277.1744 5:1368.2994 6:1168.8591 7:917.86615 8:566.92773 9:634.00498 10:706.62435 11:482.13452 12:339.48877 13:339.07789 14:307.1747 15:255.92461 16:223.51322 17:131.52506 18:105.79006 19:73.253557 20:34.296888 21:26.657073 22:18.448747 23:9.3753628 24:5.8165004 25:6.7610659 
1 1:1524302.7 2:1172.8388 3:1359.7249 4:1231.6247 5:739.32429 6:696.16805 7:516.89138 8:457.51349 9:673.23097 10:647.59745 11:314.13341 12:311.17067 13:304.2265 14:232.86033 15:226.17777 16:196.54267 17:168.50877 18:116.57291 19:50.453064 20:38.513577 21:28.200711 22:17.986694 23:11.922873 24:4.1682258 25:2.6214074 
1 1:1523808.9 2:1933.9279 3:1841.6624 4:1386.4832 5:869.63231 6:723.19759 7:764.41567 8:722.23461 9:813.70687 10:603.20759 11:368.14738 12:392.25596 13:277.27676 14:259.45408 15:206.91319 16:126.32608 17:96.245892 18:69.834123 19:71.60204 20:61.24104 21:29.270661 22:20.116444 23:12.654743 24:4.5115088 25:2.9996698 
1 1:1526298.2 2:2747.0271 3:2183.4102 4:1644.7355 5:805.74571 6:836.35257 7:991.02381 8:798.21649 9:875.48141 10:690.36798 11:360.99613 12:325.07119 13:299.86103 14:321.16388 15:246.06438 16:166.07162 17:138.31966 18:105.96406 19:82.066625 20:57.133652 21:25.039583 22:16.039004 23:7.2881927 24:4.1075547 25:4.4588119 
1 1:1529041 2:3999.7344 3:2599.3858 4:2347.6771 5:1415.4427 6:1045.1182 7:973.38493 8:911.02927 9:1044.9938 10:975.80585 11:556.83769 12:444.14562 13:327.80189 14:288.32665 15:293.1374 16:188.54949 17:147.57902 18:133.45657 19:103.20632 20:47.411022 21:25.088857 22:14.471958 23:8.1821376 24:3.3126196 25:1.9738988 
1 1:1526689.9 2:3590.879 3:2573.6931 4:1907.4787 5:1058.1113 6:1364.3956 7:1228.8226 8:859.62345 9:764.89361 10:746.16787 11:598.21817 12:368.59423 13:362.8521 14:410.19984 15:327.35812 16:228.19175 17:144.08165 18:86.659364 19:54.911997 20:48.086275 21:47.161113 22:28.032314 23:16.960112 24:16.118804 25:17.618517 
1 1:1523420.8 2:1713.9746 3:1614.6915 4:1620.4727 5:1291.695 6:1134.659 7:1042.7526 8:794.75826 9:718.29898 10:787.47188 11:636.76817 12:538.25172 13:337.8148 14:281.37004 15:213.68039 16:105.44101 17:87.949617 18:83.580437 19:72.907937 20:41.428402 21:20.395046 22:12.04475 23:6.9766606 24:4.3253141 25:4.4488664 
1 1:1526596.8 2:4039.7942 3:2718.4531 4:1920.0459 5:1040.1467 6:915.43709 7:582.70389 8:640.45657 9:924.72673 10:908.75597 11:623.58136 12:454.39796 13:403.94157 14:288.87908 15:194.53442 16:174.64915 17:105.11434 18:93.401198 19:68.325079 20:48.59857 21:31.40369 22:14.643695 23:7.7498701 24:6.7296019 25:7.4237525 
1 1:1524373.3 2:2371.0176 3:1785.4341 4:1606.6295 5:1263.0498 6:902.00869 7:897.79752 8:804.02804 9:649.46916 10:715.58194 11:482.88875 12:387.40647 13:360.70624 14:300.00345 15:279.2018 16:252.31777 17:132.08135 18:134.31174 19:108.57133 20:60.550523 21:31.683306 22:14.735204 23:6.2874997 24:4.9029516 25:3.0541787 
1 1:1527376.9 2:2835.3309 3:1800.9192 4:1568.6389 5:1142.7485 6:1330.5576 7:875.57045 8:611.96207 9:952.40678 10:839.48421 11:545.01408 12:555.69932 13:433.95574 14:354.78667 15:296.42813 16:205.02063 17:122.5903 18:88.244265 19:75.340083 20:54.428274 21:31.398415 22:19.506347 23:9.8803774 24:5.4361727 25:4.4862318 
1 1:1523810.6 2:3900.2553 3:2699.1326 4:2021.2398 5:1775.2898 6:1575.576 7:1076.862 8:842.42292 9:856.86971 10:730.4275 11:617.96149 12:595.74446 13:342.11161 14:217.20978 15:242.78527 16:217.2908 17:130.37215 18:110.23773 19:88.875047 20:55.964347 21:31.473076 22:16.527159 23:12.755655 24:10.01047 25:9.9276907 
1 1:1520900.1 2:3156.6289 3:2311.157 4:1712.6535 5:1036.8397 6:1003.7294 7:1126.0598 8:1026.5418 9:1031.5305 10:983.76493 11:769.98367 12:433.33012 13:332.0927 14:354.42624 15:275.20125 16:196.65907 17:159.43282 18:124.81637 19:83.245274 20:62.076417 21:34.633189 22:19.084845 23:11.744265 24:9.5780455 25:8.9073557 
1 1:1523748.8 2:1821.7383 3:1977.2048 4:1982.2544 5:1303.8581 6:968.5673 7:827.08926 8:748.5585 9:819.39602 10:880.68403 11:623.07992 12:390.28172 13:368.15015 14:300.54495 15:245.59741 16:176.80222 17:98.244221 18:63.491383 19:46.314703 20:42.929665 21:33.561832 22:21.413724 23:10.290716 24:6.6066194 25:5.6725131 
1 1:1527783.1 2:5893.692 3:4642.6056 4:3062.2712 5:2182.1301 6:1525.313 7:1383.5722 8:876.79769 9:864.55885 10:806.12014 11:533.19166 12:379.22214 13:305.56534 14:313.70787 15:311.02072 16:285.91296 17:168.42076 18:121.09628 19:80.945607 20:47.384078 21:34.023437 22:21.170649 23:12.159343 24:10.763826 25:11.341237 
1 1:1527991.6 2:5394.9007 3:3091.5463 4:1420.8406 5:1340.9468 6:1192.4717 7:957.11953 8:901.49685 9:863.43259 10:683.7821 11:506.44531 12:401.19858 13:401.49897 14:421.93544 15:300.86164 16:225.41091 17:175.87365 18:132.42904 19:87.41443 20:55.103089 21:28.749019 22:17.1486 23:13.90809 24:10.341715 25:7.3450609 
1 1:1525014.2 2:2531.5493 3:2002.2228 4:1580.9663 5:1384.2097 6:1233.7041 7:1102.4594 8:833.14782 9:920.9012 10:839.63938 11:653.81679 12:487.73436 13:342.3453 14:251.46221 15:186.03031 16:169.35198 17:120.18266 18:85.646615 19:59.478478 20:45.303837 21:31.002789 22:16.762299 23:9.6246751 24:6.243898 25:2.8202771 
1 1:1530999.3 2:6339.2767 3:3236.8347 4:2112.9418 5:1754.5139 6:1398.7248 7:1125.0257 8:1107.1981 9:1075.5162 10:799.06517 11:579.77913 12:450.5605 13:316.0391 14:373.16668 15:209.11433 16:149.91191 17:173.85952 18:125.10581 19:68.409596 20:33.008359 21:26.225289 22:19.617341 23:8.4709628 24:4.746741 25:3.8905374 
1 1:1536175.8 2:14708.275 3:7664.2431 4:3927.4042 5:2894.443 6:2132.6748 7:1826.3981 8:1540.9384 9:1573.616 10:1335.714 11:858.38278 12:675.77086 13:601.27427 14:511.24815 15:368.67176 16:341.18401 17:248.51435 18:137.3955 19:88.429462 20:52.611522 21:42.454837 22:24.085452 23:10.938524 24:6.8767378 25:4.0489874 
1 1:1523019.6 2:3992.3302 3:2978.6437 4:2648.3058 5:1570.6191 6:1038.9294 7:1011.1172 8:787.55012 9:861.25946 10:875.68473 11:492.79851 12:334.96419 13:321.63316 14:213.7464 15:246.26832 16:292.56887 17:221.06233 18:128.68695 19:65.054808 20:47.440926 21:35.656771 22:17.782538 23:11.742899 24:13.411626 25:13.523438 
1 1:1520019.4 2:4460.1869 3:4136.9459 4:4512.1464 5:3259.9327 6:2236.9055 7:2137.1925 8:1198.2008 9:859.26922 10:709.57477 11:561.79706 12:423.8847 13:273.03849 14:247.71712 15:273.96673 16:208.9234 17:157.08465 18:128.02178 19:106.02252 20:62.310159 21:35.243074 22:25.576258 23:21.250215 24:19.030108 25:17.141134 
1 1:1529673.4 2:13634.523 3:9503.4131 4:7342.9653 5:4798.4375 6:2676.5012 7:2311.5905 8:1689.7411 9:1478.9992 10:1062.2127 11:628.10982 12:676.08576 13:481.58169 14:448.9844 15:363.28748 16:243.21395 17:181.75678 18:101.84101 19:85.889676 20:71.425123 21:45.61022 22:22.474165 23:12.509289 24:4.8426262 25:3.7676814 
1 1:1528097.9 2:6522.8956 3:3771.0462 4:3289.2397 5:3068.7407 6:2269.445 7:1897.2268 8:1499.8976 9:1208.7406 10:1418.2589 11:957.74685 12:470.74225 13:320.93646 14:305.8499 15:264.63312 16:214.93544 17:172.19418 18:135.36155 19:85.751513 20:49.737808 21:30.954391 22:21.887213 23:19.157872 24:16.881717 25:15.757232 
1 1:1524286.6 2:4060.0637 3:3842.1412 4:3065.1139 5:1673.5037 6:1281.5239 7:1204.6712 8:1197.6874 9:1007.9434 10:815.50753 11:651.64641 12:424.52364 13:347.76945 14:438.60866 15:337.25854 16:263.00545 17:193.06871 18:90.357749 19:64.109839 20:57.241979 21:46.020453 22:34.031294 23:17.743671 24:12.952394 25:12.39927 
1 1:1522297.9 2:5340.8401 3:4931.0707 4:3747.0457 5:2283.6786 6:2416.4042 7:2335.5863 8:1591.4674 9:1373.6044 10:1558.1305 11:1202.3132 12:668.7746 13:449.38373 14:471.47858 15:420.96223 16:333.52229 17:192.40455 18:109.21308 19:66.084527 20:43.641093 21:29.230291 22:21.727454 23:12.494937 24:10.938096 25:9.6659315 
1 1:1522667.2 2:4037.9341 3:2916.7705 4:2979.5367 5:2124.9756 6:2001.7377 7:2362.2396 8:1619.2475 9:1005.2427 10:996.28315 11:786.48342 12:659.67546 13:472.00047 14:369.46157 15:391.90793 16:285.87513 17:190.18293 18:158.39228 19:106.65762 20:63.77968 21:33.295869 22:20.932468 23:16.943957 24:16.66784 25:14.792255 
1 1:1522539.3 2:3089.1044 3:3649.8039 4:3376.3616 5:1894.8408 6:1420.1433 7:1168.2823 8:928.60041 9:1171.3783 10:1178.8591 11:856.32328 12:704.12873 13:533.89614 14:499.54921 15:370.43123 16:272.5588 17:183.85458 18:135.7794 19:95.636895 20:49.720054 21:29.067785 22:17.49056 23:12.03594 24:7.6882809 25:4.7771552 
1 1:1523287.7 2:3358.6466 3:3031.4707 4:2623.3244 5:2581.5389 6:2547.8702 7:1769.9906 8:1865.6969 9:1866.651 10:1132.3933 11:606.89071 12:324.08095 13:384.38446 14:427.76171 15:263.66155 16:186.90454 17:141.62316 18:81.269123 19:74.069598 20:54.203523 21:32.703439 22:21.038609 23:9.0750923 24:6.3503476 25:4.5716258 
1 1:1523553.6 2:2887.4524 3:2555.5991 4:2835.9178 5:2100.6796 6:1323.3267 7:818.5901 8:873.25712 9:1003.1364 10:788.55982 11:539.87088 12:486.27802 13:411.17416 14:326.09227 15:292.77878 16:216.30531 17:135.83954 18:134.86204 19:97.201364 20:66.995886 21:36.470447 22:15.346265 23:14.476499 24:12.508103 25:12.304176 
1 1:1521923.8 2:3302.7205 3:3321.2881 4:2972.1058 5:2039.128 6:1610.0004 7:1091.3088 8:807.32624 9:1065.1624 10:912.59632 11:409.35448 12:413.13662 13:408.19305 14:355.24463 15:295.65697 16:208.52463 17:121.05092 18:96.310095 19:104.38287 20:61.086209 21:33.050416 22:20.747284 23:10.451931 24:7.3668337 25:7.1438491 
1 1:1522086.1 2:2847.7895 3:2504.3534 4:2178.6447 5:1455.5017 6:1137.9921 7:736.0695 8:633.9098 9:677.13674 10:720.09925 11:472.87926 12:347.53137 13:355.57826 14:345.2421 15:377.57758 16:341.24799 17:171.93842 18:76.256695 19:66.954655 20:47.906391 21:25.328491 22:15.752377 23:7.9577114 24:7.7215556 25:6.8410737 
1 1:1522729.6 2:3385.0987 3:2695.933 4:2291.4465 5:1750.9637 6:1162.6793 7:763.12046 8:887.54924 9:986.49003 10:746.94364 11:460.90997 12:334.67363 13:293.91888 14:269.37663 15:236.82487 16:228.37096 17:160.42832 18:99.672189 19:58.893872 20:36.962675 21:23.657306 22:19.561248 23:8.4900592 24:5.5379471 25:4.7772678 
1 1:1522103.6 2:2546.3321 3:2495.1548 4:1909.8059 5:1033.4156 6:899.34133 7:713.5458 8:759.53202 9:929.23539 10:844.98448 11:494.3709 12:370.14198 13:356.78633 14:318.3889 15:246.96344 16:186.52981 17:129.30464 18:93.163344 19:66.706104 20:43.818281 21:28.152247 22:19.041289 23:12.677871 24:10.064802 25:10.565276 
1 1:1522409.5 2:3134.1461 3:2766.4492 4:2854.6676 5:2211.4879 6:1830.8321 7:1355.4091 8:910.49154 9:838.18213 10:822.34309 11:748.94564 12:531.85336 13:364.60934 14:263.98075 15:274.6101 16:209.79048 17:112.23346 18:74.363501 19:69.791195 20:48.577949 21:33.642045 22:19.174172 23:8.8671778 24:7.8839956 25:9.3911233 
1 1:1521758.4 2:2397.0519 3:2552.459 4:2077.8592 5:1460.0906 6:980.56221 7:611.33195 8:732.13351 9:845.50036 10:729.43391 11:596.70051 12:547.11811 13:393.27305 14:325.40843 15:214.14059 16:153.76885 17:135.23622 18:106.52285 19:63.340111 20:46.513527 21:40.877706 22:24.491164 23:13.991439 24:11.847176 25:13.58476 
1 1:1519855.2 2:2747.1762 3:1860.3165 4:1853.2825 5:1294.7782 6:1069.9656 7:635.27415 8:698.72081 9:879.34365 10:702.33174 11:525.90796 12:405.98109 13:365.33555 14:292.0727 15:252.3974 16:221.28738 17:122.85875 18:102.48896 19:69.707918 20:52.912979 21:38.036737 22:28.217323 23:16.525339 24:17.947068 25:16.949497 
1 1:1518180.5 2:2197.3983 3:1655.7356 4:1534.5193 5:1413.6687 6:1062.8384 7:619.21958 8:605.05858 9:817.37677 10:696.3975 11:359.75663 12:271.62704 13:253.81847 14:263.3025 15:226.37119 16:197.41117 17:163.33266 18:108.35891 19:65.484338 20:54.242896 21:37.662233 22:22.035474 23:14.55348 24:11.225779 25:11.275391 
1 1:1518599.2 2:2162.3858 3:2060.846 4:1856.8962 5:1026.8122 6:1004.8715 7:970.44738 8:710.10439 9:718.85497 10:627.20937 11:593.15727 12:429.86097 13:256.21865 14:270.15456 15:249.76067 16:201.66721 17:143.20495 18:105.70116 19:64.940212 20:49.244965 21:37.339302 22:18.407248 23:9.7905149 24:6.9956247 25:5.1051953 
1 1:1517637.6 2:1664.1514 3:2050.6375 4:1467.8382 5:998.95931 6:952.54119 7:800.46564 8:847.32722 9:792.45554 10:583.84636 11:477.64074 12:363.12669 13:295.14681 14:278.92496 15:211.8664 16:158.69203 17:82.923319 18:69.443964 19:67.86901 20:42.713034 21:25.486595 22:16.069843 23:11.368858 24:8.03174 25:8.4192128 
1 1:1517138.9 2:2279.7168 3:1945.3741 4:1347.7527 5:821.00038 6:835.62767 7:917.61949 8:798.63597 9:786.01383 10:679.35601 11:489.56569 12:416.88058 13:329.26003 14:330.98689 15:322.04986 16:218.47063 17:113.1258 18:59.924245 19:42.536131 20:30.548545 21:16.76154 22:15.506887 23:7.8838289 24:3.8693021 25:2.4497674 
1 1:1516318.4 2:2627.6604 3:2350.6369 4:1409.3119 5:806.75664 6:797.75414 7:808.99539 8:716.83684 9:814.59302 10:707.58198 11:459.81654 12:403.24355 13:310.83087 14:341.61248 15:366.11254 16:229.28678 17:125.74656 18:86.052691 19:67.735604 20:38.008411 21:17.221457 22:13.319616 23:8.1752567 24:5.6360872 25:5.5498916 
1 1:1515046.4 2:1744.3901 3:1759.9268 4:1786.3114 5:965.70987 6:795.32488 7:838.51305 8:812.36546 9:805.69081 10:798.53789 11:536.04046 12:312.32158 13:360.42601 14:308.43858 15:221.32483 16:204.88131 17:131.91905 18:81.243176 19:49.164906 20:32.198872 21:18.01131 22:11.608382 23:8.0621389 24:4.8227852 25:3.8925816 
1 1:1514189.1 2:1701.6013 3:1338.1799 4:1406.8161 5:1156.1989 6:1001.8827 7:705.04657 8:705.93268 9:862.35076 10:811.80195 11:577.44622 12:387.29316 13:340.53545 14:372.57364 15:277.78408 16:182.87804 17:131.92392 18:108.79102 19:76.935969 20:31.178876 21:16.870885 22:12.914578 23:8.7191652 24:3.991473 25:2.7813998 
1 1:1517756.9 2:2599.3136 3:1609.6705 4:1478.25 5:986.70135 6:1003.5275 7:1103.1544 8:901.41031 9:535.46542 10:611.81547 11:524.55996 12:397.12795 13:416.60537 14:396.35712 15:350.94704 16:249.93376 17:142.71624 18:95.483618 19:59.907594 20:45.276147 21:26.385872 22:18.856164 23:12.259146 24:6.167449 25:3.1552568 
1 1:1514571 2:1738.8562 3:2263.851 4:1933.3042 5:1161.3048 6:877.47937 7:709.25466 8:639.22792 9:864.36455 10:839.7577 11:458.16283 12:333.6408 13:255.66982 14:216.8431 15:170.22393 16:120.7931 17:127.10416 18:123.49131 19:80.330612 20:38.741139 21:24.805985 22:15.336705 23:8.2179711 24:4.1360888 25:2.6748469 
1 1:1513827.6 2:2096.8324 3:1805.2823 4:1376.7888 5:1025.0833 6:865.2539 7:963.19135 8:681.72975 9:734.79726 10:741.28874 11:361.04197 12:326.68371 13:275.2254 14:258.67745 15:233.5566 16:177.52945 17:130.81068 18:100.28701 19:68.07024 20:46.582553 21:33.902551 22:16.619795 23:6.9463038 24:2.9482622 25:1.8108491 
1 1:1512388.8 2:2367.3305 3:2237.0626 4:1591.7852 5:1070.6586 6:1109.1825 7:1077.6647 8:779.90387 9:707.96944 10:694.97503 11:448.75133 12:408.43809 13:299.91901 14:276.27976 15:244.80417 16:179.68022 17:112.25837 18:72.482776 19:63.182838 20:42.08314 21:22.583484 22:11.357047 23:8.9584557 24:5.6711549 25:3.6129596 
1 1:1513021 2:2326.5534 3:2116.1073 4:1956.9991 5:1331.0485 6:1218.018 7:918.103 8:686.34813 9:863.49114 10:792.27027 11:473.68239 12:324.6878 13:307.3065 14:322.04302 15:245.40977 16:178.14036 17:128.10636 18:81.115246 19:43.929614 20:35.467288 21:30.526076 22:21.933492 23:10.184707 24:4.2289145 25:2.4420509 
1 1:1511184 2:1803.8949 3:2229.1493 4:1724.3271 5:994.59369 6:1123.2888 7:850.01224 8:487.92688 9:671.66207 10:635.75541 11:435.24201 12:322.56845 13:217.284 14:251.36176 15:232.66132 16:198.63191 17:166.80794 18:107.31098 19:62.544499 20:50.38203 21:23.660145 22:12.792862 23:7.9134597 24:3.958779 25:3.332812 
1 1:1512915.4 2:2803.0667 3:2134.9163 4:1692.537 5:1391.5182 6:1055.77 7:1001.4625 8:932.76836 9:860.14978 10:843.45244 11:660.22033 12:370.97588 13:310.71805 14:297.73927 15:288.92693 16:199.50915 17:104.11959 18:87.327145 19:42.960445 20:30.631803 21:25.552684 22:13.709125 23:10.17709 24:8.0843572 25:6.1100455 
1 1:1516355 2:2505.9989 3:1983.0242 4:1932.555 5:1087.4941 6:860.08411 7:1006.4852 8:892.23477 9:676.63762 10:610.15662 11:506.54762 12:353.9565 13:306.61435 14:324.36027 15:234.0064 16:190.90166 17:162.85881 18:107.24198 19:63.394359 20:45.4181 21:31.358306 22:18.275949 23:9.9422713 24:4.3314525 25:2.9899382 
1 1:1517053.1 2:2130.3506 3:1479.6855 4:1398.9615 5:1346.9308 6:1283.6233 7:781.15024 8:781.1133 9:933.18857 10:737.52361 11:434.43249 12:291.8635 13:283.37134 14:216.06509 15:206.27368 16:188.80341 17:151.56941 18:128.11937 19:87.311226 20:51.260448 21:36.579543 22:16.515398 23:6.3866983 24:4.3945935 25:3.494727 
1 1:1515284.6 2:2424.6279 3:1817.074 4:1224.442 5:748.31252 6:816.41559 7:850.3037 8:633.41654 9:589.1772 10:688.27659 11:556.76678 12:297.37609 13:246.86538 14:279.79331 15:279.85046 16:234.23667 17:120.41724 18:100.05692 19:63.727612 20:38.715808 21:28.348689 22:13.68845 23:6.1753327 24:3.3914395 25:2.4810405 
1 1:1514974.5 2:1926.1255 3:1869.6355 4:1885.0752 5:1258.6278 6:1191.09 7:947.02009 8:736.57343 9:795.39024 10:699.42722 11:472.45735 12:380.72467 13:290.39908 14:245.63357 15:226.53154 16:183.53253 17:124.98281 18:60.348508 19:44.33643 20:48.796521 21:33.002992 22:20.257577 23:6.8519474 24:4.4115254 25:2.3925853 
1 1:1512811.3 2:3519.5179 3:3027.7694 4:1748.5306 5:1006.3656 6:1071.8511 7:966.51446 8:732.02943 9:819.64064 10:808.87564 11:438.45948 12:266.25035 13:284.87055 14:265.77589 15:185.56041 16:160.67845 17:138.32071 18:99.956881 19:71.454868 20:56.426422 21:37.338953 22:13.9625 23:9.2912451 24:10.282689 25:9.9731442 
1 1:1508689.1 2:2368.4645 3:1902.4933 4:1507.619 5:894.447 6:771.10304 7:769.20632 8:637.07128 9:748.30744 10:765.81485 11:486.56969 12:324.4137 13:281.85554 14:265.89328 15:278.28681 16:260.43278 17:123.38803 18:97.322574 19:84.777595 20:58.813261 21:37.403865 22:18.804503 23:12.98759 24:11.757733 25:12.853768 
1 1:1505997.1 2:2130.3601 3:2366.7835 4:2011.0413 5:1108.635 6:926.97226 7:1063.8637 8:1104.531 9:969.07841 10:799.61528 11:468.17075 12:346.90948 13:338.27889 14:316.41789 15:276.49842 16:217.38782 17:140.00151 18:91.63882 19:62.488212 20:41.107155 21:31.985198 22:20.109783 23:14.051527 24:13.585683 25:13.208151 
1 1:1514684.6 2:2242.2178 3:2094.5377 4:1828.8394 5:1362.0459 6:930.0542 7:953.47803 8:1092.887 9:1095.1482 10:771.08435 11:533.70013 12:376.76414 13:340.6019 14:307.21086 15:205.5456 16:167.17114 17:128.59808 18:87.236952 19:51.468945 20:33.928872 21:25.419531 22:22.098148 23:10.606702 24:6.9305408 25:7.4265661 
1 1:1513299.8 2:2616.5406 3:1931.8354 4:1496.2173 5:995.99535 6:930.33985 7:847.60279 8:888.02795 9:921.91733 10:908.79164 11:581.14072 12:363.73566 13:289.4741 14:284.84653 15:293.84813 16:236.48939 17:166.07016 18:116.38658 19:81.155121 20:37.895233 21:17.859546 22:13.890478 23:8.8571184 24:8.5852085 25:7.4749757 
1 1:1513213.8 2:1931.954 3:1926.4829 4:2516.1321 5:1695.699 6:1177.0783 7:904.96879 8:797.24303 9:804.83795 10:726.52583 11:742.56406 12:566.62184 13:280.85252 14:253.81323 15:225.93271 16:186.87904 17:146.28967 18:106.61493 19:80.910467 20:36.14128 21:24.120138 22:15.695818 23:9.4350965 24:7.5242973 25:5.7896762 
1 1:1513779.3 2:2126.6182 3:1897.6272 4:1517.7674 5:1137.5948 6:930.56519 7:862.40261 8:955.893 9:886.78978 10:762.05163 11:532.79804 12:333.8792 13:271.59127 14:283.843 15:249.19136 16:199.16792 17:152.96177 18:98.744272 19:60.341097 20:42.809923 21:32.609006 22:18.231502 23:9.348672 24:3.7973411 25:2.8648884 
1 1:1511953.9 2:1898.124 3:2474.7119 4:2078.7936 5:1090.6192 6:1160.1022 7:1042.5659 8:749.89767 9:941.03289 10:836.97524 11:528.48808 12:445.46841 13:362.61437 14:331.0916 15:262.90031 16:151.42499 17:77.004093 18:91.253032 19:84.870252 20:47.109793 21:27.79566 22:19.917949 23:11.367383 24:7.3452058 25:6.4125506 
1 1:1511147.6 2:2102.5664 3:1936.7077 4:1733.0387 5:1401.3412 6:1264.6137 7:1090.1975 8:1011.4781 9:927.84684 10:666.50091 11:427.81632 12:415.04619 13:387.61479 14:317.74877 15:289.75138 16:221.62042 17:149.2451 18:85.697281 19:70.442066 20:48.586257 21:38.506344 22:20.236631 23:13.231946 24:11.662843 25:9.6343778 
1 1:1507317.4 2:1840.8433 3:2472.3563 4:1894.6003 5:1106.4975 6:994.98053 7:861.13533 8:867.91327 9:923.1494 10:821.20014 11:469.11516 12:357.91323 13:306.05967 14:228.06139 15:286.14317 16:193.12614 17:88.621055 18:89.076002 19:61.474091 20:49.90339 21:37.880726 22:23.605731 23:17.657749 24:12.549321 25:12.48317 
1 1:1508674.7 2:2076.8873 3:2104.0787 4:1668.2564 5:1022.2559 6:714.98616 7:726.3942 8:636.69873 9:648.824 10:635.00863 11:420.46851 12:327.14262 13:384.99823 14:306.51024 15:245.97522 16:218.16206 17:103.44426 18:77.016752 19:59.072771 20:39.524894 21:23.612144 22:11.545495 23:13.117505 24:11.943201 25:9.7372407 
1 1:1512300.6 2:2509.7436 3:1670.5571 4:1521.7627 5:1022.4502 6:651.76465 7:720.97126 8:772.5969 9:846.39282 10:719.51102 11:473.91577 12:427.38069 13:333.99238 14:244.61781 15:198.1059 16:121.92406 17:97.366767 18:95.595477 19:60.160799 20:32.638403 21:25.181545 22:17.982727 23:11.244173 24:6.043707 25:3.6483439 
1 1:1511211.4 2:2559.2302 3:1804.5141 4:1783.8361 5:1433.6446 6:994.96656 7:950.08245 8:910.31341 9:881.56499 10:791.36906 11:506.41319 12:378.08956 13:303.31444 14:277.22365 15:273.48222 16:221.06469 17:124.51374 18:103.66908 19:82.003856 20:48.548827 21:34.760088 22:14.273111 23:6.3402988 24:5.6344021 25:4.5757825 
1 1:1510029.3 2:2204.1704 3:2202.0987 4:1676.3421 5:1268.4336 6:1099.75 7:896.19953 8:1118.1695 9:1069.1751 10:760.37218 11:589.79205 12:452.29893 13:373.8266 14:351.05504 15:263.98452 16:151.72619 17:145.05434 18:119.19489 19:59.529799 20:42.661228 21:30.335596 22:14.283445 23:6.2620878 24:4.802177 25:3.388755 
1 1:1508201.9 2:1911.0505 3:1869.8599 4:1886.9423 5:1440.9426 6:1135.2708 7:809.82607 8:589.96424 9:714.07343 10:666.29594 11:378.65373 12:250.78806 13:248.69436 14:298.44889 15:253.55968 16:211.13522 17:157.23334 18:117.71098 19:78.752645 20:32.151575 21:23.361414 22:19.120976 23:9.7829677 24:5.9081946 25:4.2270232 
1 1:1508206.6 2:1462.099 3:1486.1007 4:1729.4036 5:1214.9625 6:873.63211 7:760.22828 8:744.39765 9:950.48215 10:1027.3523 11:735.36837 12:374.0804 13:311.59187 14:297.01145 15:222.82622 16:187.01417 17:142.46484 18:88.204316 19:58.507604 20:43.131925 21:36.68287 22:20.309153 23:11.215089 24:6.1522646 25:4.8323075 
1 1:1507623.3 2:1811.9511 3:1721.171 4:1672.7549 5:1280.0176 6:1102.5362 7:1172.4785 8:1066.1011 9:987.87434 10:838.80641 11:491.51464 12:317.34408 13:281.6092 14:293.51526 15:284.58867 16:248.04762 17:179.2979 18:139.70114 19:93.923761 20:53.771431 21:28.999227 22:17.435523 23:11.176844 24:7.7848063 25:7.4617428 
1 1:1508988.8 2:2228.3864 3:2049.1162 4:1429.1137 5:1132.7019 6:969.13403 7:868.72794 8:964.31426 9:1074.1375 10:962.96873 11:550.06348 12:420.57391 13:386.26504 14:349.9203 15:303.43917 16:203.22583 17:119.64446 18:83.846163 19:53.92767 20:38.667681 21:29.660594 22:24.491471 23:15.78985 24:12.210788 25:10.691241 
1 1:1510710.4 2:1628.8987 3:1729.6656 4:1992.44 5:1750.7076 6:1266.9166 7:771.84244 8:864.80923 9:1020.1822 10:785.02914 11:441.03072 12:255.65391 13:200.23181 14:300.05278 15:324.49517 16:268.56843 17:176.61333 18:138.2437 19:83.955305 20:34.655245 21:32.084805 22:17.392945 23:8.1148309 24:5.912702 25:6.1921521 
1 1:1511089.4 2:1712.1962 3:2169.4843 4:1958.9259 5:852.11162 6:904.84928 7:825.49525 8:712.52913 9:767.44121 10:618.8659 11:400.22174 12:334.3869 13:310.62627 14:271.86797 15:251.94533 16:170.96155 17:121.44007 18:101.9624 19:69.770217 20:40.942022 21:32.548949 22:19.943497 23:6.9711504 24:4.1317392 25:1.895993 
1 1:1511082.4 2:2440.5871 3:2082.0318 4:1705.2884 5:1347.5503 6:1325.3314 7:934.29636 8:607.30647 9:693.26883 10:648.87618 11:646.1877 12:598.08257 13:323.65262 14:257.32413 15:301.23314 16:220.67213 17:120.97412 18:100.51269 19:81.257029 20:63.582932 21:35.286619 22:13.545424 23:8.9363283 24:6.8613549 25:6.5748555 
1 1:1506830.7 2:1910.342 3:1666.7727 4:1226.8259 5:1007.2658 6:1138.8514 7:848.45983 8:614.26862 9:751.87978 10:783.38425 11:440.44467 12:344.91889 13:322.8299 14:236.69818 15:232.07168 16:198.72875 17:131.31637 18:112.9751 19:87.116972 20:42.336171 21:26.670491 22:16.273627 23:9.2205492 24:7.7291269 25:6.1992986 
1 1:1508059.3 2:1682.9663 3:1586.8465 4:1183.2873 5:1236.162 6:1463.9106 7:1059.7791 8:762.68574 9:806.96553 10:596.27218 11:488.97033 12:399.09293 13:225.90046 14:195.31874 15:255.03306 16:234.62849 17:113.74268 18:90.688496 19:63.36914 20:30.777558 21:32.714776 22:20.865864 23:7.959266 24:5.3052468 25:3.5708078 
1 1:1507961.8 2:1573.2618 3:1748.6011 4:1468.9771 5:1084.9057 6:1101.5178 7:816.91275 8:964.84009 9:1064.3171 10:738.96539 11:511.42089 12:404.52538 13:290.19894 14:308.55057 15:277.03041 16:246.68815 17:174.24056 18:80.821991 19:56.580536 20:46.208862 21:21.023505 22:11.272939 23:9.0347136 24:5.1712749 25:3.4142182 
1 1:1507287 2:1845.5245 3:1690.9138 4:1426.9194 5:913.14346 6:985.64452 7:898.78483 8:1008.0638 9:1141.7117 10:730.43164 11:425.4977 12:372.7032 13:391.3948 14:345.52089 15:233.80852 16:181.19862 17:120.05785 18:105.70948 19:93.719164 20:50.726425 21:20.75684 22:13.997591 23:10.410964 24:5.6951879 25:2.8927975 
1 1:1504591.3 2:1363.9745 3:1646.199 4:1453.8868 5:843.88252 6:614.17605 7:622.81443 8:588.10175 9:564.02941 10:561.0287 11:516.0923 12:425.14584 13:351.01252 14:297.74091 15:288.53625 16:221.69696 17:95.695982 18:83.055796 19:69.647036 20:43.317477 21:30.756468 22:20.276392 23:8.0517885 24:6.374099 25:2.7460636 
1 1:1506761.4 2:2115.2827 3:2052.4223 4:1475.2855 5:1066.2608 6:842.99878 7:930.45665 8:902.58081 9:871.52217 10:936.46959 11:560.25293 12:267.42441 13:281.45131 14:283.40928 15:209.1639 16:167.68101 17:143.58687 18:123.64652 19:79.955924 20:30.785069 21:15.89599 22:12.934434 23:8.0695733 24:7.5548477 25:5.6758725 
1 1:1508476.5 2:2185.1573 3:1368.8853 4:1233.802 5:799.42044 6:722.7094 7:650.64984 8:637.85432 9:745.82263 10:773.07528 11:473.59626 12:328.05154 13:329.01097 14:280.04769 15:260.39124 16:184.40362 17:131.15276 18:106.98062 19:64.440867 20:44.732473 21:33.413112 22:20.456574 23:13.815295 24:10.497129 25:8.145741 
1 1:1506742.2 2:1321.8394 3:1853.8031 4:1628.5732 5:1059.3013 6:808.17224 7:586.47922 8:603.91519 9:836.88732 10:666.08622 11:371.49262 12:335.14094 13:318.6574 14:248.27347 15:245.70909 16:206.78392 17:125.11178 18:92.674381 19:61.310065 20:54.733153 21:36.882698 22:19.218497 23:11.735332 24:5.8656618 25:2.4481981 
1 1:1506291.8 2:1726.1787 3:1841.2004 4:1611.0524 5:1225.6 6:968.89268 7:988.55754 8:973.03703 9:765.58118 10:578.77596 11:447.7051 12:374.0783 13:274.59207 14:241.71271 15:242.76502 16:155.15034 17:89.168983 18:73.723492 19:54.400355 20:37.896793 21:23.925283 22:15.800965 23:9.5991454 24:12.241952 25:12.398798 
1 1:1507780.8 2:2003.9219 3:1801.7138 4:1543.5952 5:831.53439 6:639.12055 7:590.09668 8:701.09021 9:685.85549 10:641.26388 11:640.44896 12:451.67717 13:286.81493 14:240.8765 15:194.42982 16:161.89678 17:123.97508 18:103.39887 19:70.33134 20:48.112627 21:23.28268 22:11.016744 23:8.1370757 24:5.2513735 25:2.6702684 
1 1:1506494.8 2:1712.7738 3:1873.9164 4:1664.3802 5:1116.6532 6:1091.9208 7:786.39495 8:610.93564 9:925.30106 10:887.55701 11:517.72212 12:331.39305 13:329.19006 14:358.60394 15:257.82541 16:191.52363 17:160.29923 18:122.98895 19:87.39933 20:58.875425 21:31.423375 22:18.88747 23:9.0107476 24:4.8072561 25:1.9717482 
1 1:1506293.4 2:1204.2256 3:1654.6127 4:1877.9854 5:1127.2758 6:944.55993 7:995.38752 8:889.04023 9:1059.6887 10:946.95974 11:648.31654 12:525.30001 13:360.25197 14:273.01759 15:197.5201 16:184.55464 17:123.25212 18:90.400543 19:65.882887 20:32.089928 21:20.438969 22:17.048074 23:6.1053257 24:2.9731421 25:2.8932363 
1 1:1506235.2 2:1818.473 3:2080.3194 4:1541.0524 5:1145.0263 6:991.69303 7:955.91294 8:774.57644 9:790.07471 10:768.04941 11:450.25617 12:333.45132 13:258.12019 14:178.208 15:179.61398 16:164.13623 17:110.8851 18:100.14946 19:73.21717 20:41.232395 21:24.174829 22:11.318616 23:9.7755921 24:9.3931355 25:6.7653415 
1 1:1507588.7 2:1946.7224 3:1879.8708 4:1633.1533 5:1007.7125 6:821.42359 7:720.39169 8:691.12217 9:895.70937 10:727.02685 11:407.23029 12:382.50765 13:321.90394 14:268.77539 15:252.748 16:187.87 17:107.28058 18:95.870365 19:73.950935 20:44.686863 21:31.078962 22:17.725069 23:7.4699047 24:4.5332513 25:2.7548803 
1 1:1509399.2 2:1513.0271 3:1537.6321 4:1541.4889 5:1026.7726 6:701.55989 7:696.43575 8:733.02104 9:733.1705 10:659.14642 11:508.24962 12:415.25034 13:310.7513 14:277.58119 15:281.63855 16:252.65424 17:174.76182 18:92.272848 19:63.403639 20:50.885006 21:27.449233 22:18.235384 23:11.92549 24:5.863298 25:2.7997364 
1 1:1509548.8 2:1778.9742 3:1868.9762 4:1553.7933 5:788.00547 6:1106.5565 7:976.54125 8:723.86947 9:910.49196 10:667.74325 11:410.4431 12:422.2795 13:372.57625 14:254.86593 15:256.4136 16:246.07091 17:146.37449 18:72.365703 19:54.574206 20:46.021432 21:27.420957 22:15.873928 23:7.0610459 24:4.9501289 25:3.0398302 
1 1:1507405.7 2:1486.5811 3:1577.3983 4:1477.4138 5:995.63093 6:898.04026 7:699.72226 8:685.72871 9:921.10644 10:736.84101 11:629.12106 12:488.88283 13:309.41189 14:361.84532 15:271.94174 16:197.78773 17:129.02506 18:79.682599 19:51.927846 20:46.109957 21:27.441888 22:17.014676 23:12.017597 24:6.158609 25:5.7012857 
1 1:1509370.5 2:1649.4616 3:2128.3481 4:1933.4836 5:1184.7291 6:776.7152 7:1009.0454 8:1086.887 9:871.64746 10:796.49099 11:614.29126 12:521.24843 13:360.85282 14:278.11829 15:258.00768 16:195.35597 17:118.79534 18:73.008417 19:57.151438 20:40.996268 21:25.946402 22:23.082049 23:15.492739 24:12.276243 25:8.2643382 
1 1:1510287.1 2:1367.5601 3:2056.0196 4:1788.2693 5:1040.7592 6:924.52374 7:984.59429 8:958.72365 9:955.30515 10:910.71889 11:608.45969 12:452.91376 13:294.75696 14:275.24031 15:248.83813 16:208.08628 17:170.14394 18:94.193983 19:73.660326 20:58.488139 21:33.498207 22:18.868964 23:13.008253 24:9.2215516 25:8.3217203 
1 1:1511095.5 2:1270.2614 3:1140.8452 4:1382.9546 5:948.99771 6:687.35569 7:665.66056 8:831.77277 9:942.2053 10:598.34032 11:395.02463 12:417.01498 13:333.16945 14:259.24623 15:258.59913 16:232.22276 17:161.62591 18:143.28232 19:107.15267 20:34.123087 21:26.392861 22:16.31183 23:8.4669549 24:5.7100393 25:4.29258 
1 1:1510984.5 2:1627.8031 3:2048.7436 4:1910.6967 5:997.09872 6:619.3841 7:669.16867 8:783.76242 9:991.63521 10:691.22059 11:460.24766 12:502.67 13:353.79236 14:246.74396 15:169.90115 16:154.45513 17:165.82101 18:115.5657 19:65.907769 20:35.62491 21:25.609771 22:18.824953 23:13.189511 24:9.7534307 25:9.9361619 
1 1:1512919.8 2:1359.007 3:1862.1095 4:1956.4502 5:1396.5335 6:1096.736 7:735.61806 8:766.70062 9:918.96495 10:768.96625 11:466.56739 12:443.26916 13:335.90478 14:295.58545 15:278.67272 16:143.59875 17:125.5606 18:91.419989 19:55.279358 20:54.718013 21:31.163354 22:13.556469 23:6.6549394 24:4.9276286 25:2.6682828 
1 1:1512039.2 2:1888.1231 3:1691.9358 4:1591.4215 5:998.77864 6:719.54531 7:778.95354 8:687.32776 9:782.31831 10:750.59756 11:468.77902 12:435.89677 13:394.84747 14:313.03827 15:235.36821 16:193.12083 17:135.89391 18:66.727733 19:41.44129 20:33.822329 21:32.576949 22:21.999398 23:10.106389 24:8.1679026 25:8.9126947 
1 1:1512199.6 2:1716.1371 3:1206.9499 4:1067.2964 5:972.32333 6:1016.8258 7:715.19398 8:698.05642 9:839.28658 10:842.82306 11:537.19351 12:323.90709 13:389.44853 14:345.4664 15:215.96296 16:173.23602 17:118.00674 18:114.16281 19:89.003986 20:49.009342 21:29.958824 22:16.907549 23:13.062907 24:12.000167 25:9.605016 
1 1:1513831.5 2:2320.0958 3:2017.7873 4:1308.1024 5:844.75321 6:984.45189 7:959.52561 8:909.09989 9:937.82816 10:768.01367 11:486.13858 12:358.5606 13:287.81645 14:235.93921 15:193.23498 16:211.63961 17:150.03364 18:81.842047 19:65.130433 20:57.085503 21:33.675263 22:18.774851 23:12.633089 24:8.3659263 25:7.9943678 
1 1:1516957.4 2:1253.2635 3:1752.9596 4:1740.2462 5:930.17158 6:790.56916 7:826.37769 8:666.105 9:818.34427 10:779.47231 11:545.03033 12:495.36272 13:478.61665 14:345.76031 15:233.98146 16:172.62173 17:105.60556 18:73.614985 19:70.407896 20:63.167126 21:29.799572 22:15.872752 23:9.6141185 24:5.6565721 25:2.348924 
1 1:1516074.6 2:1660.6873 3:2090.6958 4:1636.9144 5:1016.9517 6:1032.7239 7:1241.6147 8:1015.8108 9:776.31558 10:863.10474 11:505.30495 12:357.15875 13:297.92886 14:298.47197 15:280.31849 16:180.62532 17:136.16321 18:101.74088 19:71.387129 20:60.40449 21:40.313358 22:21.337042 23:9.7584806 24:3.869136 25:3.27099 
1 1:1514463.8 2:1669.3214 3:2169.5825 4:1836.5051 5:1079.6783 6:1088.4053 7:1175.8868 8:1169.0768 9:824.90094 10:590.81837 11:643.90742 12:579.7457 13:394.78831 14:252.33046 15:221.0695 16:201.08197 17:130.06771 18:84.279427 19:71.169831 20:45.50576 21:30.635603 22:21.548147 23:9.7347924 24:6.3341797 25:5.6174623 
1 1:1515496.2 2:1617.563 3:1315.9492 4:1404.0423 5:1320.8647 6:1020.3135 7:788.1246 8:838.67275 9:877.94634 10:740.63807 11:535.7999 12:368.79644 13:330.07905 14:278.56696 15:272.86969 16:252.9311 17:150.28964 18:85.898978 19:78.996576 20:59.626723 21:39.409835 22:23.322814 23:9.1268734 24:3.98103 25:3.5522425 
1 1:1514978.7 2:1581.2181 3:1656.7904 4:1554.0596 5:1159.583 6:1110.7718 7:685.76718 8:612.22189 9:858.36445 10:736.35393 11:448.88156 12:463.40384 13:346.74175 14:264.5098 15:216.82891 16:179.69476 17:153.97078 18:97.683963 19:67.453032 20:49.782646 21:22.804962 22:15.448156 23:14.612443 24:10.289691 25:7.2054046 
1 1:1517485.5 2:3175.6593 3:2345.6688 4:1951.9033 5:1221.183 6:1004.1225 7:882.54529 8:553.27828 9:840.70461 10:775.37916 11:482.6626 12:398.24327 13:300.67184 14:365.08736 15:300.25586 16:157.32199 17:106.28942 18:91.874323 19:66.083082 20:57.589529 21:31.24916 22:15.616867 23:8.6498374 24:3.6952365 25:3.6516583 
1 1:1517088.6 2:2922.8722 3:2080.6611 4:2090.5598 5:1437.807 6:1323.3174 7:1233.2493 8:941.38499 9:980.08991 10:901.09371 11:588.23015 12:411.92296 13:300.86133 14:298.00964 15:249.13035 16:210.52127 17:143.65049 18:95.877383 19:67.476972 20:52.884509 21:39.815515 22:22.011618 23:8.531454 24:4.5620794 25:2.2552301 
1 1:1514921 2:3417.7547 3:2256.9803 4:1608.0924 5:1068.162 6:841.31851 7:885.23269 8:777.44013 9:1001.9815 10:1044.6425 11:605.18709 12:396.24321 13:311.22658 14:346.5419 15:334.91551 16:222.47228 17:152.44804 18:115.68266 19:65.009269 20:38.217853 21:26.459142 22:16.64626 23:14.17164 24:9.8087823 25:7.8210283 
1 1:1515342.8 2:3270.2991 3:2171.4021 4:1873.2442 5:1445.4467 6:1193.1808 7:914.31064 8:815.66002 9:883.10342 10:727.14308 11:385.8839 12:337.70884 13:367.90251 14:259.62138 15:280.06131 16:279.42476 17:141.45892 18:100.31788 19:65.944642 20:50.750472 21:33.610312 22:17.833307 23:10.178403 24:4.988215 25:4.4007805 
1 1:1513948 2:3691.733 3:1874.4092 4:918.4451 5:803.77265 6:967.39739 7:919.49639 8:795.14361 9:737.96138 10:785.2472 11:673.62788 12:363.5769 13:305.17681 14:385.19937 15:281.10807 16:204.04481 17:182.95992 18:154.4867 19:88.850141 20:45.002758 21:29.492122 22:22.475997 23:16.896689 24:12.283439 25:11.906927 
1 1:1512068.7 2:2670.7964 3:2097.5121 4:1586.4214 5:1141.5331 6:1117.6635 7:843.10399 8:784.09452 9:978.18663 10:926.59137 11:619.42791 12:544.27334 13:517.79411 14:365.91019 15:255.66253 16:188.11371 17:132.53205 18:82.706017 19:66.239595 20:46.637058 21:25.202199 22:12.836189 23:11.356226 24:5.9070848 25:3.0121178 
1 1:1513507.5 2:1862.9502 3:1802.2402 4:1998.4897 5:1358.043 6:1042.8708 7:929.5768 8:699.25524 9:800.08995 10:757.77192 11:489.07241 12:390.00768 13:366.48674 14:377.07669 15:307.17981 16:174.69547 17:116.33569 18:116.40499 19:64.541064 20:44.40883 21:38.412088 22:20.829447 23:9.805481 24:7.6724766 25:8.8358829 
1 1:1515647.6 2:2965.112 3:1968.7565 4:1810.4764 5:1249.1898 6:798.48751 7:671.95458 8:554.74476 9:570.33772 10:642.25731 11:497.58996 12:329.88997 13:294.83142 14:303.7137 15:308.70358 16:257.21777 17:143.41641 18:126.01745 19:90.765437 20:49.421883 21:26.296358 22:15.09431 23:7.1014092 24:3.7167266 25:3.1384708 
1 1:1512928.6 2:2756.7902 3:2172.0447 4:1517.2537 5:1078.4394 6:1024.5581 7:954.4833 8:656.27923 9:648.18233 10:622.77818 11:416.73946 12:365.97152 13:268.7516 14:174.42206 15:182.53805 16:182.75193 17:148.34444 18:108.76321 19:66.265158 20:40.726114 21:31.239325 22:18.251489 23:12.668192 24:10.562808 25:6.7501781 
1 1:1511269.6 2:2186.886 3:1540.0259 4:1443.6098 5:1217.0399 6:978.84936 7:684.25435 8:648.32471 9:776.02868 10:641.61344 11:454.4328 12:382.29109 13:423.57305 14:384.18813 15:262.33305 16:277.79485 17:171.36361 18:91.998344 19:62.405937 20:41.880443 21:28.016371 22:17.59813 23:11.851988 24:6.8422549 25:5.4547028 
1 1:1511154.3 2:2199.8669 3:2156.2712 4:2001.2501 5:1405.9246 6:1084.9723 7:608.26135 8:542.29945 9:678.61399 10:661.31606 11:512.29317 12:337.16914 13:307.24152 14:272.60838 15:211.3077 16:177.31121 17:126.90396 18:87.137861 19:61.51157 20:36.428093 21:26.725462 22:17.630625 23:11.612303 24:10.127036 25:8.9105493 
1 1:1512472 2:3585.7183 3:2808.6065 4:2135.7719 5:1133.9135 6:965.87839 7:830.52012 8:640.20065 9:616.71275 10:511.78372 11:451.12799 12:411.55629 13:352.24153 14:285.3961 15:184.89956 16:145.1751 17:125.39635 18:103.16014 19:63.21241 20:49.48492 21:27.970825 22:16.167868 23:7.6062252 24:4.4297193 25:3.6820853 
1 1:1511127.8 2:1919.959 3:2017.7293 4:1912.0637 5:1261.7842 6:851.80718 7:619.54129 8:538.46577 9:636.44108 10:633.64499 11:414.49317 12:303.02045 13:271.45702 14:303.84038 15:285.77187 16:199.54501 17:131.59234 18:103.8425 19:74.956659 20:53.257038 21:35.777764 22:14.995066 23:6.6157407 24:4.69258 25:2.8866587 
1 1:1511983.3 2:1771.3182 3:1905.6945 4:1375.5613 5:722.95814 6:690.0677 7:569.13162 8:493.13153 9:626.29484 10:530.97995 11:297.48237 12:310.24915 13:242.38536 14:195.31994 15:233.77519 16:187.18582 17:114.18571 18:82.321915 19:62.723631 20:44.447812 21:30.316329 22:19.374998 23:8.067451 24:5.4598926 25:6.4403223 
1 1:1514041.3 2:2145.4018 3:1732.2255 4:1646.0861 5:1092.0066 6:755.18455 7:642.5244 8:548.8171 9:597.1888 10:650.25073 11:499.89241 12:406.81499 13:355.11627 14:371.64959 15:261.91341 16:188.45143 17:157.58725 18:114.82927 19:74.036637 20:41.397669 21:29.451605 22:21.49922 23:11.921331 24:5.3821264 25:3.2783962 
1 1:1513212.3 2:2359.758 3:1570.8942 4:1126.3541 5:1224.679 6:1005.9452 7:824.36611 8:848.83283 9:731.82514 10:563.78719 11:379.72826 12:331.23645 13:341.59823 14:295.5018 15:272.17292 16:243.81605 17:161.11007 18:118.33403 19:72.131781 20:37.812949 21:27.777028 22:17.403577 23:9.6276605 24:4.7968942 25:3.6731594 
1 1:1512288 2:1652.5983 3:1761.7433 4:1508.7119 5:1207.6927 6:1079.6748 7:891.80925 8:780.19643 9:653.43564 10:513.29842 11:335.7592 12:333.69699 13:395.86937 14:395.04791 15:252.9037 16:178.00074 17:129.85867 18:99.070947 19:66.231101 20:33.860615 21:34.115337 22:20.843994 23:7.554096 24:3.5003138 25:2.3932622 
1 1:1512603.2 2:2064.3367 3:1991.3521 4:1632.0634 5:1035.0599 6:747.67978 7:685.90616 8:621.25828 9:658.9817 10:718.43211 11:505.97141 12:451.32573 13:315.0762 14:215.66 15:201.59485 16:183.76899 17:160.22247 18:106.22179 19:56.510795 20:33.677737 21:26.731472 22:19.853025 23:9.6418183 24:2.2806088 25:1.3910881 
1 1:1511327.4 2:2132.4219 3:2311.245 4:1579.6566 5:853.76027 6:788.11227 7:854.58974 8:736.51357 9:776.95961 10:818.45807 11:547.37027 12:476.77911 13:390.74873 14:280.32975 15:267.59668 16:210.66138 17:145.21358 18:113.46619 19:75.376872 20:50.841214 21:29.887611 22:20.210221 23:8.3821956 24:6.7302147 25:7.2525147 
1 1:1511946.6 2:2296.9509 3:1889.5385 4:1500.6218 5:1192.6 6:930.18345 7:716.52124 8:700.86273 9:934.09188 10:784.75168 11:462.24265 12:382.65079 13:317.4159 14:340.27662 15:293.83409 16:206.71983 17:122.57517 18:100.91093 19:62.334338 20:45.003383 21:27.563323 22:14.647093 23:7.9058264 24:5.1743813 25:3.440512 
1 1:1513293.3 2:2605.5439 3:1320.8798 4:1602.348 5:1258.6248 6:1038.5666 7:878.64792 8:724.20919 9:851.59514 10:879.57949 11:588.49283 12:416.72175 13:342.55865 14:325.92911 15:284.40715 16:179.42295 17:91.673723 18:70.55124 19:52.262395 20:35.80212 21:21.576629 22:13.763824 23:11.764406 24:10.49804 25:7.4590111 
1 1:1513157.3 2:1767.5819 3:1635.2154 4:1585.0812 5:1204.2869 6:1002.22 7:626.86172 8:510.27646 9:700.49891 10:871.59613 11:538.5939 12:343.78618 13:283.60437 14:312.72543 15:326.2895 16:223.93132 17:170.83772 18:111.26519 19:60.647228 20:44.728825 21:22.111621 22:16.005919 23:10.287103 24:5.6045205 25:3.7983937 
1 1:1514299.2 2:1584.9505 3:1646.3252 4:1814.3668 5:1114.1511 6:828.30054 7:752.94028 8:864.08728 9:1002.9662 10:761.3645 11:536.81046 12:417.52915 13:289.76312 14:292.88072 15:230.27659 16:182.16175 17:138.51037 18:117.78537 19:85.611995 20:43.228268 21:32.745053 22:27.847202 23:13.592762 24:10.43928 25:10.526164 
1 1:1516088.1 2:1653.4082 3:1635.5857 4:1658.4409 5:1438.0081 6:812.13264 7:755.82163 8:990.6606 9:1115.3816 10:766.34141 11:448.68232 12:339.20036 13:238.96006 14:239.98067 15:288.5567 16:210.06966 17:100.08898 18:116.82614 19:88.996053 20:47.459104 21:21.665758 22:13.747932 23:10.708308 24:5.6828925 25:3.217759 
1 1:1516424.4 2:2240.1472 3:1783.4646 4:1797.6988 5:1165.3506 6:822.97107 7:752.36356 8:970.31923 9:1040.6395 10:825.92041 11:594.78165 12:444.72031 13:375.45399 14:299.29694 15:184.49846 16:157.44249 17:140.29762 18:116.54831 19:58.943938 20:47.47146 21:40.317174 22:22.248887 23:13.24511 24:5.9211487 25:3.8310127 
1 1:1517549 2:2168.9453 3:1626.1494 4:1465.9109 5:970.22355 6:941.92996 7:1109.7485 8:1133.5827 9:749.84038 10:622.84992 11:427.75043 12:378.57583 13:402.66631 14:324.22287 15:286.48035 16:228.19832 17:161.82549 18:97.440497 19:76.509603 20:58.297152 21:33.909913 22:20.477838 23:7.7146263 24:3.893716 25:2.810063 
1 1:1515766.9 2:2083.4405 3:1750.565 4:1104.4201 5:926.10413 6:1243.125 7:1141.7181 8:813.19402 9:736.15834 10:606.37483 11:562.34928 12:491.86506 13:395.37883 14:366.47987 15:255.63344 16:200.35012 17:145.19661 18:118.32329 19:72.852123 20:47.282928 21:32.949063 22:20.347751 23:10.884023 24:8.2073511 25:7.4713863 
1 1:1516363.6 2:1778.0863 3:1895.8934 4:1803.8014 5:1202.345 6:883.46656 7:789.68685 8:843.40159 9:1011.9934 10:851.4221 11:537.43314 12:388.80287 13:344.37233 14:228.36108 15:220.99936 16:230.74009 17:133.30985 18:105.07726 19:85.542459 20:51.193726 21:27.750595 22:19.086589 23:11.096576 24:7.3366066 25:6.9149302 
1 1:1515316.5 2:1677.5879 3:2062.5132 4:1868.3107 5:1212.283 6:1368.8258 7:1046.7828 8:797.06968 9:1199.0579 10:958.88761 11:443.43934 12:416.01403 13:407.89523 14:302.17327 15:175.51812 16:152.70047 17:124.28512 18:105.58268 19:107.1118 20:53.747473 21:22.275565 22:14.840499 23:8.9862118 24:5.9043384 25:5.3907132 
1 1:1515115.6 2:1845.6181 3:1866.8078 4:1999.3594 5:1416.9118 6:1120.2644 7:730.31263 8:623.30563 9:809.87688 10:731.00824 11:624.81366 12:472.18255 13:298.59646 14:263.64996 15:200.83099 16:194.59661 17:124.34782 18:70.957166 19:63.301887 20:44.025925 21:26.31325 22:17.235948 23:9.5051039 24:4.8771332 25:3.5831712 
1 1:1520557.9 2:2390.3936 3:2164.0408 4:2055.0944 5:1332.7515 6:1266.428 7:1036.8403 8:786.89195 9:810.98022 10:861.57046 11:697.11988 12:387.50857 13:389.2809 14:389.23569 15:360.87452 16:279.11426 17:120.87831 18:107.39026 19:82.818121 20:51.640791 21:32.919244 22:18.663717 23:12.651533 24:10.255742 25:8.959756 
1 1:1518625.4 2:2280.5924 3:2037.9997 4:1657.4501 5:1064.9173 6:972.71057 7:701.59474 8:634.83996 9:934.55383 10:935.33361 11:607.52387 12:402.04825 13:284.90162 14:299.98328 15:229.10572 16:213.88371 17:191.95395 18:106.9102 19:84.517603 20:53.871576 21:38.303856 22:22.664825 23:12.502813 24:7.4332107 25:5.1728549 
1 1:1516332.4 2:2651.5012 3:2171.5989 4:1294.9808 5:899.59715 6:1019.8571 7:1045.6145 8:988.51504 9:1016.0391 10:661.26074 11:287.43332 12:298.33322 13:248.34954 14:235.48269 15:259.50715 16:204.82467 17:163.16538 18:128.31919 19:75.190104 20:42.984478 21:30.125752 22:22.461568 23:10.337799 24:5.4603149 25:3.6566594 
1 1:1515434.2 2:1973.8176 3:2074.0373 4:1823.479 5:1238.5703 6:1197.4017 7:1029.0371 8:728.78927 9:893.88615 10:964.13647 11:526.81358 12:328.49614 13:292.49317 14:328.34807 15:321.68026 16:205.73976 17:149.15359 18:118.77233 19:98.203252 20:49.991974 21:35.500717 22:22.21119 23:10.453893 24:5.7274368 25:5.0679422 
1 1:1516020.1 2:2405.403 3:2587.1884 4:1976.669 5:1181.9483 6:1333.457 7:1422.3113 8:952.48025 9:876.51457 10:903.84368 11:567.36355 12:401.28699 13:412.58997 14:398.96699 15:333.58121 16:284.85517 17:166.4368 18:113.88905 19:81.358985 20:61.681772 21:34.594024 22:19.111962 23:12.490008 24:6.0140324 25:5.5273679 
1 1:1514090.4 2:1685.72 3:2405.4004 4:2343.2577 5:1795.5037 6:2004.6073 7:1781.7297 8:1217.9559 9:1066.5249 10:921.56391 11:869.07102 12:783.78364 13:547.36861 14:475.85508 15:372.76767 16:309.12479 17:207.76586 18:119.04808 19:136.07819 20:94.120384 21:41.886171 22:24.01191 23:13.202677 24:8.8746756 25:8.1430125 
1 1:1513955.7 2:2302.7457 3:2329.9063 4:2347.4248 5:1896.0968 6:1568.8533 7:1526.0931 8:1221.2863 9:1206.0798 10:1131.4499 11:880.49718 12:749.4774 13:716.31253 14:674.49919 15:496.00888 16:339.09044 17:248.35491 18:204.706 19:121.15355 20:62.711676 21:43.953311 22:29.108798 23:18.546518 24:8.0274306 25:7.5491269 
1 1:1515572.4 2:2203.6707 3:2383.1604 4:1679.2984 5:1211.5499 6:1333.6184 7:1353.0109 8:1116.4849 9:846.35853 10:639.66226 11:484.46476 12:653.09424 13:548.34629 14:398.87473 15:399.16748 16:299.76848 17:203.8865 18:147.52235 19:127.96669 20:80.68822 21:40.898848 22:23.128506 23:20.732685 24:18.534919 25:17.588846 
1 1:1521423.6 2:1957.1004 3:2058.7314 4:1821.9607 5:1218.4638 6:1008.2861 7:986.95835 8:982.95116 9:968.6785 10:820.01227 11:549.81777 12:339.68266 13:290.74232 14:350.04688 15:395.4855 16:299.87685 17:190.86937 18:154.21322 19:87.334462 20:53.273269 21:32.4175 22:20.730542 23:11.855761 24:7.8400958 25:8.9337775 
1 1:1521422.7 2:2701.4578 3:2648.8266 4:1786.4653 5:827.28999 6:775.03428 7:1166.7406 8:833.10549 9:639.2358 10:1173.4103 11:1068.5718 12:553.6009 13:398.56925 14:363.12559 15:278.44135 16:305.00411 17:276.52603 18:173.10922 19:96.784499 20:83.449108 21:45.460668 22:23.422704 23:16.09957 24:11.84366 25:9.6339849 
1 1:1518242.4 2:2337.1204 3:2385.0716 4:2428.2885 5:1521.7111 6:1588.7625 7:2059.6069 8:1797.0378 9:1143.1385 10:707.1475 11:593.16382 12:663.30625 13:757.78572 14:715.0347 15:500.98257 16:373.45956 17:322.68818 18:203.99468 19:125.39921 20:94.46853 21:67.876829 22:31.748964 23:14.593269 24:10.00045 25:7.9259809 
1 1:1515894.5 2:3269.9407 3:3024.4545 4:2117.3985 5:1678.1223 6:1523.2102 7:1411.2189 8:1247.4286 9:1370.2518 10:1313.0448 11:1005.4571 12:721.0258 13:570.28317 14:516.54266 15:493.92796 16:361.02025 17:258.32893 18:205.38854 19:134.93987 20:69.31976 21:39.419248 22:33.60354 23:18.741822 24:8.2735227 25:6.6176638 
1 1:1517103.1 2:1950.1427 3:2257.4477 4:1955.6659 5:1399.9974 6:897.6915 7:637.80182 8:856.2523 9:921.96693 10:647.73288 11:553.57544 12:534.32181 13:441.44445 14:323.61414 15:362.38517 16:278.35005 17:197.61542 18:160.00937 19:102.72712 20:73.786891 21:46.280092 22:18.806519 23:9.4980967 24:6.951141 25:3.4750231 
1 1:1517445.3 2:1631.8767 3:1525.8771 4:1361.0197 5:943.98589 6:672.74892 7:521.77747 8:688.84266 9:843.71267 10:673.68908 11:517.7215 12:403.27429 13:296.52065 14:278.51107 15:312.8242 16:243.27208 17:151.75127 18:95.149991 19:58.755873 20:42.643746 21:34.868796 22:24.961622 23:12.886716 24:3.8186054 25:2.265212 
1 1:1517609.1 2:1955.8382 3:1855.5966 4:1705.9323 5:1199.4929 6:1014.5449 7:852.78066 8:809.60459 9:868.96841 10:794.91145 11:686.55048 12:554.21458 13:322.40625 14:214.76517 15:261.37349 16:223.57111 17:136.30565 18:89.384626 19:58.101926 20:37.211791 21:30.750443 22:18.566071 23:10.085474 24:5.5911093 25:2.8982569 
1 1:1515213.5 2:1902.1615 3:1920.0845 4:1669.2685 5:1106.5642 6:1044.904 7:917.62309 8:759.26532 9:838.6968 10:631.01348 11:465.28857 12:313.51234 13:352.42249 14:399.07236 15:300.61726 16:234.25764 17:127.77587 18:103.64277 19:65.587217 20:50.702885 21:34.133617 22:19.434083 23:8.771634 24:5.0260988 25:3.5145828 
1 1:1515797 2:1225.7484 3:1646.7515 4:1656.0241 5:951.79718 6:838.89347 7:857.0107 8:824.20206 9:741.77962 10:660.09641 11:472.74931 12:283.51353 13:188.27414 14:226.66088 15:232.53188 16:207.83439 17:166.15612 18:103.79321 19:76.631232 20:55.995077 21:30.728802 22:13.71798 23:9.0785943 24:4.0643758 25:2.7485467 
1 1:1516363.5 2:1857.0922 3:1926.9165 4:1209.2273 5:779.91944 6:949.62914 7:977.39717 8:914.76105 9:814.26896 10:579.46218 11:340.79047 12:319.83334 13:245.42485 14:211.0133 15:266.55119 16:250.88823 17:118.48292 18:75.650855 19:55.821626 20:45.161738 21:35.355181 22:20.483744 23:10.717988 24:6.1140703 25:4.9638823 
1 1:1514001.8 2:1586.4005 3:1768.3639 4:1440.2705 5:943.75683 6:701.74248 7:551.38528 8:497.16621 9:568.27063 10:593.76718 11:429.83015 12:336.27239 13:264.8599 14:228.71346 15:215.68761 16:172.2863 17:120.7385 18:90.671458 19:78.830648 20:51.633417 21:15.697838 22:9.6190346 23:8.3968477 24:8.8963176 25:7.1775372 
1 1:1513373 2:1202.3389 3:1106.7826 4:1226.076 5:957.42833 6:683.90424 7:614.20542 8:604.57696 9:671.011 10:651.52861 11:421.53322 12:297.45097 13:273.32247 14:231.93445 15:224.79545 16:199.31547 17:131.06765 18:76.563383 19:61.994146 20:40.545278 21:23.969751 22:11.11662 23:6.8693957 24:2.9725203 25:2.1354184 
1 1:1512256.4 2:1357.1969 3:1547.8013 4:1257.3532 5:965.54528 6:746.56596 7:611.67599 8:640.58531 9:730.39637 10:663.67558 11:448.77614 12:345.81051 13:273.66887 14:224.73412 15:167.27504 16:211.5877 17:158.7503 18:91.831698 19:78.024678 20:51.665824 21:24.759995 22:12.737463 23:8.0214569 24:5.5728412 25:4.638719 
1 1:1512519 2:1785.5806 3:1373.8629 4:1194.7573 5:1017.4348 6:734.76614 7:560.00431 8:533.56068 9:784.17109 10:806.95089 11:446.12601 12:279.60211 13:300.71214 14:279.84794 15:234.49178 16:172.30266 17:94.437585 18:85.062298 19:63.823659 20:32.707029 21:24.038077 22:15.864103 23:6.8695463 24:3.6995296 25:2.3896801 
1 1:1513912.9 2:1666.1081 3:1814.4115 4:1435.8147 5:920.70902 6:758.05096 7:782.7044 8:858.68904 9:863.0645 10:781.38697 11:476.92651 12:234.81118 13:218.48562 14:269.42505 15:293.7377 16:258.42859 17:137.48291 18:103.14876 19:80.870711 20:50.750333 21:34.206281 22:20.341448 23:10.985081 24:9.1647904 25:6.5633975 
1 1:1512627.4 2:1854.2337 3:1574.0769 4:1407.0117 5:1148.2316 6:835.7223 7:641.06187 8:580.05051 9:684.56216 10:617.83301 11:368.43144 12:322.31444 13:248.71031 14:242.37443 15:249.57904 16:178.87945 17:115.41465 18:111.46859 19:95.674616 20:62.175921 21:30.834546 22:13.796196 23:9.2606119 24:5.5573442 25:3.243106 
1 1:1510930.2 2:1699.9407 3:1446.1325 4:1269.4354 5:1012.4593 6:1077.6187 7:689.93135 8:511.71123 9:630.30562 10:605.42196 11:417.37402 12:295.06447 13:305.75476 14:268.126 15:251.09486 16:206.71846 17:124.00057 18:72.204526 19:55.29924 20:47.213428 21:30.637814 22:16.317371 23:11.293674 24:12.511027 25:11.281406 
1 1:1511160.8 2:1664.6339 3:1821.1724 4:1714.6623 5:819.27814 6:645.6101 7:695.84305 8:822.37526 9:778.13533 10:482.96318 11:293.13426 12:272.41238 13:323.25155 14:248.79536 15:200.67227 16:184.53942 17:109.48675 18:79.347088 19:51.424434 20:27.018007 21:27.415214 22:23.082225 23:12.261162 24:8.7636784 25:7.5946349 
1 1:1515248.7 2:1780.2634 3:1789.8764 4:1330.5443 5:844.15643 6:813.6896 7:595.85278 8:448.54912 9:624.06287 10:516.7414 11:272.56854 12:217.33628 13:204.92498 14:230.04238 15:208.81272 16:165.98112 17:134.73992 18:98.297676 19:48.239669 20:36.832081 21:22.182003 22:13.585418 23:13.044607 24:9.1479712 25:7.2827518 
1 1:1514213.5 2:1441.974 3:1748.2571 4:1516.6969 5:799.28373 6:964.38072 7:820.76865 8:571.82056 9:655.23931 10:509.05809 11:347.6382 12:431.33688 13:398.54663 14:209.80108 15:201.22538 16:213.56636 17:127.47084 18:77.423779 19:74.221659 20:41.484108 21:26.19073 22:21.052376 23:10.303851 24:7.8272995 25:9.3904568 
1 1:1513811.7 2:1753.5265 3:1569.4637 4:1292.3263 5:799.99317 6:608.11427 7:603.75312 8:591.944 9:619.12423 10:528.90311 11:361.72174 12:315.99217 13:336.74443 14:293.85928 15:230.32428 16:156.85346 17:113.16798 18:82.113464 19:61.818989 20:42.82204 21:28.498492 22:18.377418 23:9.4459667 24:7.9890823 25:8.9416486 
1 1:1515138.6 2:1676.3878 3:1639.3942 4:1363.5177 5:744.91218 6:553.71177 7:599.98722 8:511.71406 9:568.95498 10:575.63184 11:419.79469 12:288.2025 13:241.08147 14:250.84178 15:174.95242 16:135.49994 17:108.19323 18:76.509915 19:71.342711 20:41.974285 21:20.380767 22:15.747889 23:6.5801234 24:4.1609497 25:3.1484735 
1 1:1514436.6 2:1681.6653 3:2123.9681 4:1924.6955 5:1052.0832 6:746.13322 7:607.70683 8:525.76 9:712.36468 10:625.19407 11:339.95691 12:314.31837 13:309.22217 14:242.4781 15:198.03263 16:176.96825 17:110.78199 18:77.840293 19:65.713972 20:43.14144 21:25.049218 22:16.12376 23:7.5751149 24:3.8869019 25:2.3651691 
1 1:1517787.9 2:1538.5088 3:1134.7027 4:1357.7089 5:953.99275 6:533.90949 7:611.72965 8:554.92699 9:548.94796 10:478.9416 11:339.93688 12:314.98947 13:292.66021 14:225.0894 15:222.27182 16:216.15095 17:156.9348 18:105.67891 19:66.456871 20:39.82913 21:24.788876 22:16.542497 23:11.524296 24:9.688141 25:9.8482635 
1 1:1517839 2:1964.0668 3:1592.1107 4:1500.5504 5:1022.0677 6:906.8304 7:666.85404 8:571.131 9:631.32752 10:566.78656 11:511.25054 12:370.25126 13:242.05784 14:252.1101 15:232.07943 16:185.82485 17:130.61978 18:88.793714 19:62.381262 20:57.533785 21:36.41335 22:15.656307 23:8.8385988 24:5.6758739 25:3.031948 
1 1:1516987.3 2:1911.8668 3:1436.9849 4:1237.4766 5:845.97646 6:840.5461 7:568.50126 8:533.59756 9:685.32693 10:711.05645 11:451.46544 12:248.54278 13:268.96992 14:325.5048 15:264.81273 16:206.77297 17:168.42842 18:109.19711 19:79.810404 20:40.802724 21:21.973934 22:15.94211 23:8.9927273 24:5.124525 25:2.9273562 
1 1:1515120.2 2:1591.4681 3:1925.1047 4:1496.6415 5:890.30853 6:864.62276 7:789.91654 8:581.46067 9:524.12295 10:483.64955 11:395.30174 12:305.85251 13:260.48487 14:287.62824 15:200.20471 16:187.51827 17:145.00183 18:115.17145 19:63.000016 20:38.34446 21:27.760224 22:12.585897 23:11.213694 24:10.773031 25:9.3542999 
1 1:1516573.8 2:1935.0911 3:2002.8349 4:1576.6876 5:893.69192 6:661.31109 7:501.10058 8:583.01393 9:752.7344 10:726.38105 11:572.00386 12:395.706 13:301.84106 14:243.54417 15:213.85214 16:213.91388 17:134.27878 18:99.274687 19:79.522372 20:51.197884 21:23.651361 22:14.430474 23:9.5736867 24:4.0445864 25:2.1074122 
1 1:1518795.8 2:2106.6226 3:1512.2471 4:1400.1313 5:973.79691 6:727.83338 7:804.17372 8:770.20045 9:603.53849 10:524.44587 11:413.02763 12:319.80676 13:273.95703 14:280.449 15:238.42762 16:204.08888 17:130.24044 18:89.474943 19:65.168837 20:43.403424 21:28.526274 22:14.23385 23:9.0437585 24:6.4998569 25:4.917099 
1 1:1517708.8 2:1880.3348 3:2243.9805 4:1533.376 5:980.80342 6:976.77035 7:706.8697 8:589.90144 9:653.65975 10:562.6128 11:404.71629 12:305.44252 13:166.54881 14:171.8056 15:204.5286 16:195.45801 17:142.28194 18:96.869365 19:53.115142 20:35.830282 21:26.947729 22:15.581839 23:7.347463 24:2.7567315 25:1.7121367 
1 1:1517109.3 2:1900.9913 3:1858.9541 4:1842.5221 5:1080.4212 6:675.90192 7:525.82519 8:566.43447 9:692.55697 10:537.41133 11:368.94097 12:314.68152 13:269.76608 14:254.32615 15:182.97411 16:177.82127 17:133.21745 18:81.778144 19:50.766791 20:38.402269 21:29.34918 22:16.447843 23:9.1013189 24:4.9872187 25:3.1443572 
1 1:1516453.5 2:1302.6928 3:1223.707 4:1132.9972 5:848.8408 6:724.5096 7:667.98699 8:713.65102 9:722.9486 10:642.58976 11:465.40357 12:346.83867 13:260.28146 14:281.65586 15:227.69838 16:169.73949 17:154.13188 18:107.21685 19:72.885571 20:53.68144 21:32.249422 22:17.562893 23:8.2789624 24:5.178275 25:3.0340121 
1 1:1516467.7 2:1724.317 3:1957.8822 4:1538.2324 5:790.69576 6:909.15164 7:701.09538 8:586.13803 9:835.59908 10:748.95611 11:423.71296 12:327.02343 13:185.65716 14:202.92003 15:178.316 16:130.79027 17:94.871484 18:57.705333 19:55.480611 20:53.623588 21:29.977523 22:17.238919 23:13.211671 24:6.7001527 25:4.8462079 
1 1:1515324 2:1523.6789 3:2037.979 4:1283.5573 5:683.71784 6:714.11464 7:757.38991 8:755.18498 9:695.95462 10:601.35291 11:349.2447 12:340.00628 13:330.97545 14:225.54204 15:157.27438 16:156.09414 17:140.52248 18:101.51926 19:58.752043 20:45.341942 21:31.35177 22:16.02873 23:8.441818 24:5.2429533 25:2.1313454 
1 1:1517471.2 2:1621.8653 3:1650.7411 4:1525.831 5:1105.406 6:823.58038 7:653.43732 8:620.04861 9:809.22143 10:635.8806 11:263.27917 12:273.76696 13:344.91327 14:256.3949 15:238.45019 16:199.49598 17:126.13769 18:115.40268 19:73.633482 20:44.995225 21:26.783149 22:20.11149 23:11.178911 24:7.4241539 25:6.4813554 
1 1:1517761 2:1787.4859 3:1788.1355 4:1368.8772 5:640.6996 6:542.96324 7:773.65974 8:770.76734 9:542.07161 10:527.55048 11:473.82712 12:376.90441 13:325.11288 14:306.09262 15:255.21991 16:205.17654 17:101.09685 18:92.495596 19:68.615398 20:37.404475 21:24.976681 22:16.89149 23:10.47529 24:7.1558258 25:5.3780619 
1 1:1517572.9 2:1383.6056 3:1554.1107 4:1486.449 5:1150.7711 6:957.83915 7:637.73273 8:503.59619 9:672.24348 10:620.10415 11:482.14936 12:379.70674 13:354.39382 14:338.52274 15:265.27497 16:230.23259 17:160.91698 18:112.36264 19:64.371885 20:36.395378 21:26.596899 22:12.573919 23:6.8672664 24:5.2132983 25:3.3685696 
1 1:1518300.6 2:1906.9312 3:2093.8144 4:1655.8419 5:1115.1623 6:856.51067 7:655.92707 8:576.41758 9:655.32093 10:651.38342 11:408.89707 12:323.46296 13:251.42022 14:268.60963 15:227.61801 16:175.61627 17:130.90986 18:88.344965 19:62.098099 20:43.068945 21:29.542543 22:16.942379 23:8.6961456 24:3.9281604 25:2.1738548 
1 1:1517977.1 2:1601.3815 3:1497.4488 4:1449.4288 5:976.46554 6:808.26935 7:761.13666 8:684.79731 9:679.52093 10:446.92106 11:349.27288 12:337.1731 13:241.41355 14:259.17057 15:178.44659 16:113.8405 17:95.154853 18:107.25416 19:81.551311 20:49.516881 21:31.628632 22:23.285676 23:12.622726 24:8.3233069 25:7.0058565 
1 1:1517503.9 2:1190.9214 3:1533.1799 4:1502.6332 5:908.36212 6:818.62738 7:726.0593 8:425.20156 9:510.44163 10:624.1401 11:412.62245 12:304.97118 13:349.07977 14:305.01285 15:251.71144 16:206.7264 17:109.51872 18:91.604906 19:65.573986 20:40.566991 21:26.752587 22:19.90455 23:10.119732 24:3.8162843 25:2.3629411 
1 1:1518580.4 2:1756.6583 3:1529.1264 4:1648.8219 5:1568.9204 6:1126.8293 7:807.01433 8:820.64319 9:840.03062 10:786.7757 11:564.88517 12:461.62732 13:326.85672 14:229.35332 15:283.98156 16:247.10178 17:132.26406 18:98.760314 19:71.200353 20:42.357234 21:20.923476 22:18.445368 23:15.460053 24:12.296806 25:10.895207 
1 1:1518751.6 2:1315.8486 3:1092.5056 4:1400.2334 5:1111.3263 6:1002.5052 7:872.5643 8:610.98058 9:583.64121 10:538.0181 11:321.16923 12:292.22538 13:305.89695 14:264.86127 15:236.71728 16:203.21553 17:111.16447 18:79.45799 19:59.401939 20:44.632993 21:31.386556 22:17.492318 23:8.3230534 24:6.815799 25:8.1557956 
1 1:1517643.2 2:1717.6721 3:1714.187 4:1350.4751 5:793.54612 6:697.93027 7:643.69921 8:591.56833 9:572.62914 10:497.63627 11:395.93716 12:361.66543 13:295.042 14:226.54661 15:201.86643 16:175.58183 17:116.9203 18:89.853389 19:57.220812 20:45.293084 21:36.798123 22:22.357565 23:10.300371 24:5.4632047 25:5.3250887 
1 1:1518649.9 2:1689.2309 3:1701.9318 4:1336.8538 5:994.04392 6:960.78172 7:620.15588 8:674.26854 9:719.32359 10:670.91648 11:436.37915 12:327.51949 13:405.73497 14:339.25083 15:247.05549 16:175.03655 17:123.8341 18:101.4883 19:68.955866 20:37.054027 21:27.764067 22:18.422332 23:10.822551 24:5.9337426 25:5.1941273 
1 1:1519722.1 2:1657.8637 3:1390.9617 4:1466.0203 5:940.9837 6:685.6373 7:728.34118 8:824.58275 9:1007.2892 10:894.08133 11:584.80543 12:449.57201 13:293.93306 14:258.3949 15:257.00584 16:204.69447 17:137.61321 18:106.12314 19:85.34078 20:55.982917 21:37.418851 22:19.99712 23:10.907199 24:5.1423927 25:2.6369269 
1 1:1517629 2:1583.1055 3:2152.2784 4:1874.9951 5:991.04087 6:911.13226 7:866.36584 8:762.90611 9:703.66658 10:675.83917 11:408.72549 12:250.23692 13:217.93746 14:269.16826 15:230.22372 16:183.50438 17:150.3624 18:109.48376 19:65.961772 20:39.396505 21:30.495629 22:20.076205 23:9.7319684 24:6.4235986 25:4.6899079 
1 1:1517678.7 2:1298.3902 3:1777.7852 4:1691.7867 5:1103.3383 6:836.60442 7:780.84885 8:847.55305 9:804.42534 10:732.88629 11:515.17655 12:335.50996 13:266.47415 14:275.47914 15:263.69551 16:227.73451 17:156.28669 18:107.98154 19:71.246725 20:37.794833 21:26.105433 22:14.983102 23:13.194745 24:9.1258792 25:7.2817353 
1 1:1517817.6 2:1470.5978 3:1135.7037 4:1041.4608 5:889.32161 6:806.47071 7:675.51671 8:453.22933 9:594.75221 10:709.75491 11:514.34291 12:372.63365 13:281.53304 14:247.92445 15:227.85083 16:189.02148 17:127.77972 18:92.680815 19:61.949262 20:41.62769 21:30.515979 22:18.117754 23:7.1860002 24:6.3592843 25:6.5770789 
1 1:1517703.4 2:1695.0983 3:1716.2552 4:1335.409 5:907.6798 6:953.11516 7:831.37635 8:598.01319 9:729.73817 10:626.89514 11:427.24484 12:365.27713 13:285.32373 14:357.45643 15:268.35265 16:152.11221 17:132.0546 18:101.46607 19:62.463184 20:50.979813 21:33.464625 22:13.104421 23:9.3546103 24:7.6328457 25:4.652444 
1 1:1517402.8 2:1502.8599 3:1920.6548 4:1557.8083 5:973.79123 6:852.22756 7:648.55968 8:468.88758 9:493.11608 10:591.62552 11:538.84335 12:460.05115 13:423.06423 14:374.51039 15:210.67056 16:154.72065 17:132.32783 18:106.13327 19:55.891185 20:36.581429 21:31.488693 22:16.278061 23:9.3321181 24:5.5056727 25:3.0959321 
1 1:1517258.9 2:1315.2077 3:1305.0097 4:1419.6497 5:902.20102 6:501.6175 7:731.6915 8:701.08995 9:522.18339 10:568.41045 11:435.51271 12:309.21503 13:347.28564 14:320.56564 15:217.9433 16:188.39711 17:138.26322 18:101.24419 19:67.496261 20:41.004468 21:24.437711 22:14.288746 23:8.6278297 24:6.3708941 25:4.616723 
1 1:1515572.6 2:1714.466 3:2192.9537 4:1717.4843 5:916.48244 6:725.50512 7:644.93064 8:582.46658 9:733.29731 10:763.45524 11:511.24555 12:344.65986 13:232.28631 14:212.48003 15:186.32957 16:166.41144 17:126.37283 18:103.09129 19:65.649352 20:34.540124 21:28.18046 22:19.580706 23:9.9547575 24:5.2173616 25:3.5548613 
1 1:1517474.3 2:1730.4506 3:1718.6524 4:1151.809 5:734.70136 6:695.59224 7:744.22529 8:730.18611 9:630.8574 10:521.60947 11:389.34544 12:360.64753 13:346.31717 14:270.07241 15:222.38527 16:238.25826 17:131.46342 18:85.607084 19:59.229595 20:31.821683 21:22.225251 22:15.693204 23:9.7199541 24:5.0038969 25:3.0295738 
1 1:1519284.1 2:1533.2238 3:1967.2348 4:1510.7543 5:649.36323 6:821.35305 7:920.50377 8:778.11543 9:764.92937 10:733.79496 11:501.72774 12:399.96157 13:382.64674 14:308.50836 15:240.23679 16:223.11009 17:107.64027 18:53.69454 19:43.320083 20:44.794918 21:31.00488 22:16.662111 23:6.9484316 24:4.9578386 25:4.1714674 
1 1:1519961.5 2:1976.422 3:1750.0329 4:1409.6554 5:1077.1602 6:887.65983 7:745.73778 8:848.88119 9:956.7336 10:695.72811 11:325.72007 12:303.07488 13:377.02581 14:349.2384 15:215.79583 16:204.82964 17:145.14846 18:91.431 19:65.537994 20:35.61624 21:23.146709 22:16.185512 23:8.5211152 24:5.5319778 25:3.909283 
1 1:1516777.9 2:1872.9889 3:1927.9384 4:1323.3052 5:910.8245 6:856.07499 7:810.01437 8:643.75548 9:680.91887 10:703.03941 11:456.44887 12:266.56444 13:222.47152 14:267.79166 15:236.91792 16:190.31839 17:128.1868 18:71.328333 19:59.049505 20:50.840172 21:32.19739 22:23.420027 23:19.316521 24:14.768176 25:11.809355 
1 1:1516168.1 2:1344.7433 3:1403.5353 4:1296.5904 5:851.60523 6:733.41626 7:726.59904 8:639.51994 9:667.60464 10:678.11858 11:450.67612 12:336.1613 13:356.80981 14:337.92874 15:245.7201 16:208.03701 17:127.23811 18:89.249524 19:74.864294 20:45.57847 21:23.305061 22:14.529196 23:10.939434 24:7.5078253 25:7.7766084 
1 1:1515931 2:1542.9758 3:1581.5081 4:1428.7604 5:896.0201 6:621.67638 7:588.41721 8:663.19827 9:636.54965 10:498.07947 11:397.47233 12:403.89916 13:295.103 14:256.72477 15:226.53683 16:196.4793 17:111.64149 18:90.292962 19:70.638446 20:42.472942 21:24.653026 22:19.036763 23:13.549844 24:11.295758 25:8.9005509 
1 1:1516963 2:1665.7252 3:1639.5859 4:1565.7658 5:891.88261 6:671.55464 7:681.85272 8:663.2881 9:773.68987 10:756.98704 11:452.05702 12:303.65033 13:234.34346 14:256.22367 15:250.16554 16:199.83236 17:129.84049 18:83.202365 19:59.846686 20:46.522882 21:37.420221 22:23.290263 23:7.0590582 24:5.3479482 25:4.8657291 
1 1:1516797.1 2:1496.7593 3:2039.9337 4:1744.1522 5:918.80537 6:803.61261 7:696.45379 8:583.18003 9:539.96815 10:521.23176 11:413.71068 12:288.03197 13:227.8584 14:206.85773 15:247.70879 16:234.16337 17:148.3602 18:91.244978 19:50.602228 20:43.397239 21:27.951919 22:13.428056 23:8.7874542 24:3.995876 25:2.1232519 
1 1:1516751.4 2:1022.4612 3:1442.9929 4:1601.6163 5:1003.5074 6:527.27908 7:737.18154 8:660.13245 9:564.30921 10:752.61742 11:565.06711 12:293.10165 13:257.55305 14:259.21279 15:189.1485 16:150.90638 17:148.20562 18:102.87096 19:57.843481 20:44.55634 21:22.324819 22:11.116602 23:8.6872359 24:7.2773393 25:5.4758078 
1 1:1517249.7 2:1842.8385 3:1986.5235 4:1878.3872 5:1147.4922 6:763.98551 7:812.33506 8:653.0692 9:625.89797 10:560.53158 11:450.85386 12:370.16339 13:289.71492 14:317.75658 15:275.11459 16:209.11999 17:148.62417 18:106.7372 19:59.978651 20:36.852965 21:22.091863 22:15.65932 23:9.614149 24:6.1649039 25:5.8005169 
1 1:1515291.8 2:1817.1909 3:1549.3614 4:1495.4981 5:1229.9527 6:913.46556 7:684.85245 8:706.54853 9:777.53539 10:612.12359 11:438.14454 12:413.42439 13:310.47496 14:228.62732 15:212.7835 16:157.08147 17:109.22564 18:103.44357 19:76.904656 20:60.069224 21:39.784753 22:13.09384 23:8.5225524 24:6.3617535 25:3.5851498 
1 1:1515013.6 2:1604.6526 3:1982.8619 4:1984.1168 5:1239.8487 6:764.42419 7:780.215 8:773.98105 9:689.84557 10:531.35791 11:509.12622 12:510.99037 13:299.81058 14:186.57808 15:174.06224 16:152.05584 17:119.05342 18:73.960137 19:61.88907 20:53.361296 21:31.230765 22:15.012179 23:7.0042939 24:4.317789 25:4.1506797 
1 1:1514930.3 2:1740.5325 3:1790.2098 4:1711.8722 5:984.48942 6:702.89143 7:673.17813 8:788.79274 9:916.52888 10:662.96871 11:393.28725 12:345.07944 13:294.56963 14:272.37411 15:254.27855 16:207.69338 17:136.50777 18:102.44094 19:70.197802 20:43.212287 21:30.427688 22:17.818793 23:7.4314416 24:4.9043168 25:3.3098669 
1 1:1517842.2 2:1703.1942 3:1566.3249 4:1503.593 5:1047.7579 6:812.20068 7:714.91382 8:714.34529 9:1006.898 10:862.1177 11:459.48084 12:400.45635 13:281.62078 14:215.65699 15:217.57161 16:228.81849 17:126.76647 18:108.21892 19:91.960212 20:33.536942 21:26.915438 22:17.954215 23:8.4278118 24:6.4292571 25:3.5872539 
1 1:1516385.9 2:1468.3893 3:1381.5192 4:1114.6844 5:884.38712 6:815.97205 7:700.80643 8:534.42267 9:738.187 10:769.72013 11:451.1974 12:358.17382 13:344.783 14:285.14377 15:283.77799 16:256.11863 17:122.96585 18:92.268385 19:64.222146 20:31.026422 21:23.171568 22:14.0946 23:6.6474581 24:3.8153475 25:2.6180782 
1 1:1516762.9 2:1414.5912 3:1948.6332 4:1686.7292 5:741.90346 6:692.12535 7:606.71055 8:556.26037 9:689.6255 10:624.66869 11:435.15299 12:375.80093 13:325.08755 14:270.42648 15:233.06716 16:187.77265 17:122.35882 18:99.735339 19:62.941864 20:48.28862 21:37.467151 22:26.990772 23:17.460003 24:10.351497 25:9.6766145 
1 1:1516908.5 2:2273.104 3:1521.3986 4:1155.9731 5:1038.2001 6:1062.0632 7:680.02808 8:492.07821 9:763.63423 10:688.54343 11:427.52755 12:354.9734 13:249.61453 14:277.57707 15:327.24694 16:203.97316 17:101.01797 18:90.527443 19:78.174441 20:44.844641 21:26.446767 22:17.047714 23:6.8910658 24:4.9380696 25:3.447367 
1 1:1515997.1 2:1456.4209 3:1742.1838 4:1695.2255 5:1036.0335 6:823.94434 7:611.80756 8:561.28253 9:696.63141 10:606.37084 11:450.90704 12:352.70683 13:213.74315 14:244.97368 15:304.79832 16:205.01619 17:150.50529 18:109.63959 19:66.845256 20:49.193483 21:29.321417 22:15.738266 23:9.353619 24:5.5574803 25:4.4641998 
1 1:1518990.9 2:1494.9082 3:2216.4402 4:1769.238 5:704.89895 6:620.05241 7:617.74132 8:672.96837 9:742.47538 10:702.9439 11:490.77414 12:380.48478 13:268.05847 14:195.75654 15:138.72016 16:131.74379 17:111.64093 18:63.722496 19:56.445849 20:41.228916 21:27.877545 22:15.85032 23:8.5817464 24:7.2625213 25:6.4857072 
1 1:1515580.7 2:2162.7142 3:1938.7718 4:1682.1442 5:833.00073 6:771.74374 7:751.18147 8:694.92682 9:813.46373 10:643.80618 11:336.51874 12:304.01719 13:303.74369 14:274.99611 15:202.23903 16:171.82673 17:123.96308 18:69.232119 19:60.117401 20:57.730766 21:25.269817 22:11.798166 23:10.655818 24:7.7758936 25:6.7401982 
1 1:1513433.6 2:1110.5304 3:1483.1633 4:1488.6516 5:962.33681 6:785.59916 7:656.03298 8:585.72265 9:708.91054 10:720.93659 11:408.85589 12:315.7977 13:297.5839 14:281.25535 15:313.81383 16:195.05302 17:77.702716 18:80.551458 19:53.501327 20:28.808892 21:24.154381 22:19.022002 23:11.165378 24:4.6476311 25:3.2454494 
1 1:1513226.9 2:1390.9471 3:1603.926 4:1550.1828 5:1125.9441 6:1080.9117 7:742.59671 8:619.39321 9:871.78643 10:733.76769 11:398.32494 12:300.54247 13:278.14641 14:256.1556 15:215.60959 16:155.47151 17:100.68901 18:93.639722 19:52.163899 20:31.585002 21:21.994266 22:13.385671 23:7.0658704 24:4.3721618 25:2.6487451 
1 1:1513490.8 2:1717.7048 3:2060.9502 4:2089.6961 5:1163.4068 6:813.98662 7:613.5868 8:589.45769 9:703.63326 10:630.97417 11:427.174 12:291.3711 13:353.33905 14:396.80542 15:313.24289 16:252.21378 17:140.87959 18:97.250976 19:52.199724 20:39.977956 21:34.710345 22:19.020236 23:7.3332324 24:5.6256102 25:4.8432875 
1 1:1514351.3 2:1544.0483 3:1444.3416 4:1145.7619 5:741.21141 6:596.62375 7:552.64098 8:660.492 9:750.47113 10:628.37509 11:462.49243 12:321.57044 13:363.01333 14:367.21271 15:299.68599 16:242.73252 17:169.76302 18:138.23437 19:72.004653 20:38.437535 21:23.774905 22:15.005177 23:10.57172 24:4.7377544 25:2.5834012 
1 1:1515530.1 2:1915.6737 3:1474.8243 4:1050.3441 5:813.62064 6:1010.2176 7:757.81834 8:576.4978 9:713.85036 10:655.97432 11:428.76043 12:325.49153 13:269.14508 14:259.55998 15:243.20382 16:216.68668 17:152.48696 18:109.33569 19:72.467915 20:33.009221 21:23.778064 22:14.493773 23:8.9124858 24:7.4237908 25:5.3693199 
1 1:1516740.8 2:1201.7191 3:1637.4791 4:1550.4843 5:1092.8006 6:917.89278 7:677.4054 8:520.86225 9:545.42155 10:415.04217 11:296.84409 12:309.17728 13:258.82254 14:276.11583 15:252.71229 16:195.97846 17:131.30276 18:97.467001 19:89.304297 20:59.947652 21:30.579685 22:13.846843 23:10.278541 24:8.4911925 25:4.0391903 
1 1:1516590 2:1360.6249 3:1450.0637 4:1679.8518 5:1177.2893 6:868.50499 7:702.42196 8:704.22356 9:832.38604 10:739.60405 11:476.85927 12:291.5687 13:312.93134 14:297.97644 15:245.65056 16:194.71234 17:156.63329 18:129.90775 19:61.860077 20:34.4967 21:31.478452 22:19.868914 23:11.844197 24:9.9964667 25:9.0562474 
1 1:1516187.9 2:2041.1554 3:1483.8831 4:1157.8092 5:862.31821 6:663.88787 7:476.07784 8:471.58154 9:594.94237 10:454.40292 11:366.3752 12:415.40271 13:299.33563 14:257.91798 15:318.24764 16:248.85707 17:120.89983 18:107.18452 19:71.3563 20:35.91209 21:29.50458 22:11.012491 23:6.0595642 24:3.5048886 25:2.7738482 
1 1:1514526.5 2:1149.7064 3:1665.7041 4:1702.3562 5:1192.7254 6:892.16138 7:653.59031 8:578.86144 9:573.04329 10:549.80228 11:490.22198 12:355.73154 13:238.48648 14:283.9416 15:255.99332 16:224.92779 17:128.29854 18:61.721784 19:64.407423 20:52.887976 21:34.21359 22:17.773917 23:9.5730962 24:5.6569116 25:4.3025958 
1 1:1513316.2 2:1548.2703 3:1651.8104 4:1546.7264 5:877.84273 6:781.66652 7:671.96117 8:656.72656 9:770.344 10:559.26981 11:414.03608 12:336.7065 13:166.11091 14:168.27201 15:205.24513 16:179.95098 17:143.72216 18:90.920343 19:55.914701 20:38.110124 21:22.042529 22:16.273997 23:10.373805 24:4.9582413 25:4.0243867 
1 1:1515801.8 2:1859.614 3:1297.5348 4:1465.0077 5:967.73079 6:908.23384 7:853.88748 8:642.43577 9:655.35518 10:607.5923 11:387.12376 12:340.33765 13:341.6165 14:288.00082 15:265.64227 16:189.82112 17:86.091951 18:86.423185 19:64.921201 20:40.228277 21:30.198437 22:14.679011 23:7.4120568 24:3.6937666 25:2.0410387 
1 1:1514499.1 2:1565.4122 3:1778.8148 4:1732.123 5:1018.0141 6:881.59058 7:703.27273 8:501.50738 9:617.3916 10:575.4052 11:346.21929 12:371.92696 13:407.59288 14:362.67118 15:258.8823 16:167.19214 17:112.87109 18:108.39559 19:68.573656 20:49.354123 21:29.180524 22:14.331954 23:13.046522 24:9.7073057 25:7.5865453 
1 1:1512798.1 2:1851.0791 3:1855.2521 4:1524.2509 5:938.1288 6:753.19851 7:670.58401 8:678.59823 9:901.81843 10:740.88461 11:362.59207 12:266.4761 13:298.18563 14:282.02809 15:254.95417 16:202.46609 17:142.11979 18:128.56135 19:66.413246 20:45.110712 21:35.05404 22:17.15692 23:13.175304 24:10.729336 25:9.6540244 
1 1:1515754.7 2:1581.4105 3:1880.6181 4:1621.0814 5:834.8651 6:757.0884 7:661.99175 8:568.0866 9:587.13809 10:610.35 11:505.90139 12:394.30656 13:332.61062 14:258.23792 15:229.62414 16:148.81857 17:119.58699 18:113.44264 19:72.120085 20:45.37221 21:33.309055 22:15.567998 23:8.9607402 24:8.4065589 25:7.6510133 
1 1:1515069.9 2:1215.7169 3:1157.1155 4:1146.0034 5:763.17533 6:561.38716 7:663.79692 8:867.70389 9:712.89237 10:585.89658 11:460.77213 12:333.61057 13:359.07057 14:305.86384 15:241.48508 16:237.2361 17:163.70692 18:96.122909 19:56.559016 20:41.024248 21:30.488493 22:21.056951 23:10.011803 24:7.8479701 25:6.4832135 
1 1:1520364.7 2:1221.9632 3:1489.9448 4:1361.3565 5:801.56267 6:681.80049 7:598.57131 8:609.0122 9:570.19167 10:511.17423 11:415.37567 12:291.57709 13:260.35494 14:273.8191 15:197.76343 16:190.10576 17:141.69065 18:81.893225 19:69.829039 20:45.318189 21:32.263945 22:20.533801 23:12.983598 24:12.216461 25:12.353951 
1 1:1517885.5 2:1682.2856 3:1872.4214 4:1433.5992 5:819.93425 6:715.79857 7:809.51067 8:793.76054 9:678.27802 10:532.12997 11:415.79143 12:328.33714 13:193.86567 14:178.61937 15:206.87929 16:165.40244 17:111.05675 18:90.828451 19:59.538037 20:48.142491 21:32.335964 22:24.651616 23:17.593515 24:12.547122 25:13.629094 
1 1:1516591.2 2:1609.5044 3:1675.7815 4:1497.832 5:1029.0377 6:737.42354 7:592.58973 8:680.02435 9:821.69616 10:655.66976 11:488.29694 12:399.14074 13:304.92808 14:258.83083 15:203.48288 16:152.1761 17:104.57606 18:68.319784 19:52.38638 20:41.29536 21:29.493931 22:14.68784 23:9.7845422 24:10.014565 25:11.104372 
1 1:1515355.7 2:1475.9312 3:1901.5843 4:1396.2014 5:556.22518 6:602.92079 7:635.48347 8:496.39333 9:608.4138 10:557.69991 11:365.01264 12:298.3105 13:255.91586 14:224.73355 15:210.80176 16:221.02452 17:140.7315 18:78.129821 19:65.593952 20:38.903883 21:24.579786 22:11.674166 23:6.5492813 24:4.294321 25:3.2633083 
1 1:1515519.2 2:1437.4136 3:1703.987 4:1290.7744 5:633.7519 6:633.50309 7:690.41867 8:574.30931 9:675.76381 10:688.2831 11:387.48662 12:304.59553 13:233.51338 14:181.21085 15:201.80202 16:212.0286 17:157.25919 18:100.60489 19:59.254634 20:33.243769 21:24.686158 22:14.683611 23:7.109944 24:6.9918976 25:6.0898677 
1 1:1517514.6 2:1429.746 3:1599.751 4:1660.8683 5:1105.6319 6:723.17672 7:555.56399 8:542.96633 9:603.77769 10:659.05572 11:457.44263 12:328.66264 13:240.15815 14:178.9037 15:239.83545 16:234.45355 17:140.67069 18:101.47198 19:58.260407 20:28.775581 21:20.778143 22:15.398167 23:10.646774 24:7.0598321 25:2.4118307 
1 1:1517511.5 2:1628.6678 3:1640.0969 4:1448.3713 5:919.06624 6:753.37961 7:659.175 8:633.21589 9:771.00353 10:649.43115 11:440.99847 12:357.31796 13:289.38122 14:302.64651 15:302.4923 16:224.63497 17:105.34148 18:80.581544 19:46.168405 20:24.530595 21:22.91166 22:17.177218 23:9.4070572 24:3.1520844 25:2.4300635 
1 1:1516534.8 2:1179.2179 3:1429.235 4:1513.5058 5:984.45997 6:840.62979 7:720.16312 8:665.48234 9:734.3866 10:673.44334 11:368.54038 12:317.72545 13:281.32522 14:255.67995 15:216.66871 16:165.98777 17:104.27064 18:81.905471 19:74.757579 20:40.742135 21:24.359866 22:15.238859 23:7.3119261 24:3.9935748 25:2.851091 
1 1:1516222.9 2:1261.1636 3:1453.9845 4:1656.8435 5:1018.579 6:984.79928 7:833.68508 8:632.32558 9:809.22097 10:652.3532 11:428.62442 12:359.04044 13:373.78821 14:352.93703 15:275.9302 16:261.28474 17:163.06301 18:108.84907 19:61.078226 20:44.211862 21:23.14457 22:9.3214263 23:11.075252 24:11.882743 25:10.229481 
1 1:1516644.5 2:1641.7078 3:1493.5147 4:1319.6228 5:781.4851 6:824.26245 7:633.84311 8:436.63367 9:757.48491 10:869.1274 11:484.74061 12:264.06929 13:233.01719 14:222.40305 15:212.94859 16:193.55204 17:126.30869 18:103.95675 19:88.518767 20:46.869781 21:22.319488 22:15.018156 23:9.9137311 24:5.3671573 25:3.459288 
1 1:1515444.7 2:1233.2155 3:1415.9736 4:1352.6969 5:896.44981 6:654.72593 7:650.4398 8:667.34439 9:779.35171 10:568.40856 11:308.90756 12:267.36357 13:252.36607 14:251.5324 15:221.2718 16:208.33063 17:139.70003 18:104.52462 19:70.95181 20:42.202683 21:27.385459 22:15.799597 23:7.7083075 24:3.9282416 25:2.9934389 
1 1:1516898.2 2:1498.6338 3:1585.1815 4:1307.5261 5:743.78555 6:647.03795 7:673.00296 8:590.97649 9:688.46979 10:587.70236 11:382.61608 12:313.64915 13:276.20367 14:246.78404 15:219.63054 16:161.358 17:97.282136 18:81.599035 19:61.867083 20:30.141043 21:24.106003 22:19.259973 23:8.42215 24:6.0049337 25:4.5825013 
1 1:1516979.9 2:1820.846 3:1764.7519 4:1558.3054 5:997.47371 6:719.83183 7:560.99781 8:456.89764 9:570.93871 10:686.9002 11:537.03631 12:309.27425 13:248.86865 14:274.4761 15:159.87311 16:132.93169 17:127.61756 18:85.171196 19:59.361243 20:38.112974 21:20.033199 22:13.128014 23:9.9237788 24:8.578467 25:6.7201786 
1 1:1511992.4 2:1546.825 3:1303.3372 4:1312.699 5:868.37554 6:701.56378 7:759.80834 8:786.06622 9:719.11134 10:605.2963 11:348.98229 12:218.24028 13:155.98501 14:170.09354 15:249.45867 16:239.52523 17:135.85452 18:95.058592 19:56.68427 20:26.903367 21:21.521617 22:22.299646 23:16.002832 24:12.628643 25:9.847879 
1 1:1512394.4 2:1784.1472 3:1712.4132 4:1310.9901 5:627.51791 6:491.41347 7:516.85566 8:526.61993 9:558.47222 10:492.19289 11:374.558 12:237.20545 13:230.81214 14:348.97206 15:287.90817 16:202.79444 17:161.74431 18:110.33301 19:64.811404 20:53.211561 21:34.166948 22:15.177301 23:8.2046394 24:4.5176821 25:3.1043782 
1 1:1511647 2:1469.8638 3:1698.7669 4:1407.8078 5:834.70342 6:621.963 7:493.665 8:572.75833 9:680.84591 10:527.97315 11:359.23306 12:364.17701 13:304.14992 14:274.67636 15:266.92068 16:221.64244 17:122.0914 18:70.959298 19:55.981122 20:38.801809 21:28.981564 22:18.371332 23:10.38687 24:4.6491846 25:3.6562797 
1 1:1512552.8 2:1432.8227 3:1552.4877 4:1316.5177 5:831.76635 6:726.27112 7:553.71009 8:585.52936 9:707.63513 10:579.75695 11:372.62637 12:282.62063 13:294.35321 14:305.48729 15:208.95603 16:148.39297 17:97.577159 18:62.695771 19:55.179773 20:39.001566 21:20.668933 22:10.79604 23:6.9501634 24:5.1591308 25:3.9771081 
1 1:1511057.2 2:1809.1072 3:1577.5803 4:1123.1929 5:952.7079 6:1033.5413 7:812.86483 8:584.08308 9:711.20981 10:677.6655 11:419.32477 12:261.09281 13:248.32851 14:277.54154 15:264.56421 16:213.09357 17:117.75707 18:98.927604 19:87.217015 20:47.907038 21:22.589735 22:13.045609 23:7.0384815 24:5.2758816 25:2.6731491 
1 1:1513336.7 2:2033.915 3:1802.2147 4:1534.9778 5:916.52961 6:780.43939 7:730.18127 8:582.06981 9:690.66369 10:634.5938 11:363.04067 12:327.26787 13:290.70314 14:258.93022 15:215.77844 16:166.01899 17:126.09812 18:109.14706 19:53.775105 20:35.247707 21:20.72893 22:13.310465 23:9.6229787 24:4.3190395 25:2.1511084 
1 1:1511481.7 2:1299.6116 3:1695.6682 4:1704.604 5:849.48597 6:494.32522 7:566.61589 8:668.51885 9:560.97666 10:401.38306 11:310.13423 12:265.09829 13:154.38894 14:185.02386 15:215.0268 16:136.84851 17:109.94256 18:97.241404 19:57.844541 20:40.704987 21:23.815068 22:18.831172 23:10.777095 24:3.2310726 25:3.0543528 
1 1:1511931.4 2:2552.2261 3:2768.9421 4:1802.5188 5:1026.5724 6:1129.0589 7:1426.3029 8:1168.0187 9:1011.3067 10:907.51554 11:505.3408 12:269.85392 13:169.84384 14:190.17414 15:185.92329 16:162.82777 17:143.59624 18:113.01275 19:60.679066 20:47.619297 21:31.325262 22:13.829506 23:14.649867 24:14.638045 25:13.410467 
1 1:1511766.2 2:1394.4879 3:1997.9891 4:1931.0425 5:1054.6374 6:936.36995 7:626.98582 8:495.28248 9:785.73844 10:784.72463 11:401.4996 12:292.75609 13:235.01243 14:204.91209 15:209.12747 16:211.36364 17:161.21086 18:94.202873 19:59.521779 20:54.573695 21:35.198629 22:16.623965 23:7.7608008 24:4.9036781 25:3.8382068 
1 1:1510401.1 2:1213.0951 3:1352.1238 4:1438.4591 5:1083.5631 6:963.62112 7:724.05607 8:598.5616 9:699.72087 10:702.55675 11:460.80088 12:347.93052 13:314.28841 14:335.13013 15:275.27691 16:171.4696 17:106.51265 18:65.104872 19:49.366741 20:35.900789 21:32.515639 22:24.757204 23:14.649204 24:11.89302 25:13.308261 
1 1:1509871 2:1502.5442 3:1352.9954 4:1425.5644 5:987.86788 6:809.03736 7:568.17764 8:537.33973 9:716.00907 10:650.7089 11:405.89103 12:311.89425 13:233.48848 14:255.6625 15:283.55892 16:230.11286 17:119.21233 18:98.370216 19:78.265155 20:49.965471 21:31.080076 22:20.234887 23:11.831313 24:8.0932744 25:7.3703483 
1 1:1510742.3 2:1370.8112 3:1711.8095 4:1601.5365 5:938.81435 6:610.01177 7:566.82236 8:678.09434 9:764.3361 10:633.9831 11:388.8085 12:323.6914 13:281.94573 14:298.97666 15:256.09887 16:195.72867 17:128.33034 18:76.022541 19:89.74407 20:83.483294 21:36.427409 22:17.407667 23:8.8638189 24:5.8173584 25:6.1194613 
1 1:1507610.3 2:1367.7166 3:1129.6337 4:1087.9083 5:822.50086 6:800.7221 7:642.5964 8:616.16583 9:625.0084 10:393.14001 11:369.25884 12:317.4393 13:191.76831 14:215.8275 15:224.20001 16:205.85052 17:116.53184 18:68.885425 19:61.763717 20:57.820823 21:39.095147 22:14.203319 23:10.168014 24:8.5621202 25:8.0707052 
1 1:1509743.3 2:1187.8519 3:1073.3313 4:944.38796 5:637.2143 6:511.4351 7:513.32457 8:618.40837 9:790.02191 10:588.05027 11:275.74134 12:289.52632 13:276.75133 14:204.49244 15:184.30129 16:163.91736 17:113.17119 18:106.89118 19:71.531459 20:42.945262 21:26.676087 22:16.530657 23:9.2336712 24:4.4564116 25:4.349644 
1 1:1507055.1 2:1558.8473 3:2336.8131 4:2010.9841 5:949.71699 6:697.67721 7:680.3355 8:521.17583 9:637.23961 10:567.66162 11:300.82938 12:320.80362 13:287.16834 14:225.12049 15:251.29995 16:215.65535 17:137.84079 18:107.57176 19:56.278715 20:32.37932 21:22.203859 22:13.706472 23:11.421033 24:8.2240067 25:7.0405387 
1 1:1508008.3 2:1455.7984 3:1521.0638 4:1507.6995 5:735.65997 6:646.02904 7:590.19769 8:519.4552 9:604.54496 10:548.00729 11:496.91082 12:427.32693 13:305.58813 14:188.66945 15:206.83744 16:222.43919 17:113.41565 18:103.77652 19:82.52776 20:39.057143 21:31.592633 22:18.469733 23:10.593546 24:10.097957 25:10.45974 
1 1:1511991.1 2:1136.2875 3:1529.4728 4:1388.8202 5:697.4684 6:684.16814 7:627.02369 8:489.43921 9:648.56453 10:636.0382 11:411.75196 12:281.86056 13:165.62795 14:224.95842 15:236.67034 16:182.06784 17:117.34524 18:85.208826 19:67.515674 20:48.216004 21:35.251898 22:17.161331 23:10.835121 24:3.9373661 25:2.85475 
1 1:1511401.8 2:1892.6162 3:1548.1894 4:1368.925 5:964.91015 6:797.47167 7:679.05283 8:530.62859 9:484.51045 10:582.93501 11:526.92004 12:439.47573 13:330.36946 14:261.34341 15:188.64334 16:174.77822 17:141.55193 18:94.68699 19:80.858955 20:56.636811 21:32.086838 22:18.238163 23:14.156733 24:9.0896816 25:8.000298 
1 1:1509667.6 2:2013.7111 3:1885.0376 4:1634.7614 5:1021.2073 6:1003.2484 7:652.48889 8:628.71703 9:808.39857 10:618.7606 11:315.74236 12:260.63632 13:190.93429 14:165.21588 15:237.011 16:223.84739 17:157.49967 18:106.54686 19:60.701877 20:38.768828 21:22.49898 22:15.781843 23:10.932604 24:5.1961099 25:2.3585501 
1 1:1510223.9 2:1785.787 3:1798.7863 4:1271.0012 5:740.5364 6:986.23622 7:775.5152 8:507.34246 9:782.64502 10:633.77225 11:350.86785 12:342.26725 13:256.95531 14:199.40566 15:158.18723 16:125.12373 17:122.44625 18:102.8922 19:57.225363 20:39.465977 21:26.591556 22:12.96761 23:6.6552318 24:4.7912989 25:2.6777756 
1 1:1509370.5 2:1348.9274 3:1380.0082 4:1260.9296 5:869.17476 6:801.5524 7:739.94722 8:537.22949 9:581.39324 10:671.64652 11:504.19385 12:343.27881 13:211.12606 14:176.20377 15:158.0459 16:172.06578 17:151.61455 18:105.39558 19:62.613345 20:47.447618 21:25.715122 22:15.025281 23:11.691698 24:7.7982725 25:5.9263577 
1 1:1508922 2:1381.7721 3:1355.6973 4:1366.4367 5:787.54778 6:753.43213 7:709.21879 8:576.07278 9:614.08919 10:586.62169 11:365.31682 12:306.33806 13:334.23058 14:298.57131 15:237.43508 16:152.18194 17:108.58063 18:76.599199 19:42.720304 20:34.316864 21:26.234275 22:20.106042 23:13.391895 24:8.2436173 25:7.0203184 
1 1:1509387 2:1722.5258 3:2048.718 4:1986.6591 5:1151.1118 6:611.97208 7:487.25194 8:372.85352 9:590.53541 10:587.72744 11:304.57133 12:248.48883 13:312.35679 14:267.02373 15:231.40432 16:194.71994 17:94.825015 18:102.08707 19:69.79293 20:39.118973 21:30.506823 22:14.977689 23:8.8757579 24:6.5205585 25:6.0241202 
1 1:1509083.1 2:2084.0164 3:1868.8739 4:1522.1135 5:994.03577 6:707.27772 7:503.69868 8:421.81338 9:654.03979 10:672.49369 11:378.69814 12:348.49874 13:336.26681 14:211.80637 15:211.70832 16:177.32498 17:115.97095 18:109.19099 19:69.608971 20:47.479558 21:25.87077 22:10.635641 23:6.6544986 24:4.7873519 25:4.1735249 
1 1:1509934.5 2:1267.2122 3:1484.9425 4:1346.8983 5:832.6092 6:705.22926 7:591.29072 8:566.47902 9:787.00595 10:631.44301 11:290.57818 12:244.44703 13:226.72513 14:207.51081 15:173.2497 16:154.88927 17:110.23409 18:75.133657 19:59.786286 20:51.99033 21:31.763742 22:16.67584 23:8.4845198 24:8.6809971 25:9.3063528 
1 1:1511488.9 2:1432.257 3:1774.5917 4:1772.0655 5:1140.9752 6:737.15235 7:613.64321 8:581.02794 9:743.82853 10:654.02635 11:308.51547 12:275.18462 13:293.30926 14:254.83782 15:209.25748 16:177.07615 17:112.14444 18:85.089276 19:56.951029 20:34.493142 21:24.421779 22:11.181853 23:7.3529345 24:4.631296 25:2.5563204 
1 1:1510542.8 2:1318.1916 3:1458.3145 4:1457.7662 5:884.85183 6:806.00251 7:800.46759 8:795.77465 9:887.85765 10:732.26342 11:455.91639 12:320.13139 13:331.13555 14:287.33581 15:206.95159 16:148.55218 17:119.46341 18:111.46222 19:69.591201 20:45.183872 21:34.736603 22:19.542066 23:9.0836427 24:6.20029 25:4.5404221 
1 1:1510072.5 2:1712.6354 3:1881.4133 4:1458.2753 5:701.48134 6:717.03535 7:707.81799 8:465.15446 9:607.62479 10:601.75493 11:327.87298 12:228.72169 13:189.83423 14:178.55213 15:233.78318 16:169.1866 17:80.842133 18:81.481511 19:50.622135 20:25.567329 21:21.900452 22:13.506815 23:9.2727257 24:6.1281535 25:4.7929716 
1 1:1510620.5 2:1865.6314 3:1772.7932 4:1510.8403 5:1206.9631 6:855.19881 7:793.12112 8:694.56305 9:691.00461 10:691.38295 11:422.65893 12:268.7877 13:221.05602 14:304.49647 15:266.04765 16:148.34276 17:116.4784 18:127.5052 19:81.933179 20:39.157182 21:25.940186 22:14.040333 23:7.6106825 24:5.9225856 25:4.0153533 
1 1:1511265.1 2:1368.8776 3:1419.5261 4:1455.8544 5:919.19774 6:876.095 7:759.18519 8:686.68228 9:676.17367 10:545.8305 11:425.47538 12:274.94279 13:202.45563 14:180.46734 15:191.43324 16:176.26226 17:127.7172 18:97.261301 19:54.088303 20:33.686477 21:22.410686 22:12.085007 23:8.7276535 24:5.2204157 25:2.4662632 
1 1:1510991.4 2:1422.149 3:1811.4169 4:1371.8686 5:727.6557 6:760.87618 7:621.18201 8:605.28337 9:674.28293 10:681.5338 11:539.88946 12:391.26508 13:283.33324 14:270.94424 15:248.04521 16:176.63655 17:131.93166 18:85.20863 19:60.991174 20:51.489804 21:33.973489 22:27.422823 23:17.886301 24:14.530759 25:14.608409 
1 1:1512695.4 2:1449.478 3:1678.9278 4:1393.8692 5:859.34742 6:856.02865 7:729.4613 8:593.18555 9:573.76015 10:525.60156 11:458.51193 12:340.73546 13:361.6891 14:367.91844 15:267.64258 16:215.82224 17:126.38916 18:80.596005 19:67.276324 20:47.9288 21:33.164625 22:21.779184 23:8.3909218 24:4.474941 25:2.715321 
1 1:1512338.3 2:1129.8596 3:1222.8601 4:1346.6193 5:1183.5503 6:872.56732 7:498.22099 8:597.83373 9:919.74804 10:779.17245 11:335.87745 12:169.0183 13:169.99099 14:226.45848 15:197.67313 16:162.74972 17:132.58624 18:100.45005 19:64.451251 20:38.970319 21:29.000359 22:21.424303 23:18.397149 24:14.593466 25:15.110245 
1 1:1511400.9 2:1767.9628 3:1681.3152 4:1407.3134 5:888.98576 6:826.3901 7:732.60675 8:643.48285 9:661.88967 10:680.72846 11:479.36924 12:320.33634 13:294.19387 14:223.00255 15:230.27002 16:195.83831 17:134.22891 18:111.1851 19:67.659136 20:39.833301 21:22.600235 22:14.118164 23:9.8246941 24:6.2993176 25:3.294696 
1 1:1512630.5 2:1542.0607 3:2107.9691 4:1753.0635 5:950.45931 6:934.23473 7:847.09011 8:602.77365 9:485.47872 10:535.27241 11:369.03832 12:256.73652 13:232.86266 14:254.31065 15:244.00816 16:152.93457 17:92.656207 18:96.053047 19:61.437082 20:42.050872 21:35.52806 22:22.820879 23:15.102297 24:11.991171 25:10.996308 
1 1:1510946.2 2:1922.493 3:2020.2568 4:1500.0518 5:612.02558 6:681.87967 7:716.79731 8:644.83766 9:616.19469 10:437.10019 11:473.31864 12:377.16789 13:220.43088 14:245.31424 15:168.21524 16:136.72738 17:112.25195 18:87.250001 19:70.505679 20:43.633467 21:25.369878 22:17.423664 23:9.701533 24:6.7412359 25:5.8926105 
1 1:1511111.1 2:1579.9258 3:1770.7486 4:1682.6199 5:1070.5489 6:645.31672 7:659.84073 8:556.14015 9:607.27303 10:617.65033 11:406.21771 12:325.34033 13:282.37976 14:226.76361 15:219.56544 16:224.59164 17:122.55936 18:82.309814 19:63.412298 20:33.102829 21:19.886242 22:15.003689 23:9.1868918 24:3.9770573 25:2.9430809 
1 1:1509932.6 2:2015.845 3:1763.6557 4:1203.5158 5:899.83508 6:668.71586 7:502.6153 8:381.49329 9:584.90836 10:644.32673 11:461.66224 12:426.88791 13:335.51689 14:245.60481 15:195.93844 16:200.0759 17:157.74731 18:72.429728 19:53.870196 20:47.756423 21:25.467799 22:16.161007 23:9.4923596 24:6.5686211 25:4.9916373 
1 1:1508732.6 2:1378.5806 3:1357.839 4:1068.4644 5:614.43974 6:547.85833 7:558.06402 8:524.96089 9:503.38305 10:490.48958 11:308.69674 12:223.1486 13:198.85148 14:219.18932 15:200.51451 16:153.74903 17:117.8899 18:74.491184 19:48.021493 20:40.997319 21:26.476601 22:12.963377 23:7.2466083 24:3.8322089 25:2.5421004 
1 1:1508986.3 2:1637.5679 3:2010.119 4:1881.6758 5:938.81452 6:877.56194 7:702.31905 8:408.56814 9:543.25346 10:553.51884 11:404.7627 12:358.16629 13:186.5541 14:171.72283 15:202.48463 16:190.85481 17:152.99821 18:107.39279 19:62.124188 20:44.019182 21:26.660884 22:12.901408 23:6.6825873 24:4.8922505 25:4.0704385 
1 1:1509104.1 2:2024.6952 3:1873.7417 4:1539.896 5:971.85271 6:567.86214 7:681.90801 8:683.69285 9:662.29414 10:587.21001 11:469.59515 12:388.42614 13:253.92997 14:221.76011 15:192.39542 16:192.97639 17:135.11301 18:98.558336 19:85.017329 20:42.518016 21:25.289995 22:18.208282 23:7.939148 24:5.0592303 25:4.9200872 
1 1:1510450.5 2:1366.4415 3:1955.1951 4:1908.2704 5:824.7627 6:519.00432 7:575.96227 8:532.49905 9:562.19822 10:594.64932 11:464.49445 12:382.01784 13:335.6167 14:254.08902 15:207.51724 16:166.21182 17:101.04969 18:82.783618 19:59.447748 20:47.286874 21:32.488719 22:19.035288 23:11.678925 24:5.4325311 25:2.9090666 
1 1:1508804 2:1303.3695 3:1392.3934 4:1188.3497 5:983.45492 6:789.91915 7:549.67857 8:589.8351 9:789.01871 10:633.67481 11:295.87172 12:312.72822 13:327.5445 14:296.86043 15:252.84742 16:180.19864 17:120.96024 18:107.55989 19:64.36267 20:41.811799 21:36.20728 22:16.428677 23:6.0519694 24:3.6609071 25:2.3658574 
1 1:1507999.6 2:1680.2355 3:1595.211 4:1176.445 5:882.52041 6:754.11905 7:542.08181 8:557.13519 9:720.46003 10:597.64581 11:328.06905 12:336.62265 13:353.57727 14:289.59562 15:231.66154 16:175.38583 17:106.67087 18:90.789068 19:62.164347 20:50.782608 21:32.298648 22:12.6589 23:6.846729 24:4.5063764 25:3.5485245 
1 1:1507453.2 2:1935.3375 3:1524.9841 4:1068.8217 5:700.39157 6:870.24662 7:692.52603 8:560.55695 9:646.71374 10:558.28009 11:290.08966 12:216.79231 13:195.70795 14:244.2103 15:270.39784 16:223.51608 17:134.22585 18:77.830523 19:63.881656 20:43.906557 21:26.464028 22:13.702991 23:6.9403438 24:3.5257059 25:2.3869063 
1 1:1507135.7 2:1450.5425 3:1361.634 4:1395.6488 5:624.73863 6:712.60212 7:905.56167 8:722.14137 9:696.60101 10:519.8214 11:431.11747 12:407.4069 13:230.14308 14:212.48713 15:227.63463 16:210.08096 17:145.86546 18:94.380537 19:67.966402 20:42.328586 21:22.400171 22:12.831762 23:10.295033 24:5.5550922 25:3.3484275 
1 1:1507786.6 2:1605.0322 3:1407.0955 4:987.86098 5:695.48319 6:685.39268 7:632.0222 8:739.75514 9:816.20087 10:717.1287 11:500.65994 12:407.72029 13:263.27935 14:231.99573 15:224.99071 16:167.81815 17:117.45397 18:75.527191 19:65.321646 20:49.128127 21:25.824521 22:13.073034 23:7.1335703 24:4.9161813 25:4.5456144 
1 1:1507764.7 2:1547.5561 3:2121.1306 4:2015.3051 5:1027.7415 6:733.17619 7:501.8952 8:432.30887 9:631.73058 10:613.35266 11:381.87968 12:305.03968 13:266.29785 14:258.46331 15:256.23102 16:195.96741 17:115.12147 18:96.459706 19:71.979007 20:35.525148 21:16.446181 22:10.496358 23:6.6400607 24:3.3583837 25:2.4661074 
1 1:1506266.2 2:1546.2497 3:1568.7937 4:1186.4505 5:829.77554 6:745.14196 7:488.15441 8:490.98265 9:631.81264 10:521.01204 11:365.77011 12:303.60265 13:308.06781 14:247.15856 15:207.25722 16:186.54281 17:138.66851 18:117.26498 19:63.139264 20:35.581615 21:29.559113 22:18.026545 23:8.393993 24:9.34958 25:9.9256078 
1 1:1506158 2:1362.1397 3:1306.519 4:1139.5494 5:762.52812 6:655.75675 7:558.29329 8:452.58726 9:508.47142 10:561.76626 11:334.22059 12:208.96935 13:250.21155 14:284.82334 15:237.6683 16:183.21151 17:113.88764 18:74.496148 19:59.972129 20:37.007957 21:24.657011 22:15.269084 23:10.177349 24:5.3238871 25:4.0970506 
1 1:1506474.3 2:1069.0637 3:1376.5369 4:1251.7197 5:1016.6619 6:843.30778 7:510.06335 8:437.8672 9:627.58082 10:551.1022 11:364.73626 12:324.04957 13:286.8319 14:307.21017 15:219.88256 16:194.53345 17:166.69558 18:95.912131 19:61.486369 20:34.510131 21:31.189571 22:22.254276 23:11.225089 24:6.7309765 25:6.3542897 
1 1:1507810 2:1422.2622 3:1957.489 4:1499.0573 5:1062.2983 6:933.00164 7:591.30658 8:567.38823 9:516.35885 10:375.07559 11:350.91269 12:367.40028 13:311.50505 14:250.08983 15:231.46873 16:215.32853 17:124.7214 18:96.961029 19:59.920077 20:35.560915 21:30.685853 22:17.388055 23:7.2622243 24:4.2375734 25:3.1414157 
1 1:1508963.5 2:1543.438 3:1546.0901 4:1322.4958 5:1055.0297 6:845.90513 7:663.13865 8:620.04324 9:701.21392 10:467.56364 11:301.36716 12:271.81441 13:162.45134 14:169.48468 15:228.94917 16:225.56182 17:113.9556 18:75.426765 19:72.538621 20:41.93865 21:20.89132 22:14.378262 23:8.8892478 24:4.6620876 25:2.4500141 
1 1:1510828.3 2:2714.2676 3:2018.558 4:1633.958 5:779.52166 6:666.51392 7:689.22296 8:603.23438 9:701.51824 10:615.60325 11:376.65192 12:335.14131 13:342.53602 14:281.54315 15:243.9254 16:180.19753 17:94.575575 18:74.995634 19:70.628253 20:56.17512 21:29.548387 22:10.65634 23:4.8256678 24:3.4541587 25:2.5936977 
1 1:1510767.8 2:2310.3265 3:1717.7955 4:1436.7822 5:1097.2869 6:886.13218 7:729.98409 8:681.53592 9:717.58305 10:614.78608 11:394.92957 12:329.70113 13:300.74313 14:279.23381 15:199.29489 16:159.51863 17:114.52657 18:88.298366 19:71.578164 20:34.283739 21:22.075505 22:16.571264 23:9.8394941 24:5.8812706 25:4.7762167 
