svm_type one_class
kernel_type polynomial
degree 3
gamma 0.001
coef0 0
nr_class 2
total_sv 996
rho 4.663e+22
SV
1 1:68865.802 2:1321.5729 3:1130.5949 4:961.94389 5:632.28665 6:717.46442 7:628.64651 8:509.12648 9:820.4579 10:671.1782 11:350.66503 12:340.91779 13:244.58453 14:222.93436 15:246.09907 16:197.81014 17:137.58438 18:88.454113 19:53.985525 20:41.39542 21:23.351884 22:17.401265 23:10.36178 24:6.0251791 25:3.4914224 
1 1:68064.193 2:1339.2919 3:1367.2687 4:1138.7368 5:672.80923 6:520.40467 7:440.38086 8:533.65477 9:851.33021 10:769.75596 11:365.01691 12:236.2737 13:258.10525 14:274.40047 15:248.68589 16:189.69434 17:96.475963 18:73.913565 19:68.558949 20:50.086405 21:23.64959 22:19.732827 23:14.807462 24:12.152629 25:12.388685 
1 1:66988.41 2:1818.6801 3:1295.2841 4:1303.8479 5:1063.7549 6:941.7914 7:714.40574 8:548.98397 9:745.48665 10:763.47889 11:425.79443 12:279.25364 13:222.91799 14:211.10355 15:226.61788 16:231.99222 17:125.16551 18:84.480365 19:68.602182 20:38.944568 21:23.113841 22:22.335095 23:10.068655 24:5.7527043 25:4.2961095 
1 1:66262.436 2:1141.4215 3:1497.5909 4:1332.633 5:832.51234 6:855.618 7:682.05173 8:510.51569 9:743.14362 10:739.98086 11:382.15202 12:255.55404 13:241.82238 14:263.36546 15:256.39196 16:209.20154 17:124.40973 18:94.90011 19:76.027286 20:51.624649 21:39.926764 22:27.828993 23:10.89103 24:5.6295344 25:6.4289011 
1 1:65217.992 2:1472.9245 3:1568.1813 4:1251.8814 5:843.81438 6:743.99176 7:642.56563 8:590.74451 9:655.49477 10:561.38092 11:285.3549 12:246.46895 13:257.40961 14:238.50195 15:259.10756 16:221.4773 17:107.9444 18:87.752204 19:56.486236 20:37.660963 21:29.26059 22:20.866798 23:9.9061412 24:7.2852731 25:6.1530996 
1 1:64724.51 2:1252.2123 3:1250.013 4:1171.7243 5:826.69367 6:617.17268 7:507.6522 8:559.49385 9:754.20876 10:675.29885 11:360.47247 12:352.58404 13:345.87414 14:229.47969 15:208.72247 16:190.71466 17:116.54717 18:96.748303 19:70.778325 20:51.95638 21:36.361905 22:21.083092 23:14.396829 24:10.669381 25:10.235159 
1 1:63633.373 2:1254.4412 3:1568.1954 4:1327.23 5:731.78767 6:837.16752 7:562.2355 8:406.50276 9:659.88505 10:684.12142 11:325.45293 12:220.49875 13:241.3777 14:240.97829 15:281.02403 16:214.46274 17:93.253531 18:66.641798 19:61.263929 20:51.395874 21:28.004888 22:14.060071 23:7.5748761 24:4.8262175 25:3.7058255 
1 1:62909.536 2:1019.2708 3:1306.3233 4:1184.6917 5:673.64636 6:482.90153 7:512.32893 8:548.86627 9:847.78808 10:827.74704 11:369.88363 12:325.71615 13:227.79828 14:198.51297 15:264.27369 16:200.12334 17:94.154529 18:72.098732 19:54.804268 20:46.459263 21:37.028186 22:22.718958 23:8.0677157 24:3.6223091 25:3.012688 
1 1:64594.783 2:1128.1302 3:1248.0893 4:998.48154 5:516.79121 6:523.48825 7:371.32994 8:463.72976 9:823.12956 10:761.71414 11:375.53007 12:273.29232 13:183.7656 14:177.44065 15:187.41508 16:175.82287 17:123.34159 18:90.330631 19:60.403011 20:35.301517 21:23.070208 22:19.932566 23:14.815073 24:11.566874 25:9.5118866 
1 1:65103.844 2:1064.2612 3:1634.5257 4:1344.8765 5:631.73553 6:575.65069 7:481.32674 8:472.40626 9:732.6562 10:685.776 11:368.82876 12:335.40766 13:326.40681 14:282.26773 15:277.07818 16:210.75084 17:117.33751 18:114.24215 19:86.365605 20:42.552096 21:30.120525 22:22.504681 23:9.4898331 24:8.3014763 25:6.6025726 
1 1:64609.944 2:1192.7173 3:1512.2662 4:1340.9513 5:823.52152 6:771.96958 7:566.60151 8:551.90206 9:876.08641 10:781.85334 11:383.00575 12:310.62822 13:229.48403 14:197.67128 15:248.99781 16:201.47504 17:120.57349 18:111.11973 19:80.828419 20:62.49786 21:37.863565 22:23.300829 23:11.973846 24:5.8283614 25:6.6567693 
1 1:68463.076 2:1671.2665 3:1528.0445 4:1199.6255 5:724.27064 6:600.7279 7:590.53739 8:674.21578 9:848.23549 10:761.6064 11:411.52927 12:224.9227 13:262.55624 14:258.67782 15:253.24813 16:219.21578 17:95.081917 18:60.40375 19:48.925171 20:38.371345 21:25.185391 22:16.722667 23:8.7171559 24:11.007722 25:10.943194 
1 1:69067.296 2:1517.6656 3:1977.28 4:1794.9885 5:800.58386 6:814.73531 7:724.76122 8:536.1959 9:786.63571 10:693.39144 11:316.6027 12:286.60747 13:264.1721 14:186.36531 15:208.06038 16:248.66314 17:156.88292 18:80.81646 19:58.238472 20:53.413588 21:33.357035 22:27.251479 23:21.265281 24:17.560045 25:17.667206 
1 1:66211.682 2:1498.5261 3:1228.7552 4:1206.8133 5:925.93616 6:918.62726 7:652.69732 8:521.1474 9:829.69136 10:772.04563 11:391.30068 12:346.50587 13:296.56255 14:228.64931 15:236.79091 16:221.62897 17:129.6575 18:79.436105 19:49.986786 20:34.427285 21:29.479233 22:12.442381 23:6.0974844 24:4.9988263 25:2.1704661 
1 1:68588.917 2:1054.5496 3:1491.0925 4:1221.1618 5:746.61887 6:691.92695 7:466.53773 8:520.16816 9:761.92829 10:603.58061 11:298.83881 12:283.07643 13:310.90422 14:233.17809 15:223.47029 16:222.20108 17:129.64798 18:77.793783 19:41.652637 20:44.087414 21:30.580467 22:15.121386 23:7.7737386 24:8.1576845 25:7.9639529 
1 1:67238.788 2:1364.4613 3:1303.6602 4:1412.262 5:888.14637 6:579.98643 7:548.67756 8:432.65491 9:677.28845 10:656.49223 11:275.83164 12:223.6221 13:253.28814 14:221.3425 15:244.21551 16:241.97419 17:124.32863 18:84.852058 19:51.728595 20:30.118259 21:30.139125 22:21.849104 23:9.7381283 24:5.9082452 25:6.7150004 
1 1:69453.684 2:1423.5607 3:1254.2153 4:1049.6898 5:632.88789 6:539.31904 7:560.87769 8:490.33532 9:636.38108 10:576.59697 11:271.42657 12:215.84589 13:188.27343 14:196.44998 15:241.96301 16:222.08782 17:124.53088 18:106.91228 19:76.228459 20:34.250236 21:23.571557 22:19.449272 23:11.730188 24:7.6094984 25:8.2366967 
1 1:69384.557 2:1270.4075 3:1052.1977 4:925.97291 5:706.9563 6:569.54403 7:488.57753 8:425.76754 9:616.03294 10:643.60524 11:402.43988 12:336.46114 13:254.04612 14:302.61344 15:356.71202 16:268.47747 17:127.74534 18:86.92981 19:62.156093 20:43.810066 21:28.618795 22:16.334008 23:6.6781268 24:5.1303113 25:7.1232669 
1 1:69738.089 2:1661.9097 3:1381.1683 4:1060.9069 5:740.54247 6:403.60823 7:367.15783 8:533.0388 9:747.53648 10:600.92764 11:350.59623 12:420.42787 13:333.14017 14:179.15714 15:237.1672 16:248.56524 17:137.49487 18:106.31048 19:72.446418 20:39.212309 21:22.593372 22:14.386907 23:11.675553 24:8.8562154 25:7.3933467 
1 1:68829.256 2:1052.009 3:1319.0816 4:1314.4738 5:922.89807 6:769.72062 7:794.68266 8:533.69082 9:625.16808 10:669.24074 11:375.88787 12:315.99372 13:295.66192 14:323.66194 15:301.63411 16:224.4345 17:128.99382 18:90.552811 19:59.26628 20:36.447285 21:30.110154 22:15.612772 23:10.21068 24:7.091754 25:4.3625605 
1 1:66227.754 2:1820.4917 3:1752.9645 4:1383.3724 5:870.21684 6:967.83946 7:1146.4241 8:821.56046 9:955.58046 10:869.29987 11:487.6149 12:427.45333 13:335.84522 14:264.77578 15:286.21294 16:245.7332 17:123.01838 18:86.93885 19:73.44078 20:54.056759 21:32.581688 22:14.760496 23:8.6322689 24:5.2328699 25:3.1721535 
1 1:68637.457 2:1609.7339 3:1408.8772 4:1372.885 5:874.45032 6:774.39821 7:860.32683 8:780.86954 9:814.54471 10:866.27216 11:480.90616 12:323.67379 13:325.96046 14:261.77343 15:291.25269 16:231.9787 17:137.61795 18:100.78786 19:61.812683 20:45.725393 21:32.658373 22:25.582941 23:28.197768 24:29.654944 25:28.367836 
1 1:69275.409 2:2098.4133 3:1611.092 4:1324.6881 5:644.6502 6:844.80801 7:762.81561 8:508.38073 9:860.88781 10:752.87189 11:287.48842 12:263.16756 13:312.0105 14:319.91204 15:305.05447 16:219.47326 17:101.73836 18:97.60603 19:79.627717 20:49.094885 21:33.932399 22:34.19244 23:34.598453 24:34.020407 25:35.014562 
1 1:65465.593 2:1200.4704 3:1427.6726 4:1418.6833 5:686.54715 6:698.38142 7:680.68669 8:547.95722 9:754.56622 10:718.26661 11:328.568 12:251.40481 13:192.70893 14:213.59583 15:299.13028 16:238.13839 17:118.0324 18:94.286312 19:68.070759 20:38.943516 21:28.350327 22:19.835195 23:16.079624 24:12.06328 25:10.917256 
1 1:68965.01 2:2282.5651 3:1626.7132 4:957.35158 5:682.10074 6:801.10583 7:708.44913 8:621.85665 9:878.20168 10:833.82528 11:380.87033 12:209.11118 13:208.13237 14:240.90401 15:205.416 16:185.84311 17:135.05239 18:91.435135 19:66.234576 20:46.537075 21:29.220393 22:17.807795 23:7.1395975 24:4.1809902 25:3.1098986 
1 1:67973.047 2:2058.7068 3:1365.5109 4:1433.3621 5:1106.2459 6:787.74689 7:577.48756 8:525.18365 9:873.26651 10:817.04255 11:419.09054 12:402.06488 13:375.99065 14:290.54841 15:261.14169 16:226.73033 17:122.19637 18:92.11296 19:67.55384 20:37.155579 21:27.110512 22:20.803961 23:13.7224 24:13.027238 25:12.27034 
1 1:63262.331 2:1659.4076 3:1776.0862 4:1648.7502 5:579.20342 6:485.42862 7:607.36867 8:522.59196 9:724.80069 10:713.58963 11:466.47026 12:379.52407 13:260.88354 14:225.12429 15:283.70274 16:232.1808 17:139.89778 18:123.24678 19:80.526424 20:53.687681 21:26.571187 22:15.345321 23:10.93261 24:6.0752012 25:5.5128242 
1 1:62265.651 2:1415.2176 3:1192.2439 4:1287.0979 5:1086.5296 6:925.12778 7:775.34586 8:569.47466 9:825.60003 10:780.08783 11:399.89603 12:279.03716 13:278.33729 14:300.71922 15:242.90625 16:159.20612 17:120.05498 18:117.78939 19:83.349072 20:55.654485 21:34.255633 22:17.696948 23:5.913955 24:4.3787278 25:2.4396263 
1 1:62093.11 2:1363.7061 3:1732.7431 4:1494.7493 5:812.43673 6:631.55906 7:682.68707 8:732.31025 9:755.12064 10:701.70068 11:453.93769 12:321.75491 13:232.00336 14:238.96933 15:245.23477 16:168.39723 17:117.56463 18:94.402331 19:52.62243 20:37.66137 21:29.18929 22:16.635469 23:5.3886279 24:3.6650109 25:2.3925074 
1 1:59630.05 2:1149.9491 3:1326.545 4:1099.0214 5:536.11878 6:654.13706 7:738.21249 8:579.04593 9:682.75386 10:619.29775 11:312.02106 12:264.23852 13:249.22397 14:215.65885 15:204.84168 16:192.12814 17:121.82875 18:90.856219 19:63.832567 20:46.710642 21:27.66213 22:18.475868 23:9.7961363 24:5.9095486 25:2.8789454 
1 1:61289.79 2:1447.4757 3:1494.0442 4:1279.0116 5:695.59582 6:609.59688 7:617.72035 8:641.79963 9:746.27574 10:583.61856 11:337.12159 12:371.16597 13:316.11554 14:251.18086 15:234.12757 16:182.2508 17:107.65395 18:94.017786 19:69.09895 20:37.372446 21:29.70091 22:26.28329 23:16.988083 24:14.356716 25:13.278726 
1 1:58141.045 2:1633.4831 3:1438.5566 4:943.27692 5:494.16883 6:408.67445 7:484.60617 8:469.57058 9:845.55313 10:802.5712 11:352.32061 12:324.85012 13:277.76756 14:324.15545 15:346.80503 16:204.67783 17:115.53803 18:103.88822 19:52.210247 20:40.868591 21:31.27062 22:18.651485 23:8.2721659 24:3.5870347 25:2.0001886 
1 1:58852.41 2:1888.3094 3:1523.0858 4:1200.4261 5:747.22198 6:546.90905 7:572.96745 8:673.45324 9:993.69417 10:904.4208 11:417.13635 12:345.74134 13:290.62146 14:228.31571 15:225.89197 16:235.51586 17:142.97012 18:72.84657 19:39.248803 20:26.610013 21:20.52665 22:18.312652 23:12.785027 24:10.400468 25:11.521507 
1 1:60360.75 2:953.99655 3:1385.6616 4:1237.3613 5:540.24964 6:461.35884 7:542.50798 8:558.46318 9:826.52017 10:785.48599 11:329.24327 12:215.56892 13:214.00752 14:200.2097 15:206.23384 16:170.75528 17:110.30846 18:78.915438 19:49.98444 20:32.690724 21:25.441613 22:21.348553 23:9.8479703 24:4.8295703 25:3.8007224 
1 1:61581.935 2:1131.9334 3:1594.1653 4:1218.382 5:598.95154 6:580.07395 7:451.08157 8:481.41566 9:669.66072 10:591.14813 11:297.80117 12:249.87329 13:246.11771 14:246.23179 15:190.61913 16:146.32157 17:112.81456 18:114.65288 19:72.360215 20:36.39877 21:26.20296 22:13.70291 23:7.9589465 24:4.4750833 25:2.6700404 
1 1:62173.162 2:1499.5957 3:1570.5132 4:1707.4267 5:981.63447 6:724.18661 7:613.77329 8:603.50851 9:800.98227 10:652.56066 11:307.9433 12:227.71181 13:188.83758 14:240.16352 15:307.04883 16:241.73211 17:109.83197 18:113.45404 19:80.878096 20:33.313418 21:23.910593 22:16.642887 23:5.5564378 24:4.0075395 25:2.9592696 
1 1:61052.833 2:1389.005 3:1318.9189 4:1170.7953 5:645.63584 6:672.42925 7:748.04092 8:653.61588 9:832.41509 10:610.71771 11:275.47568 12:269.94845 13:227.27401 14:210.82852 15:318.54468 16:283.48711 17:120.60159 18:67.656705 19:43.442943 20:29.978236 21:25.249113 22:15.51691 23:8.8235638 24:9.6787774 25:9.3089888 
1 1:63147.352 2:1958.5932 3:1657.2995 4:1159.7214 5:492.80545 6:498.47712 7:636.74459 8:625.77174 9:808.13545 10:758.35374 11:422.46116 12:330.39015 13:238.49174 14:254.4198 15:273.59971 16:198.04979 17:113.86142 18:97.753427 19:67.904089 20:39.229766 21:30.573073 22:21.992329 23:10.346516 24:9.24405 25:7.6134851 
1 1:61581.383 2:660.60793 3:1215.4876 4:1141.5255 5:613.67508 6:557.99246 7:558.62473 8:657.02712 9:917.78348 10:699.8973 11:351.51241 12:297.7802 13:358.85882 14:321.29101 15:215.03781 16:189.66694 17:113.63131 18:107.17387 19:76.072608 20:42.260783 21:35.69928 22:25.573774 23:15.040156 24:15.4886 25:14.594768 
1 1:60597.038 2:959.00532 3:1321.3554 4:1384.8192 5:784.68917 6:567.62102 7:508.99799 8:490.92059 9:703.59928 10:686.99824 11:374.94979 12:230.21429 13:263.47725 14:237.00892 15:239.86107 16:234.07641 17:135.84072 18:119.67286 19:90.265204 20:51.277703 21:29.711953 22:17.819647 23:12.187879 24:7.8502498 25:6.7489221 
1 1:60050.96 2:1233.6584 3:1438.5927 4:1224.828 5:817.74803 6:808.05071 7:668.89441 8:522.76089 9:675.09795 10:648.24859 11:261.89142 12:159.50052 13:228.19507 14:216.5431 15:210.72406 16:198.56112 17:118.00823 18:86.353257 19:64.776349 20:48.043015 21:21.806048 22:13.102494 23:9.9744173 24:8.1735928 25:7.9395661 
1 1:63274.01 2:1351.153 3:1305.3061 4:1133.1909 5:717.48588 6:737.89934 7:493.81399 8:492.58199 9:782.73925 10:612.18298 11:265.96861 12:229.82948 13:269.09654 14:225.82196 15:201.9049 16:173.39789 17:89.000014 18:58.833956 19:34.48424 20:31.030653 21:31.590673 22:21.233141 23:10.040155 24:7.6776186 25:6.7269217 
1 1:63437.082 2:1440.5738 3:1485.9354 4:1433.6351 5:651.57967 6:627.57582 7:678.19257 8:565.64701 9:560.7355 10:602.74753 11:415.30314 12:227.33839 13:180.14533 14:153.69776 15:175.87104 16:187.03244 17:109.23466 18:68.890181 19:46.924487 20:36.606404 21:30.879317 22:18.189425 23:7.1635586 24:5.5694226 25:6.2097548 
1 1:62685.076 2:1599.6051 3:1100.9413 4:1133.8235 5:767.69137 6:673.66806 7:566.75446 8:589.01129 9:767.69198 10:731.12701 11:459.1587 12:320.00826 13:245.30088 14:224.88077 15:197.16853 16:186.80423 17:126.11837 18:87.399048 19:66.896682 20:56.802885 21:36.785968 22:16.974456 23:11.902092 24:11.689295 25:9.4262157 
1 1:60196.974 2:1280.1119 3:1149.9264 4:1084.9222 5:652.26369 6:551.08231 7:490.1882 8:583.38228 9:830.8566 10:750.50367 11:403.65203 12:304.51202 13:295.70414 14:235.7867 15:252.70355 16:202.05374 17:80.151256 18:62.792821 19:47.167617 20:36.008849 21:28.28825 22:16.792405 23:9.3161701 24:9.2823406 25:6.4854374 
1 1:61180.581 2:1056.2419 3:1391.324 4:1169.3856 5:562.48928 6:669.50481 7:647.68668 8:569.78033 9:741.77453 10:717.81884 11:428.43886 12:323.95986 13:282.33122 14:276.58579 15:290.24643 16:228.6671 17:94.859196 18:85.165374 19:71.386741 20:38.400655 21:32.420438 22:16.473039 23:7.3524364 24:5.7498158 25:6.081828 
1 1:60135.594 2:1167.1462 3:1155.9622 4:1118.1468 5:736.29344 6:617.52822 7:738.89714 8:805.00974 9:957.39372 10:798.9499 11:290.41414 12:214.16995 13:207.08559 14:230.18418 15:278.58096 16:195.45886 17:86.446472 18:74.503939 19:68.454665 20:47.756145 21:28.878268 22:20.394712 23:8.4753038 24:6.553927 25:5.6203029 
1 1:60876.287 2:1757.8484 3:1568.1762 4:1432.0799 5:965.71667 6:890.92374 7:668.56807 8:476.65008 9:724.17985 10:639.99416 11:290.40833 12:288.73151 13:257.71484 14:279.59258 15:319.33229 16:201.13494 17:85.403725 18:80.263499 19:72.258158 20:39.304641 21:24.410539 22:15.033106 23:5.9209608 24:4.0200592 25:1.6909428 
1 1:60677.426 2:1172.3342 3:1371.6115 4:1322.6147 5:921.24717 6:899.57883 7:653.2816 8:447.88031 9:652.01529 10:710.28069 11:457.51948 12:304.60202 13:293.73976 14:281.89932 15:255.71515 16:214.22515 17:129.2251 18:57.001056 19:37.135506 20:41.592687 21:36.299367 22:20.033287 23:11.701069 24:12.431229 25:12.148987 
1 1:59201.521 2:1610.8402 3:1331.8319 4:1208.4299 5:698.89365 6:748.43731 7:600.66053 8:562.11677 9:701.79744 10:605.18187 11:397.92066 12:289.6697 13:205.74991 14:260.32671 15:349.24696 16:266.78955 17:131.25972 18:112.12374 19:63.366942 20:34.672244 21:25.864217 22:16.087002 23:7.8364058 24:4.6878307 25:4.3763918 
1 1:58041.272 2:1329.3401 3:1351.4813 4:1297.2501 5:828.28855 6:732.46888 7:611.54526 8:479.57924 9:788.77151 10:719.59112 11:372.42089 12:308.87539 13:249.44739 14:265.40334 15:288.45704 16:205.72817 17:108.77584 18:97.139964 19:66.667296 20:51.301571 21:36.302644 22:19.37479 23:5.8328588 24:5.3186985 25:5.3235916 
1 1:56520.39 2:1219.9527 3:1339.6533 4:1356.3162 5:881.86576 6:584.35534 7:460.66252 8:421.55788 9:689.73711 10:704.43455 11:331.56956 12:263.18853 13:189.58086 14:243.32705 15:297.03537 16:249.43753 17:134.97257 18:92.795344 19:75.562398 20:48.579743 21:21.983219 22:13.527897 23:9.0608886 24:7.8498132 25:4.8584357 
1 1:57213.393 2:1760.5114 3:1145.0303 4:1258.3705 5:949.75944 6:719.14503 7:745.37458 8:651.6419 9:854.97465 10:763.87154 11:374.08512 12:251.34448 13:192.83535 14:236.93566 15:274.80837 16:238.88561 17:143.50444 18:100.32876 19:68.447311 20:46.693814 21:24.498883 22:10.350399 23:7.4445405 24:5.0114096 25:2.7572402 
1 1:58156.602 2:1302.9639 3:1240.2638 4:991.21168 5:604.44307 6:623.41596 7:733.09852 8:708.50124 9:764.43623 10:588.83061 11:325.23916 12:286.38256 13:179.67 14:193.89676 15:268.29897 16:204.92947 17:107.91547 18:73.935521 19:60.931187 20:44.239151 21:30.217802 22:17.32648 23:10.438206 24:10.455938 25:8.9630742 
1 1:59114.622 2:775.28872 3:1153.1822 4:1212.2614 5:767.69742 6:710.27289 7:632.36906 8:562.05754 9:707.56584 10:667.93937 11:377.6373 12:228.31914 13:163.28597 14:196.66608 15:258.4204 16:226.8761 17:106.53657 18:67.924609 19:59.53925 20:39.040027 21:23.817563 22:21.145564 23:10.247109 24:5.360987 25:4.8303919 
1 1:63536.403 2:1748.0906 3:1256.0942 4:1130.169 5:724.69511 6:622.50163 7:557.80334 8:605.39951 9:830.91072 10:733.56452 11:370.83454 12:255.00763 13:225.33023 14:198.45551 15:234.48838 16:218.58622 17:109.58134 18:87.515994 19:64.125426 20:43.933299 21:27.435503 22:20.075279 23:8.2916094 24:3.4321331 25:3.3158986 
1 1:59544.443 2:1431.9057 3:1479.4783 4:1413.807 5:655.89983 6:536.26609 7:503.26399 8:407.69793 9:711.84807 10:773.38855 11:391.2275 12:245.20253 13:254.90298 14:306.3143 15:288.88256 16:211.55753 17:110.62246 18:83.792541 19:46.068618 20:31.151415 21:20.995295 22:12.873947 23:6.781269 24:4.4676879 25:2.0783419 
1 1:58922.507 2:1524.9676 3:1217.6205 4:1019.223 5:554.7608 6:492.24471 7:461.10733 8:409.68818 9:601.76751 10:538.44987 11:304.76503 12:290.34296 13:219.72596 14:202.67647 15:220.56096 16:185.95377 17:97.298442 18:65.282312 19:63.352498 20:49.183654 21:33.062839 22:16.606659 23:8.8919942 24:6.2622392 25:4.0698917 
1 1:58768.681 2:1368.532 3:1406.1164 4:1163.2441 5:494.57867 6:432.64563 7:502.70985 8:598.82157 9:818.55127 10:686.86038 11:399.90165 12:268.56905 13:175.46438 14:183.21886 15:242.62561 16:209.94734 17:123.41982 18:96.98959 19:51.817903 20:30.419874 21:20.759473 22:12.955751 23:7.7751122 24:4.534802 25:3.0738304 
1 1:59104.522 2:1253.9389 3:1336.3809 4:1101.5653 5:904.89661 6:933.63946 7:618.91272 8:675.63432 9:777.24634 10:625.10727 11:382.63819 12:286.3038 13:310.42082 14:299.00681 15:246.78741 16:210.87916 17:118.78346 18:79.803707 19:54.027476 20:45.246713 21:30.36425 22:17.278192 23:7.7648607 24:4.8324054 25:2.5395999 
1 1:59496.606 2:1401.3378 3:1274.6972 4:995.92576 5:584.71604 6:612.91593 7:588.5417 8:501.30493 9:736.59949 10:686.59633 11:338.18789 12:333.75138 13:297.01429 14:243.31647 15:281.84142 16:213.64931 17:87.535115 18:66.19903 19:52.003585 20:40.475921 21:36.425755 22:23.554006 23:8.9849834 24:5.1974377 25:3.5834338 
1 1:62768.64 2:1541.4912 3:1242.4988 4:1282.9989 5:893.52288 6:659.20385 7:524.7044 8:457.89832 9:836.78041 10:827.01824 11:365.3321 12:284.94272 13:231.92824 14:205.6363 15:208.64766 16:190.4818 17:99.571539 18:74.849767 19:52.677958 20:23.920151 21:21.177496 22:19.250906 23:10.191401 24:5.5607081 25:2.5525693 
1 1:58277.767 2:1351.0709 3:1218.5939 4:1124.5986 5:810.01247 6:761.07948 7:645.1591 8:518.84783 9:671.71164 10:662.59523 11:319.91637 12:258.17729 13:281.29928 14:305.3619 15:286.29413 16:221.08922 17:136.76274 18:80.403741 19:50.914442 20:40.221661 21:30.852174 22:22.112232 23:9.4792549 24:3.7681905 25:2.5327239 
1 1:59122.371 2:1412.5008 3:1344.1606 4:1227.1068 5:896.32824 6:777.8611 7:603.0488 8:598.26614 9:814.13224 10:747.96305 11:441.58756 12:273.06554 13:131.49042 14:193.55395 15:265.59554 16:204.08717 17:93.182218 18:65.126261 19:55.11251 20:44.976206 21:27.831461 22:16.774332 23:8.3085355 24:7.3866997 25:4.917177 
1 1:61643.12 2:1262.1808 3:1146.2266 4:1142.6321 5:790.54146 6:749.27106 7:639.94027 8:537.95243 9:684.67398 10:652.05266 11:347.18676 12:233.14702 13:186.16713 14:219.03425 15:273.95076 16:235.58935 17:111.72744 18:102.59492 19:73.310954 20:37.294847 21:26.972549 22:20.74825 23:11.655337 24:7.7078804 25:7.6924247 
1 1:61774.492 2:1673.1138 3:1510.9824 4:1435.0709 5:871.39683 6:580.5956 7:514.27557 8:571.08056 9:847.80769 10:761.12099 11:315.22413 12:253.90559 13:285.46967 14:287.561 15:267.63578 16:204.72835 17:94.792524 18:70.58619 19:49.218299 20:29.164472 21:24.837138 22:16.46889 23:6.8275017 24:4.0061412 25:3.3458422 
1 1:61002.854 2:1380.8649 3:1419.2642 4:1216.3668 5:704.43479 6:633.99472 7:466.01088 8:427.66652 9:723.61301 10:646.04371 11:377.16381 12:400.03268 13:278.6076 14:254.21098 15:322.64062 16:253.83173 17:134.04234 18:103.02121 19:69.962674 20:48.161015 21:29.440301 22:20.781316 23:6.5505887 24:3.5905498 25:2.4746817 
1 1:61838.463 2:1532.1058 3:1731.6486 4:1504.4323 5:564.55329 6:435.11757 7:440.35788 8:514.92761 9:795.59477 10:745.73277 11:434.9062 12:313.11253 13:240.17093 14:238.54554 15:236.69941 16:193.86507 17:109.05042 18:80.188471 19:51.552059 20:32.33475 21:30.455368 22:16.656079 23:6.0311893 24:4.0176267 25:3.0421171 
1 1:56854.724 2:1048.3569 3:1169.5747 4:1316.4397 5:816.95285 6:736.64308 7:671.39374 8:447.40865 9:837.00447 10:863.40853 11:399.69615 12:295.39098 13:251.73743 14:194.74363 15:204.99573 16:182.32758 17:114.65477 18:106.75765 19:72.153964 20:46.726355 21:28.131837 22:20.905971 23:19.814558 24:15.486247 25:14.359924 
1 1:52822.872 2:1566.051 3:1161.0046 4:994.48717 5:617.52375 6:495.12521 7:470.59069 8:524.45476 9:649.83877 10:610.34689 11:398.87181 12:324.9802 13:217.28956 14:176.58637 15:258.67603 16:231.26459 17:117.49213 18:78.250153 19:63.396031 20:54.060188 21:28.043549 22:15.529629 23:10.596798 24:10.125881 25:11.153459 
1 1:61139.043 2:1389.9581 3:1382.761 4:1447.641 5:827.35072 6:662.05589 7:597.72972 8:541.53321 9:671.39699 10:726.56306 11:431.18565 12:217.0905 13:259.26467 14:259.19309 15:255.65879 16:215.92831 17:102.63028 18:92.531473 19:80.137529 20:51.279946 21:32.916107 22:28.559221 23:18.820715 24:14.859056 25:13.844174 
1 1:57378.93 2:1440.8384 3:1919.9755 4:1619.7931 5:869.4942 6:831.37886 7:699.16959 8:495.18391 9:773.53122 10:674.65873 11:290.46403 12:346.37636 13:343.42919 14:299.69719 15:290.82338 16:227.21163 17:144.29983 18:103.85925 19:70.963543 20:50.747971 21:42.399268 22:32.802857 23:22.765428 24:24.101619 25:26.365502 
1 1:53941.112 2:1379.5346 3:1164.8726 4:1147.3454 5:676.27111 6:591.793 7:597.30509 8:624.68211 9:910.52945 10:835.92454 11:349.06366 12:235.83551 13:282.91589 14:272.7172 15:223.33416 16:203.88169 17:122.70026 18:86.04437 19:54.038293 20:43.174415 21:25.423721 22:13.599724 23:7.8947926 24:8.3377413 25:9.9955002 
1 1:55598.447 2:1798.6066 3:1430.0428 4:1370.3414 5:777.35651 6:613.97403 7:612.10588 8:595.16454 9:698.30117 10:761.21943 11:447.38679 12:236.29065 13:240.97573 14:284.58312 15:215.14133 16:160.83003 17:104.94706 18:73.364095 19:44.686548 20:44.725053 21:32.723892 22:18.728487 23:12.530048 24:11.117494 25:10.20212 
1 1:53533.783 2:1167.1002 3:1122.3314 4:969.8774 5:620.33977 6:582.91221 7:563.27211 8:504.58397 9:853.31825 10:732.60306 11:347.24433 12:344.90318 13:246.91819 14:303.31275 15:335.69002 16:228.57965 17:155.0041 18:104.8283 19:52.435026 20:44.568235 21:35.793661 22:23.511194 23:19.272454 24:17.89914 25:16.829965 
1 1:48852.686 2:1502.4745 3:1410.4472 4:1324.9989 5:782.44574 6:632.60599 7:474.00641 8:490.40666 9:791.88308 10:727.86466 11:277.90017 12:217.05598 13:261.34726 14:251.33783 15:239.23891 16:202.07369 17:113.99065 18:94.396493 19:48.932318 20:26.863696 21:27.358362 22:21.641051 23:9.8749219 24:5.0816868 25:4.7054309 
1 1:49401.028 2:1432.2031 3:1669.5144 4:1467.9428 5:718.30868 6:466.27599 7:487.75573 8:562.23804 9:755.03024 10:694.91447 11:370.59369 12:284.06783 13:245.48308 14:234.35047 15:247.39103 16:223.0435 17:132.99073 18:70.215514 19:47.545126 20:35.880092 21:27.286096 22:21.641373 23:17.632694 24:16.541974 25:15.053139 
1 1:51463.267 2:1057.4985 3:1472.9187 4:1509.6017 5:734.40867 6:527.56629 7:658.3462 8:502.28357 9:691.78153 10:704.88378 11:347.24446 12:257.91933 13:222.66892 14:241.6775 15:231.24908 16:190.20369 17:115.28021 18:96.599029 19:56.748744 20:38.853799 21:33.021065 22:14.195588 23:6.6953737 24:5.9391059 25:4.5331194 
1 1:53003.533 2:1341.5011 3:1318.4334 4:1186.3349 5:816.23511 6:727.51608 7:486.50873 8:399.13433 9:695.36572 10:635.2518 11:337.60488 12:229.29802 13:183.9497 14:217.79541 15:239.74364 16:199.34285 17:112.06334 18:89.734695 19:55.599381 20:31.96508 21:28.890182 22:23.124849 23:10.756825 24:6.0216432 25:4.3376122 
1 1:50730.777 2:1242.8651 3:1401.1267 4:1296.8846 5:726.53602 6:718.82734 7:637.21424 8:496.641 9:681.56215 10:674.60384 11:339.09448 12:242.28599 13:217.20858 14:268.18778 15:305.21801 16:201.6162 17:114.32538 18:83.080988 19:51.804462 20:46.01139 21:34.744892 22:17.019904 23:14.200958 24:14.061262 25:13.436435 
1 1:48890.847 2:1455.4882 3:1501.6892 4:1398.6703 5:1051.192 6:803.32551 7:443.96524 8:338.28421 9:629.43254 10:650.7242 11:293.68251 12:255.01721 13:333.86632 14:343.81779 15:261.97786 16:202.67105 17:107.95075 18:78.447429 19:56.587619 20:33.115354 21:29.054561 22:23.01396 23:15.834729 24:14.071488 25:12.046245 
1 1:46121.83 2:1166.7576 3:1248.2651 4:1155.7732 5:666.96507 6:540.17424 7:436.5534 8:459.02018 9:723.55705 10:642.67464 11:378.13158 12:284.50497 13:214.59398 14:212.92207 15:284.35209 16:238.10406 17:123.13652 18:92.105505 19:53.463957 20:32.371834 21:25.492045 22:22.890586 23:19.157794 24:15.832004 25:14.760124 
1 1:41931.641 2:1614.6043 3:1461.2092 4:1235.0853 5:737.02939 6:480.16212 7:433.77186 8:459.58136 9:614.78828 10:625.16429 11:393.18216 12:268.05159 13:167.30005 14:244.52683 15:307.19563 16:245.64164 17:144.3797 18:94.371992 19:53.143673 20:38.708381 21:34.148152 22:23.931152 23:12.47076 24:6.2714062 25:2.4278772 
1 1:45318.968 2:1672.4995 3:1495.1781 4:1286.3702 5:830.65849 6:713.11554 7:563.04631 8:627.60464 9:792.24294 10:792.83521 11:504.74679 12:349.69449 13:277.47796 14:242.57331 15:254.64486 16:199.79521 17:152.83099 18:111.19192 19:64.099315 20:37.773942 21:22.217566 22:23.219158 23:18.675807 24:17.052854 25:17.195219 
1 1:46253.48 2:1758.7903 3:1576.4281 4:1375.9685 5:827.6162 6:766.15692 7:565.04727 8:487.16408 9:717.59077 10:672.65312 11:405.94134 12:275.51115 13:275.96863 14:332.06119 15:244.32857 16:152.64158 17:71.787477 18:66.454716 19:44.057853 20:36.193409 21:29.612061 22:18.623281 23:9.9408392 24:7.5305029 25:7.1428775 
1 1:47509.639 2:1551.2797 3:1344.6478 4:1281.7228 5:973.06081 6:690.83704 7:431.26529 8:591.36468 9:885.96372 10:741.96009 11:358.07795 12:332.90429 13:306.51707 14:245.90732 15:251.62878 16:196.37684 17:112.87403 18:79.40676 19:61.364195 20:50.702937 21:37.559555 22:22.418968 23:13.103355 24:12.057075 25:10.13497 
1 1:46025.929 2:1590.7625 3:1440.8709 4:1259.8122 5:643.52803 6:788.64059 7:822.94968 8:606.43607 9:786.2428 10:744.03173 11:372.57446 12:270.36923 13:212.08522 14:172.13443 15:217.13792 16:201.66436 17:102.4344 18:77.879507 19:69.542217 20:55.406874 21:38.960392 22:20.31483 23:9.5687728 24:7.039791 25:6.2305022 
1 1:43986.779 2:1539.1609 3:1383.5168 4:1162.4392 5:576.12943 6:535.35522 7:530.21856 8:467.70345 9:813.17564 10:794.69638 11:383.95133 12:213.64165 13:216.72437 14:260.0537 15:267.99642 16:213.7047 17:99.065467 18:89.616881 19:67.34986 20:42.187408 21:45.115113 22:34.8888 23:21.547095 24:22.811465 25:22.12265 
1 1:37630.614 2:1271.7896 3:1291.7992 4:1211.4311 5:606.5663 6:714.67763 7:696.92616 8:485.39247 9:810.61879 10:852.09347 11:423.543 12:286.84429 13:235.06106 14:215.66711 15:326.13702 16:267.1992 17:101.30195 18:86.307297 19:73.670453 20:42.467386 21:29.058497 22:18.737324 23:8.9585086 24:5.3517772 25:2.5428534 
1 1:43856.209 2:1591.8172 3:1475.0714 4:1180.2853 5:518.36019 6:483.48741 7:538.36583 8:506.54821 9:667.47009 10:597.44462 11:350.98801 12:315.00284 13:275.53159 14:240.13907 15:211.52395 16:179.7743 17:94.774433 18:94.328123 19:78.101612 20:60.604178 21:40.416414 22:28.592315 23:34.483821 24:33.489122 25:32.054012 
1 1:46815.975 2:1315.3167 3:1170.588 4:1159.398 5:753.76077 6:672.10189 7:655.80152 8:612.5581 9:762.97108 10:570.16139 11:337.49836 12:333.24424 13:265.3152 14:249.7537 15:283.50064 16:231.29239 17:132.60502 18:109.64401 19:62.892013 20:47.338103 21:33.553701 22:18.670283 23:14.630477 24:11.025968 25:7.957638 
1 1:49059.934 2:1589.8649 3:1564.7672 4:1261.6097 5:824.32554 6:681.77636 7:413.59756 8:381.33614 9:796.47856 10:742.67482 11:441.24044 12:420.4146 13:280.44839 14:281.47801 15:317.73274 16:245.28056 17:124.93803 18:73.987337 19:46.830753 20:33.286484 21:26.300908 22:18.110868 23:8.4022377 24:4.8789955 25:1.6520818 
1 1:50129.642 2:1200.5542 3:1106.9444 4:1075.2495 5:638.36363 6:673.64317 7:615.55557 8:446.09521 9:712.20007 10:689.56379 11:370.12667 12:338.97272 13:253.26705 14:181.48591 15:279.79995 16:268.12268 17:129.83221 18:92.002905 19:69.265488 20:37.987237 21:23.347483 22:17.516329 23:9.9147217 24:9.0066817 25:9.1237016 
1 1:46211.192 2:1671.0347 3:1568.6834 4:1469.9412 5:867.23424 6:619.99589 7:422.23943 8:602.09433 9:841.63749 10:744.97644 11:483.19227 12:269.56215 13:151.95036 14:219.33376 15:283.42818 16:220.88758 17:135.83394 18:99.449399 19:62.456653 20:51.120185 21:30.446902 22:20.03386 23:15.589315 24:12.084379 25:10.293212 
1 1:48522.337 2:1194.9031 3:1286.6519 4:1143.2518 5:464.0293 6:484.80399 7:514.66552 8:379.91219 9:690.84645 10:653.32978 11:356.08437 12:322.11353 13:240.56301 14:217.08462 15:206.33911 16:191.34442 17:150.96111 18:126.66434 19:88.228195 20:46.104461 21:31.416862 22:19.827215 23:11.830625 24:9.6745345 25:8.0812728 
1 1:48011.528 2:1028.1986 3:1233.5843 4:981.48922 5:558.27434 6:814.48535 7:740.54688 8:429.07135 9:644.09537 10:714.42472 11:334.81571 12:256.99208 13:272.70767 14:217.04355 15:209.61199 16:206.46522 17:128.58565 18:87.160874 19:44.953405 20:38.285299 21:32.4706 22:24.022859 23:18.064643 24:12.330066 25:10.766489 
1 1:51954.368 2:1423.7874 3:1079.4177 4:1005.3435 5:567.08226 6:836.38789 7:867.91991 8:671.06791 9:854.69015 10:700.76896 11:362.65998 12:315.59505 13:319.61229 14:239.49711 15:228.35732 16:208.08621 17:119.32608 18:88.749491 19:56.342193 20:34.761609 21:22.343692 22:14.949296 23:7.9835078 24:6.1020955 25:5.6748337 
1 1:53388.29 2:1550.8643 3:1566.4607 4:1430.6663 5:736.50819 6:651.13663 7:606.65695 8:478.29271 9:760.21131 10:746.89386 11:352.79647 12:291.45452 13:349.06106 14:322.26996 15:233.35894 16:205.52344 17:122.64828 18:79.855286 19:64.481907 20:37.407744 21:29.708519 22:21.50099 23:8.4971083 24:6.6683574 25:3.7870402 
1 1:52909.323 2:1244.6483 3:1307.1292 4:1258.6897 5:898.32736 6:698.75872 7:543.17367 8:529.06766 9:720.1066 10:708.989 11:379.38724 12:285.78483 13:192.9263 14:159.74507 15:205.64949 16:209.03441 17:124.40161 18:93.94158 19:77.290715 20:43.786746 21:34.552818 22:22.45392 23:7.5469091 24:3.5102956 25:2.0496639 
1 1:52553.343 2:1281.7049 3:1131.0637 4:980.69298 5:693.18055 6:738.13312 7:509.20509 8:403.38618 9:687.28293 10:660.43726 11:284.40685 12:231.59395 13:238.49754 14:252.28664 15:263.54175 16:193.38201 17:115.79881 18:98.790042 19:86.021913 20:49.289675 21:24.741229 22:14.332191 23:9.0103926 24:6.7190615 25:3.8640734 
1 1:53727.438 2:1329.2735 3:1343.6 4:1193.8309 5:618.15141 6:546.76083 7:517.6059 8:536.15202 9:680.76096 10:576.95103 11:294.90922 12:304.74203 13:349.97954 14:279.39481 15:250.95266 16:214.51296 17:127.29745 18:84.383953 19:55.244941 20:38.004902 21:27.120859 22:17.719457 23:12.559769 24:10.151854 25:9.243722 
1 1:53315.415 2:1476.1956 3:1251.6149 4:1158.7883 5:775.81567 6:800.82663 7:574.34767 8:520.98937 9:841.07724 10:737.4508 11:357.15898 12:220.06588 13:191.95801 14:217.53619 15:236.28628 16:212.17082 17:104.71714 18:104.98716 19:78.738341 20:39.522526 21:37.784765 22:25.842291 23:19.12739 24:18.039342 25:18.756933 
1 1:50489.043 2:1789.3823 3:1571.8533 4:1449.5418 5:701.23501 6:564.24292 7:514.00338 8:521.17339 9:774.99259 10:678.83639 11:362.42329 12:242.24617 13:168.34496 14:225.25241 15:295.07315 16:236.69485 17:112.96478 18:81.342428 19:50.939509 20:32.926346 21:29.60884 22:30.718119 23:19.185348 24:14.565416 25:14.940657 
1 1:54892.534 2:1646.266 3:1107.3643 4:970.22554 5:754.08899 6:812.91677 7:654.16717 8:418.0487 9:689.65906 10:617.31225 11:301.00181 12:254.97041 13:165.45969 14:156.4627 15:228.85868 16:249.76905 17:123.14721 18:80.547053 19:67.860917 20:52.609544 21:44.527405 22:34.573393 23:21.784076 24:21.931237 25:23.040206 
1 1:56380.836 2:1651.555 3:1514.6688 4:1381.9651 5:753.47183 6:465.4946 7:580.12954 8:550.05493 9:708.8642 10:651.71961 11:336.04165 12:257.43103 13:231.73221 14:259.11081 15:240.18834 16:206.54208 17:110.39623 18:110.15495 19:81.420604 20:33.712296 21:27.325234 22:26.711816 23:14.392926 24:11.868595 25:10.44125 
1 1:54299.586 2:1404.199 3:1083.452 4:1109.6385 5:698.17916 6:723.0639 7:686.3536 8:545.12262 9:595.9639 10:523.61006 11:293.52779 12:277.76524 13:278.3364 14:260.75021 15:251.41212 16:226.51827 17:116.62882 18:64.602298 19:46.402532 20:27.16992 21:24.738352 22:17.021408 23:7.2864127 24:3.7237613 25:2.3759206 
1 1:53320.218 2:1353.5143 3:1597.4833 4:1344.9749 5:538.24652 6:593.63292 7:663.73575 8:467.76871 9:667.59226 10:682.43964 11:342.83105 12:273.59961 13:204.83219 14:250.87209 15:289.22684 16:212.72853 17:138.2687 18:88.164095 19:69.18539 20:57.393171 21:30.003016 22:14.173707 23:10.805338 24:8.474141 25:7.205945 
1 1:52985.39 2:1104.669 3:1079.548 4:1149.0889 5:764.10725 6:525.11126 7:456.67628 8:523.47266 9:747.23836 10:747.18235 11:395.81894 12:261.03627 13:233.62265 14:185.9672 15:240.3437 16:238.81914 17:125.52689 18:89.167658 19:53.695862 20:36.717264 21:35.437385 22:23.967005 23:8.6017145 24:5.364887 25:4.4538213 
1 1:54911.356 2:1008.257 3:1115.5321 4:1007.0768 5:525.01433 6:605.32587 7:747.22879 8:583.27727 9:642.72857 10:600.59765 11:321.94459 12:249.53929 13:188.65981 14:265.05433 15:316.29708 16:222.17561 17:120.09644 18:78.976599 19:61.437665 20:42.249102 21:31.732484 22:26.904061 23:17.392261 24:13.022439 25:11.906557 
1 1:52648.083 2:1120.4222 3:1310.7856 4:1264.2622 5:666.333 6:671.42389 7:583.32951 8:427.8733 9:755.67422 10:811.21326 11:470.39286 12:294.45447 13:225.2832 14:293.82458 15:294.89185 16:212.17345 17:138.55412 18:88.181339 19:55.002156 20:43.243285 21:39.022542 22:28.14783 23:15.697827 24:13.354239 25:13.82687 
1 1:49706.625 2:1413.4665 3:1664.4243 4:1231.9882 5:562.58137 6:572.13296 7:566.14602 8:523.56101 9:716.34192 10:639.03377 11:277.5947 12:258.89266 13:268.44082 14:272.14427 15:268.88921 16:200.09476 17:118.25467 18:105.22762 19:61.282033 20:49.140203 21:34.636853 22:17.811946 23:12.058665 24:10.605597 25:10.648883 
1 1:51191.974 2:1326.8209 3:1096.613 4:1037.0408 5:693.61331 6:532.75732 7:466.75879 8:486.70246 9:743.29447 10:654.6493 11:362.59027 12:327.75112 13:199.84083 14:176.84409 15:239.46119 16:236.34661 17:148.5118 18:101.6862 19:54.161875 20:41.14728 21:27.500425 22:19.780469 23:16.174936 24:10.479662 25:9.7398077 
1 1:52780.042 2:1641.8398 3:1558.259 4:1314.5215 5:867.45169 6:734.07172 7:497.02933 8:496.51902 9:697.31675 10:668.34787 11:357.97892 12:267.46833 13:211.18109 14:189.68725 15:234.57746 16:204.40997 17:131.45856 18:96.590312 19:54.429084 20:40.928299 21:22.870795 22:12.251278 23:5.7029848 24:4.1003223 25:3.4476368 
1 1:50837.62 2:1627.2071 3:1488.8635 4:1106.1522 5:515.80907 6:529.49985 7:708.16488 8:671.19553 9:764.82666 10:615.36322 11:349.29699 12:372.26102 13:250.7918 14:210.82644 15:251.7394 16:200.38457 17:134.31294 18:122.87835 19:66.895005 20:31.974451 21:33.166426 22:24.75855 23:14.772652 24:12.861333 25:10.56083 
1 1:46390.293 2:1364.082 3:1559.2931 4:1325.8017 5:654.45353 6:687.47567 7:579.92372 8:528.54019 9:767.70794 10:643.1271 11:301.88466 12:245.55525 13:250.14757 14:263.31131 15:290.5857 16:239.79923 17:129.41496 18:79.637655 19:39.83149 20:33.660793 21:27.519661 22:25.301322 23:20.507461 24:17.493722 25:15.57717 
1 1:45816.585 2:1510.7205 3:1413.2041 4:1086.1344 5:598.62996 6:428.70526 7:471.18163 8:527.7409 9:701.56129 10:707.80184 11:392.32852 12:284.14271 13:256.35976 14:273.80492 15:305.47458 16:236.53339 17:124.08388 18:78.331833 19:49.280692 20:34.192361 21:23.723448 22:14.873944 23:7.7174098 24:4.1448345 25:2.5581578 
1 1:48128.042 2:1467.4588 3:1100.195 4:857.76395 5:755.91415 6:610.75265 7:487.44198 8:527.5145 9:892.51733 10:802.39641 11:393.58509 12:272.26575 13:215.65456 14:241.56079 15:230.72515 16:217.88492 17:135.59156 18:72.72491 19:41.892551 20:22.815908 21:21.427104 22:19.68894 23:13.254059 24:8.8353134 25:10.310164 
1 1:46090.462 2:1148.1601 3:1139.3447 4:1079.8267 5:639.93401 6:490.98625 7:564.40173 8:571.12649 9:838.87604 10:795.77851 11:327.50492 12:226.27834 13:266.53136 14:278.33105 15:285.25974 16:223.12853 17:83.317851 18:78.427995 19:65.499707 20:36.103995 21:32.214268 22:26.18307 23:12.642735 24:10.919189 25:11.579054 
1 1:42361.142 2:1251.0859 3:1351.3891 4:983.352 5:464.99164 6:479.83637 7:473.15302 8:588.02758 9:872.43081 10:719.22853 11:230.53766 12:207.14528 13:199.99683 14:185.99543 15:216.08444 16:209.34261 17:131.788 18:95.37751 19:74.552421 20:40.691728 21:20.332275 22:10.928073 23:7.1122453 24:6.0861414 25:3.8750968 
1 1:42953.896 2:1287.0125 3:1190.3537 4:1135.7959 5:708.25409 6:641.89042 7:563.8782 8:547.69694 9:660.79643 10:549.64224 11:420.65138 12:414.79048 13:291.5762 14:250.69302 15:316.7153 16:279.89735 17:139.97101 18:102.82729 19:60.549611 20:33.437357 21:24.298458 22:18.188782 23:7.0175418 24:4.1947034 25:3.859709 
1 1:41983.419 2:1326.9482 3:1534.6915 4:1359.2965 5:901.63335 6:826.45986 7:725.06194 8:559.11993 9:642.99724 10:650.77566 11:412.79696 12:367.14358 13:364.81584 14:249.46974 15:245.04149 16:252.88365 17:125.22047 18:83.64536 19:61.610264 20:40.112018 21:25.367712 22:17.421887 23:8.2737816 24:5.6170035 25:2.5450984 
1 1:39886.658 2:962.08332 3:1266.77 4:1406.2043 5:788.37706 6:556.1296 7:542.56013 8:724.01673 9:841.18183 10:643.25703 11:389.79925 12:329.8436 13:271.02603 14:287.85036 15:231.98093 16:179.92718 17:122.07047 18:106.20386 19:93.954334 20:58.797514 21:43.61462 22:25.259307 23:18.445501 24:20.182465 25:20.683063 
1 1:34121.892 2:1345.3946 3:1256.2665 4:1209.2644 5:573.83099 6:573.5526 7:591.98788 8:563.71754 9:854.47094 10:756.19639 11:425.13704 12:362.13568 13:248.18955 14:215.57738 15:273.82319 16:252.49498 17:148.29516 18:91.60036 19:61.43853 20:42.958232 21:33.004 22:16.45071 23:7.8164061 24:5.8685001 25:4.8985487 
1 1:37662.149 2:1204.8486 3:1357.5157 4:1292.499 5:669.20371 6:480.92628 7:511.31731 8:546.15014 9:733.49181 10:748.30949 11:444.87013 12:293.86441 13:215.70418 14:184.30038 15:197.41565 16:179.83732 17:103.81625 18:86.709731 19:44.586364 20:32.696434 21:24.26997 22:21.903889 23:19.977957 24:16.184629 25:14.759403 
1 1:39716.274 2:1258.5282 3:1403.1455 4:1315.1623 5:910.85443 6:790.14545 7:620.48443 8:537.43964 9:835.15553 10:794.57379 11:408.07271 12:288.76448 13:221.38428 14:235.18803 15:239.34674 16:184.35517 17:83.380191 18:88.423175 19:72.181116 20:35.802028 21:25.93398 22:14.059796 23:7.2754839 24:4.1528053 25:2.605222 
1 1:40621.351 2:1415.0046 3:1090.4557 4:1202.6934 5:669.30048 6:644.32624 7:593.32797 8:462.30714 9:723.07397 10:643.53008 11:344.09268 12:284.72311 13:203.98724 14:217.29609 15:264.798 16:190.05434 17:95.337626 18:83.587736 19:61.790995 20:40.358555 21:27.435781 22:16.495472 23:8.361975 24:7.2735556 25:5.402384 
1 1:41982.213 2:1352.1854 3:1343.6394 4:1047.5901 5:631.70151 6:522.86859 7:448.6388 8:485.83464 9:664.95499 10:614.89933 11:313.25777 12:295.38284 13:258.49635 14:248.47762 15:257.96637 16:183.27027 17:108.68174 18:73.210518 19:59.682712 20:37.167464 21:25.357807 22:16.393249 23:8.2050604 24:6.0972868 25:5.8325093 
1 1:42023.421 2:1312.4135 3:1311.8923 4:1235.8274 5:670.60742 6:496.15712 7:371.14862 8:557.61743 9:761.99661 10:725.32655 11:450.39383 12:275.86461 13:224.42676 14:241.83745 15:251.86684 16:197.87111 17:96.02682 18:76.3447 19:59.968159 20:46.70453 21:35.768359 22:22.006997 23:8.9075189 24:4.6421668 25:3.1448824 
1 1:41454.634 2:1097.941 3:1222.5796 4:954.85006 5:531.29538 6:565.12338 7:504.73389 8:595.52691 9:791.25767 10:640.34256 11:321.77766 12:263.51431 13:260.12032 14:249.18642 15:255.32865 16:219.13516 17:116.66861 18:73.371248 19:86.592319 20:66.820603 21:27.711532 22:16.217025 23:12.881496 24:10.334901 25:10.348003 
1 1:40249.396 2:1187.8021 3:1284.1053 4:1179.4527 5:622.95231 6:504.61735 7:542.78647 8:421.52887 9:638.77754 10:670.04681 11:451.64466 12:331.88183 13:190.02514 14:163.60099 15:204.05656 16:194.93664 17:123.35726 18:97.659615 19:65.636652 20:37.426806 21:23.745816 22:17.472755 23:9.9386568 24:6.4343694 25:7.1489524 
1 1:39655.911 2:1100.2917 3:1572.3675 4:1241.9023 5:608.09585 6:747.43373 7:790.92444 8:724.85316 9:823.30027 10:619.0762 11:303.6964 12:254.54545 13:186.93599 14:196.36492 15:299.26156 16:245.65621 17:117.91371 18:88.746997 19:58.193602 20:35.875794 21:26.379183 22:19.528266 23:11.016631 24:5.6688809 25:4.4508399 
1 1:38422.943 2:1084.3216 3:1647.3639 4:1298.0303 5:622.93219 6:818.56958 7:704.20597 8:497.04027 9:780.19231 10:703.25057 11:450.17623 12:358.88901 13:246.93741 14:227.49418 15:253.75109 16:270.25131 17:136.83211 18:66.554381 19:49.165383 20:27.432042 21:19.402558 22:13.852597 23:8.0681045 24:3.3675773 25:2.0255203 
1 1:37379.614 2:1167.3702 3:1194.1832 4:1158.7848 5:745.89414 6:778.47134 7:639.75336 8:404.86346 9:657.37348 10:708.47109 11:354.96244 12:221.21133 13:222.7463 14:233.76821 15:279.00442 16:233.48302 17:96.759621 18:76.782168 19:70.804659 20:46.298963 21:26.912866 22:14.161647 23:7.7724945 24:4.8588526 25:3.9232959 
1 1:43466.903 2:1544.8148 3:1240.0791 4:1303.5071 5:817.96815 6:580.36178 7:380.41235 8:419.17522 9:703.83991 10:612.80811 11:394.44175 12:319.9848 13:286.0295 14:272.47049 15:228.35296 16:200.3844 17:135.73803 18:96.563696 19:60.769089 20:50.357608 21:27.268916 22:17.131958 23:10.353977 24:6.1187544 25:3.7181896 
1 1:43144.412 2:1137.5095 3:1224.6219 4:963.15108 5:539.13839 6:500.51508 7:410.73694 8:372.94693 9:732.07131 10:673.46299 11:299.28994 12:231.40121 13:187.42711 14:242.2105 15:275.7508 16:227.69017 17:144.1301 18:111.19233 19:63.726004 20:37.958985 21:30.637805 22:22.09223 23:21.023049 24:20.764947 25:19.657488 
1 1:49787.307 2:1057.9599 3:1507.1914 4:1132.6896 5:689.10065 6:769.26233 7:627.03317 8:509.20629 9:664.48135 10:607.47632 11:238.37725 12:237.2431 13:336.90678 14:309.42891 15:243.06601 16:175.33327 17:84.904981 18:66.276965 19:41.916923 20:30.871519 21:19.743936 22:16.50115 23:12.701997 24:8.9561694 25:8.7726334 
1 1:49302.046 2:1300.6324 3:1410.913 4:963.78856 5:749.38537 6:679.7175 7:443.53249 8:426.23433 9:718.72331 10:719.12602 11:356.36524 12:258.00613 13:225.68525 14:229.58524 15:262.65872 16:208.7164 17:117.98425 18:99.533077 19:68.305817 20:35.537397 21:29.832038 22:22.060499 23:11.12928 24:11.133176 25:10.883265 
1 1:58789.624 2:2108.8222 3:1856.7325 4:1648.2571 5:977.63101 6:536.21153 7:671.14615 8:601.91824 9:679.54684 10:676.89567 11:280.58671 12:180.89134 13:187.61499 14:138.20215 15:215.85436 16:221.78132 17:134.0192 18:112.31594 19:73.546599 20:51.821247 21:34.489799 22:25.573883 23:10.86055 24:4.9987249 25:3.1564288 
1 1:51868.235 2:1099.6725 3:1511.2721 4:1415.8777 5:869.54348 6:875.21427 7:647.61585 8:371.86019 9:697.60208 10:678.30852 11:302.92455 12:232.61008 13:243.23519 14:221.12764 15:183.87369 16:163.62137 17:119.7985 18:100.56175 19:68.516108 20:42.892121 21:33.870572 22:27.250135 23:22.041684 24:19.114354 25:17.980968 
1 1:50536.682 2:1331.5825 3:1542.4284 4:1469.3038 5:617.80464 6:528.22595 7:469.73999 8:521.05546 9:732.64127 10:575.97603 11:330.74423 12:262.62541 13:187.66656 14:189.06966 15:198.5853 16:182.80896 17:136.33992 18:72.503673 19:45.650978 20:50.551294 21:38.446864 22:22.029432 23:13.848788 24:13.192949 25:13.338496 
1 1:53444.069 2:1393.5725 3:1492.618 4:1463.1038 5:934.73004 6:1005.81 7:774.23724 8:530.66693 9:783.53698 10:806.3153 11:431.51986 12:294.45758 13:207.12381 14:179.08521 15:180.02288 16:208.77614 17:159.56527 18:97.361603 19:64.244707 20:42.871039 21:22.80496 22:17.605277 23:9.1855454 24:4.9588592 25:4.4787777 
1 1:48739.646 2:1583.3652 3:1380.0207 4:1190.3057 5:626.12439 6:720.12334 7:689.02797 8:493.21431 9:820.51846 10:713.75293 11:280.48767 12:304.80373 13:284.60371 14:177.01661 15:231.92202 16:242.00917 17:105.42309 18:56.513065 19:67.071383 20:52.520334 21:32.558042 22:23.472643 23:18.827495 24:16.805713 25:15.682063 
1 1:49024.104 2:1636.3256 3:1410.6304 4:1337.7578 5:683.80658 6:384.27604 7:467.48131 8:493.20107 9:723.44414 10:639.15928 11:365.2528 12:383.00762 13:240.43648 14:222.59064 15:244.14136 16:169.18106 17:103.55061 18:86.248376 19:60.6706 20:42.510766 21:32.682736 22:22.996222 23:10.061805 24:7.3026514 25:4.6048234 
1 1:50148.548 2:1363.2429 3:1294.9703 4:1214.4282 5:660.79297 6:717.80367 7:744.45392 8:542.21185 9:700.98742 10:596.28239 11:327.47124 12:322.63166 13:317.81322 14:352.02682 15:271.36176 16:219.84575 17:143.09271 18:85.934336 19:67.238301 20:37.92044 21:26.83991 22:25.054535 23:13.981393 24:7.2760957 25:6.5118389 
1 1:50000.35 2:1491.3115 3:1167.372 4:1018.1673 5:502.75119 6:526.16563 7:576.6493 8:434.41041 9:663.08843 10:734.20163 11:332.21298 12:246.805 13:232.58559 14:199.5494 15:246.06484 16:204.42971 17:96.567165 18:58.754544 19:64.001125 20:50.406656 21:30.337952 22:22.421717 23:9.4963928 24:7.0397167 25:4.1712186 
1 1:49802.944 2:1573.5825 3:1371.8301 4:1088.1808 5:736.29063 6:684.91376 7:539.07451 8:502.24284 9:822.42633 10:700.93292 11:323.31853 12:269.82739 13:246.82202 14:248.14675 15:246.65938 16:185.9113 17:96.091209 18:90.180812 19:68.597333 20:38.740296 21:26.797023 22:22.375602 23:8.9331624 24:4.9683938 25:3.2402701 
1 1:54677.429 2:2231.767 3:1509.446 4:1235.2931 5:729.91815 6:553.46364 7:361.7606 8:596.80307 9:953.0589 10:738.41407 11:344.56163 12:269.17889 13:232.17658 14:255.40987 15:270.88795 16:188.14522 17:83.004868 18:56.549263 19:55.34375 20:39.34338 21:25.838862 22:17.63175 23:12.445868 24:15.546383 25:16.468152 
1 1:56551.474 2:1653.4475 3:1336.1492 4:1286.7973 5:457.70108 6:316.2047 7:525.53277 8:641.41526 9:891.12192 10:753.52872 11:351.50409 12:347.99854 13:310.84222 14:239.83043 15:258.78203 16:230.64136 17:123.36169 18:69.681596 19:47.237021 20:32.058625 21:24.74002 22:14.881331 23:10.981026 24:7.7450318 25:4.8296186 
1 1:54267.557 2:1671.0281 3:1486.4391 4:1180.0463 5:664.26554 6:641.35034 7:500.41425 8:497.95175 9:710.41215 10:658.14912 11:297.02891 12:266.31414 13:274.8657 14:212.40036 15:228.47433 16:192.64453 17:111.10276 18:86.223822 19:62.6303 20:35.070646 21:24.203357 22:18.599818 23:11.609389 24:7.6712262 25:8.2811517 
1 1:55054.768 2:1818.7478 3:1377.4025 4:1266.712 5:653.49653 6:619.01727 7:640.35153 8:676.99132 9:798.48923 10:677.52558 11:383.04021 12:225.94518 13:196.78508 14:188.39083 15:208.70675 16:226.92206 17:150.01857 18:82.044993 19:55.244479 20:37.870356 21:31.196004 22:19.785708 23:8.0687981 24:6.2059471 25:6.2402308 
1 1:54887.349 2:1610.3418 3:1605.7632 4:1200.9384 5:578.84224 6:454.04501 7:551.25811 8:513.83359 9:707.71491 10:722.64874 11:366.24009 12:214.27963 13:165.63937 14:205.40332 15:256.78462 16:221.53665 17:129.98254 18:90.090071 19:48.837167 20:29.314886 21:24.782458 22:16.884207 23:11.637019 24:8.6809078 25:6.2300455 
1 1:53446.341 2:1724.0263 3:1122.331 4:1123.5154 5:557.52249 6:477.69471 7:599.67525 8:549.44357 9:694.20415 10:646.95787 11:281.22812 12:240.0912 13:212.24692 14:187.53661 15:219.50942 16:216.61762 17:109.01475 18:72.91845 19:57.924089 20:46.021445 21:29.069254 22:18.665922 23:7.7603489 24:5.2516723 25:4.3606357 
1 1:51772.242 2:1230.6097 3:1368.1864 4:1230.3294 5:772.43322 6:682.70372 7:588.70128 8:497.90555 9:715.66158 10:660.57033 11:306.35163 12:252.51511 13:200.4218 14:201.40607 15:242.14417 16:189.74695 17:85.65336 18:60.97066 19:55.200636 20:40.121083 21:25.182876 22:17.914024 23:7.9692077 24:3.694618 25:2.7456182 
1 1:49290.866 2:1007.3613 3:1167.0376 4:1162.4766 5:590.88487 6:548.08373 7:425.45437 8:329.329 9:758.34365 10:664.71774 11:305.98794 12:325.54168 13:249.57099 14:245.46302 15:218.52453 16:167.06117 17:110.69339 18:81.096395 19:66.922406 20:52.094857 21:28.928082 22:16.492346 23:9.5421665 24:5.8393533 25:3.9688481 
1 1:47142.655 2:1029.4903 3:1356.7181 4:1474.1278 5:676.47623 6:417.76701 7:595.90003 8:595.6781 9:722.47338 10:715.33057 11:456.07926 12:338.30621 13:296.22645 14:345.47411 15:328.93478 16:249.21814 17:118.6612 18:65.153622 19:61.570108 20:49.464757 21:30.53804 22:19.126088 23:10.509801 24:6.1865355 25:4.4461557 
1 1:46969.216 2:1027.1012 3:1171.5594 4:1306.7487 5:845.19271 6:786.40718 7:524.39817 8:524.66983 9:814.93179 10:637.60516 11:361.32646 12:257.67911 13:152.51886 14:219.7407 15:286.18105 16:203.89537 17:112.27604 18:107.3926 19:79.35669 20:54.68129 21:38.219588 22:26.542083 23:14.122872 24:15.134551 25:15.521117 
1 1:44593.773 2:1514.2168 3:1205.7274 4:1025.1378 5:762.75874 6:762.20604 7:654.23791 8:537.40353 9:733.08671 10:750.56444 11:389.14887 12:212.15597 13:219.48446 14:264.56977 15:302.55252 16:236.95625 17:102.32891 18:87.907775 19:63.983901 20:40.940201 21:29.187479 22:18.578422 23:12.055207 24:9.8537763 25:8.438552 
1 1:43686.574 2:816.37835 3:1184.9175 4:1348.0489 5:740.73554 6:451.22856 7:477.91016 8:554.16024 9:770.51198 10:715.10071 11:319.18616 12:284.04876 13:257.35607 14:161.09953 15:218.15971 16:241.92758 17:142.34325 18:84.643603 19:53.143114 20:40.899167 21:27.203096 22:20.441918 23:15.163258 24:13.322922 25:12.190335 
1 1:43049.022 2:1277.8237 3:1464.0758 4:1224.8663 5:752.88524 6:737.95948 7:505.11198 8:471.72067 9:600.37235 10:577.00237 11:288.99685 12:186.95418 13:224.50601 14:203.43215 15:189.3099 16:198.76784 17:118.86342 18:92.810577 19:62.596846 20:37.298555 21:25.539097 22:16.835272 23:10.499467 24:6.41941 25:5.8152345 
1 1:42214.314 2:1100.1995 3:1056.9974 4:899.33083 5:537.40009 6:487.19459 7:555.99713 8:584.88953 9:752.46303 10:639.54259 11:400.00847 12:287.42429 13:247.72402 14:233.43824 15:226.90446 16:219.93465 17:123.86599 18:95.621458 19:54.666643 20:28.000278 21:29.168847 22:20.562558 23:13.819762 24:10.987348 25:9.3455577 
1 1:40955.855 2:1322.2347 3:1242.2119 4:1344.1888 5:670.74142 6:571.67948 7:738.6411 8:620.04061 9:735.40375 10:671.57585 11:364.66651 12:245.87126 13:246.41121 14:274.95099 15:203.23178 16:214.84921 17:151.44987 18:82.818942 19:61.778131 20:45.756816 21:32.339973 22:20.120934 23:9.5888145 24:3.8222638 25:2.5503958 
1 1:38404.555 2:1621.9031 3:1358.0348 4:1107.5655 5:577.45551 6:657.56418 7:565.38188 8:463.61955 9:761.24589 10:629.14708 11:266.41412 12:240.55195 13:264.1853 14:276.21416 15:270.41317 16:224.18638 17:102.51504 18:85.865557 19:66.325655 20:50.934487 21:29.068125 22:14.918412 23:13.311048 24:10.857826 25:10.631619 
1 1:35087.353 2:1359.053 3:1333.3704 4:1130.1538 5:623.27921 6:615.70692 7:620.03715 8:418.20238 9:703.31669 10:715.61814 11:282.87052 12:260.99659 13:278.53283 14:241.85536 15:295.11122 16:277.27323 17:155.58039 18:106.83235 19:67.322357 20:52.217181 21:36.908123 22:20.515435 23:9.4666461 24:7.6116864 25:4.168451 
1 1:34051.861 2:1335.2078 3:1001.9736 4:1033.0799 5:864.93343 6:766.99604 7:727.33143 8:621.3252 9:721.67648 10:745.119 11:345.49352 12:235.16878 13:274.37973 14:279.31128 15:254.24997 16:236.06403 17:136.60057 18:102.85122 19:69.606544 20:38.793267 21:26.086066 22:15.73316 23:12.046274 24:11.04186 25:10.17253 
1 1:32887.106 2:1642.5742 3:1357.8181 4:1278.8068 5:793.72056 6:608.07203 7:550.38349 8:591.33284 9:728.26512 10:665.40933 11:334.32864 12:271.31245 13:208.68435 14:170.33698 15:236.84614 16:234.57676 17:140.81999 18:117.78156 19:69.022462 20:40.634572 21:25.667401 22:14.594158 23:6.9150207 24:6.8500177 25:8.6374817 
1 1:32403.476 2:795.46494 3:1053.3861 4:1139.4711 5:786.35878 6:703.84994 7:607.17886 8:489.72274 9:833.48628 10:862.49063 11:385.58876 12:223.71434 13:223.62463 14:159.51948 15:222.96843 16:225.8647 17:134.18786 18:100.18753 19:49.157977 20:35.317477 21:33.354028 22:23.900974 23:10.615665 24:11.289681 25:13.274948 
1 1:32465.864 2:847.43192 3:1007.3137 4:932.9428 5:565.15438 6:594.32945 7:587.14926 8:474.3153 9:856.14516 10:835.98529 11:324.0196 12:283.80678 13:304.62963 14:215.98867 15:233.03511 16:214.31338 17:115.91012 18:96.172649 19:74.723134 20:50.876906 21:28.248324 22:10.08306 23:6.8757874 24:2.733904 25:2.3888586 
1 1:30045.513 2:1440.3302 3:1513.6041 4:1318.2424 5:658.40106 6:694.54945 7:623.7341 8:444.45094 9:672.56985 10:643.43117 11:295.92689 12:222.16839 13:194.40207 14:214.62778 15:217.20227 16:193.43511 17:139.18311 18:96.626462 19:62.731301 20:50.905707 21:35.877292 22:21.989929 23:12.427773 24:10.353302 25:9.9529844 
1 1:34937.833 2:1484.8084 3:1478.8477 4:1341.1499 5:742.51637 6:510.17619 7:477.56141 8:546.91092 9:700.65393 10:585.756 11:343.39969 12:329.44535 13:285.5639 14:222.6681 15:231.06922 16:201.23995 17:109.25842 18:94.033776 19:84.979567 20:45.549733 21:30.231937 22:24.462692 23:17.343365 24:12.961593 25:12.036162 
1 1:36579.278 2:828.30421 3:1227.0355 4:1267.8625 5:837.20077 6:721.96987 7:635.94617 8:668.95296 9:914.94914 10:783.84375 11:333.02952 12:278.46734 13:180.26847 14:133.79544 15:309.69801 16:294.20945 17:115.03649 18:111.09159 19:80.741987 20:42.684273 21:30.263889 22:18.107158 23:6.8597714 24:4.0341385 25:2.8971317 
1 1:35622.081 2:1147.5122 3:1265.5825 4:1098.8241 5:730.49458 6:606.38763 7:585.06218 8:541.91357 9:610.50152 10:561.1637 11:270.36844 12:201.98904 13:228.59983 14:267.77649 15:268.41298 16:187.19065 17:115.968 18:106.76249 19:60.835719 20:31.211647 21:28.095405 22:19.493082 23:7.9928088 24:6.6392697 25:6.3707222 
1 1:36464.714 2:1381.9611 3:1065.7162 4:968.19779 5:484.47774 6:461.6598 7:571.0195 8:512.17379 9:666.50664 10:599.89284 11:288.45251 12:275.06127 13:263.16613 14:221.1891 15:296.77704 16:235.42467 17:129.27726 18:108.32553 19:46.424762 20:34.840871 21:30.651591 22:16.720403 23:10.203283 24:9.252858 25:7.8931516 
1 1:38664.507 2:1154.197 3:1338.7598 4:1196.1103 5:574.87165 6:471.64076 7:473.1091 8:471.09284 9:711.49228 10:655.73522 11:360.46599 12:244.22865 13:159.26246 14:173.93244 15:280.72085 16:251.13999 17:132.40537 18:77.655389 19:55.002363 20:52.750941 21:28.165663 22:15.436462 23:9.2843664 24:6.4675765 25:4.4992158 
1 1:38472.562 2:1698.2093 3:1464.2463 4:1155.5076 5:626.61934 6:556.02597 7:551.07025 8:624.05763 9:1027.6679 10:855.4709 11:305.53342 12:207.10893 13:205.83627 14:181.97242 15:207.32085 16:205.31753 17:101.39186 18:70.872411 19:59.913879 20:38.711469 21:25.815858 22:14.315047 23:8.4330338 24:9.3930926 25:10.263553 
1 1:38572.949 2:2082.303 3:1507.8283 4:1313.9259 5:771.94323 6:716.87434 7:617.43944 8:530.32482 9:753.55375 10:621.27464 11:330.44066 12:273.85017 13:219.86214 14:217.62416 15:212.02253 16:212.01094 17:126.88878 18:94.575692 19:51.556161 20:34.966713 21:26.074976 22:16.160011 23:7.3547462 24:3.4000334 25:2.4253069 
1 1:38024.825 2:1965.9291 3:1862.4625 4:1142.4667 5:691.66499 6:667.82006 7:486.5215 8:455.5148 9:773.2661 10:636.07073 11:281.88439 12:252.13988 13:253.22198 14:241.45362 15:237.48269 16:217.22578 17:115.98801 18:77.799321 19:43.288137 20:39.374425 21:31.773771 22:19.305085 23:14.095331 24:10.156237 25:8.0441351 
1 1:42729.256 2:2043.4822 3:1551.7264 4:1257.2307 5:810.81898 6:681.26534 7:681.83194 8:601.81709 9:813.97503 10:781.37274 11:447.89865 12:283.75743 13:239.56163 14:281.9683 15:293.48397 16:227.28218 17:124.05409 18:98.264463 19:60.269925 20:48.062649 21:36.307039 22:22.160978 23:12.918542 24:11.485937 25:11.977785 
1 1:45177.919 2:1824.667 3:1467.9412 4:1112.9958 5:842.42801 6:840.91105 7:579.76621 8:564.83126 9:767.53217 10:732.55104 11:395.068 12:237.59937 13:242.15466 14:240.90398 15:254.28962 16:200.70078 17:105.10231 18:94.234311 19:54.816101 20:37.34848 21:30.773693 22:25.393917 23:12.677139 24:6.0384101 25:3.7101087 
1 1:43935.103 2:1308.2955 3:1296.3677 4:1260.1541 5:697.32091 6:768.36172 7:900.36667 8:647.35028 9:773.16994 10:894.63295 11:521.85516 12:346.20669 13:315.4156 14:269.47172 15:266.52427 16:240.67801 17:176.42723 18:93.241679 19:44.317873 20:39.119522 21:27.817907 22:20.414162 23:12.876537 24:11.211332 25:9.9651022 
1 1:42175.149 2:1418.8972 3:1354.6744 4:1062.6914 5:578.23162 6:668.46621 7:589.69962 8:509.87138 9:791.43836 10:879.76465 11:494.06368 12:282.92235 13:224.93119 14:244.87982 15:221.92146 16:186.90396 17:105.21933 18:111.49487 19:92.065883 20:40.621144 21:33.158668 22:28.114913 23:10.52442 24:5.0805948 25:3.8604567 
1 1:43362.368 2:1619.3606 3:1358.4833 4:1231.5305 5:748.78099 6:681.66092 7:577.23297 8:478.27093 9:804.97436 10:773.59599 11:399.57619 12:228.66826 13:191.15902 14:241.18614 15:281.15825 16:265.54419 17:167.30803 18:101.15697 19:56.979839 20:46.702333 21:24.5135 22:15.166678 23:9.2842481 24:3.5885944 25:3.1324568 
1 1:41848.974 2:1258.0737 3:1237.5354 4:1230.7952 5:886.28118 6:706.72558 7:547.89412 8:439.31137 9:772.56081 10:805.98342 11:358.94547 12:356.54752 13:303.01346 14:243.0824 15:285.69916 16:242.20242 17:133.01004 18:103.477 19:72.479054 20:34.684866 21:22.893449 22:17.00876 23:11.940125 24:6.2561587 25:3.5714149 
1 1:43908.783 2:1165.4802 3:1282.9727 4:1028.7815 5:587.86933 6:821.28771 7:766.72582 8:500.24078 9:788.0506 10:724.68356 11:331.04042 12:263.15211 13:271.4081 14:248.43803 15:227.43496 16:237.02039 17:136.08054 18:89.965076 19:49.152872 20:42.154154 21:30.435968 22:18.412793 23:12.710583 24:7.2901104 25:5.0988008 
1 1:46064.359 2:1075.8411 3:1439.3917 4:1155.4421 5:679.70901 6:674.60835 7:658.95276 8:545.50403 9:782.04181 10:622.51507 11:215.60304 12:207.72209 13:208.37071 14:212.35783 15:298.04781 16:268.9238 17:100.15751 18:76.594977 19:64.991026 20:32.810054 21:22.482561 22:17.203642 23:9.1040035 24:7.1942826 25:8.0822958 
1 1:45156.605 2:1193.8557 3:1359.1618 4:1201.3391 5:837.06596 6:762.70303 7:518.50511 8:460.01154 9:744.50214 10:644.00595 11:288.44146 12:262.60737 13:265.73145 14:274.07259 15:289.5438 16:260.25819 17:144.98795 18:83.002748 19:55.370193 20:36.665374 21:21.513353 22:21.007011 23:15.594096 24:8.275154 25:6.8078393 
1 1:45555.204 2:1296.1915 3:1255.4749 4:1105.8628 5:802.50674 6:866.09517 7:702.94035 8:531.04602 9:645.48283 10:587.32096 11:270.57569 12:281.53011 13:301.62147 14:267.16036 15:244.00849 16:193.91488 17:99.84781 18:74.989528 19:54.781575 20:41.15957 21:32.021005 22:18.319004 23:7.6759239 24:5.9609952 25:5.0554544 
1 1:44626.822 2:1255.3175 3:924.93242 4:1056.1877 5:841.29734 6:615.91406 7:643.82872 8:674.4322 9:684.71203 10:635.5338 11:340.86561 12:277.3672 13:258.15469 14:251.28872 15:280.3637 16:197.46266 17:94.084744 18:79.057303 19:50.767389 20:30.374272 21:25.949793 22:22.24885 23:11.120271 24:5.1105731 25:4.5896038 
1 1:45482.566 2:1515.362 3:1448.9496 4:1339.5293 5:673.71802 6:585.21231 7:531.08741 8:528.26132 9:773.7846 10:701.19384 11:366.44497 12:233.48755 13:194.02394 14:205.84963 15:195.57627 16:171.54266 17:107.52053 18:72.695856 19:43.434154 20:27.646034 21:21.621899 22:14.992317 23:9.4116215 24:5.4692266 25:2.7894298 
1 1:44463.749 2:1050.0302 3:830.02685 4:1001.5783 5:644.44791 6:532.25619 7:570.62492 8:546.32816 9:784.47161 10:685.09538 11:371.55595 12:306.86787 13:270.4153 14:309.61613 15:315.75294 16:278.06339 17:133.92332 18:100.35405 19:69.34 20:39.134261 21:25.623645 22:18.372559 23:10.185885 24:5.4470362 25:3.8008631 
1 1:44167.902 2:795.61509 3:1206.3841 4:1268.6781 5:642.19874 6:528.64968 7:503.29278 8:549.8424 9:770.59909 10:656.13646 11:305.94374 12:289.608 13:266.03915 14:243.2133 15:285.64459 16:222.43979 17:109.18543 18:90.513078 19:63.511957 20:36.764326 21:27.086436 22:19.943608 23:8.9723999 24:5.5916558 25:3.075836 
1 1:44481.795 2:1548.7095 3:1539.0576 4:1281.568 5:630.91035 6:488.48854 7:464.23686 8:430.99 9:717.91053 10:762.61878 11:413.54317 12:247.55467 13:214.25282 14:208.95193 15:204.61137 16:235.4502 17:160.77293 18:83.841751 19:48.236429 20:31.894372 21:24.839321 22:17.677822 23:8.3189276 24:7.6001896 25:7.1190152 
1 1:48523.511 2:1321.6514 3:1225.0479 4:1213.8827 5:783.94574 6:647.65843 7:455.67235 8:377.81174 9:766.76446 10:660.60567 11:302.47069 12:312.04801 13:215.22628 14:200.11183 15:221.41141 16:168.77328 17:87.692901 18:70.382666 19:53.594649 20:44.167791 21:25.219978 22:12.034959 23:7.5373061 24:4.0871546 25:2.9796612 
1 1:45308.557 2:835.65745 3:1063.8346 4:1232.7512 5:585.22941 6:544.97382 7:641.57832 8:564.56739 9:696.34415 10:719.70796 11:486.64196 12:333.04564 13:254.17981 14:281.93339 15:283.81461 16:169.72248 17:125.8466 18:113.2731 19:50.302705 20:36.595813 21:26.938181 22:16.225844 23:9.4358933 24:7.8774777 25:6.1299349 
1 1:44134.648 2:1075.3008 3:1430.1552 4:1200.2772 5:647.60193 6:665.2755 7:613.59942 8:509.21605 9:619.77895 10:565.77001 11:300.19485 12:252.9234 13:193.85062 14:155.53244 15:271.10724 16:237.59765 17:88.513837 18:77.241962 19:60.362597 20:37.989733 21:28.190949 22:14.549384 23:7.0060089 24:5.2414414 25:3.0917327 
1 1:45006.265 2:1483.5461 3:1386.3333 4:1323.8095 5:809.7463 6:724.0485 7:539.04543 8:481.46535 9:806.95564 10:651.65191 11:299.22985 12:348.95994 13:261.02177 14:237.19761 15:282.82818 16:229.10531 17:134.1771 18:97.202904 19:48.573163 20:31.291002 21:28.606974 22:23.850891 23:9.9218145 24:3.4597314 25:2.883878 
1 1:47563.044 2:1610.6758 3:1378.1168 4:1263.1977 5:932.77843 6:678.16075 7:367.70566 8:446.91884 9:769.59261 10:624.07899 11:333.72191 12:285.0751 13:179.86977 14:146.13849 15:214.46259 16:209.25458 17:131.34374 18:79.310324 19:44.390534 20:33.78536 21:20.391445 22:14.460543 23:8.5213878 24:6.4792867 25:6.3129724 
1 1:45399.788 2:1466.9848 3:1375.4204 4:1113.1874 5:705.42117 6:563.65949 7:502.69371 8:551.1347 9:769.53655 10:661.02881 11:234.19224 12:195.36897 13:259.80841 14:234.47881 15:230.73574 16:208.93506 17:119.52303 18:87.619819 19:64.473118 20:38.080052 21:17.991855 22:15.306002 23:10.154307 24:6.5458793 25:4.1627796 
1 1:46757.625 2:1855.7312 3:1441.779 4:1119.3045 5:747.35473 6:809.70895 7:704.08755 8:552.83287 9:702.86841 10:618.25449 11:349.08435 12:289.74025 13:205.93142 14:207.21052 15:277.39132 16:241.17802 17:143.69419 18:100.19706 19:70.423103 20:36.649487 21:29.970631 22:23.010403 23:13.609057 24:10.399661 25:10.313855 
1 1:44452.305 2:1240.6908 3:1082.2714 4:1025.9895 5:476.80245 6:537.83126 7:759.15336 8:675.28528 9:734.80051 10:642.8075 11:309.8749 12:289.82693 13:287.82606 14:270.61608 15:216.52539 16:188.88377 17:133.50944 18:109.48636 19:77.684275 20:47.62654 21:29.283547 22:14.511665 23:9.4627221 24:7.7507505 25:5.7524246 
1 1:43981.629 2:1147.9809 3:1130.1245 4:1089.4594 5:748.09462 6:641.10197 7:754.05646 8:603.12159 9:578.68755 10:587.11238 11:393.63654 12:353.96938 13:275.04336 14:218.58654 15:268.84814 16:204.90516 17:112.83652 18:98.574601 19:58.83658 20:44.042533 21:31.283152 22:17.625787 23:7.5939846 24:5.7540664 25:5.9445302 
1 1:42392.55 2:1075.224 3:1304.4411 4:1296.3824 5:781.37518 6:755.9074 7:601.20614 8:541.12674 9:735.59758 10:695.47042 11:323.14768 12:242.11989 13:233.4649 14:230.13151 15:227.92284 16:179.99749 17:110.61603 18:83.097574 19:69.517328 20:54.045581 21:29.796774 22:17.29795 23:11.49256 24:7.4709249 25:4.4623389 
1 1:42252.672 2:1283.3915 3:1203.9123 4:1045.1242 5:652.939 6:632.5043 7:532.10471 8:569.61387 9:713.80093 10:596.39468 11:307.08423 12:292.37447 13:229.21135 14:226.07578 15:284.23807 16:222.27184 17:111.79553 18:91.28596 19:61.15176 20:48.056405 21:31.093542 22:14.530287 23:8.8402594 24:5.2833313 25:3.9159567 
1 1:44705.761 2:1184.9964 3:1254.7736 4:1270.0859 5:707.30112 6:608.15002 7:622.37745 8:555.77835 9:712.03402 10:654.5433 11:264.85457 12:200.05921 13:176.87685 14:223.07739 15:280.14981 16:199.88668 17:103.72589 18:73.29881 19:65.250035 20:46.136115 21:27.741199 22:21.344342 23:8.1678671 24:4.3167747 25:3.4809057 
1 1:45403.489 2:1374.1636 3:1205.501 4:1132.5436 5:481.12704 6:508.44379 7:588.44055 8:534.02892 9:764.32291 10:664.7405 11:281.57635 12:282.74891 13:213.18307 14:207.86305 15:281.01556 16:188.9453 17:100.1552 18:97.157456 19:71.118868 20:39.846507 21:21.469399 22:17.533796 23:9.1153931 24:4.7768453 25:2.9921602 
1 1:44352.801 2:1034.3341 3:914.97971 4:837.8312 5:551.01243 6:776.18616 7:840.16172 8:601.44415 9:672.49087 10:633.02674 11:396.73459 12:293.037 13:202.68362 14:193.10233 15:241.91635 16:195.61443 17:90.529173 18:74.087073 19:53.568745 20:37.969177 21:25.625202 22:18.256446 23:7.552574 24:2.9512131 25:1.9126899 
1 1:44076.821 2:1121.1367 3:1434.5222 4:1161.6079 5:579.74016 6:550.8522 7:425.89045 8:327.82098 9:592.84227 10:595.33153 11:265.50969 12:214.50099 13:233.04067 14:250.74946 15:228.61539 16:174.38896 17:88.311331 18:73.212119 19:62.312851 20:41.32887 21:27.883328 22:17.932773 23:9.9767199 24:3.844385 25:3.3542593 
1 1:45765.979 2:1950.9175 3:1450.4361 4:1368.564 5:608.11295 6:482.12746 7:482.00303 8:397.32266 9:759.4484 10:772.74558 11:385.77136 12:291.4615 13:253.09535 14:157.59502 15:169.96418 16:155.57408 17:95.38787 18:93.088447 19:59.021048 20:44.227321 21:27.80435 22:21.756158 23:11.418513 24:6.6685037 25:5.2908788 
1 1:45235.625 2:1973.6426 3:1637.3629 4:1288.1506 5:689.31584 6:658.81504 7:583.45542 8:458.9166 9:705.91142 10:729.66875 11:315.47525 12:232.61014 13:248.97193 14:260.11113 15:274.6957 16:229.31169 17:131.85016 18:86.770472 19:85.046327 20:55.353622 21:28.180938 22:15.67633 23:10.183314 24:5.6460703 25:2.5485271 
1 1:45840.483 2:1532.2484 3:1262.4368 4:1258.0952 5:814.25712 6:745.72568 7:561.75082 8:484.22575 9:739.82725 10:696.82781 11:440.37882 12:269.88803 13:160.54708 14:254.50975 15:272.98793 16:167.662 17:126.8308 18:102.99007 19:51.432164 20:40.608058 21:36.054317 22:17.939217 23:8.2285644 24:5.3771062 25:2.3213137 
1 1:45289.531 2:1611.6378 3:1529.7932 4:1041.8433 5:734.99781 6:574.40096 7:372.81291 8:412.70846 9:695.07374 10:596.61557 11:257.66988 12:256.08494 13:222.78767 14:215.64742 15:245.34036 16:201.95276 17:109.742 18:69.748425 19:49.862234 20:31.629951 21:28.041956 22:19.902578 23:10.153686 24:5.1559623 25:2.813861 
1 1:42525.03 2:1575.9489 3:1399.2378 4:1213.617 5:785.65333 6:859.38739 7:912.46994 8:651.77129 9:783.76354 10:800.00236 11:470.1242 12:343.37858 13:347.291 14:315.46904 15:307.64305 16:277.91286 17:124.42505 18:85.885349 19:48.378141 20:34.876047 21:22.51289 22:16.178838 23:10.772331 24:8.095415 25:8.7623262 
1 1:38772.222 2:1490.1813 3:1112.0705 4:1009.3856 5:642.81743 6:835.81265 7:1034.1252 8:879.39095 9:1012.7519 10:965.23086 11:515.81963 12:379.70074 13:349.30478 14:305.00313 15:337.87931 16:314.61173 17:166.97675 18:108.2375 19:70.778727 20:46.323439 21:27.960089 22:21.55026 23:10.200091 24:8.2947399 25:7.6907595 
1 1:39722.399 2:1075.2488 3:1344.8381 4:1305.011 5:718.2198 6:560.12286 7:564.06121 8:538.75872 9:651.67884 10:648.59015 11:465.43537 12:368.8284 13:281.61102 14:310.62087 15:271.49184 16:263.29828 17:196.79579 18:125.80274 19:89.338552 20:52.603858 21:28.399752 22:22.263739 23:11.694225 24:6.1842672 25:5.21018 
1 1:36422.444 2:1128.8699 3:1201.1922 4:1024.9947 5:627.67352 6:639.33442 7:694.43345 8:750.52731 9:911.42218 10:772.63131 11:534.97095 12:496.00003 13:350.46526 14:347.53246 15:357.80119 16:247.50915 17:160.29122 18:105.1633 19:65.660538 20:52.250139 21:41.941155 22:24.453088 23:13.412072 24:11.596716 25:11.511854 
1 1:34875.102 2:1228.2928 3:1522.9024 4:1591.0116 5:945.705 6:794.03898 7:799.62797 8:701.88098 9:997.71048 10:836.59652 11:628.36204 12:656.63912 13:467.47813 14:451.58751 15:384.43111 16:213.64146 17:177.4718 18:128.68605 19:80.141793 20:54.571626 21:32.737143 22:19.983316 23:9.1020908 24:5.0688308 25:3.52698 
1 1:36348.751 2:1071.7419 3:1300.9163 4:1119.8772 5:856.1238 6:891.194 7:888.07043 8:811.40997 9:911.37991 10:981.31524 11:546.606 12:290.22667 13:311.99192 14:330.02377 15:366.12916 16:286.44096 17:184.96384 18:144.15302 19:93.505398 20:57.510001 21:31.341159 22:19.215937 23:10.339626 24:8.5337684 25:8.1142177 
1 1:36909.309 2:1425.1462 3:1407.3622 4:1237.2196 5:680.51584 6:629.49951 7:641.76814 8:512.69047 9:900.53897 10:836.43218 11:434.58849 12:378.1569 13:274.79941 14:246.40098 15:284.40652 16:237.32695 17:139.37107 18:110.90658 19:72.690145 20:43.769229 21:28.512982 22:18.183658 23:8.4556247 24:5.8911725 25:4.2748047 
1 1:32807.08 2:1599.7894 3:1585.8397 4:1100.3783 5:602.97128 6:716.84618 7:772.22265 8:582.05084 9:764.8134 10:678.23234 11:376.75026 12:324.56593 13:231.22173 14:272.23927 15:315.81508 16:259.45087 17:127.44477 18:97.510085 19:60.877875 20:37.890702 21:28.733922 22:22.167854 23:14.03502 24:9.2277112 25:7.7212504 
1 1:31234.506 2:1512.7925 3:1099.7 4:933.728 5:633.66306 6:680.93571 7:661.27814 8:598.25291 9:859.89932 10:731.78493 11:375.01791 12:392.8673 13:243.94359 14:246.29378 15:325.26949 16:216.38356 17:152.04018 18:143.26837 19:75.83999 20:32.947537 21:29.011595 22:22.656777 23:11.823157 24:7.5586564 25:7.7140415 
1 1:28880.98 2:1238.709 3:1056.2831 4:1102.4052 5:619.72075 6:690.92548 7:645.31331 8:626.56732 9:878.07372 10:739.07996 11:392.49108 12:331.50036 13:300.17068 14:286.1183 15:251.70937 16:163.42194 17:84.48549 18:93.144157 19:67.712407 20:29.901195 21:29.232019 22:19.042469 23:10.889209 24:5.159345 25:2.6085072 
1 1:26643.492 2:1154.18 3:1426.8956 4:1220.5062 5:810.76184 6:880.67894 7:894.79181 8:733.52286 9:763.13517 10:848.23502 11:494.85397 12:302.81364 13:273.53032 14:253.22115 15:315.62861 16:269.99295 17:115.57472 18:76.287502 19:69.07897 20:41.476113 21:27.209206 22:17.842135 23:11.97721 24:10.092369 25:7.2578813 
1 1:24234.006 2:1306.5429 3:1361.4368 4:1344.51 5:787.14048 6:872.55585 7:1023.2049 8:832.74116 9:1045.1665 10:871.09794 11:495.34022 12:364.08333 13:212.32262 14:253.14388 15:284.94927 16:273.0676 17:146.22918 18:90.902827 19:76.500333 20:50.469408 21:30.895478 22:22.677093 23:12.902544 24:8.6885051 25:9.1100611 
1 1:23525.802 2:2005.2597 3:1272.7554 4:1265.8199 5:1062.9835 6:886.59075 7:620.76342 8:547.74491 9:836.91133 10:758.01713 11:392.1358 12:350.50156 13:256.82522 14:295.14801 15:334.05845 16:276.38228 17:149.41663 18:82.666293 19:64.369061 20:44.629615 21:23.5081 22:15.754514 23:11.884504 24:6.130797 25:3.6140107 
1 1:24145.669 2:1830.9865 3:1709.5722 4:1349.8804 5:727.67534 6:783.33178 7:657.37994 8:538.46118 9:795.4087 10:836.21137 11:556.03561 12:423.10424 13:337.90388 14:273.07748 15:297.40718 16:243.94347 17:152.39393 18:109.28521 19:53.757951 20:48.033126 21:23.379354 22:12.990927 23:7.4576038 24:3.3792416 25:3.0900543 
1 1:23120.936 2:1094.781 3:1233.1372 4:1006.0008 5:511.2104 6:535.54421 7:649.56261 8:551.04567 9:669.38898 10:719.11679 11:546.10924 12:396.94348 13:190.66892 14:218.92709 15:288.08757 16:210.94565 17:125.96864 18:112.51211 19:76.233158 20:59.559241 21:38.752168 22:20.665724 23:9.7701423 24:10.068664 25:10.450358 
1 1:22561.296 2:1406.4305 3:1387.1284 4:1177.7071 5:912.26339 6:798.87479 7:627.36418 8:579.02301 9:741.89495 10:727.98592 11:319.83833 12:267.37244 13:263.48434 14:204.09513 15:275.54307 16:262.02225 17:135.34564 18:114.51466 19:70.483101 20:45.756269 21:33.379526 22:17.302517 23:8.8219139 24:4.6574235 25:4.3283907 
1 1:23428.15 2:1251.7702 3:1081.977 4:1165.2857 5:817.77694 6:696.64478 7:659.60479 8:630.66481 9:848.44333 10:752.15331 11:423.66404 12:403.50304 13:354.61424 14:226.67761 15:220.99997 16:236.79154 17:137.97884 18:90.572741 19:77.785471 20:63.827791 21:35.677622 22:17.986257 23:8.7688242 24:5.5312236 25:2.5042234 
1 1:22720.293 2:1278.0097 3:1390.2703 4:1299.7207 5:653.16499 6:608.92426 7:613.89655 8:579.2739 9:767.83506 10:642.5436 11:337.9457 12:304.36334 13:227.82594 14:191.43542 15:277.27291 16:232.49756 17:110.25242 18:80.663985 19:64.739423 20:50.292513 21:30.13728 22:25.74841 23:16.463737 24:10.13407 25:9.4353165 
1 1:21599.934 2:919.7808 3:1403.5293 4:1535.3764 5:795.12461 6:722.10028 7:600.1995 8:576.34176 9:739.42513 10:689.88475 11:454.21982 12:317.93566 13:219.31851 14:231.94753 15:294.45968 16:283.53062 17:147.44833 18:94.779864 19:73.091537 20:37.401532 21:27.346644 22:17.498448 23:6.9763089 24:5.1695295 25:4.1857888 
1 1:20963.107 2:1325.7192 3:1348.2728 4:1168.0481 5:649.22981 6:574.22235 7:520.88638 8:547.36872 9:768.31502 10:673.22095 11:274.56787 12:140.46487 13:190.58851 14:239.25984 15:285.57445 16:224.40782 17:108.74428 18:84.842115 19:55.441577 20:42.29954 21:30.86791 22:19.82692 23:8.821354 24:3.893006 25:2.2403233 
1 1:21851.083 2:1254.5798 3:1313.4283 4:1114.1454 5:810.20742 6:744.99342 7:553.17058 8:501.10216 9:714.03687 10:674.85715 11:391.46414 12:321.61583 13:211.67161 14:243.10569 15:253.82987 16:181.93524 17:102.61533 18:84.165334 19:61.16133 20:41.047144 21:31.071178 22:19.288561 23:11.809161 24:7.7569851 25:6.3904462 
1 1:20465.033 2:1171.6353 3:1493.784 4:1429.3303 5:828.92608 6:765.81659 7:815.80434 8:752.37185 9:859.37791 10:725.18215 11:494.98663 12:405.66355 13:331.23666 14:295.76004 15:270.36044 16:234.7092 17:109.50161 18:84.815983 19:46.971739 20:25.813311 21:23.532398 22:13.921092 23:6.6209129 24:3.4183734 25:2.3355485 
1 1:18809.797 2:1610.3606 3:1770.8134 4:1445.8801 5:775.83104 6:659.93395 7:748.34676 8:640.04803 9:629.75756 10:788.06198 11:567.83365 12:323.02113 13:278.72389 14:333.09336 15:300.86849 16:227.55854 17:130.17708 18:105.69005 19:66.879499 20:38.498525 21:29.929042 22:17.269388 23:8.1179567 24:6.8064262 25:4.5709779 
1 1:22486.291 2:1377.589 3:1454.3961 4:1363.3406 5:805.37987 6:629.80596 7:647.60315 8:811.40985 9:973.633 10:761.82505 11:443.47767 12:383.7996 13:294.5295 14:309.15224 15:338.58725 16:250.89424 17:132.75474 18:91.128448 19:61.145945 20:48.548473 21:29.220408 22:15.408105 23:6.8038914 24:4.574013 25:2.6767243 
1 1:22166.151 2:1317.9312 3:1069.1103 4:966.7031 5:721.4432 6:582.07739 7:552.36547 8:688.74286 9:917.64648 10:761.50752 11:398.57918 12:328.95895 13:257.80629 14:239.12615 15:260.60301 16:221.36699 17:136.72811 18:107.62889 19:79.827976 20:62.856367 21:38.260029 22:23.519193 23:15.831612 24:16.816015 25:15.442066 
1 1:27186.638 2:1536.0438 3:1516.5395 4:1318.7834 5:956.3667 6:1265.8578 7:1002.4711 8:662.69888 9:874.22675 10:758.88761 11:486.13477 12:376.69813 13:358.64286 14:349.9995 15:307.03856 16:281.62909 17:169.87237 18:107.88145 19:67.125126 20:50.589655 21:26.924988 22:19.18206 23:12.048336 24:6.2762582 25:6.1677388 
1 1:26347.455 2:1931.388 3:1666.8379 4:1152.0706 5:682.06373 6:694.09537 7:845.56337 8:874.59484 9:889.09227 10:736.66367 11:440.2874 12:370.74946 13:276.24729 14:287.41833 15:287.61248 16:227.28118 17:106.39813 18:86.297859 19:68.169429 20:56.127677 21:38.064956 22:16.479127 23:9.5989605 24:5.7349546 25:3.6756933 
1 1:30443.866 2:1727.1785 3:1711.2776 4:1516.4556 5:897.11762 6:744.4689 7:614.89665 8:613.15549 9:720.21682 10:613.33719 11:329.69672 12:264.85557 13:215.13747 14:225.60195 15:286.71156 16:288.29144 17:142.75573 18:74.925948 19:57.731482 20:40.477806 21:28.002129 22:21.908025 23:16.050961 24:11.954287 25:12.216365 
1 1:34225.072 2:1623.0424 3:1203.9584 4:1191.29 5:724.75259 6:669.43479 7:644.83277 8:622.1708 9:803.76774 10:661.29937 11:324.70578 12:359.12316 13:306.21507 14:232.80912 15:265.45663 16:198.15521 17:125.98028 18:90.589492 19:60.686059 20:44.747336 21:25.805582 22:17.932549 23:9.313859 24:7.4622071 25:5.9304583 
1 1:32107.975 2:1080.4711 3:1151.889 4:1188.9195 5:858.8899 6:679.53712 7:538.80919 8:448.77236 9:878.92551 10:865.53054 11:343.25128 12:233.02568 13:253.09043 14:283.98848 15:269.76679 16:218.87627 17:112.49535 18:83.961694 19:63.424265 20:48.278827 21:32.590683 22:18.768527 23:8.923743 24:7.3203115 25:5.4973892 
1 1:36903.688 2:1300.9612 3:1169.1058 4:1209.6586 5:780.7904 6:618.79006 7:468.64163 8:528.70712 9:863.72582 10:788.48791 11:390.99845 12:422.86666 13:394.16351 14:322.84814 15:296.5099 16:226.39976 17:132.41025 18:110.69244 19:66.925643 20:41.941121 21:27.625763 22:13.564409 23:8.0232186 24:4.837977 25:2.4589694 
1 1:38141.121 2:1887.5082 3:1372.4214 4:1266.8843 5:960.94213 6:819.61433 7:625.31169 8:526.13146 9:788.22819 10:836.51558 11:458.28975 12:303.05967 13:215.49887 14:229.04341 15:281.65464 16:274.03128 17:175.80545 18:109.14507 19:65.737284 20:41.37121 21:23.099091 22:19.525903 23:9.8178845 24:5.1210706 25:2.9718487 
1 1:34352.834 2:1044.7943 3:1431.3666 4:1080.7032 5:633.04014 6:692.70222 7:714.43958 8:524.40209 9:765.18828 10:630.1322 11:254.04145 12:272.74511 13:270.97595 14:256.61463 15:253.97138 16:221.90532 17:115.36351 18:69.752158 19:57.489742 20:40.762489 21:28.965921 22:21.930379 23:16.092191 24:10.982617 25:9.3777902 
1 1:34637.043 2:1549.0596 3:1375.1882 4:1089.5432 5:792.54348 6:761.96729 7:688.13151 8:753.4591 9:973.41586 10:748.02962 11:392.48088 12:331.37403 13:313.31962 14:281.50889 15:215.38602 16:183.66302 17:114.92545 18:80.358183 19:62.19869 20:48.528863 21:31.481953 22:20.419529 23:12.497879 24:6.8081674 25:7.0193783 
1 1:36207.563 2:1451.9056 3:1853.6483 4:1463.9707 5:777.54175 6:557.49985 7:365.91498 8:392.21467 9:651.67855 10:663.89049 11:392.17187 12:321.57088 13:298.58747 14:225.81596 15:299.52402 16:243.464 17:82.580422 18:87.089255 19:69.779981 20:39.284748 21:32.041816 22:17.970584 23:8.2018197 24:4.9313906 25:2.4451243 
1 1:33622.346 2:1373.983 3:1412.5795 4:1404.1791 5:1018.1897 6:861.23282 7:699.33804 8:673.07168 9:799.45722 10:716.81518 11:351.08839 12:283.56635 13:281.07564 14:218.47847 15:240.81894 16:228.13069 17:139.10754 18:111.77584 19:78.212386 20:49.367824 21:31.020598 22:17.151931 23:9.3232728 24:6.2693592 25:4.5081607 
1 1:34400.319 2:1701.8712 3:1527.1401 4:1594.6986 5:1204.681 6:773.14305 7:518.12669 8:498.39964 9:773.98866 10:686.58072 11:393.38092 12:350.58743 13:276.9486 14:191.73233 15:203.23992 16:197.09979 17:111.39942 18:93.431459 19:67.835334 20:49.048459 21:37.518411 22:21.730141 23:12.642722 24:5.6261298 25:3.7916472 
1 1:40633.819 2:1980.4698 3:1432.0304 4:1219.7489 5:830.61379 6:805.90388 7:606.93169 8:528.77467 9:759.43493 10:691.87436 11:349.28584 12:308.13127 13:263.932 14:220.59586 15:302.4539 16:205.88195 17:91.195936 18:102.72313 19:64.023193 20:31.922324 21:30.368051 22:23.142084 23:10.934515 24:6.5700207 25:5.2463263 
1 1:39405.459 2:1682.4186 3:1381.1946 4:1084.6695 5:549.37524 6:625.92283 7:549.18192 8:402.51772 9:688.93047 10:590.20736 11:315.70586 12:305.98772 13:201.98459 14:228.87402 15:308.85655 16:221.05453 17:129.01335 18:103.20306 19:58.406729 20:47.112172 21:31.980514 22:17.008419 23:8.2009821 24:6.5848636 25:5.8961925 
1 1:39881.565 2:1052.1111 3:1079.0818 4:1061.7353 5:650.64954 6:660.78109 7:520.24999 8:552.46523 9:892.78248 10:739.16014 11:382.55006 12:331.94258 13:277.44785 14:271.57201 15:290.43338 16:209.30029 17:109.08485 18:99.091951 19:53.247052 20:29.317314 21:29.0251 22:20.939601 23:7.5137181 24:4.2248081 25:2.8023738 
1 1:37657.181 2:1342.4964 3:1486.0984 4:1482.7391 5:952.4294 6:770.48883 7:666.50686 8:437.90797 9:758.46732 10:729.984 11:353.36413 12:246.44283 13:217.68916 14:264.39189 15:269.73311 16:222.65785 17:127.35187 18:102.8004 19:72.980182 20:33.322459 21:14.777465 22:16.732396 23:10.593416 24:4.7433347 25:2.7915844 
1 1:37767.312 2:1310.249 3:1588.5304 4:1427.5433 5:676.35406 6:564.06404 7:557.84662 8:455.78758 9:680.69262 10:636.25956 11:304.65919 12:318.14506 13:245.83947 14:197.0574 15:187.48741 16:138.14464 17:81.417857 18:79.498313 19:68.477232 20:45.563638 21:28.767727 22:19.265672 23:10.303162 24:3.6786423 25:2.3867304 
1 1:35488.77 2:1290.4143 3:995.64652 4:1034.8318 5:862.72789 6:821.056 7:679.11079 8:512.81462 9:838.52076 10:867.48747 11:462.96556 12:318.51417 13:240.01533 14:227.73106 15:267.2537 16:225.19927 17:129.8195 18:107.17359 19:81.506638 20:49.332329 21:31.024259 22:19.675968 23:13.120445 24:11.881003 25:12.467728 
1 1:34044.799 2:1300.6199 3:1109.857 4:1138.9412 5:894.27006 6:743.7035 7:703.63265 8:756.58452 9:842.49726 10:700.55836 11:422.73562 12:320.78055 13:239.90538 14:208.74948 15:193.96016 16:189.75805 17:110.99245 18:80.429829 19:55.394871 20:36.541164 21:26.372317 22:16.393774 23:7.2936578 24:4.5968002 25:2.6943341 
1 1:32980.532 2:1334.4435 3:1682.5432 4:1695.1196 5:711.51839 6:862.56755 7:935.40775 8:698.26826 9:788.82429 10:823.69251 11:408.97504 12:291.03974 13:306.05339 14:287.05712 15:305.16841 16:226.58872 17:101.2974 18:73.699107 19:73.942536 20:47.749132 21:35.237398 22:25.144066 23:13.985844 24:9.6996866 25:10.388655 
1 1:32111.779 2:1455.5267 3:1787.4542 4:1509.2079 5:983.38918 6:888.76355 7:703.57547 8:498.17771 9:693.91367 10:713.84322 11:489.75916 12:383.79951 13:329.13237 14:291.32823 15:252.96399 16:213.24618 17:158.12655 18:129.69402 19:82.839661 20:43.769017 21:32.617452 22:19.906001 23:13.23015 24:12.926929 25:11.541402 
1 1:32402.782 2:1566.8032 3:1181.6879 4:1250.4285 5:734.05566 6:619.79617 7:510.96858 8:440.13016 9:770.27772 10:703.00106 11:378.30775 12:342.75883 13:298.63534 14:305.42199 15:292.30493 16:234.29266 17:135.25162 18:81.291397 19:53.161706 20:38.775263 21:22.196782 22:10.877916 23:8.8840414 24:8.738701 25:8.8746308 
1 1:29123.587 2:1095.0004 3:1212.908 4:1351.1816 5:946.66636 6:833.6622 7:648.44536 8:435.44065 9:678.98586 10:684.62481 11:331.03178 12:255.27704 13:233.01419 14:295.07166 15:326.97942 16:226.41381 17:104.72847 18:64.757463 19:54.259741 20:43.448969 21:29.221915 22:21.284419 23:10.905967 24:4.8575247 25:3.624218 
1 1:26725.489 2:867.98787 3:1286.7141 4:1369.3872 5:723.52485 6:505.08824 7:536.92849 8:595.61081 9:831.7414 10:785.8848 11:399.45977 12:232.59868 13:207.01574 14:180.51581 15:204.23289 16:178.57882 17:88.74418 18:86.855071 19:63.648223 20:37.984792 21:22.679488 22:21.074443 23:20.770746 24:14.937857 25:12.873008 
1 1:23844.55 2:1626.7769 3:1712.9359 4:1379.0068 5:614.46548 6:551.28691 7:493.58529 8:382.37679 9:675.55011 10:723.64573 11:418.55962 12:231.95536 13:258.09369 14:288.60159 15:299.10082 16:249.76052 17:113.53631 18:76.561973 19:52.346866 20:45.262207 21:32.278643 22:18.906235 23:9.5913653 24:5.4074858 25:2.8997159 
1 1:22957.695 2:1499.7287 3:1261.5549 4:1359.778 5:760.18354 6:528.83975 7:490.26826 8:451.70739 9:722.66615 10:658.80786 11:355.38551 12:317.74251 13:263.95556 14:238.42515 15:227.04551 16:194.45752 17:116.63776 18:95.164882 19:67.38258 20:41.997991 21:22.165889 22:14.032065 23:7.1119176 24:4.2326701 25:3.6569921 
1 1:22958.205 2:1760.8096 3:1251.1786 4:1250.3945 5:693.16304 6:666.86875 7:574.56838 8:447.11757 9:755.78475 10:755.83563 11:404.68171 12:330.84192 13:248.54843 14:191.39085 15:200.13645 16:187.35682 17:103.39472 18:90.779286 19:70.530666 20:39.263578 21:29.868428 22:19.861278 23:11.934018 24:6.863576 25:5.1970997 
1 1:22459.307 2:1235.7584 3:1471.2335 4:1315.3942 5:666.75975 6:631.84228 7:572.8677 8:499.40773 9:915.68487 10:900.08203 11:480.40978 12:362.68698 13:262.56411 14:237.06538 15:280.66402 16:215.93211 17:121.06084 18:101.08747 19:63.906601 20:44.554584 21:37.432783 22:24.002335 23:11.058033 24:6.063168 25:3.9181806 
1 1:23618.176 2:1398.0109 3:1334.7028 4:1363.2782 5:664.03146 6:552.26091 7:564.10651 8:487.02676 9:583.2346 10:616.58018 11:426.53023 12:306.41483 13:253.27697 14:281.61968 15:256.65126 16:228.76947 17:142.13063 18:98.699867 19:65.072797 20:38.005045 21:25.223292 22:15.815494 23:9.7133513 24:6.044359 25:4.4401614 
1 1:25498.203 2:1537.4229 3:1518.7882 4:1388.9445 5:753.59229 6:688.06233 7:776.21242 8:652.43915 9:670.05269 10:784.54918 11:462.6447 12:290.65269 13:228.34089 14:188.19279 15:215.53124 16:202.2953 17:116.78104 18:99.438758 19:74.450214 20:42.131953 21:30.468285 22:20.772357 23:12.500549 24:8.4638615 25:9.5290649 
1 1:25963.28 2:1632.2652 3:1506.5835 4:1190.3288 5:641.30765 6:715.31436 7:625.25526 8:402.43845 9:693.90715 10:761.94161 11:368.63156 12:284.43723 13:241.22894 14:243.06487 15:293.79276 16:246.93863 17:123.28557 18:76.026248 19:54.14313 20:43.601996 21:31.294118 22:18.194474 23:10.821237 24:5.5629111 25:2.4851195 
1 1:21886.999 2:1452.2574 3:1325.7055 4:1150.949 5:758.07675 6:665.95573 7:552.4161 8:610.87828 9:835.17544 10:666.30786 11:310.1459 12:283.34581 13:301.87496 14:294.3151 15:244.51497 16:203.37865 17:130.22552 18:96.323308 19:73.247142 20:48.561867 21:33.867929 22:20.337919 23:9.438567 24:5.617372 25:5.4991482 
1 1:23335.91 2:1546.7233 3:1380.9304 4:1283.4321 5:697.40058 6:578.94963 7:618.28935 8:651.275 9:780.38081 10:604.12485 11:364.49024 12:394.64635 13:386.02416 14:250.9056 15:242.5572 16:236.96847 17:131.2356 18:95.951331 19:67.085334 20:48.714662 21:40.733243 22:28.039179 23:12.480303 24:10.164617 25:8.5544416 
1 1:23411.63 2:1373.4482 3:1383.1606 4:1419.5909 5:892.74153 6:534.15146 7:533.10743 8:530.91161 9:773.80641 10:754.14923 11:466.3843 12:369.26243 13:209.80481 14:222.71222 15:278.52998 16:251.23387 17:163.51707 18:109.5377 19:54.199815 20:38.017277 21:35.779822 22:20.797821 23:9.2035062 24:5.2703581 25:2.4712992 
1 1:24090.849 2:1346.1999 3:1695.3776 4:1374.1075 5:848.17852 6:659.45897 7:612.20929 8:566.96235 9:864.29554 10:678.99251 11:300.87702 12:348.88481 13:285.87258 14:233.33231 15:289.3072 16:268.62561 17:140.16317 18:97.999624 19:74.400694 20:47.796944 21:29.633161 22:17.171645 23:8.9524992 24:4.417177 25:3.6877939 
1 1:24597.971 2:1309.8225 3:1179.1754 4:1164.2213 5:905.86285 6:761.80962 7:487.50416 8:489.90771 9:794.92661 10:677.23604 11:295.51867 12:282.5678 13:252.70214 14:258.95155 15:263.34758 16:193.72103 17:152.54674 18:114.39022 19:73.56592 20:46.207435 21:35.883373 22:22.418291 23:11.047346 24:11.563999 25:13.287697 
1 1:29459.066 2:1361.0194 3:1188.5345 4:1011.6032 5:793.71102 6:629.04081 7:488.15054 8:409.401 9:653.95457 10:687.1809 11:354.45682 12:236.29633 13:183.47716 14:205.75353 15:250.19041 16:230.60048 17:104.02022 18:79.403707 19:65.651453 20:37.596695 21:33.921675 22:23.949474 23:11.204258 24:7.1557265 25:7.3976885 
1 1:31124.728 2:1493.975 3:1421.3728 4:1144.6388 5:820.10345 6:799.37456 7:684.1303 8:521.17647 9:805.87186 10:755.63537 11:368.22869 12:333.13708 13:287.49228 14:252.1977 15:269.10457 16:193.23715 17:97.431597 18:64.246235 19:50.607806 20:34.426913 21:19.888964 22:14.15481 23:7.4492759 24:4.589814 25:3.6771428 
1 1:30936.649 2:1351.3013 3:1507.5297 4:1188.1546 5:435.76236 6:585.6904 7:743.52154 8:615.59713 9:704.50274 10:754.76363 11:394.12081 12:236.44696 13:247.37113 14:238.75999 15:268.87473 16:223.38854 17:90.608335 18:79.76964 19:70.365748 20:36.734338 21:23.861342 22:18.286873 23:7.0474222 24:4.257081 25:2.9485655 
1 1:31725.321 2:1328.1528 3:1636.6242 4:1449.4855 5:725.35174 6:659.46268 7:599.36659 8:465.28554 9:701.17344 10:626.25612 11:264.81209 12:206.2083 13:209.87996 14:265.6844 15:277.07204 16:225.05036 17:126.44077 18:92.171813 19:65.309398 20:42.582609 21:28.866067 22:20.018104 23:10.051684 24:8.9066839 25:7.3554 
1 1:30398.032 2:1382.8287 3:1639.0742 4:1322.8019 5:618.1854 6:660.84576 7:733.01608 8:602.75394 9:634.49341 10:614.72769 11:330.69383 12:267.50499 13:265.39754 14:207.60277 15:244.01482 16:211.53026 17:93.926413 18:68.773877 19:48.875202 20:43.130957 21:33.490952 22:20.291864 23:9.8684766 24:3.4428949 25:2.0006414 
1 1:31941.839 2:1854.008 3:1376.6945 4:1039.7963 5:551.87968 6:637.25536 7:735.08138 8:691.26695 9:788.61666 10:661.9203 11:366.3596 12:332.26754 13:319.31393 14:314.47508 15:261.97172 16:245.91648 17:153.33747 18:83.945048 19:64.56706 20:48.69114 21:35.094146 22:23.982559 23:7.6444635 24:6.6513633 25:6.2481415 
1 1:30868.604 2:2448.8698 3:1595.8565 4:1250.6461 5:792.84861 6:665.96756 7:663.19226 8:430.60225 9:615.97228 10:645.92428 11:325.36205 12:221.14689 13:136.35646 14:172.17231 15:235.20247 16:208.51191 17:152.86244 18:104.49349 19:52.440103 20:36.53953 21:23.028413 22:15.972684 23:9.9909162 24:4.611222 25:2.8746195 
1 1:34562.899 2:1863.2202 3:1426.5038 4:1460.4014 5:709.65976 6:728.83098 7:732.1061 8:537.30948 9:739.1172 10:765.01088 11:413.06327 12:305.94787 13:251.40202 14:269.63958 15:253.17238 16:214.76187 17:124.81849 18:82.470264 19:68.032183 20:49.027828 21:27.696019 22:19.406513 23:19.222509 24:20.113747 25:20.229437 
1 1:36658.048 2:1839.3895 3:1376.8805 4:1267.1734 5:741.53326 6:603.41432 7:587.80042 8:443.55149 9:753.89618 10:910.1073 11:635.19025 12:455.92684 13:274.97456 14:241.80897 15:277.32001 16:241.81306 17:137.11508 18:89.811585 19:47.264184 20:29.736184 21:27.629837 22:21.253448 23:9.0513008 24:4.9367979 25:4.7820499 
1 1:33285.967 2:1376.613 3:972.34403 4:1231.4596 5:1024.8377 6:697.41279 7:605.02319 8:540.62479 9:814.11683 10:790.21164 11:323.70622 12:237.31782 13:222.66334 14:206.65513 15:232.3098 16:212.65297 17:141.56655 18:98.385965 19:58.831238 20:45.758194 21:24.787369 22:15.871467 23:10.255189 24:8.0561866 25:6.8133373 
1 1:35610.716 2:1526.922 3:1579.923 4:1208.2556 5:776.87858 6:778.69757 7:719.32651 8:588.11771 9:886.04977 10:855.74089 11:426.61132 12:343.02566 13:253.8659 14:304.66188 15:313.16836 16:198.00523 17:121.39103 18:93.73059 19:64.365829 20:38.601772 21:21.530315 22:20.800135 23:12.423372 24:10.199946 25:10.260922 
1 1:36749.885 2:1688.9066 3:1400.5027 4:1445.1881 5:769.3587 6:589.4315 7:757.32591 8:760.95033 9:988.06004 10:765.4929 11:306.60081 12:253.05984 13:231.9645 14:302.82551 15:309.40888 16:188.96554 17:128.19931 18:104.95755 19:57.752616 20:43.176137 21:29.496573 22:16.714705 23:8.8797022 24:7.2969829 25:5.414028 
1 1:37504.324 2:1025.3534 3:1069.1132 4:1117.3802 5:841.87298 6:764.5134 7:674.53944 8:552.17757 9:692.5351 10:657.94596 11:283.29374 12:218.15246 13:255.98317 14:245.08217 15:239.38463 16:191.29454 17:100.35897 18:77.069088 19:55.619579 20:33.941215 21:22.843674 22:12.570829 23:8.434813 24:10.824146 25:8.9640658 
1 1:39692.052 2:1408.3537 3:1103.2385 4:1067.142 5:757.72571 6:672.96218 7:658.91482 8:545.6657 9:659.16215 10:622.51582 11:346.2904 12:233.23473 13:220.38399 14:209.68054 15:216.52216 16:226.19652 17:160.251 18:93.480426 19:47.975092 20:34.314608 21:26.014218 22:12.928098 23:6.9334283 24:5.9337646 25:4.2859785 
1 1:39572.002 2:1541.4361 3:1556.6111 4:1322.8053 5:838.98318 6:731.39306 7:759.51335 8:626.54549 9:731.30677 10:598.07086 11:369.09993 12:421.09915 13:318.37477 14:226.74288 15:229.34484 16:197.74108 17:102.22745 18:89.385469 19:70.276053 20:37.686994 21:36.641426 22:24.26857 23:7.280334 24:4.3519246 25:2.6537415 
1 1:41422.678 2:1311.8702 3:1543.6374 4:1307.9793 5:704.2537 6:670.0696 7:625.454 8:508.88484 9:752.14672 10:698.13418 11:341.88137 12:303.4582 13:331.82691 14:302.9093 15:256.54875 16:240.48624 17:126.99897 18:88.84321 19:49.291443 20:34.635104 21:22.179485 22:13.970005 23:10.698 24:5.1037855 25:3.236198 
1 1:39198.976 2:1222.721 3:1355.7983 4:1182.9203 5:781.35421 6:818.17303 7:644.16354 8:535.85404 9:917.09163 10:827.72229 11:373.40455 12:316.13385 13:280.77984 14:216.10764 15:335.84553 16:307.89327 17:121.90306 18:66.167463 19:40.745824 20:38.079906 21:34.896943 22:23.665018 23:13.245309 24:10.297127 25:8.5054078 
1 1:39110.99 2:1205.8247 3:1516.7778 4:1222.8522 5:586.04668 6:543.11546 7:724.80758 8:662.73148 9:715.18118 10:678.65201 11:353.53208 12:253.90655 13:206.22395 14:169.52405 15:257.42775 16:234.07713 17:99.144259 18:86.399293 19:68.974106 20:42.467869 21:30.786318 22:19.686823 23:10.791577 24:5.9014425 25:5.0913746 
1 1:36638.522 2:1018.0473 3:1240.1712 4:1120.3858 5:716.13515 6:637.47511 7:627.8813 8:598.50583 9:854.7832 10:788.2896 11:354.44264 12:265.51619 13:336.78758 14:313.49921 15:258.5641 16:213.29227 17:130.16103 18:97.851118 19:49.64309 20:38.151066 21:29.721785 22:18.575378 23:8.120603 24:4.6340048 25:2.1263509 
1 1:38812.362 2:1560.4022 3:979.67114 4:1006.9411 5:755.6025 6:647.14785 7:578.47554 8:587.63472 9:927.39425 10:717.79842 11:344.62159 12:338.07245 13:299.37971 14:247.7204 15:273.49317 16:245.16651 17:162.07569 18:94.378032 19:55.783563 20:47.020561 21:35.013872 22:16.609102 23:9.3450497 24:7.0509853 25:7.1396343 
1 1:36965.367 2:1430.7916 3:1578.2562 4:1188.8923 5:606.35093 6:699.19646 7:514.65168 8:397.95355 9:723.73618 10:738.74897 11:395.03418 12:309.76286 13:306.79537 14:290.07972 15:266.11166 16:221.19558 17:123.61222 18:92.561098 19:48.271266 20:27.760414 21:19.953345 22:16.645182 23:10.358979 24:7.1986898 25:6.5187081 
1 1:35877.074 2:1130.9547 3:1095.7855 4:1014.0631 5:824.79394 6:797.6964 7:634.35812 8:522.82807 9:824.42896 10:775.19027 11:427.19322 12:292.95071 13:223.74739 14:255.2254 15:276.4022 16:232.41765 17:100.95745 18:74.964748 19:61.91794 20:47.232336 21:34.134035 22:22.327955 23:9.0398536 24:6.104754 25:5.6123665 
1 1:35953.155 2:1162.1116 3:1307.3687 4:1200.4033 5:745.26428 6:683.28778 7:804.91178 8:694.35041 9:750.03728 10:688.49626 11:416.49245 12:355.74421 13:371.74122 14:337.61847 15:312.52203 16:231.23702 17:117.1295 18:82.485035 19:64.596856 20:42.345564 21:28.5892 22:16.313361 23:7.5987865 24:4.1112913 25:2.6974769 
1 1:36459.669 2:845.89457 3:1027.4319 4:883.11637 5:676.18831 6:808.32211 7:694.60815 8:493.07653 9:726.16772 10:755.79482 11:442.68164 12:335.18125 13:272.47113 14:208.37162 15:272.23319 16:269.7068 17:139.26944 18:102.52099 19:69.134379 20:43.040746 21:27.946371 22:14.711261 23:12.269705 24:9.7365098 25:6.9870529 
1 1:33773.411 2:1147.7019 3:1334.0994 4:1285.7513 5:638.5696 6:608.63443 7:530.74926 8:475.54301 9:807.7819 10:840.45908 11:415.51795 12:306.34063 13:214.35015 14:164.65835 15:217.39807 16:227.03332 17:162.0005 18:99.651726 19:59.173939 20:40.172602 21:23.766853 22:18.728397 23:8.9672515 24:7.1158792 25:5.3167695 
1 1:30529.649 2:1452.9165 3:1517.2194 4:955.16628 5:699.91112 6:774.6217 7:735.99294 8:669.7715 9:796.88114 10:634.36391 11:340.45702 12:372.1844 13:296.28624 14:216.01341 15:228.3058 16:231.45962 17:140.21201 18:119.22772 19:76.533136 20:42.638212 21:37.071932 22:21.613511 23:16.872562 24:14.950005 25:13.503905 
1 1:29982.103 2:1451.3171 3:1339.0267 4:1292.9278 5:739.61942 6:707.4739 7:666.91332 8:605.23615 9:695.62539 10:520.68614 11:240.30357 12:219.22718 13:195.69359 14:209.54344 15:278.32521 16:253.87898 17:139.0919 18:111.39232 19:70.467787 20:40.768519 21:32.658885 22:17.550558 23:10.066825 24:3.5768129 25:3.1398493 
1 1:28554.469 2:1143.6732 3:1316.0148 4:1193.3019 5:630.79547 6:740.26579 7:688.35813 8:476.0679 9:693.97367 10:678.59569 11:282.10158 12:230.34535 13:264.86874 14:212.1659 15:214.04304 16:219.79798 17:138.55622 18:98.484083 19:75.851546 20:50.632904 21:39.143171 22:22.303122 23:8.9584002 24:3.9610223 25:2.4911076 
1 1:24509.708 2:1775.7633 3:1564.6453 4:1336.3445 5:552.62549 6:650.34649 7:656.09433 8:684.40486 9:871.66193 10:676.62087 11:342.7651 12:369.0562 13:267.26765 14:163.54923 15:210.25164 16:180.99667 17:103.77587 18:91.913637 19:55.133771 20:31.467547 21:28.087265 22:18.973583 23:13.817717 24:14.371819 25:13.646575 
1 1:23860.819 2:2210.4491 3:1628.1104 4:1025.2102 5:619.82392 6:739.66261 7:631.47709 8:668.07573 9:914.47082 10:723.86724 11:338.22916 12:264.73438 13:263.09626 14:334.56227 15:351.41132 16:227.48707 17:115.15067 18:75.063503 19:46.087133 20:46.656308 21:33.592798 22:24.511919 23:14.955513 24:11.560126 25:12.673246 
1 1:26913.9 2:1768.7048 3:1422.1595 4:1361.9756 5:823.1083 6:854.5528 7:731.13047 8:415.50541 9:689.53596 10:655.38553 11:290.60314 12:270.46273 13:230.79922 14:139.4529 15:239.29111 16:211.76034 17:94.594869 18:75.476011 19:53.0041 20:43.831579 21:26.612443 22:17.535497 23:11.219365 24:6.9732144 25:3.9511485 
1 1:27102.182 2:1566.9797 3:1478.2004 4:1480.5809 5:852.62282 6:624.35807 7:783.10639 8:808.70311 9:908.56363 10:808.86501 11:466.78476 12:339.68669 13:250.51925 14:302.41132 15:337.09955 16:274.84644 17:144.14053 18:106.89089 19:79.083391 20:47.771693 21:31.37312 22:24.83406 23:19.012257 24:16.508231 25:16.06568 
1 1:27941.263 2:1852.3651 3:1551.354 4:1396.4981 5:1020.2327 6:965.05434 7:975.62274 8:1069.2754 9:1100.0796 10:825.25536 11:636.29636 12:615.04565 13:462.55105 14:437.78258 15:454.39099 16:343.11496 17:159.8585 18:89.319625 19:78.046367 20:46.90049 21:25.645041 22:18.865811 23:11.216866 24:4.2144167 25:2.4708112 
1 1:30107.737 2:1663.015 3:1768.6686 4:1870.4199 5:1758.0488 6:1365.4386 7:821.81576 8:935.63983 9:1046.1705 10:1080.6273 11:937.33248 12:762.62123 13:672.32424 14:594.76066 15:465.84795 16:467.88416 17:279.07351 18:167.43115 19:146.85047 20:93.505756 21:49.513929 22:39.643912 23:24.741371 24:21.419498 25:23.090327 
1 1:37333.356 2:1963.3674 3:1557.9551 4:1646.8922 5:1254.3257 6:1038.8323 7:1068.9343 8:1397.2913 9:1600.8553 10:1220.1038 11:825.06588 12:727.48647 13:620.02047 14:536.1984 15:431.3681 16:242.82576 17:187.21425 18:204.20738 19:136.38056 20:71.755307 21:47.822522 22:22.161128 23:23.340063 24:21.602081 25:18.446207 
1 1:40272.417 2:1866.8244 3:1769.0626 4:1846.4126 5:1234.8461 6:1095.2484 7:918.82559 8:765.71261 9:894.19963 10:916.09525 11:583.81772 12:365.64278 13:408.292 14:436.96814 15:403.69158 16:273.41644 17:213.67512 18:173.55766 19:84.385142 20:63.741671 21:41.591074 22:23.703546 23:12.627274 24:6.539752 25:2.9332371 
1 1:38391.6 2:1634.5193 3:1595.9203 4:1603.5161 5:998.10669 6:993.22359 7:1153.8072 8:1138.5268 9:1140.9062 10:997.59309 11:643.54013 12:585.25236 13:564.88266 14:479.58691 15:370.53564 16:303.38092 17:223.09479 18:148.54682 19:102.48887 20:82.261035 21:42.115767 22:26.843349 23:13.132656 24:5.5776696 25:2.6584417 
1 1:38618.921 2:1497.1539 3:1480.6006 4:1403.9601 5:959.33729 6:979.25652 7:1129.1521 8:1159.4464 9:1019.0674 10:924.89955 11:638.49176 12:456.11585 13:530.86628 14:444.60947 15:278.6812 16:283.69125 17:183.21876 18:130.81399 19:76.887897 20:57.868083 21:48.586491 22:22.276905 23:9.6604086 24:7.5209452 25:6.4989087 
1 1:39698.577 2:1624.424 3:1332.4431 4:1373.4259 5:1039.2333 6:952.27526 7:781.74812 8:781.133 9:1037.378 10:872.97708 11:619.51725 12:437.77793 13:360.35004 14:429.25901 15:425.56118 16:313.74888 17:174.30677 18:149.432 19:85.431918 20:44.108212 21:35.640512 22:15.763586 23:11.34686 24:10.096502 25:9.7321246 
1 1:39429.389 2:1471.9911 3:1363.8583 4:1219.3723 5:760.75476 6:998.93956 7:1323.7933 8:1140.6136 9:1115.1414 10:1106.0141 11:722.81806 12:458.42116 13:315.91319 14:337.63557 15:478.8719 16:406.10732 17:187.85087 18:99.455487 19:88.096213 20:58.800117 21:36.228324 22:21.390997 23:9.701856 24:5.6009608 25:3.6612081 
1 1:41030.683 2:1769.448 3:1404.5634 4:1336.6898 5:971.00332 6:903.18748 7:838.67348 8:895.46312 9:1068.8488 10:784.64237 11:473.42749 12:528.05435 13:434.97644 14:309.56238 15:289.87577 16:232.35215 17:170.61343 18:132.68844 19:52.57546 20:31.640111 21:34.726337 22:25.749971 23:9.7365452 24:5.7061449 25:5.7758063 
1 1:41556.733 2:1087.7836 3:1200.4191 4:1447.609 5:1087.2904 6:862.19671 7:658.42519 8:632.77085 9:922.05356 10:834.8868 11:485.18541 12:447.44594 13:349.10403 14:262.80896 15:320.02044 16:256.14564 17:96.083631 18:83.54802 19:63.647397 20:39.625597 21:30.001092 22:21.358071 23:9.8078105 24:4.7778966 25:2.5736902 
1 1:39727.659 2:1619.9977 3:1356.9097 4:1525.4749 5:1028.3448 6:762.54347 7:887.23974 8:1000.7925 9:1097.1971 10:923.8494 11:651.1618 12:431.37668 13:362.27619 14:285.40134 15:254.97881 16:275.76264 17:184.96925 18:86.785682 19:54.301101 20:45.961996 21:34.034239 22:21.556575 23:12.584241 24:9.8182915 25:9.8432417 
1 1:37862.938 2:1825.6104 3:1327.1233 4:1326.4072 5:839.24956 6:824.97089 7:997.91705 8:802.36969 9:773.88182 10:813.36447 11:650.17196 12:499.00172 13:324.83429 14:354.10594 15:367.90536 16:263.67549 17:150.58732 18:115.14884 19:85.045418 20:49.396653 21:33.115019 22:17.342064 23:9.8904545 24:5.0158542 25:3.2005825 
