svm_type nu_svc
kernel_type polynomial
degree 3
gamma 0.5
coef0 0
nr_class 2
total_sv 3580
rho -1.2455
label 1 0
nr_sv 1791 1789
SV
6.689590361632336e-30 1:308995.8 2:2456.8727 3:2705.4717 4:2577.6084 5:1382.0807 6:992.30666 7:890.69024 8:848.54004 9:1087.0384 10:990.27235 11:637.88348 12:569.74281 13:535.56268 14:571.91014 15:478.87931 16:327.15782 17:259.21569 18:245.53248 19:193.0534 20:96.720166 21:67.971175 22:50.518999 23:30.339039 24:31.571335 25:33.650903 
6.689590361632336e-30 1:310326.02 2:1838.7604 3:2736.7765 4:2437.3431 5:1274.3203 6:955.84964 7:698.13038 8:535.11513 9:1048.2404 10:1082.6808 11:588.87204 12:428.03468 13:489.73618 14:511.82923 15:381.96393 16:363.46247 17:306.26116 18:202.11249 19:105.09291 20:81.823688 21:52.692682 22:24.142356 23:17.284223 24:12.384134 25:12.391044 
6.689590361632336e-30 1:295425.22 2:1198.4274 3:2256.5981 4:2624.1492 5:1142.1914 6:710.9534 7:739.74621 8:814.94231 9:1310.4467 10:1443.2321 11:691.90195 12:501.07503 13:505.78765 14:583.78885 15:554.16767 16:392.92836 17:309.80312 18:211.55438 19:126.63392 20:107.77978 21:75.86793 22:41.680794 23:36.567293 24:39.436488 25:39.611798 
6.689590361632336e-30 1:288616.75 2:2546.4892 3:2954.779 4:2739.7404 5:2296.4065 6:1935.498 7:1639.7147 8:1759.5826 9:1805.3685 10:1427.6706 11:894.61621 12:658.71929 13:692.20169 14:846.61657 15:700.40649 16:498.17994 17:349.3698 18:240.71992 19:178.32658 20:103.89378 21:66.315944 22:47.090691 23:21.051469 24:9.5977749 25:3.8082518 
6.689590361632336e-30 1:288206.8 2:3100.5543 3:3196.9645 4:2669.5298 5:1745.0104 6:1691.4115 7:1440.6231 8:1257.3317 9:1817.2249 10:1621.2408 11:1082.8589 12:979.01976 13:835.25714 14:913.8349 15:820.68474 16:560.68166 17:413.13519 18:364.35042 19:252.39492 20:179.41342 21:129.59779 22:62.91464 23:38.033478 24:19.825747 25:14.75071 
6.689590361632336e-30 1:277113.21 2:1577.654 3:2483.7843 4:2246.4492 5:1075.9335 6:912.95842 7:1102.4195 8:1236.8157 9:1537.6541 10:1453.7753 11:770.60961 12:529.18186 13:649.6043 14:574.15267 15:434.08121 16:389.1562 17:303.02529 18:302.10397 19:205.14211 20:89.37156 21:57.341094 22:42.116057 23:27.67755 24:18.388976 25:16.601831 
6.689590361632336e-30 1:271382.63 2:1491.6448 3:2043.9447 4:2017.5651 5:1027.047 6:864.6993 7:791.38651 8:734.21219 9:1266.4771 10:1399.1145 11:762.21926 12:573.59981 13:633.3823 14:572.17964 15:486.65742 16:468.91471 17:300.98575 18:235.13683 19:159.73023 20:63.690912 21:45.935752 22:33.318309 23:18.556892 24:7.9541267 25:4.3405011 
6.689590361632336e-30 1:276467.54 2:2849.3113 3:3243.4823 4:2758.5631 5:1475.1426 6:1071.8606 7:926.85165 8:800.90217 9:1362.6079 10:1251.2847 11:731.02077 12:760.68725 13:679.66179 14:569.03962 15:582.8763 16:466.76125 17:295.07846 18:226.78466 19:142.11821 20:85.918239 21:50.124238 22:28.567869 23:19.499383 24:15.721686 25:11.994483 
6.689590361632336e-30 1:287681.65 2:1179.2966 3:2140.7797 4:2132.1856 5:837.27923 6:682.98877 7:638.47712 8:486.23697 9:980.11903 10:963.34036 11:516.13133 12:419.78439 13:396.30417 14:385.71459 15:267.76988 16:257.29394 17:207.17642 18:157.7806 19:103.90338 20:84.664911 21:74.135791 22:50.432506 23:37.881273 24:40.561352 25:41.940908 
6.689590361632336e-30 1:280310.99 2:1327.3626 3:1991.4289 4:1625.0497 5:572.62177 6:552.70003 7:477.52856 8:454.17339 9:912.91063 10:919.6254 11:433.85698 12:424.60251 13:316.71726 14:233.82816 15:351.67574 16:314.82278 17:144.17508 18:107.90944 19:100.3411 20:81.048985 21:77.555921 22:68.011854 23:63.010302 24:53.452366 25:49.293272 
6.689590361632336e-30 1:272973.72 2:980.26398 3:1997.5607 4:2089.059 5:1144.5069 6:1287.0151 7:905.77362 8:782.49354 9:1270.8822 10:1251.322 11:681.8294 12:581.75216 13:481.7361 14:509.68999 15:434.82097 16:269.34469 17:270.20261 18:177.2266 19:120.39332 20:95.116277 21:41.947307 22:34.700678 23:19.576703 24:6.6526285 25:2.078921 
6.689590361632336e-30 1:271232.82 2:1948.7627 3:3074.134 4:2926.0629 5:1810.9905 6:1494.3884 7:1201.8603 8:1116.2531 9:1557.2656 10:1456.0241 11:1079.4554 12:935.57371 13:718.59154 14:764.94778 15:596.79224 16:449.96083 17:297.41995 18:192.01441 19:164.35759 20:113.2607 21:52.373716 22:32.653738 23:25.364205 24:11.317288 25:5.8727912 
6.689590361632336e-30 1:275927.78 2:1425.4521 3:2335.0142 4:2293.2592 5:1219.6359 6:1187.4448 7:1011.1303 8:820.39623 9:1286.8104 10:1421.5598 11:984.96519 12:791.16999 13:580.91897 14:499.56288 15:559.57333 16:459.1084 17:279.26639 18:287.39366 19:212.23773 20:103.67198 21:57.66545 22:55.648274 23:47.349661 24:36.860244 25:37.790957 
6.689590361632336e-30 1:303155.53 2:1359.1119 3:2419.6499 4:2389.9972 5:1164.7632 6:913.72678 7:1062.4509 8:1081.1105 9:1346.7612 10:1431.087 11:1157.6995 12:949.07319 13:866.38201 14:859.96922 15:568.68172 16:450.25282 17:372.58013 18:249.24347 19:152.43902 20:113.65752 21:86.088061 22:51.160828 23:26.290515 24:15.50974 25:9.6579053 
6.689590361632336e-30 1:311991.85 2:1343.1234 3:2411.737 4:2276.8572 5:918.41474 6:712.94614 7:675.41917 8:962.63705 9:1411.6952 10:1238.4186 11:809.6876 12:729.39251 13:725.12561 14:542.15461 15:431.46018 16:415.38215 17:284.23849 18:190.03566 19:160.32984 20:124.21071 21:52.938381 22:24.570024 23:16.567526 24:12.623918 25:11.954091 
6.689590361632336e-30 1:312890.11 2:1110.9765 3:2374.9071 4:2235.1963 5:817.86472 6:758.55438 7:728.9325 8:655.59637 9:868.55828 10:969.11023 11:821.76107 12:681.86906 13:497.9987 14:369.66741 15:375.80164 16:414.3823 17:264.54248 18:177.46187 19:109.45121 20:74.518273 21:47.321041 22:22.764638 23:18.215794 24:13.989795 25:12.648349 
6.689590361632336e-30 1:321402.21 2:1944.4306 3:3116.0057 4:3223.1397 5:2048.6023 6:1551.6866 7:1353.3318 8:1058.839 9:1581.1913 10:1861.7411 11:1214.2284 12:845.98842 13:867.05081 14:896.89859 15:875.76427 16:633.76736 17:413.78005 18:290.52466 19:183.18738 20:142.45323 21:92.800683 22:44.897341 23:26.890282 24:28.469557 25:33.140583 
6.689590361632336e-30 1:321997.51 2:1149.0922 3:2446.5561 4:2471.1093 5:929.74196 6:806.96459 7:916.70463 8:917.75011 9:1207.3551 10:1515.2957 11:1164.73 12:809.05333 13:621.98021 14:579.20526 15:512.9368 16:517.82068 17:353.09669 18:181.51494 19:153.76299 20:134.3903 21:87.184089 22:52.113568 23:30.886947 24:31.612515 25:30.315677 
6.689590361632336e-30 1:334681.27 2:1651.9019 3:2538.5485 4:2290.4033 5:1111.8254 6:1125.7771 7:1052.818 8:1176.6853 9:1646.8493 10:1506.6183 11:900.3828 12:862.67264 13:932.54346 14:777.877 15:539.42152 16:397.3951 17:361.122 18:250.61144 19:138.12457 20:87.197362 21:60.25475 22:25.684922 23:16.198285 24:6.0622967 25:4.9192774 
6.689590361632336e-30 1:329557.72 2:1501.68 3:2408.3631 4:2378.9121 5:1280.7637 6:1081.9162 7:998.28904 8:987.12264 9:1297.2802 10:1402.3684 11:1008.1516 12:746.71642 13:674.50092 14:676.79309 15:561.29847 16:537.68459 17:400.99245 18:253.9143 19:145.51748 20:114.66877 21:82.474971 22:34.720335 23:16.015525 24:8.0224295 25:3.1453452 
6.689590361632336e-30 1:335554.98 2:1785.7498 3:3169.3508 4:3158.1994 5:1350.5716 6:1435.9882 7:1712.7235 8:1611.7297 9:1723.5876 10:1638.4121 11:1718.3021 12:1513.111 13:850.79766 14:693.26575 15:592.92179 16:583.02635 17:439.66269 18:352.08915 19:292.34998 20:174.58736 21:102.57248 22:57.270271 23:34.591171 24:25.903693 25:20.237309 
6.689590361632336e-30 1:349360.46 2:1586.5361 3:3044.8132 4:3211.341 5:2157.9703 6:2113.0854 7:2037.08 8:1953.9749 9:2639.721 10:2704.2906 11:2329.2438 12:1846.8456 13:1815.2184 14:1776.3943 15:898.78588 16:920.91089 17:887.98908 18:612.45214 19:369.80315 20:180.07457 21:122.16659 22:77.920018 23:42.01331 24:16.308656 25:5.1815726 
6.689590361632336e-30 1:342079.18 2:1508.0391 3:2618.4554 4:2644.9204 5:1636.9055 6:1514.794 7:1144.2783 8:1158.6875 9:1978.4375 10:1935.753 11:1270.7735 12:1052.7287 13:1193.5486 14:1430.3696 15:1127.0454 16:662.01925 17:419.64321 18:519.1194 19:394.44733 20:152.348 21:117.04538 22:73.604026 23:36.579104 24:23.383022 25:16.592902 
6.689590361632336e-30 1:333815.92 2:1062.8539 3:2324.5393 4:2369.9053 5:1215.5979 6:1116.2591 7:996.23865 8:1036.3723 9:1529.2688 10:1430.4299 11:920.58654 12:937.72744 13:761.9056 14:669.05493 15:426.57944 16:303.92145 17:286.06798 18:197.45749 19:172.8482 20:125.57677 21:84.651545 22:58.423796 23:38.411949 24:19.14206 25:18.931166 
6.689590361632336e-30 1:336811.38 2:3479.699 3:3668.5969 4:2839.4508 5:1731.3435 6:1572.7996 7:1327.7349 8:1401.3805 9:1679.7462 10:1455.4785 11:624.52438 12:722.11271 13:870.54376 14:839.76333 15:749.45625 16:492.8419 17:283.42136 18:245.53573 19:228.00148 20:105.57018 21:65.934893 22:46.167616 23:28.471154 24:18.254539 25:16.928838 
6.689590361632336e-30 1:331816.3 2:2399.6347 3:3249.7426 4:2822.6573 5:1421.4022 6:1166.3557 7:1137.2995 8:1047.3457 9:1435.4876 10:1611.0751 11:1101.3193 12:625.65947 13:515.51745 14:650.98631 15:621.53237 16:507.16817 17:312.59327 18:257.78992 19:154.22228 20:73.285626 21:56.96782 22:36.944507 23:18.58621 24:7.6559166 25:8.3705809 
6.689590361632336e-30 1:327629.72 2:6396.1166 3:5738.0189 4:4041.4963 5:3150.6974 6:2769.5196 7:1910.5318 8:1192.6578 9:1645.1582 10:1815.3039 11:1331.8556 12:1242.7493 13:1443.8484 14:1488.721 15:1088.8728 16:619.36019 17:299.30687 18:222.50724 19:165.7009 20:132.4676 21:77.735877 22:39.687149 23:27.060998 24:19.026096 25:17.132926 
6.689590361632336e-30 1:331919.87 2:1545.7093 3:2540.2307 4:2376.982 5:1345.0098 6:1450.6773 7:1287.2755 8:1391.5418 9:1707.7612 10:1414.5668 11:715.3572 12:501.1878 13:431.46139 14:426.00646 15:356.31129 16:335.97194 17:284.6025 18:176.95594 19:129.44459 20:98.111474 21:62.827525 22:33.846252 23:29.906322 24:29.130832 25:28.314873 
6.689590361632336e-30 1:336575.3 2:1707.5415 3:2709.9844 4:2421.9162 5:1213.1085 6:1304.5619 7:1280.8971 8:1223.728 9:1695.2641 10:1515.6936 11:794.2378 12:691.07676 13:794.65796 14:841.82413 15:694.18215 16:498.66177 17:303.98649 18:214.12723 19:143.4667 20:111.76572 21:63.614541 22:27.626126 23:12.711564 24:6.6766844 25:2.8673218 
6.689590361632336e-30 1:329516.73 2:2102.7146 3:2906.1956 4:2502.334 5:1239.2057 6:1106.4881 7:1151.6293 8:1171.2201 9:1409.607 10:1450.8647 11:1067.3555 12:993.91793 13:832.82329 14:645.42755 15:588.73212 16:534.3465 17:422.82181 18:272.69584 19:172.09912 20:115.33703 21:59.738195 22:29.192818 23:19.246995 24:13.482957 25:10.342631 
6.689590361632336e-30 1:334870.51 2:1438.7702 3:2558.4372 4:2137.1702 5:880.04429 6:1190.2749 7:1122.653 8:898.31385 9:1299.2635 10:1174.2509 11:573.30641 12:541.65108 13:490.17398 14:408.35882 15:359.36305 16:342.17564 17:263.9255 18:170.12913 19:119.40793 20:74.54654 21:48.726675 22:32.249701 23:17.548367 24:17.279894 25:17.881528 
6.689590361632336e-30 1:343776.16 2:1979.9767 3:2771.1845 4:2605.6056 5:1343.2553 6:1378.3213 7:1389.1531 8:1030.8284 9:1403.6634 10:1363.4676 11:728.07075 12:608.5708 13:497.36922 14:473.63245 15:466.02146 16:416.80362 17:280.56287 18:206.92926 19:155.23208 20:99.698206 21:63.636286 22:45.868676 23:28.962368 24:25.800406 25:26.140388 
6.689590361632336e-30 1:336461.58 2:1705.3413 3:2518.5515 4:2120.6969 5:1139.7662 6:1258.9712 7:1161.1504 8:846.31877 9:1486.4498 10:1707.3001 11:826.08971 12:677.26942 13:551.34484 14:533.28901 15:632.38807 16:487.79191 17:304.06354 18:224.69 19:151.98734 20:82.874855 21:45.885411 22:29.120288 23:21.876038 24:16.037841 25:14.578945 
6.689590361632336e-30 1:333260.68 2:1367.1085 3:2577.5754 4:2570.2373 5:1156.1855 6:940.03018 7:929.34739 8:1258.5153 9:1655.6807 10:1231.0707 11:586.40036 12:668.81189 13:566.7497 14:555.55031 15:596.0438 16:384.42233 17:218.68979 18:191.2372 19:155.59608 20:80.507873 21:55.170384 22:31.580419 23:14.894018 24:7.4414095 25:3.0230777 
6.689590361632336e-30 1:323582.71 2:1502.9298 3:3544.4357 4:4031.8478 5:2046.781 6:1512.5152 7:1757.2057 8:1748.0159 9:1910.5825 10:1961.0345 11:1603.0588 12:1265.0374 13:813.92604 14:655.04482 15:613.73194 16:487.26028 17:387.31107 18:336.24353 19:191.10502 20:113.80718 21:94.479774 22:60.227947 23:29.010479 24:20.840216 25:21.686879 
6.689590361632336e-30 1:327811.57 2:2450.9866 3:3331.3901 4:2850.7978 5:1423.272 6:1452.7699 7:1456.6579 8:1552.7891 9:1920.1331 10:1891.7776 11:1187.2626 12:1015.4873 13:1024.2154 14:911.17767 15:794.46719 16:758.20133 17:492.19955 18:311.67426 19:215.36014 20:100.22127 21:56.358057 22:32.105139 23:18.764728 24:8.6140399 25:3.9687947 
6.689590361632336e-30 1:313961.08 2:1330.4351 3:2877.7169 4:2492.1964 5:1420.222 6:1532.8393 7:1138.1094 8:1409.7797 9:1939.0221 10:1624.7792 11:909.81839 12:558.47794 13:471.87834 14:452.53738 15:462.96026 16:494.74301 17:264.69373 18:180.06518 19:135.63312 20:95.77653 21:81.629453 22:59.221077 23:54.627931 24:51.697203 25:51.846925 
6.689590361632336e-30 1:298337.99 2:1633.5467 3:3417.2608 4:2947.4622 5:1079.616 6:1220.6677 7:1143.3203 8:1205.2272 9:1812.589 10:1691.1906 11:937.0511 12:710.22623 13:646.90048 14:544.21239 15:655.73247 16:657.93594 17:387.07829 18:265.40511 19:176.50135 20:128.20469 21:65.336707 22:42.074426 23:40.739416 24:37.222865 25:36.730268 
6.689590361632336e-30 1:289508.42 2:1696.9016 3:3167.5921 4:2725.6051 5:937.73914 6:988.76048 7:1238.426 8:1692.7317 9:2166.1682 10:1605.5316 11:1096.6877 12:1069.8928 13:664.08451 14:549.09787 15:764.51184 16:586.33067 17:245.23494 18:207.69527 19:144.42234 20:97.014326 21:75.373219 22:45.142173 23:18.675489 24:8.4078327 25:7.6516748 
6.689590361632336e-30 1:281368.4 2:1864.1555 3:3425.8234 4:2960.0129 5:1118.4055 6:1209.8752 7:1504.8199 8:1477.4756 9:1552.9627 10:1323.9879 11:778.20349 12:747.16473 13:723.59531 14:721.90704 15:638.74162 16:398.15165 17:231.73167 18:191.13143 19:139.69647 20:115.5587 21:81.933826 22:45.715457 23:30.49938 24:30.242513 25:32.496332 
6.689590361632336e-30 1:274967.22 2:1474.3045 3:2962.9861 4:2739.1418 5:1272.8116 6:1554.1457 7:1196.8854 8:883.65252 9:1728.4884 10:1883.8803 11:914.96638 12:784.57796 13:761.31494 14:465.09654 15:382.53632 16:320.46314 17:219.44381 18:170.76641 19:110.18469 20:96.461095 21:57.76013 22:40.669356 23:35.669199 24:32.886179 25:33.720177 
6.689590361632336e-30 1:263583.97 2:1583.6052 3:3085.7251 4:3276.2674 5:1346.69 6:1220.2935 7:1205.7654 8:1532.1794 9:2066.0494 10:1541.0496 11:968.54142 12:817.70804 13:665.94711 14:711.9242 15:665.201 16:483.37914 17:306.11051 18:241.403 19:154.86877 20:96.320139 21:69.210614 22:36.271698 23:26.953275 24:22.377018 25:23.990831 
6.689590361632336e-30 1:255576.32 2:838.29228 3:2526.3872 4:2743.3011 5:1143.305 6:1077.3784 7:1281.2635 8:1247.1597 9:1616.9877 10:1752.264 11:941.74074 12:589.79388 13:650.04479 14:835.61347 15:877.04879 16:590.46512 17:388.74366 18:323.43381 19:156.39881 20:84.124476 21:60.111134 22:47.151197 23:27.652295 24:20.773196 25:22.079326 
6.689590361632336e-30 1:250604.3 2:1344.4142 3:3063.0625 4:2679.4738 5:986.7498 6:1075.9709 7:1380.1137 8:1127.0724 9:1416.4999 10:1739.4554 11:1063.5284 12:610.13666 13:580.49532 14:601.81237 15:528.99208 16:551.58338 17:294.17516 18:155.58327 19:133.45376 20:78.41703 21:60.165453 22:38.269355 23:21.135589 24:9.2980885 25:5.9847084 
6.689590361632336e-30 1:248053.78 2:1617.9225 3:3220.153 4:3142.5641 5:1329.8319 6:924.25322 7:742.31884 8:837.60659 9:1625.7579 10:1508.6306 11:736.53159 12:515.62508 13:532.58666 14:568.46048 15:469.65186 16:510.27289 17:282.63472 18:172.18521 19:117.27596 20:59.235863 21:39.682052 22:24.917535 23:21.187199 24:12.815511 25:11.316969 
6.689590361632336e-30 1:251307.68 2:1733.1587 3:3118.5011 4:2819.1784 5:1463.9154 6:1574.0345 7:1043.2301 8:876.91458 9:1662.4204 10:1824.8054 11:904.7204 12:595.58014 13:599.7757 14:575.72793 15:517.70348 16:467.17205 17:245.78694 18:180.90153 19:132.81448 20:58.457221 21:49.189225 22:28.091471 23:17.670108 24:7.7990537 25:3.6273824 
6.689590361632336e-30 1:253081.84 2:1604.1317 3:3224.6837 4:2889.3356 5:1208.8984 6:1217.6199 7:1244.2993 8:1161.1129 9:1787.694 10:1667.8958 11:654.14453 12:585.04305 13:534.17812 14:459.52488 15:482.19285 16:406.37649 17:252.76605 18:223.20114 19:138.92721 20:75.550616 21:53.921913 22:25.93608 23:17.732453 24:18.678237 25:17.396028 
6.689590361632336e-30 1:257261.65 2:1443.4265 3:3202.1385 4:3086.75 5:1292.3246 6:1127.8384 7:1207.7502 8:1120.4783 9:1517.4754 10:1729.3302 11:1078.9357 12:720.00591 13:708.50177 14:713.14743 15:623.43378 16:565.69333 17:333.64502 18:172.7371 19:108.6451 20:75.973733 21:41.144531 22:29.948656 23:24.54621 24:18.221338 25:16.999978 
6.689590361632336e-30 1:262662.09 2:2471.4327 3:4015.922 4:3963.0583 5:1808.605 6:1593.8602 7:1281.5162 8:1017.3659 9:2202.2424 10:2053.2286 11:1072.549 12:1110.5694 13:971.29083 14:705.24517 15:683.8304 16:768.07634 17:399.49549 18:247.31798 19:170.82835 20:100.98985 21:63.349118 22:39.226864 23:20.377814 24:16.104795 25:14.200813 
6.689590361632336e-30 1:265616.1 2:1924.0834 3:4049.8778 4:3937.6813 5:1750.1184 6:1950.7648 7:2071.7101 8:2549.4107 9:2947.8387 10:1953.0404 11:1325.2794 12:1003.3988 13:857.09369 14:852.84592 15:627.70296 16:478.71842 17:309.27403 18:277.4584 19:230.59096 20:139.63053 21:71.34474 22:41.70507 23:23.956444 24:12.067987 25:10.299753 
6.689590361632336e-30 1:269073.13 2:2086.6912 3:4210.5006 4:3955.3532 5:1775.2315 6:1665.4934 7:1611.0834 8:1314.17 9:1766.1853 10:1670.3279 11:919.7084 12:734.78578 13:594.21748 14:670.28524 15:662.8277 16:465.31208 17:272.11934 18:172.72662 19:150.69993 20:115.14378 21:63.718066 22:39.327373 23:28.135071 24:20.295385 25:22.544178 
6.689590361632336e-30 1:274315 2:1661.7938 3:3426.7687 4:3516.2806 5:1540.7671 6:1084.5697 7:1003.9012 8:1111.8783 9:1738.2889 10:1557.7845 11:1201.7439 12:948.49826 13:631.44601 14:661.88091 15:587.72205 16:488.61197 17:296.05994 18:243.12135 19:204.10404 20:137.47302 21:74.309311 22:40.596479 23:16.633357 24:14.642132 25:14.399542 
6.689590361632336e-30 1:281275.22 2:2334.1178 3:3497.8461 4:3512.2235 5:1638.3903 6:1099.4022 7:1431.1217 8:1531.093 9:2149.8085 10:2342.7535 11:1278.6407 12:805.45009 13:802.26937 14:904.86915 15:672.06389 16:514.61795 17:483.78707 18:333.05728 19:155.85144 20:105.81377 21:64.690958 22:36.932583 23:30.391068 24:28.73426 25:26.323965 
6.689590361632336e-30 1:289912.56 2:2678.8394 3:2754.6817 4:2496.6421 5:1585.2178 6:1360.0467 7:1518.6291 8:1409.2616 9:1687.3916 10:1987.8156 11:1469.3714 12:1070.5123 13:975.63574 14:853.9836 15:788.30991 16:608.96532 17:349.77162 18:229.58659 19:177.7056 20:138.87325 21:84.321345 22:36.727049 23:20.883399 24:15.081705 25:13.649237 
6.689590361632336e-30 1:300934.57 2:1992.0786 3:3095.5235 4:2758.1424 5:1315.896 6:1534.1705 7:1493.0069 8:1250.7597 9:1564.2779 10:1450.7112 11:1045.9269 12:851.9794 13:602.68886 14:589.29405 15:545.69407 16:572.5338 17:484.68411 18:326.44886 19:204.32165 20:126.47115 21:66.720883 22:37.713966 23:21.099099 24:12.641027 25:11.750391 
6.689590361632336e-30 1:301847.27 2:2000.2495 3:2518.1443 4:2214.6605 5:1046.4493 6:922.49191 7:983.40724 8:1024.6959 9:1210.2394 10:1209.9757 11:826.66017 12:715.46065 13:615.89274 14:463.93666 15:520.547 16:563.96735 17:305.66638 18:182.95073 19:136.58445 20:114.44244 21:84.536633 22:55.242202 23:23.522907 24:13.343542 25:11.728972 
6.689590361632336e-30 1:304024.14 2:1505.7049 3:2714.2787 4:2382.087 5:1102.2923 6:1428.4546 7:1364.3967 8:1519.9094 9:1717.0093 10:1544.3613 11:1196.971 12:761.07876 13:586.3557 14:769.57083 15:682.53825 16:517.42749 17:334.69219 18:210.02679 19:169.30949 20:136.48309 21:81.383372 22:39.794497 23:18.742423 24:10.367778 25:7.8569625 
6.689590361632336e-30 1:306090.55 2:1244.0799 3:2301.2826 4:2437.2102 5:1481.1333 6:1269.4895 7:948.20411 8:891.69821 9:1549.6757 10:1621.7172 11:910.30566 12:863.36681 13:659.0258 14:469.17471 15:399.76764 16:312.14858 17:200.7759 18:192.19235 19:140.31629 20:84.013394 21:50.233112 22:26.333447 23:14.612549 24:7.5761881 25:2.9441769 
6.689590361632336e-30 1:304348.62 2:939.4693 3:2396.0547 4:2566.1306 5:1144.4483 6:944.28739 7:1050.0397 8:981.03926 9:1148.6603 10:1103.1947 11:774.90326 12:673.88956 13:464.60895 14:554.11595 15:645.8334 16:492.92156 17:250.28658 18:157.44903 19:118.2675 20:97.907439 21:64.154719 22:42.930623 23:23.589914 24:18.04118 25:18.16249 
6.689590361632336e-30 1:303720.95 2:1059.3247 3:1868.0335 4:2097.0169 5:1022.1707 6:962.51813 7:1034.9453 8:1043.1033 9:1690.0257 10:1646.334 11:770.35358 12:455.62116 13:391.65273 14:445.97861 15:483.32818 16:377.19517 17:217.50675 18:183.88887 19:159.04242 20:89.814349 21:44.061031 22:35.095442 23:18.117578 24:6.8117722 25:3.0884179 
6.689590361632336e-30 1:301954.52 2:1626.2301 3:2321.8515 4:2079.0163 5:958.52755 6:921.61037 7:752.46588 8:872.30807 9:1295.0411 10:1161.6407 11:827.78577 12:698.89181 13:433.90824 14:445.27633 15:421.14239 16:332.03848 17:271.60835 18:231.44021 19:153.807 20:88.336643 21:54.141404 22:30.02161 23:14.335807 24:8.8836974 25:7.1634924 
6.689590361632336e-30 1:299356.51 2:1040.4587 3:2634.8602 4:2286.9304 5:913.85663 6:1241.0784 7:1058.1592 8:943.02274 9:1396.5419 10:1293.0138 11:843.79064 12:691.17785 13:478.73578 14:560.15166 15:585.88474 16:379.84671 17:210.44148 18:150.42721 19:145.16116 20:88.212224 21:40.977856 22:24.754167 23:18.72489 24:10.040789 25:3.4271556 
6.689590361632336e-30 1:302174.4 2:1409.768 3:2606.2385 4:2481.6667 5:1297.7759 6:1167.8318 7:1167.3902 8:1233.6917 9:1537.5743 10:1390.4898 11:747.50543 12:512.53855 13:338.40805 14:492.63465 15:648.07062 16:555.78396 17:360.4696 18:229.14628 19:117.68615 20:73.401032 21:46.709454 22:26.947918 23:19.201683 24:14.121947 25:10.792607 
6.689590361632336e-30 1:302596.03 2:1226.0093 3:2724.9273 4:2210.1039 5:1043.9477 6:1324.4182 7:1029.4139 8:1272.5837 9:1670.7564 10:1532.1726 11:1143.1768 12:899.86631 13:645.5603 14:540.99856 15:573.5825 16:553.35297 17:353.69841 18:250.52215 19:166.39942 20:96.05439 21:62.02984 22:26.262298 23:13.766038 24:11.974745 25:10.728843 
6.689590361632336e-30 1:301320.89 2:972.64213 3:2557.9675 4:2686.1889 5:1228.2343 6:1156.1181 7:1254.6422 8:1421.9871 9:1969.4048 10:1884.2129 11:1484.4709 12:1088.2644 13:890.7813 14:916.84284 15:695.24756 16:636.09472 17:489.36317 18:321.94983 19:239.85526 20:133.27598 21:40.430723 22:36.516006 23:25.819752 24:9.3013611 25:3.6986545 
6.689590361632336e-30 1:299841.48 2:1370.7479 3:3143.1399 4:3061.8093 5:1445.7732 6:1453.1614 7:1581.4503 8:1971.1302 9:2257.8532 10:2025.9014 11:1447.6739 12:1015.3723 13:713.86811 14:867.081 15:759.407 16:613.82873 17:519.23981 18:392.26623 19:255.15855 20:117.6518 21:89.998744 22:52.927226 23:25.507038 24:13.724896 25:9.0887976 
6.689590361632336e-30 1:300932.39 2:1719.4584 3:2590.6452 4:3154.5811 5:2047.6927 6:1799.9748 7:1973.1258 8:1918.4675 9:2392.2248 10:2188.337 11:1502.2878 12:1091.4976 13:823.82463 14:789.6127 15:651.32372 16:530.20076 17:533.91082 18:490.18504 19:353.95473 20:216.91082 21:114.74792 22:55.242557 23:23.490325 24:12.012917 25:5.9365744 
6.689590361632336e-30 1:302338.98 2:1355.9449 3:2491.9269 4:2950.5342 5:1373.5545 6:1716.3172 7:2404.5124 8:2009.9462 9:1842.4832 10:1901.4445 11:1449.1427 12:1095.8971 13:926.13797 14:734.93316 15:676.7175 16:738.39611 17:620.73556 18:389.41468 19:215.76785 20:182.03577 21:113.42909 22:56.769482 23:31.944227 24:9.2021849 25:4.0030252 
6.689590361632336e-30 1:302154.03 2:1256.3282 3:2552.6997 4:2674.5282 5:1501.8019 6:1635.3964 7:1395.2529 8:1014.4919 9:1866.7205 10:2047.1498 11:1429.2416 12:1395.668 13:1232.4285 14:1013.1094 15:905.99311 16:807.71962 17:520.18601 18:389.81685 19:251.97719 20:157.71782 21:103.4177 22:51.945646 23:27.644274 24:9.6068554 25:6.7610215 
6.689590361632336e-30 1:300105.14 2:1246.73 3:2947.2372 4:2998.4251 5:1384.5683 6:1230.3843 7:1336.0992 8:1282.2476 9:1388.0273 10:1485.656 11:1095.4301 12:933.00108 13:747.70121 14:791.95245 15:827.62794 16:575.95525 17:418.30115 18:347.70194 19:240.46432 20:141.05247 21:70.536499 22:47.720477 23:36.507636 24:21.687856 25:12.586142 
6.689590361632336e-30 1:298746.53 2:1291.0729 3:2385.2531 4:2416.5122 5:1132.0234 6:1278.4495 7:1338.7176 8:985.42889 9:1280.0234 10:1466.3298 11:951.66054 12:815.52945 13:814.6897 14:697.09417 15:591.97785 16:570.59626 17:479.58607 18:319.26572 19:158.80474 20:95.76683 21:57.305905 22:24.283032 23:11.524134 24:8.4674365 25:6.1108391 
6.689590361632336e-30 1:298396.83 2:1386.1035 3:2351.3205 4:2288.6269 5:1604.1624 6:1632.1247 7:865.44514 8:903.82236 9:1649.543 10:1707.9492 11:1129.0723 12:863.748 13:823.64117 14:816.08292 15:659.9737 16:639.83175 17:519.66729 18:279.38108 19:189.62826 20:151.29824 21:91.937313 22:35.347446 23:19.98096 24:11.355531 25:4.6806912 
6.689590361632336e-30 1:299279.21 2:1303.9498 3:2292.0678 4:2464.0001 5:1318.4367 6:1196.182 7:1147.9979 8:1185.0728 9:1481.4663 10:1392.0463 11:881.70425 12:666.39747 13:720.09963 14:899.0898 15:958.68407 16:692.64189 17:287.36547 18:211.0313 19:185.98643 20:125.79467 21:77.512727 22:36.465302 23:20.037078 24:7.4787318 25:3.7915898 
6.689590361632336e-30 1:298850.62 2:1184.6532 3:2372.38 4:2382.9763 5:829.6385 6:1017.9851 7:1126.0234 8:886.37617 9:1612.1514 10:1636.7672 11:918.36498 12:876.20259 13:836.46811 14:629.72387 15:402.24549 16:324.23326 17:258.59889 18:208.80796 19:159.1936 20:99.029796 21:56.528077 22:35.668039 23:22.503867 24:12.59558 25:10.168307 
6.689590361632336e-30 1:296973.46 2:1227.7308 3:2291.1914 4:2485.2175 5:1360.0629 6:1124.2139 7:1313.4385 8:1287.4009 9:1764.9011 10:1742.7375 11:923.27692 12:728.44405 13:610.25485 14:640.11431 15:596.22645 16:441.80782 17:323.04987 18:266.74743 19:144.07319 20:104.12042 21:81.12282 22:42.485524 23:17.327819 24:7.8249109 25:2.7812323 
6.689590361632336e-30 1:301150.3 2:1200.0996 3:2231.6764 4:2298.6697 5:961.83056 6:888.36496 7:1100.5094 8:1038.4098 9:1539.1665 10:1388.6594 11:604.42907 12:546.05166 13:537.17531 14:549.21406 15:534.33118 16:448.63292 17:320.64568 18:217.80421 19:151.1616 20:91.238407 21:55.516668 22:24.786416 23:14.481247 24:9.3201528 25:8.1762209 
6.689590361632336e-30 1:298634.67 2:971.36629 3:2377.6209 4:2498.8648 5:993.21372 6:889.85288 7:968.14949 8:1030.587 9:1713.9235 10:1561.9118 11:719.83272 12:681.67507 13:540.95621 14:412.718 15:493.51189 16:436.9378 17:250.31211 18:160.34604 19:83.505355 20:55.773747 21:52.334152 22:36.933735 23:22.494711 24:16.269025 25:16.019336 
6.689590361632336e-30 1:287068.38 2:1250.0703 3:2238.4666 4:2109.6832 5:897.11971 6:957.5152 7:1025.9332 8:1077.4064 9:1729.8832 10:1555.9245 11:494.28068 12:450.68125 13:540.26503 14:505.57564 15:528.44548 16:402.16788 17:237.20627 18:163.04838 19:115.1174 20:65.965618 21:47.632067 22:36.182254 23:25.713211 24:21.102864 25:20.011419 
6.689590361632336e-30 1:287143.48 2:940.5621 3:2146.5992 4:2208.6332 5:936.68974 6:1402.8445 7:1416.4771 8:1029.7183 9:1693.726 10:1658.1934 11:741.48213 12:482.01579 13:359.64136 14:332.84652 15:396.19806 16:365.73739 17:234.98879 18:175.91682 19:116.55712 20:67.315194 21:50.405749 22:25.923825 23:14.019139 24:9.7013227 25:5.4587946 
6.689590361632336e-30 1:287762.57 2:1184.9166 3:2613.5674 4:2320.932 5:953.59177 6:917.27342 7:801.25225 8:815.44599 9:1244.4434 10:1323.5164 11:894.78043 12:724.64141 13:489.80578 14:447.4302 15:520.59836 16:397.18772 17:271.98114 18:193.92288 19:104.73909 20:67.58067 21:41.886597 22:23.421841 23:15.135415 24:7.2249253 25:4.4864424 
6.689590361632336e-30 1:286137.09 2:1094.3525 3:2647.3788 4:2288.9102 5:811.85369 6:990.715 7:962.64083 8:887.3349 9:1424.8557 10:1516.85 11:738.98338 12:535.84489 13:475.85977 14:401.70888 15:489.08309 16:389.71201 17:263.77549 18:170.03813 19:102.66489 20:94.866918 21:54.657442 22:22.262885 23:21.404916 24:18.388249 25:15.191939 
6.689590361632336e-30 1:282801.02 2:811.87633 3:2221.3554 4:2364.7214 5:938.86888 6:890.31996 7:826.77683 8:662.46125 9:1284.4764 10:1317.5688 11:637.88691 12:442.33839 13:393.86479 14:474.58522 15:569.87976 16:447.3929 17:212.57782 18:162.26512 19:119.93797 20:83.495766 21:47.790594 22:29.422909 23:14.070419 24:6.7870186 25:3.2588395 
6.689590361632336e-30 1:287372.3 2:1168.8346 3:2605.1269 4:2712.4638 5:999.10213 6:830.60937 7:693.23456 8:670.75483 9:1431.6728 10:1519.7504 11:743.46011 12:531.60856 13:515.38914 14:517.96071 15:457.43237 16:369.7696 17:208.60902 18:132.36097 19:112.13969 20:73.015088 21:55.706581 22:36.742853 23:21.536682 24:15.485757 25:15.850201 
6.689590361632336e-30 1:287405.47 2:773.07065 3:2292.7644 4:2347.0529 5:891.37808 6:1087.1059 7:1043.8009 8:790.05844 9:1422.9303 10:1471.8931 11:796.40964 12:611.20622 13:395.17868 14:360.24808 15:408.85635 16:373.99831 17:216.1306 18:152.85993 19:106.97586 20:61.512113 21:37.406743 22:22.225551 23:15.671193 24:10.605769 25:5.1104299 
6.689590361632336e-30 1:288504.53 2:2156.4269 3:2654.4039 4:2216.0563 5:1355.3019 6:1523.9095 7:1183.3944 8:1286.0385 9:1877.3363 10:1546.3261 11:944.50621 12:938.68146 13:695.51702 14:498.56267 15:536.37509 16:477.28848 17:315.8809 18:197.82691 19:158.10614 20:101.36003 21:47.727033 22:55.200357 23:50.898618 24:46.497521 25:47.600684 
6.689590361632336e-30 1:316476.58 2:2703.1439 3:3702.3874 4:2896.1172 5:1189.7767 6:1470.322 7:1506.5211 8:1455.9229 9:1955.2851 10:1969.4058 11:1349.6958 12:893.44363 13:570.08823 14:690.27776 15:660.73281 16:611.08419 17:526.3732 18:243.65883 19:158.19017 20:144.2141 21:96.548269 22:79.665455 23:63.676769 24:54.413084 25:56.883042 
6.689590361632336e-30 1:326045.09 2:2408.5081 3:3566.6221 4:2983.5037 5:1966.0399 6:2354.9135 7:1755.6309 8:1159.3343 9:1860.071 10:1896.1197 11:1437.0066 12:1303.2998 13:1098.0173 14:1155.7132 15:751.35527 16:371.79667 17:339.05853 18:331.56989 19:235.88768 20:128.37977 21:72.191032 22:39.383159 23:20.250501 24:8.4552474 25:2.8597778 
6.689590361632336e-30 1:325321.25 2:2227.1714 3:3017.3002 4:3047.401 5:1647.1272 6:1884.9287 7:1828.4938 8:1452.0097 9:1783.5516 10:1757.4887 11:1079.9868 12:684.94288 13:1029.5538 14:1074.8303 15:744.85857 16:709.79406 17:521.83646 18:293.413 19:193.57096 20:158.42397 21:116.11808 22:68.079886 23:28.811913 24:11.115235 25:6.3000168 
6.689590361632336e-30 1:318349.15 2:2685.0138 3:3360.4011 4:2946.5336 5:1816.0845 6:1605.168 7:2041.8165 8:1888.6132 9:1777.5678 10:2089.0874 11:1666.8644 12:1260.0796 13:872.98374 14:910.18617 15:741.26999 16:604.84767 17:613.41282 18:429.32083 19:223.43367 20:133.28873 21:110.8204 22:53.359382 23:27.968802 24:20.868271 25:16.926231 
6.689590361632336e-30 1:315644.37 2:1692.2221 3:3385.9983 4:3502.6968 5:2254.7698 6:2328.0574 7:2474.1069 8:2452.1601 9:2621.7228 10:2382.4773 11:1667.05 12:1498.1809 13:1202.5194 14:1058.9672 15:1166.6284 16:886.45064 17:516.04546 18:378.05512 19:257.39192 20:176.61017 21:114.46166 22:63.09613 23:30.070229 24:15.278213 25:9.1686181 
6.689590361632336e-30 1:323169.59 2:2433.6794 3:3767.9894 4:3892.1519 5:2157.1739 6:1875.2704 7:1476.1733 8:2111.3982 9:2953.661 10:2165.5283 11:1342.4692 12:1078.3297 13:979.49575 14:1042.7748 15:926.77539 16:767.91255 17:515.6276 18:330.09548 19:264.67842 20:155.75063 21:68.882859 22:52.472445 23:31.112509 24:14.193989 25:8.7661078 
6.689590361632336e-30 1:333670.14 2:2791.0559 3:3309.6598 4:3096.647 5:1981.4504 6:1822.5164 7:1449.7589 8:1782.355 9:2367.5315 10:1910.6749 11:1626.7098 12:1449.9624 13:933.72935 14:928.21084 15:804.28378 16:556.94026 17:363.09336 18:304.69269 19:241.33412 20:158.75028 21:108.56734 22:47.591797 23:28.582799 24:12.756752 25:5.1201021 
6.689590361632336e-30 1:338244.08 2:3255.2251 3:3911.9217 4:3484.4337 5:2039.915 6:2144.1922 7:1935.192 8:1393.1954 9:1716.238 10:1616.3989 11:977.27463 12:1023.6868 13:885.82219 14:798.82891 15:793.15009 16:594.602 17:506.40437 18:411.06715 19:222.85982 20:103.00354 21:72.817909 22:57.794829 23:24.6268 24:10.600183 25:5.040621 
6.689590361632336e-30 1:326348.52 2:2609.4323 3:3727.8181 4:3338.7837 5:1783.6689 6:1884.3353 7:1514.2928 8:1341.4867 9:1533.8374 10:1552.5102 11:1168.3035 12:725.50199 13:638.24572 14:764.46847 15:670.10558 16:498.41414 17:367.89845 18:230.65037 19:149.80983 20:128.46819 21:74.481823 22:55.274575 23:35.089239 24:20.960897 25:17.433758 
6.689590361632336e-30 1:322790.52 2:2321.9949 3:3329.4466 4:2833.4447 5:1526.5962 6:1302.133 7:1411.1481 8:1580.2133 9:1726.0509 10:1673.3063 11:1497.1509 12:1246.2481 13:889.6183 14:772.34467 15:700.40584 16:693.39021 17:426.94185 18:253.69426 19:213.84854 20:161.24926 21:103.71005 22:52.115058 23:16.679244 24:7.0808716 25:4.3865058 
6.689590361632336e-30 1:294179.07 2:1093.1908 3:2117.9459 4:1897.5444 5:598.66193 6:820.61286 7:893.75119 8:1034.8231 9:1383.0136 10:1147.6012 11:976.31689 12:839.844 13:564.75583 14:588.12822 15:596.5289 16:423.93142 17:258.56775 18:221.17072 19:132.99298 20:80.16382 21:55.766565 22:44.648887 23:48.239267 24:39.303091 25:35.791875 
6.689590361632336e-30 1:284731.58 2:1606.435 3:2280.2068 4:2278.7361 5:1195.8932 6:814.52272 7:680.37844 8:782.83859 9:1225.5415 10:1069.1138 11:553.26289 12:704.03486 13:576.67149 14:323.72192 15:322.35542 16:314.74068 17:240.7547 18:184.2743 19:128.06991 20:79.008495 21:56.540387 22:31.681266 23:14.066168 24:7.9591757 25:6.8187937 
2.45214926530487e-31 1:285620.72 2:1682.6533 3:2334.4607 4:2153.5516 5:1167.2826 6:988.46947 7:1266.6063 8:1092.2927 9:1090.1076 10:1116.4073 11:615.24383 12:520.27001 13:508.01035 14:562.40257 15:525.82675 16:418.10314 17:305.35246 18:212.68254 19:127.3309 20:91.537225 21:56.604835 22:33.437522 23:25.460459 24:20.721411 25:19.243311 
6.689590361632336e-30 1:288280.64 2:1195.637 3:2201.8139 4:1953.0141 5:729.50513 6:830.77896 7:820.69274 8:867.28598 9:1076.8823 10:998.14362 11:636.38193 12:494.57216 13:421.27486 14:488.32342 15:483.05365 16:332.30587 17:214.22357 18:180.59925 19:127.10432 20:56.656791 21:39.325812 22:26.553856 23:12.482157 24:6.2905215 25:3.2992572 
6.689590361632336e-30 1:295089.57 2:1318.9179 3:2330.7254 4:2420.267 5:1103.8477 6:886.38324 7:1008.8922 8:1159.0151 9:1131.6947 10:860.72911 11:746.13607 12:866.62865 13:658.1408 14:448.15012 15:428.2348 16:345.55779 17:203.71071 18:185.46662 19:126.04234 20:90.673596 21:49.054289 22:30.01624 23:23.264977 24:16.737828 25:16.36895 
6.689590361632336e-30 1:299502.55 2:1417.5203 3:1984.6261 4:1989.0473 5:918.16577 6:856.72853 7:694.69988 8:664.98895 9:1347.6137 10:1422.1544 11:700.40325 12:502.79905 13:492.03188 14:430.05765 15:366.92913 16:455.58586 17:340.28295 18:164.90253 19:109.46236 20:82.743563 21:52.165649 22:32.362796 23:24.376708 24:22.139327 25:23.52657 
6.689590361632336e-30 1:299083.37 2:948.73936 3:2133.7551 4:2349.1854 5:1332.9191 6:1121.1271 7:993.61293 8:927.83901 9:1254.1659 10:1153.7233 11:691.1955 12:789.86913 13:802.51181 14:596.11246 15:452.04616 16:341.949 17:246.5622 18:161.57748 19:131.29033 20:108.88251 21:55.297087 22:36.366659 23:29.13474 24:26.764689 25:26.364082 
6.689590361632336e-30 1:292071.09 2:2414.3561 3:3229.3206 4:3085.154 5:1221.4959 6:865.80386 7:1074.224 8:1322.4408 9:1710.4657 10:1636.2002 11:1045.7302 12:923.89191 13:776.94875 14:729.00128 15:667.55585 16:449.0865 17:371.94549 18:291.94523 19:158.88704 20:100.08915 21:63.023206 22:33.901361 23:9.4948922 24:9.1245368 25:7.3525442 
6.689590361632336e-30 1:292016.22 2:3497.0828 3:3753.85 4:2705.4637 5:1519.2789 6:1615.741 7:1919.0616 8:1774.807 9:1752.5223 10:1629.0195 11:1474.4759 12:1231.0533 13:822.37005 14:613.49858 15:521.57689 16:562.99983 17:433.87512 18:254.87856 19:163.16275 20:125.77734 21:63.952405 22:32.980402 23:21.182491 24:15.589163 25:13.116679 
6.689590361632336e-30 1:294679.92 2:2202.2237 3:2842.5931 4:2373.3882 5:1513.8881 6:1890.2612 7:1808.6756 8:1331.9246 9:1721.3164 10:1552.7665 11:1007.9328 12:748.04485 13:389.23268 14:548.10702 15:642.86508 16:477.37812 17:263.19121 18:161.3342 19:129.7211 20:98.519897 21:58.636895 22:33.003729 23:16.022065 24:7.3530134 25:3.6856918 
6.689590361632336e-30 1:315470.21 2:3701.9116 3:3197.148 4:3027.6454 5:1726.7123 6:1542.559 7:1588.5564 8:1725.2279 9:2006.0998 10:1948.1688 11:1362.4458 12:824.46672 13:656.13034 14:810.9302 15:725.62982 16:497.04674 17:328.77452 18:275.13257 19:206.12989 20:106.31723 21:50.464342 22:30.109781 23:16.764346 24:9.6009114 25:7.6244228 
6.689590361632336e-30 1:305130.34 2:1476.0321 3:2714.4424 4:2480.6306 5:860.74732 6:901.35631 7:1197.9256 8:1274.8748 9:1359.4414 10:1334.6631 11:952.03558 12:646.41386 13:499.39287 14:471.37455 15:421.62496 16:401.3812 17:272.33869 18:196.60966 19:104.73884 20:61.885873 21:53.015193 22:38.736255 23:26.852734 24:23.147592 25:21.67761 
6.689590361632336e-30 1:303222.63 2:917.69464 3:1928.866 4:2088.6572 5:915.20927 6:943.4473 7:1032.9782 8:1041.7894 9:1633.191 10:1484.0165 11:723.35968 12:578.34392 13:440.01692 14:447.43617 15:424.74367 16:289.79216 17:163.55499 18:165.87238 19:123.88037 20:80.764946 21:48.214074 22:33.314131 23:16.153284 24:10.253522 25:8.3384337 
6.689590361632336e-30 1:310953.26 2:1662.5821 3:2425.8361 4:2216.5167 5:1073.541 6:1197.9631 7:1009.2402 8:903.0042 9:1610.0069 10:1448.1719 11:633.21004 12:470.26743 13:302.70609 14:357.95439 15:417.72734 16:370.04371 17:245.39865 18:142.78029 19:97.563275 20:66.988388 21:37.872778 22:28.432714 23:17.347471 24:10.776863 25:9.2356047 
6.689590361632336e-30 1:313694.68 2:1751.1108 3:2363.1027 4:2078.6007 5:1150.3133 6:947.81653 7:600.95053 8:729.52475 9:1243.4462 10:1131.6158 11:453.07979 12:476.08674 13:574.87296 14:489.389 15:377.08277 16:336.34521 17:255.57647 18:157.6865 19:86.87243 20:52.882797 21:42.208533 22:25.867297 23:17.221356 24:13.148394 25:9.7909361 
6.689590361632336e-30 1:313247.48 2:1384.1368 3:2244.4852 4:2323.2275 5:989.98987 6:797.04146 7:799.69544 8:913.69434 9:1252.8099 10:1000.9763 11:629.11133 12:523.79989 13:335.5507 14:306.83831 15:400.60951 16:351.41815 17:219.65168 18:135.3552 19:82.227666 20:61.0572 21:43.048482 22:22.579978 23:14.878682 24:7.3639058 25:2.2784774 
6.689590361632336e-30 1:311324.51 2:1469.8782 3:2320.8 4:1977.2451 5:836.44742 6:964.05229 7:966.13661 8:742.15535 9:1139.1267 10:1194.9702 11:642.94025 12:605.68513 13:441.47682 14:283.28675 15:282.78166 16:250.17178 17:195.85731 18:146.4623 19:110.871 20:63.814604 21:38.943331 22:28.980907 23:18.824163 24:11.0061 25:8.4043467 
6.689590361632336e-30 1:311524.92 2:1508.9421 3:2395.4227 4:1885.8643 5:683.31277 6:770.0669 7:668.02023 8:655.45696 9:1287.8374 10:1301.3429 11:555.36713 12:410.0891 13:350.32233 14:420.48345 15:460.41454 16:309.86276 17:166.75263 18:129.12287 19:97.736809 20:56.565731 21:34.1387 22:25.446296 23:13.485963 24:11.484989 25:9.5806151 
6.689590361632336e-30 1:309506.13 2:1395.6963 3:2041.488 4:2210.6867 5:1093.8433 6:730.38352 7:601.43729 8:692.85475 9:1480.3721 10:1423.9146 11:471.18249 12:415.06914 13:439.89056 14:396.331 15:514.78825 16:428.52511 17:200.25681 18:126.40635 19:98.97894 20:58.851604 21:27.534299 22:20.731793 23:15.495817 24:14.768401 25:14.146881 
6.689590361632336e-30 1:309895.6 2:1363.4476 3:2415.88 4:2130.5949 5:921.05679 6:946.30589 7:628.31818 8:1054.2954 9:1539.5117 10:1127.5301 11:784.96634 12:790.75251 13:492.52766 14:400.94881 15:312.62929 16:242.76591 17:181.92869 18:117.88498 19:91.767888 20:69.933261 21:39.694428 22:21.335471 23:11.987343 24:6.134284 25:4.7326976 
6.689590361632336e-30 1:309941.52 2:2002.1119 3:2739.6681 4:2479.2273 5:916.56919 6:787.1503 7:1091.2862 8:1101.5586 9:1257.8219 10:1085.1207 11:488.53798 12:369.35393 13:396.72701 14:417.36521 15:400.72706 16:261.79347 17:166.50241 18:169.32478 19:113.97053 20:67.160758 21:43.05348 22:29.434097 23:16.921495 24:10.384452 25:8.8316012 
6.689590361632336e-30 1:310364.23 2:2527.6923 3:2976.1453 4:1925.952 5:933.72121 6:1136.0866 7:772.8531 8:721.89124 9:1214.7794 10:1223.2338 11:790.91775 12:551.39749 13:430.0217 14:329.65161 15:387.44156 16:365.58197 17:180.82128 18:131.91325 19:100.51046 20:72.084638 21:59.934291 22:33.339836 23:16.048423 24:11.884591 25:11.472864 
6.689590361632336e-30 1:313988.12 2:2402.0281 3:3035.9209 4:2745.8856 5:1543.41 6:1406.4968 7:1229.5964 8:966.79948 9:1434.9171 10:1315.3233 11:893.32534 12:908.10741 13:706.17226 14:592.38455 15:545.34363 16:372.04842 17:169.86884 18:148.02718 19:121.14565 20:80.552526 21:45.415702 22:24.33384 23:18.913923 24:12.10665 25:8.9208947 
6.689590361632336e-30 1:289798.25 2:855.93092 3:1938.8371 4:2034.4366 5:735.20287 6:595.41743 7:541.23376 8:638.26143 9:1203.7213 10:1091.6667 11:564.08819 12:514.82596 13:409.09105 14:495.2865 15:481.44244 16:301.56795 17:176.46837 18:108.98019 19:83.212189 20:71.220278 21:46.55201 22:30.885582 23:17.384398 24:9.195184 25:5.1967883 
6.689590361632336e-30 1:298401.12 2:1273.6103 3:2579.8833 4:2602.0104 5:1131.0059 6:940.16832 7:824.73307 8:988.47793 9:1751.474 10:1626.1659 11:829.27503 12:707.24687 13:598.43756 14:565.17768 15:420.40221 16:258.05005 17:194.01821 18:162.79572 19:135.06615 20:86.913354 21:45.244378 22:34.670555 23:29.822525 24:22.073434 25:17.430477 
6.689590361632336e-30 1:299692.68 2:988.75452 3:2022.7059 4:2132.2333 5:1012.0822 6:894.88721 7:720.98443 8:871.76103 9:1523.1579 10:1274.042 11:780.77956 12:678.97653 13:500.59962 14:465.47684 15:403.86345 16:331.18315 17:196.94598 18:142.79348 19:136.52132 20:78.648477 21:46.900964 22:27.799743 23:12.843631 24:5.3591068 25:2.5351249 
6.689590361632336e-30 1:299895.38 2:1717.7728 3:2561.7229 4:2083.537 5:910.14782 6:917.88963 7:887.92372 8:912.55178 9:1340.3666 10:1213.3104 11:693.759 12:659.92454 13:585.85933 14:405.14267 15:350.20085 16:347.57169 17:261.67183 18:202.253 19:171.56578 20:109.79055 21:86.359811 22:77.08563 23:64.583661 24:67.008212 25:66.452091 
6.689590361632336e-30 1:336312.46 2:2550.8648 3:3083.4119 4:2659.7895 5:1280.2697 6:1204.7602 7:1112.1663 8:1167.7237 9:1321.3145 10:1288.352 11:870.90081 12:723.5333 13:724.43291 14:698.40094 15:546.39297 16:398.3384 17:301.55275 18:217.26433 19:163.88785 20:128.57401 21:98.336145 22:80.163814 23:84.126397 24:81.277476 25:79.7447 
6.689590361632336e-30 1:350640.34 2:1092.2217 3:2534.9052 4:2414.3442 5:1179.6749 6:1408.6503 7:1430.1615 8:1315.5525 9:1545.3754 10:1324.772 11:706.52396 12:612.89847 13:569.25667 14:551.36577 15:398.78165 16:266.38846 17:250.9591 18:190.04856 19:127.86481 20:94.745355 21:54.928921 22:31.12809 23:16.368741 24:8.1846839 25:2.5808199 
6.689590361632336e-30 1:356072.12 2:2449.1997 3:2921.3866 4:2232.6533 5:850.17207 6:1010.7192 7:1188.5818 8:1081.2233 9:1657.4806 10:1498.1626 11:704.16678 12:784.71672 13:898.09404 14:817.39932 15:605.71746 16:337.0923 17:294.67932 18:262.90624 19:152.01797 20:126.26806 21:86.147863 22:59.481501 23:56.092445 24:53.085765 25:53.099145 
6.689590361632336e-30 1:335347.47 2:2061.558 3:2928.6013 4:2584.1349 5:1612.7083 6:1378.0563 7:1252.5608 8:1412.9552 9:1877.3781 10:1623.3387 11:755.74358 12:645.61062 13:755.4008 14:735.42512 15:630.29993 16:441.12156 17:231.9633 18:220.1931 19:205.95198 20:117.50551 21:61.11573 22:46.749397 23:34.675391 24:31.301736 25:31.921013 
6.689590361632336e-30 1:375564.67 2:2364.8076 3:3470.6306 4:3285.0024 5:2177.4518 6:2129.639 7:2308.6917 8:2415.7843 9:2620.7251 10:2321.3436 11:1859.6661 12:1744.9643 13:1675.7263 14:1273.6265 15:881.48936 16:762.69871 17:574.40767 18:464.04944 19:317.6891 20:258.24175 21:146.59571 22:70.03921 23:26.142901 24:19.148715 25:10.396898 
6.689590361632336e-30 1:372600.06 2:1795.8414 3:2905.3569 4:3178.5393 5:1694.4941 6:1505.5522 7:1795.2799 8:2072.9163 9:2151.133 10:1609.7942 11:1085.1135 12:829.90372 13:860.3538 14:993.70746 15:747.34503 16:673.15732 17:493.5535 18:374.59586 19:309.40175 20:194.14604 21:107.35182 22:43.414357 23:27.966454 24:18.175628 25:15.673433 
6.689590361632336e-30 1:367753.54 2:2015.4652 3:3749.3047 4:3583.543 5:2407.6977 6:2203.3783 7:1737.0248 8:1811.3121 9:2164.1059 10:2416.3026 11:1913.79 12:1245.2205 13:1110.876 14:1192.6861 15:1074.4685 16:946.15732 17:597.67628 18:304.63137 19:173.14957 20:146.62724 21:124.96472 22:71.978314 23:24.264684 24:18.115976 25:16.653911 
6.689590361632336e-30 1:387081.92 2:1589.7629 3:2541.9044 4:2897.6789 5:1525.6047 6:1179.3851 7:1201.0082 8:1342.0412 9:1785.8156 10:1546.9934 11:660.27622 12:658.40719 13:870.59194 14:710.78677 15:480.04877 16:332.13176 17:309.29288 18:271.24622 19:172.03991 20:119.06282 21:75.411724 22:42.168804 23:27.073541 24:24.147545 25:27.78825 
6.689590361632336e-30 1:368253.14 2:1380.2146 3:2640.2095 4:2547.8183 5:1246.778 6:1153.2385 7:1157.7672 8:1111.0791 9:1195.7141 10:1123.1314 11:686.47151 12:537.28828 13:489.63991 14:384.13151 15:431.89495 16:397.48166 17:256.82948 18:204.00822 19:136.615 20:70.139701 21:38.766694 22:22.061642 23:10.06769 24:6.5487919 25:3.0134752 
6.689590361632336e-30 1:373530.16 2:1866.7043 3:2938.4942 4:2410.2637 5:900.57541 6:1125.9122 7:1115.6934 8:1107.9179 9:1640.0284 10:1744.0483 11:1016.9663 12:571.71242 13:514.70152 14:592.98399 15:561.44102 16:405.38301 17:199.43253 18:158.34777 19:111.04593 20:65.415111 21:51.805734 22:28.665214 23:14.121028 24:11.143953 25:10.193567 
6.689590361632336e-30 1:382290.56 2:1431.7424 3:2899.0755 4:2639.3565 5:1024.4395 6:1051.2627 7:1000.7273 8:1124.5667 9:1475.1146 10:1139.5482 11:755.23244 12:630.51154 13:618.26251 14:522.17618 15:454.41225 16:456.54611 17:250.75254 18:142.5059 19:119.35075 20:71.613146 21:43.072852 22:27.215508 23:13.915149 24:8.7127513 25:7.7200407 
6.689590361632336e-30 1:378964.27 2:1307.83 3:2591.6405 4:2897.9512 5:1463.8883 6:899.70987 7:898.13792 8:1182.7364 9:1635.3786 10:1543.2973 11:1107.5905 12:688.99778 13:406.69436 14:423.02736 15:525.26594 16:497.26547 17:280.69939 18:147.55551 19:82.637665 20:69.190297 21:49.518931 22:29.327832 23:16.89368 24:8.8162365 25:7.2408927 
6.689590361632336e-30 1:377203.64 2:1816.7435 3:3150.5469 4:2686.6383 5:1090.0874 6:1165.2835 7:1322.6209 8:1129.731 9:1377.1584 10:1242.0768 11:782.13328 12:717.34029 13:535.6299 14:553.54119 15:453.4388 16:305.87476 17:184.3327 18:160.98329 19:121.39635 20:69.766401 21:43.766889 22:29.431206 23:14.396027 24:6.2937751 25:2.4789877 
6.689590361632336e-30 1:376909.24 2:1272.7041 3:2801.2923 4:2572.6325 5:1068.1679 6:1041.7572 7:917.30939 8:762.96877 9:1187.4995 10:1464.8434 11:871.70201 12:469.50289 13:500.0441 14:645.21473 15:563.64406 16:351.58365 17:237.20053 18:230.01962 19:161.46348 20:86.340335 21:61.245428 22:41.270708 23:19.836832 24:17.648352 25:16.563257 
6.689590361632336e-30 1:375879.04 2:1395.3909 3:2802.725 4:2512.9276 5:1047.6996 6:1054.3472 7:1016.3362 8:933.83795 9:1469.6135 10:1288.468 11:500.98209 12:542.6774 13:665.30394 14:617.05179 15:523.08091 16:324.43598 17:183.61616 18:180.65659 19:112.44504 20:67.24494 21:48.91856 22:28.000072 23:16.887422 24:15.987276 25:14.277909 
6.689590361632336e-30 1:371762.83 2:1800.9699 3:2794.8155 4:2515.9362 5:1367.0754 6:1151.6605 7:1162.6571 8:1069.4971 9:1279.2976 10:1204.3475 11:569.14012 12:396.33807 13:405.20023 14:400.01841 15:430.22346 16:341.86878 17:254.27976 18:197.58284 19:107.8277 20:84.99355 21:49.863265 22:29.087009 23:15.148942 24:9.0383493 25:7.9703626 
6.689590361632336e-30 1:378749.14 2:1285.3442 3:2289.1966 4:2549.1096 5:1347.3569 6:1010.8132 7:893.04405 8:966.69731 9:1688.0882 10:1626.954 11:697.43757 12:417.29853 13:448.87864 14:448.72832 15:382.94789 16:316.737 17:248.86139 18:178.00184 19:103.48507 20:84.490715 21:59.035264 22:32.860053 23:19.650823 24:15.002783 25:12.715166 
6.689590361632336e-30 1:384388.99 2:1727.035 3:2779.5398 4:2458.7992 5:785.65133 6:1187.5999 7:1408.4656 8:1036.7915 9:1486.1232 10:1339.304 11:739.73764 12:569.17296 13:408.4737 14:485.50935 15:494.77508 16:423.37721 17:269.88612 18:215.46774 19:143.73986 20:78.10902 21:41.057133 22:23.972084 23:11.255316 24:7.8607282 25:5.8090031 
6.689590361632336e-30 1:372415.74 2:998.33062 3:2217.2538 4:2215.2087 5:625.86957 6:522.30288 7:525.32106 8:591.49218 9:1203.7038 10:1210.0673 11:644.45894 12:530.24767 13:429.56517 14:347.48324 15:383.58989 16:322.21132 17:158.51596 18:137.45806 19:81.73952 20:65.718875 21:44.302516 22:28.611321 23:22.075082 24:12.01915 25:8.8510945 
6.689590361632336e-30 1:368006.42 2:2062.4013 3:3302.839 4:4023.6991 5:2667.3031 6:1928.1167 7:2290.4479 8:2068.7245 9:1757.2197 10:1594.0324 11:1342.3136 12:1331.2085 13:1286.8368 14:1079.2575 15:911.62734 16:668.97178 17:524.11619 18:459.81419 19:236.81894 20:142.17313 21:84.536208 22:57.872736 23:37.016882 24:10.310953 25:2.1519667 
6.689590361632336e-30 1:371068.79 2:2167.8645 3:3705.0183 4:5218.9201 5:3666.2101 6:1970.0244 7:2392.7316 8:2572.252 9:2432.7468 10:2545.0524 11:2246.0304 12:1489.0763 13:1068.1906 14:1093.9799 15:947.19819 16:843.75046 17:691.05778 18:524.53731 19:407.24658 20:214.84008 21:94.571484 22:57.825126 23:35.776532 24:17.018737 25:11.806595 
6.689590361632336e-30 1:379320.15 2:3348.4324 3:4356.8511 4:3875.4113 5:2655.6806 6:2399.1551 7:2341.6278 8:3124.8107 9:3761.5508 10:2947.4248 11:2650.2205 12:2339.6274 13:2165.3296 14:1938.3363 15:1207.8882 16:945.33644 17:807.83695 18:566.89402 19:329.32457 20:248.71762 21:92.065705 22:77.047457 23:56.638068 24:27.271572 25:21.343118 
6.689590361632336e-30 1:379819.84 2:2730.7613 3:4464.9942 4:4920.4127 5:2868.5429 6:2392.0503 7:3507.6637 8:3742.7847 9:3528.2318 10:3311.0769 11:2818.9708 12:2248.8072 13:2049.4131 14:1523.2856 15:1098.3143 16:1184.8096 17:1052.3491 18:593.0256 19:347.61455 20:238.7459 21:125.24671 22:77.816303 23:37.50992 24:14.513918 25:8.4257286 
6.689590361632336e-30 1:385150.84 2:3052.0364 3:5464.8091 4:6860.0047 5:4989.9306 6:3917.5314 7:3062.4546 8:3649.6099 9:4612.759 10:3028.9129 11:2615.6534 12:2959.8747 13:2692.2718 14:2340.5596 15:1953.8423 16:1349.0444 17:1016.0597 18:779.51873 19:639.89206 20:420.04586 21:185.6236 22:104.78761 23:47.09305 24:34.095941 25:10.263743 
6.689590361632336e-30 1:379660.32 2:1883.6783 3:2881.8623 4:3283.1161 5:1975.4186 6:1731.6454 7:1511.7162 8:1203.2295 9:1836.8865 10:1996.7001 11:1437.3532 12:916.57277 13:672.0155 14:746.29654 15:780.26772 16:642.46042 17:466.38434 18:348.51931 19:191.82859 20:116.31302 21:78.356837 22:41.046078 23:15.040234 24:10.026397 25:5.9751794 
6.689590361632336e-30 1:399057.75 2:1278.1054 3:2469.8994 4:2402.8636 5:645.5662 6:553.31853 7:609.01048 8:558.48855 9:1015.4193 10:881.15582 11:432.42921 12:384.5416 13:276.62335 14:332.44229 15:311.50172 16:234.26469 17:179.93322 18:145.88818 19:82.120073 20:67.545055 21:57.856077 22:33.848804 23:17.119144 24:11.328869 25:10.296362 
6.689590361632336e-30 1:402317.27 2:1331.5643 3:2639.8 4:2358.5381 5:712.41955 6:636.6819 7:595.13631 8:643.36259 9:1102.3176 10:955.20944 11:410.525 12:336.4602 13:281.25529 14:346.14883 15:407.72867 16:328.47723 17:181.28772 18:129.10335 19:92.909459 20:64.208404 21:48.11412 22:22.114696 23:12.075978 24:7.2210733 25:4.2085361 
6.689590361632336e-30 1:398985.44 2:1064.7939 3:2401.7536 4:2156.0058 5:569.76526 6:506.29958 7:513.60936 8:451.19182 9:971.305 10:1008.9507 11:443.04847 12:407.57813 13:339.50015 14:326.45146 15:415.66099 16:340.08086 17:157.00789 18:112.77525 19:85.513637 20:66.057107 21:48.198175 22:25.394011 23:13.899716 24:7.9809748 25:2.8339075 
6.689590361632336e-30 1:402995.69 2:933.14776 3:2467.5731 4:2064.6851 5:507.00096 6:527.57335 7:585.74346 8:601.38278 9:1199.6617 10:1134.6579 11:497.49936 12:361.80811 13:263.95662 14:298.29991 15:342.07847 16:313.83613 17:229.68388 18:158.96135 19:88.712044 20:78.544427 21:55.331378 22:23.363815 23:12.634246 24:10.702021 25:7.2125258 
1.330970973310685e-30 1:407685.27 2:1075.9716 3:2448.6831 4:2201.5645 5:621.25914 6:719.03463 7:657.92752 8:546.40425 9:1045.3957 10:1045.9471 11:397.43976 12:248.08611 13:328.64769 14:337.67299 15:347.47359 16:331.39602 17:214.39094 18:164.2063 19:104.44199 20:62.576484 21:36.157 22:27.602805 23:16.262256 24:9.7873096 25:6.7487897 
6.689590361632336e-30 1:412099.16 2:953.52177 3:2436.129 4:2346.759 5:544.88063 6:348.69679 7:517.53553 8:538.32551 9:1086.672 10:1056.8873 11:351.42072 12:373.88055 13:335.58185 14:324.093 15:391.40372 16:290.94285 17:199.33975 18:135.27077 19:84.335984 20:61.029166 21:37.128331 22:21.264101 23:10.796118 24:7.4471496 25:5.778194 
6.689590361632336e-30 1:445853.53 2:1297.5267 3:2665.6219 4:2608.6511 5:941.21313 6:811.24145 7:749.19666 8:536.43272 9:1120.2633 10:1259.9728 11:651.35613 12:458.72137 13:426.1162 14:362.43012 15:441.67839 16:376.51992 17:189.56889 18:139.84931 19:95.375701 20:56.687333 21:40.908175 22:35.274261 23:13.351851 24:8.9451253 25:8.236911 
6.689590361632336e-30 1:443805.47 2:1690.526 3:3126.7534 4:2439.8306 5:924.97856 6:1282.088 7:861.07545 8:487.41509 9:1189.1201 10:1238.2174 11:559.16992 12:450.29731 13:312.68153 14:307.65868 15:368.79818 16:282.91915 17:144.59881 18:118.56001 19:90.611332 20:61.393733 21:42.380558 22:24.703861 23:11.520262 24:6.1262182 25:5.4958266 
6.689590361632336e-30 1:437017.48 2:1008.486 3:2454.3075 4:2528.5946 5:799.51929 6:491.35416 7:487.14589 8:723.20845 9:1337.6556 10:1127.5056 11:456.65468 12:351.6993 13:359.71543 14:420.31589 15:356.27272 16:220.41493 17:144.40064 18:155.20123 19:93.098694 20:57.19446 21:44.161723 22:25.705324 23:12.295994 24:6.1030728 25:3.3894525 
6.689590361632336e-30 1:450629.23 2:1793.734 3:3079.0011 4:2929.0312 5:1382.1301 6:1095.1815 7:1011.0877 8:1022.6348 9:1668.9166 10:1572.2743 11:925.58466 12:718.32993 13:525.58371 14:488.43089 15:390.98194 16:316.06616 17:261.86279 18:197.61844 19:108.42754 20:62.304979 21:39.420515 22:24.943181 23:15.18892 24:10.099559 25:7.2260595 
6.689590361632336e-30 1:454294.94 2:1144.7785 3:3089.1589 4:2818.3164 5:743.86899 6:622.92923 7:666.47009 8:511.93124 9:1037.386 10:1154.7519 11:558.25696 12:485.61093 13:450.36265 14:458.07363 15:421.57541 16:340.99408 17:211.97168 18:141.051 19:92.557444 20:69.177737 21:40.432934 22:22.112357 23:8.9724846 24:4.2059101 25:4.3344903 
6.689590361632336e-30 1:483881.32 2:2560.1466 3:3591.1956 4:3409.8183 5:1715.8983 6:1556.3331 7:1530.9194 8:1755.5263 9:1921.662 10:1821.0927 11:1121.1011 12:921.53436 13:1064.328 14:805.14321 15:677.24523 16:573.97606 17:438.52109 18:307.19598 19:178.09525 20:113.40596 21:64.387174 22:25.58391 23:16.399637 24:12.954933 25:14.62212 
6.689590361632336e-30 1:482185.53 2:1284.7939 3:2769.025 4:2669.4752 5:913.98986 6:726.89396 7:697.60156 8:768.89093 9:1334.6156 10:1277.4024 11:614.71852 12:416.20171 13:388.97988 14:468.14298 15:449.29197 16:328.42436 17:197.38247 18:159.48246 19:110.57132 20:79.042271 21:50.16653 22:32.72221 23:17.357912 24:6.9488368 25:6.138987 
6.689590361632336e-30 1:482190.72 2:1326.5519 3:3144.2926 4:2579.532 5:942.83489 6:1082.5772 7:989.0883 8:719.6495 9:1265.25 10:1344.576 11:591.32479 12:307.6986 13:333.83356 14:305.79344 15:301.73608 16:286.60982 17:198.36858 18:134.99957 19:92.545659 20:67.902712 21:45.58095 22:37.807578 23:20.267869 24:9.1222311 25:4.1788532 
6.689590361632336e-30 1:494623.17 2:2174.5068 3:3811.9978 4:3407.6667 5:1788.2963 6:1923.7351 7:1616.7495 8:1398.834 9:2101.7956 10:1794.8105 11:964.67579 12:763.72434 13:456.68798 14:544.842 15:762.93586 16:596.97784 17:377.64927 18:287.24193 19:219.2769 20:126.37355 21:64.98446 22:32.064202 23:14.19484 24:14.468133 25:13.522146 
6.689590361632336e-30 1:511437.61 2:1074.7735 3:2869.2585 4:2963.73 5:1310.7298 6:979.27793 7:755.98355 8:654.15956 9:1294.792 10:1442.4721 11:682.2847 12:521.00649 13:444.1318 14:440.78059 15:481.34055 16:359.79568 17:285.11537 18:227.24979 19:139.14813 20:74.732734 21:53.640833 22:32.131302 23:16.26543 24:8.6177103 25:7.1670569 
6.689590361632336e-30 1:496396.73 2:1565.3399 3:3580.2057 4:3107.4357 5:1402.1042 6:1320.713 7:1195.0516 8:1292.0947 9:1921.4562 10:1897.2702 11:975.2911 12:598.43762 13:577.1992 14:642.93231 15:466.62013 16:275.64219 17:199.08563 18:176.84649 19:166.74987 20:112.14148 21:77.100292 22:33.498431 23:16.473956 24:10.295488 25:6.9037291 
6.689590361632336e-30 1:498540.33 2:2518.1976 3:4819.5805 4:4864.3247 5:3891.4256 6:4063.41 7:2802.9844 8:2336.6164 9:2572.4887 10:2180.8053 11:2157.0385 12:2123.1842 13:1768.6382 14:1782.0185 15:1323.6488 16:870.73133 17:664.75843 18:398.46305 19:196.88143 20:219.6095 21:129.22684 22:61.2632 23:43.159184 24:22.903186 25:18.753239 
6.689590361632336e-30 1:526076.04 2:1339.2969 3:3606.2242 4:3436.28 5:1081.1144 6:733.54358 7:1025.135 8:1020.267 9:1296.5312 10:1337.9738 11:763.39784 12:478.08654 13:501.75947 14:554.13248 15:382.00175 16:227.38942 17:167.13155 18:202.86285 19:163.79101 20:78.830905 21:49.978024 22:27.219759 23:11.507591 24:8.4224563 25:3.5121684 
6.689590361632336e-30 1:560535.41 2:1853.193 3:3530.0789 4:3163.025 5:1501.254 6:1091.2476 7:736.23991 8:757.10433 9:1182.379 10:1127.1679 11:595.52778 12:429.6498 13:379.73107 14:419.2763 15:387.08406 16:286.46659 17:181.35827 18:143.72922 19:108.33538 20:68.630475 21:32.784739 22:24.454958 23:15.811606 24:7.837902 25:7.4285036 
6.689590361632336e-30 1:563537.64 2:2793.7853 3:4276.742 4:4144.7925 5:2298.7958 6:2093.1385 7:1908.6981 8:1976.9881 9:2032.7028 10:1842.8419 11:1470.9456 12:968.62853 13:841.2204 14:1246.5003 15:1107.1582 16:694.19155 17:547.42878 18:381.80079 19:225.43674 20:122.6044 21:88.358945 22:48.740781 23:31.82378 24:28.284138 25:23.239288 
6.689590361632336e-30 1:92537.516 2:6393.4462 3:5288.5434 4:4597.3462 5:2661.7039 6:2173.08 7:2043.1333 8:2082.8814 9:1930.3589 10:2011.2763 11:1428.583 12:1202.867 13:1343.5747 14:1480.6201 15:1302.486 16:675.2571 17:527.16801 18:451.38207 19:229.33174 20:123.9277 21:74.358526 22:56.526251 23:50.429019 24:45.085774 25:46.927495 
6.689590361632336e-30 1:100839.95 2:5570.9089 3:5313.0901 4:3975.145 5:2399.8822 6:2816.8342 7:2803.7208 8:2486.3638 9:3118.7514 10:2339.7735 11:1504.4402 12:1611.2177 13:1493.8648 14:1587.3585 15:1488.3978 16:991.79031 17:588.46611 18:469.95333 19:345.96164 20:184.31295 21:96.371262 22:64.679818 23:33.83725 24:17.654025 25:9.2824809 
6.689590361632336e-30 1:106114.79 2:7991.9215 3:7214.6041 4:4874.016 5:3064.7238 6:2660.9677 7:2918.703 8:3620.2345 9:3238.6283 10:2529.0469 11:2360.8843 12:2162.3349 13:2104.7387 14:2220.8491 15:1513.4818 16:1179.9139 17:1014.8068 18:845.8945 19:570.95378 20:284.46157 21:169.24177 22:123.86091 23:68.098799 24:31.455017 25:18.721869 
6.689590361632336e-30 1:141466.83 2:50588.583 3:48421.596 4:42245.384 5:37115.469 6:34711.937 7:31370.235 8:29178.08 9:26136.93 10:24055.985 11:22225.88 12:18185.766 13:15519.902 14:14059.841 15:11760.811 16:9430.3485 17:6978.4907 18:4897.0827 19:3463.021 20:2236.499 21:1277.5068 22:693.92548 23:329.48176 24:122.94344 25:46.913741 
6.689590361632336e-30 1:87939.221 2:11149.487 3:10170.066 4:9070.6358 5:6650.1621 6:6996.9888 7:7041.3013 8:5780.2653 9:5317.1246 10:5501.3802 11:5244.1392 12:3866.8876 13:3711.9787 14:3303.5463 15:2037.4711 16:1976.8584 17:1757.9787 18:1046.0419 19:725.69866 20:545.42252 21:331.78964 22:168.7824 23:61.11479 24:25.856419 25:11.480949 
6.689590361632336e-30 1:96934.986 2:6856.9311 3:4599.1367 4:4890.031 5:4271.7779 6:3051.6328 7:2827.7951 8:2962.8498 9:2128.5833 10:2263.1022 11:2313.5647 12:2188.4344 13:2007.175 14:1775.1153 15:1465.1985 16:990.55346 17:931.86496 18:853.85466 19:689.74654 20:439.83624 21:251.22446 22:110.04848 23:63.231377 24:17.925104 25:5.1272208 
6.689590361632336e-30 1:90810.746 2:2603.3571 3:3223.2421 4:2204.1617 5:1704.8152 6:2260.8805 7:2233.2456 8:2167.6996 9:2385.0216 10:2065.7307 11:1755.0816 12:1640.312 13:1421.7902 14:1553.1788 15:1464.8788 16:1144.4034 17:917.30964 18:727.72184 19:505.73104 20:337.35893 21:196.85403 22:108.58332 23:49.889811 24:34.862728 25:30.47184 
6.689590361632336e-30 1:103579.74 2:3823.428 3:3483.1568 4:3109.1364 5:2525.6988 6:1589.4771 7:1486.1041 8:1829.4722 9:2452.025 10:1896.6662 11:1303.5757 12:1798.2212 13:1630.2066 14:1238.9731 15:853.70785 16:532.56606 17:553.22571 18:527.09926 19:321.33776 20:228.02446 21:152.86323 22:61.048645 23:24.579786 24:17.239194 25:12.369316 
6.689590361632336e-30 1:108188.39 2:2432.1418 3:2241.925 4:2250.944 5:1632.3947 6:1332.1013 7:1434.2683 8:1163.9031 9:1592.4598 10:1626.9663 11:1412.2293 12:1174.6666 13:763.57213 14:918.52812 15:889.90318 16:727.10894 17:546.37975 18:375.02559 19:237.86389 20:143.87745 21:72.850633 22:36.684814 23:14.877655 24:6.47657 25:4.1769296 
6.689590361632336e-30 1:97706.608 2:1593.8271 3:1890.4501 4:1797.7626 5:1400.7541 6:1260.5909 7:1245.4503 8:1318.4314 9:1622.0203 10:1630.4032 11:1192.401 12:905.74644 13:882.54564 14:917.02998 15:717.21793 16:588.7347 17:474.56845 18:289.48607 19:230.69124 20:136.96959 21:57.620392 22:41.580516 23:29.981361 24:10.897327 25:5.6020098 
6.689590361632336e-30 1:105851.2 2:2529.222 3:2914.7342 4:2265.554 5:1504.0794 6:1546.8256 7:1353.0058 8:1110.5389 9:1252.6186 10:1256.4319 11:1190.1673 12:1006.3683 13:753.28077 14:808.58748 15:789.18802 16:666.07714 17:387.89008 18:235.83641 19:183.02846 20:117.49834 21:78.819872 22:54.823341 23:47.538636 24:47.717243 25:44.841625 
6.689590361632336e-30 1:126067.94 2:1664.7452 3:2238.33 4:2129.4323 5:1983.5347 6:2216.2862 7:1488.2237 8:938.39656 9:1701.9016 10:1529.8656 11:772.59569 12:776.52772 13:785.1481 14:792.60119 15:586.21871 16:513.97847 17:426.49641 18:320.98945 19:193.38844 20:113.69122 21:92.076746 22:48.510649 23:45.663937 24:44.938946 25:46.226316 
6.689590361632336e-30 1:147926.12 2:4018.2523 3:3211.0499 4:2904.6728 5:2216.6035 6:1916.0625 7:1237.973 8:1737.5729 9:2352.9782 10:1765.2179 11:1361.289 12:1185.8273 13:805.13229 14:705.24159 15:690.94894 16:553.77716 17:394.20374 18:262.28962 19:167.57358 20:146.03763 21:112.3673 22:78.831851 23:67.943196 24:64.081354 25:64.608304 
6.689590361632336e-30 1:207606.87 2:1868.3732 3:2248.8132 4:2025.6715 5:1305.4536 6:1451.5095 7:1299.3951 8:958.56645 9:1076.4308 10:1217.9505 11:1032.2122 12:686.82552 13:446.97437 14:530.3655 15:545.16826 16:390.99761 17:360.18256 18:276.40187 19:158.28518 20:91.371021 21:56.610425 22:54.474374 23:50.378598 24:43.951162 25:44.18674 
6.689590361632336e-30 1:206286.04 2:2321.2746 3:2898.8116 4:2501.9777 5:1874.2259 6:1957.6254 7:1801.2825 8:1281.3114 9:1448.9063 10:1475.1418 11:728.54888 12:677.82915 13:686.38754 14:661.49421 15:551.09539 16:314.80523 17:248.49798 18:181.39389 19:126.21699 20:99.073716 21:53.825149 22:32.09296 23:25.86781 24:20.256238 25:18.527852 
6.689590361632336e-30 1:196843.83 2:3280.3274 3:3173.7755 4:2387.4688 5:1517.0143 6:1141.925 7:1203.3915 8:935.10467 9:1211.4091 10:1815.2541 11:1298.568 12:834.81757 13:627.097 14:634.94402 15:669.53484 16:531.46211 17:355.45021 18:205.6591 19:145.80369 20:91.152409 21:53.531236 22:34.507118 23:20.61214 24:15.844665 25:16.10005 
6.689590361632336e-30 1:192428.78 2:3872.5829 3:3223.2954 4:2170.6459 5:1170.0654 6:1261.4075 7:1834.1035 8:1951.5687 9:1823.0175 10:1688.2993 11:1175.84 12:782.58224 13:698.05901 14:565.40636 15:465.01396 16:459.95281 17:307.93726 18:283.7835 19:236.14979 20:137.0584 21:73.2192 22:31.924452 23:31.075817 24:25.19436 25:24.061825 
6.689590361632336e-30 1:176691.1 2:1761.7157 3:2049.0379 4:1661.9041 5:1098.1262 6:1412.9294 7:1375.8634 8:1408.4807 9:1890.9405 10:1698.2921 11:1130.2371 12:817.07536 13:730.30591 14:732.6483 15:528.28233 16:441.82647 17:304.09989 18:198.48499 19:132.99396 20:71.820124 21:42.563063 22:41.0363 23:37.265453 24:29.899286 25:27.863948 
6.689590361632336e-30 1:148602.3 2:2488.2118 3:2297.2181 4:1792.2531 5:1157.5643 6:1261.2665 7:1089.9759 8:1151.4359 9:1551.993 10:1430.8128 11:795.41086 12:635.74142 13:710.97248 14:588.3588 15:472.68793 16:403.70076 17:356.31134 18:295.50148 19:128.84268 20:79.362515 21:64.845518 22:53.192676 23:40.07474 24:33.787792 25:34.246662 
6.689590361632336e-30 1:137896.15 2:997.98131 3:1670.576 4:1640.19 5:1064.8885 6:1185.2399 7:1295.6121 8:1005.2978 9:1037.5069 10:1200.333 11:775.42218 12:519.11869 13:657.11845 14:675.74157 15:496.14956 16:528.97011 17:403.19854 18:211.56715 19:134.9484 20:56.226518 21:34.611177 22:27.355167 23:26.62791 24:20.288536 25:21.158729 
6.689590361632336e-30 1:131632.04 2:1069.7661 3:1560.1509 4:1761.7691 5:1182.2789 6:1197.3902 7:1259.3248 8:1038.2117 9:1393.2572 10:1275.0858 11:744.75101 12:726.36988 13:592.42688 14:500.23264 15:397.5339 16:401.78387 17:289.76349 18:123.9933 19:99.254351 20:61.864345 21:48.612585 22:29.686072 23:16.344455 24:13.216984 25:13.538737 
6.689590361632336e-30 1:129367.94 2:1652.7566 3:1817.0342 4:1790.5468 5:1469.5026 6:1327.9666 7:941.70941 8:776.74274 9:1333.5669 10:1334.7755 11:764.72403 12:659.83929 13:449.66881 14:457.61181 15:484.75338 16:320.81028 17:160.39173 18:169.33605 19:131.72398 20:48.04387 21:37.480041 22:30.720453 23:13.816258 24:5.487907 25:2.9922279 
6.689590361632336e-30 1:129751.81 2:1438.4346 3:1726.2243 4:1319.109 5:729.69197 6:1073.2591 7:1269.9595 8:978.2295 9:1298.5843 10:1442.2649 11:818.86332 12:650.5293 13:621.99247 14:487.82072 15:459.72651 16:459.15346 17:330.85837 18:204.17015 19:121.57707 20:107.92206 21:84.593757 22:40.947513 23:17.763677 24:12.513486 25:9.2821164 
6.689590361632336e-30 1:121791.04 2:1519.0192 3:1934.4038 4:1924.6778 5:1427.3636 6:1220.0297 7:1062.0726 8:977.9715 9:1313.386 10:1411.1087 11:842.38109 12:776.03149 13:807.64065 14:638.99021 15:550.47586 16:469.12106 17:324.88965 18:262.9166 19:175.88263 20:98.324504 21:55.184603 22:41.620617 23:34.426983 24:27.41267 25:26.385131 
6.689590361632336e-30 1:113883.37 2:2418.793 3:2278.6801 4:1711.3378 5:1138.0494 6:1006.3246 7:1005.8552 8:1264.2884 9:1445.3072 10:1023.0245 11:742.52371 12:745.33995 13:825.34712 14:829.7404 15:799.47761 16:581.24122 17:262.8888 18:202.51191 19:124.9098 20:109.22139 21:66.302573 22:28.33208 23:16.771504 24:10.60363 25:6.7220436 
6.689590361632336e-30 1:113560.87 2:1553.3186 3:2060.7195 4:2145.059 5:1552.4531 6:1199.785 7:1141.5445 8:1350.9348 9:1436.681 10:1114.7921 11:831.88082 12:774.03834 13:743.98786 14:791.50797 15:628.25661 16:472.18117 17:378.20009 18:255.55684 19:138.36576 20:88.177989 21:60.317366 22:34.592224 23:16.374113 24:12.063159 25:7.4338965 
6.689590361632336e-30 1:110748.44 2:2687.1685 3:2813.4613 4:2749.3772 5:2690.6372 6:2739.6255 7:2124.1198 8:1884.1781 9:2244.9032 10:2138.2729 11:1720.2668 12:1479.1136 13:1129.3343 14:831.49569 15:791.06393 16:852.13873 17:580.12256 18:361.47674 19:234.73283 20:171.12289 21:104.55802 22:48.151663 23:19.206667 24:14.854009 25:10.034892 
6.689590361632336e-30 1:106100.76 2:3040.5532 3:3816.5881 4:4429.745 5:3724.833 6:3559.1674 7:3389.0065 8:3373.7731 9:3449.2556 10:3927.2166 11:3598.6363 12:2573.2813 13:2185.4358 14:2283.7766 15:1795.1196 16:1072.8054 17:785.74772 18:643.57819 19:441.09269 20:218.28688 21:118.40101 22:88.901286 23:59.136891 24:30.693204 25:18.886797 
6.689590361632336e-30 1:102944.98 2:2714.7167 3:5337.3488 4:5286.5155 5:3222.6479 6:3603.2022 7:3547.8059 8:3355.9485 9:3512.3527 10:3130.9151 11:3024.7754 12:2140.5094 13:1616.9735 14:1980.149 15:1730.9715 16:1240.1334 17:935.68632 18:738.77448 19:434.07265 20:262.36476 21:162.88827 22:77.862733 23:45.360119 24:16.158212 25:6.8213583 
6.689590361632336e-30 1:103271.43 2:1983.9234 3:2190.0651 4:1903.6129 5:1066.9771 6:892.238 7:960.44466 8:1117.1572 9:1356.2668 10:1344.4818 11:1081.7084 12:898.57551 13:667.80645 14:636.46017 15:543.54047 16:334.14517 17:265.94188 18:213.59322 19:157.04902 20:85.815493 21:50.513547 22:31.880247 23:14.52627 24:9.0747024 25:6.3020008 
6.689590361632336e-30 1:107730.21 2:1354.672 3:1586.6905 4:2153.0368 5:1773.6329 6:1103.7061 7:965.92731 8:1423.3284 9:1567.592 10:1215.8739 11:720.63049 12:432.24784 13:436.40339 14:457.85136 15:394.6177 16:438.8506 17:352.27544 18:243.21216 19:147.63305 20:73.273039 21:43.983664 22:31.741343 23:18.197483 24:9.9248315 25:8.451394 
6.689590361632336e-30 1:111356.75 2:1168.4424 3:1723.1714 4:1904.3081 5:1412.6364 6:1340.9565 7:1007.3109 8:964.89164 9:1639.0921 10:1644.91 11:924.82799 12:607.63901 13:437.85886 14:327.73559 15:460.25221 16:475.65559 17:258.28449 18:197.96882 19:127.46065 20:92.885678 21:61.748865 22:30.096028 23:19.30763 24:12.512455 25:7.5799154 
6.689590361632336e-30 1:103631.21 2:1552.3933 3:2224.5337 4:2225.2016 5:1553.5865 6:1418.8766 7:1344.9281 8:1047.6933 9:1551.6873 10:1664.0421 11:1026.3702 12:752.58113 13:614.01583 14:612.49579 15:585.67006 16:476.03861 17:348.82607 18:228.74631 19:147.02225 20:133.9735 21:81.570008 22:37.702681 23:28.077768 24:23.517283 25:21.155548 
6.689590361632336e-30 1:100417.37 2:1766.2769 3:2188.249 4:2531.4465 5:2146.409 6:1871.6604 7:1742.2516 8:1671.3688 9:1698.4012 10:1715.5596 11:1584.2912 12:1206.7195 13:744.4412 14:766.95345 15:822.31861 16:681.40885 17:416.19996 18:234.11145 19:226.77207 20:151.2222 21:85.934934 22:39.758642 23:20.969593 24:11.646213 25:7.434773 
6.689590361632336e-30 1:98944.211 2:1809.836 3:2309.0065 4:2238.8824 5:1448.3865 6:1789.0219 7:2010.7032 8:2076.8169 9:2316.2066 10:1882.5503 11:1366.1013 12:1201.5684 13:752.83105 14:660.25323 15:539.36524 16:438.12188 17:442.29175 18:352.09763 19:183.01225 20:144.11837 21:89.328381 22:57.543771 23:38.285234 24:21.489131 25:18.409498 
6.689590361632336e-30 1:102277.59 2:1067.391 3:1648.5458 4:2162.5242 5:1557.269 6:1487.7205 7:1614.9694 8:1176.0967 9:1353.534 10:1487.1724 11:1070.3403 12:849.35048 13:865.19214 14:836.7624 15:656.48607 16:598.38315 17:407.27865 18:245.49317 19:168.98522 20:106.45194 21:50.271334 22:36.948943 23:21.464125 24:8.5479038 25:5.6612796 
6.689590361632336e-30 1:96738.97 2:1537.457 3:1801.354 4:2053.3611 5:1475.5923 6:1448.6083 7:1452.0213 8:1463.2242 9:1539.923 10:1336.8246 11:791.51145 12:513.85453 13:640.61278 14:757.71073 15:696.99266 16:421.59051 17:199.35857 18:191.5804 19:140.46237 20:89.805724 21:67.472936 22:33.009841 23:12.164104 24:8.3304527 25:4.3026235 
6.689590361632336e-30 1:96817.564 2:1355.9269 3:1936.2674 4:2091.3041 5:1240.8539 6:1175.3815 7:1311.2851 8:1310.5354 9:1511.7316 10:1348.349 11:1138.9121 12:1010.0341 13:675.37391 14:722.68543 15:635.04256 16:435.48793 17:381.23113 18:305.72344 19:139.87266 20:65.611758 21:51.572581 22:34.394835 23:16.852571 24:6.5008531 25:2.6318968 
6.689590361632336e-30 1:97515.861 2:1158.3531 3:1600.8351 4:1558.6736 5:1032.4556 6:979.20177 7:776.70406 8:821.49154 9:1540.2061 10:1513.4991 11:837.52325 12:572.52512 13:484.21456 14:560.03053 15:499.81372 16:360.32557 17:214.41375 18:139.87147 19:110.90626 20:65.487647 21:53.841616 22:38.912359 23:19.349825 24:9.4053166 25:3.8626441 
6.689590361632336e-30 1:99686.661 2:1227.9986 3:1537.9713 4:1621.94 5:983.41027 6:899.38287 7:1041.3769 8:1036.2735 9:1353.118 10:1364.1214 11:793.0324 12:684.4079 13:617.70276 14:503.43092 15:465.8294 16:405.93471 17:186.72747 18:126.58602 19:90.440493 20:82.078351 21:49.449774 22:26.03 23:16.618123 24:12.191095 25:11.651211 
6.689590361632336e-30 1:103342.88 2:3614.14 3:4126.7912 4:4251.119 5:3551.8881 6:3183.5591 7:2897.7232 8:2595.128 9:2471.9641 10:2250.1821 11:1845.8485 12:1711.6606 13:1552.6622 14:1363.2887 15:1017.5169 16:719.56934 17:653.90486 18:469.35663 19:294.90744 20:201.31747 21:122.17272 22:73.614901 23:32.3512 24:10.812604 25:7.2285486 
6.689590361632336e-30 1:100634.09 2:2533.396 3:2925.6034 4:2798.4201 5:1804.3936 6:1671.5503 7:1486.8251 8:1587.2798 9:2234.094 10:1782.2973 11:1070.4019 12:883.78608 13:836.8042 14:752.47899 15:725.19282 16:581.30493 17:354.40233 18:299.39705 19:206.20278 20:143.12158 21:70.379867 22:44.929405 23:21.714918 24:10.430634 25:4.5590788 
6.689590361632336e-30 1:99899.879 2:1076.742 3:2472.3188 4:2360.7621 5:1064.095 6:953.7731 7:991.82169 8:984.81842 9:1413.5236 10:1536.7189 11:818.43036 12:512.48549 13:522.55445 14:570.47147 15:449.80189 16:292.6481 17:172.59858 18:111.37368 19:85.999285 20:83.442744 21:69.000925 22:30.076382 23:11.532436 24:7.1698159 25:6.5254297 
6.689590361632336e-30 1:103682.63 2:1415.9907 3:2440.6473 4:2294.9224 5:983.87256 6:1122.9919 7:1099.82 8:957.20099 9:1457.4761 10:1529.4989 11:687.86982 12:315.2469 13:442.5407 14:560.92865 15:486.45501 16:324.40884 17:166.02603 18:145.71226 19:111.16204 20:70.095703 21:38.271003 22:19.113247 23:11.048807 24:6.7099037 25:6.2185519 
6.689590361632336e-30 1:107545.94 2:960.6541 3:2374.3514 4:2396.9312 5:877.02772 6:857.99679 7:831.89965 8:906.70572 9:1273.1817 10:1195.3574 11:783.15987 12:552.56273 13:380.27411 14:418.34497 15:422.928 16:309.27823 17:184.80555 18:162.55632 19:133.17661 20:68.126008 21:31.78787 22:18.392037 23:11.998295 24:5.9745202 25:2.6608788 
6.689590361632336e-30 1:102158.66 2:626.91709 3:1591.6778 4:1717.5141 5:987.01881 6:1009.4085 7:1023.0529 8:873.30579 9:1096.026 10:1017.3726 11:554.56095 12:619.90632 13:602.46134 14:600.91887 15:539.88071 16:332.77323 17:179.83764 18:125.01322 19:110.58274 20:67.321133 21:44.984147 22:30.63473 23:11.403329 24:7.1167124 25:5.2881502 
6.689590361632336e-30 1:105550.04 2:1074.7939 3:1791.9466 4:1437.5191 5:740.66661 6:942.90451 7:836.65073 8:981.04086 9:1462.6671 10:1416.7312 11:807.35526 12:511.94329 13:457.92489 14:472.37196 15:396.80429 16:297.23115 17:255.40552 18:213.45839 19:173.58058 20:95.036924 21:54.604143 22:31.195353 23:19.638971 24:11.58084 25:4.891365 
6.689590361632336e-30 1:105654.78 2:1432.6994 3:1985.3725 4:1893.5368 5:966.86162 6:1227.7557 7:1296.7169 8:992.84268 9:1358.0407 10:1332.9171 11:698.39836 12:478.84129 13:434.08005 14:424.73926 15:372.60054 16:311.62633 17:190.77571 18:129.66192 19:80.651047 20:55.916901 21:33.575789 22:22.826208 23:17.008865 24:6.2011794 25:3.4180421 
6.689590361632336e-30 1:104780.37 2:1209.5363 3:1706.1197 4:1393.6168 5:835.6505 6:1187.5862 7:923.15097 8:702.27652 9:1376.6656 10:1298.3912 11:918.64358 12:836.78196 13:616.20594 14:599.99564 15:369.02039 16:289.72244 17:221.3613 18:163.15674 19:130.07827 20:92.462994 21:62.171316 22:25.571084 23:13.702148 24:7.02704 25:3.5393752 
6.689590361632336e-30 1:105295.71 2:1261.851 3:2032.0116 4:2264.4127 5:1516.3417 6:1231.0351 7:1432.9175 8:1308.2287 9:1386.0025 10:1547.0523 11:1114.5753 12:872.89003 13:788.75907 14:663.55614 15:461.45256 16:428.54247 17:284.75854 18:192.93421 19:126.75732 20:54.414776 21:34.760459 22:20.498945 23:14.128455 24:7.9445759 25:2.6318736 
6.689590361632336e-30 1:107011.37 2:1329.0674 3:1929.2177 4:2083.9612 5:1523.1949 6:1240.6376 7:962.30392 8:1129.5946 9:1291.0091 10:1356.1153 11:1045.8113 12:733.05948 13:599.17696 14:668.72927 15:594.59166 16:420.23127 17:288.88448 18:176.04838 19:103.80478 20:76.862086 21:56.466862 22:29.723924 23:14.38396 24:12.880511 25:12.403821 
6.689590361632336e-30 1:110573.57 2:1628.4871 3:2170.7212 4:1930.1678 5:1167.4571 6:1155.4323 7:739.53249 8:774.18331 9:1413.3608 10:1424.5815 11:739.20687 12:546.25227 13:427.22553 14:493.29134 15:588.97452 16:379.38785 17:182.95969 18:146.07016 19:125.0434 20:89.502222 21:48.723975 22:24.329088 23:15.462525 24:11.959285 25:9.544149 
6.689590361632336e-30 1:113103.59 2:1609.2923 3:2173.3191 4:1722.8038 5:916.86419 6:862.82262 7:906.4547 8:934.47751 9:1286.9416 10:1295.7775 11:789.74172 12:589.58573 13:532.804 14:702.65168 15:522.64921 16:247.27151 17:261.13614 18:200.33689 19:129.41828 20:78.2484 21:35.577339 22:21.383995 23:14.155027 24:10.604741 25:8.1080585 
6.689590361632336e-30 1:115169.15 2:2393.9189 3:2762.0203 4:2168.8274 5:1269.3064 6:1283.4233 7:1018.4056 8:921.64694 9:1260.3874 10:1529.3653 11:1096.3088 12:534.72316 13:462.07232 14:604.85741 15:574.40926 16:372.0009 17:230.56466 18:192.16334 19:143.1229 20:83.29888 21:47.540171 22:26.65804 23:14.746193 24:7.6842888 25:5.1481443 
6.689590361632336e-30 1:108304.65 2:1143.1614 3:1771.8043 4:1963.1643 5:1173.4221 6:1068.7691 7:1042.2601 8:1162.5619 9:1515.8829 10:1380.0076 11:780.48837 12:575.23157 13:533.09871 14:390.54195 15:370.00867 16:345.5111 17:160.95366 18:111.49482 19:97.595199 20:62.059813 21:48.868365 22:29.685497 23:15.378215 24:6.4657903 25:2.9173903 
6.689590361632336e-30 1:113804.65 2:1423.4629 3:2135.5036 4:2081.6383 5:1363.4726 6:1540.947 7:1175.6109 8:1003.8828 9:1479.9879 10:1285.5702 11:739.23979 12:696.52103 13:696.83976 14:721.18211 15:452.16923 16:344.311 17:252.83735 18:161.32817 19:135.21261 20:78.762845 21:44.908954 22:25.02 23:13.91248 24:8.2738927 25:8.1991302 
6.689590361632336e-30 1:109372.95 2:1375.2951 3:1994.2662 4:2292.9128 5:1299.6856 6:1242.2133 7:1398.4692 8:1395.8792 9:1501.2604 10:1101.376 11:967.25659 12:1085.72 13:739.1223 14:643.81453 15:468.49688 16:427.91572 17:314.69761 18:201.91278 19:158.76395 20:93.255521 21:47.973696 22:37.428264 23:24.243444 24:14.582275 25:14.107396 
6.689590361632336e-30 1:107454.46 2:1812.6325 3:2778.2136 4:2590.6733 5:1477.887 6:1758.7543 7:1637.3534 8:1478.4488 9:1837.5985 10:1579.4085 11:1197.2412 12:1145.7259 13:916.81901 14:754.70895 15:656.2704 16:536.26549 17:338.53586 18:264.45166 19:179.32457 20:98.97752 21:62.40065 22:28.842722 23:20.145582 24:9.2088794 25:4.919469 
6.689590361632336e-30 1:104764.2 2:1649.7021 3:2500.5937 4:3121.5044 5:1978.7789 6:1629.1171 7:1882.7164 8:1503.7279 9:1532.528 10:1755.0616 11:1215.1109 12:559.48103 13:859.2621 14:937.35676 15:644.95858 16:555.61366 17:379.27728 18:215.78591 19:140.9522 20:129.25546 21:78.734347 22:39.116902 23:22.605618 24:13.983391 25:10.36053 
6.689590361632336e-30 1:102587.11 2:1772.09 3:2529.7668 4:2682.4198 5:1728.2554 6:1467.4539 7:1393.0553 8:1332.8107 9:1395.1445 10:1215.5313 11:788.21365 12:599.09469 13:567.98805 14:593.63873 15:557.83711 16:475.45698 17:372.1374 18:265.45859 19:162.87922 20:94.121404 21:65.482683 22:42.324586 23:20.550373 24:8.3487769 25:5.6948671 
6.689590361632336e-30 1:98797.863 2:1458.6469 3:2549.2021 4:2330.0541 5:1270.8417 6:1152.2508 7:1196.1092 8:1171.519 9:1165.5258 10:877.69128 11:649.06628 12:780.33751 13:738.6112 14:619.21799 15:593.18301 16:475.11582 17:314.33861 18:193.43297 19:129.11873 20:97.440111 21:65.4338 22:39.563468 23:27.124831 24:20.589395 25:17.936124 
6.689590361632336e-30 1:98822.584 2:2080.8685 3:2946.6919 4:2490.6617 5:1530.3331 6:1168.1811 7:1090.7087 8:1181.9199 9:1219.8504 10:1242.577 11:1188.1539 12:833.86761 13:491.31368 14:696.75849 15:862.12602 16:552.37588 17:239.4998 18:227.29059 19:194.55709 20:125.38595 21:71.100506 22:30.843644 23:19.976797 24:15.791368 25:13.301519 
6.689590361632336e-30 1:109087.98 2:2041.3169 3:2420.9991 4:2436.5473 5:1795.6903 6:1663.6067 7:1896.3472 8:1751.4739 9:2350.6134 10:2185.3049 11:1244.2321 12:1034.9645 13:1045.9411 14:1275.0485 15:988.86003 16:560.25979 17:337.62925 18:285.64682 19:203.59471 20:157.01547 21:107.40214 22:40.97191 23:14.53227 24:16.034359 25:13.517668 
6.689590361632336e-30 1:104830.29 2:2325.7931 3:2474.8669 4:2485.4531 5:2383.6634 6:2529.0873 7:2334.2809 8:2045.3154 9:2790.3708 10:3057.5404 11:1538.3676 12:822.84192 13:1066.3919 14:1042.977 15:669.02649 16:658.84466 17:581.84937 18:359.99138 19:279.65374 20:170.03849 21:111.2736 22:72.111542 23:42.238655 24:26.957593 25:22.194857 
6.689590361632336e-30 1:99955.582 2:1433.0091 3:2141.8147 4:2529.0681 5:1993.3424 6:2101.1069 7:1914.9693 8:1440.0114 9:1921.5723 10:2133.2593 11:1455.2162 12:973.69795 13:881.26442 14:766.38403 15:532.48967 16:596.0956 17:483.38341 18:314.5727 19:247.85004 20:147.29339 21:65.815812 22:36.779288 23:22.014045 24:10.083319 25:6.4585372 
6.689590361632336e-30 1:98422.764 2:1469.726 3:2283.1893 4:2006.8438 5:1023.6614 6:1749.6348 7:1934.7037 8:1589.9057 9:1890.2163 10:1577.6708 11:1073.847 12:832.35474 13:788.8631 14:909.54433 15:722.75856 16:535.73511 17:345.05602 18:263.40515 19:229.87996 20:137.20139 21:83.356932 22:44.597826 23:25.731845 24:14.753383 25:11.516502 
6.689590361632336e-30 1:106577.1 2:2212.4726 3:2833.1795 4:2869.6656 5:1825.0356 6:2145.0367 7:2026.7404 8:1738.5601 9:1777.5794 10:1466.4467 11:1263.3934 12:1062.4256 13:962.3334 14:949.7297 15:672.42191 16:473.30107 17:413.85228 18:315.90103 19:247.61959 20:139.13649 21:56.586272 22:33.076654 23:22.582016 24:15.992687 25:14.034243 
6.689590361632336e-30 1:107956.9 2:1644.9826 3:2400.181 4:2355.4972 5:1283.6645 6:1442.0224 7:1483.0318 8:1550.0291 9:1941.3099 10:1543.9788 11:1138.1741 12:879.76278 13:695.22918 14:705.18693 15:678.75714 16:499.04689 17:355.14749 18:300.47026 19:190.92897 20:113.6273 21:62.91048 22:38.527682 23:22.656978 24:16.020572 25:14.071559 
6.689590361632336e-30 1:108240.22 2:1160.2588 3:1913.1805 4:1977.3435 5:1521.5208 6:1830.0853 7:1730.3083 8:1205.2611 9:1531.7666 10:1730.6324 11:1050.6291 12:767.47427 13:747.90129 14:713.13153 15:623.43296 16:570.81912 17:462.30035 18:357.61762 19:222.53387 20:140.33136 21:72.975355 22:38.328461 23:20.502832 24:11.901793 25:10.794809 
6.689590361632336e-30 1:110045.18 2:1267.0441 3:2386.1042 4:2262.8826 5:1377.7064 6:1688.6912 7:1731.661 8:1320.731 9:1594.1195 10:1747.4134 11:1525.1084 12:1231.1877 13:745.78851 14:721.60341 15:786.87169 16:761.71807 17:561.86571 18:336.79351 19:198.1746 20:118.61612 21:55.741866 22:34.234002 23:13.230711 24:5.7602671 25:3.4951668 
6.689590361632336e-30 1:108053.31 2:1807.1922 3:2637.3285 4:2616.948 5:1640.1359 6:1696.6591 7:1494.9695 8:1195.1442 9:1682.8816 10:1762.8033 11:969.08011 12:585.66216 13:747.38907 14:1048.6805 15:854.79479 16:568.25478 17:471.53118 18:286.55829 19:176.06701 20:128.84062 21:58.585972 22:29.877167 23:15.997367 24:11.005431 25:9.5112128 
6.689590361632336e-30 1:101684.09 2:1351.6835 3:1994.5129 4:2231.7001 5:1437.9696 6:1115.2964 7:1337.5936 8:1387.9283 9:1743.4249 10:1944.1178 11:1167.1204 12:601.13677 13:723.32853 14:882.81579 15:677.83033 16:485.32653 17:268.20957 18:253.55637 19:224.49034 20:109.7715 21:58.856161 22:29.859576 23:24.728091 24:21.349952 25:18.229672 
6.689590361632336e-30 1:99901.665 2:1229.0159 3:1851.4884 4:2170.9517 5:1712.3459 6:1362.0842 7:1123.1074 8:1412.1212 9:2024.5525 10:1788.7844 11:1155.7707 12:808.02227 13:737.0591 14:813.03881 15:721.21298 16:486.10327 17:321.8193 18:306.75276 19:199.35791 20:73.150022 21:44.648159 22:37.718414 23:26.035484 24:15.218751 25:11.284468 
6.689590361632336e-30 1:103648.62 2:1115.38 3:1970.7809 4:2062.9591 5:1345.8195 6:1452.8646 7:1264.6773 8:1303.6845 9:1906.2589 10:1938.5411 11:1370.2436 12:1076.7876 13:888.77025 14:680.26944 15:499.34161 16:331.37717 17:194.93705 18:234.37543 19:174.37607 20:101.6381 21:74.915653 22:46.426517 23:25.277482 24:18.50791 25:15.963502 
6.689590361632336e-30 1:105160.77 2:1801.2083 3:2487.5234 4:2204.1138 5:1031.6013 6:1125.2818 7:1552.8126 8:1371.8838 9:1454.3752 10:1527.9469 11:849.70715 12:715.48523 13:663.36405 14:653.46418 15:773.72927 16:569.44817 17:316.93461 18:200.00917 19:136.49028 20:97.930863 21:63.839706 22:36.169653 23:14.959895 24:7.6242191 25:7.154385 
6.689590361632336e-30 1:102725.83 2:984.1676 3:1841.1487 4:1978.2415 5:1223.0818 6:1504.4783 7:1513.5904 8:1245.814 9:1776.7326 10:2123.8754 11:1259.0208 12:835.72698 13:951.4148 14:849.00808 15:639.22249 16:477.52763 17:389.57581 18:275.75635 19:118.17221 20:79.258273 21:53.205672 22:27.26888 23:15.4383 24:10.845158 25:7.8015726 
6.689590361632336e-30 1:102606.84 2:1911.964 3:2109.8305 4:1931.0308 5:1376.2314 6:1426.2672 7:1510.285 8:1581.9588 9:2118.4178 10:2164.6218 11:1410.474 12:909.11538 13:769.31043 14:785.22099 15:669.83271 16:661.56039 17:483.5772 18:317.46973 19:217.20033 20:86.075643 21:71.88297 22:46.591817 23:23.215467 24:8.6480446 25:7.7078795 
6.689590361632336e-30 1:102616.17 2:1550.1761 3:2276.6609 4:2232.8149 5:1286.8837 6:1581.0011 7:1917.273 8:1596.3096 9:1488.7141 10:1436.713 11:991.94002 12:796.73782 13:845.97369 14:777.53864 15:535.70589 16:584.47431 17:423.05316 18:225.50748 19:145.12123 20:90.007065 21:53.24669 22:26.499546 23:16.491824 24:5.8665567 25:2.8432796 
6.689590361632336e-30 1:104458.15 2:1319.7907 3:1952.3357 4:1832.5392 5:1539.6962 6:1548.6413 7:1220.4566 8:1153.682 9:1879.8749 10:1797.0997 11:1076.7945 12:783.34031 13:764.35355 14:752.15158 15:592.3071 16:432.21612 17:294.75326 18:282.00655 19:195.18819 20:94.59074 21:52.817492 22:37.522865 23:23.416041 24:10.754594 25:8.6940233 
6.689590361632336e-30 1:106370.8 2:1247.8333 3:2243.5762 4:2869.2632 5:2109.2406 6:1587.579 7:1406.4838 8:1471.6191 9:1637.262 10:1429.9917 11:1222.693 12:875.03211 13:477.38839 14:621.70176 15:760.54318 16:563.82358 17:292.72014 18:208.33124 19:189.14622 20:129.31692 21:55.109114 22:21.482079 23:16.700572 24:10.16163 25:8.6743822 
6.689590361632336e-30 1:107972.12 2:1219.0366 3:1865.3394 4:2253.3147 5:1620.2835 6:1261.2382 7:1236.4155 8:1458.0029 9:1490.6935 10:1369.4169 11:1195.7786 12:897.70048 13:955.08391 14:932.98107 15:624.39597 16:451.705 17:234.43187 18:183.7044 19:168.46427 20:91.47174 21:44.998347 22:32.090622 23:17.913192 24:11.390096 25:9.5391906 
6.689590361632336e-30 1:105652.09 2:1376.0109 3:2262.013 4:2229.406 5:1536.1223 6:1747.7316 7:1408.993 8:1357.7689 9:1647.2004 10:1243.5555 11:1029.6708 12:910.67238 13:753.04403 14:858.06737 15:850.42758 16:620.78204 17:265.93993 18:205.3855 19:168.49462 20:113.60532 21:67.619669 22:33.652614 23:15.520268 24:7.2606385 25:6.0056649 
6.689590361632336e-30 1:106613.67 2:1536.4194 3:2059.6938 4:2514.247 5:1859.0364 6:1885.8497 7:1990.5476 8:1772.9077 9:2151.2881 10:2129.0027 11:1242.7904 12:923.95997 13:748.80608 14:890.03665 15:748.87648 16:542.68817 17:428.47348 18:236.79829 19:175.59834 20:111.58441 21:71.79692 22:37.074259 23:15.066566 24:5.9175699 25:3.5160076 
6.689590361632336e-30 1:108756.42 2:1915.0189 3:2568.838 4:2737.0493 5:2114.6671 6:2196.3963 7:1510.9422 8:1386.2252 9:1985.6099 10:2254.8982 11:1673.3054 12:785.22642 13:755.70969 14:782.69199 15:616.69271 16:574.93258 17:441.65281 18:316.53162 19:149.2463 20:119.72721 21:67.193523 22:34.534833 23:24.521651 24:9.4374211 25:5.6156559 
6.689590361632336e-30 1:112781.18 2:1877.5724 3:2441.4322 4:2288.6237 5:1613.5562 6:1522.5215 7:1692.9512 8:2080.3912 9:1845.5998 10:1422.8111 11:1737.9121 12:1417.0462 13:991.59591 14:1000.7902 15:704.54974 16:648.13724 17:623.94193 18:412.684 19:204.68623 20:125.85429 21:87.669713 22:46.661297 23:19.426599 24:13.286965 25:11.219812 
6.689590361632336e-30 1:108323.05 2:1666.6544 3:2813.7493 4:3121.3019 5:2115.752 6:1783.1739 7:1689.8728 8:1677.5576 9:1589.6048 10:1527.9619 11:1326.3143 12:1297.41 13:1061.6012 14:1029.0009 15:954.48281 16:669.15615 17:456.87806 18:339.47208 19:184.06919 20:98.129215 21:87.121325 22:45.969116 23:23.238265 24:16.413662 25:18.192062 
6.689590361632336e-30 1:104021.55 2:1621.3362 3:2313.9757 4:2153.9558 5:1458.4615 6:1766.3383 7:1803.7701 8:1585.0752 9:1996.0615 10:2134.9556 11:1144.9411 12:607.45386 13:672.41194 14:723.47438 15:659.14423 16:638.14171 17:481.75253 18:306.8269 19:187.55529 20:140.87263 21:75.554045 22:51.27571 23:27.099626 24:18.261269 25:16.242082 
6.689590361632336e-30 1:104336.74 2:1948.6517 3:2488.8526 4:2650.5356 5:2283.214 6:1731.9925 7:1677.4044 8:1519.1007 9:1221.9034 10:1119.4443 11:1007.4373 12:1001.7989 13:754.89979 14:569.92544 15:577.81963 16:525.159 17:336.1285 18:214.89789 19:182.60041 20:143.99627 21:82.36272 22:45.699798 23:20.542982 24:13.084584 25:10.746003 
6.689590361632336e-30 1:99335.847 2:2115.0776 3:2533.6233 4:2370.966 5:1556.0673 6:1105.7333 7:1314.6917 8:1423.7069 9:1614.1279 10:1371.5661 11:757.76017 12:736.27627 13:605.61237 14:829.62028 15:789.03504 16:483.14369 17:369.78628 18:311.49206 19:164.55214 20:100.82052 21:77.831706 22:33.17861 23:20.983993 24:17.618574 25:12.797894 
6.689590361632336e-30 1:103808.08 2:1465.6764 3:2072.389 4:1970.3319 5:1514.8463 6:1677.1926 7:1398.4052 8:1592.819 9:2193.2625 10:1842.2636 11:1206.541 12:874.01744 13:813.73585 14:692.96858 15:474.72154 16:545.92608 17:356.20925 18:134.56703 19:109.01816 20:109.04463 21:62.175963 22:35.114896 23:31.072251 24:26.477531 25:24.681368 
6.689590361632336e-30 1:110428.93 2:1320.4887 3:1951.9162 4:2451.778 5:2168.3719 6:2060.6097 7:1474.578 8:1394.1418 9:1892.3297 10:2109.9143 11:1605.4683 12:975.17506 13:714.04079 14:692.53992 15:844.2433 16:705.58915 17:396.73746 18:246.2529 19:168.22673 20:119.31888 21:88.058496 22:53.770827 23:24.048055 24:8.9708553 25:6.0645245 
6.689590361632336e-30 1:112597.77 2:2062.722 3:2472.9102 4:2412.5295 5:1937.9972 6:2207.9548 7:2058.3836 8:1705.5907 9:2122.4503 10:1965.4808 11:1255.1477 12:761.11203 13:554.64419 14:786.8472 15:898.72385 16:821.16981 17:560.7055 18:353.65569 19:248.62036 20:123.55149 21:88.833329 22:55.965088 23:22.147072 24:14.798593 25:15.819899 
6.689590361632336e-30 1:112513.11 2:2440.6661 3:2683.0824 4:2964.0515 5:2112.737 6:1899.7506 7:1411.4652 8:1142.5671 9:1889.4887 10:1851.3916 11:1489.6383 12:1530.5115 13:1157.9169 14:1068.9636 15:1020.6395 16:733.43107 17:492.7734 18:374.26794 19:233.32086 20:128.65689 21:92.84665 22:55.3867 23:25.099811 24:10.29117 25:4.5229791 
6.689590361632336e-30 1:110924.77 2:1415.8906 3:1937.6125 4:2071.3242 5:1267.7329 6:1172.8537 7:1636.9787 8:1600.1777 9:1622.5307 10:1483.767 11:963.40519 12:781.9597 13:781.5081 14:1153.0136 15:1044.9849 16:633.03038 17:421.46863 18:274.33458 19:141.1486 20:111.70709 21:99.791175 22:50.971834 23:24.510487 24:10.334384 25:6.0448975 
6.689590361632336e-30 1:112999.97 2:1596.4214 3:2298.5235 4:2118.9007 5:1144.078 6:1235.8501 7:1657.4595 8:1878.0708 9:1814.5215 10:1706.1309 11:1453.1097 12:909.81135 13:591.78569 14:742.69389 15:826.48605 16:566.80729 17:356.8379 18:285.29288 19:187.97414 20:112.7511 21:82.343766 22:41.760014 23:16.10418 24:12.71005 25:10.331063 
6.689590361632336e-30 1:113840.82 2:1115.6752 3:1807.4943 4:1835.9362 5:1321.8329 6:1336.3613 7:1151.1161 8:1291.2976 9:1748.6543 10:1372.634 11:890.63289 12:1001.0062 13:837.79173 14:754.65907 15:722.31641 16:561.82565 17:338.79199 18:232.0004 19:165.56186 20:106.56722 21:54.234017 22:32.741235 23:16.401446 24:7.7652245 25:6.5533283 
6.689590361632336e-30 1:114426.6 2:1673.0632 3:2331.2376 4:1985.2305 5:1443.4421 6:1632.6848 7:1407.5048 8:1475.6196 9:1621.2137 10:1393.8478 11:1049.123 12:1000.39 13:718.64675 14:540.12928 15:554.13428 16:525.83666 17:294.31813 18:179.09264 19:160.56141 20:119.23076 21:73.266638 22:53.513208 23:22.092116 24:9.9941202 25:7.8415746 
6.689590361632336e-30 1:115144.85 2:1786.2468 3:2128.0446 4:1957.3061 5:1328.4683 6:1597.732 7:1727.7665 8:1316.1958 9:1571.5888 10:2092.3409 11:1814.4491 12:1166.8099 13:732.41536 14:633.91209 15:663.72013 16:654.29563 17:417.16017 18:159.46205 19:159.77494 20:164.27615 21:101.18811 22:58.612272 23:21.956381 24:9.7082097 25:4.3414575 
6.689590361632336e-30 1:114862.02 2:1812.2627 3:2679.837 4:2511.4528 5:1523.8766 6:2003.7985 7:2308.7774 8:1915.7492 9:1519.0981 10:1511.6955 11:1507.9218 12:1206.8986 13:1132.7083 14:1031.3366 15:820.71368 16:769.663 17:467.71882 18:245.89138 19:238.32942 20:182.63437 21:94.39984 22:56.608703 23:27.379578 24:17.94908 25:14.31499 
6.689590361632336e-30 1:112151.04 2:1877.3585 3:1903.5099 4:1854.2685 5:1150.5945 6:991.58784 7:1389.3898 8:1609.7838 9:1682.9006 10:1663.763 11:1303.3069 12:861.42212 13:668.42207 14:864.59045 15:834.26195 16:588.71789 17:413.9474 18:389.13064 19:224.49802 20:102.58331 21:91.592321 22:48.526018 23:26.556717 24:10.306149 25:7.338676 
6.689590361632336e-30 1:111944.57 2:1878.0396 3:2362.128 4:2578.3193 5:2214.2981 6:1954.5909 7:1714.1407 8:1753.4036 9:1914.4118 10:1821.9346 11:1438.5941 12:1243.4076 13:1256.6063 14:1243.9724 15:1084.0846 16:887.86171 17:485.10384 18:385.8146 19:354.235 20:225.02158 21:135.28536 22:78.144099 23:30.290114 24:8.7564584 25:4.6386576 
6.689590361632336e-30 1:112094.93 2:1792.8067 3:2264.8817 4:2774.3594 5:2104.9575 6:2146.5691 7:1951.5383 8:1378.0862 9:2067.9418 10:2112.9503 11:1373.2483 12:1106.8018 13:986.90582 14:941.18383 15:1013.9413 16:889.88872 17:583.79052 18:401.70402 19:315.73333 20:249.03622 21:143.63073 22:77.881275 23:31.586565 24:12.384123 25:5.0748127 
6.689590361632336e-30 1:104059.65 2:2491.0927 3:2385.5398 4:2260.4449 5:1898.8581 6:1820.5471 7:1888.5218 8:2124.3556 9:2627.0977 10:2483.0311 11:1647.2793 12:1448.9343 13:1617.1693 14:1776.8867 15:1270.8253 16:1005.3358 17:824.02947 18:411.28618 19:278.41135 20:235.88194 21:109.56003 22:63.968904 23:34.584049 24:16.442095 25:8.5717311 
6.689590361632336e-30 1:106548.86 2:1847.851 3:2401.0596 4:2488.0911 5:1663.4462 6:2374.1934 7:2512.0173 8:1759.2553 9:1624.4645 10:1773.7238 11:1544.721 12:1134.587 13:1254.5002 14:1400.5245 15:1219.6102 16:737.20874 17:566.94437 18:505.84696 19:356.22061 20:239.56768 21:152.30605 22:70.819333 23:33.365852 24:12.847319 25:5.4861393 
6.689590361632336e-30 1:108097.68 2:1681.5621 3:2538.0351 4:2362.8144 5:1391.6395 6:1204.164 7:1480.2485 8:2502.2601 9:2572.7955 10:1546.184 11:1380.7182 12:1306.4524 13:818.59521 14:923.79421 15:898.36037 16:678.55024 17:549.72483 18:432.14124 19:307.69687 20:168.95208 21:99.595867 22:61.461601 23:32.621844 24:14.174461 25:11.770453 
6.689590361632336e-30 1:108585.75 2:2352.1881 3:2934.4041 4:2454.7483 5:1855.4712 6:2123.9833 7:2111.0659 8:1675.9741 9:1893.8454 10:2227.9484 11:1478.8675 12:1438.4609 13:1813.9187 14:1480.9115 15:815.2044 16:719.91979 17:715.25396 18:436.9344 19:379.56887 20:247.97184 21:137.93419 22:80.177383 23:35.593947 24:14.112578 25:4.2504387 
6.689590361632336e-30 1:106632.96 2:1752.6756 3:2871.0903 4:2396.1886 5:1609.9159 6:2422.6857 7:2172.134 8:2039.9509 9:2912.2236 10:2322.0484 11:1627.5616 12:1784.3799 13:1519.6618 14:1614.2265 15:1627.0718 16:1212.3462 17:853.05474 18:595.03621 19:466.70174 20:279.08393 21:131.89158 22:78.795299 23:43.645034 24:33.163772 25:25.181277 
6.689590361632336e-30 1:102699.22 2:2364.0197 3:3281.0201 4:2765.4505 5:1567.7924 6:2155.578 7:2263.0983 8:2207.239 9:2747.9245 10:2159.7979 11:1631.8746 12:1473.2831 13:1384.1792 14:1605.5622 15:1512.4172 16:933.50365 17:587.2802 18:498.98884 19:321.64708 20:191.39854 21:166.66519 22:89.56098 23:35.422221 24:21.982329 25:6.1317039 
6.689590361632336e-30 1:102043.92 2:1866.9866 3:2367.8668 4:2597.4266 5:2777.1794 6:2450.3219 7:1895.7695 8:1868.1139 9:2404.9056 10:2294.5564 11:1840.6622 12:1427.3385 13:723.49683 14:1123.8454 15:1293.8839 16:850.31045 17:569.79552 18:359.3563 19:276.33879 20:153.23946 21:114.14125 22:72.501746 23:28.939097 24:16.207281 25:9.2622101 
6.689590361632336e-30 1:104184.08 2:2098.3638 3:2996.7597 4:2664.581 5:1640.3505 6:2029.0273 7:1969.5252 8:1801.0667 9:2519.7038 10:2490.1437 11:1624.6134 12:1268.6687 13:1545.4403 14:1706.1492 15:1343.9754 16:1009.6882 17:677.72554 18:486.15048 19:354.11362 20:226.20392 21:115.45851 22:42.685162 23:20.210322 24:11.685183 25:10.318624 
6.689590361632336e-30 1:107407.12 2:2408.6144 3:2393.4245 4:2468.2823 5:1910.7034 6:1471.9368 7:1480.4373 8:1809.4832 9:2058.6278 10:2204.4114 11:1800.9455 12:1421.5572 13:1302.557 14:1241.9721 15:890.33792 16:659.20998 17:706.8932 18:545.92271 19:362.29268 20:278.98453 21:134.23059 22:62.746832 23:32.824845 24:10.312823 25:5.4220002 
6.689590361632336e-30 1:106547.86 2:1151.8273 3:2368.018 4:2789.6978 5:1447.9629 6:1624.8013 7:2120.4418 8:1989.0134 9:1823.3993 10:1708.6076 11:1467.7309 12:1112.4435 13:988.19142 14:1149.7177 15:1014.7441 16:740.15588 17:484.70629 18:359.16297 19:282.22936 20:162.94531 21:82.682058 22:49.694396 23:31.124607 24:23.760548 25:16.250258 
6.689590361632336e-30 1:107829.56 2:1956.6633 3:2275.9037 4:2225.218 5:1381.947 6:1707.4624 7:2067.7325 8:1929.0064 9:1900.3068 10:1688.5903 11:1458.9153 12:1067.7409 13:857.84745 14:1144.704 15:885.16651 16:530.60319 17:442.25325 18:345.30825 19:234.53092 20:149.69929 21:81.932082 22:56.546051 23:29.986721 24:10.551115 25:10.401371 
6.689590361632336e-30 1:109202.99 2:1690.9294 3:2288.6181 4:1912.1677 5:1128.0311 6:1141.1855 7:1253.1673 8:1540.6561 9:1802.1977 10:1375.8892 11:1047.8542 12:949.43514 13:950.0011 14:965.36044 15:696.16685 16:603.82957 17:411.76893 18:232.66837 19:166.64346 20:100.37473 21:69.062966 22:34.661934 23:24.235525 24:18.212996 25:18.520797 
6.689590361632336e-30 1:107972.85 2:1559.4674 3:2277.202 4:1973.5832 5:1025.9813 6:994.26902 7:954.94835 8:1009.5503 9:1508.0271 10:1851.5377 11:1386.8568 12:723.17326 13:675.31755 14:763.46705 15:831.82521 16:629.18349 17:367.5192 18:243.94372 19:183.00643 20:91.524671 21:59.416599 22:40.290315 23:19.236 24:6.8415628 25:3.5801685 
6.689590361632336e-30 1:105271.73 2:1479.1782 3:2080.7041 4:1707.6503 5:668.89682 6:838.77255 7:1204.3944 8:1331.5573 9:1615.7746 10:1524.7413 11:894.78727 12:821.45782 13:803.34048 14:626.12412 15:601.87414 16:493.22351 17:335.90242 18:276.55773 19:189.08245 20:109.09968 21:54.771209 22:35.020243 23:22.670949 24:13.258394 25:9.8752532 
6.689590361632336e-30 1:104953.92 2:1435.6478 3:2266.4211 4:2188.0943 5:1086.3185 6:1221.0895 7:1276.2902 8:1330.7883 9:1883.0102 10:1603.7573 11:992.79377 12:814.27426 13:556.97534 14:510.08618 15:547.23432 16:412.71799 17:242.42356 18:224.83618 19:164.79271 20:76.839243 21:56.404929 22:44.314126 23:14.781356 24:5.9139466 25:3.4670723 
6.689590361632336e-30 1:108039.26 2:1439.4768 3:1988.2936 4:2431.5611 5:1667.8987 6:1291.6545 7:1650.3024 8:1639.4849 9:1686.1565 10:1295.6466 11:699.2024 12:644.53159 13:675.25705 14:708.02065 15:496.30396 16:405.27667 17:326.69618 18:262.56697 19:178.25248 20:92.399088 21:60.17996 22:34.763601 23:19.995845 24:8.0505329 25:4.0067384 
6.689590361632336e-30 1:102936.23 2:1600.2178 3:2216.0677 4:2091.9771 5:1656.9904 6:1885.8788 7:1698.274 8:1280.7293 9:1235.3515 10:1449.4533 11:1284.6122 12:1026.1898 13:812.7666 14:744.68311 15:819.94087 16:614.0912 17:371.8406 18:258.58771 19:151.23919 20:93.827149 21:66.590559 22:38.013223 23:21.184956 24:12.903373 25:12.204482 
6.689590361632336e-30 1:103095.32 2:1627.687 3:2236.9897 4:2501.5323 5:1695.7518 6:1568.895 7:1895.7186 8:1827.6087 9:1679.5278 10:1604.8006 11:1120.8439 12:855.66096 13:835.91747 14:811.73687 15:534.76846 16:396.41536 17:311.42461 18:219.86692 19:152.69616 20:101.31812 21:67.964938 22:48.555602 23:25.024525 24:18.24638 25:14.071926 
6.689590361632336e-30 1:115636.83 2:896.45121 3:1797.2086 4:1892.4743 5:1305.6839 6:1284.8877 7:1204.2498 8:1116.259 9:1507.7437 10:1438.4814 11:968.35495 12:840.00459 13:701.18293 14:628.56324 15:590.7322 16:465.02982 17:306.23962 18:211.16575 19:117.27219 20:100.88159 21:73.875892 22:39.013904 23:20.430229 24:17.623431 25:17.089865 
6.689590361632336e-30 1:118303.05 2:1125.9072 3:1520.6176 4:1668.1224 5:1093.2628 6:767.36451 7:886.35411 8:958.18937 9:1480.0801 10:1703.2351 11:930.27848 12:587.56953 13:541.46938 14:433.42464 15:384.74938 16:511.11075 17:500.781 18:271.0539 19:156.81964 20:89.251222 21:50.562817 22:40.739505 23:18.864016 24:13.603769 25:14.130523 
6.689590361632336e-30 1:118250.85 2:1363.1648 3:1847.1142 4:1792.0542 5:1380.8944 6:1179.1114 7:765.68538 8:874.06386 9:1390.6141 10:1618.8062 11:1380.7748 12:923.22779 13:635.41793 14:742.28779 15:623.74909 16:390.8382 17:309.86544 18:243.55816 19:184.174 20:126.98738 21:69.817008 22:38.22005 23:9.3161129 24:5.5228119 25:3.6243267 
6.689590361632336e-30 1:115864.1 2:1119.5366 3:1850.9732 4:2340.1399 5:1565.4304 6:1111.3639 7:847.12736 8:939.97809 9:1626.0051 10:1643.4037 11:1190.1682 12:957.76875 13:615.28665 14:512.44981 15:562.97696 16:455.63894 17:276.78238 18:161.53921 19:131.19824 20:105.50655 21:52.65271 22:28.614165 23:15.527181 24:7.3415751 25:3.5678347 
6.689590361632336e-30 1:117628.5 2:1505.3201 3:2008.9526 4:1873.3628 5:1301.0066 6:1194.6267 7:1046.7117 8:942.27878 9:1077.7689 10:1066.5535 11:901.74405 12:771.68049 13:635.2686 14:722.80482 15:497.67886 16:354.71519 17:356.29336 18:252.2777 19:170.59686 20:101.00897 21:54.001097 22:34.344314 23:23.557548 24:19.185547 25:15.769004 
6.689590361632336e-30 1:122393.86 2:1373.2222 3:1837.4123 4:1669.5567 5:1118.301 6:1547.7788 7:1660.2192 8:1335.1184 9:1651.2587 10:1707.8505 11:933.24074 12:614.29965 13:538.43367 14:548.25702 15:506.11417 16:410.22656 17:314.85888 18:201.56613 19:126.87463 20:85.75628 21:54.214887 22:28.570193 23:18.46413 24:10.980955 25:6.9240312 
6.689590361632336e-30 1:125753.26 2:2141.5589 3:2104.103 4:1867.0026 5:1155.1456 6:1423.706 7:1423.145 8:1138.775 9:1381.3663 10:1292.2301 11:1071.9139 12:918.24985 13:704.44946 14:644.25931 15:546.14981 16:446.0754 17:236.90885 18:172.3181 19:141.63009 20:98.087605 21:69.928958 22:45.329054 23:15.382414 24:8.2976144 25:7.320318 
6.689590361632336e-30 1:118673.66 2:1104.3255 3:1927.817 4:2092.7812 5:1392.8963 6:1126.184 7:1015.5745 8:1256.0691 9:1562.4469 10:1509.4962 11:1275.7338 12:923.85803 13:576.1968 14:703.76669 15:656.75922 16:443.0369 17:348.59755 18:214.69486 19:137.72924 20:91.521262 21:59.093444 22:33.096244 23:17.521783 24:8.7777963 25:3.8451564 
6.689590361632336e-30 1:118375.19 2:1233.5923 3:1703.7365 4:1962.0403 5:1175.4072 6:1190.9128 7:1414.057 8:1468.8551 9:1776.2649 10:1603.1223 11:1026.8458 12:638.01757 13:596.54638 14:706.22554 15:656.59445 16:441.348 17:285.64708 18:157.51732 19:93.294889 20:90.16072 21:75.214952 22:32.595987 23:14.492787 24:7.4073507 25:3.7657616 
