svm_type one_class
kernel_type polynomial
degree 3
gamma 0.5
coef0 0
nr_class 2
total_sv 490
rho 7.18683e+40
SV
1 1:3307719.8 2:4901.6646 3:8029.6689 4:8304.0526 5:5400.2044 6:5206.2958 7:4979.6481 8:4128.7421 9:4379.3531 10:4420.9963 11:3070.3867 12:2120.9272 13:1874.9813 14:1854.6876 15:1680.6332 16:1390.8267 17:839.60554 18:481.54382 19:342.22401 20:195.33111 21:115.08178 22:92.091986 23:65.228381 24:56.465188 25:47.18968 
1 1:3311494.5 2:10126.138 3:11268.071 4:8218.1678 5:4567.8791 6:3659.6601 7:3914.3116 8:4231.4356 9:4322.0766 10:4534.2809 11:3361.6858 12:2097.8666 13:1789.5322 14:2588.5339 15:2172.0593 16:1235.7816 17:702.98468 18:531.51641 19:349.55536 20:218.7382 21:124.34429 22:63.525717 23:32.204491 24:24.739599 25:21.471028 
1 1:3291574.2 2:10716.339 3:11987.747 4:11955.712 5:6249.7788 6:5418.0794 7:4419.8795 8:3335.7521 9:6265.3269 10:5790.6874 11:2920.6478 12:2657.2712 13:2906.5955 14:2251.8943 15:1683.2084 16:1341.4342 17:847.28213 18:673.23174 19:461.84898 20:291.53386 21:145.81403 22:95.436059 23:50.989864 24:22.090661 25:19.358998 
1 1:3272909.6 2:6036.6269 3:7591.7309 4:6939.9378 5:5204.9127 6:6520.7483 7:7027.3682 8:5078.0445 9:5288.8672 10:5490.8639 11:4492.0459 12:3726.6646 13:2538.0448 14:2181.2714 15:1818.3989 16:1327.0346 17:914.12362 18:674.43245 19:371.1467 20:225.90564 21:126.98035 22:63.41193 23:34.536859 24:30.444547 25:24.826878 
1 1:3264515.6 2:4285.2795 3:8107.9096 4:7373.7196 5:3332.8261 6:4222.6488 7:5714.7772 8:5704.3223 9:5787.2797 10:5215.6222 11:4192.7473 12:4000.9004 13:2921.5431 14:2624.877 15:2393.8354 16:1595.0178 17:958.30081 18:560.80915 19:345.32959 20:134.32525 21:88.231058 22:85.075878 23:65.55405 24:45.418875 25:42.322633 
1 1:3255536.8 2:5675.2482 3:8721.3028 4:8797.0492 5:5241.2964 6:5729.9637 7:6521.2961 8:6354.5077 9:7233.529 10:7031.3589 11:4923.0889 12:3238.9421 13:2413.6985 14:2177.5259 15:1694.5489 16:1399.0585 17:999.31007 18:567.30887 19:307.69445 20:229.57962 21:177.60679 22:103.98655 23:46.689375 24:34.251555 25:33.191498 
1 1:3247280.5 2:8180.4548 3:10780 4:10126.742 5:7109.2095 6:6886.523 7:6931.5511 8:6407.0805 9:6682.9717 10:6989.8952 11:6096.0328 12:4724.5187 13:2590.4827 14:1889.3274 15:1510.9412 16:1329.9843 17:1023.8947 18:695.70084 19:504.11451 20:363.0773 21:219.27107 22:121.54552 23:60.436915 24:54.373242 25:57.274213 
1 1:3236894.9 2:7356.1643 3:9790.976 4:9919.0448 5:6227.9008 6:5774.1974 7:6910.0477 8:6580.9105 9:6008.9639 10:6425.7963 11:4672.3591 12:3140.6354 13:2819.2592 14:2575.736 15:2169.0443 16:1763.5771 17:982.35897 18:618.53254 19:481.71034 20:276.13985 21:182.7796 22:91.675173 23:45.849229 24:21.053247 25:9.926372 
1 1:3236325.8 2:11943.659 3:12741.697 4:10094.198 5:6070.9185 6:6580.7439 7:7617.2747 8:6716.0144 9:6851.7354 10:6021.6426 11:4850.3539 12:3359.4774 13:2513.5216 14:2391.6556 15:2104.1444 16:2176.3954 17:1208.1297 18:732.50571 19:346.70081 20:254.83651 21:204.23825 22:94.814507 23:62.355684 24:19.697616 25:5.8278459 
1 1:3237481.2 2:12863.974 3:10633.349 4:8155.3641 5:5083.6807 6:6646.6476 7:5933.3537 8:5892.8654 9:7424.381 10:6522.2907 11:4328.6551 12:2317.6496 13:2571.4443 14:2858.332 15:2244.8634 16:1737.9515 17:1128.1829 18:925.30068 19:540.95434 20:327.94652 21:259.92144 22:151.21663 23:83.208815 24:22.317202 25:9.2352212 
1 1:3257742.5 2:7283.4716 3:9334.3963 4:8954.9887 5:4527.8452 6:4413.5149 7:4856.0469 8:4468.3732 9:4684.6687 10:4059.1872 11:2496.29 12:2011.9481 13:2372.903 14:2385.2966 15:2143.6049 16:1690.445 17:945.29692 18:541.49768 19:474.16273 20:308.55299 21:202.67482 22:109.05247 23:51.000536 24:26.051676 25:17.065185 
1 1:3270092.8 2:9834.7957 3:15760.449 4:17134.02 5:10124.861 6:12552.564 7:15850.615 8:11564.753 9:10221.17 10:9385.1917 11:9326.3901 12:6246.5141 13:3320.0228 14:4173.2371 15:4409.8915 16:4020.2922 17:2346.1782 18:1161.1594 19:639.03488 20:574.32611 21:425.1484 22:223.76569 23:154.99731 24:128.35335 25:118.7233 
1 1:3283051.9 2:11910.494 3:11896.021 4:15422.099 5:17042.634 6:14814.506 7:11618.381 8:12285.614 9:20210.294 10:18798.726 11:10652.777 12:8181.3108 13:7541.1569 14:5637.1835 15:5425.9491 16:4712.756 17:3058.9959 18:1745.9497 19:1124.1659 20:691.32255 21:531.57331 22:281.921 23:112.3898 24:66.421488 25:51.000498 
1 1:3275613.1 2:6344.8317 3:9513.4139 4:10454.705 5:7332.9104 6:6587.3255 7:5240.7375 8:4205.0102 9:5328.2944 10:4696.7295 11:3188.1706 12:3077.6692 13:2730.1212 14:2517.5833 15:2219.9049 16:1492.4608 17:873.1174 18:746.41791 19:627.54423 20:412.15622 21:221.98465 22:126.48333 23:88.570575 24:52.807968 25:40.033823 
1 1:3298748.5 2:4905.0503 3:8240.0715 4:7860.0529 5:3335.21 6:2929.9813 7:3267.2465 8:2468.7042 9:3764.0245 10:3977.0363 11:2220.475 12:2053.2256 13:1762.679 14:1266.4963 15:1044.0365 16:934.28406 17:723.27729 18:591.08531 19:443.80432 20:299.53506 21:184.83692 22:116.77324 23:52.67202 24:21.925603 25:14.842931 
1 1:3303815.5 2:4149.8601 3:7161.6717 4:6744.4944 5:3796.7149 6:3820.3027 7:3247.2762 8:2454.6808 9:3221.9309 10:3564.7538 11:2309.1229 12:1844.8301 13:1849.2267 14:1558.3477 15:1102.093 16:711.7599 17:588.1751 18:547.16293 19:361.852 20:230.0127 21:126.59418 22:68.296612 23:47.580293 24:33.785374 25:30.775888 
1 1:3303510.4 2:7902.0089 3:9082.5111 4:6952.6483 5:2991.2277 6:2817.0407 7:3211.3825 8:3115.0585 9:3282.5728 10:3398.2116 11:2859.37 12:2012.4914 13:1521.1832 14:1610.0362 15:1273.1967 16:998.21249 17:688.2079 18:477.5791 19:339.92554 20:166.26589 21:130.91299 22:85.626136 23:38.538477 24:19.246473 25:15.982403 
1 1:3310150.1 2:4137.2962 3:6377.0072 4:5939.8544 5:2616.4483 6:2222.0419 7:3450.7261 8:4199.6255 9:3478.5679 10:2702.4315 11:2004.8808 12:1880.6318 13:1741.4328 14:1422.9838 15:1364.6406 16:1105.8861 17:557.82845 18:470.46375 19:352.84993 20:147.4917 21:116.09707 22:80.733856 23:38.174746 24:34.120702 25:32.901674 
1 1:3151891.3 2:5706.7919 3:8795.6269 4:7216.0743 5:1929.5724 6:1790.0366 7:1584.4731 8:1066.6198 9:2518.0305 10:2658.7535 11:1143.2041 12:910.75543 13:966.02707 14:830.33589 15:775.47709 16:563.5577 17:325.82315 18:293.96089 19:200.86257 20:131.93541 21:92.591069 22:65.728475 23:43.393895 24:37.587279 25:31.413892 
1 1:3153928.6 2:4740.8259 3:6277.6964 4:6292.2728 5:2920.7298 6:2233.1581 7:1563.5279 8:1261.4314 9:2461.8523 10:2714.8349 11:1596.808 12:1306.2789 13:1018.2494 14:874.03735 15:809.08715 16:655.819 17:351.57518 18:251.24775 19:228.45341 20:121.17848 21:75.882123 22:70.08393 23:43.745467 24:43.482131 25:44.271409 
1 1:3135217.6 2:5562.0894 3:7613.5474 4:7245.0104 5:3678.7267 6:3151.022 7:1811.8851 8:1549.3644 9:2677.2341 10:2711.8426 11:1060.5251 12:777.28898 13:666.75564 14:571.31999 15:772.42953 16:741.26272 17:347.12148 18:168.41956 19:88.785892 20:76.387608 21:85.785281 22:54.75138 23:25.042025 24:19.533781 25:18.732503 
1 1:3138390.7 2:6104.6753 3:7849.4778 4:6471.229 5:2487.6862 6:2768.3301 7:2120.6345 8:1272.3669 9:2604.5975 10:2394.6471 11:1201.645 12:1091.7472 13:828.84293 14:718.52918 15:608.62057 16:492.25138 17:259.31923 18:222.40501 19:190.5399 20:101.24256 21:77.095627 22:42.045526 23:17.150294 24:16.400866 25:14.967821 
1 1:3137960.1 2:6636.8439 3:8881.8195 4:7869.8988 5:2857.0534 6:2219.7055 7:1815.4336 8:1555.9602 9:3119.3715 10:2912.6189 11:1246.9789 12:876.043 13:647.8137 14:703.19331 15:605.95718 16:510.59037 17:335.65313 18:253.87088 19:166.97974 20:87.571135 21:86.928757 22:73.713675 23:50.061314 24:47.960745 25:46.39287 
1 1:3129384.9 2:3639.0186 3:7791.6022 4:7508.9644 5:2466.8989 6:1998.7993 7:1803.732 8:1521.6102 9:3118.6031 10:3333.4232 11:1613.7827 12:1166.882 13:723.00192 14:730.56131 15:818.40386 16:680.04669 17:400.96762 18:187.42921 19:114.10349 20:119.80926 21:130.68253 22:69.928494 23:22.027911 24:16.688809 25:17.102395 
1 1:3133946.3 2:4942.021 3:7113.6986 4:6394.9296 5:2499.1427 6:2923.7479 7:2071.0215 8:1397.1953 9:2906.4381 10:2548.2995 11:1052.8332 12:1001.925 13:698.90635 14:537.1179 15:557.06597 16:475.95016 17:271.79885 18:210.67381 19:142.38208 20:110.9791 21:78.973318 22:41.896093 23:19.153139 24:10.359696 25:4.4481764 
1 1:3139925.7 2:7501.0249 3:8094.8237 4:6750.3185 5:2732.1381 6:2070.353 7:1715.8965 8:1733.1654 9:3365.1604 10:3612.943 11:2092.3315 12:1585.9565 13:1224.2852 14:878.42711 15:655.68659 16:570.44925 17:256.57209 18:241.60591 19:153.06284 20:86.005466 21:90.520007 22:56.035062 23:22.458557 24:18.179633 25:14.195593 
1 1:3156562.4 2:12657.415 3:10749.547 4:7217.7491 5:5728.5583 6:3904.8385 7:2402.6101 8:3089.9141 9:5107.762 10:4979.8819 11:3029.4592 12:2295.6343 13:1293.4398 14:857.54341 15:723.11131 16:655.1222 17:544.11241 18:409.63334 19:240.28573 20:130.01471 21:68.178885 22:65.978763 23:49.738237 24:35.488708 25:32.119457 
1 1:3115620.2 2:15646.653 3:13683.239 4:7229.8923 5:5611.263 6:5668.6964 7:4190.4231 8:3111.7796 9:4003.47 10:3398.0877 11:1479.5516 12:1339.6474 13:1500.2386 14:2357.9601 15:1943.1691 16:1041.8801 17:890.32435 18:721.84202 19:512.60148 20:396.31261 21:343.49173 22:319.54961 23:307.11215 24:318.11651 25:306.41024 
1 1:2972714 2:16148.161 3:13551.806 4:10593.94 5:4472.9665 6:2833.154 7:3330.7991 8:3806.3008 9:4459.8372 10:3641.7639 11:1454.2166 12:879.59301 13:900.43011 14:1211.2965 15:1495.1605 16:1116.0217 17:807.49277 18:771.62818 19:526.48778 20:478.14083 21:474.05142 22:472.45702 23:462.55906 24:452.60724 25:452.49701 
1 1:2794073.7 2:7135.6226 3:11778.621 4:11653.477 5:5283.259 6:4154.3954 7:3608.8597 8:3369.5117 9:3907.3026 10:3167.2161 11:1258.1924 12:952.76706 13:982.22824 14:1101.8575 15:1030.5941 16:707.33867 17:452.88751 18:637.31581 19:613.3623 20:504.35388 21:506.512 22:480.89738 23:459.31936 24:453.77796 25:447.07204 
1 1:2638153.6 2:6276.6982 3:7164.7153 4:6534.6755 5:4041.5708 6:3025.9746 7:2354.6607 8:2818.8726 9:4511.6711 10:3537.3349 11:1605.9184 12:1361.8482 13:1176.5441 14:1235.1039 15:1214.0321 16:949.24695 17:511.50095 18:365.9904 19:412.40931 20:401.49222 21:352.52006 22:364.71389 23:361.4338 24:350.64345 25:349.98293 
1 1:2547290.3 2:8708.725 3:9857.6723 4:8560.35 5:4464.8852 6:3162.122 7:2934.8207 8:2737.938 9:3716.5674 10:3518.2391 11:1682.2725 12:1516.03 13:1423.7241 14:1027.1679 15:1180.1656 16:1192.7669 17:651.15132 18:382.17542 19:283.91096 20:198.77499 21:190.49354 22:213.60993 23:228.49293 24:225.01867 25:223.12593 
1 1:2485758.6 2:5966.6842 3:8679.3671 4:7256.4122 5:3437.9591 6:3094.9738 7:2999.7441 8:3295.666 9:3954.5197 10:3469.9029 11:1913.8114 12:1648.1947 13:1509.9967 14:1055.5512 15:980.83513 16:1065.6551 17:680.37758 18:424.40349 19:303.05579 20:246.36987 21:226.62404 22:175.60852 23:153.11788 24:141.90398 25:142.58975 
1 1:2456334.3 2:6626.1771 3:8707.0199 4:7094.5449 5:3813.8122 6:3632.3901 7:3612.5713 8:2991.5934 9:3170.4701 10:3326.2629 11:1604.9942 12:1099.5371 13:1527.3302 14:1377.4001 15:1001.2478 16:746.15462 17:344.03748 18:292.53211 19:271.06788 20:185.05356 21:102.23735 22:98.958515 23:92.739661 24:89.477459 25:94.35564 
1 1:2427535.3 2:6255.8506 3:7403.1253 4:6921.2882 5:3513.8134 6:2947.9434 7:2348.5497 8:2426.3291 9:2948.4336 10:2366.9272 11:1331.4623 12:1076.5819 13:1063.758 14:1641.4062 15:1497.5648 16:717.58135 17:322.26313 18:244.69726 19:177.20092 20:122.41508 21:113.80443 22:112.69946 23:78.605976 24:77.385725 25:76.37264 
1 1:2396998 2:6393.0202 3:11334.019 4:9236.8612 5:2774.8425 6:2891.6718 7:2642.2874 8:2409.8195 9:3277.213 10:2541.1896 11:960.48765 12:639.80363 13:802.08854 14:950.30474 15:739.5037 16:548.15052 17:322.96904 18:195.44857 19:123.88205 20:88.355116 21:70.630026 22:65.316203 23:50.195917 24:46.565465 25:45.102323 
1 1:2400083.5 2:4216.7455 3:7517.0302 4:6544.3041 5:2685.3186 6:2128.3327 7:2086.3816 8:1988.5856 9:3306.8728 10:3197.6619 11:1536.6397 12:1232.0449 13:855.70477 14:630.08946 15:750.95365 16:713.1602 17:329.39667 18:264.01963 19:209.70883 20:123.88425 21:79.493754 22:59.906442 23:25.28743 24:20.013997 25:18.04014 
1 1:2415159.1 2:8861.6999 3:11126.424 4:8828.4065 5:3275.9232 6:2321.8836 7:2355.4837 8:1790.8534 9:3145.567 10:2942.8119 11:1386.65 12:1571.1791 13:1269.6454 14:1057.1808 15:993.04725 16:816.93418 17:477.32782 18:289.44625 19:180.69996 20:127.89281 21:77.940681 22:62.206894 23:27.194127 24:17.757614 25:18.890572 
1 1:2415666 2:11287.454 3:14156.881 4:10503.64 5:4693.7372 6:2884.2337 7:2835.9625 8:2933.5149 9:3575.9804 10:3000.2261 11:1612.0922 12:1497.7031 13:1458.2977 14:1120.0351 15:848.2319 16:919.09447 17:552.38412 18:371.27771 19:277.14432 20:164.26332 21:99.548342 22:54.22129 23:34.693459 24:23.639201 25:22.131322 
1 1:2408876.8 2:6954.2099 3:11006.488 4:8177.8104 5:2391.4942 6:3393.0624 7:3539.4034 8:2646.4052 9:2585.3442 10:1965.8675 11:1455.3743 12:1433.8078 13:1035.9527 14:931.05266 15:991.42464 16:798.21898 17:406.71788 18:363.63995 19:261.53441 20:173.7798 21:146.67454 22:128.91618 23:90.778097 24:85.314687 25:82.770278 
1 1:2437787.4 2:8285.0503 3:9981.5355 4:7967.6851 5:4404.553 6:3405.1017 7:2700.1825 8:2108.738 9:3320.4605 10:3206.1813 11:1591.5361 12:1040.7415 13:655.38734 14:904.08379 15:1146.4646 16:910.05516 17:488.10206 18:431.21925 19:301.9566 20:122.60039 21:89.922592 22:63.485517 23:57.915574 24:60.476162 25:59.487711 
1 1:2439504.2 2:8886.5433 3:10950.201 4:6800.9411 5:3417.7181 6:3882.8428 7:3256.0724 8:2583.0496 9:3602.2079 10:3138.6426 11:1184.1917 12:1112.0844 13:1138.3982 14:1153.8069 15:968.59069 16:782.79234 17:429.35211 18:306.18899 19:283.30612 20:162.28385 21:110.03605 22:64.891248 23:37.811099 24:37.815925 25:38.514575 
1 1:2438381 2:5423.8511 3:8310.3118 4:7075.4719 5:2723.2661 6:2638.878 7:2806.4947 8:2379.1116 9:3209.6563 10:2816.3473 11:949.05532 12:654.13675 13:883.71231 14:781.54796 15:874.29505 16:841.10155 17:447.82984 18:277.85156 19:181.01245 20:125.40243 21:77.597386 22:49.767526 23:59.274443 24:51.222283 25:44.34798 
1 1:2486796.3 2:10300.26 3:11694.403 4:9617.2405 5:3856.0984 6:2410.711 7:3508.2149 8:2945.8537 9:3463.1195 10:3341.7429 11:1951.9893 12:1539.8716 13:1182.2846 14:1467.2874 15:1223.0214 16:707.06861 17:568.34726 18:561.83248 19:412.00148 20:270.68679 21:252.58969 22:195.94179 23:179.22396 24:177.53361 25:175.31962 
1 1:2582661.1 2:14394.155 3:9389.47 4:8974.159 5:5691.1388 6:4919.4118 7:4325.941 8:2934.8125 9:3469.0799 10:3997.0416 11:2785.4893 12:1940.4736 13:2224.8221 14:1709.4807 15:968.42661 16:827.76797 17:724.45153 18:561.54547 19:370.75904 20:323.61422 21:241.52134 22:213.01292 23:235.77647 24:226.97001 25:224.40045 
1 1:2627209.3 2:6820.5764 3:7893.9418 4:7234.7631 5:2907.615 6:2025.3644 7:1931.401 8:1594.706 9:2978.2158 10:2787.0608 11:1113.1073 12:1042.7017 13:1108.5899 14:988.05717 15:907.58025 16:690.1296 17:441.15937 18:276.94041 19:201.38359 20:190.88983 21:172.96408 22:185.61562 23:158.85098 24:156.16566 25:157.64465 
1 1:2673532.5 2:6950.8885 3:8326.8926 4:6908.2705 5:3822.5967 6:3777.5377 7:2866.3756 8:1695.4811 9:2208.3365 10:2743.9489 11:1648.9307 12:1046.7795 13:812.71427 14:968.98353 15:835.18873 16:634.62755 17:375.36901 18:251.304 19:214.94726 20:154.27569 21:99.810172 22:81.640636 23:84.283319 24:88.131648 25:87.963915 
1 1:2724696 2:15472.885 3:15850.289 4:17157.674 5:11413.048 6:7318.9457 7:5449.2409 8:5516.333 9:6286.8908 10:5517.6303 11:3881.745 12:3364.1873 13:2864.1872 14:2649.0621 15:1831.4423 16:1808.2097 17:1241.1891 18:606.71736 19:412.76323 20:312.67911 21:213.84664 22:141.17473 23:107.84384 24:116.07895 25:109.4626 
1 1:2744925 2:11597.759 3:13641.247 4:11912.196 5:7441.0227 6:6047.6726 7:4443.8541 8:3258.1398 9:3791.541 10:4187.0261 11:2411.857 12:1608.0353 13:1039.2665 14:853.39393 15:1250.4376 16:1159.3588 17:539.76761 18:417.63408 19:356.83642 20:214.71457 21:124.20658 22:85.123219 23:77.447476 24:87.123243 25:89.640675 
1 1:2765704.7 2:10186.165 3:9392.6517 4:6331.4328 5:3221.902 6:2834.3741 7:2743.4763 8:2293.7919 9:3116.4893 10:3044.5837 11:2087.3791 12:1618.2838 13:920.02076 14:1006.0507 15:1242.5844 16:866.52739 17:505.67649 18:343.2356 19:183.75464 20:179.57753 21:139.04758 22:80.867217 23:58.591202 24:48.27701 25:51.977612 
1 1:2790147.8 2:6741.6479 3:8711.8889 4:7413.412 5:3128.286 6:2817.2874 7:3032.1321 8:2407.76 9:2825.0787 10:2783.2637 11:1286.6578 12:827.22846 13:703.69875 14:740.12622 15:922.9734 16:715.67417 17:322.24677 18:278.24979 19:205.46243 20:185.07485 21:134.78419 22:123.86321 23:125.1925 24:114.33621 25:107.45463 
1 1:2823261.5 2:9468.6166 3:11434.82 4:8508.1604 5:3807.2895 6:3313.1776 7:2764.4893 8:2640.4956 9:3441.1559 10:2866.1076 11:1207.6156 12:1081.1168 13:1125.052 14:943.74088 15:818.57697 16:773.20426 17:465.67791 18:267.76099 19:191.25862 20:168.10989 21:144.81559 22:139.8966 23:121.26082 24:115.97299 25:111.53093 
1 1:2850185.5 2:11956.831 3:12311.246 4:9260.6619 5:4966.4107 6:3482.4612 7:3217.2096 8:3042.1456 9:3507.5582 10:2914.843 11:1979.0475 12:1411.8471 13:901.66336 14:877.41342 15:867.33084 16:578.82583 17:322.20407 18:316.66676 19:241.59189 20:166.27804 21:126.36963 22:104.9159 23:86.849482 24:89.016898 25:91.374429 
1 1:2935786.7 2:14079.309 3:17169.995 4:15761.891 5:10151.762 6:7448.6208 7:4471.9065 8:3898.7825 9:4886.2358 10:3705.5954 11:1804.1997 12:1946.1647 13:1797.0647 14:1260.244 15:997.85589 16:811.24372 17:727.23894 18:598.96173 19:401.30529 20:231.88105 21:159.17568 22:116.80285 23:84.32376 24:74.684997 25:77.999679 
1 1:2928242 2:10089.168 3:9389.1986 4:7798.4062 5:3372.7057 6:2429.0397 7:2683.1543 8:2506.2063 9:3823.2765 10:3770.6489 11:2116.6335 12:1816.4766 13:1113.6248 14:1117.8076 15:1169.8985 16:798.30854 17:596.43651 18:450.69317 19:257.91682 20:207.50018 21:169.64595 22:88.459745 23:87.185415 24:94.965416 25:95.11684 
1 1:2936360.7 2:6060.1241 3:8175.7952 4:6664.3406 5:3532.5006 6:2372.2303 7:2124.319 8:2388.6539 9:3036.0222 10:2631.1512 11:1401.6768 12:1408.7565 13:1099.2408 14:799.53875 15:657.33602 16:598.05701 17:453.28765 18:366.69086 19:268.65058 20:159.02496 21:124.3891 22:97.454383 23:94.715536 24:102.64452 25:96.655199 
1 1:2977132.9 2:7309.1259 3:9835.8332 4:9855.8988 5:6102.1005 6:5500.3118 7:5189.3397 8:4468.8737 9:4918.4818 10:4123.142 11:2898.0357 12:2566.1637 13:2642.2877 14:2528.8803 15:1846.3485 16:1312.5064 17:994.27625 18:718.16025 19:481.41402 20:424.89226 21:293.84368 22:157.90627 23:97.643377 24:74.098661 25:66.161844 
1 1:2990981 2:10686.853 3:12716.318 4:11018.805 5:5428.3295 6:3795.5661 7:4718.8452 8:4995.9856 9:5523.6051 10:5326.4114 11:3702.7297 12:2573.1832 13:2392.1256 14:2842.44 15:2251.0082 16:1680.3783 17:1306.4972 18:936.34449 19:750.39534 20:597.05379 21:373.88421 22:220.51947 23:120.94034 24:58.171067 25:33.610923 
1 1:3004166 2:6012.3124 3:8898.6809 4:7612.1976 5:2945.7702 6:2792.7386 7:2191.1558 8:1743.3614 9:2827.8754 10:2464.3502 11:1249.8155 12:1255.041 13:1141.608 14:872.97853 15:833.22797 16:712.37516 17:269.05796 18:182.90265 19:203.79611 20:114.17848 21:78.882193 22:59.556494 23:36.534174 24:31.476161 25:29.746187 
1 1:3028460.5 2:5578.3173 3:7365.4198 4:6934.2652 5:2544.803 6:2009.8222 7:2359.9476 8:2130.1255 9:3001.3958 10:3089.2325 11:1554.4774 12:1005.1572 13:944.08786 14:943.39569 15:971.89667 16:941.32627 17:592.1648 18:366.55965 19:220.70697 20:144.15266 21:109.90149 22:109.71947 23:123.78852 24:115.9042 25:118.50102 
1 1:3058518.6 2:4934.3244 3:6622.6921 4:6762.5504 5:3193.9241 6:2494.2338 7:2145.4698 8:2061.909 9:4153.5769 10:3947.3892 11:1593.1125 12:1370.1024 13:1300.0445 14:1140.2631 15:1039.8801 16:871.35206 17:523.25831 18:380.33404 19:231.30602 20:199.76264 21:152.38891 22:107.74658 23:82.318888 24:74.561984 25:79.192153 
1 1:3074361.4 2:5497.4781 3:7898.9939 4:7023.7961 5:3151.1625 6:2836.5749 7:2382.7133 8:2925.7017 9:4439.3754 10:3657.9234 11:1653.7018 12:1459.3066 13:1358.0839 14:978.99601 15:808.14182 16:900.87661 17:735.95303 18:455.14795 19:294.77986 20:154.80888 21:107.2706 22:92.218923 23:68.206227 24:52.397688 25:45.314779 
1 1:3053902.6 2:3490.5981 3:7399.3707 4:7506.5787 5:3148.4315 6:3366.4644 7:3215.4252 8:2375.7761 9:3808.1634 10:4238.5826 11:2465.7892 12:1480.6463 13:1332.3559 14:1423.5736 15:1183.9966 16:793.2844 17:510.65462 18:431.62838 19:230.67399 20:170.37788 21:117.13868 22:68.113526 23:31.220789 24:13.209829 25:4.4281417 
1 1:3065593.7 2:4017.3215 3:6161.4987 4:6581.9085 5:2747.024 6:2708.114 7:3065.1775 8:3057.3503 9:3530.9505 10:3408.5794 11:2491.4939 12:2072.7695 13:2004.6524 14:1769.4855 15:1449.1097 16:1024.014 17:447.66098 18:350.11216 19:220.52809 20:139.91651 21:125.16495 22:81.713869 23:53.188237 24:52.092327 25:48.630601 
1 1:3085101.4 2:5146.3766 3:7961.3576 4:6849.7249 5:2031.9765 6:1673.5424 7:2082.2168 8:2568.4893 9:3403.1081 10:3542.2312 11:1996.9045 12:1121.3266 13:1189.4604 14:1114.2439 15:938.87764 16:719.01872 17:350.39343 18:318.2837 19:270.51496 20:164.46986 21:138.41373 22:87.703419 23:60.119291 24:59.164548 25:56.546479 
1 1:3086983 2:3686.8967 3:6937.5851 4:6127.6784 5:1987.5722 6:3103.367 7:3428.0933 8:2705.5882 9:3615.8954 10:3336.5675 11:1804.7177 12:1436.7901 13:1047.9911 14:795.22088 15:1044.5706 16:1029.6758 17:453.12739 18:361.82368 19:243.55227 20:118.92222 21:89.918551 22:58.566097 23:37.615219 24:30.360991 25:27.382887 
1 1:3091105.1 2:4353.5182 3:7610.9186 4:7201.4182 5:2684.1359 6:1968.9175 7:1832.5068 8:1976.0517 9:3144.5733 10:2819.156 11:1493.4021 12:1291.736 13:1111.2221 14:974.50925 15:896.32319 16:786.50225 17:602.49996 18:538.40288 19:341.68161 20:154.42023 21:100.99587 22:70.682657 23:45.781216 24:29.41183 25:17.83471 
1 1:3113462.1 2:4698.1369 3:6767.0502 4:6072.3215 5:2285.353 6:1302.1657 7:794.15527 8:1107.3026 9:2464.8304 10:2559.7704 11:1318.5135 12:1189.6867 13:1037.5905 14:766.67985 15:796.93105 16:680.51511 17:428.934 18:259.01723 19:161.36153 20:124.23788 21:83.617205 22:51.838375 23:47.889449 24:44.372354 25:42.301466 
1 1:3111838.7 2:3121.0633 3:5905.2938 4:5893.4723 5:1884.7891 6:1499.5585 7:1490.8659 8:1232.5885 9:2297.4267 10:2350.617 11:844.84308 12:659.47068 13:722.29174 14:764.64125 15:876.3436 16:659.05325 17:355.1419 18:254.9107 19:168.85431 20:97.900346 21:63.15736 22:33.730049 23:18.160011 24:15.169376 25:10.432183 
1 1:3106525.7 2:3175.5975 3:6417.6181 4:5819.3762 5:1843.4388 6:1601.0283 7:1334.6012 8:1890.3011 9:2961.1211 10:2402.6455 11:1246.4328 12:1081.0995 13:873.17273 14:987.73224 15:957.81523 16:760.12139 17:455.73362 18:273.50008 19:198.76856 20:110.70095 21:75.766531 22:64.928869 23:35.950713 24:36.116559 25:31.552211 
1 1:3114451.6 2:3345.2677 3:6636.3213 4:5803.9316 5:2322.325 6:3012.3 7:2753.5146 8:3262.5926 9:4499.7217 10:3507.8535 11:1831.7676 12:1455.9299 13:1304.7507 14:1108.0112 15:1098.3291 16:880.27914 17:449.40634 18:347.805 19:274.09815 20:200.9669 21:130.3216 22:84.529525 23:55.424794 24:58.530443 25:61.102495 
1 1:3126973.3 2:7792.9689 3:12433.557 4:10197.668 5:4487.0362 6:4886.9544 7:4661.2086 8:3456.6757 9:3508.6836 10:2788.6504 11:1963.0281 12:1714.8503 13:2168.355 14:1916.9052 15:1363.4244 16:1075.6769 17:845.01491 18:659.65416 19:417.86335 20:270.2666 21:168.80724 22:91.564325 23:31.598206 24:9.326384 25:3.4396337 
1 1:3125091.8 2:4684.9905 3:8649.8638 4:8406.3058 5:3774.8589 6:2742.9762 7:3091.6722 8:3015.1738 9:3311.2291 10:2784.4187 11:1834.7482 12:1876.7124 13:2129.3953 14:1749.8605 15:1398.0756 16:1070.5886 17:566.11566 18:514.86432 19:258.21766 20:176.10484 21:142.27647 22:78.290557 23:46.053456 24:36.153146 25:36.846591 
1 1:3128290 2:6152.9933 3:7403.2996 4:7139.3314 5:3793.2021 6:3458.1994 7:2656.1639 8:3014.9998 9:4256.2519 10:3666.5667 11:3128.5357 12:3387.1324 13:2249.5034 14:1307.3079 15:1347.6784 16:1527.8337 17:1170.486 18:690.21237 19:285.95444 20:198.49001 21:221.11411 22:171.56286 23:101.68869 24:75.099986 25:68.969678 
1 1:3143285.5 2:4121.2762 3:6251.8519 4:5789.3575 5:2302.5352 6:2366.8694 7:2595.0987 8:2204.0173 9:3333.7068 10:2914.6639 11:1218.5733 12:1085.0975 13:1000.4032 14:902.74259 15:960.69834 16:948.31513 17:550.42771 18:353.19569 19:257.84672 20:181.89225 21:100.59876 22:64.570425 23:24.191709 24:21.275838 25:21.890665 
1 1:3140477.7 2:3037.6595 3:5867.3738 4:5969.3018 5:1677.6653 6:1655.0101 7:1703.5939 8:1407.0283 9:2788.1473 10:2525.7897 11:912.16333 12:801.69056 13:799.49486 14:814.71715 15:742.60242 16:593.1828 17:310.86221 18:304.44347 19:186.61005 20:117.60254 21:113.37271 22:87.747786 23:48.667467 24:46.071072 25:42.296667 
1 1:3120620.3 2:5012.0187 3:7860.2882 4:7898.5749 5:3244.8769 6:3680.2285 7:3029.9256 8:2272.4653 9:3800.1151 10:3602.5239 11:2133.2011 12:1586.0426 13:1009.9242 14:894.90782 15:884.81459 16:704.01903 17:566.36671 18:445.36538 19:218.90832 20:228.4155 21:140.35232 22:52.873645 23:25.015309 24:24.711336 25:32.253509 
1 1:3115106.9 2:10108.666 3:7772.549 4:6391.9739 5:3103.6291 6:3918.5117 7:3546.7278 8:2723.3209 9:3991.5025 10:3774.9104 11:2496.0766 12:1727.6769 13:1537.2037 14:1446.9778 15:1146.0293 16:765.92123 17:636.1631 18:517.12659 19:289.44887 20:216.33261 21:134.42014 22:72.085333 23:72.962513 24:83.695128 25:76.840404 
1 1:3099900.1 2:10734.921 3:8827.8441 4:7636.6828 5:5285.5447 6:4259.9391 7:3331.7963 8:3264.7703 9:3324.0016 10:2738.1415 11:1703.2152 12:1455.9885 13:1005.954 14:1068.3524 15:1199.4136 16:687.64401 17:393.59925 18:396.37332 19:248.06067 20:151.87558 21:120.48731 22:62.927627 23:55.166949 24:52.990904 25:53.025502 
1 1:3100495.1 2:15703.08 3:10142.739 4:8180.5263 5:4972.9641 6:4544.1838 7:4421.3178 8:4647.6578 9:4360.704 10:3552.5343 11:2251.4703 12:1484.3294 13:845.12976 14:1046.1349 15:995.04177 16:837.25988 17:615.47935 18:393.52511 19:268.2324 20:191.62081 21:143.58446 22:123.27618 23:114.11143 24:109.60164 25:106.57578 
1 1:3171850 2:32126.52 3:16867.235 4:13714.965 5:8761.0674 6:6970.5111 7:7037.1967 8:6014.7703 9:4830.8492 10:6084.5554 11:5865.3776 12:3358.4439 13:2379.0772 14:2704.9676 15:3016.8245 16:2380.1323 17:1354.059 18:1082.3636 19:1093.3285 20:720.69313 21:374.28493 22:240.743 23:157.9753 24:119.80323 25:90.712309 
1 1:3126390.5 2:8199.4468 3:10128.013 4:7861.4643 5:4342.0227 6:3868.148 7:4445.7004 8:4543.4163 9:4145.2622 10:4782.82 11:3894.6934 12:2258.0103 13:2207.2059 14:1972.9593 15:2266.472 16:2057.4175 17:1001.825 18:710.77519 19:564.55426 20:421.77158 21:222.34992 22:121.63199 23:68.624744 24:46.142826 25:40.847525 
1 1:3107172.4 2:4177.9434 3:6939.6901 4:6653.6443 5:2916.1228 6:2312.4655 7:2000.3116 8:2163.6836 9:3574.3909 10:2981.2959 11:1295.1848 12:1209.0863 13:1287.6072 14:980.19416 15:894.26153 16:813.04363 17:369.45902 18:265.81661 19:181.25055 20:115.42844 21:97.075257 22:73.413192 23:53.416258 24:46.394646 25:40.944326 
1 1:3112537.5 2:6725.2556 3:8957.3307 4:7907.0016 5:5129.6578 6:5180.1725 7:5177.5202 8:4205.8999 9:4592.3914 10:4800.4543 11:3823.2327 12:3120.4573 13:2484.0079 14:2215.1202 15:2051.5474 16:1439.6364 17:954.84052 18:783.55104 19:498.60271 20:298.90311 21:201.71498 22:133.35618 23:63.079693 24:36.240321 25:32.530692 
1 1:3141149.6 2:5384.4572 3:6986.1752 4:5902.5821 5:2833.5346 6:2891.0342 7:2869.7178 8:2488.5598 9:2700.133 10:2822.7192 11:2030.6536 12:1631.7669 13:1362.9508 14:1117.8418 15:1253.777 16:1029.3187 17:639.60038 18:434.2394 19:301.0908 20:145.37901 21:107.61697 22:87.258107 23:58.579694 24:51.838068 25:50.94819 
1 1:3129770.4 2:3122.8851 3:6038.3321 4:5422.0508 5:1277.4527 6:1296.7224 7:1503.3842 8:1510.3414 9:2479.5454 10:2282.0917 11:1058.5465 12:835.4891 13:586.46497 14:606.99659 15:810.91332 16:606.46917 17:226.99414 18:185.82406 19:178.616 20:115.41782 21:71.036523 22:56.455737 23:36.426129 24:29.578149 25:28.501872 
1 1:3131487.8 2:3322.8699 3:6389.9301 4:5873.1098 5:1644.1352 6:1288.157 7:1409.4638 8:1436.9426 9:2859.8816 10:2721.5472 11:976.05151 12:708.85968 13:768.90402 14:660.52773 15:735.82714 16:617.40989 17:283.25816 18:277.50767 19:170.2133 20:85.556788 21:61.330621 22:40.758901 23:18.439985 24:11.067687 25:4.6235201 
1 1:3142832.7 2:3588.481 3:6215.9807 4:5542.0518 5:1717.5152 6:1909.1435 7:1740.025 8:1146.6557 9:2490.4937 10:2466.165 11:969.48274 12:781.0518 13:738.56549 14:695.95583 15:753.58935 16:634.93604 17:371.64858 18:338.32594 19:210.31627 20:118.80068 21:75.408886 22:71.960719 23:56.914374 24:54.956749 25:51.7347 
1 1:3157050.9 2:3436.2385 3:6846.5298 4:6702.6439 5:2385.2035 6:2224.2036 7:1786.9459 8:1501.0552 9:2842.0801 10:2705.5166 11:989.2899 12:844.55685 13:1061.5343 14:939.54076 15:770.59991 16:623.97085 17:405.56166 18:279.4334 19:160.44432 20:114.93364 21:97.364821 22:53.604395 23:15.027841 24:11.77341 25:7.2912662 
1 1:3142184.7 2:3240.1018 3:5761.6401 4:5121.0779 5:1394.2665 6:1494.0534 7:1639.5545 8:1813.3233 9:2517.0308 10:2141.7511 11:886.4371 12:716.94216 13:725.46087 14:661.36609 15:641.1398 16:526.71578 17:318.98578 18:248.07285 19:126.93121 20:79.719496 21:58.387257 22:46.558766 23:18.149851 24:8.3727772 25:3.4078529 
1 1:3139845.3 2:2655.5098 3:6104.1952 4:5278.2054 5:967.32934 6:1198.3804 7:1225.9455 8:1181.1849 9:2303.6579 10:2112.4775 11:917.41671 12:887.36378 13:706.06996 14:482.31114 15:490.01195 16:476.39403 17:245.7044 18:194.05895 19:140.30838 20:85.874587 21:77.251902 22:48.50203 23:16.395464 24:11.91586 25:9.1483959 
1 1:3141606.3 2:2735.1836 3:5640.0876 4:5525.3069 5:1632.5462 6:1287.7067 7:1324.1541 8:1345.692 9:2499.7454 10:2505.4244 11:1000.6882 12:635.0027 13:517.22376 14:530.0235 15:608.6204 16:504.33893 17:224.83058 18:197.37192 19:159.6963 20:86.151344 21:56.323387 22:44.425528 23:22.77198 24:15.340831 25:15.525275 
1 1:3144504.8 2:2421.4297 3:5021.1522 4:5114.8504 5:1624.6552 6:1478.0351 7:1230.0006 8:1030.4675 9:2455.9815 10:2551.0137 11:865.80282 12:660.85635 13:617.04436 14:483.76056 15:612.02067 16:553.88397 17:238.94522 18:176.38466 19:126.81942 20:67.613107 21:73.796437 22:70.99041 23:49.882697 24:46.351103 25:46.872052 
1 1:3154040.5 2:4118.482 3:6259.7397 4:5925.6376 5:2136.0945 6:2061.8719 7:1505.1596 8:1336.3063 9:2860.4601 10:2553.5532 11:1105.5819 12:849.09714 13:343.11301 14:390.92161 15:565.47053 16:540.28931 17:327.75543 18:140.11488 19:91.619952 20:95.994796 21:74.909107 22:54.432287 23:20.824929 24:8.7706361 25:4.35036 
1 1:3162326.6 2:3355.1757 3:6356.0484 4:5472.2875 5:1408.7935 6:1433.6705 7:1559.66 8:1189.5286 9:2336.5904 10:2588.0195 11:1079.4334 12:624.73158 13:493.29717 14:376.88664 15:519.83177 16:558.95236 17:310.76127 18:208.00144 19:103.51529 20:71.033148 21:66.240045 22:41.318973 23:24.066584 24:25.604609 25:26.665477 
1 1:3153916.8 2:2450.2002 3:5949.4423 4:5269.9855 5:1347.0934 6:1338.9424 7:1394.8407 8:1303.813 9:2639.6451 10:2664.9079 11:889.97957 12:536.59531 13:609.04439 14:576.6187 15:592.50547 16:479.11602 17:228.97444 18:174.06161 19:93.684281 20:79.324577 21:49.158818 22:34.456379 23:15.395362 24:10.671694 25:6.5291084 
1 1:3148068.9 2:2854.7708 3:6262.261 4:5362.8248 5:1232.2833 6:1147.5447 7:1071.3747 8:1183.3685 9:2437.5851 10:2263.7713 11:856.5553 12:763.53811 13:644.84444 14:532.62402 15:640.50804 16:589.35888 17:265.50539 18:169.66005 19:104.06627 20:70.077892 21:56.226956 22:38.864568 23:29.273052 24:24.902559 25:21.121206 
1 1:3150787.5 2:2719.56 3:6116.1053 4:6818.4847 5:3622.449 6:2663.8504 7:1500.9422 8:1043.4827 9:2889.7826 10:2718.8894 11:1041.6911 12:938.79024 13:675.6606 14:439.47857 15:566.88486 16:574.55874 17:284.41907 18:166.17959 19:119.58789 20:76.473626 21:58.732389 22:47.802867 23:21.478962 24:7.4865385 25:6.8460095 
1 1:3151249.3 2:3247.8939 3:5957.454 4:5562.0796 5:1549.4325 6:1716.0876 7:1522.6089 8:1178.6247 9:2498.1598 10:2184.3005 11:878.98885 12:841.69386 13:439.26585 14:454.46713 15:594.50312 16:466.20551 17:172.49914 18:142.80056 19:120.79158 20:81.165654 21:80.351045 22:86.905607 23:66.816474 24:64.535298 25:64.133336 
1 1:3173182.2 2:3670.7725 3:5614.3886 4:4882.0199 5:1080.6688 6:982.49665 7:1144.5047 8:1090.6502 9:2497.9645 10:2611.6686 11:892.0904 12:569.72568 13:452.25733 14:438.26885 15:574.56041 16:481.14876 17:219.11178 18:154.66466 19:123.21515 20:97.483948 21:66.877779 22:43.167142 23:20.283626 24:14.576709 25:12.221156 
1 1:3156092.2 2:1995.6598 3:5062.7137 4:4957.2597 5:1086.2524 6:1110.6959 7:877.38765 8:582.78317 9:2087.815 10:2240.5524 11:886.10359 12:718.49455 13:491.3546 14:364.82502 15:505.91167 16:543.24987 17:253.51789 18:177.5441 19:143.31342 20:69.424237 21:47.508926 22:43.905886 23:36.183901 24:31.588329 25:29.521175 
1 1:3152851.1 2:1758.9673 3:4866.2995 4:4924.8061 5:1634.6553 6:1331.0778 7:1023.6304 8:795.71783 9:2096.0606 10:2169.6437 11:689.67118 12:545.19769 13:550.04787 14:651.90935 15:774.94145 16:555.33039 17:235.4823 18:187.68498 19:89.989003 20:67.438178 21:60.827676 22:37.883847 23:13.809224 24:8.8198195 25:5.5722089 
1 1:3152289 2:2748.94 3:5846.5925 4:5532.6415 5:1576.1737 6:1472.3364 7:1235.9316 8:945.50426 9:2221.8125 10:2224.2478 11:832.75241 12:616.87903 13:508.13273 14:495.73413 15:498.23094 16:377.42024 17:174.83836 18:161.2133 19:130.52133 20:69.890479 21:48.666697 22:35.236085 23:13.694676 24:8.3016407 25:8.2749762 
1 1:3155827.9 2:2177.2868 3:5437.2752 4:5101.4088 5:1215.4286 6:1232.0929 7:1094.3517 8:1090.5171 9:2398.1635 10:2277.9602 11:759.2347 12:513.77606 13:477.15737 14:420.4335 15:444.12537 16:422.19582 17:146.06047 18:115.49695 19:119.13291 20:89.645742 21:84.733166 22:67.071987 23:59.006228 24:59.334393 25:56.305195 
1 1:3169044.6 2:2065.5551 3:5430.5476 4:5121.0924 5:1102.5832 6:961.59174 7:992.85296 8:1035.7746 9:2281.4109 10:2141.2222 11:745.02512 12:584.73736 13:377.86595 14:420.91304 15:566.3999 16:403.4845 17:156.12404 18:160.75201 19:122.11655 20:56.88628 21:45.731097 22:40.430927 23:16.044793 24:7.5638709 25:4.702017 
1 1:3159362.3 2:2023.2741 3:4767.9001 4:4446.037 5:788.46415 6:971.763 7:976.73894 8:985.41948 9:2254.2404 10:2205.2986 11:678.34202 12:336.45404 13:457.86274 14:573.04517 15:575.7172 16:566.27261 17:260.84789 18:134.29458 19:97.781789 20:73.900919 21:85.64013 22:66.215178 23:48.688974 24:49.630964 25:47.604692 
1 1:3161141.9 2:2194.42 3:5007.4026 4:4986.4018 5:1015.2903 6:929.08956 7:1068.7948 8:993.68674 9:2111.6481 10:1985.1081 11:619.55262 12:492.78817 13:496.35416 14:477.82713 15:552.7423 16:474.7916 17:179.17196 18:95.577293 19:102.69407 20:72.843438 21:65.38785 22:55.14951 23:28.591497 24:23.589736 25:22.06318 
1 1:3159788.1 2:2263.5622 3:5545.2159 4:5356.7643 5:1451.7666 6:1299.542 7:1080.7763 8:889.86618 9:2171.3179 10:2176.9221 11:788.08476 12:583.45939 13:414.58552 14:377.55044 15:521.82639 16:507.3298 17:254.18555 18:184.39443 19:82.344173 20:57.637401 21:60.029927 22:37.610873 23:16.198488 24:8.6687662 25:7.1399536 
1 1:3163744.7 2:2315.7465 3:5547.9187 4:5306.1629 5:1406.0904 6:1357.4338 7:849.7441 8:797.33131 9:2356.2263 10:2240.7778 11:717.43844 12:632.44483 13:579.20193 14:493.68069 15:614.17177 16:461.24618 17:210.74285 18:190.33333 19:122.94984 20:87.324146 21:61.37454 22:41.158318 23:14.187658 24:8.1087721 25:4.7137624 
1 1:3166444.2 2:2349.9158 3:5918.2179 4:5720.2243 5:1766.2421 6:1417.3741 7:876.67002 8:791.93877 9:2169.4887 10:2247.0376 11:722.04235 12:486.97329 13:418.93677 14:433.33081 15:525.98451 16:439.85741 17:192.77939 18:123.56663 19:103.04162 20:78.982021 21:61.698358 22:40.433275 23:18.871941 24:17.300862 25:19.911663 
1 1:3164632.4 2:2834.1414 3:6343.5815 4:5556.2658 5:1644.134 6:1851.9504 7:1693.1637 8:1249.4269 9:2503.7262 10:2202.481 11:638.80481 12:838.27721 13:840.40424 14:677.23118 15:626.56247 16:454.20518 17:249.40262 18:224.56105 19:119.68754 20:76.760374 21:75.216722 22:50.543948 23:29.550627 24:22.071212 25:20.232109 
1 1:3164767.8 2:2212.0385 3:5382.4378 4:5202.1872 5:1405.5145 6:1269.5426 7:1270.7775 8:1357.2715 9:2562.4642 10:2368.4971 11:849.36568 12:779.21443 13:683.8785 14:574.53394 15:606.42706 16:508.63951 17:241.8587 18:149.1711 19:101.67557 20:68.199467 21:60.982471 22:43.808892 23:18.59247 24:10.110974 25:7.026355 
1 1:3163930.6 2:1803.6457 3:5549.7792 4:5182.3298 5:1174.6073 6:984.33269 7:792.63334 8:1190.2841 9:2591.6516 10:2155.3719 11:637.54948 12:703.84266 13:639.48844 14:426.82195 15:444.04625 16:419.38983 17:208.89186 18:173.92065 19:96.566408 20:62.454953 21:63.958075 22:46.492768 23:36.945495 24:42.235788 25:38.357487 
1 1:3172678.1 2:2194.5577 3:5383.3994 4:5008.2473 5:777.96284 6:928.58895 7:955.50555 8:919.62954 9:2253.2929 10:2119.6597 11:656.24641 12:581.91931 13:555.45783 14:372.72437 15:526.70244 16:526.6603 17:175.42553 18:135.92094 19:113.58932 20:69.02788 21:54.855298 22:41.555777 23:22.897619 24:20.709714 25:17.874426 
1 1:3185604.3 2:1613.5809 3:5127.9734 4:5202.4438 5:1219.9484 6:1036.2896 7:740.5677 8:818.08443 9:2333.8223 10:2213.2212 11:743.49255 12:574.12243 13:540.10794 14:458.91095 15:571.12936 16:440.63622 17:109.27743 18:122.02833 19:103.85627 20:75.064438 21:60.084535 22:37.325064 23:15.636101 24:9.6107924 25:5.100269 
1 1:3168127.5 2:1485.1457 3:5248.1269 4:5212.6578 5:1170.6292 6:1064.9515 7:966.30626 8:804.11814 9:2022.8034 10:1933.1972 11:516.83201 12:418.40851 13:515.30464 14:499.21067 15:466.97909 16:391.61571 17:248.2517 18:193.62919 19:108.16051 20:74.183026 21:59.814817 22:46.291227 23:30.131717 24:31.390356 25:32.828823 
1 1:3161074.4 2:2059.1327 3:5265.9894 4:5195.2272 5:1207.3542 6:1093.2898 7:1233.1204 8:962.89403 9:2149.8095 10:2262.9815 11:786.14171 12:467.78143 13:402.66866 14:380.95698 15:501.7033 16:478.27425 17:168.59113 18:133.99856 19:113.47054 20:77.909067 21:59.743229 22:52.811135 23:35.575168 24:35.362305 25:34.074654 
1 1:3158933.6 2:1972.6064 3:5602.9304 4:5316.3334 5:1620.9868 6:1136.8534 7:1121.8395 8:1114.4668 9:2276.4365 10:2054.9928 11:601.64348 12:467.57986 13:376.52265 14:409.74011 15:492.57554 16:422.06568 17:163.98669 18:142.43583 19:125.53464 20:87.264251 21:68.00899 22:46.563151 23:13.771209 24:9.0734963 25:8.018639 
1 1:3161596.5 2:1979.1378 3:5330.9986 4:5233.084 5:1169.1608 6:1123.296 7:1303.5712 8:1219.1771 9:2266.0237 10:2277.9666 11:915.69801 12:664.24137 13:470.42015 14:383.68898 15:585.38791 16:563.83608 17:237.37754 18:162.89407 19:113.28069 20:71.053862 21:55.438186 22:36.721721 23:10.574381 24:7.2653065 25:4.76016 
1 1:3161121.2 2:1989.1184 3:5364.8594 4:4856.2609 5:1097.7425 6:1087.2188 7:1115.6795 8:1022.5935 9:2254.6642 10:2108.0775 11:549.08303 12:372.33618 13:429.41344 14:558.45596 15:647.77518 16:477.72115 17:186.52993 18:153.79189 19:94.196937 20:58.97714 21:62.053416 22:46.330464 23:22.787121 24:18.670899 25:14.969093 
1 1:3162152.5 2:2556.072 3:5034.1247 4:5147.8835 5:1438.0829 6:1276.3465 7:1223.7099 8:929.48176 9:2134.7066 10:2187.1649 11:658.17072 12:469.78108 13:394.05494 14:389.41698 15:498.37218 16:423.02747 17:250.38665 18:181.27283 19:97.838146 20:50.013827 21:43.735951 22:33.873004 23:15.553032 24:14.089926 25:11.373383 
1 1:3161306.9 2:1952.9271 3:4989.7371 4:4782.5629 5:855.57924 6:1098.2611 7:903.21738 8:762.18851 9:2055.646 10:1917.7026 11:460.0505 12:462.68232 13:462.82212 14:316.64143 15:462.45364 16:436.08748 17:249.89365 18:215.14597 19:107.1346 20:61.565333 21:44.51364 22:34.535745 23:16.549557 24:11.065334 25:10.760652 
1 1:3162236.1 2:1993.2402 3:5019.0101 4:4770.4117 5:774.98837 6:823.2829 7:746.85547 8:763.03622 9:2145.9425 10:1942.6941 11:447.80649 12:490.98716 13:515.23849 14:409.40459 15:544.68499 16:515.65024 17:234.71011 18:174.44423 19:127.66845 20:70.784871 21:41.222513 22:34.761299 23:13.907504 24:11.296932 25:7.2945833 
1 1:3164076.7 2:1943.5933 3:5089.7029 4:5304.3938 5:1040.9447 6:912.98736 7:1104.9962 8:979.70062 9:2236.9778 10:2177.0209 11:729.79258 12:445.12425 13:314.55336 14:322.77723 15:512.06763 16:514.04286 17:229.74258 18:147.82416 19:101.75939 20:55.177018 21:56.888428 22:49.890133 23:25.143132 24:22.504385 25:21.133233 
1 1:3164213.5 2:2830.4099 3:5561.5926 4:4814.4124 5:1305.517 6:1293.304 7:691.0144 8:570.6592 9:2020.4866 10:2165.7131 11:852.3089 12:642.14058 13:460.62417 14:403.65488 15:533.1655 16:481.92289 17:211.13343 18:148.72936 19:99.961648 20:54.992908 21:51.254794 22:39.53414 23:14.211168 24:8.9547084 25:4.3490569 
1 1:3166947.9 2:1632.7045 3:4747.1907 4:4885.5886 5:1279.9077 6:1105.452 7:1023.0996 8:1010.5417 9:2185.0068 10:2010.8402 11:593.13421 12:480.24598 13:379.79885 14:298.1318 15:538.09893 16:581.00825 17:205.16251 18:115.3281 19:122.63312 20:80.703706 21:55.396597 22:43.91499 23:28.832039 24:23.957514 25:23.237537 
1 1:3168936.1 2:2234.0194 3:5486.8025 4:4704.0318 5:821.95629 6:844.47831 7:762.0812 8:684.28405 9:2193.7208 10:2022.1286 11:550.29479 12:508.37864 13:412.41802 14:321.88512 15:517.24988 16:492.02835 17:157.98271 18:85.835309 19:71.220793 20:69.559047 21:51.790032 22:34.702376 23:22.893817 24:20.04187 25:21.793911 
1 1:3171797.7 2:1706.4182 3:5140.0081 4:5246.6815 5:1301.5774 6:1240.6768 7:1144.5251 8:1031.0332 9:2247.4362 10:2169.0734 11:736.79295 12:564.71136 13:411.24861 14:363.67074 15:540.58334 16:479.9437 17:236.33036 18:182.87681 19:96.583183 20:67.837378 21:49.336301 22:35.481783 23:16.839232 24:14.240839 25:13.555785 
1 1:3169800.1 2:2649.5687 3:5394.8989 4:4880.6311 5:993.56833 6:1152.7447 7:1232.4571 8:1139.5823 9:2462.603 10:2358.3793 11:748.21557 12:593.14857 13:584.12215 14:398.04301 15:500.60968 16:507.46988 17:191.54367 18:111.71232 19:76.079155 20:67.964858 21:56.39971 22:39.27006 23:23.151092 24:18.02466 25:14.629713 
1 1:3169234.1 2:2007.3308 3:5969.1455 4:5348.8781 5:946.55584 6:962.36014 7:999.48487 8:1044.9294 9:2643.1899 10:2417.9157 11:662.74231 12:385.3293 13:226.18051 14:347.37284 15:564.06141 16:407.98239 17:172.76645 18:144.05163 19:106.71533 20:67.681077 21:51.427496 22:35.907624 23:10.015455 24:5.4513794 25:2.4642531 
1 1:3169488.2 2:2777.0315 3:5212.4755 4:4929.7279 5:1226.9711 6:970.86799 7:1031.961 8:1121.4688 9:2291.6817 10:2249.7789 11:683.34933 12:514.47628 13:460.30428 14:352.0414 15:496.38311 16:486.92058 17:190.8313 18:135.11037 19:89.200718 20:62.632014 21:60.662969 22:43.156293 23:20.321035 24:22.190352 25:20.972417 
1 1:3176240.9 2:2969.9802 3:5951.6527 4:5292.1348 5:1439.8349 6:1311.9015 7:947.17698 8:773.33588 9:2242.4859 10:2229.477 11:725.23739 12:557.68374 13:504.6729 14:493.54154 15:506.10921 16:441.40903 17:196.55147 18:113.41484 19:90.767844 20:75.959757 21:64.3304 22:54.49779 23:34.917312 24:32.805668 25:31.10281 
1 1:3187728.1 2:1992.3347 3:5643.3471 4:5547.6802 5:1526.4747 6:1224.3241 7:839.94814 8:1019.8969 9:2708.2569 10:2548.2437 11:793.49326 12:686.01022 13:785.87492 14:696.40966 15:659.4007 16:564.45525 17:260.14553 18:236.40252 19:199.30996 20:105.95431 21:50.315609 22:32.250074 23:13.995037 24:8.5673244 25:3.6729251 
1 1:3182709.5 2:2043.064 3:5548.1138 4:5476.7468 5:1259.2336 6:1079.4395 7:894.54153 8:794.2809 9:2205.0646 10:2013.7191 11:598.97183 12:644.33756 13:567.02091 14:643.54795 15:706.57692 16:488.4215 17:175.19303 18:149.7184 19:112.79901 20:47.981994 21:49.86236 22:37.400345 23:11.838033 24:9.0915132 25:7.2741653 
1 1:3186228.8 2:1628.5744 3:5254.469 4:5312.1951 5:1465.2545 6:1735.2974 7:1495.5067 8:1080.0595 9:2260.0548 10:2223.2336 11:950.40027 12:713.06935 13:649.42019 14:661.68426 15:767.35575 16:538.91629 17:208.72683 18:211.7312 19:152.34652 20:94.240784 21:63.619012 22:57.639467 23:36.605325 24:32.607333 25:32.077536 
1 1:3187619.8 2:3532.8739 3:7617.8539 4:7257.1285 5:2746.4519 6:2190.7392 7:1784.5569 8:1690.6302 9:3933.5819 10:3698.9408 11:1808.0304 12:1743.5619 13:1221.9412 14:1053.6506 15:1030.3014 16:684.76506 17:394.273 18:314.97367 19:258.73505 20:197.18119 21:115.19659 22:60.268712 23:24.209322 24:10.839166 25:4.7851667 
1 1:3208838.8 2:5244.8109 3:8440.0219 4:8282.5046 5:3678.3788 6:3947.1063 7:3407.4112 8:2549.2115 9:3831.5649 10:4016.6688 11:2566.2512 12:1602.0116 13:1198.863 14:1038.4248 15:757.71803 16:747.05162 17:727.06754 18:541.88396 19:343.2667 20:181.68703 21:110.10261 22:73.510181 23:34.777667 24:25.932922 25:29.89073 
1 1:3211531.1 2:6493.5743 3:9736.232 4:7726.1132 5:4704.558 6:4439.9225 7:3176.2283 8:3259.3261 9:5253.1694 10:4197.6262 11:2791.7258 12:2666.5601 13:1744.1028 14:1236.5378 15:1374.0807 16:1272.3646 17:651.69093 18:607.60327 19:451.76823 20:249.54666 21:150.59887 22:74.02471 23:38.968152 24:29.655754 25:19.392806 
1 1:3196448.2 2:6808.7724 3:8020.35 4:6462.6566 5:4379.6583 6:5428.9156 7:5509.6271 8:3761.1513 9:4584.8866 10:4236.1435 11:2657.0732 12:2589.3676 13:2169.6797 14:1869.7077 15:1666.2969 16:1111.1039 17:774.46003 18:529.00289 19:313.78319 20:305.76685 21:197.32204 22:110.30057 23:63.512731 24:49.805712 25:46.96498 
1 1:3191441.5 2:6229.7969 3:7945.5934 4:6627.4875 5:2387.0908 6:3150.2905 7:3460.6753 8:3316.4128 9:4099.6508 10:3961.5349 11:2212.2937 12:1738.879 13:1795.0965 14:1576.2701 15:1339.1671 16:1028.8238 17:749.48172 18:590.36991 19:484.7603 20:337.48447 21:161.99183 22:80.191628 23:47.974261 24:22.227194 25:8.3708812 
1 1:3194134.6 2:3644.4752 3:7461.1237 4:6993.8553 5:3334.2302 6:3144.1156 7:3279.4611 8:2707.6093 9:3011.7056 10:3089.5813 11:1995.3937 12:1410.9376 13:1531.4353 14:1712.0648 15:1506.0918 16:1204.6894 17:742.98397 18:409.49386 19:290.39199 20:220.87973 21:125.9663 22:85.885076 23:55.145021 24:33.388993 25:28.363306 
1 1:3195674 2:3033.9598 3:5586.0595 4:5744.0676 5:2051.5928 6:1493.6936 7:1813.8698 8:1622.8993 9:2552.6126 10:2468.3404 11:1214.678 12:959.72596 13:794.85664 14:920.61358 15:1014.7268 16:814.43826 17:390.58892 18:245.7991 19:181.9072 20:151.46778 21:91.474922 22:81.01336 23:60.869719 24:51.946531 25:52.834423 
1 1:3175982.8 2:2368.0891 3:5062.3687 4:5171.7638 5:1728.269 6:1367.855 7:1498.1272 8:1314.2396 9:2187.9528 10:2203.847 11:834.97106 12:509.7183 13:579.07834 14:755.10787 15:838.98192 16:618.04845 17:279.57419 18:201.31611 19:154.34955 20:110.93402 21:72.116209 22:46.604445 23:24.02749 24:15.30105 25:11.075256 
1 1:3192371 2:2740.1381 3:6298.5974 4:5622.7798 5:1479.0352 6:1068.9494 7:1095.9289 8:1294.4306 9:2520.7001 10:2775.4206 11:1207.8402 12:839.20216 13:695.71521 14:706.11943 15:810.59584 16:617.89761 17:480.89569 18:346.70535 19:208.45567 20:124.98178 21:71.620613 22:53.880442 23:35.914028 24:29.757266 25:30.65365 
1 1:3193714.8 2:1596.5502 3:4437.5577 4:4348.3815 5:1190.395 6:1462.8937 7:1259.2428 8:960.52598 9:2325.1806 10:2266.0581 11:914.64687 12:831.11947 13:662.60958 14:671.24565 15:625.34388 16:514.8079 17:334.51031 18:240.98001 19:159.14972 20:127.46469 21:98.894666 22:50.768686 23:19.821293 24:18.772231 25:17.887073 
1 1:3194920.8 2:1626.1157 3:4494.0797 4:4314.1715 5:1815.4855 6:2275.3472 7:1751.8731 8:1125.1809 9:2217.5768 10:2239.4169 11:953.98923 12:779.97591 13:776.47147 14:728.51434 15:740.47154 16:741.68529 17:411.978 18:221.93247 19:151.17106 20:93.730225 21:75.762605 22:53.623822 23:15.845627 24:11.7775 25:6.7983611 
1 1:3193037.4 2:1539.5173 3:5116.3208 4:5397.2839 5:2177.8022 6:1722.1499 7:1394.2214 8:1636.1029 9:2960.8134 10:2551.5037 11:848.2239 12:689.81361 13:672.17826 14:641.51915 15:835.69955 16:758.38853 17:348.66855 18:227.42754 19:103.11856 20:67.400659 21:63.596192 22:50.722871 23:28.736345 24:27.869851 25:29.927531 
1 1:3191801.8 2:1971.226 3:5456.4458 4:4998.1279 5:1011.4913 6:900.33567 7:1029.2107 8:1114.209 9:2313.9741 10:2189.4612 11:823.38166 12:626.74135 13:491.66275 14:556.67795 15:708.42141 16:540.55753 17:326.45276 18:263.14218 19:127.29207 20:67.384805 21:53.230002 22:45.144498 23:28.560853 24:21.471443 25:19.478599 
1 1:3192269.5 2:2108.2375 3:5181.2064 4:4950.0504 5:1262.1763 6:1337.3788 7:1145.4005 8:1108.3956 9:2683.0633 10:2609.4486 11:888.4827 12:634.17875 13:625.84406 14:740.4959 15:810.07236 16:547.67185 17:260.56226 18:195.14953 19:116.21067 20:79.042877 21:85.551733 22:71.830978 23:39.59165 24:36.308233 25:39.544201 
1 1:3197282.4 2:2191.9833 3:5819.0208 4:5264.1837 5:1283.9748 6:1544.7572 7:1561.2016 8:1299.6993 9:2608.6207 10:2462.1805 11:1002.0159 12:640.1858 13:387.52079 14:473.01696 15:530.20463 16:454.31919 17:293.9775 18:250.15851 19:139.87562 20:57.032512 21:54.372265 22:44.5078 23:14.180361 24:6.7803999 25:3.2645516 
1 1:3192763.1 2:2133.4468 3:5539.5555 4:5268.8572 5:1156.6337 6:1224.4908 7:1232.7008 8:1306.7327 9:2742.6825 10:2348.1844 11:805.04177 12:637.06347 13:435.79961 14:368.25809 15:624.4456 16:544.37578 17:180.84581 18:160.5267 19:130.51988 20:104.46912 21:95.712223 22:59.076902 23:15.018427 24:6.9574437 25:3.1690093 
1 1:3192705.8 2:2508.2143 3:5301.3267 4:5118.7261 5:1112.2377 6:930.69855 7:712.82902 8:692.41617 9:2151.835 10:2193.8817 11:964.31896 12:979.82133 13:730.55571 14:527.80028 15:531.19861 16:408.86364 17:249.36667 18:207.50115 19:101.16332 20:64.585227 21:59.843283 22:38.747516 23:13.532676 24:10.487897 25:7.1503501 
1 1:3191631.6 2:3445.1871 3:6595.7356 4:6518.9818 5:1556.6852 6:1378.2276 7:1351.8966 8:1092.8015 9:2453.0921 10:2428.7629 11:743.7697 12:525.89236 13:494.02781 14:474.99781 15:739.76862 16:592.5355 17:334.27909 18:240.2041 19:140.75033 20:95.281962 21:67.729101 22:63.516693 23:48.215131 24:42.26634 25:40.263974 
1 1:3184295.5 2:4414.7669 3:6772.8556 4:5939.143 5:2289.8432 6:1745.7403 7:1459.5677 8:1525.6191 9:2785.0948 10:2504.2903 11:905.835 12:775.76417 13:617.36161 14:606.36552 15:642.36576 16:543.71148 17:283.79808 18:236.81809 19:224.10956 20:150.79053 21:115.57992 22:97.35092 23:74.73175 24:70.050796 25:69.760442 
1 1:3224084.7 2:7953.8984 3:8630.2274 4:7310.2646 5:3863.7828 6:3743.0383 7:3665.0883 8:2693.4096 9:3154.1687 10:2658.8929 11:1344.1542 12:1160.0954 13:933.87162 14:842.11895 15:919.52371 16:850.80906 17:521.42017 18:321.92124 19:206.87366 20:172.44015 21:121.9173 22:78.09188 23:39.383747 24:33.178054 25:25.853796 
1 1:3201746.6 2:3586.842 3:6596.8964 4:5764.4579 5:1498.9215 6:1276.9291 7:1859.1522 8:2038.9825 9:3036.8643 10:2747.5536 11:1316.334 12:1320.1895 13:1036.1479 14:814.64822 15:828.43089 16:719.4715 17:370.14213 18:235.96916 19:167.94103 20:141.3778 21:96.062687 22:75.024382 23:66.474224 24:61.962716 25:60.422744 
1 1:3208877 2:3691.8561 3:6759.1837 4:6073.1271 5:1855.1429 6:1516.1061 7:1014.8091 8:1403.379 9:3385.4743 10:3072.308 11:1261.4775 12:916.67016 13:915.53019 14:818.08551 15:534.59565 16:510.74506 17:389.28015 18:272.65168 19:168.49277 20:107.29976 21:70.661714 22:57.830931 23:39.125726 24:30.989624 25:26.599446 
1 1:3213481.6 2:3385.8089 3:6098.9746 4:6052.8181 5:2189.4939 6:1432.2547 7:1032.5888 8:854.38339 9:2579.3629 10:2658.676 11:1023.611 12:744.70739 13:591.85289 14:554.21952 15:619.89977 16:596.05073 17:322.92216 18:255.89152 19:156.4273 20:93.466894 21:70.394749 22:44.629869 23:17.482707 24:11.951757 25:10.622376 
1 1:3219560.3 2:3633.6103 3:7087.7687 4:5866.0453 5:1450.5081 6:1497.8587 7:1389.2288 8:1250.155 9:2860.6098 10:2714.748 11:894.78872 12:739.72504 13:727.14921 14:637.36914 15:739.11189 16:601.73568 17:248.08456 18:205.8366 19:157.9768 20:93.885356 21:61.636603 22:48.622226 23:21.565291 24:9.0526962 25:8.3290668 
1 1:3220831.6 2:3382.0807 3:6466.6821 4:6038.6788 5:2008.0526 6:1778.4191 7:1875.5365 8:1890.12 9:2765.2456 10:2278.3519 11:1206.4703 12:1057.2925 13:706.29766 14:746.28852 15:828.97949 16:706.68271 17:306.70041 18:258.37654 19:178.19942 20:98.726872 21:102.96685 22:79.107578 23:49.212121 24:40.831378 25:42.849575 
1 1:3226277 2:6282.6375 3:8662.1441 4:7985.6317 5:3205.1725 6:2314.6728 7:1705.3607 8:1681.1286 9:2993.9884 10:2607.9633 11:944.36981 12:590.51128 13:625.62916 14:668.91667 15:812.95773 16:639.44993 17:342.76679 18:332.99338 19:178.47402 20:126.0901 21:96.541134 22:53.598272 23:22.774171 24:15.488399 25:11.434989 
1 1:3225130.7 2:7047.8768 3:7167.7154 4:6828.7266 5:3930.5094 6:2933.235 7:2734.0997 8:2577.953 9:3501.1511 10:2974.7853 11:1233.5015 12:1051.1324 13:718.25628 14:817.35284 15:1061.6643 16:714.10416 17:192.08294 18:185.33062 19:173.29847 20:149.27766 21:133.29759 22:81.102733 23:48.641422 24:52.123112 25:43.815643 
1 1:3239909.6 2:5184.827 3:7464.8462 4:7185.4841 5:2837.8872 6:2203.181 7:1873.6316 8:2043.2091 9:3605.6181 10:2862.1508 11:932.98032 12:1075.9331 13:1044.6452 14:938.00336 15:717.3353 16:465.22633 17:407.7209 18:370.85267 19:216.69737 20:154.61199 21:105.79281 22:51.785419 23:27.067171 24:22.686946 25:18.635265 
1 1:3229626.3 2:4623.7755 3:6970.1138 4:6882.2493 5:3384.004 6:2450.7541 7:1602.1796 8:1568.4468 9:3088.1704 10:2808.5023 11:1480.6722 12:1346.8229 13:944.98876 14:695.23577 15:767.46761 16:736.38375 17:459.52982 18:383.1791 19:235.21151 20:160.12879 21:117.85213 22:74.90694 23:74.115081 24:78.839351 25:77.878175 
1 1:3209133.7 2:3215.8074 3:6953.424 4:6756.1492 5:1971.2118 6:2249.0666 7:2156.3346 8:1491.7019 9:3188.4205 10:3286.6579 11:1332.5914 12:878.83938 13:669.31633 14:522.42377 15:762.24608 16:699.66646 17:387.63593 18:216.77013 19:140.11561 20:114.91424 21:97.81053 22:76.837692 23:33.399172 24:27.282106 25:29.679326 
1 1:3206257.1 2:5486.1139 3:7245.9843 4:5924.8829 5:2951.7185 6:2797.9009 7:2493.5632 8:2084.1512 9:2776.8864 10:2444.0805 11:1035.3668 12:964.48421 13:926.8648 14:797.94742 15:751.82415 16:675.81869 17:406.25635 18:256.80167 19:168.13044 20:130.97943 21:90.267129 22:54.740793 23:24.194203 24:11.485724 25:6.8104316 
1 1:3208371.7 2:5989.1689 3:7507.1052 4:5974.6703 5:2240.6332 6:1953.4355 7:2533.332 8:2134.2712 9:2871.2907 10:2969.0505 11:1548.7988 12:1351.0716 13:937.96328 14:671.67964 15:834.20092 16:735.81757 17:442.15673 18:347.99809 19:239.99868 20:147.20208 21:98.877486 22:64.987968 23:26.791804 24:18.170622 25:12.625492 
1 1:3222800.6 2:5472.6975 3:7118.2851 4:6166.6688 5:2556.7223 6:2916.5631 7:1809.1061 8:1988.4307 9:3510.1564 10:2869.3642 11:1344.0174 12:1007.7589 13:781.68691 14:868.41554 15:785.79296 16:658.73035 17:446.55296 18:282.62482 19:202.109 20:104.5065 21:87.585496 22:67.528407 23:36.912849 24:33.363968 25:32.685133 
1 1:3229163.4 2:4248.089 3:6908.6792 4:6097.1178 5:2245.6922 6:1776.9801 7:1480.4943 8:1667.2384 9:2940.301 10:2583.2855 11:1195.8867 12:1098.0615 13:818.37766 14:744.56763 15:747.46639 16:673.4352 17:438.87594 18:246.17753 19:134.22586 20:98.611142 21:79.632584 22:44.119662 23:17.815314 24:13.906755 25:10.735562 
1 1:3223246.4 2:4635.0626 3:6713.1151 4:6588.0315 5:2526.5001 6:1950.1709 7:1753.0477 8:1941.0266 9:2942.9317 10:2948.645 11:1396.2291 12:795.98271 13:753.26684 14:715.54392 15:560.08861 16:503.05897 17:292.67758 18:163.92383 19:114.73271 20:79.086288 21:58.467328 22:39.176151 23:19.631732 24:22.819946 25:23.375462 
1 1:3213025.4 2:3192.9964 3:6374.6125 4:5840.7727 5:2003.2398 6:1602.2739 7:1485.7214 8:1304.1293 9:2507.5504 10:2508.025 11:861.06235 12:672.39335 13:617.5934 14:461.71658 15:507.14731 16:495.94261 17:373.378 18:308.8319 19:166.72617 20:108.06852 21:67.177933 22:39.898242 23:24.060868 24:15.404493 25:10.684974 
1 1:3205625.7 2:4332.2706 3:7188.2416 4:6089.4311 5:1604.1527 6:1949.2307 7:1785 8:1167.0318 9:2670.9098 10:2592.9717 11:682.53684 12:499.58092 13:462.84044 14:481.03492 15:600.65985 16:553.78295 17:275.21763 18:224.68486 19:152.18874 20:109.26524 21:88.473497 22:48.680324 23:23.76599 24:16.751663 25:17.687703 
1 1:3209560.8 2:2306.5304 3:5932.0791 4:5950.1294 5:1933.5999 6:1620.6298 7:1569.143 8:1769.9053 9:3145.9719 10:2600.3783 11:1211.3361 12:1050.2982 13:530.30942 14:449.18723 15:604.01931 16:545.09745 17:314.77607 18:248.94524 19:171.69764 20:70.891303 21:56.499358 22:46.415944 23:24.721458 24:21.76602 25:19.829658 
1 1:3224842.1 2:3132.32 3:6331.096 4:6276.6404 5:2209.4241 6:1846.0533 7:1467.0414 8:1333.9792 9:2598.5469 10:2332.0718 11:1056.433 12:983.08708 13:724.82439 14:571.40298 15:622.40714 16:559.68472 17:234.75005 18:209.45911 19:158.19179 20:81.044078 21:57.01122 22:60.454199 23:55.225341 24:55.017173 25:51.864491 
1 1:3230665.5 2:2545.8294 3:7127.9573 4:7154.3557 5:2148.1004 6:2012.4623 7:1634.1329 8:1370.6734 9:2634.1505 10:2695.6306 11:1252.4436 12:771.51338 13:804.90728 14:684.47655 15:702.78463 16:642.20687 17:287.78415 18:255.54022 19:171.28057 20:86.021973 21:63.265932 22:44.141071 23:23.132707 24:10.931896 25:4.2224275 
1 1:3235786 2:2707.9923 3:5969.3654 4:5738.6043 5:2404.1889 6:1895.702 7:1657.646 8:1648.1452 9:2591.9752 10:2574.9347 11:1233.0571 12:912.92734 13:775.68244 14:680.6889 15:739.18482 16:573.91185 17:249.14496 18:226.75903 19:145.74897 20:109.6481 21:86.04979 22:55.431182 23:36.327503 24:32.793289 25:35.904213 
1 1:3228376.2 2:4972.8075 3:7327.4597 4:6439.0199 5:3391.7944 6:2330.7736 7:1887.6424 8:1751.3457 9:2901.4656 10:2661.8091 11:980.37955 12:631.82628 13:400.60031 14:511.47511 15:654.09448 16:590.97079 17:320.69945 18:207.79246 19:132.81704 20:98.75328 21:85.110508 22:56.006892 23:17.747353 24:11.295587 25:6.9919048 
1 1:3218487.9 2:2971.6056 3:5995.6531 4:5678.9605 5:2343.5616 6:1926.8014 7:1346.7933 8:1326.9279 9:2465.3936 10:2117.6977 11:528.35272 12:439.43796 13:430.52946 14:523.18546 15:637.94884 16:439.66166 17:246.59603 18:195.34471 19:144.99941 20:119.79929 21:109.33644 22:87.620692 23:61.769438 24:61.88101 25:65.229196 
1 1:3227665.9 2:3034.6677 3:6753.0184 4:6742.3749 5:2230.0536 6:1623.3852 7:1526.2093 8:1335.0924 9:2396.9783 10:2067.1443 11:570.55063 12:567.48042 13:630.88607 14:717.96039 15:776.19961 16:525.97146 17:249.33805 18:232.72203 19:165.68315 20:94.107235 21:68.972821 22:57.113867 23:28.705301 24:34.179108 25:30.106342 
1 1:3222866.5 2:4042.1839 3:6769.3794 4:5814.8974 5:1911.87 6:1882.6011 7:1767.8074 8:1661.4462 9:2570.8515 10:2163.6157 11:888.84152 12:595.87772 13:605.31536 14:634.2355 15:607.03867 16:509.14684 17:287.80965 18:241.73135 19:114.31565 20:63.745664 21:72.23075 22:45.750078 23:16.417139 24:6.9902571 25:3.9525502 
1 1:3217052.8 2:3782.7949 3:6463.4164 4:5847.6684 5:1827.1535 6:1753.1514 7:1908.7468 8:1661.3834 9:2621.2055 10:2348.46 11:1058.5998 12:911.69994 13:572.70221 14:512.87538 15:557.97845 16:588.79584 17:359.77498 18:193.38271 19:133.24367 20:92.271212 21:63.305831 22:41.417205 23:36.422491 24:38.267896 25:37.517297 
1 1:3213571.4 2:2944.2904 3:5706.9376 4:5508.0485 5:1669.6414 6:1230.4388 7:1015.1568 8:1039.8016 9:2791.944 10:2591.0083 11:686.87638 12:609.06684 13:567.32231 14:594.60293 15:580.01257 16:422.1093 17:227.39236 18:135.05519 19:92.181487 20:74.616081 21:59.965931 22:45.296595 23:25.409184 24:21.864348 25:21.191921 
1 1:3215879.8 2:2529.9459 3:5846.9146 4:5221.3743 5:1350.8217 6:1615.8363 7:1546.5182 8:1445.2029 9:2607.2862 10:2400.695 11:1094.0056 12:799.51406 13:546.16661 14:430.57012 15:523.00819 16:467.95306 17:183.4828 18:157.85966 19:140.41001 20:92.204192 21:74.235798 22:42.86168 23:14.973686 24:9.1579085 25:7.0908812 
1 1:3231885.6 2:3115.9034 3:7154.3823 4:5808.7367 5:1317.2604 6:1450.5232 7:1316.7236 8:1412.5908 9:2669.2981 10:2540.9586 11:1219.507 12:940.01556 13:601.59012 14:521.95538 15:677.40323 16:558.36731 17:206.55975 18:146.13988 19:129.94122 20:80.469064 21:64.873459 22:47.163608 23:16.936224 24:16.168469 25:12.603367 
1 1:3232612.8 2:2845.6012 3:5850.8812 4:5616.7389 5:1634.9105 6:1577.0686 7:1394.4362 8:1441.1067 9:2731.1876 10:2514.011 11:916.04403 12:586.94957 13:585.37105 14:573.94277 15:540.59551 16:440.94584 17:240.72235 18:188.8479 19:101.41014 20:80.472509 21:67.712926 22:44.020845 23:25.21492 24:20.305176 25:15.878015 
1 1:3224119.1 2:4063.7507 3:7576.5209 4:6447.5812 5:1345.5437 6:1045.8203 7:1151.8016 8:1080.4194 9:2188.0569 10:2334.1449 11:860.03343 12:627.18618 13:546.6376 14:448.65125 15:612.00483 16:553.74924 17:276.69408 18:179.79265 19:100.41964 20:66.253977 21:54.718035 22:38.117703 23:20.821069 24:17.797784 25:15.548335 
1 1:3232769.3 2:2241.9649 3:5631.2833 4:6211.9729 5:2439.3033 6:1719.3683 7:1469.6504 8:1292.9503 9:2276.5787 10:2277.2374 11:861.53437 12:653.00969 13:525.78812 14:454.52595 15:508.54577 16:446.34475 17:207.34234 18:174.11258 19:127.74811 20:82.691511 21:62.0216 22:39.033931 23:15.47104 24:11.643132 25:9.451853 
1 1:3230186.9 2:3015.0568 3:5682.2462 4:5516.4226 5:1724.1348 6:1616.5207 7:1423.7724 8:1280.4155 9:2522.3293 10:2161.0755 11:649.17697 12:508.03387 13:420.45246 14:412.23774 15:601.40049 16:544.34257 17:232.05333 18:173.05413 19:118.49283 20:71.972853 21:54.100431 22:46.121216 23:24.817483 24:21.293503 25:17.894632 
1 1:3212789.5 2:2280.8811 3:5882.0928 4:5326.1037 5:1484.112 6:1422.242 7:1307.2521 8:1540.2145 9:2812.5157 10:2286.1544 11:841.27506 12:675.17689 13:564.13969 14:568.02222 15:562.29449 16:446.03437 17:257.3695 18:182.70097 19:125.01905 20:107.26034 21:60.165273 22:38.987021 23:36.030606 24:37.977629 25:37.348204 
1 1:3214086.6 2:2230.3849 3:5368.7268 4:5871.3556 5:2074.204 6:1444.0891 7:1590.6275 8:1623.2885 9:2612.9751 10:2314.5045 11:809.01178 12:696.70764 13:622.69273 14:474.69345 15:538.77423 16:484.85135 17:245.71555 18:166.94876 19:94.278313 20:60.18327 21:45.581171 22:34.577307 23:27.318764 24:28.739319 25:23.751018 
1 1:3215014.4 2:3570.4358 3:6165.3542 4:5087.3484 5:1377.4558 6:1190.9708 7:1226.6228 8:1181.7582 9:2161.1755 10:2122.551 11:789.9451 12:532.72761 13:499.53509 14:521.70782 15:686.71217 16:569.53771 17:193.54268 18:121.44466 19:101.15856 20:69.051406 21:47.396183 22:29.741198 23:12.745575 24:12.159106 25:10.038073 
1 1:3215599.6 2:2708.3837 3:5777.6757 4:5621.2096 5:1718.625 6:1214.1209 7:1060.9001 8:1005.5887 9:2367.147 10:2309.5809 11:868.26622 12:712.17346 13:553.24839 14:481.06447 15:469.54642 16:455.42795 17:251.09168 18:147.35741 19:111.10042 20:86.6972 21:71.945668 22:57.390804 23:41.890011 24:39.621993 25:37.327995 
1 1:3221356.6 2:2672.2763 3:5885.8331 4:5264.1128 5:1412.5025 6:1122.9247 7:808.89453 8:950.05076 9:2179.7753 10:1995.0944 11:707.87825 12:679.16077 13:736.32335 14:485.22569 15:455.09521 16:419.82613 17:184.01505 18:135.53102 19:85.489719 20:54.638934 21:45.017424 22:41.993163 23:26.525855 24:20.557832 25:17.457524 
1 1:3227281.1 2:4315.1876 3:7306.5505 4:5833.7963 5:1980.5741 6:2365.1212 7:2011.4359 8:1581.9002 9:2584.6977 10:2091.2562 11:815.96829 12:735.11568 13:539.34813 14:523.64258 15:750.90514 16:569.39757 17:230.74183 18:162.91918 19:109.93726 20:79.698766 21:57.261732 22:39.91797 23:16.152517 24:7.6070043 25:4.5918648 
1 1:3218219.7 2:2744.1392 3:5514.3526 4:5409.994 5:1565.3165 6:1290.7673 7:1178.6355 8:1048.2567 9:2456.7229 10:2397.5368 11:745.16184 12:691.10437 13:569.03868 14:409.27511 15:510.3376 16:475.65851 17:241.83978 18:162.34693 19:116.70312 20:80.652266 21:81.062385 22:58.314049 23:33.10353 24:31.41816 25:29.252116 
1 1:3211572.1 2:2926.1939 3:6148.1303 4:5797.3417 5:1334.0778 6:1151.4421 7:1256.3676 8:938.86418 9:2106.5465 10:2254.2371 11:614.9381 12:439.80766 13:552.82834 14:569.91015 15:638.34292 16:496.65311 17:171.90435 18:87.096603 19:77.662107 20:68.079164 21:73.344992 22:46.84449 23:22.883941 24:24.794405 25:27.473187 
1 1:3222989.9 2:2854.3173 3:5886.9826 4:5445.3199 5:1598.216 6:1457.6966 7:1145.7851 8:1281.4888 9:2479.8404 10:2089.8836 11:690.03004 12:739.34849 13:587.85292 14:377.01662 15:506.08191 16:572.00694 17:269.17888 18:112.53937 19:75.034305 20:74.807609 21:75.100154 22:49.382427 23:39.273208 24:37.770085 25:37.113325 
1 1:3235648.6 2:2522.9583 3:5504.9747 4:5196.9774 5:1331.8475 6:1610.8566 7:1437.9278 8:1025.433 9:2325.4834 10:2359.7522 11:703.45465 12:510.04052 13:607.27737 14:511.18036 15:552.46939 16:491.26448 17:285.39008 18:194.76358 19:128.68707 20:76.253405 21:47.454762 22:32.870649 23:17.166135 24:9.5019808 25:5.0469021 
1 1:3228630.8 2:3703.0835 3:6674.7875 4:5555.9566 5:1910.8978 6:1537.6297 7:1407.969 8:1040.1864 9:2294.1821 10:2335.3342 11:938.39253 12:569.89253 13:439.88763 14:469.52497 15:527.998 16:539.34326 17:321.42559 18:184.50226 19:97.687351 20:75.829557 21:72.915524 22:52.476257 23:24.060452 24:18.584124 25:20.171274 
1 1:3245282.8 2:4140.4857 3:7020.3331 4:5302.4369 5:1219.4797 6:1206.6977 7:966.63524 8:1014.7583 9:2332.039 10:2201.5771 11:897.96909 12:790.84585 13:562.13636 14:478.61978 15:611.01724 16:501.70854 17:231.43877 18:135.13467 19:120.66864 20:80.641347 21:56.927589 22:37.255618 23:23.472804 24:17.868706 25:16.623454 
1 1:3229489.4 2:2390.5439 3:5991.5895 4:5806.5325 5:2043.932 6:1791.3408 7:1365.1911 8:1320.8147 9:2379.5056 10:2238.6295 11:856.51236 12:669.63439 13:471.26309 14:449.44838 15:528.87196 16:379.76877 17:248.35328 18:210.89126 19:111.66052 20:74.123214 21:73.576489 22:47.063958 23:25.347155 24:25.459225 25:23.12293 
1 1:3247006.6 2:4389.4259 3:6521.9934 4:5423.6603 5:1605.2255 6:1342.0168 7:1490.9595 8:1309.3081 9:2251.9838 10:2135.4401 11:885.2311 12:863.50268 13:627.32795 14:552.71956 15:625.71044 16:545.5214 17:323.42845 18:244.35633 19:154.76889 20:67.678105 21:57.107828 22:51.335801 23:26.207383 24:20.092687 25:17.61625 
1 1:3246591 2:4573.6049 3:6724.8633 4:5799.854 5:1650.6309 6:1273.7619 7:1062.6923 8:1279.0867 9:2595.3985 10:2486.5325 11:1086.9942 12:799.16799 13:873.71026 14:776.0407 15:760.23226 16:608.73576 17:345.32987 18:275.37084 19:146.142 20:86.334649 21:78.303104 22:78.412571 23:51.649741 24:46.381543 25:45.143925 
1 1:3237664 2:3857.6872 3:5489.2405 4:5082.3318 5:1774.573 6:1869.7855 7:2008.649 8:1607.3165 9:2808.041 10:2649.5129 11:998.74867 12:608.63283 13:587.82105 14:730.40667 15:667.31884 16:541.65966 17:351.15085 18:190.79251 19:135.1883 20:96.296165 21:57.935925 22:42.2492 23:14.422354 24:5.6180994 25:2.4921232 
1 1:3226364 2:3498.2302 3:5826.3853 4:5447.177 5:1604.7162 6:1307.9497 7:1504.4995 8:1094.0737 9:2715.2877 10:2820.4785 11:1174.8662 12:898.72486 13:612.21238 14:589.18753 15:735.34207 16:573.28431 17:281.24376 18:227.16811 19:125.14697 20:92.089322 21:84.804562 22:56.964007 23:23.627611 24:25.219088 25:24.125361 
1 1:3227346 2:3032.3327 3:5676.8388 4:5848.8348 5:2118.1148 6:1570.7876 7:1117.487 8:995.08136 9:2634.9928 10:2721.9926 11:1075.9952 12:785.10206 13:630.03927 14:563.70839 15:580.56537 16:471.70359 17:236.71736 18:197.94982 19:116.58176 20:64.123407 21:58.064199 22:45.75511 23:26.912469 24:17.778857 25:17.140356 
1 1:3229277.5 2:3322.1813 3:6652.0987 4:5713.4137 5:1618.7698 6:1777.5366 7:1674.0964 8:1299.2733 9:2283.5997 10:2190.2198 11:805.30343 12:571.12291 13:446.28348 14:344.49402 15:611.84684 16:729.86408 17:377.91906 18:192.69166 19:121.92869 20:68.479816 21:61.851607 22:60.347742 23:47.543246 24:40.343404 25:38.464018 
1 1:3238814.6 2:4504.9876 3:6514.3768 4:6001.5298 5:1755.4872 6:1458.3947 7:1899.1718 8:1955.212 9:2984.2414 10:2573.9604 11:942.82088 12:768.81973 13:760.15472 14:694.83242 15:927.28202 16:728.52787 17:272.67226 18:209.27285 19:130.36865 20:81.422906 21:71.308878 22:44.685539 23:20.278058 24:10.247922 25:6.0524512 
1 1:3238423.8 2:4504.4804 3:7357.9762 4:7171.0126 5:3225.6264 6:2656.7187 7:2390.4254 8:2224.8059 9:3248.5179 10:2826.127 11:1482.7113 12:1738.3681 13:1747.7152 14:1413.2089 15:946.07341 16:594.50787 17:412.47415 18:327.88615 19:261.87808 20:169.90013 21:113.73143 22:60.573642 23:14.38721 24:9.8739603 25:7.9467543 
1 1:3235024.3 2:4349.0165 3:8248.204 4:7641.1393 5:4826.6696 6:4713.3037 7:3963.6814 8:3319.1695 9:3209.6178 10:2985.8778 11:2204.7346 12:2114.9481 13:1885.1463 14:1476.2462 15:1300.5212 16:996.00287 17:613.59794 18:343.0045 19:265.6218 20:244.57926 21:159.60433 22:91.739138 23:47.025497 24:32.018029 25:28.370173 
1 1:3238284 2:5988.9357 3:8296.8535 4:7086.3252 5:3836.133 6:4280.821 7:3324.3784 8:3169.3869 9:4016.8762 10:3226.4137 11:3170.4645 12:3104.9035 13:1938.3688 14:1905.9275 15:2064.0819 16:1542.5219 17:834.5268 18:458.05353 19:320.60644 20:213.17221 21:172.31411 22:131.07485 23:64.118983 24:24.275858 25:20.345922 
1 1:3242807.5 2:4095.0436 3:6752.8044 4:6244.0482 5:1919.8577 6:2186.9472 7:2076.4465 8:1801.7986 9:2686.3434 10:2241.3369 11:1184.6777 12:964.25702 13:834.95973 14:1135.2071 15:1155.2703 16:860.44087 17:512.29101 18:388.39021 19:285.03598 20:134.6718 21:80.508646 22:51.268899 23:31.773066 24:21.282472 25:17.83911 
1 1:3248682.3 2:3717.8538 3:6748.224 4:6309.0136 5:2516.5951 6:1709.9535 7:1213.109 8:1540.4937 9:2747.0826 10:2750.527 11:1401.7516 12:807.87285 13:822.44796 14:940.33423 15:734.29724 16:677.58486 17:454.76464 18:281.43803 19:187.43207 20:99.294584 21:81.533258 22:65.030562 23:39.934267 24:25.554892 25:18.880845 
1 1:3238875.6 2:3351.8875 3:6616.5807 4:5941.1015 5:2089.2991 6:2015.3722 7:1846.7916 8:1332.8758 9:2423.5723 10:2404.4715 11:1068.973 12:840.04825 13:549.23869 14:666.03523 15:786.56253 16:558.82638 17:291.0349 18:227.99865 19:149.43434 20:114.29233 21:94.595463 22:69.861752 23:39.964295 24:34.116922 25:37.85989 
1 1:3229295.7 2:3283.4777 3:6077.817 4:5782.9329 5:2130.1067 6:1780.5428 7:1955.0533 8:1875.2116 9:2895.3989 10:2918.6584 11:1411.7233 12:1136.9013 13:815.72502 14:731.36401 15:854.15641 16:695.67362 17:439.32716 18:324.81958 19:149.80666 20:90.614941 21:81.630498 22:59.782892 23:27.800658 24:12.630975 25:8.7042297 
1 1:3232525.8 2:2081.7187 3:4532.2639 4:4976.5686 5:1377.2671 6:929.37759 7:906.64918 8:785.63794 9:2227.1991 10:2207.0066 11:622.17481 12:488.22752 13:561.09297 14:538.2989 15:607.12798 16:490.02266 17:151.45549 18:118.09341 19:104.4128 20:62.661461 21:52.260472 22:32.556675 23:17.879068 24:19.625768 25:17.484575 
1 1:3245099.5 2:2310.033 3:6093.4602 4:5913.8854 5:1549.2314 6:995.40854 7:840.96272 8:879.93503 9:2240.2187 10:2280.1893 11:642.91457 12:547.8906 13:654.09224 14:559.80479 15:471.60614 16:387.42846 17:214.09721 18:155.33506 19:96.188053 20:50.976017 21:56.134093 22:37.901325 23:17.7991 24:11.67202 25:6.5567651 
1 1:3253639.9 2:2600.252 3:5268.1313 4:4958.6552 5:1134.2998 6:1445.5322 7:1340.4083 8:980.77311 9:2324.1479 10:2216.4946 11:750.8811 12:596.74289 13:456.29696 14:450.20417 15:560.50999 16:450.25559 17:188.55693 18:155.69381 19:103.69177 20:69.088791 21:46.801624 22:45.341255 23:42.114542 24:33.477666 25:30.633382 
1 1:3256116.5 2:3886.5285 3:6520.557 4:5694.4863 5:1324.9528 6:1363.3791 7:1334.996 8:956.91886 9:2436.3621 10:2324.8398 11:622.57612 12:569.20553 13:384.29499 14:280.27849 15:450.94491 16:477.23974 17:238.42128 18:165.43817 19:109.71447 20:54.450039 21:47.245017 22:30.52124 23:25.054895 24:26.979126 25:25.27038 
1 1:3244710.8 2:2348.2804 3:5112.1338 4:4962.5452 5:1113.3987 6:1120.9828 7:947.12906 8:686.49096 9:2167.9337 10:2185.7261 11:582.65731 12:327.48921 13:298.69166 14:441.18679 15:574.9005 16:461.33945 17:185.8332 18:113.2927 19:86.644111 20:53.234736 21:59.295362 22:44.437907 23:32.376704 24:29.237218 25:25.43723 
1 1:3239735.1 2:3896.7371 3:5992.6723 4:5436.9215 5:1203.5977 6:936.34966 7:935.70261 8:845.77208 9:2210.9311 10:2258.0317 11:734.19319 12:456.46202 13:370.3545 14:439.45579 15:568.02471 16:446.73432 17:195.01525 18:152.65784 19:97.185126 20:49.1789 21:67.905915 22:55.537051 23:27.69446 24:28.53858 25:25.239291 
1 1:3239993.2 2:2711.2256 3:5924.5701 4:5122.5926 5:1043.8414 6:1093.8785 7:1072.5333 8:886.69987 9:2072.5889 10:1954.6008 11:610.08629 12:646.60724 13:501.2552 14:420.48472 15:567.75264 16:466.79255 17:192.78481 18:135.80132 19:104.061 20:58.047897 21:55.084509 22:43.296883 23:14.85017 24:9.0813294 25:6.094004 
1 1:3246024.5 2:2602.667 3:5313.5383 4:5188.5064 5:1494.6063 6:1181.7493 7:1036.2104 8:1031.5675 9:2380.1373 10:2191.2686 11:660.02709 12:409.25717 13:293.2776 14:250.64072 15:429.09486 16:432.8083 17:174.28253 18:129.14342 19:81.22547 20:59.690568 21:53.86286 22:39.87288 23:15.186418 24:11.741132 25:11.924892 
1 1:3257009.6 2:2639.6986 3:5925.8166 4:5286.3199 5:1088.6106 6:1211.2452 7:1064.9664 8:868.42837 9:2450.5402 10:2467.7191 11:813.40394 12:539.23232 13:485.57763 14:524.68895 15:580.3561 16:542.49214 17:260.03502 18:144.3197 19:89.183233 20:66.085638 21:48.457644 22:39.086028 23:25.109336 24:24.458785 25:23.97755 
1 1:3253453.2 2:2759.8322 3:5603.0879 4:5545.0329 5:1296.3179 6:1058.6002 7:807.1083 8:752.15092 9:2434.1163 10:2503.3047 11:751.91613 12:437.35779 13:394.39192 14:458.64966 15:573.74515 16:493.80399 17:227.76079 18:159.38895 19:109.39871 20:73.031294 21:60.274396 22:37.484024 23:18.217392 24:12.127657 25:10.135092 
1 1:3244203 2:1948.7461 3:5692.0256 4:5313.073 5:1473.4965 6:1372.4507 7:1486.3058 8:1518.3884 9:2517.2609 10:2198.3194 11:531.47048 12:442.58118 13:327.45206 14:314.00579 15:479.03245 16:433.90638 17:227.92343 18:189.82506 19:141.12704 20:64.647183 21:55.153238 22:40.500089 23:13.153198 24:8.572972 25:5.3921576 
1 1:3235876 2:3288.9353 3:5661.7522 4:5260.5197 5:1529.6447 6:1129.0189 7:836.93006 8:846.77909 9:2356.5609 10:2265.5957 11:631.7388 12:512.10878 13:458.88314 14:397.52676 15:481.7171 16:435.24181 17:176.79492 18:147.83663 19:125.09121 20:64.813117 21:44.822025 22:36.738891 23:29.407487 24:27.357259 25:24.902242 
1 1:3236011.1 2:2409.2236 3:5694.6061 4:5747.9361 5:1890.1544 6:1666.8786 7:1172.3946 8:809.02082 9:1955.9915 10:1936.9567 11:689.10287 12:566.14796 13:398.33099 14:359.57 15:501.16989 16:422.94341 17:191.02711 18:159.94886 19:117.82473 20:72.633981 21:61.579561 22:48.977323 23:26.691272 24:21.113463 25:20.735378 
1 1:3236579 2:1630.0968 3:5239.5899 4:4828.9732 5:1172.577 6:1270.0528 7:977.10482 8:722.91896 9:2058.5851 10:2022.1849 11:541.29457 12:452.49025 13:480.23337 14:431.30499 15:497.64558 16:491.46102 17:218.51788 18:124.26803 19:90.000569 20:96.060889 21:83.835939 22:68.390117 23:56.104006 24:52.868772 25:51.236336 
1 1:3253479.3 2:3052.2613 3:6196.8289 4:5770.5074 5:1040.2724 6:1208.6409 7:1338.8881 8:1102.5557 9:2363.8824 10:2226.6337 11:707.76454 12:644.77012 13:453.62984 14:251.7592 15:506.30681 16:478.19831 17:159.5927 18:133.5354 19:104.99229 20:64.287809 21:50.774371 22:36.816061 23:11.260821 24:8.0621108 25:3.5045944 
1 1:3239935 2:1794.2537 3:5376.9022 4:5268.874 5:1488.8102 6:1165.9227 7:1006.0535 8:1076.2564 9:2538.1492 10:2400.2055 11:748.00058 12:455.57892 13:439.48572 14:443.83402 15:501.12942 16:426.96097 17:179.34719 18:133.61563 19:84.038899 20:57.707004 21:80.159084 22:68.640008 23:40.558368 24:40.814732 25:40.110029 
1 1:3239682.5 2:2673.9575 3:5774.6644 4:5622.4697 5:1543.8281 6:1070.5642 7:1008.5976 8:941.40302 9:2158.5826 10:2162.6853 11:628.28948 12:373.11324 13:313.40879 14:358.92216 15:463.11095 16:388.00352 17:167.8038 18:152.11815 19:89.200215 20:53.472575 21:54.495106 22:40.611305 23:20.216986 24:19.710716 25:15.600506 
1 1:3249688.9 2:2592.0134 3:5164.6917 4:4816.9297 5:1204.8981 6:1219.2572 7:1105.9106 8:922.2162 9:2108.0698 10:1999.0939 11:588.71156 12:617.20414 13:671.07328 14:535.11294 15:492.35469 16:430.78125 17:213.48217 18:150.71694 19:103.46903 20:80.952976 21:60.088273 22:33.181485 23:10.308667 24:8.2319247 25:6.7489491 
1 1:3243617.8 2:2368.2714 3:5994.5008 4:6031.8511 5:1297.7338 6:1665.7384 7:1765.1794 8:980.55288 9:2216.3656 10:2300.22 11:798.96177 12:600.68354 13:445.64112 14:417.53513 15:499.98832 16:396.9842 17:221.62275 18:170.82296 19:100.80407 20:75.109966 21:77.567364 22:70.975511 23:45.758424 24:40.76687 25:40.534275 
1 1:3260161 2:3355.3397 3:6152.3889 4:5522.6573 5:1772.9121 6:1323.2338 7:1181.8032 8:1445.7941 9:2378.195 10:2001.9398 11:750.4409 12:755.19108 13:615.61778 14:502.04805 15:596.96538 16:493.99491 17:245.98036 18:152.8214 19:73.431302 20:53.58478 21:47.820806 22:50.525605 23:48.592888 24:42.586769 25:42.594548 
1 1:3263015.4 2:4967.6944 3:7625.7252 4:6097.4963 5:1471.2989 6:1105.7093 7:1182.9689 8:1296.3267 9:2512.6885 10:2508.4394 11:979.44378 12:625.14388 13:447.25614 14:507.07507 15:639.46622 16:452.9848 17:198.45017 18:185.02485 19:135.18925 20:77.12286 21:54.781731 22:46.989111 23:35.742361 24:33.395109 25:34.673494 
1 1:3250653.1 2:4157.7925 3:6561.6502 4:5249.5036 5:1805.6758 6:1513.0832 7:1197.4052 8:963.24423 9:2494.9343 10:2378.2947 11:807.11412 12:821.66455 13:558.91339 14:488.93094 15:619.99336 16:479.20349 17:238.25795 18:137.23514 19:90.506487 20:73.385326 21:66.27687 22:41.722025 23:20.13429 24:22.387978 25:21.21805 
1 1:3242617.9 2:3540.5549 3:6589.0594 4:5476.5177 5:1921.8155 6:1932.0529 7:1605.5672 8:1362.2554 9:2675.0481 10:2603.9748 11:940.09512 12:562.4219 13:536.88571 14:467.18609 15:548.68767 16:511.0938 17:213.13696 18:125.41745 19:89.413497 20:62.314014 21:46.250627 22:36.68326 23:18.402907 24:11.476983 25:7.7026095 
1 1:3244761.4 2:4249.3718 3:6087.8245 4:5869.8059 5:1832.9738 6:1175.5762 7:1150.3053 8:1207.4365 9:2466.0816 10:2243.4329 11:616.12285 12:481.08291 13:490.25095 14:466.55236 15:538.2407 16:432.75305 17:217.83922 18:177.74746 19:103.04848 20:70.781663 21:55.094393 22:38.066179 23:16.754986 24:11.887087 25:11.219637 
1 1:3246220.6 2:2845.5846 3:5811.0594 4:5441.1722 5:1289.1498 6:1279.1035 7:1021.8674 8:739.37367 9:2272.0226 10:2119.6772 11:647.84508 12:605.61963 13:400.03755 14:427.24125 15:610.52896 16:494.30819 17:236.23467 18:159.53364 19:98.115013 20:64.944502 21:57.098743 22:36.817878 23:15.967792 24:21.35431 25:21.897842 
1 1:3248452 2:3508.1442 3:6083.9722 4:5288.0887 5:1379.6216 6:1085.2266 7:893.23981 8:1054.1095 9:2515.9767 10:2185.987 11:595.50118 12:422.60381 13:403.25448 14:454.97376 15:487.383 16:411.73691 17:226.2328 18:156.85434 19:111.85063 20:68.593422 21:54.120955 22:45.669662 23:18.230344 24:13.871848 25:11.52004 
1 1:3249158.6 2:3143.7607 3:6194.1662 4:5994.8418 5:1951.5373 6:1100.9589 7:874.05387 8:904.00767 9:2096.6611 10:2090.7933 11:681.40072 12:613.50006 13:550.64614 14:410.1397 15:567.19615 16:523.52176 17:227.26355 18:140.67841 19:100.50904 20:78.615982 21:56.967314 22:40.578902 23:22.921684 24:18.372367 25:18.311792 
1 1:3265219.8 2:2475.7254 3:5931.2142 4:5468.117 5:1575.1702 6:1272.1025 7:899.45124 8:841.73778 9:2167.1306 10:2197.1032 11:849.41836 12:517.81103 13:432.069 14:519.25716 15:590.61159 16:448.64334 17:164.53753 18:151.50153 19:103.54043 20:84.763373 21:100.98581 22:91.956052 23:72.705204 24:64.40481 25:69.032426 
1 1:3266934.4 2:2317.2079 3:6338.466 4:5706.6272 5:1104.9629 6:1131.7242 7:953.02473 8:688.14535 9:2131.4485 10:2203.3059 11:681.87285 12:566.89016 13:553.57308 14:514.92338 15:495.78386 16:420.5666 17:195.60034 18:122.65205 19:96.435039 20:85.154041 21:58.616831 22:44.509295 23:21.692506 24:19.541827 25:18.02043 
1 1:3262957.4 2:2820.5171 3:5553.8067 4:4910.9318 5:1415.4347 6:1538.1637 7:1007.5471 8:885.28219 9:2342.8247 10:2156.8857 11:580.49858 12:431.57844 13:379.5383 14:443.804 15:529.86445 16:407.71365 17:209.72993 18:163.78074 19:109.71722 20:64.967955 21:52.471531 22:38.622074 23:18.346018 24:18.610766 25:18.804556 
1 1:3264926.6 2:2015.6 3:5264.2215 4:5024.1332 5:1181.4909 6:1171.6875 7:1109.7112 8:1077.9559 9:2387.3532 10:2138.8686 11:588.59748 12:499.99949 13:546.11923 14:579.08165 15:622.79885 16:488.46692 17:195.56666 18:141.77756 19:123.76665 20:75.820983 21:52.972953 22:41.380483 23:10.402716 24:10.870001 25:12.422482 
1 1:3263360.4 2:2531.1802 3:6597.5064 4:6257.9558 5:1529.1044 6:1245.171 7:1104.5956 8:1111.9361 9:2702.4136 10:2629.4878 11:981.41793 12:570.17922 13:339.3296 14:444.30125 15:548.53425 16:429.02854 17:228.31328 18:159.78459 19:104.66206 20:79.134818 21:47.70368 22:30.189683 23:14.678289 24:9.9343069 25:6.6592431 
1 1:3272891.1 2:3721.2595 3:6914.2842 4:6760.3221 5:3164.6297 6:3165.3699 7:3071.1092 8:1931.7561 9:2978.3851 10:2697.3433 11:1143.6875 12:1146.4874 13:843.03862 14:745.10452 15:774.99452 16:466.9307 17:296.65568 18:233.26392 19:172.79562 20:130.75413 21:76.299068 22:50.095605 23:39.283129 24:31.469404 25:27.583774 
1 1:3277286.7 2:4230.2813 3:6974.7646 4:7500.7614 5:4496.6174 6:3695.8992 7:3294.3427 8:2708.1418 9:2779.1062 10:2267.6242 11:1334.488 12:1382.9851 13:1060.1321 14:983.50872 15:793.59818 16:604.50698 17:405.59859 18:262.69168 19:166.20783 20:129.48196 21:110.00724 22:64.072022 23:25.631629 24:21.548865 25:16.371924 
1 1:3280270.3 2:4673.4604 3:9254.5036 4:8676.3341 5:4449.7566 6:3026.4866 7:3195.0433 8:3475.8789 9:3698.4583 10:3437.9575 11:1591.6815 12:1273.4303 13:1192.6455 14:1046.4493 15:1140.9883 16:975.39065 17:579.70998 18:389.58009 19:327.3583 20:185.37064 21:131.49262 22:88.447723 23:35.044021 24:12.961839 25:4.8797736 
1 1:3294917.2 2:4736.624 3:7748.3801 4:7060.7752 5:3733.3645 6:3015.8152 7:2813.6579 8:2555.6536 9:3351.5856 10:3099.8514 11:2389.6225 12:2122.3621 13:1335.4145 14:1346.0515 15:1184.0643 16:892.64545 17:650.70368 18:439.84162 19:338.59856 20:179.84913 21:103.57457 22:84.779831 23:59.844626 24:49.958613 25:52.423272 
1 1:3295412.7 2:5013.7353 3:7108.0489 4:8246.2656 5:5300.3095 6:2883.0944 7:2363.0368 8:2108.9065 9:3367.3249 10:3361.8103 11:1488.1676 12:1305.9907 13:1762.1806 14:1668.9247 15:1258.6194 16:994.89993 17:593.60221 18:460.75254 19:362.91975 20:204.62223 21:120.33698 22:58.561009 23:33.739364 24:17.659063 25:15.717382 
1 1:3297287.8 2:3230.0335 3:5532.3175 4:5935.1789 5:4617.0435 6:4049.2552 7:2345.2706 8:1860.2056 9:2939.8643 10:2527.3263 11:1384.5484 12:1371.4654 13:919.99925 14:1028.2413 15:1192.193 16:921.94179 17:588.66701 18:427.08954 19:223.85385 20:119.33622 21:94.348081 22:56.400018 23:37.713803 24:42.290156 25:38.100467 
1 1:3285062.3 2:2997.2618 3:8608.9316 4:8887.0822 5:4449.1589 6:3370.9368 7:2316.5537 8:1634.9552 9:2376.6063 10:2350.1406 11:1483.4094 12:1398.7882 13:1123.7347 14:1108.9208 15:967.51788 16:757.24436 17:412.12959 18:272.02031 19:208.60563 20:165.78893 21:107.85184 22:61.961064 23:26.351768 24:13.200695 25:5.5965305 
1 1:3286224.5 2:6100.2361 3:7690.6614 4:6971.9226 5:2685.9771 6:1948.2806 7:1688.2897 8:1914.0595 9:3279.3488 10:3138.1185 11:1420.5731 12:1550.7334 13:1348.2544 14:1016.2734 15:1027.8586 16:703.50924 17:379.6263 18:373.71775 19:195.69105 20:141.01232 21:127.4402 22:69.89894 23:39.470318 24:31.258612 25:28.360119 
1 1:3281242.7 2:3201.5857 3:5692.8918 4:5793.3662 5:2228.6894 6:2231.8377 7:2022.318 8:1819.845 9:3301.869 10:3007.1423 11:1408.8845 12:1303.7146 13:1020.4282 14:815.81797 15:819.31789 16:768.12813 17:612.89925 18:435.21804 19:262.18605 20:135.33703 21:84.084384 22:52.436716 23:21.112747 24:9.1233786 25:3.9580756 
1 1:3280370.4 2:3142.3219 3:6398.3286 4:6140.8341 5:2746.9404 6:2241.6361 7:2193.2807 8:2397.9099 9:3379.7375 10:2866.4574 11:1579.0563 12:1424.026 13:1022.1367 14:899.50018 15:925.26638 16:854.44708 17:343.42854 18:298.1535 19:236.12542 20:139.2826 21:86.95463 22:74.810051 23:48.020747 24:35.763306 25:33.498522 
1 1:3284958.2 2:2033.0569 3:5932.5496 4:5838.4631 5:2492.5997 6:2840.6286 7:2150.1104 8:1851.7681 9:3041.0389 10:2762.4933 11:1252.3185 12:1082.2832 13:1050.2672 14:921.74579 15:928.8946 16:797.55142 17:410.73105 18:283.46278 19:226.96687 20:132.99546 21:78.890024 22:46.306908 23:22.931323 24:18.140202 25:14.484764 
1 1:3283373.4 2:2217.8267 3:6774.6278 4:6635.5491 5:1687.7001 6:1449.6844 7:1820.9542 8:1783.2649 9:2344.4792 10:2515.5979 11:1192.0142 12:865.55273 13:894.08961 14:850.39233 15:908.67249 16:635.88109 17:358.14493 18:285.7321 19:193.24024 20:113.7421 21:84.959884 22:65.127586 23:25.609365 24:13.020761 25:6.4626687 
1 1:3286494.8 2:3009.595 3:6457.3617 4:5583.2429 5:1948.8804 6:1984.8695 7:2289.1128 8:2356.7716 9:3020.4738 10:2695.3166 11:1408.3479 12:1176.7267 13:1011.3765 14:715.69191 15:752.26073 16:787.51456 17:487.85419 18:333.73406 19:193.05755 20:80.916671 21:57.996976 22:47.764196 23:23.568379 24:19.121596 25:14.594462 
1 1:3297612.5 2:2196.285 3:6024.1814 4:6084.1558 5:1924.0901 6:2158.0905 7:2110.9584 8:1509.9147 9:2670.6919 10:2690.9597 11:1471.9886 12:1317.3685 13:1039.1312 14:814.28795 15:894.57185 16:801.18986 17:363.57501 18:273.29544 19:121.05388 20:57.427265 21:61.120987 22:45.719733 23:12.839833 24:10.503769 25:10.359573 
1 1:3307027.1 2:3350.6463 3:6199.1928 4:6061.9852 5:2095.3979 6:1385.6796 7:2196.8485 8:2352.1217 9:2860.5104 10:2810.8047 11:1786.4623 12:1284.2149 13:1133.4905 14:1082.6773 15:889.10431 16:908.20741 17:587.93593 18:372.47359 19:279.59626 20:124.72686 21:87.042158 22:60.105987 23:24.36722 24:19.391495 25:19.102698 
1 1:3295863.5 2:2519.3811 3:6039.8144 4:6057.0078 5:2696.2486 6:3109.5964 7:2275.3202 8:1730.5262 9:3291.5894 10:3143.6915 11:1595.1665 12:1208.4725 13:1304.5396 14:1096.86 15:1081.6642 16:955.88182 17:355.84928 18:262.13318 19:171.69017 20:142.26451 21:116.57173 22:63.368096 23:21.475052 24:14.518413 25:10.685674 
1 1:3291821.3 2:2598.8607 3:5493.3836 4:5695.3647 5:2047.0168 6:2907.9745 7:2899.6064 8:2313.5465 9:3168.5217 10:2514.0915 11:1119.3536 12:959.35993 13:1197.5103 14:1360.1822 15:1127.1186 16:727.05289 17:312.27079 18:278.97924 19:224.58891 20:155.01463 21:88.67981 22:45.303767 23:29.11055 24:26.994617 25:31.421566 
1 1:3298345.7 2:4122.123 3:6540.9378 4:6848.095 5:4580.376 6:4036.2515 7:2846.8843 8:2624.7004 9:4045.9984 10:3806.554 11:1983.5677 12:1542.8224 13:1036.9627 14:794.14285 15:957.12133 16:696.02206 17:379.9245 18:305.40271 19:208.52781 20:157.93112 21:98.513361 22:65.345887 23:62.002668 24:59.370443 25:56.888948 
1 1:3300397.8 2:2028.3021 3:6298.4695 4:6701.5668 5:2362.0522 6:1830.4262 7:2012.4234 8:1958.2313 9:3168.2361 10:2919.7442 11:841.13067 12:678.22891 13:924.38012 14:1033.4189 15:862.58596 16:680.73705 17:366.64652 18:278.93375 19:198.64783 20:118.3258 21:86.166932 22:48.557494 23:31.407645 24:29.907785 25:26.360835 
1 1:3300400.3 2:2628.9067 3:5936.4131 4:6112.0636 5:2451.2359 6:2188.4058 7:2042.8861 8:2123.191 9:3516.9769 10:2818.4356 11:1275.09 12:1359.7403 13:991.94396 14:848.44734 15:887.58233 16:601.71437 17:299.22045 18:330.60574 19:273.20099 20:124.21905 21:96.677328 22:57.761837 23:32.63114 24:27.531294 25:23.54579 
1 1:3305880.7 2:2716.9511 3:6002.0575 4:5897.5352 5:1794.0438 6:1254.3407 7:2049.4444 8:1999.2398 9:2364.9805 10:2367.6017 11:1050.7324 12:798.34853 13:776.23091 14:575.71276 15:563.52596 16:555.8391 17:367.39815 18:306.85198 19:182.93586 20:116.33356 21:81.827528 22:52.968097 23:31.256948 24:31.039366 25:31.025044 
1 1:3312865.9 2:1545.9758 3:5875.767 4:6243.6466 5:2472.73 6:2066.1048 7:1510.8332 8:1024.215 9:2729.1392 10:3016.7036 11:1351.6791 12:1001.1903 13:793.59719 14:667.86884 15:543.65493 16:581.57719 17:425.04248 18:235.71993 19:145.80856 20:121.67332 21:88.339219 22:53.14031 23:37.702968 24:39.646161 25:38.124137 
1 1:3307829.8 2:2145.7373 3:5839.3294 4:5534.6209 5:2026.5095 6:1941.5805 7:1894.4943 8:1598.9182 9:2870.5358 10:2698.3981 11:1265.6909 12:1223.2275 13:881.86678 14:719.85612 15:696.2902 16:635.96111 17:377.56073 18:258.17942 19:152.72875 20:119.98776 21:79.162138 22:42.033239 23:21.283918 24:14.793621 25:9.6346135 
1 1:3309846.7 2:2862.5793 3:6349.5439 4:5883.8778 5:2042.7038 6:2562.1173 7:2393.9337 8:1886.6098 9:2988.0392 10:2732.9434 11:1298.0096 12:1008.2481 13:760.3101 14:704.54398 15:634.42581 16:615.35259 17:497.608 18:254.60698 19:159.86131 20:122.19294 21:99.236535 22:79.669658 23:37.737292 24:30.591283 25:34.041203 
1 1:3306848.5 2:2882.1439 3:7045.0906 4:6096.2405 5:1972.928 6:2042.5497 7:2157.3582 8:1947.3563 9:2861.3576 10:2482.9164 11:1008.4775 12:882.52105 13:687.55047 14:742.60858 15:776.25967 16:552.91948 17:288.46602 18:213.79711 19:149.99348 20:135.82579 21:106.10293 22:59.103194 23:20.478041 24:24.091246 25:23.813612 
1 1:3311705.5 2:3120.6458 3:7224.6355 4:7064.932 5:2978.6094 6:2586.1478 7:2630.7192 8:2166.0491 9:3233.7816 10:3529.9387 11:1738.6057 12:1124.9542 13:738.97535 14:672.7086 15:840.69949 16:758.88357 17:505.7559 18:408.7573 19:254.81701 20:190.08574 21:140.17455 22:54.286309 23:41.518712 24:40.962786 25:36.689979 
1 1:3312671.8 2:2511.5674 3:6330.3801 4:6284.6483 5:2137.0574 6:1801.659 7:2247.3706 8:2018.3794 9:3136.2161 10:3346.7945 11:1716.1094 12:1278.3017 13:1085.9782 14:873.62218 15:839.62998 16:773.04669 17:420.5356 18:309.4372 19:184.78424 20:93.283366 21:95.256594 22:50.567899 23:27.434696 24:25.490569 25:20.764528 
1 1:3311234.8 2:2980.7869 3:5949.3881 4:5444.855 5:1217.9737 6:1542.0091 7:1950.1705 8:1867.7707 9:3174.0545 10:2934.2425 11:1692.7211 12:1684.7343 13:1351.3722 14:1022.4806 15:853.06484 16:625.61588 17:355.85803 18:202.39937 19:162.46764 20:119.77717 21:62.929268 22:45.287221 23:26.623564 24:26.58968 25:24.669808 
1 1:3311794 2:1823.3954 3:6078.0234 4:5800.8161 5:1613.6921 6:1618.3085 7:1915.8808 8:2160.9063 9:2939.6936 10:2505.0961 11:1249.1573 12:979.91021 13:879.33765 14:643.53598 15:518.94334 16:543.99471 17:369.87972 18:223.64821 19:165.75641 20:93.466917 21:60.466883 22:38.116797 23:15.689124 24:9.5961894 25:4.9257031 
1 1:3310987.5 2:2145.1511 3:5751.1277 4:5546.0365 5:1602.3956 6:1885.9991 7:1652.2342 8:1243.8095 9:2446.0484 10:2480.1825 11:1182.9543 12:1007.167 13:748.66504 14:470.39239 15:510.08756 16:538.84739 17:327.99239 18:204.59955 19:159.8678 20:75.44263 21:56.212995 22:38.864796 23:12.889868 24:8.6243091 25:9.2464976 
1 1:3311160.5 2:1771.6802 3:5448.5921 4:5635.4099 5:1845.9503 6:1598.8952 7:1431.2329 8:1014.2782 9:2630.3775 10:2963.7262 11:1301.8214 12:838.29398 13:588.41335 14:739.77289 15:771.50619 16:465.02248 17:268.64809 18:215.70708 19:157.04954 20:112.24634 21:71.032696 22:54.616996 23:31.480422 24:26.223902 25:25.101571 
1 1:3313022.5 2:2119.0978 3:5226.8133 4:5082.5898 5:1576.7799 6:1520.6121 7:1578.4302 8:1857.7354 9:3119.2673 10:2668.9392 11:1268.3028 12:1129.7529 13:1006.1639 14:833.58996 15:700.13235 16:562.71934 17:276.60145 18:238.9559 19:185.74362 20:92.538905 21:69.028638 22:47.399975 23:13.135752 24:6.8506051 25:3.9630371 
1 1:3311625 2:1810.1119 3:5475.7155 4:5571.2347 5:1966.2571 6:1723.6876 7:1712.8419 8:1797.1748 9:2970.4138 10:3067.3658 11:1407.3337 12:1182.7236 13:896.56922 14:689.05309 15:866.75504 16:646.4644 17:319.1036 18:233.48478 19:122.93284 20:53.248217 21:51.476918 22:42.373842 23:30.076034 24:28.537812 25:25.243299 
1 1:3312623.2 2:2950.5496 3:5640.9196 4:5126.7497 5:1665.5365 6:1679.2063 7:1756.2949 8:1944.9893 9:2890.3072 10:2820.3221 11:1296.0341 12:749.10819 13:541.91292 14:518.12148 15:539.16549 16:510.49359 17:310.95139 18:233.73561 19:145.67183 20:98.575511 21:71.567032 22:51.505982 23:32.369383 24:27.741072 25:28.006 
1 1:3312426 2:2420.4548 3:5249.3024 4:4920.5277 5:1678.0116 6:2030.4958 7:1992.3689 8:1937.1353 9:2846.7342 10:2699.4815 11:1495.1675 12:807.73977 13:686.10218 14:700.1654 15:641.63907 16:536.637 17:356.44029 18:214.91774 19:102.90001 20:75.290284 21:59.466688 22:37.622085 23:14.973983 24:7.5237032 25:3.8561826 
1 1:3312145.9 2:3104.1347 3:6219.8825 4:5780.0365 5:1820.5865 6:2004.0691 7:1850.7218 8:1453.8181 9:2463.218 10:2574.8724 11:1309.7711 12:1031.78 13:821.75323 14:801.87024 15:715.28403 16:492.32031 17:314.17358 18:255.80219 19:112.09306 20:58.987545 21:63.263146 22:58.121191 23:36.864868 24:32.825577 25:30.779759 
1 1:3312109.3 2:2371.3653 3:4647.0831 4:5142.8334 5:2328.5804 6:2411.7823 7:2247.1198 8:1648.4127 9:2823.5767 10:2842.8636 11:1426.4779 12:1028.6856 13:655.76854 14:567.56981 15:572.02509 16:487.23577 17:320.07468 18:244.63987 19:119.9133 20:66.621848 21:50.648482 22:35.131474 23:17.679954 24:10.990803 25:5.9154735 
1 1:3312385.7 2:2799.136 3:5197.3422 4:5522.7166 5:2264.1912 6:2328.2095 7:2611.7799 8:2468.9574 9:3287.3728 10:2692.7038 11:1096.2094 12:867.44966 13:779.92225 14:780.58812 15:644.50522 16:534.61476 17:286.7891 18:219.80995 19:146.72343 20:76.401483 21:56.085832 22:31.932013 23:13.312061 24:8.5021199 25:5.9175255 
1 1:3311978.2 2:3562.5118 3:6460.4349 4:5698.8419 5:2631.2104 6:2601.4089 7:2149.6964 8:2263.4089 9:3407.9616 10:3023.4461 11:1369.5037 12:913.49107 13:820.87582 14:770.46398 15:645.15107 16:506.03575 17:203.70193 18:96.406655 19:100.81942 20:63.877558 21:57.407862 22:38.716106 23:12.867912 24:8.3142484 25:4.513915 
1 1:3308450 2:2773.836 3:6370.243 4:6243.6737 5:2162.4217 6:1791.0539 7:1744.3522 8:1837.3758 9:2955.7619 10:2586.7559 11:1213.4358 12:1034.3372 13:887.36605 14:824.28907 15:763.90749 16:595.16446 17:220.30101 18:167.63716 19:124.51859 20:81.302492 21:66.441628 22:38.917678 23:13.764319 24:7.8886071 25:3.8504107 
1 1:3308861.7 2:2824.1127 3:5982.2801 4:5917.8503 5:2543.6758 6:2021.5678 7:1543.7407 8:1908.714 9:3079.6063 10:2744.3172 11:1557.1808 12:1423.9133 13:975.03865 14:742.88754 15:543.73135 16:406.5189 17:237.03456 18:127.97595 19:115.33742 20:83.392116 21:69.082905 22:57.296727 23:48.133479 24:43.220345 25:43.74797 
0.1000000000000227 1:3313370.1 2:4053.566 3:6023.8166 4:5557.5083 5:2767.5487 6:2303.0037 7:1998.228 8:1808.113 9:2730.1324 10:2644.5155 11:1231.1762 12:797.82532 13:881.93677 14:782.61611 15:660.31803 16:520.65145 17:283.80091 18:210.51411 19:125.30987 20:71.257435 21:62.851431 22:44.968537 23:16.944366 24:12.734445 25:11.826065 
1 1:3307820.3 2:2260.643 3:6369.0426 4:6289.5719 5:2450.8452 6:1878.0853 7:1783.235 8:1681.9281 9:2631.7684 10:2736.7152 11:1345.356 12:1015.3055 13:857.34572 14:841.58991 15:759.63799 16:530.74832 17:287.26163 18:235.2336 19:161.31908 20:79.838224 21:68.175475 22:60.713811 23:35.124882 24:32.464364 25:30.834952 
1 1:3305086.8 2:1814.1814 3:4585.6067 4:4915.5363 5:1933.1916 6:1742.1352 7:1832.9893 8:1780.4296 9:2497.4783 10:2478.3506 11:1130.6028 12:1035.3452 13:852.44591 14:658.65783 15:877.05404 16:622.44273 17:255.94817 18:213.33562 19:131.66912 20:76.86317 21:54.970809 22:51.977843 23:33.191908 24:26.18107 25:28.714003 
1 1:3303904.9 2:2539.2316 3:5622.4987 4:5755.5401 5:2325.5522 6:2094.2398 7:1868.0459 8:1531.5826 9:3053.5671 10:2834.2857 11:1123.6463 12:946.04887 13:650.85418 14:808.31708 15:915.82887 16:625.7087 17:265.82868 18:221.23685 19:132.97785 20:72.046984 21:66.78292 22:52.680982 23:23.888279 24:26.702716 25:26.693018 
1 1:3302516.8 2:2683.6068 3:5310.3783 4:5045.8955 5:1995.007 6:1558.0488 7:1542.0584 8:1591.9202 9:2853.8908 10:2734.6105 11:1137.1304 12:882.75254 13:637.50992 14:671.2649 15:731.27865 16:555.20382 17:206.24908 18:184.33197 19:128.97732 20:79.419956 21:53.491547 22:32.180663 23:12.44817 24:9.2039197 25:5.1569514 
1 1:3307373.5 2:2201.8213 3:5816.1905 4:5720.036 5:2238.9245 6:2447.3418 7:2082.731 8:1532.9657 9:2719.6803 10:2747.3978 11:1310.4468 12:1062.4172 13:842.73966 14:684.60213 15:718.58197 16:542.25394 17:244.3528 18:144.02893 19:106.85258 20:73.391605 21:57.782998 22:47.091338 23:30.111808 24:29.516338 25:29.337877 
1 1:3303857.5 2:2185.2415 3:5564.1304 4:5204.2091 5:1680.9417 6:1930.4978 7:1724.6196 8:1632.2763 9:2986.4045 10:2690.2442 11:1169.4926 12:993.48214 13:703.63592 14:472.45735 15:454.84094 16:505.6174 17:333.32055 18:196.64528 19:132.15493 20:80.552032 21:52.94831 22:46.612872 23:29.609303 24:20.824993 25:18.069273 
1 1:3302938.4 2:2035.6205 3:5699.2552 4:5478.492 5:1711.4386 6:1865.39 7:1587.3547 8:1621.7202 9:3112.8192 10:2561.6945 11:888.70264 12:770.86973 13:737.06231 14:643.99365 15:528.09829 16:465.20456 17:209.113 18:94.478956 19:55.600195 20:57.635594 21:56.365282 22:36.82071 23:16.314101 24:12.43301 25:9.3215876 
1 1:3299760 2:2217.4591 3:5745.2331 4:5568.4848 5:1723.055 6:2233.7581 7:2004.0008 8:1352.5559 9:2671.7378 10:2620.6478 11:1080.499 12:1018.9145 13:869.71734 14:698.05304 15:738.00127 16:567.62396 17:272.56883 18:157.41014 19:103.55658 20:92.918669 21:77.745202 22:44.636 23:16.37268 24:6.9087548 25:2.8128901 
1 1:3297241 2:2020.7564 3:5375.3731 4:5291.9182 5:2460.863 6:2245.894 7:1636.629 8:1546.6358 9:2638.0914 10:2421.9484 11:1094.0943 12:1072.6308 13:918.30199 14:636.64524 15:653.46522 16:534.73927 17:264.35391 18:197.13444 19:114.62584 20:79.26341 21:65.705724 22:58.77281 23:41.477868 24:38.11114 25:37.230708 
1 1:3305868.5 2:3117.4324 3:6298.2436 4:5888.291 5:2187.1763 6:1794.6201 7:1771.076 8:1959.7322 9:2839.396 10:2676.6754 11:1325.6462 12:925.92024 13:809.79031 14:656.20704 15:702.51224 16:547.86543 17:246.60232 18:184.48289 19:102.15372 20:63.124581 21:64.372449 22:61.920482 23:43.861193 24:39.992301 25:42.50949 
1 1:3311863.9 2:2194.6697 3:5949.9569 4:5482.1605 5:1390.7903 6:1793.2006 7:2193.9499 8:1935.0553 9:2930.0155 10:2992.6281 11:1141.6835 12:624.34496 13:581.97029 14:433.44127 15:581.30701 16:539.6265 17:236.83735 18:154.19657 19:120.47366 20:71.552137 21:61.521272 22:50.600217 23:29.640301 24:24.368323 25:28.616729 
1 1:3301289.2 2:3048.4812 3:6333.2991 4:5604.9933 5:1674.828 6:2400.5539 7:2405.1986 8:1804.4002 9:2883.4719 10:2799.908 11:1083.9995 12:711.25478 13:854.34914 14:874.4828 15:733.05911 16:497.69585 17:270.85146 18:173.55237 19:126.31377 20:83.296954 21:76.453249 22:59.195635 23:48.57241 24:44.231549 25:41.657957 
1 1:3298978.3 2:2221.4554 3:6039.5472 4:6085.6677 5:2537.0569 6:2238.452 7:2013.7717 8:1751.7075 9:2562.4153 10:2430.7518 11:1036.5645 12:876.11922 13:746.15987 14:400.02071 15:536.81232 16:523.90612 17:173.81178 18:192.66038 19:160.37229 20:96.672651 21:51.390256 22:28.180653 23:13.602597 24:11.23221 25:8.4381972 
1 1:3299990.3 2:3370.4993 3:6116.6623 4:5787.5692 5:1837.0977 6:1733.7649 7:1819.1174 8:1478.5322 9:2593.2546 10:2514.3044 11:967.24972 12:868.53228 13:972.93242 14:847.4756 15:727.38594 16:526.25153 17:239.4934 18:183.75209 19:126.62281 20:81.322765 21:67.73819 22:43.475606 23:15.498315 24:10.603554 25:8.4462271 
1 1:3312904.6 2:2837.3765 3:5758.7699 4:5991.033 5:2437.2861 6:2200.129 7:1984.0384 8:1576.3145 9:2487.6 10:2193.2325 11:774.13381 12:724.92839 13:636.97576 14:693.91238 15:873.0523 16:618.39618 17:287.45231 18:139.58785 19:127.09555 20:115.43215 21:81.89143 22:51.672698 23:24.737069 24:23.477726 25:20.460449 
1 1:3303501.8 2:2718.1404 3:5395.8381 4:5163.2389 5:1580.8231 6:2136.4176 7:2599.3432 8:2291.8434 9:2901.2138 10:2330.5782 11:1181.1916 12:1270.2477 13:968.50215 14:698.43469 15:810.77432 16:624.73214 17:270.48539 18:185.89869 19:123.63864 20:91.139056 21:62.457436 22:41.436065 23:17.57418 24:12.702737 25:12.550908 
1 1:3302845.4 2:3038.3198 3:6257.0006 4:5553.2122 5:1790.2449 6:1800.8189 7:1888.8033 8:1599.671 9:2365.8547 10:2478.979 11:1081.0217 12:834.01766 13:734.95684 14:616.52505 15:573.33083 16:521.01177 17:311.46243 18:198.54827 19:123.91247 20:93.412884 21:70.851583 22:50.99414 23:26.906552 24:18.703074 25:16.396745 
1 1:3295494.9 2:2606.1979 3:5842.0135 4:5277.1836 5:1640.4017 6:1773.6249 7:1858.5688 8:1889.1002 9:3124.7911 10:2538.6789 11:1023.8332 12:813.72294 13:737.32303 14:946.53106 15:748.9262 16:423.40836 17:277.06005 18:208.03123 19:88.505211 20:56.686868 21:58.855919 22:37.53559 23:16.990706 24:8.1625495 25:2.7998907 
1 1:3300801.2 2:3802.7961 3:6562.5852 4:5769.1377 5:2453.0265 6:2448.0225 7:2066.1031 8:2063.452 9:3502.8707 10:3133.5816 11:1483.906 12:1010.0096 13:701.89749 14:604.055 15:633.25064 16:600.4522 17:341.60617 18:230.0316 19:160.69958 20:119.84519 21:93.253861 22:76.04646 23:58.420682 24:55.522663 25:53.325668 
1 1:3312667.9 2:3804.3041 3:6595.4817 4:5278.7848 5:2053.2328 6:2741.5963 7:2275.3608 8:1827.5138 9:3181.971 10:3041.8181 11:1431.9541 12:878.39713 13:659.31386 14:529.4581 15:438.96155 16:438.52416 17:302.04031 18:209.9941 19:115.60488 20:77.860973 21:76.968966 22:49.140759 23:21.474744 24:16.643144 25:13.699254 
1 1:3299808.8 2:2964.7415 3:6455.0389 4:6078.1403 5:2055.1362 6:2205.2682 7:2086.5505 8:1689.2673 9:2480.7799 10:2618.0945 11:1134.1544 12:694.85174 13:554.30032 14:518.11758 15:694.30686 16:489.99506 17:254.71576 18:225.08308 19:122.38354 20:78.155396 21:76.08487 22:48.201623 23:30.726682 24:29.282675 25:25.952631 
1 1:3293922.4 2:2908.0618 3:6321.9019 4:5705.1235 5:2152.5683 6:2261.3269 7:1998.1295 8:1450.584 9:2592.4585 10:2493.6618 11:1182.073 12:825.83131 13:574.44006 14:705.17013 15:688.71941 16:497.47643 17:265.45269 18:222.81769 19:145.38424 20:83.783929 21:77.04004 22:65.471143 23:44.444243 24:45.028225 25:42.13859 
1 1:3299768.9 2:3067.2151 3:6238.464 4:6370.1677 5:1972.5505 6:1612.9748 7:2085.5817 8:2170.8252 9:3001.6789 10:2642.3808 11:1208.2198 12:882.18873 13:682.19544 14:685.18378 15:667.94014 16:516.29067 17:298.18436 18:236.28188 19:138.68831 20:81.878889 21:61.72224 22:48.26927 23:30.174113 24:29.222786 25:31.704496 
1 1:3294640.6 2:3443.3218 3:6148.1692 4:5409.3036 5:2089.085 6:1845.1459 7:1614.4315 8:1542.7154 9:2622.1723 10:2752.417 11:1384.1664 12:864.44872 13:640.60642 14:600.98584 15:555.6353 16:464.20509 17:299.73464 18:159.93311 19:119.05399 20:99.996675 21:56.29888 22:36.153756 23:16.454804 24:13.728694 25:10.350695 
1 1:3295997.8 2:2426.7779 3:5544.7814 4:6083.6668 5:2142.7669 6:1827.7063 7:1713.5475 8:1346.6992 9:2222.8377 10:2421.9886 11:1400.9507 12:1052.6172 13:706.58449 14:541.0456 15:682.55528 16:627.33222 17:305.64349 18:197.51303 19:91.324233 20:61.466091 21:63.754263 22:46.670392 23:28.500968 24:28.325498 25:25.03556 
1 1:3288593.1 2:2728.544 3:5629.2203 4:5556.5266 5:2509.6601 6:2264.7328 7:1526.5303 8:1237.6048 9:2329.1339 10:2375.0954 11:1274.2059 12:843.74455 13:479.98906 14:521.27112 15:630.32804 16:490.67405 17:285.17784 18:160.2256 19:76.387258 20:75.146129 21:50.541896 22:32.555362 23:16.292514 24:14.382347 25:13.855901 
